<?xml version="1.0"?>
<opencv_storage>
<my_svm type_id="opencv-ml-svm">
  <svm_type>C_SVC</svm_type>
  <kernel><type>LINEAR</type></kernel>
  <C>1.0000000000000001e-001</C>
  <term_criteria><epsilon>9.9999999747524271e-007</epsilon>
    <iterations>10000000</iterations></term_criteria>
  <var_all>450</var_all>
  <var_count>450</var_count>
  <class_count>6</class_count>
  <class_labels type_id="opencv-matrix">
    <rows>1</rows>
    <cols>6</cols>
    <dt>i</dt>
    <data>
      80 165 171 195 245 249</data></class_labels>
  <sv_total>15</sv_total>
  <support_vectors>
    <_>
      2.41003861e-003 4.35595866e-003 1.04516989e-003 -1.10530562e-003
      -2.93298019e-003 -1.45462735e-004 1.24183716e-003 5.34647005e-003
      1.04776944e-003 2.98248208e-003 -1.48783345e-003 4.76373418e-004
      2.57362914e-003 -8.86906113e-004 4.76881309e-004 -3.52560717e-004
      -4.19098273e-004 -5.04425134e-006 -2.27482509e-004 2.59307236e-003
      2.18688138e-003 1.24167849e-003 -7.53695553e-004 -2.17685802e-003
      -1.86658511e-003 -8.82600783e-004 1.52904179e-003 2.12696637e-003
      -4.75800177e-003 2.86705466e-003 -1.15314790e-003 3.81302059e-004
      3.56910110e-004 -1.67857262e-003 3.33660771e-003 2.28078058e-003
      -3.68706463e-003 -1.53483485e-003 -3.23616667e-003
      -1.55399158e-003 6.91356137e-004 -4.74370690e-003 6.28307555e-003
      -3.81485629e-003 3.72362370e-003 -1.59092061e-003 -2.47336202e-003
      5.33356215e-004 2.25471682e-003 2.46565510e-003 -9.40847734e-004
      -9.94336224e-005 -1.72160938e-003 8.63516121e-004 -1.25170045e-003
      3.03869310e-004 -5.04152989e-003 -2.58806907e-003 4.68960177e-004
      -6.92424411e-003 -1.32674223e-003 -3.03992582e-003 1.48064457e-003
      1.85816630e-003 3.59907746e-003 4.47881082e-003 -4.53716237e-003
      1.83590304e-003 -8.37916695e-003 2.27477308e-003 -1.98954809e-003
      1.93410623e-003 -5.49888425e-003 -5.13002335e-004 -2.43998948e-003
      -3.90137255e-004 1.12605910e-003 -6.90014428e-003 -2.47997727e-004
      -3.33884521e-003 -5.93515206e-003 -1.57643924e-004 1.14728999e-003
      -4.35157586e-003 3.34717310e-003 -3.27980914e-003 -6.24416769e-003
      -3.02115805e-004 -5.87150455e-003 -9.72295238e-004 4.36201990e-005
      1.95335102e-004 1.49489986e-003 -3.27593740e-003 -5.60547318e-003
      1.10677455e-003 -4.44703968e-003 1.88520562e-003 -4.97423403e-004
      -5.07434655e-004 3.52892163e-003 4.95811086e-003 -2.96062441e-003
      -1.02758524e-003 3.47659807e-003 -4.50531114e-003 -1.49941770e-003
      1.33935374e-003 -4.51601623e-003 2.34121154e-003 -5.08014695e-004
      -5.41023538e-003 5.35603566e-003 -1.36500527e-003 -7.90275401e-004
      -6.32228749e-003 4.71032690e-003 4.23437869e-003 6.18698541e-003
      2.55643763e-003 2.35909061e-003 -1.33748830e-003 -2.16868520e-003
      1.61287212e-003 5.61674312e-003 -1.33809328e-004 -3.55661917e-003
      -2.01636995e-003 -5.26316511e-003 -4.85093379e-003
      -4.93595516e-003 -4.79114661e-003 -2.99032719e-004
      -3.09555396e-003 1.27218396e-003 -1.61096640e-003 1.60224782e-003
      -4.12312476e-003 1.39682996e-003 2.71032099e-003 1.57606753e-003
      -6.03626017e-004 -1.61297026e-003 3.86317121e-003 1.90079166e-003
      2.86621205e-003 -1.82457222e-003 3.09751346e-003 2.12013154e-004
      -7.20470538e-003 2.42617237e-003 -1.60812182e-004 2.02185102e-003
      -1.12459820e-003 3.10934405e-003 -1.23611989e-003 -2.18252931e-003
      -1.12451159e-003 1.69628859e-003 3.67552694e-003 -1.64837064e-003
      -6.37411885e-003 6.09319843e-003 -1.12677959e-003 1.09193509e-003
      -1.41525816e-003 -1.05931947e-003 -2.40058056e-003 1.89603120e-003
      3.96863965e-004 -5.15776593e-003 -1.66074210e-003 8.34457576e-004
      4.18896973e-003 -5.91915799e-004 -7.72602623e-003 6.39571669e-003
      1.70989032e-003 2.16428205e-004 -1.45194121e-003 2.98426347e-003
      1.00370392e-003 -9.27204499e-004 1.69628754e-003 -1.15408073e-003
      2.48589949e-003 -2.68185721e-003 -3.51918256e-003 7.31794687e-004
      1.82196917e-003 1.30853127e-003 -2.11485429e-003 1.80054526e-003
      -3.16268834e-003 -4.20610886e-004 -9.24210355e-004 1.41281064e-003
      5.44180046e-004 1.21188373e-003 1.09363673e-003 1.84360705e-003
      -6.49073115e-003 -4.04053484e-004 1.19864633e-002 -3.01576382e-003
      1.52712993e-004 -5.85362036e-003 -2.45131250e-003 2.52561993e-003
      -6.63566985e-004 -1.82318897e-003 -5.29454323e-003 4.87826532e-003
      2.33609811e-003 4.49686451e-003 -2.16767378e-003 4.22201958e-003
      1.71699538e-003 -3.84061495e-005 -4.08788957e-003 7.96109787e-004
      -2.02317839e-003 3.45217832e-003 2.64523132e-003 -1.06182334e-003
      1.66660780e-003 4.20846418e-003 9.43599793e-004 1.73622172e-003
      2.81731482e-004 2.08097254e-003 8.40869173e-003 3.61705176e-003
      2.37380766e-004 -5.03879460e-003 -5.38813323e-003 1.92090811e-003
      -7.20271049e-003 2.58340803e-003 -2.52122339e-003 -3.77931539e-003
      5.43662405e-004 -9.99536947e-004 -1.55231659e-003 -9.93000460e-004
      2.02990763e-004 6.13304088e-003 1.52694772e-003 -5.51029528e-003
      1.58272532e-003 -6.64574187e-003 -2.06357101e-003 2.12561525e-003
      4.08428168e-004 -6.34444039e-003 5.38896164e-003 -5.68922726e-004
      -1.85925956e-003 1.36248313e-003 1.63570780e-003 -4.29277727e-003
      -3.15396092e-003 -5.35207009e-003 -6.44461391e-003
      -4.44540230e-004 -9.02721833e-004 3.68399778e-003 5.26849471e-004
      -8.79743951e-004 -9.87051148e-003 6.94970018e-004 -6.76985178e-003
      1.41016638e-003 -5.01586264e-003 4.83015639e-004 -4.41383431e-003
      -5.38963708e-004 -1.94941484e-003 -4.87471139e-003
      -3.74350650e-003 -4.22164658e-003 8.83675821e-004 -2.87311198e-003
      2.09586299e-003 -2.02717679e-003 1.36459467e-003 6.10040443e-004
      -1.31694705e-003 -5.03372354e-003 2.63568712e-003 4.00671782e-003
      -8.91644100e-004 3.23168380e-004 -3.01088090e-003 1.21109118e-003
      -1.36922672e-003 -2.92137149e-003 4.42715362e-003 3.61065293e-004
      -1.42751180e-003 4.58084833e-004 3.59263038e-003 2.73648009e-004
      -1.15627027e-003 -4.39416990e-003 -1.69514527e-003 1.37902354e-003
      -3.13956221e-003 3.21014173e-004 2.44573411e-003 -4.23929561e-003
      -2.45847623e-004 -2.41144584e-003 -2.73232325e-003
      -2.56378483e-003 4.12024558e-003 -1.60811224e-003 -3.68371053e-004
      -2.78266333e-003 2.99127819e-003 1.24036614e-003 -2.08276347e-003
      -6.87825202e-004 -7.43846828e-003 -5.89262519e-004
      -7.77397945e-004 -1.53221050e-003 1.31843926e-003 -3.64571321e-003
      -2.84779817e-003 -1.86689213e-004 -9.92045179e-003 2.96766241e-003
      -2.14082305e-003 -1.40807708e-003 -5.39559172e-003
      -4.99932677e-004 -1.50378764e-004 -2.79754726e-003 2.58192979e-003
      9.91504523e-004 -3.82535160e-003 -4.38618520e-003 4.64253640e-003
      1.73769158e-003 2.27668905e-003 2.01767005e-004 -1.52872584e-004
      1.77257427e-003 1.80068682e-003 1.48731936e-003 -4.75924229e-003
      5.78043237e-003 1.62762485e-003 -3.06081423e-003 -1.24276453e-003
      1.31517102e-003 3.93354194e-003 6.77017588e-003 1.81552430e-003
      -5.43441297e-003 3.22120637e-003 3.33653158e-003 2.74575339e-003
      -2.69522890e-003 1.52846053e-003 -1.57414051e-003 -4.89005819e-003
      -1.80670596e-003 -1.57020590e-003 4.88406373e-003 -3.06553702e-004
      5.18717745e-004 1.61734200e-003 -2.23052877e-004 -4.00427496e-003
      -3.19495727e-003 -4.03206609e-003 2.15396029e-003 5.23310294e-003
      -5.84848411e-003 -1.41555292e-003 -1.27682358e-003 4.29692725e-003
      -2.02179793e-003 1.54538394e-003 7.44544808e-003 -5.40134544e-003
      2.03171349e-003 1.93779636e-003 3.75139806e-003 1.91522669e-003
      -5.74159494e-004 -1.59426860e-003 -1.90115231e-003
      -1.83276820e-003 -8.72854551e-004 -3.13543575e-003
      -1.10827223e-003 -4.49002162e-003 -1.55323383e-003
      -3.42361303e-003 -7.71419553e-004 -3.96780949e-003
      -2.70469813e-003 -1.75297493e-003 2.20706337e-003 -1.06914807e-003
      1.34669896e-003 2.47770268e-003 -6.43847324e-003 -2.61281268e-003
      1.04560249e-003 -5.09424717e-005 1.95564935e-003 4.48676199e-003
      -1.20015276e-004 -2.73410720e-003 -9.82408645e-004
      -3.15981079e-003 -7.19422102e-003 -2.23531760e-003
      -1.17540010e-003 -2.68392125e-003 -1.32933003e-003
      -2.31796177e-003 2.20718747e-003 4.21686284e-003 -1.52088309e-004
      -5.67120442e-004 -3.84504092e-003 4.78977850e-003 -3.05535062e-003
      1.96207827e-003 -5.16062183e-003 1.23983470e-003 -1.59450842e-003
      2.31266138e-003 4.50978521e-003 4.61308751e-003 -5.72581048e-005
      -7.36103102e-004 3.42559721e-003 -3.37612629e-003 2.45003821e-003
      1.74052396e-003 -1.15263031e-003 -2.29634857e-003 1.57491677e-003
      -9.55489930e-004</_>
    <_>
      8.76784325e-004 5.45522314e-004 5.84862987e-003 1.38256713e-004
      -4.60387114e-003 -8.33429117e-003 1.86885172e-003 3.43476189e-003
      3.70561029e-003 7.60459295e-003 -2.09010975e-003 -4.55406401e-003
      -6.13934314e-003 -1.68471932e-002 -1.81250891e-003
      -6.77623320e-003 1.82557735e-003 5.01872879e-003 -2.66408105e-003
      1.74435545e-002 6.41335454e-003 7.48159888e-004 9.19474289e-003
      -1.29542518e-002 -3.45705193e-003 3.16951703e-003 -3.50563810e-003
      -3.83366831e-003 2.41801143e-003 9.38100333e-004 -4.72589363e-006
      1.75041601e-003 5.27185947e-003 -2.92340037e-003 3.28430138e-003
      5.49087767e-003 2.13400903e-003 3.25524644e-003 -2.96156527e-003
      -8.64376035e-003 1.71314355e-003 1.92114548e-003 5.77943213e-003
      -5.10414038e-003 -3.67046660e-003 -2.73680128e-003
      -6.78489078e-003 8.39994475e-003 5.66896470e-003 5.23818424e-003
      -4.73021017e-003 6.32342999e-004 7.30013708e-003 -2.19113263e-003
      1.65557489e-003 -5.61340898e-003 8.58399959e-004 -8.73307511e-003
      2.72552832e-004 -1.53718388e-003 -6.64048269e-003 -2.71694898e-003
      2.89039547e-003 1.45735580e-003 3.22166854e-003 2.54990207e-003
      1.40448241e-003 -1.10004214e-003 -3.59388930e-003 -4.05483530e-004
      -1.45580503e-003 4.34566429e-003 -3.65550257e-003 5.38959680e-003
      -5.77321323e-003 5.91133442e-003 1.07873157e-002 -7.76586705e-004
      5.88277588e-004 -2.85430741e-003 -9.10664443e-003 1.49270508e-003
      7.51914340e-004 -8.04016646e-003 3.56238033e-003 -4.57605673e-003
      -3.52260703e-003 -4.24634200e-003 -6.31969376e-003
      -6.67996099e-003 -2.23378069e-003 7.50852050e-005 2.26565008e-003
      3.24007962e-003 3.90928239e-003 2.37604836e-003 -7.15420861e-003
      -1.60085072e-003 3.06080002e-003 4.46197635e-004 -1.04953321e-002
      1.12511301e-002 5.87840425e-003 9.58760094e-004 4.43837699e-003
      -4.74163657e-003 3.94670339e-003 -6.55075675e-003 -7.62848184e-003
      -1.36224483e-003 -8.28204211e-003 -1.33592151e-002 6.62049279e-004
      1.19192025e-003 -5.55921067e-003 2.79750861e-003 1.14992391e-002
      5.77876158e-003 2.36171228e-003 2.92497477e-003 5.52827306e-003
      3.93160945e-003 4.76353290e-003 3.65973450e-003 8.59092083e-003
      -1.74267311e-003 -1.34841865e-003 -9.24758438e-004
      -9.62792616e-003 3.12831905e-003 -6.34574238e-003 -3.53599503e-003
      4.68430435e-003 -5.55787142e-003 4.87141730e-003 7.83022842e-004
      -3.27115692e-003 -7.02413591e-003 4.40164376e-003 -3.19137494e-003
      -1.00756502e-002 -2.34751264e-003 -2.39724037e-003 2.23612040e-003
      -4.91753453e-003 -4.93082637e-003 -4.36220411e-003 4.27903794e-003
      7.00073782e-003 -1.09630427e-003 -2.02619447e-003 6.86555542e-003
      -5.95960021e-003 1.64593123e-002 -1.70463661e-003 -1.69485584e-002
      -4.21354268e-003 4.04212205e-003 -1.01314730e-003 2.65277340e-003
      -3.90834594e-003 -8.19730666e-003 8.15244205e-003 7.95777515e-003
      -1.34326459e-003 7.38579896e-004 4.53780033e-003 -3.69893620e-003
      -2.99780886e-003 -1.30707421e-003 -2.25336407e-003
      -3.49639915e-003 1.41527096e-003 5.72030386e-003 5.13865659e-003
      -3.33872769e-004 4.75608837e-003 3.17424041e-004 -2.18004966e-003
      -7.81074679e-003 -5.03052864e-003 -3.58125591e-003
      -5.17205242e-003 1.63691281e-003 8.89705680e-003 7.91675225e-003
      -8.16425891e-004 -1.00313015e-002 1.25944396e-004 7.10031623e-003
      1.93855015e-003 2.51928391e-003 7.19982293e-003 -4.63061268e-003
      -1.46803888e-003 -4.30392660e-003 -3.06204725e-002 6.57269219e-003
      3.87059154e-005 3.15919123e-003 -5.72310248e-003 -5.08241402e-003
      -8.01701564e-003 6.15655165e-003 3.46619682e-003 1.06084556e-003
      -2.78066960e-003 -6.22098008e-003 1.15317078e-002 -5.46919322e-003
      6.54666033e-003 -2.56996229e-003 -3.00719938e-003 -5.53497521e-004
      1.10478019e-002 -6.54420024e-003 -6.69580186e-003 -9.32976976e-003
      6.41924515e-003 -1.79849274e-003 -9.81123652e-004 -5.36796404e-003
      1.27912713e-002 -8.08741723e-004 -3.35075823e-003 5.89195639e-004
      8.14965647e-003 -2.14260351e-003 -1.86172442e-003 1.17445178e-002
      4.45289025e-003 1.00442180e-002 3.50181304e-004 5.87772857e-003
      -6.56519132e-003 -1.70064814e-004 -2.31452915e-003 1.02542387e-003
      1.35600695e-003 1.20051939e-003 -1.41268468e-003 -7.47294724e-003
      1.86114875e-003 -4.24294034e-003 6.08205609e-003 1.47562136e-003
      8.35065264e-003 -2.96953111e-003 -7.84740690e-003 -9.87827312e-003
      -5.09891100e-003 2.90734315e-004 -4.79114195e-003 -1.91212283e-003
      6.62706187e-003 5.64370025e-003 1.89252978e-003 1.05251139e-003
      -4.35746927e-003 2.71104113e-003 -3.18934675e-003 2.93165050e-003
      4.72080335e-003 -4.87197516e-003 -1.14818532e-002 7.77745061e-003
      2.86852056e-003 2.44710385e-003 -1.26070585e-002 4.00864374e-004
      4.52308403e-003 -1.02238068e-002 -1.55045989e-003 -4.42185148e-004
      -9.77899181e-004 3.06027895e-003 -1.24009605e-003 -8.77998862e-003
      1.96084171e-003 -6.84637530e-003 -5.17838460e-004 1.10383658e-002
      7.51749985e-003 -2.00493028e-003 1.96892489e-003 -6.75239274e-003
      1.11743687e-002 -8.39296449e-003 4.96660778e-006 4.91531752e-003
      5.86784864e-003 1.98560464e-003 3.41417966e-003 1.35969254e-003
      5.48105640e-003 -9.85572580e-003 -8.37538275e-004 1.23566594e-002
      7.58091977e-004 -1.22031278e-003 4.23998199e-003 2.80328700e-003
      4.48184507e-003 -3.46080493e-003 -3.68082942e-003 1.07787522e-002
      2.88725249e-003 5.87172387e-003 1.36781088e-003 1.17526883e-002
      6.46400498e-004 5.15754521e-003 2.01716190e-004 -3.63008096e-003
      -8.50942079e-003 4.13180154e-004 -3.41455429e-003 3.35677876e-003
      5.55814756e-003 1.23241788e-003 4.60484484e-003 1.56903232e-003
      -4.88374103e-003 -4.81384713e-003 9.60463658e-004 2.89535173e-003
      -1.95291336e-003 7.62322871e-003 2.90806778e-003 1.72309787e-003
      4.28877043e-004 -1.68185716e-003 1.23251788e-003 -4.91510984e-003
      6.98548229e-003 -7.22956937e-003 -1.88178767e-003 2.10775970e-003
      4.60862089e-003 3.41688097e-003 9.23304411e-004 -2.44474481e-003
      -5.40329004e-003 -4.83074179e-003 2.09201919e-003 6.39471784e-003
      9.27886274e-003 -2.49480526e-003 8.96071084e-003 -2.05457583e-003
      2.12335656e-003 -1.43940607e-002 8.73832311e-003 -1.15884934e-003
      -2.60239793e-003 1.83805334e-003 9.90099274e-004 1.09651635e-004
      8.43792502e-003 6.71889912e-003 -1.62520481e-003 8.31430196e-004
      -9.02050160e-005 6.67648204e-003 -2.46384204e-003 -3.11845797e-003
      6.93428656e-003 -1.54089753e-003 -9.34935547e-003 3.54912458e-003
      -1.12127280e-002 -7.03589292e-003 -3.91098205e-003 4.88359772e-004
      1.26800509e-002 -8.63560475e-003 -4.32054419e-003 2.11278116e-003
      7.38112954e-004 -1.13139423e-002 -7.29950331e-003 2.26087123e-003
      -6.00623526e-003 1.03189368e-002 1.02722400e-003 4.41171322e-003
      4.89016762e-003 -2.82335002e-003 4.80006961e-003 -1.96962152e-003
      4.67049656e-003 -5.20274101e-004 5.11293206e-003 3.92784690e-003
      2.50391220e-003 7.50173628e-003 -7.83684850e-003 5.90719050e-003
      -7.80179072e-003 1.00934841e-002 -1.93337433e-003 1.39036938e-003
      -2.44113081e-003 -3.59245273e-003 3.47220735e-003 2.95438804e-003
      9.15907975e-003 1.24493847e-004 2.51617213e-003 4.84660530e-004
      -1.50087255e-003 -6.34067634e-004 -7.40650529e-003 1.73613269e-004
      1.85159454e-003 4.46549989e-003 -6.16252795e-003 -3.73014528e-003
      1.55663653e-003 7.63891824e-003 -1.33145356e-003 1.41109969e-003
      -2.81263562e-003 -1.06529554e-003 -3.93097196e-003
      -1.33627257e-003 -9.35971271e-003 -4.91515361e-003 3.53391096e-003
      -1.81168306e-003 -5.62556321e-004 3.89256235e-003 -4.09721571e-004
      4.22406755e-003 -5.60409622e-003 5.88557357e-003 -7.20544078e-004
      -1.01002045e-002 -1.55483675e-003 2.44702329e-003 2.85825739e-003
      4.82697785e-003 4.23383992e-003 -2.52997000e-002 3.79087846e-003
      -2.35128473e-003 -3.47128115e-003 2.50320625e-003 -5.23427327e-004
      4.01854236e-003</_>
    <_>
      3.42738931e-003 3.36464704e-003 -3.78887472e-003 2.77008628e-004
      -3.05974926e-003 1.69996184e-003 2.71810708e-003 -2.45544454e-003
      3.16078775e-003 4.67387214e-003 -6.47574384e-003 -5.54933446e-004
      -3.76487407e-003 -1.04385021e-003 -1.34507718e-003 1.78422430e-004
      -4.97106346e-004 3.44283733e-004 -3.88962543e-003 5.15247462e-003
      3.29534523e-003 3.02427891e-003 4.96654073e-004 -1.96156368e-004
      1.91761169e-003 -3.27852578e-003 9.08406393e-004 -3.53211956e-003
      -7.08238687e-003 1.48274950e-004 3.03188758e-003 -4.44504945e-003
      5.05840406e-004 -3.18770623e-003 4.61758906e-003 1.95515412e-003
      1.17361103e-003 -5.54634770e-003 1.16130651e-003 -1.35008572e-003
      -4.43976652e-003 1.08949712e-003 4.03576251e-003 -7.19131110e-003
      -1.71429443e-003 1.40223172e-004 -6.80998014e-003 -7.91720231e-004
      3.92921362e-003 2.93092127e-003 -1.00292824e-003 -5.86569186e-005
      -2.14169757e-003 2.23621470e-003 -6.14791003e-004 -5.86715946e-003
      -1.15879707e-003 -1.89561676e-003 -8.11516249e-004 2.47938139e-003
      7.47358985e-003 -9.03295761e-004 4.44276305e-003 -7.31230655e-004
      1.79619796e-003 -4.76583792e-003 3.49250226e-003 -1.98085443e-003
      -1.97628699e-003 -2.61166599e-003 2.87001696e-003 -3.66561534e-003
      6.72443770e-004 -1.27804477e-003 -6.31207228e-003 -4.85655712e-003
      2.15574168e-003 3.93257709e-004 -3.23416013e-003 -4.05713078e-003
      -1.81024033e-003 1.64434512e-003 6.20497251e-003 -6.86022919e-003
      -2.83626630e-003 2.10807542e-003 -5.50254714e-003 -3.73664894e-003
      -1.07280761e-002 -5.38880588e-004 1.88864814e-003 1.85277651e-003
      -6.83789316e-004 -1.01464242e-003 -2.30011716e-003
      -5.27133886e-003 -7.65262777e-003 -3.48654320e-003
      -1.96850397e-005 -3.23168654e-003 -1.30633870e-003 7.97296583e-004
      2.71520554e-003 3.60326073e-003 2.08640331e-003 3.81994480e-003
      -5.56414248e-003 -5.69841778e-003 1.49342674e-003 -4.24987375e-005
      -7.58841913e-003 -4.66129184e-003 1.76446885e-003 1.74433878e-003
      -1.43103162e-003 2.69003841e-003 6.32224837e-003 3.59917153e-003
      6.89976430e-003 1.87751162e-003 2.23706476e-003 -5.65830059e-003
      2.26780074e-003 -5.34535246e-003 5.80228912e-003 -6.89883297e-003
      -7.12284353e-003 2.31302879e-003 -2.27437378e-003 8.98618426e-004
      2.19799299e-003 3.72824026e-003 -1.38838906e-004 -3.10998340e-003
      1.50702917e-003 -4.24366997e-004 2.78274086e-003 -2.09889165e-003
      -1.92724681e-003 -3.89699847e-003 1.56916713e-003 2.82807741e-004
      -9.34508536e-003 4.66300407e-004 4.33339877e-003 -1.34584284e-003
      -3.59268486e-003 1.62531598e-003 4.81402921e-003 3.96744494e-004
      1.27927773e-003 -2.12331861e-003 -1.41397002e-003 3.70859844e-003
      -5.51155361e-004 1.42058736e-004 -3.53302923e-003 -1.54854544e-003
      5.54761803e-003 -5.07784192e-004 1.82517222e-003 -3.08047002e-003
      1.53656383e-005 -2.23482284e-003 1.88563287e-003 2.54581170e-003
      1.95378042e-003 4.34432831e-003 -5.50858444e-004 2.07747682e-003
      1.62003515e-003 8.23349867e-004 3.74827813e-003 -4.82466276e-004
      -2.37603276e-003 -1.88277790e-003 7.34351866e-004 -1.69689406e-003
      -1.99230085e-003 -1.84576155e-003 -3.96926468e-003 9.01429215e-004
      -3.32127325e-003 3.47262761e-003 9.55926487e-004 -2.09887815e-003
      -4.71036357e-004 -6.18468598e-003 3.30563671e-005 1.11597858e-003
      -4.32733912e-003 -3.22629960e-004 -4.85391961e-003
      -1.18607178e-003 -1.49851409e-003 3.90479458e-003 4.77282004e-003
      -4.50561661e-003 4.55259113e-003 -5.58666559e-003 -1.97835732e-003
      5.98593266e-004 -2.50920095e-003 5.08987531e-003 2.03980668e-003
      5.70437266e-003 1.42635894e-003 -2.50442419e-003 1.42904138e-003
      4.38455259e-004 2.10160710e-004 -5.87398605e-003 1.00084685e-003
      7.83183705e-003 3.89772165e-003 -1.40790455e-003 2.52488675e-003
      -3.35805072e-003 -2.04820419e-003 -1.69028237e-003 1.21307501e-003
      6.87749882e-004 5.46924956e-003 1.16205923e-002 -3.52617656e-003
      1.32553090e-004 1.86941214e-003 -1.99843012e-003 5.21933311e-004
      1.06950861e-003 -1.59007881e-003 2.25463416e-003 2.07956298e-003
      -1.22305600e-003 3.06940987e-004 2.99682096e-003 -3.04519292e-003
      4.68886457e-004 4.75338101e-003 2.85284710e-004 1.34536566e-003
      -3.02138133e-003 -1.66053476e-003 -1.73609029e-003 8.54022874e-005
      2.79505830e-003 3.79737117e-003 -5.13775100e-004 -7.68237514e-003
      9.98734497e-004 -7.02922791e-003 -1.09430787e-003 1.74090231e-003
      2.12032371e-003 -5.37218666e-003 3.25153989e-004 -1.63154909e-003
      -3.89236631e-003 4.23759921e-003 3.23647866e-003 -2.30085361e-003
      -3.89082544e-003 -6.28066063e-003 -9.75485455e-005
      -2.54972558e-003 2.88018433e-004 4.04902827e-003 3.30038951e-003
      -7.31511600e-003 -9.19570681e-003 3.76060093e-003 -5.37853083e-003
      2.15203218e-005 -1.03749672e-003 -4.67953098e-004 -3.65047413e-003
      3.05931689e-003 -1.94281864e-003 7.17872113e-004 -5.64807607e-003
      1.26424991e-003 -9.60691832e-004 5.82750840e-003 4.94344067e-003
      -1.64311030e-003 -5.69186406e-003 -7.72463682e-004 1.32366968e-003
      -7.79170543e-003 -2.14342331e-003 1.04719624e-002 -3.96428077e-004
      3.39348684e-003 -3.31113208e-003 -1.61640113e-003 -2.67577777e-003
      -3.88579862e-003 1.15612696e-003 1.88206427e-003 4.66998294e-003
      1.60392956e-003 6.29751128e-004 3.35229933e-003 2.04829988e-003
      1.94101187e-004 5.97644690e-003 2.98553170e-003 1.73751195e-003
      -5.56038634e-004 2.73348507e-003 -7.08727166e-004 -4.03958140e-003
      1.27544918e-003 -6.08699955e-003 -8.71019252e-003 1.39257871e-003
      -1.81419333e-003 6.99514203e-005 -4.21522092e-003 -2.47431337e-003
      -6.21192739e-004 -1.57358369e-003 -8.45800460e-005 3.09926248e-003
      -2.61038984e-003 -3.69921618e-004 -1.23239704e-003
      -1.72089925e-003 -2.60239793e-003 -3.01037473e-003 1.99489514e-004
      -1.46572373e-003 -4.22710844e-004 -2.91512045e-003 2.59451801e-003
      -5.88030694e-003 -3.84937623e-003 5.66589972e-003 -1.17278949e-003
      2.28508771e-003 -2.37837108e-003 -3.21715348e-003 -6.13779901e-003
      -2.06197286e-003 -1.19733124e-003 3.14971572e-003 5.19006047e-003
      -8.61901441e-004 1.03021273e-003 -1.90170901e-003 1.85338210e-003
      -4.81799198e-003 1.62386498e-003 -1.00385188e-003 -1.29350019e-003
      3.56655265e-003 5.10662748e-003 -2.79688509e-003 9.10518598e-003
      3.26806889e-003 5.71139506e-004 2.40912382e-003 -2.30000867e-003
      7.32475310e-005 -5.64959459e-003 7.01223442e-004 -4.17678850e-003
      -5.27294353e-004 2.92961515e-004 5.81818726e-003 -1.79371840e-004
      5.87565883e-004 -8.61622335e-004 6.87913038e-004 -1.15519552e-003
      -6.87557040e-003 -2.62665912e-003 9.02805245e-004 -2.82709557e-003
      3.60233546e-003 -1.68655335e-003 4.74933628e-003 8.84656271e-004
      3.56772356e-003 -5.24063082e-003 1.82413365e-004 -5.74656238e-004
      -3.50736757e-003 -1.22545884e-004 8.44386872e-004 6.17604330e-003
      2.23150477e-003 -4.31881985e-003 8.15999811e-004 1.51331024e-003
      -8.97236401e-004 -1.25071529e-004 3.72593699e-004 -6.75899023e-003
      -3.21592740e-003 -1.92510372e-003 -3.32432892e-003
      -1.23630441e-003 -2.19813106e-003 3.85924359e-003 3.94011149e-003
      4.76883957e-004 -2.02842010e-003 -2.32483819e-003 1.61220995e-003
      3.68931796e-004 1.76385313e-003 -7.48397363e-003 -3.78948916e-003
      2.95022875e-003 4.45165113e-003 -1.81149470e-003 7.68468250e-004
      -1.08114281e-003 -4.32592165e-003 -6.01802301e-003
      -5.35213342e-003 5.65032125e-004 -8.17014195e-004 -6.10889774e-003
      8.22400674e-003 -2.58809119e-003 4.45320504e-003 2.78092502e-003
      1.87491102e-003 2.15885579e-003 1.20515368e-004 -6.96535208e-005
      6.94147265e-003 -5.63906692e-003 -9.17972473e-004 2.43287254e-003
      7.66581669e-003 -4.14254144e-003 -2.35345797e-003 -4.61466983e-003
      2.37325835e-003 2.96872784e-003 -3.97490524e-003 -2.93750339e-003
      5.81042701e-003 -1.93643675e-004 -2.02263752e-003 1.79720286e-003
      1.26403407e-004</_>
    <_>
      2.71033542e-003 4.70550545e-003 -1.84517039e-003 2.37286859e-003
      -6.93061948e-003 -2.76784902e-003 -1.76725583e-003 2.98395357e-003
      1.35658518e-003 1.11397174e-004 -1.21056717e-002 -6.77846279e-003
      -1.16276660e-003 -3.67881847e-003 -1.19557860e-003
      -2.59804679e-003 3.73719144e-003 7.09729968e-003 -2.32814462e-003
      6.87155779e-003 4.59660869e-003 2.36482616e-003 1.22202816e-003
      6.76612696e-003 3.27332225e-003 -8.11260194e-004 2.41475645e-003
      1.97191513e-003 -3.73935269e-004 -3.19112372e-003 -1.17402477e-003
      4.90668742e-003 1.53634173e-003 -3.52967792e-004 1.32273801e-003
      -1.50525407e-003 -1.20764242e-004 6.23997580e-003 3.95069923e-003
      -1.19303889e-003 2.61659594e-003 -3.34565714e-003 7.84122664e-003
      -4.64573456e-003 2.42200354e-003 9.07102693e-003 -2.21471465e-003
      -4.83094621e-003 2.64288392e-003 -7.35776313e-003 -3.31085036e-003
      -6.41899230e-003 -5.09004900e-003 3.74347251e-003 3.26106930e-003
      -6.93203043e-003 -1.52667984e-004 -2.10040458e-003 8.38967389e-004
      -2.30452791e-003 -7.38342758e-003 2.42481730e-003 3.61557250e-005
      -3.06696212e-003 6.22449722e-003 1.96193834e-003 9.82444966e-004
      4.59703896e-003 -8.34794622e-003 3.25387996e-003 1.24277291e-003
      2.39048293e-003 -2.17314856e-003 5.60843432e-003 -7.82458019e-003
      -3.79203563e-003 2.01106700e-003 -7.66371470e-003 -2.48470879e-003
      -2.13149423e-003 -9.99404816e-004 1.63631863e-003 -1.79979706e-003
      3.08302697e-003 8.49573174e-004 2.47555273e-003 -8.29820614e-003
      -6.58862852e-003 -1.01843039e-002 -6.48425659e-004
      -1.31921552e-003 1.20724982e-003 -2.90264958e-003 -1.69427716e-003
      -6.42958237e-003 2.89172889e-003 -2.68207048e-003 1.51657662e-003
      1.31593971e-003 5.86610241e-003 -7.62662967e-005 3.51436174e-004
      5.58092771e-003 5.01373410e-003 -1.28396729e-004 1.78565329e-003
      -3.68906534e-003 1.20004371e-003 -2.15713517e-003 6.19724719e-003
      -1.25880644e-003 1.04048348e-003 5.77381207e-003 -4.19627526e-004
      -3.42935906e-003 -1.46459285e-002 6.19354565e-003 1.71544973e-003
      7.99672119e-003 4.36015986e-003 -1.26033637e-003 -1.12139818e-003
      -1.65206345e-003 -1.70552952e-003 6.47406559e-003 8.19002395e-004
      -3.01980460e-003 -2.60211620e-003 -4.87875985e-003 2.83082435e-003
      -2.34301086e-003 -1.32670719e-003 2.04902957e-003 2.73712794e-003
      1.89412071e-003 -1.91034703e-003 -2.81322777e-004 -8.44945386e-003
      -1.85567292e-003 -1.51130569e-003 1.20712118e-003 -9.30006616e-003
      -2.53959792e-003 9.83698992e-004 -1.46091799e-003 -1.88235054e-003
      3.60518764e-003 -3.99138592e-003 2.92553846e-003 -5.66928415e-003
      8.84971349e-004 -1.45345708e-004 -1.93769648e-003 3.60962749e-003
      -3.16778431e-004 -1.53357643e-004 6.65787549e-004 4.37618990e-004
      1.62347846e-004 -7.50998210e-004 2.79318797e-003 1.05333060e-003
      9.01772920e-003 -1.17602234e-003 4.16758005e-003 -2.79207830e-003
      2.56164698e-003 1.15210388e-003 -6.27852604e-003 1.33541645e-003
      -2.35763000e-004 9.74686642e-004 5.90140885e-003 -1.37637107e-004
      -1.39793812e-003 2.18396517e-003 1.37235981e-003 -3.97593598e-004
      -3.31334275e-004 -8.54809955e-003 1.74440781e-003 -3.32335872e-003
      -5.34219248e-003 -4.84952657e-003 7.94954784e-003 1.36142969e-003
      5.49528003e-003 -3.62766732e-004 -3.28111091e-005 5.38289081e-003
      5.16035687e-003 7.13070796e-004 1.94160093e-003 -3.74551979e-003
      -4.59939288e-003 3.42012476e-003 2.52335612e-003 3.18877632e-003
      3.60395224e-003 7.44147087e-003 1.60283700e-003 -3.65332072e-003
      -7.20768608e-003 8.32166150e-003 3.18499610e-006 1.98321790e-003
      4.09019063e-004 -1.05234282e-002 2.53783679e-003 -6.13991171e-003
      6.67096348e-003 -4.78599221e-003 3.20941536e-003 2.20609386e-003
      1.00178011e-002 -2.27156677e-003 1.84453290e-003 -1.19223108e-003
      3.02111008e-003 7.73608510e-004 3.12335277e-003 6.48087647e-004
      -4.06336010e-004 5.97181206e-004 -5.90487558e-004 -7.33979919e-004
      1.68234960e-003 3.24383756e-004 -2.27978802e-003 6.14836253e-003
      2.21904274e-003 7.08894979e-004 -7.79894996e-004 2.07926799e-003
      3.95846466e-004 -2.97747087e-004 -1.29976799e-003 1.13748654e-003
      3.33733577e-003 -1.14672375e-003 -3.21687525e-003 -7.35653471e-003
      -1.34025619e-003 -8.68053641e-003 2.82716542e-003 2.05903989e-003
      1.73758995e-003 -1.31650351e-003 -1.03825899e-002 8.35195766e-004
      -1.07618617e-002 4.24673641e-003 -3.85774462e-003 -3.21824104e-004
      9.03969922e-004 -6.23582304e-003 3.69332801e-003 -1.79197814e-003
      2.39504036e-003 -1.62887690e-003 2.15609465e-003 7.84815464e-004
      -3.06369970e-003 -6.86703064e-003 -3.76440282e-003
      -1.09125639e-003 -2.40325416e-003 4.16963501e-003 -4.89683356e-003
      -9.09807999e-003 1.18565354e-002 -1.39645173e-003 4.42424929e-003
      -1.82921044e-003 1.31340732e-003 4.42379899e-003 -1.36840215e-004
      -1.98779651e-003 -2.14221436e-004 -4.91276802e-003
      -2.07135384e-003 2.02436792e-003 6.56162435e-003 -1.86742458e-004
      3.45230545e-003 -1.04691489e-002 -8.91110903e-005 5.16336237e-004
      -5.90440352e-003 -1.44431181e-003 6.71701552e-003 4.76340670e-003
      9.44150903e-004 -2.26541073e-003 3.30485636e-003 -3.22885200e-004
      -4.76866635e-003 1.27278105e-003 -1.84426294e-003 1.74710978e-004
      2.36900989e-003 2.49288720e-003 -3.43959057e-003 5.42610243e-004
      -1.75302848e-003 -1.46017992e-003 -4.45465744e-003 2.99576647e-003
      2.82840477e-003 4.34251782e-003 1.41225208e-003 4.66844486e-003
      5.94108412e-003 2.60434672e-003 -1.16478493e-002 -5.12670400e-003
      3.73673465e-005 2.56538205e-003 -1.58006011e-003 4.26560035e-003
      2.38530966e-003 -4.23808210e-003 1.09340402e-003 -7.78107613e-004
      -1.33324706e-003 1.80541200e-003 -2.42561731e-003 5.28898835e-003
      2.57099600e-004 -5.71831502e-003 -2.81536276e-003 -1.00036745e-003
      -4.50403662e-003 -8.34888127e-003 9.70305235e-004 -3.63172311e-003
      2.61470396e-003 5.19278180e-003 1.97491795e-003 -1.55587774e-003
      1.63878745e-003 -2.58663250e-003 -6.44796202e-003 -2.07407586e-002
      2.77670217e-003 1.26269646e-003 1.07565057e-003 2.91882316e-003
      8.06809962e-003 -5.51470381e-004 4.34287125e-003 -1.23623367e-002
      2.04973598e-003 -6.45860238e-003 -7.97163812e-004 1.99005171e-003
      6.36301702e-003 -3.87658225e-003 9.92475892e-004 1.36891948e-002
      -3.42773623e-003 3.28449998e-004 -1.57408460e-004 1.09100319e-003
      2.68418901e-003 1.43448974e-003 -5.13246888e-003 -2.42719907e-004
      -6.74434518e-003 4.05177986e-003 -1.04059442e-003 -1.04483578e-003
      -1.30824116e-003 4.29605274e-003 2.54288479e-003 -3.32549843e-003
      -3.92359187e-004 -7.92092923e-003 -2.55976734e-003
      -2.71284441e-003 -6.10354450e-003 1.06306141e-003 -4.79613012e-003
      2.14565359e-003 -4.69065830e-003 1.12424814e-003 2.92554055e-003
      3.93224461e-003 3.86307272e-003 3.96023085e-003 1.01684667e-002
      -1.53441844e-003 -8.60697066e-004 3.68997548e-003 3.72208073e-003
      -3.04578082e-003 1.09870383e-003 5.99748082e-003 -9.34593918e-005
      4.96551022e-003 4.77212307e-004 -1.00492488e-003 -1.70042948e-003
      5.86102142e-005 -1.92762760e-003 7.44223013e-004 -3.32978577e-003
      -3.33099579e-003 -3.90499388e-003 3.28759430e-003 5.36769442e-003
      -4.41288529e-003 -2.14697910e-003 -7.81259499e-004 4.88601252e-003
      -6.47205918e-004 5.98747756e-005 -8.35410506e-003 5.20207640e-003
      4.63230856e-004 -2.65323068e-003 4.72800108e-004 -3.57332407e-003
      -2.46028788e-003 -1.33709039e-003 2.55986140e-003 -4.33004112e-004
      -1.88307825e-003 -3.56566859e-003 -1.93610322e-004
      -1.46702444e-003 -7.03419978e-003 -1.47040439e-004 2.18680856e-004
      -1.03507214e-003 6.45406451e-003 -4.16610064e-003 -6.59643207e-004
      -2.65779486e-003 7.86793046e-003 3.24273715e-003 -1.76489225e-003
      3.73194530e-003 -1.71092097e-002 5.37649728e-003 -6.49323571e-004
      -2.11869436e-003 4.32402710e-004 -5.18995896e-003 -7.28338200e-004</_>
    <_>
      4.11421899e-003 -2.24757777e-003 -4.97947773e-003 -9.65837040e-004
      1.06538471e-003 2.75126239e-003 5.11104940e-004 3.67836235e-003
      2.80755432e-003 3.15260870e-004 -1.86347752e-003 1.53329369e-004
      -1.55915355e-003 -2.54744734e-003 -5.53306192e-003 2.51620286e-003
      3.66916670e-003 -1.48084643e-003 1.29797612e-003 2.79950607e-003
      2.39513419e-003 -1.01872734e-004 2.19885493e-003 6.59877725e-004
      2.91042641e-004 4.04595085e-005 9.38097728e-005 -3.73005541e-003
      -4.47589345e-003 -1.95882819e-003 -3.53339780e-003 2.96546379e-003
      3.05692403e-004 2.37483036e-004 3.13948328e-003 1.63291174e-003
      -5.95812337e-004 2.37819646e-003 1.95739954e-003 -4.11862554e-003
      -1.64468918e-004 1.39429385e-003 5.37964236e-003 -8.87940812e-004
      -1.68068567e-004 2.84200464e-003 -2.62742327e-003 9.44327656e-003
      -8.17890454e-004 3.37740919e-003 -2.11909320e-003 -5.53616695e-003
      -4.29921318e-003 3.20821838e-003 -1.25302619e-003 3.02744214e-003
      -7.12659350e-003 -5.10807289e-003 -3.81782418e-003
      -4.72780690e-003 -9.66916487e-005 -2.55383993e-003
      -2.01927335e-003 3.06401914e-003 3.34149506e-003 2.00973800e-003
      1.28469593e-003 2.74812453e-003 -4.78959363e-003 2.46139918e-003
      -8.87276110e-005 5.18700061e-003 -3.50497337e-003 -2.65296525e-003
      -4.26235283e-003 -5.23706898e-003 6.49646914e-004 -6.29695645e-003
      -5.81996189e-003 -1.69839070e-003 4.02176660e-003 3.33741284e-003
      -3.64966865e-004 -8.36141873e-003 -5.43974493e-005
      -4.13977960e-003 -1.95259741e-003 -3.58457852e-004
      -1.08420569e-002 -8.60709755e-004 -6.59638969e-003 2.81705614e-003
      -1.91688683e-004 -5.74971270e-003 -4.99422150e-003 2.20959028e-003
      -6.46907277e-003 1.68514060e-004 8.14405922e-003 -9.23471292e-004
      2.36804551e-003 1.81695784e-003 -2.51461822e-003 2.59092357e-003
      3.02322931e-003 1.33462937e-003 -5.52417291e-003 4.28917166e-003
      -5.93488477e-003 -2.84284330e-003 -1.15087209e-003 1.95497554e-003
      3.94998258e-003 8.85520421e-004 -5.97212138e-003 -1.47499365e-003
      -4.13101166e-004 5.74709754e-003 1.79175544e-003 1.82583381e-003
      2.48774467e-003 -2.37581064e-003 -3.40711820e-004 3.85249779e-003
      3.54361953e-003 3.98846297e-003 -1.04308012e-004 -3.37321614e-003
      5.01543923e-007 1.38828636e-003 -1.64681673e-003 2.17629946e-003
      7.87523948e-003 1.02905848e-003 2.91136745e-003 -5.73635101e-003
      -1.37851713e-003 -7.56145082e-003 2.17180024e-003 1.84759859e-003
      4.26878873e-003 -1.93781056e-003 -4.67790477e-003 4.97695757e-003
      -3.32899886e-004 -6.04850845e-003 -2.87449693e-005 4.65091830e-003
      3.07536247e-004 -4.45322692e-003 -3.30600142e-003 -1.98028679e-003
      -3.24599241e-005 -1.01623661e-003 -2.57440098e-003 1.32957633e-004
      8.82090302e-004 -4.27505234e-003 3.64642637e-003 2.95126461e-004
      8.00626643e-004 -5.12786908e-003 -4.25374485e-004 3.03208688e-003
      3.81844887e-003 -4.78953170e-003 -2.69438699e-003 1.75005326e-003
      -2.78480188e-003 9.29043686e-004 9.40780679e-004 2.70176074e-003
      -5.29843965e-004 5.61144063e-003 -9.08449874e-004 -1.14415574e-003
      9.16497130e-003 -9.93607100e-004 -1.95895438e-003 -6.97388023e-005
      -4.40877955e-003 -1.97169278e-003 -3.66182439e-003 2.69407319e-004
      4.20975080e-003 4.76644235e-003 2.03075446e-003 -6.23517297e-003
      3.42735299e-003 -4.19002201e-004 -1.96344778e-003 2.53547594e-004
      -1.11383223e-003 -5.01257274e-003 1.30269013e-003 2.30584177e-003
      4.05229256e-003 -6.65101281e-004 3.51124955e-003 1.13916234e-003
      2.26854463e-003 3.03754816e-003 -8.17907625e-004 8.51367414e-003
      -5.52987505e-004 2.30897730e-003 -1.61472068e-003 -4.61030612e-003
      -2.59304955e-003 -1.35209982e-003 2.89998623e-003 -4.00279649e-003
      5.06569725e-003 5.44772949e-003 3.79690807e-003 -3.09117511e-003
      2.53023743e-003 -3.09971801e-004 -4.92391875e-003 -4.95474460e-003
      -3.22991074e-003 2.57638074e-003 3.27263353e-003 2.32323888e-003
      4.70243540e-005 -7.16289738e-004 1.95485703e-003 3.25993472e-003
      -7.75891123e-003 -5.43512125e-003 2.37730122e-003 4.83508734e-003
      1.01020944e-003 -1.84557878e-003 2.22849613e-003 -4.47224639e-003
      -3.63861187e-003 -1.41429761e-003 -1.90404663e-003
      -2.17399211e-003 1.92384527e-003 -1.28911971e-003 8.65579292e-004
      -3.74098797e-003 2.09695916e-003 1.31478682e-002 3.05017014e-003
      -7.35587499e-004 -6.41024346e-003 2.90854741e-003 -5.43704117e-003
      5.90755837e-004 -5.77426143e-003 -4.90240520e-003 -2.85318424e-003
      4.14791005e-003 1.70996983e-003 -1.53195206e-003 -1.26723840e-003
      2.68205348e-003 -4.00244072e-003 -2.00016401e-003 -6.24116510e-003
      -4.98806592e-003 -6.34535449e-003 2.58610048e-003 7.26651028e-003
      2.79549323e-003 8.48636613e-004 -5.15843043e-003 1.04859204e-003
      -1.06576202e-003 -9.79609089e-004 -1.99152413e-003 6.36711717e-003
      7.52022388e-005 3.70376511e-004 5.58038708e-004 -3.85291246e-003
      -8.37606471e-003 -5.84252470e-004 2.91941455e-003 9.61843936e-004
      -4.61298652e-004 -4.01049713e-003 -2.20860285e-003
      -7.65070377e-004 -4.33865329e-003 -5.40959416e-003 1.76211714e-003
      1.13790948e-003 7.98818888e-004 9.68531240e-005 -6.16997387e-003
      2.18971120e-003 -5.36053674e-003 -3.71423690e-003 6.07616827e-003
      -6.15167106e-003 6.93020504e-003 -1.77357535e-004 -8.40140332e-004
      4.50997520e-003 -9.83117032e-004 -1.00664282e-003 -2.35908339e-003
      -2.14600749e-003 -2.59903166e-003 -2.10998836e-003 3.07821366e-003
      -1.56122388e-003 3.73725721e-004 4.03179228e-003 -6.90477900e-003
      5.39211440e-004 -3.52241448e-003 -3.12317070e-003 -4.65517602e-004
      -2.59391405e-003 1.63849979e-003 1.13794976e-003 -5.76844206e-004
      -2.24716100e-003 -5.25287632e-003 -6.00140262e-003 2.28241761e-003
      -2.19399482e-003 4.53389110e-003 -5.92814200e-003 -6.99988334e-003
      2.17940658e-003 -1.03372028e-002 -5.64380595e-003 -2.64238100e-003
      4.64495330e-004 2.12852075e-003 2.00571521e-005 5.49829006e-003
      -3.68730654e-003 2.44151917e-003 -8.37988406e-003 -3.59178241e-003
      -6.41443254e-003 -1.31594623e-003 1.13356428e-003 -3.79788806e-003
      3.60067323e-004 2.71327468e-003 8.17431253e-004 -3.05679248e-004
      3.06259259e-003 -3.15550622e-003 3.15076462e-003 -2.37370399e-003
      -3.72959953e-003 5.16924018e-004 9.16797901e-004 -3.83237423e-003
      6.39187265e-003 9.30655375e-003 -2.42211181e-003 7.59999326e-004
      1.62010186e-003 1.58505572e-003 -1.24918087e-003 5.05874539e-003
      -1.67134916e-003 -1.52027409e-003 2.89086159e-003 2.72301520e-004
      -2.35195365e-003 -2.82750488e-003 -1.08455803e-004 7.24227109e-004
      -7.93157844e-004 -7.68412370e-004 -3.46023613e-003 3.45743727e-003
      -2.91185640e-003 -1.83246972e-003 -3.76528734e-003
      -5.67880110e-004 -5.65990666e-003 2.02752068e-003 -3.40527995e-003
      3.99566675e-003 -2.96134094e-004 -9.47770095e-005 3.39260860e-003
      -3.53989122e-003 4.39586490e-003 3.88035481e-003 -1.73097302e-003
      -4.58606659e-003 -1.34531572e-003 1.10694009e-003 -4.06140229e-003
      -5.58019616e-003 -4.24997555e-003 -1.54809922e-003 6.32362068e-003
      -5.34253288e-003 -8.09721835e-003 5.80303080e-004 2.52426369e-003
      2.76118470e-003 4.25127102e-003 1.52953772e-003 2.75713275e-003
      -1.47934596e-003 -5.45008807e-003 2.20618662e-004 -4.25166870e-003
      -2.23201723e-003 1.44257897e-003 4.03994974e-003 -3.20839998e-003
      -9.89864673e-003 -4.15611127e-003 -4.64956695e-003
      -2.55461712e-003 1.66832330e-003 -6.29235932e-004 5.26020769e-003
      -1.37455284e-003 1.38300017e-003 -7.90651981e-003 1.39515148e-004
      3.48822190e-003 -3.64471140e-004 2.11579958e-003 -4.51353705e-003
      -1.35037338e-003 -1.03830555e-002 -6.90259645e-003
      -2.11674930e-003 6.71684800e-004 -1.29259293e-004 3.75893060e-003
      6.58044545e-003 -3.19716078e-003 2.23597512e-003 -1.26608077e-003
      1.08453911e-003 1.16475928e-003 4.72450629e-003 -5.90737071e-003
      2.30986578e-003 4.72738640e-003 5.03762253e-003</_>
    <_>
      7.21181568e-004 1.86277181e-003 1.75410591e-003 2.76742084e-003
      1.74901879e-003 1.39130244e-003 -2.02181214e-003 -1.04181620e-003
      3.02413915e-004 -2.89963587e-004 -2.01846845e-003 -2.28017359e-003
      -3.52114928e-003 -4.20780526e-003 -1.36625569e-003 2.27692560e-003
      1.94760121e-003 2.51072459e-003 2.65401695e-003 5.58555301e-004
      2.53673433e-003 3.79136851e-004 7.70896114e-003 -1.48866326e-003
      -2.34557796e-004 2.88266549e-003 -2.45321239e-003 -7.02057965e-003
      5.15835499e-003 -1.63283129e-003 4.64250799e-004 1.70752243e-003
      1.47628668e-003 -6.46136235e-004 7.63567223e-004 4.12154441e-005
      1.19360397e-003 -1.88135926e-003 -1.31295715e-003 -4.32693982e-004
      1.70987775e-003 5.64942881e-003 -2.11891602e-003 -1.19762367e-003
      -8.91019823e-004 2.00396316e-005 -1.15418690e-003 5.04494470e-004
      4.66832519e-003 3.30228196e-003 -1.36296236e-004 1.29755354e-003
      1.68145646e-003 -2.35978002e-003 -1.27067813e-003 -3.87222506e-003
      4.68417862e-003 -2.63067102e-003 2.88819824e-003 1.53436908e-003
      -4.45693545e-003 -1.56085717e-003 -1.19717221e-003 1.06891175e-003
      -2.83088861e-003 -4.16866882e-004 5.15935244e-003 1.76502617e-005
      6.33019162e-003 -6.84502348e-003 6.10011804e-004 -2.14972417e-003
      4.17621864e-004 -3.16822506e-003 -2.70289718e-004 -3.35547025e-003
      -6.76356140e-004 -5.10302314e-004 2.25935294e-003 5.40424138e-004
      1.08548906e-004 -5.16894832e-003 2.25283368e-003 3.46007501e-003
      -3.58790305e-004 3.16069252e-003 3.34804179e-003 -9.76395619e-004
      2.79226131e-003 -1.63359765e-003 9.86801228e-004 2.00395868e-003
      1.31636742e-003 1.22061546e-003 2.08912813e-003 2.73946649e-003
      -3.02169356e-003 -2.35823868e-003 5.41579153e-004 -4.13858052e-003
      4.01629950e-004 3.13765951e-004 1.95046852e-003 2.30744272e-003
      2.81063281e-003 1.61041936e-003 2.97909114e-003 -6.60905382e-003
      2.41374553e-004 -2.39603501e-003 1.66675227e-003 -1.43645064e-003
      -4.39298758e-003 4.30224789e-003 9.82857076e-004 3.59468232e-003
      2.76616920e-004 2.57191365e-003 -9.52248171e-004 1.54769246e-003
      -6.33811345e-003 2.55348883e-003 2.94122961e-003 5.79997140e-004
      -5.10449288e-003 1.69755265e-004 -1.91140105e-003 -5.67612296e-004
      6.02586253e-004 5.08242613e-003 1.45535939e-003 5.01915056e-004
      -7.81126204e-004 3.29406373e-003 1.38538075e-003 -1.23832142e-003
      -5.22118120e-004 9.41315448e-005 1.58274977e-003 -3.62200226e-004
      -1.81667623e-003 7.30412314e-004 5.04351174e-003 4.91682789e-004
      4.28007952e-005 -2.32244749e-003 -1.51128613e-003 2.84140441e-003
      3.38038220e-003 3.32366419e-003 -1.46658707e-003 -1.12015486e-003
      1.95006269e-003 4.15082928e-003 -1.12360844e-003 -5.15636383e-003
      -3.03735328e-003 -1.07698521e-004 1.73542276e-003 2.42036209e-003
      8.22602480e-004 5.61526185e-003 -2.44966056e-003 4.63390024e-003
      6.48569432e-004 3.53423622e-003 1.01267570e-003 -9.58405668e-004
      -2.14777491e-003 -1.44235243e-003 6.27869833e-003 9.93335969e-004
      -2.44073011e-003 1.01236661e-003 6.30018767e-003 6.28803205e-003
      -4.17706760e-004 -9.14262899e-004 3.16639780e-003 -3.32126743e-003
      -2.37899498e-004 2.22946447e-003 2.25323788e-003 -1.02894276e-003
      4.48560389e-003 2.81037204e-003 2.12427485e-003 1.03570067e-003
      1.47622975e-003 2.26314366e-003 1.30974688e-003 5.10560814e-004
      -2.64277006e-003 -1.23247108e-003 -8.01531569e-005
      -1.18463940e-003 3.76321096e-003 9.30145674e-004 -8.79506464e-004
      -2.37906715e-004 2.26498372e-003 6.87291427e-003 -2.09393038e-004
      -9.29195527e-003 2.03473493e-003 3.25927685e-004 8.31712823e-005
      -4.29486251e-003 3.34818033e-004 -1.86967454e-003 4.05733008e-003
      1.90454000e-003 -3.10677895e-003 7.29562016e-003 -1.84636260e-003
      -2.04299181e-003 -7.41050439e-003 -1.66565948e-003
      -1.51511445e-003 -1.81304221e-003 -2.47169985e-003
      -8.73132609e-004 5.58832055e-003 3.03287292e-003 2.00646580e-003
      -1.55329064e-003 1.14874542e-003 1.21538818e-003 9.18780803e-004
      1.57976127e-003 3.79015319e-003 -3.73430620e-003 -3.38102086e-003
      -6.22935419e-004 -1.90910953e-003 2.51430972e-003 -2.61674752e-003
      3.30964732e-003 1.74596277e-003 7.74964830e-003 3.27106263e-003
      -1.06964330e-003 5.22543397e-003 4.59255389e-005 2.87663145e-003
      7.27238040e-003 -1.77846744e-003 -5.72199281e-003 1.49451219e-003
      -3.56659584e-004 4.68002632e-003 3.05059087e-003 -3.06247408e-003
      -1.84637855e-003 1.15316606e-003 -1.31413259e-003 5.56456484e-003
      1.36721064e-003 1.37701037e-003 4.59294766e-003 -9.18511476e-004
      2.78502237e-003 5.99055365e-003 4.08311927e-004 -7.22800102e-003
      1.74781180e-003 -2.05621985e-003 3.55680211e-004 -2.86337431e-003
      4.03616717e-003 1.23822992e-003 -2.20380072e-003 -2.41079950e-003
      1.77878526e-003 6.53534988e-003 4.32101218e-003 7.53396816e-005
      2.05499120e-003 -8.91300442e-005 2.65006954e-003 4.09968197e-003
      7.31215288e-004 6.65222108e-003 1.08369706e-004 2.92921159e-003
      -5.48255397e-003 5.05858008e-003 -2.93688546e-003 6.22098800e-003
      -3.35226854e-004 5.37402648e-003 2.22707822e-004 -1.53164903e-003
      -2.30677368e-004 8.39105283e-004 -2.14849412e-003 4.51174611e-003
      4.81619150e-004 -1.56678341e-003 -1.89011858e-003 1.33617793e-003
      2.41104444e-003 1.23265054e-004 -9.37876583e-004 -3.25892324e-004
      5.73815405e-003 -2.72988714e-003 2.40713218e-003 1.90222799e-003
      3.69429216e-003 4.51068487e-003 7.66783080e-004 2.52200873e-003
      5.55380620e-003 8.83380184e-004 -2.07271296e-004 1.12794922e-003
      1.52217818e-003 8.78323335e-004 4.11236579e-005 3.66710774e-005
      1.36739516e-003 -4.95560793e-003 4.78836475e-003 3.11748823e-003
      -1.49317988e-004 -2.19749636e-003 5.00871916e-004 1.49174233e-003
      -8.53159465e-004 -3.16679431e-003 4.03624214e-003 -3.22420005e-004
      -1.61538541e-003 1.85774476e-003 8.85561516e-004 -3.53143993e-003
      -4.93589672e-004 -9.02029511e-004 -3.02638393e-003
      -1.93001458e-003 4.95472515e-004 2.04236130e-003 -4.24768310e-003
      -7.27682794e-003 1.27816666e-003 4.34423890e-003 -1.67395081e-003
      3.62800155e-003 3.73507326e-004 5.23306255e-004 6.39683974e-004
      7.27770210e-004 2.45471857e-003 4.73344466e-004 2.35339603e-003
      -1.07523974e-003 1.21233100e-003 -1.96193650e-005 3.70494719e-003
      7.46043632e-003 -3.81207233e-003 -2.94449180e-003 -1.35266047e-003
      3.02001415e-003 -8.23819428e-004 4.71487222e-003 3.64135951e-003
      6.20900793e-003 2.41695717e-003 -5.52182226e-003 4.15658392e-003
      -3.25663341e-003 -5.76199591e-003 5.80008049e-003 2.81866178e-005
      -9.93219437e-004 1.97233097e-003 2.33895634e-003 -2.40051025e-003
      5.03787538e-003 9.81134130e-004 1.87831919e-003 1.30868808e-003
      -1.14580951e-004 3.03555373e-003 -5.59821771e-003 -7.64968514e-004
      4.78274142e-003 -3.54429497e-003 1.19210687e-003 2.70235748e-003
      -2.95638019e-004 2.78946105e-003 3.60122090e-003 3.96125542e-005
      -3.59977246e-003 -3.17544473e-004 1.09778903e-003 5.23839658e-003
      -1.83894346e-003 2.31033005e-003 -2.78605893e-003 1.28508464e-003
      5.49387699e-003 7.75513879e-004 3.50463833e-003 -1.07419473e-004
      -5.72808603e-005 1.74523238e-003 3.58794909e-003 4.43366263e-003
      -9.66200896e-004 1.67179911e-003 2.31766351e-003 2.80308980e-003
      -4.61635645e-003 2.96554016e-003 2.08985177e-003 3.26213636e-003
      -3.55759612e-003 -1.26426221e-005 6.74109557e-004 3.64672276e-003
      -2.00276566e-003 4.47525224e-003 -7.35612446e-003 1.68463390e-003
      1.96563336e-003 1.42184517e-003 4.92954906e-003 -1.61606731e-004
      4.03787475e-003 2.32081846e-004 7.20842218e-004 -5.32134902e-003
      4.51841019e-003 -2.34738947e-003 -4.46847000e-004 -3.38973803e-003
      2.98184715e-003 1.20135839e-003 1.36766979e-003 -4.46883170e-003
      3.74512421e-003 -1.75640488e-003 -1.38822407e-003 3.99958063e-003
      4.08860482e-003 2.70445156e-003</_>
    <_>
      2.57802126e-003 2.14513531e-003 -2.08074925e-003 1.97659899e-003
      -1.65923627e-003 -3.46872816e-003 -6.07914384e-003
      -3.66479810e-003 4.85539157e-003 -1.85937306e-003 3.70070874e-003
      -2.00820738e-003 -2.74860626e-003 -2.09365735e-005 1.54590409e-003
      -4.86167846e-003 -2.93702795e-003 -7.96134991e-005
      -2.68906215e-003 -1.65176461e-003 -6.34962087e-003
      -3.66743281e-003 2.93681980e-004 -3.50218406e-003 3.15435301e-003
      -9.39185498e-004 6.86395157e-004 -2.78946967e-003 1.27425150e-003
      -1.18632088e-004 1.80959213e-003 -1.52197026e-004 -6.85777573e-004
      -6.51690061e-004 -5.00240189e-004 -3.26370308e-003 4.82461008e-004
      -4.23758617e-003 2.69999728e-004 2.44533853e-003 -3.09664453e-003
      1.62058510e-003 -2.94121943e-004 -5.16577903e-003 -4.43318533e-003
      -2.42759287e-003 2.22367025e-003 3.75301315e-004 1.49046467e-003
      5.53879095e-003 -2.67706171e-004 1.14925730e-003 -3.99793126e-003
      6.22545183e-003 1.91559142e-004 -3.48057225e-003 3.89785459e-003
      2.84818839e-003 -2.19126046e-003 3.14469077e-003 -1.25010335e-003
      3.74655519e-003 -2.99903098e-004 3.64311272e-004 -3.41322250e-003
      -5.36580989e-003 5.73399710e-003 -2.26821867e-003 1.91181782e-003
      -6.72439812e-003 2.89839623e-003 -3.81807517e-003 -3.89823021e-004
      -6.18085731e-003 1.49212230e-003 -6.47065090e-003 -4.55606543e-003
      9.93544608e-003 -6.87974170e-006 4.92749503e-004 8.21223424e-004
      6.74759177e-003 5.16533479e-003 -6.42140210e-003 -5.95593313e-003
      5.63015463e-003 -1.01496233e-003 1.35854213e-003 -1.97044271e-003
      2.46162806e-003 1.62316917e-003 2.51152273e-003 -3.63164442e-003
      1.45681051e-003 5.13385935e-003 -1.16784929e-003 2.23561004e-003
      -5.43406559e-003 -3.06331413e-003 -3.05084512e-003
      -3.25908023e-003 2.66564311e-003 2.58734939e-003 4.74563427e-003
      -1.01677887e-003 2.08037090e-003 -3.20380717e-003 -2.53612222e-003
      8.70381854e-003 1.16022339e-003 -3.97494296e-003 2.20774580e-003
      -1.07606512e-003 6.01717550e-003 1.85945141e-003 7.55570736e-003
      -3.32668470e-003 -6.06234884e-004 1.20703154e-003 -7.61584053e-003
      -3.45920352e-003 -2.03463272e-003 6.37384178e-003 -2.56814738e-003
      -6.79190853e-004 -2.83143250e-003 -3.24637489e-003
      -1.43482804e-003 -1.05658597e-004 1.49396842e-003 -3.37990321e-004
      5.75384358e-004 3.93272378e-003 1.88174541e-003 3.86381033e-003
      -5.50148310e-004 -6.70973503e-004 2.41146702e-003 3.98523640e-003
      -3.99764441e-003 2.59959488e-003 -2.10738648e-003 -2.63953349e-003
      -1.52256934e-003 -1.11097831e-003 1.16110500e-003 -5.45371044e-003
      -1.24214706e-003 3.71597451e-003 4.38492140e-003 -4.40992299e-004
      -2.48061796e-003 1.76315557e-003 5.05360775e-003 -1.66562060e-003
      3.28830676e-003 7.08363150e-005 -7.90756568e-003 5.63138025e-003
      1.19924662e-003 3.76355019e-004 4.04186919e-003 -5.04395633e-004
      3.34390206e-003 4.32286365e-003 -1.95557298e-003 -7.54222739e-004
      3.26234702e-004 -1.68287705e-004 2.67491327e-003 3.51723447e-003
      1.26907369e-003 1.55134359e-003 -2.52587930e-003 1.52929651e-003
      3.57449660e-003 2.29992234e-004 -5.07950271e-003 -4.87138098e-003
      -1.93437096e-004 -4.97948751e-003 4.82556585e-004 -2.22712499e-003
      1.96437538e-003 2.51193158e-003 -4.29678429e-003 3.03998147e-003
      -2.28944444e-003 2.71349773e-003 -2.57001934e-003 -5.64229814e-003
      -1.05945347e-003 -4.90426412e-003 -1.66030996e-003 2.27083126e-003
      7.22773047e-003 3.69489356e-003 3.91953252e-003 3.54343723e-003
      -3.96002876e-003 -3.65207880e-003 3.38954874e-003 -1.09066744e-003
      -4.19802498e-003 4.41711489e-003 -1.43713725e-003 2.76524620e-003
      -1.57760154e-003 -2.77482136e-003 -3.61480913e-003 3.13181733e-003
      -1.10301224e-003 -1.69784063e-003 6.97090104e-003 8.57204606e-004
      -1.06149865e-003 -8.64879461e-004 -5.83688554e-004
      -7.85206258e-003 -1.16960146e-003 -1.41839078e-003 4.08414891e-003
      2.75692414e-003 8.28098040e-003 -3.74464877e-003 1.43451907e-003
      3.87954386e-003 1.66053709e-003 2.45249458e-003 -2.24379962e-003
      -2.19780020e-003 -3.82287311e-003 -2.82389577e-003
      -1.86308753e-004 -2.67841481e-003 1.17979350e-003 1.61249924e-003
      -1.73907133e-003 2.54594558e-003 1.24552718e-003 5.28445700e-003
      -4.02922137e-003 5.06867934e-003 -1.94746722e-003 2.31131841e-003
      3.90917063e-003 2.98783230e-003 -5.04877605e-003 2.78434483e-003
      4.18424234e-003 5.18971868e-003 3.16305505e-003 -5.32496721e-003
      1.12057758e-004 -3.79171339e-003 -4.46206471e-003 2.74649914e-003
      1.95783773e-003 4.74666478e-003 -1.99533673e-003 5.18571411e-004
      2.19413522e-003 3.04090627e-003 3.67179816e-003 1.95592322e-004
      2.35778236e-004 1.78263139e-003 6.69637695e-004 -4.15719114e-003
      5.23244496e-003 9.93231311e-004 1.60033291e-003 4.93519986e-003
      2.63782148e-003 5.08949673e-003 2.56628054e-003 3.32616176e-003
      4.61589405e-003 4.76472173e-003 -2.89838668e-003 -7.45424244e-004
      -1.47301599e-003 3.69825796e-003 1.92708266e-003 -1.69996099e-004
      3.20287724e-003 -1.02327927e-003 3.32509866e-003 5.12566359e-004
      3.96018237e-004 7.44200358e-003 3.50130838e-003 -1.33684091e-003
      -1.27230654e-004 7.56208727e-004 1.65125297e-003 2.00048485e-003
      -2.40204134e-003 -1.91233587e-003 2.67904811e-003 -5.00220712e-003
      2.70990247e-004 3.07162106e-003 5.03176940e-004 -1.39524011e-004
      5.89965284e-003 4.45526000e-003 1.52180297e-003 1.82359153e-003
      3.58331227e-003 -5.42582566e-005 -6.73910428e-004 -9.86483763e-004
      2.29543447e-003 -5.36060613e-003 -4.42377233e-004 1.83466275e-003
      -3.38131259e-003 -1.56448211e-003 6.16020348e-004 -2.98561994e-003
      -1.32512068e-003 2.79802131e-004 5.85222756e-003 1.71234389e-003
      3.00233229e-003 1.37448078e-003 -5.76556486e-004 1.30476628e-003
      -1.61971455e-003 5.05587831e-003 2.95424205e-003 -1.73202448e-003
      1.96347595e-003 1.19703915e-003 1.82158977e-003 9.71754722e-004
      3.77061032e-003 2.61305016e-003 -8.79739178e-004 -1.00772292e-003
      3.29034892e-003 4.21323488e-003 -2.70052068e-003 1.37843995e-003
      -2.66697549e-004 5.29856561e-003 3.95990862e-003 -4.88352380e-004
      -5.98897506e-003 -3.29907308e-003 -2.37789657e-003
      -2.83584418e-003 1.75620185e-003 6.77041057e-003 4.09897324e-003
      4.12765774e-004 -5.24021860e-004 -4.48676711e-003 3.94660188e-003
      1.29357178e-003 -1.37677568e-003 -2.31425933e-004 7.15510396e-004
      -2.64165201e-003 -3.73327581e-004 2.42185150e-003 1.76835759e-003
      3.76574858e-003 8.17797321e-004 1.85346347e-003 1.66879746e-003
      1.49341451e-003 -7.40515627e-003 -1.24509924e-003 2.05760729e-003
      2.77733174e-003 1.33667665e-003 1.52663712e-003 -5.15876105e-003
      2.85493839e-003 1.82639260e-003 2.08447943e-003 1.28550117e-003
      -4.01089480e-003 2.29956070e-003 -4.68185125e-003 -1.74243958e-003
      1.51647546e-003 2.21759477e-003 -2.33538885e-004 -1.53728484e-004
      -4.69177263e-003 -4.21456265e-004 4.12577111e-003 -7.68552709e-004
      -4.81658196e-003 1.06898579e-003 -3.27174040e-003 -1.37723284e-003
      -9.83697944e-004 -9.84961283e-004 2.99521838e-003 1.83248182e-003
      6.91911671e-003 1.12268841e-003 -1.32139958e-003 1.82085438e-003
      -4.48124483e-004 -7.34182482e-004 6.08952809e-003 4.55769012e-003
      -3.27818235e-003 -3.63894715e-003 4.70399577e-003 8.58705840e-004
      -5.50145400e-004 -1.12388772e-003 -3.39267636e-003 4.24221304e-004
      -1.42773718e-003 -6.42902975e-004 2.97772698e-004 2.62556784e-003
      -2.52144207e-004 2.57084635e-003 -3.15298862e-003 2.22105091e-003
      -1.16288639e-003 -6.43083011e-004 2.94294534e-003 -1.18601311e-003
      9.06286470e-004 -9.40094877e-004 1.94230489e-003 -1.72504573e-003
      6.75262697e-003 6.36220269e-004 -8.97127204e-003 -4.09223698e-003
      3.42668849e-004 3.62296170e-003 -9.43580759e-004 -3.28089489e-004
      -1.11483317e-003 1.81718031e-003 1.34914194e-003 -8.57988081e-004
      -1.26043998e-003 -1.32437050e-003</_>
    <_>
      4.70416911e-004 7.79663154e-004 -1.83880213e-003 2.80510541e-003
      1.09593256e-003 -1.70616622e-004 -2.58702738e-003 -1.80608744e-003
      -2.57857755e-004 -3.35317501e-003 -1.27867307e-003
      -1.09804433e-003 -1.26584584e-003 -3.11961467e-003
      -8.12607293e-004 2.96610640e-003 5.92876785e-003 3.65392165e-003
      -2.38728957e-004 -1.67578238e-003 -2.57256703e-004
      -3.59238824e-003 3.33063956e-003 8.77910788e-005 2.73997663e-003
      1.09017383e-004 2.37341900e-003 -1.61995157e-003 5.36532793e-003
      1.20004569e-003 2.01951293e-003 3.02789384e-003 -7.64212396e-004
      -2.99422303e-003 -3.24777589e-004 -2.13514338e-003 1.86665414e-003
      2.29019858e-003 2.51013134e-003 7.14708804e-005 1.42961531e-003
      6.28407506e-005 1.73784269e-003 -1.18779403e-003 9.41135688e-004
      -7.31965061e-004 1.02056179e-003 -1.87282462e-003 5.00920869e-004
      -7.45971221e-003 -3.94700619e-005 -6.00039319e-004
      -8.32817808e-004 -6.10954303e-004 6.79759600e-004 2.08546757e-004
      4.52462584e-003 1.71033957e-003 -7.99488276e-004 1.10785372e-003
      -3.17411846e-003 1.62221375e-003 -1.94872764e-003 -3.83535097e-003
      -5.15684369e-004 -3.21083819e-003 4.29911120e-003 4.74670855e-003
      9.87289124e-004 -4.01984435e-003 3.91486986e-003 -3.46754654e-003
      -3.35172634e-003 5.29448851e-004 -2.30994960e-003 -3.82525171e-003
      -5.63042937e-004 1.67083705e-003 -1.55336317e-003 1.53510331e-003
      3.37513653e-003 2.56998627e-003 -2.58487160e-003 2.84276181e-003
      -4.65987716e-004 7.21752236e-004 1.45869132e-003 -6.32362859e-003
      -5.74023870e-004 5.68543153e-004 -7.44003511e-004 2.50843208e-004
      -1.38576282e-003 3.07330134e-004 2.31198221e-003 1.66276086e-003
      2.39111250e-003 -4.57672664e-004 1.48212921e-003 8.16411746e-004
      -1.77257264e-003 -1.83377438e-003 3.18218977e-003 3.56450118e-003
      -8.32953898e-004 4.43015853e-003 -1.62143097e-003 1.54535752e-003
      4.05474938e-003 1.89260417e-003 1.28444470e-003 5.10958023e-003
      -1.25749898e-003 5.02445130e-003 9.89178894e-004 -4.54924628e-003
      -2.98140774e-004 2.31577153e-003 2.03411956e-003 -1.10122538e-003
      -2.95645953e-003 6.66869746e-004 -2.43070885e-004 -1.29944028e-003
      -6.51351875e-004 5.60400833e-004 2.26329034e-003 -1.57052290e-003
      3.19180917e-003 5.70816174e-003 3.80065944e-003 2.49163108e-003
      1.58972037e-003 2.75853300e-003 7.05047161e-004 3.11932992e-003
      -1.57995685e-003 -3.46724549e-003 1.68440677e-003 -2.91600777e-003
      8.99230770e-004 -1.22130942e-003 4.98877093e-003 -9.17005644e-004
      -2.96888920e-003 4.53872897e-004 1.28398568e-003 -5.98016335e-003
      3.05335131e-003 6.21420797e-004 1.45875767e-003 -1.94158463e-003
      4.12613759e-003 3.32865957e-003 2.86180730e-004 1.82271027e-003
      2.30842293e-003 -2.55955639e-003 6.96993608e-004 9.97673022e-004
      1.07807957e-003 2.51671742e-003 1.70075463e-003 2.39961641e-003
      2.91365851e-003 3.39145306e-003 -1.00290065e-003 8.88096925e-004
      -3.50827910e-003 7.13480520e-004 4.32083104e-003 -4.25192644e-004
      3.15443031e-003 -4.14842070e-004 8.89356364e-004 5.23226848e-003
      -1.08188728e-003 9.11171781e-004 -9.50313290e-004 1.84172776e-003
      -1.46638777e-004 -6.84809696e-004 3.48425587e-003 2.05691904e-003
      7.41342967e-003 -1.99940265e-003 3.09671531e-003 2.18627998e-003
      8.58812244e-004 3.21061845e-004 3.78363393e-003 1.40502944e-003
      -3.09261144e-003 -1.46647182e-003 6.60164340e-004 4.92520165e-003
      2.53363280e-003 1.31613389e-003 2.46695941e-003 2.56036245e-003
      3.79030651e-004 6.80214027e-003 -9.84759303e-004 -4.78495238e-003
      1.58655038e-003 -2.32311967e-003 1.12621766e-003 -3.08208261e-003
      -3.53323226e-003 2.84475391e-004 1.93547818e-003 -6.92665577e-004
      2.84329406e-003 1.71203597e-003 2.70818098e-004 -2.45768088e-003
      -7.16180948e-004 9.59435594e-004 -3.84784630e-003 2.26348313e-003
      6.08798116e-004 -6.07781461e-004 -4.83453972e-003 5.23154624e-003
      -3.77399905e-004 8.02696159e-004 -6.37618767e-004 -2.08730553e-003
      1.91205856e-003 2.01440346e-003 1.60498626e-003 -6.52480405e-003
      -4.91194148e-003 5.56890795e-004 2.69350386e-003 2.03719619e-003
      -1.94433471e-003 5.82346553e-003 -1.78824959e-003 3.17979790e-003
      3.07213049e-003 -4.70230915e-003 4.73180553e-003 -2.31493637e-003
      7.40396150e-004 3.53732565e-003 1.00615062e-003 -8.69030540e-004
      8.34582723e-004 8.39882123e-005 4.27455222e-003 4.74991743e-003
      1.16687024e-003 -8.46456911e-004 2.79736076e-003 -2.61898874e-003
      3.22431792e-003 4.30926774e-003 3.32097500e-003 -2.15639616e-003
      2.46259337e-003 1.52668427e-003 5.71112148e-003 -4.21358924e-003
      1.96625036e-003 1.57706905e-003 -2.37579900e-003 2.78570096e-005
      -2.99155642e-003 3.76251340e-003 2.42322194e-003 4.24589636e-003
      4.21258999e-004 -8.99655279e-005 3.64644034e-003 4.04159585e-003
      4.60224831e-003 1.30329665e-003 3.59312561e-003 -1.58193475e-003
      1.05311722e-003 -6.92865287e-005 6.77235378e-003 1.34049144e-004
      1.73656631e-003 -6.16787234e-003 -5.94325073e-004 1.35269645e-003
      2.57119397e-003 -3.81498132e-003 2.65982188e-003 4.12120158e-003
      -8.88204493e-004 3.31229437e-003 1.28939038e-003 2.38648569e-003
      -2.17684405e-003 1.22097251e-003 -1.48366543e-003 1.02130412e-004
      -2.04782758e-004 -4.68669110e-004 -3.75218748e-004 1.48565543e-003
      6.12163334e-004 1.87365944e-003 -1.75870664e-003 1.22155272e-003
      2.35276530e-004 9.35307413e-004 3.80424503e-003 1.42673356e-003
      2.53582047e-003 5.39472094e-003 -1.89043509e-004 -2.52402923e-003
      9.41609382e-004 1.06780371e-003 1.63642981e-003 1.47057881e-005
      -3.34628072e-004 1.91141589e-004 2.43573892e-003 7.61671923e-003
      1.85517909e-003 1.51270069e-003 -2.97569524e-004 -1.39633994e-004
      2.50664260e-003 -1.92544144e-003 2.68405769e-003 3.34029831e-003
      -1.17300451e-003 -3.89079307e-003 2.80372798e-003 1.24433322e-003
      2.10707658e-003 2.91718007e-003 2.55380943e-003 -3.06775165e-003
      -1.75729999e-003 1.72279135e-003 -9.85029619e-004 -1.24411366e-003
      -7.61527102e-004 6.99083204e-004 -1.10819109e-003 3.17568687e-004
      1.60586613e-003 -3.77743295e-003 -5.46971452e-004 -2.56682513e-003
      -4.90369322e-003 -1.83186634e-003 1.63518649e-004 8.50332784e-004
      -5.02223196e-003 -2.21413473e-004 -3.73925432e-003 3.79041256e-003
      -1.06506411e-003 -1.61443395e-003 -2.61119776e-003 9.62689810e-004
      2.74273404e-003 1.60913181e-003 4.56202170e-003 9.42938728e-004
      3.38990730e-003 7.94379681e-004 -1.07818877e-003 -1.56490147e-004
      7.63204531e-004 -5.89098723e-004 3.30173440e-004 8.71198368e-004
      2.16671498e-003 -1.28756446e-005 3.20189423e-003 -5.55110071e-003
      1.38035661e-003 2.96582165e-003 -3.63066647e-004 1.03916123e-003
      6.90566842e-004 -3.83976381e-004 -3.26551381e-003 1.91008532e-003
      1.74066727e-003 1.76713790e-003 -1.88452992e-004 1.15902955e-003
      -1.84794422e-003 1.35333475e-003 5.41622750e-003 -5.80120541e-004
      -1.39833242e-003 2.82857916e-004 1.04451587e-003 3.91695462e-003
      1.31666521e-003 1.15137082e-003 9.18355479e-004 3.11054243e-003
      4.55146749e-003 -2.45361798e-003 -3.12774722e-003 -1.79284927e-003
      -4.56973241e-004 -1.46474876e-003 3.78280273e-003 7.60835828e-004
      -9.03695181e-004 2.15935564e-004 2.21035909e-003 1.04365696e-003
      -1.81737856e-003 -1.89289486e-003 2.26638978e-003 2.53381295e-004
      1.17130158e-003 4.11558896e-003 -7.77188223e-004 2.84730660e-004
      1.37253478e-003 -2.76748277e-003 -1.50618865e-003 -7.92260165e-004
      2.83269025e-003 4.24903730e-004 -6.84518367e-004 -1.17138051e-003
      2.33063777e-003 -5.37524372e-003 5.24661038e-003 1.24445744e-003
      3.40123335e-003 -2.64124456e-003 -2.99321557e-003 3.14133329e-004
      2.18716124e-003 3.37505341e-003 -4.32900758e-003 1.24606944e-003
      8.17548251e-004 -9.41923237e-004 1.56382401e-003 1.14627590e-003
      -5.31579042e-003 1.30992616e-004</_>
    <_>
      6.01723650e-003 -2.24935659e-003 -3.37915868e-003 -1.39446813e-003
      4.28880891e-003 2.25590821e-003 -3.12823942e-003 -4.03209729e-003
      2.31089140e-003 -7.65866460e-003 1.94893207e-003 -5.33511722e-003
      -2.55555497e-003 -2.59881211e-003 -3.18007846e-003 4.32977406e-003
      4.81291721e-003 -4.68831655e-004 3.09239654e-003 -3.01914383e-003
      9.33097966e-004 -3.27385147e-003 4.29804064e-003 2.64272233e-003
      1.77046354e-003 5.32903941e-004 -7.81431387e-004 -4.40811692e-003
      2.31434661e-003 -1.44375383e-003 5.31275349e-004 3.48892086e-003
      1.31495658e-003 3.77675355e-003 -5.86608425e-003 -3.81646026e-003
      -3.36734956e-004 1.95233559e-003 4.98227600e-004 -2.11556139e-003
      -6.57097087e-004 4.82311286e-003 5.72426827e-004 6.87747379e-005
      -1.20174384e-003 -3.32148187e-003 3.88627895e-003 2.85269064e-003
      -2.01738207e-003 -2.53737578e-003 2.19518947e-003 -1.31634471e-003
      -9.02360480e-004 2.52899691e-003 1.86345191e-003 6.10773126e-003
      2.58806581e-003 -1.45470339e-003 -2.48213462e-003 7.33585912e-004
      -2.59666215e-003 -1.59455149e-003 -3.68756964e-003
      -1.34353898e-003 -1.71846338e-003 -6.79420447e-003 5.77772968e-004
      -4.99068236e-004 -8.07135482e-004 2.07880023e-003 -9.79728764e-004
      1.27680064e-003 4.04006889e-004 5.66183066e-004 -2.24703318e-003
      -5.46714664e-003 -1.99940027e-004 7.58827757e-003 8.75684433e-004
      -2.91640102e-003 8.73875152e-003 9.02432439e-005 -3.38852662e-003
      -1.98192615e-003 -9.87514388e-004 -2.27508112e-003 3.26108257e-003
      7.37991696e-003 7.83889729e-004 2.64575705e-003 -8.97151977e-003
      -3.05898185e-003 1.30183890e-003 8.22166563e-004 3.89295537e-003
      -1.33570016e-003 1.69724319e-003 -3.22311977e-003 5.27334865e-003
      -2.70372810e-004 1.52485853e-003 -1.55470241e-003 8.32301157e-004
      2.56013195e-003 -2.62976740e-003 3.60591407e-003 -6.33065915e-003
      2.13317550e-003 1.51536439e-003 -5.51717309e-003 2.38232853e-004
      9.42691695e-004 -7.21133663e-004 6.71236357e-003 -3.58590530e-003
      4.41308599e-003 -6.46250276e-003 2.97102612e-003 -1.57995732e-003
      4.12095687e-004 -3.60524841e-003 1.21015776e-003 5.65714296e-003
      4.92220605e-003 2.75303749e-003 2.40334612e-003 -3.05999914e-004
      -2.55409814e-003 5.21951215e-003 3.82405962e-003 -3.21333949e-003
      2.29033595e-003 4.60710097e-003 1.20995718e-003 3.66670405e-003
      -2.04670164e-006 -6.10403658e-004 -2.40235333e-003 8.31580372e-004
      -1.20815923e-004 1.29562523e-003 -3.30733438e-003 -1.90634746e-003
      -5.51202428e-003 2.36258982e-003 -4.55411291e-003 -2.19952036e-003
      6.29173534e-004 3.22933076e-003 -3.64594022e-003 -5.33783250e-003
      -2.52266211e-004 4.39891964e-003 1.09539571e-004 -1.82015332e-003
      2.42734631e-003 2.49414798e-003 -2.58600363e-003 7.52977701e-003
      2.98956712e-003 -1.55489228e-003 1.65276777e-003 -7.12537207e-003
      2.74509401e-003 1.77631422e-003 -4.39919857e-003 1.41190097e-003
      2.17930399e-004 -3.44225368e-003 1.89995230e-003 6.54468359e-003
      2.76464765e-004 3.61208548e-003 -9.24204141e-005 5.82005782e-003
      2.82866269e-004 -2.73389160e-003 -2.95794033e-003 6.85596970e-005
      2.46759085e-003 -2.10511475e-003 -9.06901114e-005 1.52845797e-003
      2.16629053e-003 2.40870705e-003 8.27834755e-003 3.73525941e-003
      9.24775319e-004 5.08742128e-003 3.31408973e-003 -1.62468222e-003
      1.67790824e-003 -1.00367214e-003 -2.62728636e-003 -3.57665005e-003
      -9.90753062e-004 2.99166283e-003 2.30871653e-003 1.48135936e-003
      2.18613935e-003 1.33156613e-003 8.01517535e-003 1.27769890e-003
      -5.24576800e-003 2.80116382e-003 1.73465378e-005 3.65530280e-003
      1.89607171e-003 -2.85283453e-003 1.12634967e-003 1.98780536e-003
      3.17182601e-003 3.74170882e-003 2.67540483e-004 2.94161673e-005
      -1.33704132e-004 3.86961619e-004 -5.89281972e-003 -7.99317751e-003
      -2.67144945e-003 -2.01994809e-003 2.77254544e-003 2.81610270e-003
      2.93071941e-003 -1.32766855e-003 9.27841320e-005 -1.02600890e-004
      -1.14186259e-003 -4.67764214e-003 -1.57023780e-003 3.20034800e-003
      -6.83393516e-003 -5.22200437e-003 3.38770536e-004 3.61072109e-003
      -1.21800951e-003 -3.68171325e-003 2.99462190e-005 -4.69489861e-003
      5.65099390e-003 8.60293768e-003 -4.26407531e-003 3.42503423e-003
      -4.27635787e-005 -4.12182836e-003 4.63832356e-003 -5.36079798e-003
      -4.57599899e-003 1.76283147e-003 -5.41762332e-004 3.33660026e-003
      6.64666994e-003 -2.33301194e-003 -2.58865627e-003 3.48051684e-003
      -1.72405818e-003 1.35483127e-003 2.23299232e-003 4.17614914e-003
      -1.32849975e-003 1.45961787e-003 3.32348328e-003 4.38701408e-003
      2.08991696e-003 -2.74178083e-003 1.60436518e-003 -3.02303024e-003
      -1.84252474e-003 -8.44261012e-005 4.65088524e-003 -2.21145735e-003
      1.63990771e-003 -6.03718217e-003 5.35701518e-004 5.19466540e-003
      2.45065684e-003 -2.53508752e-003 4.62228851e-003 6.95168832e-003
      -2.86573335e-003 -3.10984440e-003 1.16504380e-003 3.85566265e-003
      4.71849809e-004 -6.09151437e-004 -2.81046331e-003 -3.12039605e-003
      9.52126167e-004 3.39976046e-003 -1.16686593e-003 -2.41900430e-004
      2.59625213e-003 7.11077373e-005 -4.65724414e-004 1.31990877e-003
      -4.62348387e-003 1.43490487e-003 1.96412671e-003 -2.34159734e-003
      6.77230209e-003 -1.65056495e-003 -2.35429197e-003 3.23269982e-003
      -4.72153421e-004 2.51946086e-003 -9.69932822e-004 2.78571708e-004
      1.51938017e-004 -5.83401648e-003 1.36077567e-003 9.68882756e-004
      2.29434459e-003 3.41357314e-003 -1.89790979e-003 4.48247790e-003
      -6.25119964e-003 8.23053124e-004 8.28430697e-004 -3.78774991e-003
      -1.02626032e-003 -4.53086453e-004 2.29495158e-003 -5.24714962e-003
      5.11819497e-003 -1.78915064e-003 7.26704486e-003 2.73352629e-003
      7.80673139e-003 -7.92237586e-007 -1.24561065e-003 4.70296247e-003
      -1.60839316e-003 -4.48709819e-003 3.29114473e-003 4.49000532e-003
      6.32850686e-003 -2.58179498e-003 1.49262673e-003 3.83296027e-003
      1.18320039e-003 -8.85167811e-003 1.94121641e-003 -1.35806843e-003
      -7.80791626e-004 5.07248624e-004 -3.19125969e-003 3.20093147e-003
      -1.54481595e-003 -3.18428059e-003 -2.12941878e-003 5.23669878e-004
      1.83684984e-003 -5.68240974e-003 -3.70366150e-003 4.66694264e-003
      2.26732669e-003 -3.60502419e-003 -3.70763871e-003 -2.69357860e-003
      5.60813537e-003 -2.07531173e-003 -3.09523824e-003 -1.64854235e-003
      1.13493158e-003 3.75000900e-003 -4.26014623e-004 2.05768738e-003
      2.97378283e-003 -4.19836631e-003 2.25249073e-003 -6.43036887e-003
      2.55181803e-003 -1.47924933e-003 -5.17120992e-004 9.78815486e-004
      6.62582461e-003 -1.46176224e-003 2.12944858e-003 4.89047868e-003
      -6.32730592e-003 1.17931154e-003 -9.01713734e-004 -7.04786275e-003
      4.79307724e-003 -1.12518159e-004 5.10962564e-004 -8.11435841e-003
      5.20130445e-004 2.33071414e-003 -4.33608517e-003 3.60276463e-004
      -1.22236728e-003 2.52095261e-003 -2.23914976e-003 2.12550932e-003
      -2.95650651e-004 -1.13065168e-003 -4.76313988e-004
      -5.82107343e-004 2.37680692e-003 4.48804768e-003 -1.32663714e-004
      -2.66713439e-003 6.31853938e-003 1.81285257e-003 7.13627611e-004
      -3.37323593e-003 -1.20918779e-003 -5.64684160e-003
      -3.28355911e-003 -1.44637527e-003 2.40840111e-003 -3.65299988e-003
      -5.05228993e-003 3.41925304e-003 -2.15551932e-004 -7.76932342e-003
      -1.91063108e-003 -1.23586098e-003 1.66865462e-003 3.98763630e-004
      4.07949416e-003 2.07659393e-003 4.75879572e-003 2.21151090e-003
      1.47625874e-003 -7.57243484e-003 -4.04908229e-003 -3.74424155e-003
      -2.20364053e-003 7.02256011e-003 -7.81963672e-003 4.71627573e-003
      -9.08830110e-003 -7.34923742e-005 -4.01265267e-003 2.17481400e-003
      -4.28421004e-003 -6.87353197e-004 -2.47624633e-003
      -3.07659805e-003 3.70580237e-003 -3.19997431e-003 2.12283758e-003
      -1.41483219e-003 7.65248958e-004 -3.94500326e-003 5.56170521e-003
      2.42086151e-003 9.10192821e-003</_>
    <_>
      1.32905494e-003 -1.27797015e-003 -6.80995826e-003 -9.30195441e-004
      -3.87993129e-003 6.42956980e-003 3.29519273e-003 -2.30072602e-003
      -2.63985456e-003 -1.10319385e-003 -5.75098349e-003 5.43288363e-004
      8.88564566e-004 1.47519354e-003 2.70624470e-004 3.02786543e-003
      -1.74128555e-003 -3.35922651e-003 -5.25063509e-003
      -1.15640985e-003 -1.34846929e-003 -1.60656287e-003
      -6.08621864e-003 -1.86054234e-003 1.66991842e-003 -2.61266506e-003
      4.77321306e-003 -4.60078882e-004 -8.09089933e-003 3.52100935e-003
      2.28340807e-003 -5.89495385e-003 -3.92659195e-003 -3.44419037e-003
      3.16031510e-003 -2.39105918e-003 1.16108928e-003 -6.44388003e-003
      2.52329092e-003 6.81138554e-005 -5.51758101e-003 -1.00155373e-003
      -2.96645844e-003 -2.23050290e-003 -9.62897553e-004 1.56334986e-003
      2.56780419e-004 -1.61320542e-003 -3.95787926e-003 5.75874350e-004
      -9.69041372e-004 1.19539669e-004 -4.84508974e-003 1.08226645e-003
      3.08962981e-003 -2.22732360e-003 -3.24678171e-004 2.19125929e-003
      -3.17269773e-003 -1.55674759e-004 4.69482131e-003 1.86182803e-003
      4.13808785e-003 3.08945286e-003 -1.37537508e-003 -3.48061230e-003
      1.12692046e-003 3.32365418e-003 3.88855068e-003 -2.33718939e-003
      1.00063402e-002 -5.85982064e-003 -1.54756196e-003 1.96722662e-003
      -5.44459399e-005 -8.84189829e-003 -2.74076196e-003 1.53484487e-003
      -4.10257559e-003 -6.33348885e-004 6.69628056e-003 3.71192116e-003
      2.85573164e-003 -7.20880833e-003 -7.52454484e-003 3.58224660e-003
      -3.75318038e-003 -4.98338277e-003 -3.76811833e-003 1.64044974e-003
      -1.82070944e-003 -6.59520389e-004 5.39950700e-003 -8.11874808e-004
      1.82470493e-003 -5.59645053e-003 -3.06329061e-003 -3.85088706e-003
      -1.64880650e-003 -1.05444295e-003 4.59868135e-003 -1.66932156e-003
      1.29400089e-003 2.74328561e-003 -4.79165418e-003 4.00004257e-003
      -6.55292394e-003 -4.96812921e-004 5.92622487e-003 1.80757983e-004
      -3.01740621e-003 9.48544548e-005 -6.36992161e-004 5.15853940e-003
      3.86603169e-005 2.47505773e-003 -2.43986840e-003 -1.52827753e-003
      1.43657357e-003 -2.36251857e-003 4.11222083e-003 -6.66889874e-003
      2.99246912e-003 -7.80780101e-003 5.91162313e-003 -6.46493677e-003
      -3.47292237e-003 3.27208219e-003 4.16142633e-003 -2.13557086e-003
      1.89371384e-003 4.66223387e-003 -2.51329271e-003 -3.38454149e-003
      2.99904612e-003 7.70600280e-003 4.52512736e-003 3.93323181e-003
      1.11170148e-003 -6.71417359e-003 -1.00893283e-003 -8.59755673e-004
      -1.12897996e-002 -6.93823036e-004 4.13265871e-003 2.04141135e-003
      -2.77413405e-004 -6.64298749e-003 -7.87510129e-004 2.89706630e-003
      3.19243153e-003 -2.91614048e-003 4.10867762e-003 -9.20466904e-004
      -3.46646033e-004 5.99518511e-003 3.78796458e-003 -1.40534819e-003
      2.97054206e-003 -3.34921409e-003 -6.17785321e-004 4.83515556e-004
      7.75076158e-004 -4.31725523e-003 3.27522377e-003 -1.97133701e-003
      1.47359783e-003 3.81378317e-003 7.02334801e-004 3.91028170e-003
      1.11293921e-003 -8.30661564e-004 2.75620027e-003 -1.42569968e-003
      -9.61619895e-003 -4.51192539e-003 7.93884508e-004 -4.73349076e-003
      -1.50665292e-003 3.54156131e-004 -5.09157963e-003 5.60595421e-004
      -2.14173249e-003 2.07063230e-003 -2.03904673e-003 -8.31523538e-003
      -9.71928355e-004 -8.11724178e-003 2.63795187e-003 -6.08575670e-003
      -3.24586825e-003 -2.92482181e-003 -3.80956032e-003
      -2.02012016e-003 2.96445191e-003 5.51320706e-003 1.67949207e-003
      -6.92842901e-003 5.33585623e-003 -5.28300833e-003 -1.76003983e-003
      2.70317146e-003 2.16224842e-004 5.88295609e-003 1.55173475e-003
      9.43977386e-003 6.66472921e-003 1.34566857e-003 -3.24738037e-004
      1.29935145e-003 -4.06859303e-003 -5.26897749e-003 7.67616322e-003
      4.05002758e-003 -3.58217140e-003 1.16210582e-003 5.54239750e-003
      3.37962853e-003 -3.70636070e-003 -7.79669645e-005 1.19698861e-005
      3.65069951e-003 -3.13182757e-003 6.61942037e-003 -5.32234833e-003
      -2.74701184e-003 -1.61863468e-003 -7.40923872e-003 1.51369837e-004
      -3.91460815e-003 -4.13197652e-003 -5.28052158e-004 2.11110781e-003
      -1.00499578e-003 -6.02387823e-004 1.10910332e-003 -7.11347733e-004
      5.19873865e-004 4.01612604e-003 -2.49160873e-003 3.68452258e-003
      1.36911427e-003 -3.72805889e-003 -1.20828638e-003 -2.14648154e-003
      -2.49360711e-003 5.25744341e-004 1.85579946e-003 4.77361167e-003
      6.00581616e-003 -2.74028792e-003 1.38654769e-003 2.64609652e-003
      -1.65138126e-003 -2.83027627e-003 -5.61321294e-003 1.29389321e-003
      5.93302655e-004 8.32140620e-004 -1.87251833e-003 -1.03924808e-003
      -1.95931084e-003 -4.71905293e-003 5.67584625e-003 4.11764951e-003
      -1.58890703e-004 7.02106813e-003 7.42764038e-004 -3.90247139e-003
      -4.94313426e-003 -1.72763917e-004 2.20723683e-003 -2.94324942e-003
      -6.77622797e-004 -2.99988734e-003 -4.43095388e-003 6.73300296e-004
      3.82409454e-003 2.64002918e-003 -1.89927325e-003 -1.71868509e-004
      -3.79107683e-003 3.52826202e-004 6.60492433e-003 -5.44340955e-003
      1.67183380e-003 -7.09817698e-003 4.84944694e-003 -3.46187409e-003
      1.38398283e-003 2.67618161e-004 3.41713778e-004 1.30659272e-003
      -3.03074776e-004 -3.06798087e-004 1.79815572e-004 -3.82711575e-003
      -9.08193353e-004 8.66924820e-004 2.65814946e-003 2.12124945e-003
      -3.60960932e-003 3.41783604e-003 6.33575069e-003 1.32116710e-003
      7.30055617e-004 5.96647803e-003 -1.13821625e-004 -4.52706171e-003
      -3.02644912e-004 -1.16220023e-003 -3.17296595e-003 9.34120442e-004
      -6.22637942e-003 -7.73573853e-003 1.21777481e-003 2.05693673e-003
      -5.29501075e-003 -1.13017298e-002 -1.41958147e-003
      -5.63110923e-003 1.45164889e-003 4.29876801e-003 -3.16816877e-004
      -2.43096100e-003 2.05082516e-003 2.43786792e-003 -2.39254814e-003
      6.57208438e-004 -4.19849384e-004 5.35419863e-003 1.48965651e-003
      -3.16407881e-003 4.80903749e-004 -1.72793050e-003 2.60623987e-003
      -2.27939803e-003 6.24846993e-003 2.86682835e-003 2.98476149e-003
      -1.98887684e-003 2.09845661e-004 -1.38848915e-003 4.50496282e-003
      2.46571284e-003 1.52935274e-003 2.48012319e-003 -3.71307251e-003
      -3.68781458e-003 -4.39520599e-003 -1.10259326e-003
      -6.87503070e-003 -6.61930442e-003 3.61130165e-004 3.06094461e-003
      1.31912511e-005 1.56659400e-003 -1.01960544e-003 3.83432116e-003
      2.48894724e-003 -3.45460279e-003 8.06307013e-004 -3.29191214e-003
      3.48939537e-003 -7.30227027e-003 1.01744512e-003 -7.01664854e-003
      4.24165092e-003 -9.75308591e-004 1.15459866e-003 4.22912976e-003
      2.40678387e-003 -1.81855343e-003 2.21155977e-004 -7.49669038e-003
      7.92864186e-004 2.95303413e-003 -4.01786668e-003 -5.09370863e-003
      1.19430409e-003 -7.85614655e-004 6.62549492e-003 4.92659048e-004
      -3.54211719e-004 -6.51980471e-003 -1.60652935e-003
      -1.53821288e-003 -3.90388747e-003 -3.43928905e-003 7.53197540e-003
      2.22654431e-003 -2.48880754e-003 -6.56648679e-003 1.25597790e-003
      -2.44557858e-003 -4.19063168e-003 3.20643163e-003 -8.53235018e-004
      -3.04674241e-003 -1.17330346e-002 2.42248876e-003 -2.85374001e-003
      -1.35326514e-003 -7.41721923e-003 4.49354586e-004 -7.28279876e-004
      -2.25277944e-003 1.44660764e-003 -7.43910205e-004 -1.26992981e-003
      -1.51080103e-003 -2.71209213e-003 -6.92839362e-003
      -6.49004243e-003 -2.85124313e-003 -4.22322046e-004 7.58509210e-004
      2.96281744e-003 -1.07945863e-003 -3.08941305e-003 2.14356882e-003
      -3.55906622e-003 -2.27632932e-003 -4.38702246e-003
      -2.37184996e-003 2.91550602e-003 5.75052947e-003 5.07316040e-003
      3.30124004e-003 1.68063468e-003 -2.82553653e-003 6.21790241e-004
      -9.27784247e-004 7.13191135e-003 -3.11658299e-003 -5.38614462e-004
      1.36925169e-004 4.03083768e-003 -5.97198121e-003 1.43070973e-003
      -6.09075325e-003 1.33961847e-003 -2.30423873e-003 8.36317055e-003
      -6.15531765e-003 4.26337635e-003 1.11983437e-003 -7.75336754e-003
      -2.17790206e-004 2.31393566e-003</_>
    <_>
      -7.81543844e-004 5.28596621e-003 -1.01732723e-002 2.92905653e-003
      -1.17506329e-002 5.31994039e-003 -2.93146516e-003 6.21344103e-003
      -4.89898073e-003 -7.40206614e-003 -4.33048652e-003
      -2.06567743e-003 3.93767463e-004 5.00188395e-003 4.36312985e-004
      5.49976993e-003 -6.53134775e-004 1.42735825e-003 -7.29669956e-003
      -1.25848351e-003 -9.26162698e-004 4.88142343e-003 -4.63512633e-003
      3.60836391e-004 4.60747862e-003 7.96660432e-004 5.86998789e-003
      3.11744050e-003 -5.65080624e-003 6.56916876e-004 -1.11038762e-003
      3.51855927e-003 -6.86848024e-003 2.98321224e-003 4.15349985e-003
      -1.28371147e-002 6.24081260e-003 -3.24228924e-004 7.43595976e-003
      6.60495646e-003 4.02867887e-003 1.81308889e-003 2.89543299e-003
      -3.01347667e-004 6.82429597e-003 5.70959691e-003 6.34493632e-003
      -2.82353465e-003 -4.93890885e-003 -9.21990164e-003
      -7.49635510e-003 -4.28630598e-003 -4.55225306e-003 8.43171962e-004
      -1.98571989e-003 -1.19591858e-002 9.24450287e-004 -4.02366975e-004
      1.96335511e-003 -3.29726055e-004 -1.31739462e-002 -2.07792982e-004
      5.51594421e-004 2.11367384e-003 1.10631483e-003 3.94256692e-003
      1.94672216e-003 6.65551377e-003 -1.34450485e-004 7.99925532e-003
      3.81413312e-003 3.38386657e-004 -5.11049340e-003 8.74745601e-004
      -5.36303781e-003 -1.08188465e-002 -2.68140645e-003
      -2.22848379e-003 6.51521317e-004 4.70873114e-004 7.17662927e-003
      2.59735365e-003 -6.02421537e-003 5.97889395e-003 -6.22385554e-003
      6.25864044e-003 -1.50666898e-003 -1.31183472e-002 -8.60578101e-003
      5.25925215e-003 -1.20534154e-003 -3.57646844e-003 2.12415331e-003
      6.05246169e-004 1.63184933e-003 -3.51965835e-004 1.84838762e-004
      -4.24732640e-003 -6.88900007e-003 7.46432692e-003 -2.16784142e-003
      -5.27812773e-003 7.76401081e-004 1.76508795e-003 -7.46742776e-003
      6.84204604e-003 -4.34066867e-003 1.26613844e-002 -8.72472534e-004
      7.21029518e-003 5.18933404e-003 6.67058816e-003 -3.00406059e-003
      9.04674453e-005 -1.06985513e-004 -2.02672575e-002 -1.36756590e-002
      2.53818580e-004 4.38316585e-003 2.86892452e-003 3.72367469e-003
      -3.73884314e-003 -6.27271971e-003 -3.57072405e-003
      -2.68337259e-004 -6.83270264e-005 -2.53696251e-003
      -8.84847715e-003 7.07439287e-003 4.14986629e-003 -1.39397965e-003
      1.88290887e-003 -6.50582137e-003 2.36938684e-003 4.83761774e-003
      6.44701207e-003 2.74079759e-003 6.21020561e-003 -2.50039855e-003
      -1.83362712e-003 3.73529340e-003 -1.44516947e-002 -1.83459953e-003
      1.33463729e-003 -1.57023349e-003 1.27890985e-003 5.00325812e-003
      -6.67285081e-003 9.24896274e-004 -5.29382844e-003 2.93787802e-004
      -2.61111255e-003 1.46067445e-003 -5.33586508e-003 -3.40489764e-003
      8.90436396e-003 4.98450315e-003 2.23711855e-003 -8.26365408e-003
      1.94484554e-003 4.84160101e-003 7.23187113e-003 8.60511977e-003
      -4.90517681e-003 2.04318832e-003 -1.59257953e-003 3.56135075e-003
      1.88119244e-004 4.99982671e-005 4.60764766e-003 2.50969245e-003
      -2.11062771e-003 4.85047372e-003 -5.61874080e-003 -1.06571894e-002
      4.83300118e-003 -1.11821275e-002 1.90145767e-003 -4.89173597e-003
      -1.31769630e-003 5.73204132e-003 -9.36054799e-004 -9.70009423e-004
      6.85599225e-004 8.12238269e-003 -9.15648509e-003 7.99327716e-003
      8.40791210e-004 -2.99294799e-004 -6.23579277e-003 -9.44685424e-004
      1.08782151e-004 -2.20259069e-003 3.03041772e-003 7.45073659e-003
      3.17797018e-003 3.92626692e-003 2.28418736e-003 7.52359163e-004
      2.44899723e-003 1.59840600e-003 8.41361005e-004 -4.09105420e-003
      9.78676137e-004 -5.24716685e-004 7.03863427e-003 5.39695146e-004
      -1.01989228e-002 -2.38044001e-003 -6.01157360e-003
      -4.74631990e-004 1.06048156e-002 1.09056048e-002 2.01003021e-003
      8.94420446e-005 -7.59197399e-004 1.64082425e-003 2.61575170e-003
      -1.22218905e-003 4.77377744e-003 5.11513650e-003 4.53752093e-003
      -1.83349866e-002 1.30429235e-003 4.20831004e-003 2.19714176e-003
      -2.70254444e-003 -2.38933577e-003 4.74000908e-003 8.66392686e-004
      -2.36088084e-003 -7.29953684e-003 -9.99956741e-004
      -4.41298867e-003 2.72298115e-003 5.20951534e-003 -1.56315253e-003
      5.24479384e-003 1.62972789e-003 -7.32969260e-003 9.85229039e-004
      4.68251419e-005 -2.97823944e-003 3.16191465e-004 8.24513787e-004
      -1.97097892e-003 1.71769600e-004 2.94488179e-003 -4.65522148e-003
      2.86195520e-003 -6.28007576e-003 1.87985576e-003 5.79839339e-003
      1.05580650e-004 -6.81182835e-003 -5.27833821e-003 4.63721575e-003
      8.25024303e-003 9.63814557e-004 -8.76353122e-003 2.35015852e-003
      4.34186123e-003 -1.83402305e-003 -4.43564216e-003 6.56107021e-003
      -1.81616447e-003 -5.47389674e-004 1.75410532e-004 2.26313504e-003
      -9.35724657e-003 3.32989148e-003 6.36036322e-003 6.24087188e-005
      1.20887638e-003 -5.73051919e-004 4.34766943e-003 -4.34596045e-003
      9.27396864e-003 8.44132737e-004 -2.28281715e-003 -1.94399001e-003
      3.57483188e-003 1.40834239e-003 3.83712072e-003 -1.01420272e-003
      -8.45591072e-003 -5.65045699e-003 8.32055788e-003 -7.36385304e-003
      2.40521086e-003 1.53955573e-003 -7.99217305e-005 1.20145327e-003
      -1.84183673e-003 1.85203133e-003 6.12118281e-003 -1.37266405e-002
      -4.69454238e-003 3.92352277e-003 -1.31002895e-003 2.28707050e-003
      -5.59248589e-003 -7.42247654e-003 1.40007806e-003 6.50503498e-004
      -3.93588422e-003 -8.87999497e-003 2.39423849e-003 -4.54777852e-004
      1.03992631e-003 -1.29899103e-003 1.03241038e-002 6.26400020e-003
      8.63878638e-004 -1.62086112e-003 -1.16624590e-003 2.92264367e-003
      1.52383116e-003 -1.02931410e-002 -8.09355464e-004 -3.02541279e-003
      3.16507579e-003 8.31725448e-003 -1.36551983e-003 4.90697660e-003
      3.11130611e-003 4.06142557e-003 -3.10320058e-003 2.11052597e-003
      -7.51844421e-003 2.80999753e-004 -7.84702657e-004 -2.78736395e-003
      -1.01276173e-003 -1.13093974e-002 6.36507804e-003 3.40978079e-003
      6.44440996e-003 7.57413916e-003 -8.05230439e-003 3.00644012e-003
      6.15262985e-003 -4.04406711e-003 -9.79873538e-003 -1.09141017e-003
      -1.03092287e-003 -4.18540556e-003 -2.17951345e-003 1.98097457e-003
      -1.51833298e-003 -3.37819220e-003 -1.11385081e-002
      -4.36216546e-003 -6.38357876e-003 5.42426296e-003 3.10998294e-003
      2.51505850e-003 -1.99967879e-003 -4.91168024e-003 1.67776842e-003
      -5.23530180e-003 -6.06547575e-004 -5.47157554e-003 1.19411305e-003
      4.06613154e-003 1.71177089e-003 -5.54029876e-003 8.28402676e-003
      -1.23732509e-002 -4.04082180e-004 6.26995787e-003 6.22904999e-003
      1.40333606e-003 5.34491660e-003 1.00042182e-003 9.52774752e-003
      7.67056691e-003 -1.69954970e-002 -5.64529747e-003 -4.84171184e-003
      3.48883565e-003 4.98741772e-003 -5.17007755e-003 -2.70904019e-003
      -9.79872071e-004 -1.89578685e-003 -8.97849153e-004 3.90262413e-003
      -8.35159211e-004 7.27178575e-003 8.10649060e-003 5.32919075e-004
      -8.28473642e-003 2.87292828e-003 -1.97074120e-003 -5.57976449e-003
      3.81188071e-003 6.60267007e-003 3.06608225e-003 -6.85570249e-003
      3.68862040e-003 2.08255369e-003 4.89812158e-003 -4.80596628e-003
      -4.97534592e-003 -1.61269866e-003 -8.65465123e-003
      -5.90034435e-003 -6.36298559e-004 2.98554567e-003 8.72319099e-003
      -5.95811661e-003 2.20820028e-003 2.22466770e-003 3.32476851e-003
      1.79547316e-003 3.07379290e-003 -6.28898924e-005 6.22844882e-003
      5.39480359e-004 2.65529822e-003 4.55748988e-003 -4.24590567e-003
      -5.50813740e-003 1.98511686e-003 3.18230479e-003 1.39469849e-002
      -6.94507689e-005 -3.03448457e-003 6.74247640e-005 -7.35404948e-003
      -5.57436515e-003 -1.72046840e-003 -1.07202341e-003 3.13909492e-003
      7.26888364e-004 -7.31043704e-003 1.80598162e-003 -6.42258674e-003
      7.65781943e-003 2.53411755e-003 -1.84045857e-005 4.88196453e-003
      -2.73755495e-003 -4.88359621e-003 4.76288056e-004 6.91683497e-004
      -9.31159360e-004 -7.91160576e-003 -8.55758437e-004</_>
    <_>
      2.32822611e-003 -5.89589542e-003 -5.14807785e-003 -4.68352623e-003
      1.59674126e-003 2.62200716e-003 -1.77734217e-003 7.41166878e-004
      -2.08760193e-003 -2.37855781e-003 6.10006135e-003 1.02264930e-004
      6.03898894e-004 8.94638884e-004 -1.76505500e-003 8.75399855e-004
      2.68991827e-003 -2.97528715e-003 8.55534221e-004 -2.28293054e-003
      -3.04339314e-003 -2.17903103e-003 -4.08904813e-003
      -1.05744903e-003 -7.63223565e-004 4.83323180e-004 4.95563820e-003
      5.82697685e-004 -4.71482286e-003 -2.58516846e-003 -1.89160183e-003
      -1.39572658e-003 -1.07542041e-003 3.39244027e-003 -2.65813456e-003
      -2.43454613e-003 -1.69649255e-003 8.36564577e-004 2.80061387e-003
      -5.11714199e-004 3.15557001e-004 5.36691456e-004 -9.55769283e-005
      2.31703161e-003 1.23351975e-003 4.12488356e-003 1.14989540e-004
      2.76004989e-003 -6.62720902e-003 -3.20735900e-003 -1.62780529e-003
      -6.08899165e-003 -2.40452006e-003 3.16423876e-003 7.36881862e-004
      7.48386560e-003 -4.24278481e-003 -7.06436636e-004 -6.35873526e-003
      -1.76852988e-003 4.04094288e-004 -3.00476281e-003 -2.30997684e-003
      1.07571739e-003 1.01645943e-003 -2.02341634e-003 -6.97180221e-004
      1.35869381e-003 3.92858754e-004 2.22232169e-003 9.70809255e-004
      2.99369032e-003 7.66007695e-004 2.06657592e-003 9.18164791e-004
      -5.89967798e-003 -7.38695555e-004 1.08913067e-004 -7.46062119e-003
      1.98150449e-003 8.24279524e-003 1.21657050e-003 -3.36814136e-003
      -6.03602594e-003 9.93588241e-004 -2.16839905e-003 2.02075066e-003
      1.49544212e-003 -1.95511128e-003 3.65220360e-003 -4.42337664e-003
      -2.57625972e-004 1.47707097e-003 -3.50311492e-003 -3.58918635e-003
      -2.20404705e-003 1.29613746e-003 7.67588557e-004 7.92028033e-004
      2.00565415e-003 1.45762658e-003 -5.35036577e-003 -5.26065414e-004
      -5.47117728e-004 -4.48261667e-003 3.04509164e-003 -5.55821089e-003
      9.79881734e-003 7.43762299e-004 4.78577385e-005 1.35008176e-003
      3.65563016e-003 2.16913596e-003 -8.51950841e-004 -2.67817290e-003
      4.45039070e-004 -7.27989525e-003 -5.16207831e-004 9.88306638e-005
      -9.64154664e-004 1.64687377e-003 -2.91196513e-003 -1.06409530e-003
      4.71583589e-005 5.04880957e-003 2.62274733e-003 4.60847747e-003
      9.25472705e-004 3.83188413e-003 -1.42781145e-003 2.74809339e-004
      4.31368733e-003 3.27771832e-003 -3.07047786e-003 2.97491765e-003
      -2.08641496e-003 7.60352705e-005 -4.42307256e-003 -4.04458515e-005
      1.69332477e-003 1.37329847e-003 -2.79980619e-003 -1.16998760e-003
      8.01508257e-004 -3.00503243e-003 -3.35597806e-003 9.42461775e-004
      -4.18911176e-003 -3.20285535e-003 -2.63967639e-004
      -2.41010985e-003 -1.85356906e-003 1.67518714e-003 -7.13199191e-003
      -1.64152880e-003 4.32735495e-003 4.00542421e-003 -2.94737029e-003
      1.59588305e-003 -1.62272993e-003 -2.35496947e-004 -1.94190058e-003
      -1.19655090e-003 -5.28133067e-004 1.45302340e-003 -6.17351476e-003
      -1.98492478e-003 4.39575221e-003 -7.76516332e-004 2.05853791e-003
      3.20343673e-003 3.47678643e-003 5.34368213e-004 -6.36297860e-004
      -5.38881123e-003 8.52881814e-004 6.16631063e-004 2.83955276e-004
      -4.41535469e-003 6.51515182e-003 -1.88636279e-003 -5.05893549e-004
      2.40410198e-004 -7.32904518e-005 -1.51853950e-003 1.94347498e-003
      -1.38869800e-004 -4.87144664e-003 9.83507838e-004 -3.90495546e-003
      -2.47537903e-003 -2.21999479e-003 -7.72159547e-004
      -4.61605936e-003 1.56936061e-003 -4.03319864e-004 -1.24010013e-003
      -1.65826787e-005 3.43338680e-003 -1.51733577e-003 4.62912139e-004
      3.56770935e-003 7.63700693e-004 1.59693090e-003 2.02423427e-003
      1.38789252e-003 1.68132829e-003 -2.46119132e-004 -2.32627802e-003
      2.20754091e-003 -8.15641368e-004 -4.11221961e-004 6.66690478e-003
      2.91528902e-003 -3.08481773e-004 -5.99798805e-005 2.23766267e-003
      1.00324955e-003 -3.68134538e-003 1.04530121e-003 -9.25888249e-004
      4.82059410e-003 -4.95368149e-003 -1.78108655e-003 -9.58361372e-004
      -2.28671380e-003 -2.06021545e-003 1.10900786e-003 -4.73946286e-003
      -5.30207623e-003 -3.17140715e-003 -2.54005333e-003 3.61262984e-003
      1.35281577e-003 5.89369237e-003 -2.46003782e-003 2.56239146e-004
      -1.94508675e-003 -4.45200736e-003 -2.91596027e-003 7.67619000e-004
      -1.59019826e-003 -1.97609025e-003 3.07318842e-004 -9.69263318e-004
      1.03267655e-003 -3.78006371e-003 1.85192504e-003 2.95142853e-003
      2.02303566e-003 -9.65483079e-004 1.77288172e-003 -6.60790654e-004
      7.92547653e-004 -6.07266615e-004 2.18739640e-003 9.87815438e-005
      1.18528015e-003 2.06883942e-005 -5.13806893e-003 -6.51883602e-004
      -2.10051978e-004 -1.96945015e-003 4.43948316e-004 3.16677103e-003
      9.21142404e-004 4.74806991e-004 1.30400143e-003 7.75826396e-003
      1.27587607e-003 -2.35572620e-003 3.62135167e-003 2.10476410e-005
      -3.16286716e-003 1.20830967e-003 -5.68164338e-004 -1.04340690e-003
      1.01045158e-003 -1.01497956e-003 -3.04059871e-003 -1.31801213e-003
      -2.60301423e-003 -2.36130203e-003 -1.54623203e-003
      -2.60819984e-003 1.01513730e-003 -3.05754528e-003 2.17134808e-003
      -3.04230233e-003 1.39404403e-003 -6.68816222e-003 1.18607539e-003
      -6.91894267e-004 -2.13293522e-003 -1.73022412e-003
      -2.93511571e-003 -1.36585475e-003 1.65418023e-003 -2.92438810e-004
      5.62027656e-003 -2.21736217e-003 -3.03858332e-003 -2.73160840e-004
      2.27778289e-003 -1.59471028e-003 -5.71034010e-003 -2.72982777e-003
      -3.98404384e-003 -3.65209603e-003 -3.90978903e-003
      -2.23058858e-003 6.28477195e-004 3.46354384e-004 -6.47161063e-003
      3.69691150e-003 -3.13808629e-003 -3.26694979e-004 -4.10339489e-005
      -1.63404178e-003 6.90036832e-005 -6.80169265e-004 9.40016820e-004
      2.82187480e-003 -3.06189642e-003 -3.20225442e-003 -5.95198188e-004
      1.20136619e-003 1.90192790e-004 5.33020557e-006 -4.09820629e-003
      1.69601350e-003 -3.56444693e-003 -3.18030920e-003 3.30495066e-003
      8.78588471e-004 2.92537641e-003 4.33390524e-004 2.38619046e-003
      1.18828902e-003 -1.40076806e-003 -5.54772979e-003 1.86756195e-004
      -1.23662071e-003 1.70777761e-003 2.74629006e-003 -4.03339602e-003
      -4.38164268e-003 2.33323171e-005 -2.48428993e-003 9.07550682e-004
      -2.01558997e-003 -4.45761345e-003 -4.89751762e-003
      -3.76651762e-003 -2.68817443e-004 -1.27467816e-003
      -2.12443736e-003 -1.64747133e-003 -1.25322503e-003
      -7.82896997e-004 -5.45257330e-003 9.18877369e-004 -4.31793189e-004
      2.33129342e-003 -1.33124122e-003 1.31925126e-003 -1.50159118e-003
      1.82564091e-003 1.50031017e-004 4.88666410e-004 1.63852714e-003
      -7.10062217e-004 3.68248817e-004 5.00569073e-003 -7.93160219e-003
      6.16454333e-003 1.91767770e-003 -5.71998768e-004 -2.16276594e-003
      -2.55157566e-003 3.47475958e-004 2.29191454e-003 -6.01594849e-003
      -1.64236850e-003 -1.01714523e-003 -4.58684022e-004
      -3.54169775e-003 1.23856508e-003 2.41567104e-004 -5.78734434e-005
      -1.14560151e-003 -1.51979475e-004 -1.80212525e-003
      -2.53163557e-003 -2.57662707e-003 1.04708027e-003 3.68917733e-003
      -3.96052422e-003 2.31564231e-003 -3.62616032e-003 4.87336097e-003
      -2.79826019e-003 -2.55654333e-003 5.26742660e-004 4.45699952e-005
      -1.07868714e-003 -1.39908900e-003 -1.01529818e-003
      -2.89416825e-003 -1.14458497e-003 -1.13232818e-003
      -3.52018164e-003 -2.07429170e-003 -2.26035877e-003
      -2.86118058e-003 -2.49936013e-003 1.66779768e-003 -4.32580430e-003
      -3.51231685e-003 -2.67266133e-003 3.57313082e-003 2.44653644e-003
      2.08708993e-003 1.76438596e-004 5.24730012e-006 1.59612205e-003
      1.87932968e-003 -2.22092075e-003 -9.71140340e-004 -8.25917465e-004
      1.21449260e-003 -6.59311132e-004 1.33831904e-003 -6.80982368e-003
      -1.76370575e-003 1.70649181e-003 -1.27427105e-003 1.69283361e-003
      -5.33996616e-004 -8.30317556e-004 -2.61412980e-003 2.31988518e-003
      -6.46360731e-003 7.78362853e-003 -1.90608925e-003 2.87376181e-003
      -5.80946589e-003 -3.18487029e-004 2.42880732e-003 -3.32678203e-004</_>
    <_>
      1.10852462e-003 5.63575607e-003 4.59441356e-003 4.58173500e-003
      -1.45246030e-003 -1.20270776e-003 -5.25202043e-003 5.65081509e-003
      -3.00810835e-003 -4.45592217e-003 -4.33746818e-003 2.24994001e-004
      -1.06733677e-003 3.10657779e-003 8.32994701e-004 1.16470491e-003
      7.81557709e-003 1.87890592e-003 3.46472627e-003 3.90040339e-003
      8.87231028e-004 -2.78481049e-003 1.93657319e-003 2.58923648e-003
      1.92621909e-003 1.34117040e-003 1.33768923e-003 2.27874354e-003
      7.91902002e-003 -3.59543459e-003 -2.88620172e-003 2.68767704e-003
      -1.58907904e-003 1.84790755e-003 4.00144927e-004 -7.63926608e-003
      2.25526909e-003 1.06624821e-002 3.22343898e-003 -1.97660923e-003
      6.46139216e-003 8.26845819e-004 7.45123671e-003 -6.46694796e-004
      5.34890173e-003 5.77656436e-004 -3.20431485e-004 -1.96939451e-003
      1.92413456e-003 -1.23696923e-002 -1.77521456e-003 -3.50574707e-003
      -5.33043058e-004 -8.82581808e-003 -3.84724350e-003 2.96573713e-003
      4.73445840e-003 8.87420436e-004 6.80519268e-003 -4.58066957e-003
      -1.10256048e-002 4.80021164e-003 -1.33724383e-003 -6.91170862e-004
      -6.84362545e-004 2.94191437e-003 2.33500823e-003 5.56783797e-003
      -3.99164949e-003 2.65310472e-003 -4.88595990e-003 9.63797967e-004
      -5.61985187e-003 -5.32250328e-004 -3.14515666e-003 4.26517939e-003
      5.13807172e-003 -3.70353949e-003 3.13186832e-003 -3.98623245e-003
      9.97524709e-004 -3.12514743e-003 -1.30946608e-002 7.91128259e-003
      2.13763095e-003 -1.83044630e-003 8.50332493e-004 -3.85654811e-003
      3.46781733e-003 2.89149059e-004 5.51941991e-003 -1.23160658e-003
      -5.22224559e-003 2.24116910e-003 2.15298380e-003 6.70970371e-003
      2.76495144e-003 -2.80652632e-004 -9.22783627e-004 3.89528438e-003
      3.17134149e-003 -2.98363995e-003 -1.13913452e-003 -3.20624001e-003
      -1.89357565e-003 -6.67842163e-004 4.40706173e-003 3.85026284e-003
