<?xml version="1.0"?>
<opencv_storage>
<my_svm type_id="opencv-ml-svm">
  <svm_type>C_SVC</svm_type>
  <kernel><type>LINEAR</type></kernel>
  <C>1.0000000000000001e-001</C>
  <term_criteria><epsilon>9.9999999747524271e-007</epsilon>
    <iterations>10000000</iterations></term_criteria>
  <var_all>400</var_all>
  <var_count>400</var_count>
  <class_count>5</class_count>
  <class_labels type_id="opencv-matrix">
    <rows>1</rows>
    <cols>5</cols>
    <dt>i</dt>
    <data>
      86 165 171 180 245</data></class_labels>
  <sv_total>10</sv_total>
  <support_vectors>
    <_>
      4.11861483e-003 -5.19983005e-003 2.13360484e-003 3.11241765e-003
      1.78196002e-003 3.92835401e-003 5.88932820e-003 1.29299253e-004
      -2.49993429e-003 2.82030692e-003 1.83951715e-003 1.50440738e-003
      -3.00731161e-003 -1.77875068e-003 4.41424083e-003 3.49704083e-003
      -9.30228364e-003 -1.26591156e-004 5.96027216e-003 9.47515538e-004
      -1.41461485e-003 3.80998966e-003 -1.42642192e-003 3.21636279e-003
      1.59379072e-003 5.65290079e-003 3.26040713e-003 1.26803375e-003
      -2.63304752e-003 3.69840884e-003 4.55407833e-004 -2.25771382e-003
      -2.10246863e-003 5.36099309e-003 -4.82380856e-004 3.79023817e-003
      -1.70744944e-003 -1.24571531e-003 -5.09461062e-003 5.65537903e-003
      -2.44113291e-003 -4.27366281e-003 3.77152115e-003 5.75294439e-003
      6.71250280e-003 -4.83875815e-003 -3.99279920e-003 1.51805067e-003
      -9.01606749e-004 3.39218928e-003 -2.24822853e-003 1.63169077e-003
      -4.42591449e-003 -2.05338933e-003 -2.85644643e-003
      -2.75943079e-004 3.72265559e-003 8.14143289e-003 6.48118136e-003
      2.55897827e-003 3.77514516e-003 -4.77871072e-005 -4.29897383e-003
      2.67781364e-003 -9.33473173e-004 -4.21679858e-003 -8.50521727e-004
      -3.09154711e-004 5.62780863e-003 4.25567065e-004 -7.30205607e-003
      1.27471599e-003 2.59004487e-003 -2.12490675e-003 1.58316770e-003
      2.34075170e-003 -7.99596496e-003 3.30423983e-003 7.96696171e-003
      1.66817335e-004 -5.55846328e-003 -2.40228488e-003 1.04680716e-003
      -6.32260228e-003 -5.35389583e-004 -4.45577200e-004
      -1.22104958e-003 -5.60721802e-003 3.55166872e-003 -5.83898800e-004
      5.39965648e-003 2.49814498e-003 -2.97863758e-003 -9.75206867e-003
      -4.54342738e-003 -1.29601976e-003 -4.34587200e-005 1.18886179e-003
      -3.02205235e-003 4.26210510e-003 1.37452614e-002 2.13175802e-003
      -1.06664572e-003 -1.90835551e-003 4.09229519e-003 1.78411754e-003
      -1.67873397e-003 2.35078461e-003 7.52570864e-004 3.41005041e-003
      1.74337416e-003 6.75295899e-003 -3.00926808e-003 -5.65660698e-003
      1.26968080e-003 -9.56943550e-004 -7.83071853e-003 5.57263568e-003
      -2.02143696e-004 2.01449380e-003 6.63539337e-004 6.51957979e-003
      7.96444435e-003 -6.68036705e-003 6.72791665e-003 -1.14701979e-003
      5.99058997e-003 3.60036356e-004 -7.67148752e-003 -3.49113112e-003
      -2.29789712e-003 -3.61389178e-003 -1.23734130e-002 5.28338307e-004
      1.04210740e-002 2.99851899e-003 3.55503615e-003 -1.38858857e-003
      2.49499129e-003 1.26631735e-002 -4.57179267e-003 -6.74988702e-003
      8.64427566e-005 4.53350088e-003 -6.77452609e-003 1.45141175e-003
      3.46781895e-003 -6.62911590e-003 3.63388029e-003 -1.28764054e-002
      -5.07150637e-003 -4.38248040e-003 2.88706925e-003 5.53556113e-003
      2.44216906e-004 -5.77934505e-003 -4.24419902e-003 -3.77348694e-003
      2.17584870e-003 1.70577678e-003 -4.20187647e-003 -4.05920343e-003
      4.95805638e-003 1.18643115e-003 -7.56970420e-003 4.45763627e-003
      -5.26229385e-003 8.00222345e-003 2.61236052e-003 1.83609047e-003
      -1.10118906e-003 2.88830744e-003 3.48687661e-003 4.82447259e-003
      -3.22694577e-005 9.87070496e-004 -1.09344173e-005 -9.66918189e-004
      -9.10521206e-003 -1.55680918e-003 1.07313665e-002 -4.40250942e-003
      1.23988697e-003 8.36230640e-004 -1.47756853e-003 5.74561069e-003
      3.89660173e-003 -4.71589738e-004 4.60105482e-003 -4.18590178e-004
      -6.30945573e-003 2.11673090e-003 -3.03735980e-003 1.82815047e-003
      8.46034754e-003 4.54294635e-003 6.63564540e-004 1.41214245e-004
      1.37245969e-003 -2.05381797e-003 3.17209691e-004 1.81007618e-003
      -5.24249719e-003 -5.56608988e-003 5.68917952e-003 1.64449390e-003
      -3.85323190e-003 -6.23849872e-003 7.14906584e-003 6.88216940e-004
      -3.00251273e-003 -6.85483590e-003 2.25836504e-003 3.40313913e-004
      1.70632929e-003 -4.85945959e-003 5.75088081e-004 8.75159283e-004
      -2.64016446e-003 -5.52963000e-003 -2.85131810e-003
      -6.59357000e-004 -7.09385704e-003 8.29551090e-003 2.76530418e-003
      1.02214213e-003 1.85523811e-003 -4.47847182e-004 -8.78400286e-004
      7.87327474e-004 -1.63236156e-003 -7.81119242e-003 4.67348524e-004
      -3.22618900e-004 -1.41641987e-003 -4.60291188e-003 2.90218927e-003
      -3.37061076e-003 6.16524648e-003 -4.05346183e-003 -3.17342929e-003
      -6.46518311e-004 -9.25981207e-004 -5.54204546e-003
      -2.31896108e-003 3.06400890e-003 -5.96561795e-003 -1.54393038e-003
      6.10030163e-003 2.40632985e-003 -3.22903856e-003 4.55744704e-003
      2.09990586e-003 -2.77415058e-003 1.37248682e-003 -7.28027383e-003
      -2.52246886e-004 -2.89338804e-003 -3.68525670e-003 2.63276743e-003
      -4.96849651e-003 -5.97667065e-004 -9.45856981e-003
      -9.33099422e-004 -1.94568560e-003 6.60460850e-004 -5.51147932e-005
      -5.00938040e-004 3.64172598e-003 -1.79584231e-003 -3.51511204e-004
      2.18861358e-004 -7.48101273e-004 8.51784740e-003 -6.94328314e-003
      -2.50136806e-003 3.25073930e-003 1.61204790e-003 -1.63552025e-003
      -1.32728275e-003 6.23938744e-004 1.08146213e-003 -4.33474965e-003
      2.21685716e-003 7.02818797e-005 1.10591960e-003 5.54225966e-003
      -2.95718969e-003 3.82308126e-003 -4.50399675e-004 -3.50193097e-003
      1.43186725e-003 3.74300382e-003 -8.32973863e-004 5.32767596e-003
      -2.19751801e-003 -1.05094216e-004 3.59453307e-003 1.98983238e-003
      5.08370949e-003 -2.78889504e-003 1.17373792e-003 -7.14072119e-003
      -5.08520892e-003 -4.74447059e-003 -2.01253290e-003 4.30749916e-003
      3.79951228e-003 -2.13792687e-003 4.91343252e-003 5.07753296e-003
      4.09290893e-003 -5.61496895e-003 -1.88761915e-003 5.66686643e-003
      -1.71751075e-003 3.32145300e-003 2.24438496e-003 -5.34020225e-003
      -6.62752567e-003 4.19107405e-003 -3.26391170e-003 -1.14883913e-003
      -4.81608370e-003 -1.23543071e-003 1.45572296e-003 1.48107632e-004
      -4.24811849e-003 -9.53136012e-003 4.65596467e-003 -1.35384046e-003
      -3.66957369e-003 -1.20663049e-003 -2.28443509e-003
      -3.39339185e-003 2.50777323e-003 3.05403234e-003 -1.98917743e-003
      8.10950901e-003 -7.45084696e-003 -1.42943987e-003 3.81780230e-003
      3.70132574e-003 9.70945286e-004 -1.43707532e-003 2.20526685e-003
      -3.90343484e-003 -1.41026161e-003 -3.11500672e-003
      -5.91234583e-003 -4.01270529e-003 -1.16885174e-003 2.62783002e-003
      -1.04399852e-003 1.82922196e-003 3.49774607e-003 1.50821952e-003
      3.55378911e-003 7.00666336e-003 3.25111882e-003 1.02096256e-002
      -5.16314991e-003 -1.69059692e-003 -7.50457111e-004 5.77682804e-005
      5.56023652e-003 1.37361477e-003 -1.25276158e-002 3.05864407e-004
      2.00223131e-003 -3.81406833e-004 1.58851629e-003 2.67454702e-003
      -3.60953854e-003 -1.09061564e-003 -7.06335064e-004 4.27921535e-003
      -3.80165497e-004 -3.14766495e-003 -1.69620581e-003
      -4.25559655e-003 4.13691945e-004 -4.27355431e-003 -2.09677708e-003
      1.00185501e-003 -3.10763740e-003 5.49912546e-003 -7.45053869e-003
      1.32191146e-003 4.90936777e-003 7.83111993e-003 4.77313623e-003
      -2.20317603e-003 5.48004871e-004 2.92834383e-003 4.28594975e-003
      -2.04061274e-003 -1.72113627e-003 4.02869843e-003 -9.08584989e-005</_>
    <_>
      1.96152087e-003 -4.78709862e-003 4.01561754e-003 2.04852503e-003
      -1.28464377e-003 1.95476372e-004 -1.17645459e-003 4.12042951e-003
      -2.46040663e-003 3.56587465e-004 6.62894128e-003 5.54917566e-003
      -2.50765728e-003 -3.78058548e-003 2.52953218e-003 2.31597060e-003
      -2.97559728e-003 2.34879414e-003 2.96516204e-003 -1.54537952e-003
      -4.35085269e-003 5.65898186e-003 3.29926866e-003 -5.72225591e-003
      1.78698904e-003 3.47850466e-004 2.56832130e-003 3.93387349e-003
      -1.03141996e-003 -8.13187100e-004 2.44351709e-003 2.73637497e-003
      3.18879890e-003 1.34404202e-003 1.37884740e-003 1.53541670e-003
      1.13502552e-003 5.10627031e-003 -5.59353852e-004 -2.13278458e-003
      -2.68864882e-004 5.10704983e-003 3.28224804e-003 1.55441696e-004
      1.53906213e-003 -1.66076701e-003 2.79512606e-004 -6.24523079e-003
      4.55687754e-004 1.96530111e-003 3.03506106e-003 6.88939239e-004
      1.26865215e-003 2.49590259e-003 -3.69157788e-004 1.83086819e-003
      5.59976848e-004 7.02824118e-003 4.02704254e-003 -1.36863638e-003
      6.38040947e-003 -9.65188956e-005 -4.66030370e-003 2.17124145e-003
      -2.68745073e-003 4.64224722e-003 -1.72690174e-003 4.48057149e-003
      -2.85760476e-003 5.54164778e-003 -4.93084917e-005 3.97512224e-003
      -7.25682592e-004 7.19388190e-004 1.69304421e-003 9.73749964e-004
      -3.07717035e-003 -7.37874769e-004 7.32790865e-003 -1.15231739e-003
      3.07864539e-004 -5.42105408e-003 1.70880253e-003 -4.13454697e-003
      -2.22816668e-003 4.82865609e-004 -3.47159500e-003 2.83197034e-004
      4.47162334e-003 -9.91421286e-004 -9.86634550e-005 2.07951479e-003
      1.27662695e-003 -2.89514498e-003 -6.22069137e-003 -3.75107233e-003
      -1.71902694e-003 -3.93838575e-003 -1.81281578e-003 7.85462209e-004
      6.80933846e-003 1.12800905e-003 1.55647343e-003 1.19375263e-003
      -3.28369276e-003 5.06450143e-003 -2.57142773e-003 5.29186986e-003
      -2.28932430e-003 2.17729108e-003 -1.51119975e-003 2.59950757e-003
      4.65132622e-003 -1.25113642e-003 -4.33147512e-003 4.13164962e-003
      -9.03483760e-003 1.87040726e-003 -6.58106117e-004 -1.93084459e-004
      -2.16577668e-003 -2.99185980e-003 2.04724749e-003 9.13300144e-004
      3.09920637e-003 -5.47394995e-003 -9.65408981e-004 1.56911509e-003
      -1.65694195e-003 -2.04159156e-003 3.88395674e-005 9.03270964e-004
      -2.99042882e-003 4.19822475e-003 1.91537384e-003 -3.31246783e-003
      3.59489769e-003 4.13872162e-003 -3.79963400e-004 4.10361681e-003
      -8.16478278e-004 -6.72056852e-003 -4.02805745e-004 2.12579384e-003
      -2.57025333e-003 -1.72775378e-003 9.62040795e-004 -5.06473996e-004
      4.54262743e-004 -3.14131123e-003 -2.07823026e-003 -5.36525680e-004
      4.08456055e-003 2.61587935e-004 1.62757211e-003 -9.07057605e-004
      7.60699390e-003 -3.48118762e-003 3.03383358e-003 9.05615918e-004
      -2.06029951e-003 3.25686211e-004 4.69203666e-003 4.32177540e-003
      -8.39368557e-004 4.00053104e-003 -8.26749858e-003 7.08112959e-003
      5.71112789e-004 3.38824419e-003 3.31452582e-003 3.76060279e-003
      -1.51343399e-003 1.41638366e-003 2.87768897e-003 5.81606431e-003
      1.28531654e-003 -4.82459873e-005 5.34246909e-004 3.85350757e-003
      -2.11495231e-003 9.12297051e-003 -3.72298900e-003 4.15518461e-003
      4.04254126e-004 4.90583479e-003 6.83111255e-004 3.82503867e-003
      3.17908614e-003 -2.61346670e-003 -2.03002058e-003 3.28025082e-003
      1.43440440e-003 1.80332095e-003 8.31642828e-004 -1.13878702e-003
      3.20014823e-003 -1.37046434e-003 -1.22175668e-003 -1.39710121e-003
      6.79167570e-004 -5.55048537e-005 -1.04382657e-003 5.98094007e-003
      4.99860663e-003 2.49639736e-003 2.71327124e-004 -6.59964094e-003
      -1.32101041e-003 1.85338792e-003 3.89914424e-003 -1.35546119e-003
      4.37799422e-003 4.66731610e-004 3.20311054e-003 -5.42438310e-003
      1.45632355e-003 4.05488862e-003 2.42602057e-003 1.09721324e-003
      3.33304727e-003 -1.88439153e-003 2.07103672e-003 -4.65774472e-004
      3.64694721e-003 -4.05876292e-003 1.15748344e-003 -1.63427426e-003
      2.90180696e-003 -5.34234103e-004 6.12894597e-004 -3.02309403e-003
      -1.15553150e-003 -3.07382667e-003 6.07564952e-003 -4.25995514e-003
      3.20215855e-004 5.08834841e-003 3.64875887e-003 -5.88456227e-004
      1.45349430e-003 -3.07230838e-003 8.04995128e-004 2.24192720e-003
      5.89098828e-003 5.85365249e-003 -9.83740389e-003 1.27228629e-003
      -1.73624652e-003 1.67504582e-003 -3.09018884e-003 3.98453465e-003
      8.85422248e-003 2.55585136e-003 1.53325091e-003 -2.98646814e-003
      -3.36519093e-003 -2.11203774e-003 4.41542390e-004 2.62455037e-003
      -1.23928930e-003 4.12575994e-003 1.79601158e-003 2.55753612e-003
      -5.17196441e-003 1.43997197e-003 2.13990043e-005 -7.98035762e-005
      -1.88330340e-003 1.12415047e-003 -3.23766796e-003 -5.09348291e-004
      -5.00635477e-003 3.69332731e-003 7.10132099e-006 -1.09854387e-003
      -3.39566194e-003 3.49368289e-004 -1.03057397e-003 -3.78573872e-003
      -1.91451295e-003 -1.18993886e-003 -1.98187144e-003 4.97562927e-004
      1.67793920e-003 -6.85702916e-003 1.75354187e-003 -4.26327530e-003
      -1.21634337e-003 -3.81177873e-003 1.12905353e-003 -3.62411817e-003
      -6.01588609e-003 9.38733458e-004 4.74494975e-003 2.26070825e-003
      -1.80054177e-003 1.98761467e-003 1.59247394e-003 2.57005380e-003
      -4.30116570e-003 3.75210447e-003 -2.42414558e-003 -4.29656636e-003
      4.22887737e-003 -2.36494443e-003 1.92215131e-003 2.39076116e-003
      2.00221222e-003 3.76989134e-003 1.04239862e-003 2.83891847e-003
      -1.59152818e-003 -3.50276916e-003 1.40501943e-003 3.55889439e-003
      5.29708387e-003 1.12148700e-003 -4.35510359e-004 -1.71064667e-003
      1.62968365e-003 4.84680990e-003 1.93169515e-003 9.41759849e-004
      1.59770739e-003 3.53922555e-003 4.29133838e-003 9.93946567e-004
      -6.00826833e-003 -3.90288129e-004 -1.00003125e-003
      -6.14512945e-003 -3.79472668e-003 3.12115951e-003 7.63943885e-003
      -9.91335022e-004 -2.49784603e-003 1.58017979e-003 4.81113605e-003
      -1.31631887e-003 1.51421793e-003 -5.82487031e-004 -3.66396131e-003
      -2.44940951e-004 -1.74088957e-004 -4.15980816e-003 1.49509090e-003
      1.37924461e-003 5.09611680e-004 2.13472475e-003 -1.13717082e-003
      -1.59505592e-003 4.62695910e-003 -2.32095527e-003 1.94555370e-003
      9.83986072e-004 2.27473769e-003 3.03867529e-003 8.48973542e-003
      -2.32420512e-003 4.47823480e-003 -3.86373256e-003 -2.78000114e-003
      5.23287663e-003 -1.08071358e-003 -5.42539218e-003 -4.84749500e-004
      -1.13610306e-003 7.50526506e-003 -1.90063103e-004 1.16478135e-004
      -1.44549401e-003 1.81101810e-003 1.67015067e-003 -1.66114292e-003
      1.67874503e-003 -6.51116809e-003 -5.28712291e-003 1.14534621e-003
      4.32866486e-003 2.00319663e-003 -2.24536937e-003 -4.85720765e-003
      2.46363552e-003 5.98013808e-004 5.54129900e-003 2.77941674e-003
      5.10923506e-004 1.11928834e-002 2.99150590e-003 3.68973170e-003
      -2.02290039e-003 -1.70468306e-003 1.39569782e-003 -2.11196556e-003
      2.57802138e-004 -3.22351861e-003 4.34804149e-003 -5.54929196e-004
      8.00759066e-003</_>
    <_>
      2.24930956e-003 -5.43510448e-003 1.37155381e-004 7.47169647e-003
      -8.25135576e-005 2.84173107e-003 -5.60672767e-003 -4.17040428e-003
      3.64376162e-003 6.37352141e-003 7.98329245e-003 -7.59072974e-003
      6.17313664e-004 -5.66218002e-003 6.33437419e-003 -8.78411694e-004
      -9.44287385e-005 1.19964546e-003 4.44465410e-003 1.06895564e-003
      -5.07883634e-003 1.17068561e-002 1.89563795e-003 -4.50848966e-005
      -4.81133524e-004 -1.33256009e-003 5.75166056e-003 -1.64270191e-003
      -4.99552116e-003 -1.09264736e-004 -6.40209706e-004 4.01428295e-003
      9.83841950e-004 -4.88831848e-003 -4.81021591e-003 3.25742527e-004
      4.63584583e-004 -3.17808311e-003 3.01289954e-003 -4.04002937e-003
      6.82873593e-004 3.45077075e-004 1.20379915e-002 -5.56528009e-003
      9.86392493e-004 -1.18048140e-003 -3.85308196e-003 -9.84216807e-004
      2.52210395e-003 3.21712368e-003 -2.71897414e-004 4.54407185e-003
      -1.42766454e-003 2.25049211e-003 -6.74496987e-005 -5.71781595e-004
      -1.46438810e-003 1.62485335e-003 2.04299367e-003 -2.45614117e-003
      3.22368601e-003 -1.65048215e-004 -9.36038326e-004 6.19492726e-003
      2.95022759e-003 9.38278565e-004 -1.30686827e-003 -1.40814227e-004
      5.20045962e-003 -2.24816264e-003 8.69501906e-004 -7.11219502e-004
      -3.70766385e-004 9.96820536e-003 -5.78209432e-003 7.85822456e-004
      9.19635175e-004 3.93445045e-003 6.23856205e-003 3.54474550e-003
      9.45445863e-005 -8.46101064e-003 -1.92520407e-003 -5.04282955e-003
      9.14172735e-004 5.90134133e-003 -3.34474328e-003 3.05783062e-004
      2.38825264e-003 1.08306797e-003 -1.76299247e-003 3.54896043e-003
      -3.03935399e-003 -3.11046513e-003 -5.93605277e-004 2.84412480e-003
      -6.82948064e-003 5.54409530e-003 1.32259598e-003 -9.69493994e-004
      1.45091931e-003 4.69381595e-003 -9.09122522e-004 -2.04749312e-003
      1.59793091e-003 -7.46738660e-005 -3.05739534e-003 7.03102956e-003
      -4.00731282e-004 -9.35100135e-004 1.35947997e-003 1.31001901e-002
      1.93790023e-004 -8.06276873e-003 6.51215529e-003 4.30908939e-003
      -3.77039611e-003 4.31253080e-004 4.48965188e-003 2.07612803e-003
      -3.74793052e-003 3.15351691e-003 1.43730245e-003 -1.67865225e-003
      6.58472208e-003 -1.67561026e-004 5.32893604e-003 -3.96705139e-003
      -5.08178771e-003 6.52783178e-003 -5.51231380e-004 1.43000216e-003
      1.34743447e-003 8.27706710e-004 8.90366675e-004 -3.56043689e-003
      1.96625642e-005 5.43099083e-003 3.39404214e-003 7.46043073e-003
      -3.01167392e-003 -7.37973396e-003 -7.02282705e-004
      -1.09806331e-003 1.64004881e-003 6.35924144e-003 3.88606708e-003
      2.97058374e-003 -2.23416067e-003 -3.19411885e-003 6.37964765e-003
      4.09787148e-003 -6.38648728e-003 7.67631643e-003 -3.84249841e-003
      -2.23627430e-003 6.65920833e-003 -2.53761932e-003 -5.75063098e-003
      -3.94537434e-004 -3.44064581e-004 -1.36022049e-003
      -6.47067267e-004 6.85278326e-003 7.25683337e-003 3.49768577e-003
      -5.43421227e-003 5.32697560e-003 5.48175257e-003 6.19443227e-003
      3.53243016e-003 -1.50621484e-003 -1.36986002e-003 5.68527170e-003
      -7.15467439e-004 1.07605048e-002 -7.22568166e-006 6.87634747e-004
      1.73762310e-004 1.94073620e-003 5.18417591e-003 9.08291340e-003
      1.58809917e-003 3.01944354e-004 1.43065047e-003 4.57922462e-003
      -5.76550199e-004 -5.71578043e-004 2.54947343e-003 2.88383081e-003
      -1.58507831e-003 9.54242051e-003 -5.19626494e-003 1.62102224e-003
      7.47059053e-003 1.92220509e-003 2.80577736e-003 5.94582176e-003
      9.67620406e-004 -1.42204505e-003 2.41651852e-003 -7.55846850e-004
      -7.16035254e-003 3.15706246e-003 6.06697844e-003 -2.45673885e-003
      2.17838376e-003 -7.13645760e-003 -1.11814938e-003 -1.46639533e-003
      -4.84038098e-003 -8.50034133e-003 4.14193794e-003 3.59606743e-003
      -2.23837444e-003 -1.30596722e-003 -3.05233453e-003
      -2.06427020e-003 3.77165573e-003 -1.44300249e-003 3.78386641e-004
      1.64266024e-003 -6.89135108e-004 -2.09932652e-004 5.64823439e-003
      4.44268167e-004 4.46562842e-003 -7.89237767e-003 -3.48249264e-003
      3.74398660e-005 1.79387035e-003 -2.60912301e-003 -6.69167843e-003
      -2.20101769e-003 3.81607236e-003 -8.61783233e-003 5.36115142e-003
      -6.17630547e-003 8.30877456e-004 1.77587941e-003 -7.84442178e-004
      -1.73064438e-003 -3.14104650e-003 3.34024895e-003 3.19491932e-003
      6.26872852e-003 -5.06902533e-003 3.18611367e-003 -9.46674147e-004
      3.36746639e-003 -4.33167350e-003 4.67355549e-003 3.14794900e-003
      2.60123727e-003 1.79461169e-003 -3.52718378e-003 -6.22669409e-004
      -6.31375890e-003 4.84004326e-004 -7.14715396e-004 -6.50244998e-003
      5.53976651e-003 -4.60049196e-004 -1.46407308e-003 2.55862926e-003
      -6.18670834e-003 -3.54982982e-003 -2.36372769e-004 3.43948486e-003
      -1.24769076e-003 4.34872881e-003 5.76908002e-003 -5.92698017e-003
      7.06570828e-003 -3.86792584e-003 -5.45898965e-003 4.87874122e-003
      2.12373980e-003 -2.63289665e-003 1.68463634e-003 -4.95378533e-003
      -2.00373214e-003 -7.30581582e-003 2.80340528e-003 2.58353702e-003
      -1.91721704e-003 -2.22663465e-003 -3.19410441e-003 2.98125739e-003
      1.03909392e-002 -4.67874156e-003 -5.93312038e-003 -7.15588639e-003
      -5.54821501e-003 9.90902074e-004 2.58677755e-003 2.00697291e-003
      -5.98353217e-004 -1.08461617e-003 1.26248470e-003 -3.59757454e-004
      4.28558886e-003 -3.07317078e-003 -2.53477530e-003 7.49837956e-004
      -3.21295974e-003 1.79159176e-003 6.76608412e-003 3.97442188e-003
      1.96981267e-003 5.82765555e-003 -2.93510268e-004 8.26672243e-004
      5.54890954e-004 -2.46364996e-003 2.72274460e-003 8.70994572e-003
      -5.71989221e-004 2.00471724e-003 2.06473982e-003 -1.52573187e-003
      4.72022832e-004 -2.52999802e-004 -2.07576202e-003 3.03365849e-003
      5.57656493e-003 -3.15260864e-003 -3.27594113e-003 -3.95631511e-003
      -3.84876574e-003 4.08847025e-003 -7.69985607e-003 -8.24784569e-004
      -2.05696735e-004 6.33213250e-003 3.05915903e-003 2.51776364e-004
      6.01973757e-003 1.78799510e-003 1.94326276e-003 4.41520987e-003
      -3.68937547e-003 1.33935071e-003 -7.74429063e-004 -5.99830470e-004
      -9.34071257e-004 -6.83865626e-004 -1.94817409e-003 1.74052932e-003
      6.75115443e-004 2.05028476e-003 4.70090657e-003 5.24899829e-003
      -4.19947505e-003 -4.87698521e-003 2.14850166e-004 6.35863002e-003
      1.55958149e-003 5.45073673e-003 -2.96743377e-003 9.01521184e-003
      -1.39228872e-003 -3.43901059e-003 6.24436827e-004 -2.34509143e-003
      -6.08674204e-003 4.41720663e-003 -3.42095096e-004 5.01666171e-003
      2.46085750e-004 -1.53480051e-003 -8.81191168e-004 4.79469961e-003
      -1.42459013e-003 -7.55594252e-003 5.63195266e-004 9.57772508e-003
      -1.91991008e-003 8.77347833e-004 2.08914955e-003 -1.97072339e-004
      -6.34987839e-003 -2.19915458e-003 4.20450279e-003 8.63834168e-004
      -2.07946938e-003 6.48835814e-003 -4.67995368e-003 9.02976096e-003
      5.09745767e-003 6.59392157e-004 4.24144231e-003 3.79577454e-004
      -3.13535053e-003 7.22991419e-004 4.69272817e-003 -8.13709758e-003
      -3.61047190e-004 1.54881366e-003 4.16504126e-003</_>
    <_>
      2.77810870e-003 -1.02524960e-003 -8.07010336e-004 1.94893079e-003
      -2.33026076e-004 1.63187238e-003 2.97114812e-003 -4.30346932e-004
      -2.00289371e-003 3.06006894e-003 6.95138285e-003 3.00110993e-003
      -3.49920956e-005 -1.66087004e-003 1.83403888e-003 3.61282402e-003
      -5.50532388e-003 -5.98134298e-004 5.15237451e-003 1.16748537e-003
      -4.91292542e-003 2.46969867e-003 -2.81901419e-004 -2.46167136e-003
      1.59299304e-003 4.13861824e-003 7.17411283e-003 -2.65412824e-003
      -5.83542977e-003 2.47974461e-003 1.44270030e-004 2.60568992e-003
      -4.07871744e-003 3.39866703e-004 2.11226335e-003 1.22118334e-003
      4.24316060e-003 1.13929878e-003 -5.32356091e-004 -9.23739746e-003
      -3.10941628e-004 5.55556407e-003 9.07032460e-004 -2.91390787e-003
      -5.48862899e-003 1.11260288e-003 -5.75232807e-005 -1.44776201e-003
      -1.57893915e-003 -3.95140052e-003 2.21250951e-003 1.99272436e-005
      6.89929642e-004 4.19560121e-003 -3.21973726e-004 -7.71257794e-004
      4.96042147e-003 2.51231994e-003 4.20957012e-003 -1.84550314e-004
      3.19155608e-003 -1.42467581e-003 -2.69361190e-003 9.81402467e-004
      2.34576190e-004 2.50989967e-003 -3.38029116e-003 -2.00262075e-004
      5.53133711e-003 3.91263096e-003 -1.56833208e-003 -2.89984047e-004
      -1.98759930e-003 2.81673111e-003 1.41245400e-004 -4.15588915e-003
      3.44891072e-004 -5.53562364e-004 5.92324277e-003 3.56567511e-003
      2.73521082e-003 -6.43287273e-003 -1.07104622e-003 -3.69551871e-003
      -2.49152188e-003 7.30497763e-003 -1.32484222e-003 -5.41093899e-003
      -1.10878912e-003 -1.56539993e-003 -2.64710607e-003 3.94763937e-003
      2.44979048e-003 -2.63877958e-003 -3.37772770e-003 -6.91407220e-003
      -2.96116062e-003 5.55533916e-004 -3.79144051e-003 1.80014537e-003
      2.14317068e-003 -8.87036673e-004 -5.09955513e-004 -2.96450197e-003
      -1.13909133e-003 2.23344611e-003 -1.35664141e-003 4.72580455e-003
      -4.94958041e-003 -1.58564851e-003 8.39302875e-003 2.74206582e-003
      2.16853037e-003 -5.31077245e-003 3.24938213e-003 7.70036771e-004
      -1.02985352e-002 -8.34312057e-004 3.33942496e-003 -4.92615858e-004
      3.15928063e-003 -5.96111221e-003 2.20559142e-003 -8.65133479e-004
      4.40841774e-003 -3.93677410e-003 4.94320877e-003 -2.38245958e-003
      -4.02776711e-003 -9.32094117e-005 2.38116179e-003 7.31220818e-004
      -3.97132942e-003 6.36929972e-003 2.65552406e-003 1.61804096e-003
      1.21625140e-003 3.32438317e-003 -3.36264784e-004 2.90130521e-003
      1.91752380e-003 -5.07033803e-003 -3.47318407e-003 -1.08941917e-004
      -6.35872886e-004 -1.72331493e-005 6.70039374e-003 -1.90989429e-003
      1.71640958e-003 -5.05884644e-003 -1.86160242e-003 -2.47550523e-003
      6.46320265e-003 8.62659246e-004 -2.11640191e-003 -3.21629457e-003
      6.10933220e-003 -4.82611312e-003 4.96809545e-004 -5.67657044e-005
      2.72070942e-003 8.57445295e-004 -9.53978360e-006 9.40154539e-004
      -2.70714937e-003 2.36271415e-003 -9.24193952e-003 7.42470333e-003
      -2.96713179e-003 5.30383456e-003 5.91435051e-003 2.78142653e-003
      5.75998472e-003 4.80464101e-003 -1.19332212e-003 6.14990108e-003
      -1.49015023e-003 1.36159512e-003 -3.14510544e-004 1.31088728e-003
      4.21379460e-003 4.29913495e-003 -1.03511789e-003 6.85192295e-004
      7.58881308e-003 8.38026311e-003 2.48578633e-003 -1.88420492e-003
      5.65262977e-003 -4.63755475e-003 -2.49836012e-005 4.36559552e-003
      -7.45967904e-004 1.29666191e-003 3.01759294e-003 -1.94535824e-003
      2.85841455e-003 1.27959938e-003 2.32111022e-004 1.41378725e-003
      -1.01690879e-003 -1.43425609e-003 -2.00703437e-003 1.01546850e-003
      5.42392163e-003 6.65105617e-005 -1.99126801e-003 -1.72419718e-003
      -4.33513382e-003 -2.78605119e-004 1.73513731e-003 -5.03575476e-003
      3.24172038e-003 6.14553923e-003 4.17771749e-003 -2.86179548e-003
      -1.06883550e-003 4.68831323e-003 3.97258531e-003 2.71167560e-003
      6.20641606e-003 2.01736367e-003 6.10337965e-003 -1.40899245e-003
      4.56802035e-003 -6.96069386e-004 2.18532444e-003 -1.37167575e-003
      1.25237985e-003 -6.16010948e-005 4.71753720e-003 -6.90046558e-003
      -3.36755672e-003 -7.22068013e-004 2.80513521e-003 -8.75590090e-003
      2.69478350e-003 6.87768916e-003 4.70287073e-003 -5.98964933e-003
      -2.70502642e-003 -5.19135920e-003 -7.54084671e-004 5.62443724e-003
      -2.50539102e-004 1.45795988e-003 -2.40580598e-003 -2.05786619e-003
      -1.42284975e-004 3.74605716e-003 -1.93508330e-003 2.51405919e-003
      6.31133933e-003 4.44825419e-004 -1.78402825e-003 -1.72043382e-003
      -7.14216207e-004 -8.37566273e-004 2.30549485e-003 -9.23710933e-004
      -7.87783880e-004 2.30977917e-003 -2.73538544e-003 -1.66445004e-003
      -7.16661243e-003 4.85338690e-003 2.23572645e-003 1.62555207e-003
      2.27164617e-003 -4.71925387e-006 -4.12551017e-004 8.21520854e-003
      -4.21773735e-003 -2.34535284e-004 -9.31313145e-004
      -6.40125596e-004 2.82290275e-003 6.84253115e-004 -2.92065251e-003
      -4.01581579e-004 -2.44782702e-003 9.44951433e-004 -5.01839817e-003
      5.00765338e-004 3.00629734e-004 -4.49721515e-003 9.90538276e-004
      -2.34288815e-003 -2.39420624e-004 6.11417787e-003 -1.04780437e-003
      2.89354066e-004 -3.13679688e-003 -2.41326983e-003 4.47656168e-003
      1.53076777e-003 5.71942795e-003 3.36344913e-003 -9.60602891e-004
      2.14410760e-003 -4.97793686e-003 4.96694958e-003 -2.23491472e-004
      -2.79602804e-003 5.93524147e-003 -3.28631559e-003 2.98783253e-003
      4.84113349e-003 1.28595706e-003 2.79124524e-003 -3.57172539e-004
      3.24404240e-003 -1.79766107e-003 -5.96057915e-004 9.41733830e-004
      4.05972358e-003 4.57355101e-003 2.62791989e-003 3.75773176e-004
      1.93606387e-003 -5.06894710e-003 -1.68845395e-003 1.05287111e-003
      -2.24745553e-003 3.94107169e-003 6.08574366e-003 3.14241927e-003
      -4.59857844e-003 -9.43424355e-004 -7.33226014e-004
      -3.73676023e-003 -5.78911090e-003 4.47947579e-003 5.10123186e-003
      4.62112669e-003 5.61941823e-004 -1.47345371e-003 -1.19159068e-003
      1.90155650e-003 3.16575146e-003 1.75052660e-003 1.03157538e-003
      1.79905246e-003 -1.23605714e-004 7.20936107e-004 -5.14178397e-003
      -2.48929509e-003 -1.55273092e-003 -4.69637569e-003
      -4.01803758e-003 2.58345011e-004 -1.52022147e-003 3.49774468e-003
      -2.79578893e-003 -2.90108519e-003 -1.09168328e-003 5.77702746e-003
      7.48658879e-003 8.84560868e-003 -2.93865497e-003 1.62555603e-003
      -1.65014295e-003 -2.40414776e-003 4.60049557e-003 -4.61043883e-003
      -1.18840777e-003 7.28504965e-004 -3.59359407e-003 9.15571861e-003
      1.22879364e-003 3.18415486e-003 -3.93693428e-003 -5.39792469e-004
      3.10804928e-003 -3.76181444e-003 2.19093010e-004 5.62501000e-003
      1.23065233e-003 6.38988847e-003 4.22804710e-003 1.29199016e-003
      -4.68919810e-004 -3.18454765e-003 3.55674815e-003 -3.83359217e-003
      3.75504117e-003 7.24921189e-003 -3.65660089e-004 4.53271158e-003
      -1.59338431e-003 6.49176212e-003 -8.00945272e-004 1.93185086e-004
      -4.86358476e-004 -3.02107283e-003 -4.09730594e-004
      -1.76542439e-003 6.56759180e-003 2.01818091e-003 4.43342980e-003</_>
    <_>
      -5.12123479e-005 1.56313833e-003 2.25121644e-003 1.08557590e-003
      8.09648016e-004 -3.21090524e-003 -3.53610027e-003 3.06259980e-003
      -2.97407532e-004 3.40648548e-004 5.20139327e-003 3.70922755e-003
      3.48541490e-003 -2.57027010e-003 -3.15305497e-003 -5.24406496e-004
      1.04754209e-003 2.41993018e-003 -1.54773006e-003 -2.89842719e-003
      -5.46435360e-003 -6.76164287e-004 2.83110654e-003 -4.45874315e-003
      -1.86448160e-003 -1.87977497e-003 -9.76640498e-004 3.53019079e-003
      -8.02683004e-004 -2.01863993e-004 3.78419238e-004 1.77387928e-003
      -3.23521381e-005 -3.31787392e-003 -2.22566887e-003
      -1.84733409e-003 4.62605967e-004 1.98253943e-003 3.62432911e-003
      -5.76251943e-004 7.69977691e-004 5.48875844e-003 -1.14832008e-004
      -4.54215420e-004 8.84977519e-004 5.53771108e-003 5.40835084e-003
      -3.50542087e-003 3.09212459e-003 3.93980136e-003 4.70295688e-003
      -1.05303153e-003 -9.79025848e-004 5.33246959e-004 7.34802510e-004
      3.38024902e-003 -2.21289974e-003 2.47436878e-003 -1.51493005e-003
      -9.86021245e-004 1.99003797e-003 -3.43529787e-003 1.18735561e-003
      -2.39625238e-004 -1.31848992e-005 3.78740742e-003 4.87006316e-003
      4.62000677e-003 -1.72955415e-003 3.19666113e-003 1.21248979e-003
      2.07248749e-003 -8.20420173e-005 -3.40305362e-003 -2.17130152e-003
      1.92612910e-003 8.47609481e-004 -2.01740419e-003 5.43231750e-003
      8.29811383e-004 1.13097578e-003 3.16259521e-003 3.18543031e-003
      2.65602535e-003 -2.00818665e-003 2.36791646e-004 -1.23831560e-003
      8.86174291e-003 3.72674270e-003 1.80023303e-003 -1.75291102e-003
      -2.11115973e-003 3.00208083e-003 7.16971408e-004 -4.34040418e-003
      -9.50189366e-004 -6.78788172e-004 -3.03087453e-003
      -2.45192647e-003 -2.71331193e-003 -1.17485842e-003 5.96372935e-004
      -2.02038602e-004 5.02456503e-004 -2.18547392e-003 1.50902802e-003
      3.74458235e-004 2.24351697e-003 1.49591651e-003 -1.01761136e-003
      -2.17779982e-003 -2.22792244e-003 1.05501013e-003 1.53792661e-003
      -3.40745831e-003 2.23716791e-003 3.01987107e-004 3.45967896e-003
      -3.41229816e-003 -3.18456790e-003 -6.53196417e-004
      -2.73637031e-003 -1.33625872e-003 2.12527020e-003 -1.60821679e-003
      -3.96969356e-003 3.57116485e-004 4.19704104e-003 6.45839376e-003
      5.83941070e-003 -7.85345503e-004 2.38127797e-003 4.65850020e-003
      6.99199270e-003 -4.59740777e-003 -2.25360808e-003 1.52445899e-003
      5.03960578e-003 -1.54741353e-003 -9.38376586e-004 1.98120135e-003
      -2.20114295e-003 -5.98792976e-004 3.65574495e-003 -6.14633493e-004
      -4.62871324e-003 -6.90470217e-004 1.20444028e-002 2.56648840e-004
      3.27722449e-003 -2.48917495e-004 -1.92419777e-003 -6.97107113e-004
      -4.74588247e-003 3.66243743e-003 1.06120261e-003 4.78040241e-003
      -2.90320185e-003 3.79950996e-003 1.27594476e-003 -8.17036955e-004
      -2.41062953e-003 3.90134729e-003 4.42064414e-003 2.64822599e-003
      -2.52669328e-003 -8.33381549e-004 -2.26774858e-003
      -2.41493341e-003 1.70596607e-003 3.02408938e-003 2.31140133e-004
      -2.62876390e-003 -1.55398657e-003 1.34322396e-003 1.58725725e-003
      3.78599577e-003 -1.41018376e-004 1.11387027e-002 3.26143368e-003
      -4.21297597e-003 4.71251924e-003 -6.46561617e-003 3.02139716e-003
      1.94643298e-003 5.22563932e-003 -1.65818655e-003 -1.33444136e-003
      -2.48725270e-003 4.66641597e-003 1.04649423e-003 -1.24672323e-003
      4.36407106e-004 6.37492267e-005 -6.46270020e-003 7.27416016e-004
      -2.66420189e-004 8.40514200e-004 -3.71816661e-003 2.35932253e-004
      7.52504566e-005 -3.27953324e-003 2.39660544e-003 5.02490159e-003
      -6.95148447e-006 1.06628425e-003 3.84793407e-003 -3.72492941e-004
      -2.02554371e-003 3.79733043e-003 3.23092658e-003 6.14532689e-003
      3.78880324e-003 2.15421361e-003 -1.27015752e-003 2.41637952e-003
      8.33663507e-004 2.51367968e-003 4.94679622e-003 3.79549875e-003
      5.12393541e-004 -3.60811333e-004 5.54923620e-003 -3.91473807e-003
      8.03030503e-004 -3.83021915e-003 -8.85760994e-004 2.26994255e-003
      1.58155942e-003 -1.80686777e-003 -1.31188415e-003 6.63311919e-004
      -6.42519095e-004 -1.73474464e-003 2.02206150e-003 -8.22992355e-004
      -3.90293938e-003 2.95432215e-003 -1.08183199e-003 2.01729429e-003
      3.56310373e-003 -9.33987205e-004 3.83119099e-003 4.77576023e-003
      3.74910468e-003 -1.09925051e-003 4.26101818e-004 1.12786912e-003
      -5.37141226e-003 -1.26996776e-003 -3.72405536e-003
      -8.27183248e-004 2.23005167e-003 5.13109239e-003 6.03295572e-004
      -3.21479922e-004 -7.91866391e-004 6.78990444e-004 5.54462103e-003
      -1.43899058e-003 -4.42023884e-004 3.77592095e-003 6.95567997e-003
      9.95358801e-004 -2.16787541e-003 -1.86822275e-004 -1.26804167e-003
      4.60036099e-003 2.96331337e-003 3.55645642e-003 -9.43685183e-004
      4.73184482e-005 -3.96718009e-004 -2.74654967e-003 3.97488009e-003
      -3.18587088e-004 -3.19850305e-003 -4.04986925e-003 1.70908854e-004
      -3.05206352e-003 -3.67567665e-003 2.25704536e-003 -3.67881352e-004
      5.00749389e-004 1.49047945e-003 -2.54855026e-003 -1.24564394e-003
      4.16786689e-003 -2.90480675e-003 -1.53551914e-003 -1.23037171e-004
      -1.11374620e-003 -2.74143484e-003 -2.80060270e-003
      -2.65872967e-003 -1.54842506e-003 5.26730446e-007 2.18213559e-003
      5.81579407e-005 -5.03494358e-003 -2.85046408e-003 5.76036226e-004
      2.51372228e-003 1.32725143e-003 5.96662611e-003 4.53725137e-004
      -2.85438728e-004 -4.49014176e-003 2.83689401e-003 1.30098837e-003
      1.26816670e-003 4.79851663e-003 1.76254183e-003 -3.24025215e-003
      5.06813778e-003 4.27509705e-003 6.32637602e-005 -9.05894209e-004
      2.81561306e-003 1.99759426e-003 9.95564915e-005 5.19199157e-003
      -9.09593582e-005 5.05910721e-003 2.29313457e-003 1.60075072e-003
      5.91489812e-003 6.22006506e-003 1.33541552e-003 -2.69593205e-003
      2.59138714e-003 -2.57405802e-003 -1.30127394e-003 -1.71361840e-003
      4.42466559e-003 -1.60662821e-004 -1.42696081e-003 3.40890000e-003
      6.44450891e-004 -1.39345613e-003 -1.41080935e-003 -8.12450540e-004
      -2.24133884e-003 -2.25424860e-003 2.34439527e-003 -4.44118166e-003
      4.07014554e-003 5.05772000e-003 4.63599485e-004 2.69060605e-003
      -1.91469141e-003 -1.39163248e-003 1.65709539e-003 -2.79196701e-003
      -3.71772330e-004 -6.38171239e-003 -6.47885259e-004
      -1.80251477e-003 2.77425302e-003 -4.38360963e-003 -4.06291708e-003
      -1.99476257e-004 5.88361360e-003 2.70569720e-003 -4.18872060e-003
      -5.30810701e-003 -3.44811985e-003 4.60673450e-003 4.79171705e-003
      8.47029209e-004 3.12064495e-003 -7.55767047e-004 -1.01697701e-003
      2.80490564e-003 -8.06398224e-004 2.04696576e-003 -5.65628801e-003
      -3.57067911e-003 1.71975372e-003 4.17920155e-003 9.14855953e-003
      -5.01727685e-003 -5.16610919e-003 2.00046762e-003 -1.38093965e-004
      7.26924138e-003 5.31759171e-004 3.73603939e-003 4.12309915e-003
      4.10434231e-003 2.53721396e-003 -2.99332733e-003 1.97273609e-003
      -2.20864988e-003 -5.17639890e-003 -2.27259588e-003
      -3.93694686e-003 -5.32467326e-004 2.37823254e-003 2.12027211e-004</_>
    <_>
      -1.40789861e-003 -7.27746286e-004 -3.45495716e-003 2.14951485e-003
      -3.04364436e-003 9.17685684e-004 -1.59262971e-003 -2.72618281e-003
      8.47805350e-004 3.48483236e-003 2.62930221e-003 -1.96244405e-003
      6.91453367e-003 -3.65177495e-003 4.87390347e-003 -6.99441088e-003
      4.52697836e-003 1.85880251e-003 -1.44626887e-003 -5.17545640e-003
      -5.85223734e-003 -1.27009896e-003 -1.24166472e-004 6.79562945e-005
      -1.71733345e-003 6.37312885e-004 4.62229690e-003 -1.75753667e-003
      -2.51805433e-003 -4.82996134e-003 -4.09251690e-004 4.65565012e-004
      6.59000769e-004 -6.50306884e-003 -2.68504070e-003 -2.31974851e-003
      -1.68757141e-003 -4.67195082e-003 7.63227697e-003 -4.56242543e-003
      3.78792337e-003 3.74752586e-003 9.07335372e-004 -1.90334488e-003
      -2.74874363e-003 3.10400501e-003 2.07320531e-003 -3.64308804e-003
      -1.19686792e-005 6.94548199e-003 1.97553635e-003 2.49007228e-003
      -4.41697752e-003 2.20524753e-003 4.74907830e-003 2.13623833e-004
      -1.82408653e-003 2.94465921e-004 -5.21309394e-003 -4.66134911e-003
      -3.80934007e-003 -7.24402769e-003 4.91085462e-003 2.92210747e-003
      2.55776453e-003 7.53279019e-004 3.04863788e-003 2.50815577e-003
      9.59805970e-004 -3.42325214e-003 4.85833222e-003 -4.20319987e-003
      -5.04478905e-003 7.18903216e-003 -2.23308732e-003 3.43545619e-003
      3.48507450e-003 -7.07499217e-004 2.56726542e-003 2.87106750e-003
      2.65400484e-003 -1.19101908e-003 -5.00500726e-004 3.51098296e-003
      -1.05058809e-003 6.30733836e-003 1.26059016e-003 9.18392837e-003
      3.05611757e-004 1.37918361e-003 -4.66907537e-003 2.99943425e-003
      1.21660961e-003 -9.29341550e-005 2.61330581e-003 3.43893701e-003
      -4.81891446e-003 5.88620082e-004 -4.43418184e-003 -3.70646105e-003
      -3.53489839e-003 3.09542799e-003 -4.17363655e-004 -3.46596260e-003
      -1.29651849e-003 -4.31203935e-003 -8.72896810e-004
      -3.06695746e-003 3.74078308e-003 2.10926216e-003 7.52276799e-004
      -1.60664553e-003 1.60694460e-003 -3.57697625e-003 2.96416995e-003
      1.16968341e-003 4.90416959e-003 7.67116435e-004 3.15928075e-004
      -6.60109334e-003 -2.48395081e-004 2.25858227e-003 -4.19967808e-003
      6.05769409e-003 -2.67265621e-003 -1.70254218e-003 -1.39534811e-003
      1.32196094e-003 6.31953357e-003 1.03378091e-002 2.55441829e-003
      5.13695786e-003 9.38367378e-003 8.16361920e-004 -4.59000515e-003
      -7.21996278e-003 -1.18703791e-003 5.08562708e-003 -3.56036308e-003
      2.33233557e-003 1.38691708e-003 3.73034179e-003 1.14258821e-003
      -1.88931893e-003 7.86122307e-003 1.33215450e-003 -5.10292687e-003
      1.02951154e-002 -1.74967150e-004 6.81785913e-003 7.99303502e-003
      4.17446572e-004 -1.33992806e-002 3.87136568e-003 -2.05006730e-003
      3.20281950e-003 3.83816613e-003 -2.16131588e-003 -4.23838850e-003
      2.29727826e-003 -3.00830766e-003 1.05528184e-003 1.47835433e-003
      7.07294187e-003 7.39106582e-003 -6.37181569e-003 4.74044587e-003
      -1.97804673e-003 2.15974869e-003 2.80831358e-004 1.53141271e-003
      -6.14800781e-004 1.82227828e-004 -6.18712744e-004 -5.29980334e-003
      3.67606431e-003 3.31795006e-003 -1.76803127e-003 7.89793208e-003
      -7.45124184e-004 2.75279453e-004 3.79368267e-003 3.90790775e-003
      3.90361645e-003 1.03385921e-003 -6.33366464e-004 -1.13161979e-003
      -4.08267975e-003 1.56834489e-003 3.76168056e-003 -1.33950531e-003
      7.03119114e-003 9.63200873e-004 -5.09142410e-005 -5.16415434e-003
      -2.80248350e-003 1.00031666e-005 5.44942974e-004 -2.85227743e-005
      -4.27497755e-004 -2.33010249e-003 -4.35017701e-003 1.08277227e-003
      4.87190951e-003 -3.72253911e-004 -1.02795125e-003 3.86710581e-003
      3.05822096e-003 -8.31554935e-004 -6.61549217e-004 -1.89223606e-003
      3.89938126e-003 3.27955419e-003 1.69051031e-003 -2.77569797e-003
      7.35695381e-003 1.07073458e-003 -1.97952962e-003 4.33398644e-003
      3.21806083e-003 -2.08279816e-003 1.59985560e-003 3.04479990e-003
      -6.36704406e-003 1.26956939e-003 -1.28425111e-003 3.27666476e-003
      -2.05801334e-003 -4.98881144e-003 4.98330686e-004 -5.43144706e-004
      1.80442247e-003 -5.67370607e-003 2.43852512e-004 4.93300962e-004
      9.59802244e-004 -5.30039950e-004 -1.34039694e-003 -3.81254684e-003
      6.95997197e-003 3.14383907e-003 -2.98510143e-003 2.93451245e-003
      9.99179110e-003 1.51262537e-003 3.15094576e-003 -1.92322454e-003
      4.32257494e-003 -2.17050291e-003 -8.85006506e-004 3.11108236e-003
      -2.24364433e-003 -3.72905936e-003 1.15821380e-002 4.01413487e-003
      3.80905112e-004 -7.64871947e-004 -1.37380371e-003 5.42441383e-003
      -6.42319350e-003 -1.24917785e-003 5.96637093e-003 6.11645915e-003
      -1.98187679e-003 -3.59168649e-003 -3.06649250e-003
      -1.52739196e-003 1.74674974e-003 -3.10281059e-003 -2.67212954e-003
      3.00622382e-003 5.08009922e-003 3.51955020e-003 -5.84413670e-003
      3.23394459e-004 1.14508136e-003 2.25280318e-003 4.79070528e-004
      -1.10828085e-003 -1.82910438e-003 -1.63058890e-003 2.46655871e-003
      -5.44311153e-003 6.60579826e-004 1.04096590e-003 -5.10439975e-004
      -1.56666501e-003 4.98084771e-003 3.39693157e-003 6.93238340e-003
      -6.66270312e-003 2.86952622e-004 2.05805199e-003 -4.02124785e-003
      2.22096874e-004 -2.05922592e-003 1.08525495e-003 1.41926773e-003
      2.55994010e-003 -1.17155618e-003 1.95798086e-004 -2.55090854e-004
      2.30635656e-003 9.81769335e-005 4.63613262e-003 2.72374717e-003
      -2.32178927e-003 -3.92450238e-005 -3.31964722e-004
      -1.78154022e-003 1.68676593e-003 1.23888045e-003 5.04627358e-003
      -1.26464234e-003 -1.78454618e-004 3.43495049e-003 1.69018237e-003
      -3.65890563e-003 1.18592579e-003 8.68219696e-003 -5.52691240e-003
      2.76132999e-003 9.99665470e-004 2.47195200e-003 2.59866170e-003
      4.69950074e-003 2.46431492e-003 1.98509847e-003 4.46471805e-003
      -3.95318214e-003 6.40869839e-003 -8.20510834e-003 -4.74474253e-003
      -1.35231367e-003 4.08050418e-003 5.64619433e-003 -1.75237190e-003
      8.65467638e-003 -1.93274347e-004 3.80710652e-003 5.62405097e-004
      -5.17887855e-003 2.28385767e-003 -2.80401413e-003 7.16672570e-004
      2.45432276e-003 2.46502017e-003 1.55997241e-003 -1.76565920e-003
      6.43891888e-003 7.88495701e-004 1.77269639e-003 6.73441507e-004
      -4.30508098e-003 -3.61916143e-003 -5.63788507e-003 2.05382286e-003
      -4.99166595e-003 -1.44196581e-003 -3.30505962e-003
      -4.65188827e-003 5.14327735e-003 6.85571181e-003 -2.12090765e-003
      -6.41485862e-003 -7.95257278e-003 9.11902534e-005 3.10174981e-003
      5.30315610e-003 -2.02193437e-003 -6.79111225e-004 -8.62017740e-004
      -2.61190301e-003 -2.08373833e-003 -3.78891197e-003 2.96265841e-003
      3.76768271e-003 -2.97941081e-003 2.74503487e-004 3.03995796e-003
      6.85802894e-003 -1.06152194e-002 -3.45561886e-003 -4.12814639e-004
      1.09289645e-003 8.42295820e-004 1.62541098e-003 2.77971616e-003
      4.56993980e-003 4.83557023e-003 -1.19640282e-003 3.52840009e-003
      8.34312197e-003 -3.61252576e-003 -1.38047175e-003 -1.41307211e-003
      -5.63699007e-003 -1.13617527e-004 2.86329724e-003 -3.19193327e-003</_>
    <_>
      -2.00199801e-003 3.16977641e-003 -1.43904716e-003 2.09246937e-004
      5.72395395e-004 8.13791819e-004 3.28316726e-003 -1.74148346e-003
      -1.62780040e-003 2.43722694e-003 3.81393079e-003 5.46309771e-003
      3.50214308e-003 -2.20841216e-003 -6.33039337e-004 -1.41186430e-003
      2.61195283e-003 8.71670491e-005 3.07971658e-003 -8.86555878e-004
      -3.68719012e-003 -2.52821250e-003 -9.49358393e-004 7.14312715e-004
      -6.40396087e-004 -4.37470968e-004 3.42163630e-003 -3.71157439e-005
      -7.75998808e-004 -2.20089499e-003 -2.07506493e-003
      -1.01618818e-003 -4.58273524e-003 -2.29562662e-004
      -7.66314974e-004 1.33220223e-003 1.83476391e-003 -6.93447073e-005
      8.49377364e-003 -7.14094099e-003 1.08746474e-003 7.66620599e-003
      -3.21080605e-003 -3.58816329e-003 -6.13323320e-003 3.15801287e-003
      5.82778733e-003 -2.43416801e-003 1.94677559e-003 3.17471521e-003
      2.60608736e-003 -1.63509758e-004 3.41057981e-004 2.62994948e-003
      -6.59308862e-004 3.93100549e-003 1.02192245e-003 1.81071530e-003
      -1.92935381e-003 -1.53316534e-003 -8.94502446e-004
      -5.18856337e-004 1.74197834e-003 -3.95737006e-004 2.07284023e-003
      7.79071532e-004 3.48001893e-004 2.42943317e-003 -1.79443989e-004
      1.67910883e-003 5.19267633e-004 1.57991913e-003 -3.95906763e-003
      1.59549119e-003 -4.76029795e-003 -2.36428785e-003 3.93599924e-003
      1.13118044e-003 1.87002716e-003 2.07118760e-003 8.81831534e-003
      2.28062156e-003 3.14550917e-003 1.91388302e-004 -2.63720215e-003
      3.87352519e-003 5.31140540e-004 3.49249598e-003 9.59766156e-004
      6.42617524e-004 -3.69142368e-003 1.65068533e-003 3.77309718e-003
      -6.71802380e-004 -1.55639998e-003 -3.78838368e-003
      -1.75721967e-003 1.65759772e-003 -2.92010745e-003 -3.33389128e-003
      -2.70683807e-003 -2.53453106e-003 2.32898188e-003 -3.49959754e-003
      -1.50314101e-003 3.05122696e-003 -7.60351017e-004 -2.52353238e-005
      2.94483476e-003 3.06699600e-004 1.93787972e-003 -3.21614626e-003
      2.78622517e-003 -1.20121613e-003 1.53649552e-003 -1.98719068e-003
      -1.06508983e-003 1.77886803e-003 -2.28166347e-003 -1.95413898e-003
      1.92217820e-003 -4.87761572e-003 2.08934052e-005 -1.25701394e-004
      1.68992206e-003 6.55141077e-004 -6.06767251e-004 2.53569870e-003
      5.27040334e-003 5.99080324e-003 4.08316613e-004 1.22476392e-003
      3.90653824e-003 6.23272639e-003 -3.12072923e-003 -1.22155133e-003
      -3.11237155e-003 5.02795819e-003 -5.74834528e-004 -2.10700789e-003
      2.45484640e-003 -8.15131294e-004 4.36015008e-003 3.58377374e-003
      -7.28845946e-004 -2.13659275e-003 -7.19730917e-004 9.76092927e-003
      -1.96771609e-004 8.66073766e-004 1.40588847e-003 -5.94926020e-003
      -4.65301302e-004 -1.70946040e-003 -5.05786913e-004 1.15897541e-003
      4.36812034e-003 1.31033314e-003 -3.11377022e-004 1.51891238e-003
      3.55926203e-003 -1.23552221e-003 -9.78428172e-004 4.53364511e-004
      1.63276470e-003 -4.34981985e-003 8.59306892e-004 -3.30290245e-003
      -4.86807292e-003 3.75404814e-003 5.54709136e-003 2.74849590e-004
      2.65579467e-004 -1.40177493e-003 -4.11654648e-004 2.07222369e-003
      -2.73922971e-003 -1.67066042e-004 5.29826572e-003 1.20302627e-003
      -1.64803595e-003 2.45590520e-004 -1.94599503e-003 2.91019212e-003
      3.40393558e-003 1.28948619e-003 -1.14614423e-003 -2.12792587e-003
      5.05307456e-004 2.42336607e-003 4.72317310e-003 4.19268943e-003
      -5.29282843e-004 -7.49833009e-004 -2.75186263e-003
      -4.04327642e-003 -4.64374432e-004 4.62064287e-003 8.58951244e-005
      1.01358863e-003 -2.21781409e-003 -6.82861451e-003 3.50881834e-003
      1.10512937e-003 3.45587917e-003 -5.78231062e-004 1.67400378e-003
      2.63321702e-003 -1.91278255e-003 3.56937409e-004 2.05808831e-003
      3.17370240e-003 1.04004401e-003 5.52858040e-003 -2.30226316e-003
      5.15877362e-003 -1.20338332e-003 2.49100872e-003 4.44023684e-003
      4.30320064e-003 4.79891850e-003 2.79905344e-003 7.80582428e-003
      -6.67120470e-003 -8.22257425e-004 2.35149375e-004 7.70399405e-004
      8.66358227e-004 -5.07845136e-004 1.15702325e-003 7.16825668e-003
      9.25428583e-004 -4.14573541e-003 -1.88888866e-003 1.44314114e-003
      -6.20789174e-003 -2.35002348e-003 5.45423012e-003 -6.16749632e-004
      -2.75137508e-003 -3.87803628e-003 -3.79034271e-003 1.28434098e-003
      5.91380382e-003 1.37985183e-003 -1.42611808e-003 1.14796532e-003
      -3.52152367e-003 -4.52997210e-003 8.33506696e-004 -1.72521232e-003
      -1.73133460e-003 -2.91716494e-003 2.91959336e-003 -3.36607732e-003
      2.31651799e-003 2.28684046e-003 2.87149986e-003 6.67635351e-003
      -4.07680823e-003 1.99769787e-003 2.05862976e-004 5.12052975e-005
      -2.10363232e-003 -2.04807636e-003 5.12057568e-006 9.82144615e-004
      7.31053716e-003 1.47341285e-004 1.34262629e-003 7.06112711e-004
      2.67687789e-003 -4.68218699e-003 -6.81093708e-003 3.38120968e-003
      2.42404081e-003 -1.48476392e-004 -9.05866109e-005 -2.48846645e-003
      -1.23170990e-004 -1.25433420e-004 5.10641723e-004 -2.95978342e-003
      2.88186199e-003 5.93526987e-004 5.99557068e-004 -3.50128999e-003
      1.54138752e-003 -7.96236272e-004 4.15053731e-003 -1.94903929e-004
      2.05207267e-003 4.16495698e-003 -2.22946727e-003 -1.13055180e-003
      -6.45866431e-003 2.24134047e-003 1.79174694e-003 -2.03807707e-004
      -4.54357639e-003 -1.89589628e-003 -3.38112557e-004 3.06498003e-003
      8.40446504e-004 4.66610119e-003 1.14585028e-003 3.14054592e-003
      -1.78987044e-003 1.20797171e-003 3.85483657e-003 -1.50679541e-003
      2.10916647e-003 5.12133236e-004 1.69055420e-003 4.50652465e-003
      1.53161678e-003 1.02117553e-003 -2.08677654e-003 2.05698051e-003
      1.57978944e-003 -3.83511931e-003 -9.46600630e-005 1.37809478e-003
      3.70397186e-003 3.85489967e-003 2.00602319e-003 7.46562472e-003
      5.12774056e-003 3.99737433e-003 -1.82658597e-003 -3.23692249e-004
      -6.17288868e-004 3.15185240e-003 3.03896051e-003 4.12080530e-003
      -1.26353616e-003 -1.34468457e-004 2.49404949e-003 -1.09430251e-003
      5.52621391e-003 2.16564350e-003 -1.24397117e-003 5.24856616e-003
      -3.25423619e-003 2.86744535e-003 5.36663400e-004 -6.77605334e-004
      -4.48621484e-003 -1.77345661e-004 8.78872350e-004 -1.16328627e-003
      -1.23509590e-003 -1.74336729e-003 -2.73652188e-003
      -6.35060621e-003 -4.25291201e-003 1.50033762e-003 -1.56875106e-003
      4.48572636e-003 -1.49966497e-003 -8.10200255e-003 5.21580782e-003
      2.89062504e-003 9.48418805e-004 -4.60461434e-003 -5.60247165e-004
      -1.53173532e-005 -1.20895845e-003 2.81444425e-003 3.18146497e-003
      5.69073157e-003 -3.37212742e-003 4.81744719e-005 1.78800593e-003
      -2.68520950e-003 -6.76206313e-004 3.30844923e-004 -2.54590093e-004
      1.97459268e-003 2.56657158e-003 1.14096869e-002 -4.86484775e-003
      -1.29451032e-003 2.61867163e-003 -6.19348575e-005 5.17487479e-003
      3.56702803e-004 4.59285546e-003 1.49190961e-003 -3.85273830e-004
      2.36447994e-003 -1.67169690e-003 2.79491884e-003 -4.91236988e-003
      -5.57236839e-003 -3.28847161e-003 -1.33710203e-003 9.15948709e-004
      4.93041123e-004 -9.56105068e-004</_>
    <_>
      1.23061088e-003 7.61428615e-003 -4.70938114e-003 4.94889729e-003
      1.96351483e-003 -8.77552945e-003 1.23033496e-002 -3.83619703e-002
      1.86367822e-003 -8.00159294e-003 -1.01868184e-002 -1.06887333e-002
      7.26917278e-005 -5.33284526e-003 8.67508259e-003 -1.95980314e-002
      1.29221044e-002 -6.12166943e-003 -4.15161345e-003 7.63891917e-003
      1.85287725e-002 -6.56887598e-004 -7.69205997e-003 2.57322821e-003
      2.52575823e-003 -7.76851829e-003 6.09161658e-003 -1.31061897e-002
      -1.43326598e-003 -1.94281749e-002 6.75512617e-003 4.73257527e-003
      -6.64364547e-003 -2.39093229e-002 -5.83277608e-004 3.49348504e-003
      1.53192598e-002 7.43279560e-003 1.35526236e-003 -7.94879347e-003
      -5.93180489e-003 7.49237277e-003 1.06087234e-002 7.07061589e-003
      5.19036315e-003 9.49752238e-003 2.31510941e-002 3.00188530e-002
      -2.27868743e-003 1.91048495e-002 -1.00231515e-002 -6.37101335e-003
      -8.68368428e-003 8.35259166e-003 2.09528599e-002 -1.20928679e-002
      -6.02385821e-003 8.33082572e-003 -1.80149768e-002 1.12169255e-002
      -1.40199102e-002 1.62949506e-002 2.18795929e-002 -5.22299437e-003
      1.68107264e-002 -1.83944264e-003 -4.55364771e-003 -2.03533694e-002
      -1.47948682e-003 -1.36413453e-002 6.20589918e-003 -4.27081436e-003
      -1.09674409e-002 7.50288879e-003 -1.59179606e-002 -6.05781190e-003
      9.06921644e-003 -4.34660615e-004 -2.79715974e-002 -7.53779151e-003
      -2.88909231e-003 -3.54277948e-003 -8.23608658e-004
      -4.27367259e-003 1.97040644e-002 -5.85222943e-003 -7.30774179e-003
      -6.34302525e-003 -2.01676623e-003 -5.43153705e-003
      -1.34993941e-002 7.19007337e-003 -9.75378882e-003 6.87409658e-004
      2.72225458e-002 1.15260866e-003 -1.07790064e-002 -1.32015217e-002
      7.15281535e-003 1.37813678e-002 -2.49978844e-002 5.20926202e-003
      -1.38919679e-002 -2.13535000e-002 6.19893940e-003 -1.04140937e-002
      1.82062034e-002 -6.83635194e-003 7.06917048e-003 3.93704884e-003
      1.68333482e-002 2.34278245e-003 -1.90829765e-002 -5.40957041e-003
      1.36843110e-002 1.38862710e-002 3.95243503e-002 -1.45117613e-002
      9.81336366e-003 -6.83623599e-003 -1.56866363e-003 1.80663541e-002
      1.73078738e-002 -6.69840444e-003 9.71110817e-003 8.61298852e-003
      -2.71089317e-004 -1.62108503e-002 5.39612072e-003 1.06711360e-002
      -7.63945514e-003 -1.57912038e-002 2.29639262e-002 1.02067497e-002
      1.22201908e-002 5.25666983e-004 2.28374777e-003 1.22214491e-002
      -8.99478607e-003 -6.52465783e-003 -2.07429426e-003 5.64925652e-003
      1.73475663e-003 -1.74032673e-002 1.03472369e-002 8.77531338e-003
      -4.16810578e-003 -2.42052432e-002 6.56177429e-003 -2.62344517e-002
      7.62028294e-003 -7.35456264e-003 -8.75367038e-003 1.85124520e-002
      -1.40527533e-002 1.62404515e-002 8.67680088e-003 2.56471280e-002
      1.63245038e-003 -1.20139180e-003 -8.67295545e-003 1.28082670e-002
      -1.29857715e-002 -1.01384744e-002 -1.61333196e-003 6.55910280e-003
      -7.69973220e-003 -1.09023033e-002 -8.26018117e-003
      -6.75330358e-003 -1.18410643e-002 6.76020002e-003 4.51577362e-003
      1.04980795e-002 -4.69664484e-003 -3.74991111e-002 -5.74662769e-003
      1.42009603e-002 5.68352034e-003 8.78190156e-003 7.15877302e-003
      -3.57339089e-003 1.75861474e-002 -4.39795991e-003 -7.23124854e-003
      -1.74177042e-003 -3.90854245e-003 6.70095254e-003 1.65471509e-002
      7.04425666e-003 -3.88044398e-003 -6.60947943e-003 9.43308417e-003
      -1.08538512e-002 1.95467398e-002 7.62839569e-003 1.70702189e-002
      1.56723475e-003 1.12403440e-003 1.04627786e-002 -1.49638881e-003
      1.15572996e-002 -3.27738770e-003 -8.19811132e-003 -8.60399567e-003
      -2.35974975e-002 5.09182597e-003 4.61088959e-003 6.25014491e-003
      -2.53483932e-002 -3.32072042e-002 -1.63958278e-002 2.20301524e-002
      -5.71440347e-003 -1.34569351e-002 1.42328460e-002 -1.09873665e-002
      -7.04732304e-003 -4.93219541e-003 -1.45381040e-004 4.40379651e-003
      2.41217948e-002 -6.60492852e-003 5.40205883e-003 -9.92294587e-003
      2.04480682e-002 4.18092078e-003 -9.34585836e-003 -2.98131770e-003
      -5.02186269e-003 -8.24095029e-003 4.48783254e-003 -9.76270996e-003
      6.98641036e-003 -2.74822395e-002 -7.44544761e-003 1.08215660e-002
      -1.73292458e-002 1.59928463e-002 3.48773901e-003 -1.77660529e-002
      3.36548255e-004 -1.79102235e-002 2.04363558e-002 -2.80107558e-002
      1.18562384e-002 5.35898982e-003 -2.02542404e-003 -1.44579690e-002
      -8.01285147e-004 1.08241364e-002 -9.53297783e-003 -5.94783993e-003
      -5.83277899e-004 8.14720988e-004 1.35582602e-002 5.75268781e-003
      2.59071942e-002 -2.77393567e-003 -9.22891498e-003 5.20887133e-003
      -1.76501367e-002 -1.83603205e-002 2.25097779e-003 2.14449479e-003
      1.11851133e-002 -1.21607846e-002 4.02877014e-003 -1.05428118e-002
      -1.59775764e-002 1.76154990e-002 6.36507850e-003 -1.97319090e-002
      -8.82243179e-003 -2.76981108e-003 2.40940810e-003 6.07003640e-005
      2.80680397e-004 4.84530302e-003 -9.48412623e-003 7.06154760e-003
      9.67208575e-003 -1.09419860e-002 -1.35092693e-003 -7.22108735e-003
      -6.95151102e-004 -5.74626355e-003 -1.56015612e-003 8.28610081e-003
      -1.92831401e-002 1.49676658e-003 -1.11000044e-002 9.85060725e-003
      -3.13298800e-003 -8.58803466e-003 -1.02661680e-002 5.55264065e-003
      -1.16024096e-003 -1.41278971e-002 -5.25242230e-003
      -1.96042042e-002 -1.17860446e-002 -4.43578931e-003 2.69578379e-002
      -1.28033655e-002 -1.37204994e-002 1.98567938e-002 7.25646550e-003
      -1.36519819e-002 -2.07631011e-003 5.42993145e-003 1.42329989e-003
      9.73779056e-003 1.13947662e-002 -2.88655367e-002 -1.49246417e-002
      1.43141318e-002 1.02382954e-002 -9.08676442e-003 -1.31136295e-003
      -1.29616689e-002 1.51238474e-003 -2.33281055e-003 -1.45629216e-002
      3.68168554e-003 1.44702243e-002 -1.88932456e-002 -8.42369068e-003
      3.01057883e-002 -6.47278596e-003 1.51349278e-003 -1.73376333e-002
      1.40276961e-002 -1.54104270e-002 -6.66442094e-003 1.58494450e-002
      8.82473215e-003 -6.02391548e-003 -2.14223955e-002 3.32677597e-003
      -1.80889554e-002 1.09402118e-002 2.42911326e-003 1.37916626e-002
      -1.51182082e-003 4.41366732e-002 -3.05030821e-003 -2.67088716e-003
      -8.23431835e-003 1.03469882e-002 9.04886704e-003 2.32644212e-002
      -4.76854108e-003 6.61133230e-003 -1.84615981e-002 4.33594640e-003
      -1.73313580e-002 -2.29901471e-003 -2.96294689e-002 1.70598887e-002
      -8.20974447e-003 2.38966309e-002 -2.14100573e-002 5.86283486e-003
      1.86672937e-002 4.81103081e-003 1.20786391e-002 6.94379769e-003
      -5.34683419e-003 -2.25214269e-002 -1.91379283e-002
      -4.35164850e-003 5.65204956e-003 1.41483033e-002 7.37358024e-003
      -1.87158547e-002 8.29114206e-003 -1.70270668e-003 -2.02115793e-002
      -1.20378733e-002 -2.30133701e-002 -1.56189492e-002 7.47299101e-003
      2.52593658e-003 -1.01688979e-002 -7.75636500e-003 -1.30093899e-002
      7.62549695e-004 -1.83441639e-002 5.23532880e-003 -1.33142550e-003
      1.13050081e-002 -8.55648704e-003 -3.29128728e-004 -4.94921440e-003
      -6.86736265e-003 2.18875539e-002 -1.22493617e-002 1.52324121e-002
      3.33506684e-003</_>
    <_>
      1.98773034e-002 5.96895814e-003 4.67373105e-003 1.25951571e-002
      1.56792079e-003 9.09863133e-003 -1.45401247e-002 -1.76348817e-002
      -7.45635619e-003 1.21286698e-002 -1.64397750e-002 5.61168930e-003
      5.95774734e-003 -5.35175670e-003 1.22849690e-002 -8.20265152e-003
      8.47281143e-003 6.75764261e-003 -1.17075881e-002 -3.40132206e-003
      4.97529376e-003 -1.31580634e-002 1.54933066e-003 2.15521269e-003
      1.83283482e-002 4.23300965e-003 1.25907557e-002 -1.95637364e-002
      2.20090779e-003 -4.50041238e-003 -1.40283373e-003 -5.09188371e-003
      -4.53139422e-003 1.25034768e-002 2.77414289e-003 5.00336848e-003
      1.78193655e-002 -2.01387540e-003 1.08546892e-003 -2.33045332e-002
      -6.85622171e-003 1.09863151e-002 -1.03326635e-002 -3.07737314e-003
      -1.86064951e-002 -5.18582575e-003 9.00065806e-003 2.84135994e-003
      -5.82993077e-003 9.56513174e-003 -2.28648167e-002 3.45997955e-003
      3.12440912e-004 1.01829004e-002 -5.34455245e-003 5.79377171e-003
      2.42767599e-003 3.66726867e-003 8.34879186e-003 -2.93724413e-004
      7.10753212e-003 3.86247085e-003 1.48775103e-002 5.12911333e-003
      1.18047418e-003 6.69657392e-003 2.63366150e-004 1.14336461e-002
      1.06873149e-002 1.16786230e-002 1.05982192e-003 7.35644298e-003
      -1.26007106e-002 7.20833056e-003 -1.10317906e-002 -2.79916655e-002
      6.40379672e-004 1.57685615e-002 -6.01690495e-003 1.01926122e-002
      1.70296784e-002 -1.84887741e-002 1.88669190e-003 4.59208433e-003
      1.17891235e-002 -1.36955846e-002 3.48640908e-003 -5.18553192e-003
      -2.30068713e-003 -1.27948374e-002 -1.28930220e-002 5.79027459e-004
      1.05702689e-004 2.06556520e-003 2.41908198e-003 -3.24587571e-003
      -5.88418543e-003 -1.38699182e-003 -8.60808592e-004
      -1.63364201e-003 -1.42313987e-002 2.08171662e-002 -3.38859507e-003
      -1.23349484e-002 2.02635191e-002 -8.95539019e-003 1.31448479e-002
      -1.85478032e-002 6.42851228e-003 1.13788433e-002 6.77528000e-003
      -2.28404673e-003 3.46366386e-003 1.94888955e-004 2.18811687e-002
      -8.18379316e-003 -8.88206065e-003 1.59333609e-002 -1.53631822e-003
      4.81435470e-003 -5.88377891e-003 -1.52863571e-002 1.75815672e-002
      -2.66079488e-003 9.30526946e-003 1.76975597e-002 1.24731958e-002
      -1.97730353e-003 3.60073609e-004 -2.68778153e-004 4.41281032e-003
      6.70924410e-003 2.63908223e-005 7.17992801e-003 1.88718792e-002
      1.77143179e-002 9.00400686e-004 2.38646404e-003 3.92271578e-003
      -1.19448069e-003 8.94179754e-003 -5.84799936e-003 1.33802341e-002
      -1.68529921e-003 -5.22586470e-003 -1.74347311e-003 1.55915301e-002
      -1.17035839e-003 -3.10975476e-003 -7.67664285e-003 5.09781111e-003
      -6.17306866e-003 1.55837843e-002 7.12343724e-003 -5.78705978e-004
      -1.83560513e-002 -3.06324717e-002 5.21098310e-003 -2.70503038e-003
      -7.23437173e-003 -3.17242416e-003 3.65005410e-003 -2.85314489e-003
      -3.17006816e-005 1.24204392e-003 -1.14550092e-003 -2.20132172e-002
      -4.05922160e-003 -1.91756003e-002 1.90108176e-002 8.96505453e-003
      -7.86117092e-003 3.98861710e-003 1.18668482e-003 -6.80704368e-003
      -1.55621422e-002 -6.22639619e-003 2.66426113e-002 1.76212527e-002
      7.72429339e-004 -6.33386429e-003 -2.76630949e-002 -1.26613341e-002
      1.96698727e-003 -2.16428679e-003 5.42441430e-003 1.00893518e-002
      -1.36301974e-002 1.00910068e-002 7.45031703e-003 1.68129778e-003
      1.02525915e-003 5.74923295e-004 -2.60364003e-002 -4.32742713e-003
      6.70965901e-003 5.37740486e-003 1.76282087e-003 -1.41727282e-002
      -1.36308547e-004 -1.16641130e-002 5.44074969e-003 -1.04880205e-003
      -8.90904048e-004 1.94868091e-002 -5.85243688e-004 -1.30475480e-002
      3.67401494e-003 -9.57395788e-003 -6.65157987e-003 -8.83237086e-003
      -3.20905559e-002 -1.36053078e-002 2.61840108e-003 -4.68269503e-003
      3.36470711e-003 -5.51674236e-003 -5.66411205e-003 -1.97656937e-002
      4.00302699e-003 1.01130689e-002 2.05914173e-002 2.84939306e-003
      -7.14020105e-003 -2.90872320e-003 -6.41690567e-003
      -4.16122004e-003 6.34659315e-003 1.42935505e-002 -7.60765933e-003
      6.87838905e-003 -4.72731097e-003 -1.07630454e-002 -1.86354034e-002
      -5.93979564e-003 -8.48978199e-003 1.31179048e-002 1.09724160e-002
      2.13427818e-003 -8.79363064e-003 -9.85466316e-003 -1.23613514e-002
      -8.87133833e-003 1.24654677e-002 -1.36246933e-002 -4.42529935e-003
      -1.33371213e-002 -9.76344862e-004 -5.42384153e-003 1.22210924e-002
      -1.39902474e-003 6.47607027e-003 3.22905136e-003 1.76270828e-002
      -1.10672265e-002 9.06236656e-003 2.07507592e-002 1.39890341e-002
      4.86442383e-004 -1.51769444e-002 -1.29364189e-002 -1.78895164e-002
      -1.11249145e-002 3.59449652e-003 -2.47535966e-002 8.78632069e-003
      6.01947214e-003 1.27845826e-002 3.89741524e-003 6.28111558e-003
      4.51124320e-003 -1.10810355e-003 1.89584028e-002 -1.21548222e-002
      -9.03551280e-003 -5.22532454e-003 1.10682826e-002 1.13326497e-002
      -1.30477166e-002 -3.22414166e-003 -2.22957460e-003
      -2.66149081e-003 -1.46069843e-003 -1.93799473e-003
      -1.23241600e-002 1.26500465e-002 4.18388005e-003 -4.93210321e-003
      7.81850982e-003 2.41809133e-002 9.64831281e-003 -4.90971282e-003
      6.32251147e-003 -1.08325798e-002 5.37877146e-004 -1.71901975e-002
      -1.10524325e-002 -3.38374823e-003 -1.10911187e-002
      -5.52100828e-004 -3.78561788e-003 -1.80144664e-002
      -7.41541153e-004 1.37579413e-002 1.80553496e-002 -2.24927394e-003
      -7.76691828e-003 2.67083780e-003 -1.28429790e-003 8.40740930e-003
      -1.58281196e-002 1.84404547e-003 1.28902053e-003 2.44636647e-003
      2.82753399e-003 -1.15502710e-002 1.16246836e-002 -2.15460658e-002
      -5.07514179e-003 6.22154307e-003 -3.40158422e-003 2.38669850e-003
      6.51081977e-003 8.13777442e-004 2.96986522e-003 9.40458570e-003
      -1.21781020e-003 9.58070392e-004 1.50653571e-002 -7.98126217e-003
      5.01677627e-003 -1.97535008e-002 8.48438125e-003 5.15908189e-003
      4.15033195e-003 -6.88832311e-004 6.46650745e-003 -3.93000152e-003
      -6.14824193e-003 -1.09248804e-002 1.55181577e-002 -8.86342768e-003
      1.54043292e-003 2.48778076e-003 -5.22404385e-004 2.12900266e-002
      -9.90135036e-003 1.34411629e-003 -7.11668795e-003 1.58751511e-003
      -6.62637362e-003 5.68044512e-003 -5.29738748e-003 1.34807462e-002
      -1.27861910e-002 -1.61315352e-002 1.54755414e-002 -3.80074978e-003
      1.03004621e-002 -1.06577750e-003 -1.78702604e-002 1.97966266e-002
      -1.66832395e-002 7.81856291e-003 1.34848291e-002 -6.84210565e-003
      1.40583012e-002 -3.03593371e-002 -4.79594152e-003 -1.24838273e-003
      3.77928815e-003 -3.15204612e-003 1.38308061e-002 1.43566607e-002
      -1.40751223e-003 -1.50677087e-002 3.00874468e-002 3.64488773e-002
      -3.29244859e-003 3.64181050e-003 3.08094453e-003 4.93935833e-004
      1.49721652e-002 7.81736989e-003 5.71020937e-004 1.93164963e-003
      -4.00138367e-003 7.97524210e-003 -1.07529564e-002 -1.89416837e-002
      5.11780474e-003 -1.61057319e-002 -9.04464629e-003 -3.72559042e-003
      5.26941242e-003 -7.25688506e-003 1.09295417e-002 -3.54373315e-003
      8.29537027e-003 3.53103387e-003</_>
    <_>
      1.33506507e-002 6.77903462e-003 3.19416006e-003 7.25088082e-003
      7.25403009e-003 6.96011679e-003 -2.91644526e-003 1.00020366e-002
      -1.83464456e-002 1.34111326e-002 3.62295238e-003 5.98071562e-003
      5.00950264e-003 2.17471644e-003 -1.27286708e-003 9.01895855e-003
      -5.86118549e-003 7.19333580e-003 -6.77766977e-004 -2.44011218e-003
      -1.59926359e-002 -5.65416086e-003 -4.50671045e-003 2.65946682e-003
      1.32569997e-002 -1.45128660e-003 1.30322657e-003 -1.57852676e-002
      3.89725668e-003 8.27695522e-003 -7.68973841e-004 -6.17766194e-003
      -2.16101091e-002 2.22148169e-002 8.25017877e-003 2.91919010e-003
      1.98774450e-002 -5.62562374e-003 -6.68190839e-003 -1.24654910e-002
      -2.23444868e-003 -4.17401688e-003 -1.33072007e-002
      -1.71575900e-002 -1.99611615e-002 6.77431887e-003 -4.54768509e-004
      -1.40297487e-002 3.05688870e-003 -1.11963833e-002 -6.27471134e-003
      5.19186491e-003 -2.15353793e-003 -9.27854702e-003 -5.75254252e-003
      5.16700465e-003 2.07002945e-002 9.62326396e-003 1.36902397e-002
      -5.19622117e-003 1.65992230e-002 -6.80038380e-003 -1.24025932e-002
      -1.84196141e-003 -1.10391350e-002 -6.78144721e-003
      -8.90129991e-003 2.45882198e-003 4.60449141e-003 2.42446437e-002
      -1.48692392e-002 8.14881455e-003 -1.23173147e-002 1.14044789e-002
      -1.16899908e-002 -2.57583726e-002 -2.82405457e-003 1.25471363e-002
      2.58295401e-003 1.60994455e-002 2.19020583e-002 1.09051878e-003
      8.62702634e-003 -1.03332493e-002 -2.21269820e-002 1.47088971e-002
      2.53037438e-002 -1.11082653e-002 -6.23407727e-003 2.27858708e-003
      -4.75593982e-003 -4.17385576e-003 7.19577679e-003 1.23572247e-002
      -1.05574243e-002 -1.87771861e-003 3.06848623e-003 6.92086387e-003
      -4.32917755e-003 4.35621431e-003 8.49116594e-003 2.47552688e-003
      8.36660434e-003 5.62144723e-003 9.54927783e-003 -6.31507393e-003
      2.25529703e-003 -1.43543007e-002 1.91733579e-003 1.93873246e-003
      1.18603781e-002 9.57465824e-003 1.70109654e-003 2.81047495e-003
      6.37016841e-004 -1.54762790e-002 -3.37703265e-002 1.20443162e-002
      7.41389673e-003 -2.50721909e-003 -2.69993558e-003 -2.27181800e-002
      3.73074366e-003 1.01578906e-002 1.22454837e-002 7.04215141e-003
      1.36831934e-002 3.40462662e-003 -2.43665907e-003 3.92337143e-003
      -4.74188826e-004 1.46038700e-002 -1.48597518e-002 6.07311865e-003
      1.69483982e-002 7.43513973e-003 -1.32964868e-002 -1.92336470e-003
      9.34816711e-003 -3.32637574e-003 1.24206850e-002 -1.37615455e-002
      1.22328335e-002 1.17191179e-002 -3.87980882e-003 5.44828223e-003
      1.32728824e-002 3.57731874e-003 2.65385141e-003 7.22113485e-003
      -6.84880465e-003 -1.05606960e-002 2.21430212e-002 1.14975423e-002
      4.72329976e-003 -1.27434079e-002 -6.95945462e-003 -3.88549804e-003
      -7.72539433e-003 -1.52750115e-003 1.72763076e-002 -1.72844734e-002
      5.99385006e-004 4.16580326e-004 -7.38496007e-003 4.43061907e-003
      -4.85897856e-003 1.22039253e-002 -2.63413899e-002 2.29442306e-002
      3.79861821e-003 -4.11038706e-003 -5.59437461e-003 -1.68986910e-004
      -3.16424482e-003 -1.70174260e-002 3.13644554e-003 -1.46332546e-003
      3.00383521e-003 -7.68442266e-003 8.94818455e-003 -1.59621872e-002
      -1.26483236e-002 7.64593575e-003 1.41237620e-002 1.62334591e-002
      3.39831575e-004 -7.82577880e-003 1.80295343e-003 4.41730442e-003
      4.67900373e-003 -2.13399017e-003 -1.02055417e-002 -6.59105694e-003
      -3.19922231e-002 3.39970901e-003 -9.79069900e-003 1.63899327e-003
      -7.60216825e-003 -4.59314277e-003 -3.19575449e-003
      -6.14027353e-003 -5.27055888e-003 -1.38705375e-003 2.05031037e-002
      5.93396835e-003 -1.67764421e-003 3.57603095e-003 -1.88304260e-002
      5.52424509e-003 7.26093072e-003 -1.41012101e-002 -3.17159630e-002
      5.36884135e-003 9.41875670e-003 -1.68542715e-003 1.25870504e-003
      3.96301184e-004 -8.32624547e-003 5.89146512e-003 1.44220600e-002
      -1.90321123e-004 7.63098756e-003 1.46101680e-004 4.44650446e-004
      -1.05251782e-002 -1.51197612e-002 -5.02280134e-004 1.52991246e-002
      5.93533833e-003 9.04253218e-003 -8.46558437e-003 1.59852440e-003
      -1.11937923e-002 6.49032462e-003 -9.37989634e-003 -4.31714905e-003
      2.02598926e-002 -6.75261253e-003 6.39041420e-004 2.38990458e-003
      -8.40886403e-003 1.28213875e-002 -1.56859611e-003 1.91065893e-002
      -1.21192075e-002 -3.20585474e-004 3.58238188e-003 -3.14074405e-003
      4.81777219e-003 1.53654825e-003 1.50617799e-002 5.48341079e-003
      2.21628901e-002 -6.44968543e-003 4.58663190e-003 7.12335313e-005
      -7.86015671e-003 1.44365299e-002 -6.65581506e-003 -4.58843587e-003
      -1.64808296e-002 3.56414123e-003 7.85534177e-003 -1.80833116e-002
      2.01132447e-002 8.75804294e-003 1.11288447e-002 8.39576870e-003
      4.91001830e-003 -1.32242981e-002 4.96738171e-003 -4.40098485e-003
      -1.39129730e-002 -4.88092611e-003 -6.15268573e-003
      -2.19294243e-003 3.64632765e-003 -4.18538740e-003 3.54560139e-003
      -1.06295878e-002 1.22150248e-002 5.43535315e-003 3.48729314e-003
      2.62388797e-003 -4.94296604e-004 1.10311387e-002 6.85516652e-003
      5.13073616e-003 1.45548824e-002 -2.11617583e-003 4.34220163e-003
      1.11833273e-004 -8.00754037e-003 4.26052278e-003 -1.00012049e-002
      1.31035951e-004 -1.01897167e-002 -3.46677727e-004 7.58292060e-003
      1.15812197e-002 -4.40771878e-003 -8.95802339e-004 -1.12474477e-002
      1.22619206e-002 7.55743729e-003 -8.31079029e-004 -9.08173900e-003
      5.36657521e-004 9.76936705e-003 -2.49836110e-002 2.77040899e-003
      3.30282317e-004 -4.51742951e-003 1.76605545e-002 3.20515363e-003
      -1.69277806e-002 -1.19945081e-002 1.95610942e-003 1.12599265e-002
      2.99443002e-003 -8.32749903e-003 -9.09945183e-003 2.48198025e-003
      -4.49723797e-004 -5.37060015e-003 7.33263232e-003 1.41180903e-002
      -3.92051414e-003 -1.06024863e-002 -1.27809448e-002 1.01987282e-002
      9.51227918e-003 3.04724015e-002 -5.68472547e-004 -1.14273783e-002
      -5.44922287e-003 -4.89474460e-003 -4.15537553e-003
      -2.09433539e-003 3.10375751e-003 -7.67288916e-003 1.58139486e-002
      7.10154325e-003 -4.93265083e-003 -8.79348163e-003 -3.87823093e-003
      -1.04512507e-002 9.81333433e-004 -3.72567493e-003 4.54692927e-004
      -5.80323907e-003 7.58391805e-003 4.55375481e-003 -2.69515580e-003
      -1.09101534e-002 4.98257438e-003 -7.90111313e-004 1.61640719e-002
      -5.79767162e-003 -1.32316314e-002 1.73661346e-003 -8.43085814e-004
      2.27877535e-002 -1.54563570e-002 -7.17982242e-004 8.68444424e-003
      -1.62689108e-002 -1.57978199e-002 1.27247972e-002 1.38578843e-002
      -2.10411604e-002 2.18734518e-003 1.26172667e-002 -5.05910581e-003
      1.11904386e-002 1.81133691e-002 2.48920023e-002 1.83275877e-003
      4.71822452e-003 1.03253452e-002 5.63849742e-003 7.66867399e-003
      -8.12577363e-003 -1.99978822e-003 9.74008348e-003 5.21948002e-003
      7.97318947e-003 3.26768169e-003 -1.43374577e-002 2.36076326e-003
      -1.43546630e-002 -1.11883914e-003 -1.47979800e-002 5.26328897e-003
      -2.95707979e-003 6.50327513e-003 -6.86612611e-006 -5.34682442e-003
      4.23117308e-004</_></support_vectors>
  <decision_functions>
    <_>
      <sv_count>1</sv_count>
      <rho>-4.1023339419139410e-002</rho>
      <alpha>
        1.</alpha>
      <index>
        0</index></_>
    <_>
      <sv_count>1</sv_count>
      <rho>1.4426575298888922e+000</rho>
      <alpha>
        1.</alpha>
      <index>
        1</index></_>
    <_>
      <sv_count>1</sv_count>
      <rho>1.7520427292731504e+000</rho>
      <alpha>
        1.</alpha>
      <index>
        2</index></_>
    <_>
      <sv_count>1</sv_count>
      <rho>1.2337945091727625e+000</rho>
      <alpha>
        1.</alpha>
      <index>
        3</index></_>
    <_>
      <sv_count>1</sv_count>
      <rho>1.4625223817034367e+000</rho>
      <alpha>
        1.</alpha>
      <index>
        4</index></_>
    <_>
      <sv_count>1</sv_count>
      <rho>1.5105100738428605e+000</rho>
      <alpha>
        1.</alpha>
      <index>
        5</index></_>
    <_>
      <sv_count>1</sv_count>
      <rho>1.2823598446960913e+000</rho>
      <alpha>
        1.</alpha>
      <index>
        6</index></_>
    <_>
      <sv_count>1</sv_count>
      <rho>-6.1938128444101781e-001</rho>
      <alpha>
        1.</alpha>
      <index>
        7</index></_>
    <_>
      <sv_count>1</sv_count>
      <rho>-7.6165077169421758e-001</rho>
      <alpha>
        1.</alpha>
      <index>
        8</index></_>
    <_>
      <sv_count>1</sv_count>
      <rho>-5.7056320222407786e-001</rho>
      <alpha>
        1.</alpha>
      <index>
        9</index></_></decision_functions></my_svm>
</opencv_storage>
