<?xml version="1.0"?>
<opencv_storage>
<my_svm type_id="opencv-ml-svm">
  <svm_type>C_SVC</svm_type>
  <kernel><type>LINEAR</type></kernel>
  <C>1.</C>
  <term_criteria><epsilon>9.9999999392252903e-009</epsilon>
    <iterations>100000</iterations></term_criteria>
  <var_all>3200</var_all>
  <var_count>3200</var_count>
  <class_count>8</class_count>
  <class_labels type_id="opencv-matrix">
    <rows>1</rows>
    <cols>8</cols>
    <dt>i</dt>
    <data>
      80 86 165 171 195 209 210 245</data></class_labels>
  <sv_total>28</sv_total>
  <support_vectors>
    <_>
      -1.11199170e-002 -9.74859390e-003 8.26746516e-004 2.78694066e-003
      9.32519324e-003 1.40810269e-003 1.22467615e-003 -3.38106938e-002
      6.82186559e-002 -2.66227610e-002 2.10238565e-002 2.27521341e-002
      2.75384765e-002 -2.93228519e-003 1.09517891e-002 6.93185534e-003
      -4.37688939e-002 3.24354619e-002 -1.66164748e-002 -2.51235422e-002
      -9.46478397e-002 1.81652248e-001 1.32818773e-001 -2.26401705e-002
      2.52562672e-001 -1.46821409e-001 4.50788699e-002 1.47963762e-001
      2.31774896e-001 -8.39466229e-003 6.06837422e-002 5.80632798e-002
      8.23947228e-003 6.19563758e-002 -6.61243573e-002 -4.79941443e-002
      -2.17462853e-001 2.30724305e-001 3.00988913e-001 -7.77137140e-003
      -2.60654002e-001 4.51222099e-002 -6.33349776e-001 -9.69716087e-002
      3.09701830e-001 -1.01961836e-003 7.53837898e-002 2.86609679e-003
      6.58033229e-003 -4.47329786e-003 -4.92466427e-003 -2.15884787e-003
      -3.04399114e-002 2.69922949e-002 -2.89628897e-002 -3.32337320e-002
      -5.28032659e-003 8.62707496e-002 -2.31371149e-002 -5.28231934e-002
      3.46296355e-002 7.21352687e-003 9.40428022e-003 -2.94203870e-003
      1.11653488e-002 2.40459503e-003 4.12311079e-003 4.59581940e-003
      3.11588496e-002 9.13401600e-003 3.44951786e-002 6.82769120e-002
      -1.90050136e-002 5.94225060e-003 5.77999540e-002 3.53138112e-002
      1.14234695e-002 -2.89403019e-003 1.05475755e-002 8.29477143e-003
      4.72133234e-002 -1.42791029e-002 -6.87306467e-003 3.80812138e-002
      4.08489734e-001 -9.98940095e-002 -3.08938742e-001 3.07435870e-001
      -1.16477706e-001 7.79201929e-003 1.98192671e-001 3.84199768e-001
      7.78282657e-002 4.41559814e-002 6.63298741e-002 8.74078050e-002
      1.31291691e-002 5.90877421e-003 -4.75338213e-002 -1.92006677e-002
      3.64955068e-001 -2.53679454e-001 -5.13078928e-001 -4.33140621e-002
      2.32118756e-001 -2.10888207e-001 9.86102745e-002 6.38555661e-002
      5.24735339e-002 3.42908944e-003 4.10944447e-002 6.55755550e-002
      6.43070508e-003 -1.62686827e-003 -2.58385972e-003 3.69663769e-003
      -1.73254218e-002 -3.34282555e-002 -7.65426755e-002 4.71784687e-003
      7.14491755e-002 -2.64158975e-002 -1.70697551e-002 8.93788785e-003
      1.04639195e-002 -8.37691221e-003 3.26874107e-003 3.11021740e-003
      2.11343379e-003 2.68895808e-003 4.44856379e-003 -2.34947610e-003
      1.75615177e-002 3.78258601e-002 -6.25839876e-003 -4.40472811e-002
      7.33059198e-002 -2.07932070e-002 -6.69350009e-003 1.88950561e-002
      9.75636125e-004 4.53420123e-003 -2.05152296e-003 3.27383005e-003
      3.65013778e-002 2.01414544e-002 -1.65603624e-003 -2.96366569e-002
      2.00072482e-001 4.43520516e-001 -1.11529872e-001 -4.51748483e-002
      1.30929604e-001 3.41548353e-001 -2.94654462e-002 3.38438272e-001
      1.54654831e-002 -7.13329157e-003 -3.16108763e-002 2.06733570e-002
      6.87984303e-002 -3.23199891e-002 -8.70840903e-003 -4.24897522e-002
      2.93246657e-001 -2.57984608e-001 -1.62723377e-001 -2.17923075e-001
      1.66168697e-002 5.40385721e-003 1.19725734e-001 1.01401143e-001
      3.00623272e-002 5.51652629e-003 -1.37420855e-002 5.36136748e-003
      4.33821371e-003 2.72686466e-005 2.18358031e-003 -1.98652898e-003
      4.30068523e-002 -1.95691660e-002 -9.10311844e-003 -1.36419628e-002
      5.48499711e-002 -4.27213684e-002 -8.33619013e-003 1.43069047e-002
      4.88981372e-003 2.69387296e-004 3.71079030e-003 5.33363316e-003
      2.79251230e-003 1.43402291e-003 -1.11115014e-003 -7.36670941e-003
      -4.49466333e-002 1.04028741e-002 -5.51721500e-003 -8.81008455e-004
      -2.52968576e-002 1.10729784e-002 -3.00737265e-002 -2.28849193e-003
      1.34002687e-002 1.26335060e-003 4.83748456e-003 1.34547323e-003
      -4.61753793e-002 -6.53279806e-003 -9.01562441e-003 1.25260530e-002
      3.30711086e-003 -9.23477411e-002 2.96669751e-002 1.69212908e-001
      -3.28670830e-001 5.38901659e-003 -7.35384375e-002 -3.46642546e-002
      1.20685413e-001 -1.38477674e-002 4.47260169e-003 -2.39341240e-002
      -4.87221181e-002 -1.62240341e-002 -4.80455458e-002
      -4.78302129e-002 1.20604880e-001 -1.49371102e-001 -1.40190855e-001
      -2.60960251e-001 -1.55226409e-001 2.64330022e-002 7.36728460e-002
      -3.65517259e-001 1.00015648e-001 5.53998910e-002 -1.79392588e-003
      -4.23115157e-002 -6.06554328e-003 -6.83827093e-003
      -2.92397803e-003 -8.27017240e-003 -9.74409748e-003
      -3.67060006e-002 -2.43853703e-002 -7.05817863e-002 3.74355726e-002
      2.31163297e-003 -2.40933262e-002 -5.94113730e-002 1.19633619e-002
      -1.53966038e-003 7.61982228e-004 -2.73563154e-003 -3.43592954e-003
      3.79370549e-003 -9.18110833e-003 -9.14812926e-003 3.82242128e-002
      4.72143851e-002 2.49724258e-002 -2.00140625e-002 5.67912571e-002
      2.14883145e-002 4.26366441e-002 1.94113497e-002 4.91694827e-003
      -8.39083106e-004 1.07955569e-002 7.81840831e-003 2.88904235e-002
      1.18957041e-002 -6.75882101e-002 -5.63956052e-002 2.46277601e-001
      3.56351733e-001 2.70263880e-001 -2.11448729e-001 -1.97296187e-001
      -8.00187066e-002 8.51821229e-002 9.05344114e-002 7.05760568e-002
      -1.16953049e-002 3.91383395e-002 -1.03302235e-002 5.72484843e-002
      -5.55647239e-002 -4.52174954e-002 -4.60227542e-002 3.43555480e-001
      -2.03471839e-001 -1.26782842e-002 -6.47577122e-002
      -1.44166872e-004 4.08659279e-001 -2.58111387e-001 -2.23454356e-001
      9.53230634e-003 4.06813323e-002 -8.76651239e-003 -4.11955602e-002
      5.93383983e-003 -5.23487106e-003 -5.54367946e-003 -9.76715516e-003
      9.40559506e-002 6.75277365e-003 -2.07570810e-002 -7.16814697e-002
      2.01803632e-002 -2.21783742e-002 -5.18790819e-002 -3.18671763e-002
      -2.51864828e-003 -3.60280043e-003 -1.52759184e-003
      -1.23872736e-003 1.33363402e-003 2.69321445e-003 1.86744763e-003
      -7.14704907e-003 -1.28365317e-002 2.43168939e-002 2.13736272e-003
      -3.71635742e-002 -1.23589179e-002 -1.55778574e-002 4.65236269e-002
      -2.00021267e-002 7.73519091e-003 -1.26639353e-002 -6.60944381e-004
      -1.64827914e-003 2.49578599e-002 -1.65556895e-003 2.19819751e-002
      -4.76665869e-002 -1.82130143e-001 -5.75244762e-002
      -7.47396201e-002 -1.55760005e-001 -3.04055423e-001
      -3.40729617e-002 3.22339267e-001 -1.85378015e-001 7.04263663e-003
      -2.13649143e-002 -7.80583825e-003 -1.48502504e-002 4.05700353e-004
      -4.39176969e-002 2.11536456e-002 -5.21302372e-002 2.52976924e-001
      9.97702554e-002 1.53601676e-001 -1.35075137e-001 -4.95850116e-001
      2.82527328e-001 9.18817222e-002 -2.79974073e-001 -3.42178792e-002
      1.06495852e-002 9.69244167e-003 -2.43500508e-002 3.13614774e-003
      -5.88252500e-004 4.55535576e-003 -3.75723629e-003 6.04649968e-002
      -1.06870867e-002 -9.98797733e-003 -2.51787081e-002
      -4.38067131e-002 -6.66072918e-003 4.02318407e-003 -2.48739384e-002
      -4.75666486e-003 6.62618037e-003 1.16631098e-003 -8.29607062e-003
      8.33214261e-003 2.36783526e-003 -3.51756113e-004 -1.11795887e-002
      4.82259803e-002 6.59539038e-003 3.10261874e-003 -5.50110452e-002
      -1.76673860e-003 -1.09495819e-002 -6.59106113e-003
      -5.87472990e-002 -3.74687719e-004 -1.44769705e-003
      -6.38501777e-004 -1.57635775e-003 2.75797043e-002 4.49780896e-002
      -2.06985362e-002 -6.41933233e-002 5.27111292e-002 -1.44210204e-001
      2.39188135e-001 -3.46290410e-001 6.98174536e-002 -1.58295572e-001
      -1.66562855e-001 -3.31036031e-001 9.10160877e-003 -4.61872667e-003
      2.45411023e-002 -1.81268994e-002 1.54151842e-002 -3.23815756e-002
      6.91939425e-003 -3.74909304e-002 3.55351865e-002 1.78768054e-001
      1.50700122e-001 -1.76934674e-002 1.48107201e-001 2.68096328e-001
      1.92835741e-002 1.12893403e-001 1.41294170e-002 3.19251120e-002
      2.43094796e-003 -3.68984081e-002 6.37498498e-003 -1.16838061e-003
      4.10526700e-004 -6.87492639e-003 8.15113112e-002 -6.21387688e-003
      6.33675009e-002 4.29245131e-003 -9.03235655e-003 3.80979814e-002
      1.60142966e-002 2.46552732e-002 5.75056858e-003 1.13660712e-002
      2.95556267e-003 -1.96050643e-003 3.52505548e-003 3.85006703e-003
      -1.13772065e-003 -1.11268600e-002 -2.56626168e-003 2.70666517e-002
      3.19432206e-002 -1.33524649e-002 -4.69711572e-002 -2.04554684e-002
      -3.01184822e-002 5.21590794e-003 1.45195602e-002 -7.20422575e-003
      1.23702083e-002 5.64901112e-003 3.36909778e-002 -2.86152922e-002
      -2.94943713e-002 -6.73967004e-002 9.75174904e-002 -2.76167355e-002
      3.29321891e-001 -3.38369399e-001 -8.36754367e-002 2.02312142e-001
      1.08855844e-001 3.28729540e-001 1.68799832e-002 4.52258997e-002
      6.15321361e-002 6.59048706e-002 1.21299345e-002 -4.36168648e-002
      -3.60082113e-003 -6.83523864e-002 1.58879906e-002 -4.06938910e-001
      1.41218398e-002 -4.22951013e-001 4.67278302e-001 -6.38318136e-002
      -1.67854339e-001 5.62283546e-002 3.56447580e-003 9.15201497e-004
      5.98595701e-002 5.32832444e-002 8.80181207e-004 -2.35601305e-003
      1.65094389e-003 -6.13313029e-003 -1.45137608e-002 -9.18365177e-003
      -1.01784002e-002 -1.56444814e-002 8.72035250e-002 -2.26835907e-002
      -2.43229400e-002 5.10628428e-003 3.41554196e-003 1.18319120e-003
      6.78448658e-003 2.64278753e-003 2.55467348e-005 6.25971146e-003
      5.25327865e-003 -5.88469859e-003 -4.96811084e-002 -2.28377990e-003
      -3.24558094e-002 -3.25396098e-002 7.57806078e-002 -2.01879777e-002
      4.37896587e-002 -2.96051800e-002 8.86760373e-003 -2.91923736e-003
      -1.06156208e-002 -7.15386728e-003 2.94693578e-002 -3.21771652e-002
      -1.85676366e-002 -3.32716703e-002 -8.47205743e-002 1.11900836e-001
      -3.93789494e-003 -1.06517091e-001 -1.93041489e-002 5.10273948e-002
      3.22176516e-001 -6.74636438e-002 1.26203343e-001 -2.61181630e-002
      -3.05492859e-002 -3.63478102e-002 1.03158196e-002 -3.23218182e-002
      -1.51386634e-002 -5.60193956e-002 3.30366790e-001 -9.71581265e-002
      3.35719064e-003 -2.03731894e-001 -1.37498006e-001 2.82387257e-001
      -8.01629946e-002 -1.87964961e-001 1.08267106e-001 3.54767889e-002
      -2.97313500e-002 -3.53246331e-002 -1.88316545e-003
      -1.41475117e-003 2.37307930e-003 -5.95066510e-003 6.24016598e-002
      -2.60295775e-002 -2.55005248e-002 -3.64908576e-002 3.33572142e-002
      -3.24956514e-002 7.75355566e-003 -1.60213560e-002 8.08483176e-003
      2.24481977e-004 -2.86392914e-003 -2.61606969e-004 9.57418419e-003
      -1.24932603e-005 2.02798704e-003 -4.03808337e-003 6.73449710e-002
      2.26274543e-002 7.12138712e-002 3.68871652e-002 -2.88970824e-002
      2.22554035e-003 2.74463161e-003 2.00190600e-002 5.82066691e-003
      -1.09890720e-003 4.64754133e-003 1.53262797e-003 4.15186919e-002
      5.57295419e-002 1.07742278e-002 -2.84534115e-002 5.27238667e-001
      -8.75307843e-002 2.03771189e-001 5.14376722e-002 -3.53686690e-001
      -1.20974161e-001 -4.42698337e-002 -4.39409353e-002 5.07033803e-002
      -3.10517382e-003 4.98660132e-002 2.65064072e-002 4.71144468e-002
      6.42215535e-002 3.88326459e-002 5.59231173e-003 -3.84425163e-001
      9.90452841e-002 -3.40944380e-001 3.41912061e-001 1.55898631e-001
      -1.81022614e-001 -7.31277540e-002 2.74837226e-001 4.00584415e-002
      -1.96364522e-003 3.82097028e-002 3.80498469e-002 7.49745779e-003
      -4.29177610e-003 7.11860741e-003 -2.15551350e-003 -5.78647926e-002
      -8.92502721e-003 -1.24065354e-002 1.28728924e-002 7.17722392e-003
      2.05843430e-002 -5.04124723e-003 9.51400772e-003 5.28131565e-003
      7.40054238e-004 1.83978502e-003 -6.94950751e-004 6.20946928e-004
      1.25107844e-003 1.28646549e-002 1.77975430e-003 3.92677598e-002
      2.48089922e-003 -1.43288430e-002 -2.36727460e-003 1.10950414e-002
      -7.24711688e-003 7.48121291e-002 2.08196342e-002 3.49158281e-003
      2.99284374e-003 1.54697681e-002 7.50501733e-003 -8.54078121e-003
      -1.29863927e-002 4.28668149e-002 1.87437423e-002 7.29607344e-002
      5.00323903e-003 -8.99275467e-002 1.56871423e-001 -1.01259030e-001
      -2.84530401e-001 3.39359254e-001 8.86724442e-002 4.97083999e-002
      -6.47312626e-002 6.29768297e-002 2.86457743e-002 -1.06825065e-002
      -6.05704216e-003 7.51772895e-002 -4.69627324e-003 1.44078419e-001
      -1.17901742e-001 -2.71568656e-001 -1.76066775e-002
      -3.49272072e-001 2.08366662e-002 4.62222798e-003 -3.04000415e-002
      1.15312248e-001 1.58521198e-002 3.72316018e-002 5.36817871e-003
      1.04159478e-003 -1.00548705e-002 1.06976619e-002 -4.93449904e-003
      1.00416970e-002 -5.17348200e-002 -1.68153998e-002 -1.18529238e-003
      7.18850037e-003 -2.12364234e-002 6.74339524e-003 8.55300855e-003
      1.28253773e-002 2.68993247e-003 3.29628261e-003 8.06360389e-004
      -7.08125113e-003 2.31649983e-003 3.08275246e-003 -6.87511545e-003
      -2.60341875e-002 3.61999348e-002 -2.11909115e-002 -5.41318394e-002
      -1.47942854e-002 3.40208225e-002 4.88257185e-002 -3.20045054e-002
      5.86811453e-004 -1.43364572e-003 3.72029538e-003 -3.10891471e-003
      -1.56133352e-002 1.95423923e-002 6.28247438e-003 -6.60799965e-002
      -1.94340557e-001 1.06293991e-001 -1.89915508e-001 -3.38841885e-001
      -3.71548831e-001 -2.41136295e-004 4.32308078e-001 -5.25390953e-002
      6.61281124e-002 3.76762785e-002 1.22774951e-002 -7.35080848e-003
      -9.61695891e-003 -1.04527257e-003 2.35891957e-002 -6.32900000e-002
      -1.71716645e-001 -1.39173061e-001 1.30661041e-001 -2.85164237e-001
      -2.37837359e-001 2.64298230e-001 5.45861065e-001 6.31045410e-003
      9.65798795e-002 3.28986570e-002 4.00753617e-002 2.97483411e-002
      -6.32258691e-003 -3.80051904e-003 -1.60805904e-003
      -9.72057413e-003 8.01603030e-003 -1.63777657e-002 2.65837125e-002
      -5.71867079e-002 1.28618348e-002 -1.58301741e-002 5.12831993e-002
      -1.20099252e-002 4.32820199e-003 -2.34483596e-004 1.01370728e-002
      2.61288718e-003 2.30078600e-004 1.19592447e-003 -3.86519707e-003
      -9.00897942e-003 -5.47106266e-002 2.33701915e-002 -6.87600523e-002
      -2.14536954e-002 -2.68407259e-002 -8.26318190e-003
      -9.92079731e-003 -1.01119718e-002 7.49245286e-003 2.98298290e-003
      4.67289984e-003 -1.25804427e-003 -5.03299292e-003 -9.22068208e-002
      -1.82726588e-002 -5.49666435e-002 -2.60787476e-002
      -2.62212247e-001 -2.24833176e-001 -1.54540082e-002
      -2.37428367e-001 2.98147857e-001 8.41772258e-002 2.19898015e-001
      7.67198727e-002 1.14048775e-002 7.23791718e-002 5.79143949e-002
      -6.16318919e-002 -1.58419423e-002 1.69532362e-003 -5.26920184e-002
      4.84957606e-001 -1.13580311e-002 -1.43925756e-001 -2.15040758e-001
      -8.10339674e-002 4.59877588e-002 1.09537050e-001 1.57105625e-001
      6.33393675e-002 2.82695759e-002 6.04453236e-002 3.02508231e-002
      2.93285609e-003 3.04955873e-003 -3.95054900e-004 -5.43838553e-003
      2.54719462e-002 -4.50844429e-002 -6.76517338e-002 -7.85484761e-002
      3.72565947e-002 8.78934050e-004 6.25562388e-003 -3.30151096e-002
      5.10780793e-003 9.49584122e-004 5.07874694e-003 -1.47256185e-003
      -9.75334842e-004 4.93468251e-003 3.29515780e-003 1.41872768e-003
      -2.49714777e-002 -3.34164388e-002 -2.43977550e-003
      -1.47742592e-003 1.02916144e-001 -2.73655672e-002 -2.23903041e-002
      -2.34745666e-002 1.41689330e-002 -3.38756316e-003 -1.18454860e-003
      -3.03039822e-004 5.50718606e-003 -2.78794416e-003 -1.65813230e-002
      4.26345365e-003 1.06688000e-001 3.53632212e-001 -3.71822864e-001
      1.53306946e-001 3.70638609e-001 2.96688765e-001 -2.23215699e-001
      1.20688751e-001 7.52797797e-002 5.96066518e-003 -2.01437864e-002
      1.31080123e-002 3.16837616e-002 8.22724774e-003 2.77877953e-002
      1.22420713e-002 3.85262072e-001 5.44408038e-002 2.35062748e-001
      3.65593702e-001 -1.55469388e-001 -1.68474182e-001 -3.60268712e-001
      1.59175977e-001 8.75494927e-002 -3.77447680e-002 -3.28854509e-002
      -1.19246030e-002 5.62880700e-003 -4.76889499e-003 3.94270383e-003
      5.11678285e-004 3.70518938e-002 -3.48478742e-002 4.49213423e-002
      -8.19374167e-004 -2.93306243e-002 -1.13927200e-003
      -6.22398965e-002 -3.18849236e-002 1.00804912e-002 -7.09942728e-003
      -2.66010012e-003 -4.10633441e-003 4.47397865e-003 -1.92159193e-003
      -3.67451017e-003 3.39434622e-003 4.60598543e-002 -2.30267998e-002
      -1.04375859e-003 3.70708928e-002 -1.02819921e-002 -4.80453251e-003
      5.15450072e-003 5.66395447e-002 1.81018021e-002 -5.07840945e-004
      1.23437848e-002 1.26107400e-002 3.10069099e-002 3.36974524e-002
      -4.30563465e-002 2.93474048e-002 1.12509504e-001 6.89107999e-002
      -1.78983405e-001 5.14068425e-001 -2.44747505e-001 -3.75976801e-001
      -2.91427463e-001 4.21708941e-001 1.64356321e-001 -3.26469168e-002
      4.47718650e-002 8.00140053e-002 4.50417027e-002 -2.31251903e-002
      7.38446414e-003 1.15566216e-002 -1.66857496e-001 -2.71405816e-001
      -1.25332087e-001 1.79995418e-001 5.33335693e-002 1.39483511e-001
      -9.13340375e-002 1.49713516e-001 1.41664997e-001 4.54368219e-002
      7.43736103e-002 6.94613010e-002 -1.45619138e-004 1.66843086e-003
      6.45660609e-003 -2.45327246e-003 -1.64545421e-002 2.46040132e-002
      -3.30360122e-002 -1.46256983e-002 2.39809509e-002 -2.46128999e-002
      1.37933474e-002 3.17529850e-002 1.50908316e-002 -5.62295783e-003
      1.23819411e-002 1.16730751e-002 -1.33221992e-003 4.41075163e-003
      -8.47027916e-003 -1.11999726e-002 2.60685273e-002 3.13829258e-002
      -4.28229719e-002 -4.72053476e-002 5.47785349e-002 8.77053570e-003
      2.34850310e-002 -1.00332433e-002 6.03658753e-003 -7.69491133e-004
      8.75103381e-003 6.40301872e-003 -3.76029164e-002 -1.12355063e-002
      -5.39650209e-002 -3.65672149e-002 2.74006844e-001 6.76840916e-002
      -3.34720701e-001 -1.77957341e-001 3.47301662e-002 -3.34765315e-002
      2.78458208e-001 -3.30016837e-002 6.38909042e-002 9.56402067e-003
      3.45823541e-002 2.95693148e-002 -3.56237553e-002 5.34987971e-002
      -5.36911609e-003 -8.86099041e-003 8.03334266e-002 1.31602868e-001
      -2.57899910e-001 9.58420187e-002 9.34458971e-002 -7.30100498e-002
      1.35412231e-001 5.49705774e-002 1.01269618e-001 -5.94338728e-003
      -2.96152029e-002 9.60708596e-003 -2.12447578e-003 5.65827067e-004
      -1.97640317e-003 -3.62153561e-003 -2.19813399e-002
      -2.87032165e-002 -6.68103397e-002 -2.40054931e-002 2.10420899e-002
      2.16983557e-002 1.84532981e-002 2.63309386e-002 1.68348011e-002
      3.90725955e-003 -5.76045737e-003 2.05908762e-003 3.54495249e-003
      -2.00489885e-003 6.15691184e-004 -7.15565123e-003 7.84029290e-002
      6.92340955e-002 -4.18513129e-003 -5.79111651e-002 3.01156938e-003
      2.84285303e-002 9.47601814e-003 -2.86578313e-002 -3.24906170e-004
      -3.18063796e-003 -1.29242707e-003 -7.68862851e-003 1.31963983e-001
      5.45266084e-002 -1.09306257e-002 -5.77868111e-002 3.62896085e-001
      1.55335560e-003 -2.46035352e-001 -6.96429387e-002 -1.98318183e-001
      -1.43645659e-001 -9.76319313e-002 -6.77662492e-002
      -2.35102233e-002 1.49654225e-003 -2.44267341e-002 -3.82813700e-002
      1.42011732e-001 -1.10063124e-002 -3.67112160e-002 -5.20594530e-002
      -1.19430088e-001 -1.27903268e-001 -1.96354553e-001
      -3.99859816e-001 2.55037844e-001 1.38199180e-001 2.38645434e-001
      -3.12077940e-001 -3.04230414e-002 4.27481271e-002 -4.21955809e-003
      -2.48718746e-002 1.37394853e-002 5.82485786e-003 -8.38952977e-003
      -1.09699545e-002 3.49289142e-002 2.08190549e-002 -2.72106435e-002
      -6.71501383e-002 1.63254756e-002 -4.23155464e-002 4.60232049e-002
      -1.31181255e-002 -4.79074521e-003 -8.76428746e-003
      -3.14541045e-003 4.28128493e-004 1.90247153e-003 -6.65376382e-003
      -2.65927007e-003 -1.11834090e-002 4.13724817e-002 -2.35572383e-002
      4.20730449e-002 -5.79927899e-002 1.09202914e-001 -4.57429932e-003
      -1.10613054e-003 -5.50011359e-002 1.94832776e-003 -3.07647977e-004
      -1.40470937e-002 -8.28960724e-003 2.27081142e-002 6.95830956e-002
      -1.08293677e-002 -6.00823015e-002 3.68356019e-001 1.85265064e-001
      3.41255277e-001 -3.53023767e-001 3.48047316e-001 8.06403756e-002
      2.04064753e-002 -2.19730675e-001 2.53929067e-002 -3.78218889e-002
      -1.10410228e-001 -9.70802307e-002 2.62812525e-002 1.85264349e-002
      -8.30591284e-003 -5.42632528e-002 1.04420725e-002 -7.77912363e-002
      -6.21089824e-002 -1.52302146e-001 3.36000532e-001 -2.46955767e-001
      4.03624102e-002 -2.23581985e-001 6.90853968e-002 3.22613977e-002
      -5.30515984e-002 -5.89940585e-002 -4.31063818e-003
      -5.57094300e-003 1.79171748e-003 -1.42076071e-002 3.06265093e-002
      -2.72882897e-002 5.62762888e-003 -7.87002593e-002 7.35195205e-002
      4.91350889e-002 -1.59805547e-002 -1.01974279e-001 1.27753196e-002
      -3.41520063e-003 -1.56510656e-003 -7.33263744e-003 4.83178208e-003
      1.47984922e-003 1.85596908e-003 -3.57532804e-003 2.65597999e-002
      4.93273698e-002 -8.35894346e-002 -1.01344166e-002 1.75725315e-002
      2.74581779e-002 2.02925559e-002 7.21723735e-002 1.34530989e-002
      -8.28669057e-004 5.71593596e-003 8.61378387e-003 1.16891395e-002
      2.17407960e-002 3.08027375e-003 -3.37974615e-002 1.26756847e-001
      -6.99835271e-002 -3.65029275e-001 -6.76885322e-002
      -5.52594997e-002 -6.48128539e-002 1.56263486e-001 3.11346710e-001
      1.04523107e-001 -1.02629780e-003 3.32512110e-002 5.69425337e-002
      6.10821582e-002 -7.92415440e-003 1.85546242e-002 2.96783028e-003
      -7.44923279e-002 -8.69100727e-003 -1.40363693e-001 2.55577546e-002
      6.96087908e-003 -1.54852986e-001 6.16765544e-002 5.61360955e-001
      1.00001588e-001 -2.57581230e-002 6.94918409e-002 6.71995357e-002
      4.36262833e-003 2.03522830e-003 6.75822841e-003 -3.06534092e-003
      -4.44555953e-002 -2.60914713e-002 -2.86019277e-002 1.63225904e-002
      3.21956910e-002 2.40723267e-002 9.20216646e-003 5.35392798e-002
      1.37560796e-002 -2.30733014e-004 8.06321856e-003 1.46647654e-002
      1.72684703e-003 7.48755271e-003 -8.25508311e-003 -7.19963200e-003
      -4.59374636e-002 -6.66549848e-003 -1.75328758e-002
      -6.42904192e-002 3.23104486e-002 -1.37251476e-002 -1.89524051e-002
      -5.96147664e-002 2.38315621e-003 -4.71154053e-004 -6.89879816e-005
      -1.44250598e-003 1.05477618e-002 3.21714655e-002 -4.59619202e-002
      -8.37407410e-002 -4.33280200e-001 5.16247988e-001 -8.13261941e-002
      -3.13958257e-001 -2.00767487e-001 1.77475110e-001 -2.37310737e-001
      -1.79378554e-001 1.35258259e-002 -1.35178110e-002 -7.73144420e-003
      -4.19586264e-002 -5.26733743e-003 -5.28547354e-002
      -2.03221776e-002 -6.20354488e-002 -2.15342268e-001
      -4.85709965e-001 6.47849515e-002 -8.08779299e-002 -5.08488357e-001
      -2.72369593e-001 -3.70151848e-001 -2.00291276e-002 1.92466918e-002
      -3.54022942e-002 2.07282007e-002 -3.29116061e-002 -5.86306769e-003
      -9.80208535e-003 -5.21207368e-003 -1.62095465e-002 4.00779489e-003
      -9.30765420e-002 -5.65677173e-002 -9.02033970e-002
      -1.60459485e-002 -3.25105377e-002 -3.23634148e-002
      -1.08928666e-001 6.23806473e-003 4.76407260e-003 6.42514043e-003
      -7.58321676e-003 -1.18227978e-003 5.73201384e-003 -1.08249718e-002
      -6.46067085e-003 1.72617882e-002 5.62121868e-002 -3.95423211e-002
      -4.44503874e-002 -4.90213782e-002 -2.23550536e-002
      -3.22043821e-002 -4.54939231e-002 3.75420507e-003 -7.25279143e-003
      8.77247006e-003 -8.57829291e-004 2.10686978e-002 1.90509185e-002
      -9.55789536e-002 -8.87900218e-002 -2.19916150e-001
      -8.76425132e-002 -1.78739324e-001 -1.97025910e-001
      -4.18619394e-001 1.46525046e-002 -3.52052390e-004 -1.62655696e-001
      1.79754943e-003 9.11103934e-003 9.18043926e-002 -3.91641678e-003
      -3.44999395e-002 -4.58198413e-002 -3.81032676e-002
      -4.83061038e-002 -2.16086522e-001 -2.05375895e-001 6.80491850e-002
      -2.13022698e-002 -2.93175187e-002 2.18056124e-002 4.70709234e-001
      -5.25974445e-002 1.33552197e-002 4.98909019e-002 5.36589064e-002
      -2.55185161e-002 -3.94327519e-003 -1.55107467e-003
      -5.90432668e-003 -4.52762656e-003 1.03253154e-002 -1.95254926e-002
      -2.91816927e-002 -2.03801598e-002 2.60446733e-003 -7.87846185e-003
      4.13631201e-002 -8.84508621e-003 6.08439371e-003 -5.05878590e-003
      7.56331999e-003 -3.94077599e-003 -1.00498796e-002 5.86628029e-003
      3.09878075e-003 -3.53030371e-003 1.52414450e-002 -2.33831331e-002
      2.82623619e-002 -4.05738167e-002 2.45088041e-002 -1.08172735e-002
      -2.46843565e-002 -3.57066840e-002 -6.28445763e-003
      -1.79167371e-003 -2.49057845e-003 -1.90966809e-003
      -1.34580433e-001 1.35473255e-003 5.64086027e-002 -4.14591581e-002
      -1.78901151e-001 1.70681298e-001 1.45988822e-001 -3.45790565e-001
      2.63465196e-001 9.28559992e-003 2.00013250e-001 -8.22920818e-003
      -8.50386843e-002 -2.05589887e-002 -3.97526920e-002 1.41481049e-002
      -6.30640164e-002 -7.56831840e-002 8.24217778e-003 -6.81665391e-002
      3.88358347e-002 -1.90044343e-001 -3.02394509e-001 -4.73857552e-001
      -3.69475782e-002 -1.31281838e-001 2.46792734e-001 7.80965164e-002
      -4.12656106e-002 -2.11343039e-002 -4.96129617e-002 9.99858719e-004
      -3.11988965e-003 -1.46092311e-003 -2.56245187e-003
      -1.44959763e-002 5.31191267e-002 2.87920865e-003 -9.18875914e-003
      -8.09274241e-002 -3.88964899e-002 1.07074343e-002 -1.38102639e-002
      -4.46276106e-002 -4.27352684e-003 -2.38605798e-003
      -6.01565931e-003 -2.49439524e-003 1.06888367e-002 -1.05246436e-003
      -9.52244829e-003 -2.10658647e-003 -5.94078097e-003 3.71593758e-002
      3.28093907e-003 -3.08312625e-002 2.62292121e-002 -2.65308265e-002
      4.68086377e-002 1.65655054e-002 1.12569928e-002 -2.15560687e-003
      9.35664959e-003 1.10650603e-002 2.84895338e-002 3.21570635e-002
      -5.21307997e-002 -3.32081430e-002 1.11305252e-001 2.11644024e-001
      -1.81786418e-001 -4.37457055e-001 -2.05395073e-001 1.69696510e-001
      2.21046776e-001 9.32774972e-003 1.06565267e-001 -2.78144665e-002
      4.45432961e-002 6.66667074e-002 2.29864120e-002 -3.96970136e-005
      -6.43498451e-002 -5.76143712e-002 -1.65639594e-001
      -1.17472298e-001 -1.96091160e-002 -3.13907653e-001
      -1.95161812e-002 -1.54346496e-001 3.22737306e-001 8.32307711e-002
      3.46783288e-002 -2.48339260e-003 4.74572890e-002 6.66204691e-002
      5.63662825e-003 -4.65881499e-003 -2.65371427e-003 -9.13857669e-003
      -5.15543530e-003 -2.72216313e-002 -2.12518852e-002
      -8.36326927e-002 -2.24697627e-002 -1.19804051e-002 1.25017771e-002
      -1.64976697e-002 1.08021451e-002 -3.12787807e-003 6.95952040e-004
      9.92798712e-004 2.31828610e-003 -2.74446956e-003 -6.59663521e-004
      -1.89084583e-003 1.22802230e-002 1.04834260e-002 -5.54268286e-002
      3.84592940e-003 -5.50808618e-003 -1.71455815e-002 -8.10160395e-003
      -5.32086706e-003 6.39947364e-004 2.28835829e-003 3.93940089e-003
      -1.10605184e-003 -4.00179625e-003 5.37171401e-003 -5.20998761e-002
      -2.58166976e-002 -2.03045204e-001 -1.68525323e-001
      -3.27045739e-001 2.36264572e-001 5.94587177e-002 -2.55277663e-001
      -4.88263108e-002 6.53333310e-003 2.44115628e-002 -1.29964501e-002
      3.82798761e-002 2.20440552e-002 7.03658685e-002 1.04993805e-002
      -6.02214448e-002 -5.12159504e-002 -4.11490113e-001 9.88347530e-002
      -3.14519525e-001 -2.76863053e-002 5.34130773e-003 3.86910588e-002
      1.95142999e-001 -7.67974406e-002 2.04694401e-002 -2.27048360e-002
      2.20413841e-002 -1.91085646e-003 4.48866375e-003 -2.81821529e-004
      -5.24621224e-003 -8.03187583e-003 -3.57340463e-002
      -3.19676027e-002 6.00921130e-003 -2.71365140e-003 2.07559336e-002
      4.97856028e-002 1.75964609e-002 1.36077665e-002 4.02679667e-003
      6.49648393e-003 8.24855175e-003 7.59986520e-004 2.96243234e-003
      -6.63047144e-003 -5.85544109e-003 -1.28826890e-002 1.71531290e-002
      -4.00680453e-002 -9.33710393e-003 -5.62305525e-002
      -4.33395579e-002 -5.09072421e-003 2.41516531e-002 7.68286083e-003
      6.62349910e-003 -2.50741979e-003 -1.29286898e-004 1.12361042e-003
      2.42505819e-002 3.84870097e-002 -2.25948598e-002 -7.42513686e-002
      1.49921611e-001 2.88440675e-001 2.24158866e-003 -1.19511597e-001
      -5.36771476e-001 7.08641950e-003 9.23332050e-002 3.54127854e-001
      8.06064531e-002 4.56698686e-002 1.52906906e-002 1.52278030e-002
      3.21469977e-002 4.84449882e-003 -3.52035947e-002 -4.56422530e-002
      -1.47298528e-002 -2.16089189e-001 -2.39574518e-002
      -4.39739525e-001 3.32682766e-002 3.30972284e-001 -3.47358920e-002
      -3.02626371e-001 4.89203893e-002 6.95785433e-002 4.20708805e-002
      -1.28168035e-002 -9.98021918e-004 1.00551313e-002 -5.21798013e-003
      -2.90505425e-003 -4.88425344e-002 7.69850090e-002 -4.01589461e-003
      -3.11217718e-002 6.83603063e-002 -1.18827922e-002 2.10999884e-002
      -5.26265502e-002 5.71637647e-004 9.78903100e-003 8.43504816e-003
      -1.82122341e-003 -1.17920833e-002 5.24958270e-003 8.48015398e-003
      -5.43740205e-003 1.31446213e-001 -2.28690114e-002 6.30153269e-002
      -2.65772864e-002 -3.02921422e-002 -6.86417222e-002 9.41930711e-003
      -9.22843465e-005 3.18858935e-003 -8.84693023e-003 -2.87174480e-004
      -3.82515253e-004 -6.83395863e-002 -3.07283998e-002 4.15245555e-002
      -2.27613170e-002 8.63549709e-002 -5.36975801e-001 -2.34469473e-001
      -1.60355911e-001 3.01986843e-001 -4.96875703e-001 5.88630103e-002
      6.40188828e-002 4.48458195e-002 -1.22899264e-002 4.50137034e-002
      2.31439974e-002 -1.23953387e-001 -4.53554047e-003 9.02148262e-002
      -7.12053105e-002 8.39486271e-002 1.06153227e-001 -3.54178458e-001
      -6.38328075e-001 2.18312934e-001 -3.00942138e-002 2.69382536e-001
      1.09590918e-001 9.04460028e-002 -3.33341807e-002 5.45154251e-002
      2.83816997e-002 -1.46385767e-002 -4.09670407e-003 3.79667035e-003
      -1.17895203e-002 5.92109971e-002 -3.55293304e-002 2.17972733e-002
      -6.59733564e-002 1.75742153e-002 5.51269799e-002 3.43853533e-002
      -2.85142139e-002 1.53815290e-002 5.19751990e-003 5.93001023e-003
      1.92327565e-003 -1.31505576e-003 8.22548289e-003 -4.58280416e-003
      -8.55121668e-003 8.04251153e-003 3.64816934e-002 -3.21089430e-003
      -6.48351684e-002 1.32400487e-002 -5.94562385e-003 -8.44939984e-003
      -6.23937957e-002 1.61809977e-002 2.36463849e-003 8.67081806e-003
      -7.14432448e-003 1.95611753e-002 4.29870486e-002 -5.33499271e-002
      -1.10163473e-001 -1.12549797e-001 1.49756029e-001 -4.95860934e-001
      -5.97083986e-001 3.03533562e-002 1.00142151e-001 2.68335253e-001
      5.37979119e-002 9.54692364e-002 -2.79472042e-002 4.56447005e-002
      -4.73144650e-003 1.12493970e-002 4.21944186e-002 -2.20401641e-002
      -5.38449809e-002 -7.50344396e-002 2.13672936e-001 -1.23581700e-001
      -3.82229626e-001 -2.55964547e-001 1.69218302e-001 2.80978978e-001
      -4.12533954e-002 7.66388699e-002 -6.29874121e-004 5.82751893e-002
      1.56315770e-002 -4.32688324e-003 1.53606420e-003 1.67216640e-004
      -5.47396485e-003 -5.73860109e-003 -1.48596736e-002
      -1.14299646e-002 -3.60610820e-002 -1.34445000e-002 6.75003137e-003
      3.34096551e-002 3.34659405e-002 7.49228336e-003 7.81854708e-003
      1.29794786e-002 2.20139557e-003 -3.36269708e-003 8.37321102e-004
      -6.25574077e-003 -3.34087829e-003 -1.00636268e-002 3.72868180e-002
      -3.84897068e-002 -3.78087983e-002 4.16694349e-003 -3.21387164e-002
      1.91929024e-002 -1.37891043e-002 5.42666111e-003 -1.19367158e-002
      1.58827263e-003 -3.94554110e-003 -1.35432892e-002 -6.08688174e-003
      -1.36695066e-002 -9.99164581e-003 -4.36757624e-001
      -1.23450130e-001 -5.87799996e-002 1.26953319e-001 -2.58659333e-001
      -2.18514055e-001 3.54664087e-001 4.15078588e-002 1.05129004e-001
      -1.42900031e-002 -9.21485294e-003 -2.34979000e-002
      -4.16324437e-002 -7.28471577e-002 -4.28296849e-002
      -7.68037364e-002 -1.11030132e-001 -4.04287606e-001
      -2.10797355e-001 -3.93139273e-001 1.72262755e-003 1.38283819e-001
      2.99747765e-001 4.01167348e-002 8.92314985e-002 4.11967374e-002
      -1.04303908e-004 4.21270123e-003 -6.69625262e-003 -2.33049574e-003
      -4.23665298e-003 -9.06256028e-003 1.97382905e-002 -5.91542535e-002
      -2.18846239e-002 -5.22054285e-002 3.62281576e-002 -3.74095067e-002
      -1.44859180e-002 -5.76682091e-002 1.60099119e-002 2.89147231e-003
      5.48746623e-003 -2.27878802e-003 4.43079323e-003 -1.08993077e-003
      2.94413930e-003 8.24588875e-004 2.24949457e-002 -4.66836803e-002
      -3.66788916e-003 -3.35988635e-003 4.01373394e-003 -1.73943210e-002
      1.78940445e-002 8.14619940e-003 2.73188809e-003 1.60649500e-003
      5.52699668e-003 -1.33401970e-003 7.06627406e-003 -2.94448566e-002
      -4.35002744e-002 -4.96790931e-002 5.57293177e-001 1.26647158e-002
      -7.63244107e-002 -1.54492915e-001 8.68113860e-002 2.33108491e-001
      -8.90908390e-002 2.35768929e-001 2.23612133e-002 2.18503233e-002
      3.35086137e-002 2.67849118e-002 4.70867530e-002 1.56598650e-002
      -3.37704420e-002 -3.17979939e-002 2.07864955e-001 -2.45894596e-001
      -4.29217786e-001 -7.53868446e-002 4.71441299e-001 -3.44835639e-001
      -3.47442105e-002 1.35834321e-001 1.23098716e-002 -5.59937321e-002
      4.66818884e-002 6.23268299e-002 1.86954858e-003 -1.66613422e-003
      -7.72249326e-003 -7.12503912e-003 -5.56275574e-003
      -1.46859167e-002 -2.78672893e-002 -2.89497674e-002 5.44298068e-002
      -1.92017276e-002 1.98686394e-004 -2.11244877e-002 8.91175866e-003
      1.23774959e-003 2.09391641e-004 1.51021013e-004 4.49942984e-003
      -4.22947994e-003 7.16369227e-003 -2.91473395e-003 -6.79221470e-003
      -9.21333209e-003 -5.45193674e-003 -1.89244319e-002 3.83198671e-002
      -5.31447306e-002 2.19237041e-002 1.01890527e-002 1.16971862e-002
      1.89102395e-003 1.53768277e-002 1.23839490e-002 2.30247024e-002
      -3.44432443e-002 4.83675897e-002 -2.33268440e-002 1.18039519e-001
      -1.05770148e-001 7.21247122e-002 -8.86241645e-002 1.85644552e-001
      2.61777014e-001 1.89057246e-001 4.05182511e-001 1.67216375e-001
      -1.77740529e-002 1.64495915e-001 8.79229158e-002 2.95229699e-003
      -3.17298733e-002 2.78797243e-002 -2.96307951e-002 6.42058074e-001
      -2.37973839e-001 -3.08643520e-001 -2.64893472e-001 1.33661076e-001
      2.40927539e-003 -1.90344021e-001 2.45044038e-001 8.67531374e-002
      -4.61867778e-003 1.41415566e-001 5.69285303e-002 1.18129759e-003
      2.12108204e-003 5.84159186e-003 -3.64251784e-004 9.45368335e-002
      3.14840092e-003 1.40465877e-003 -6.99646398e-003 4.03166823e-002
      -1.91391148e-002 -4.39724559e-003 -8.67421366e-003 7.98436906e-003
      1.11201662e-003 1.75095890e-002 3.34629021e-003 1.56126916e-002
      -4.48659388e-003 -2.13438482e-003 -2.68185581e-003 1.72814343e-003
      -2.63355691e-002 3.68160978e-002 1.01300776e-002 -1.82844438e-002
      -3.83330509e-002 -1.59086809e-002 -3.12485918e-002
      -4.72353119e-003 -8.12026300e-003 -5.92759810e-004
      -1.81660498e-003 1.77289292e-001 -2.62028556e-002 -5.87850809e-002
      -1.75301936e-002 -4.64475691e-001 -3.54663163e-001
      -3.47916968e-002 1.90785497e-001 1.86351493e-001 -2.17570126e-001
      3.79938096e-001 -1.17626935e-001 9.71046463e-003 1.01765925e-002
      3.47986259e-002 1.67159233e-002 7.20236525e-002 9.02079139e-003
      -2.63268501e-002 3.03366985e-002 -1.86258554e-002 2.85730034e-001
      -1.66717455e-001 7.01690242e-002 -2.41020158e-001 7.56185800e-002
      1.28815562e-001 -6.88089356e-002 1.11027978e-001 2.27387417e-002
      1.84645504e-002 -2.69916598e-002 1.08881928e-002 -1.00476376e-003
      3.05533968e-003 -9.20723949e-004 1.54633196e-002 -3.14326747e-003
      1.03620626e-002 -3.11036967e-002 -6.46057725e-003 4.83214147e-002
      3.74584235e-002 -3.07174195e-002 1.36831626e-002 1.13505423e-002
      1.70536526e-003 -2.36162171e-003 5.52173285e-003 -8.51686113e-003
      6.56976551e-003 -9.02382133e-004 -5.67150265e-002 -6.55338019e-002
      -3.96508835e-002 -7.64591470e-002 7.85953477e-002 -6.23063371e-003
      -2.06273459e-002 -5.15172370e-002 -3.98370810e-003 7.32963486e-003
      -2.84416694e-003 -3.51713994e-003 -1.04311844e-002
      -5.69358617e-002 2.62876111e-003 3.44828097e-003 8.82065967e-002
      1.07550509e-001 -5.11086024e-002 -3.68710399e-001 5.25332034e-001
      1.24809138e-001 -1.06880501e-001 -3.12585950e-001 -4.46028262e-002
      -1.36560006e-002 -3.66597548e-002 -2.63030399e-002
      -4.12546396e-002 3.97034809e-002 4.43745479e-002 3.92995030e-002
      3.98972303e-001 4.09066007e-002 1.31398380e-001 -8.81169960e-002
      4.23779860e-002 -1.87936783e-001 -7.57611915e-002 -6.61179945e-002
      -3.78126763e-002 -6.20519035e-002 -6.96447352e-003
      -3.33314650e-002 -1.36549643e-003 -2.82020052e-003 1.17040734e-004
      4.72840853e-003 3.88384908e-002 1.81440171e-002 -1.51522104e-002
      -2.28501838e-002 -4.15224619e-002 -1.04124788e-002
      -2.73595545e-002 -1.26337111e-002 5.51160239e-003 -2.45306687e-003
      5.97901829e-003 3.19178938e-003 -1.17553035e-002 -9.52265036e-005
      -1.27115473e-002 -8.76912661e-003 -5.04718348e-002 5.35814092e-003
      -3.20770927e-002 -4.18414883e-002 1.14756487e-001 -5.34991622e-002
      -3.47880125e-002 -6.11561947e-002 1.22254221e-002 1.87151728e-003
      1.64814759e-003 9.35520045e-004 -1.64263070e-001 9.05669946e-003
      -3.87203656e-002 -1.19559222e-003 2.46438861e-001 1.07653677e-001
      -2.02822402e-001 -1.53399676e-001 5.95720597e-002 4.06354517e-002
      -1.88087732e-001 -2.41913393e-001 1.68390468e-001 -3.39427255e-002
      -1.94402244e-002 -3.73316146e-002 -9.39532965e-002
      -4.99580987e-003 -1.02560006e-001 8.87141936e-003 -2.57675629e-002
      2.72573680e-001 -2.74582624e-001 4.78995860e-001 -1.11646473e-001
      -8.70081857e-002 -2.95381974e-002 6.15946591e-001 1.68673173e-001
      1.51866619e-002 1.01584187e-002 1.61648523e-002 -5.30207949e-003
      7.55509455e-003 -8.86572618e-003 2.79333646e-004 -5.70225418e-002
      2.75396127e-002 -4.86634485e-002 -2.05192082e-002 5.33661097e-002
      8.55435953e-002 2.60860901e-002 4.63539325e-002 1.34913353e-002
      1.18238083e-003 -2.44225026e-004 3.99684953e-003 1.10203046e-002
      3.14822048e-003 -4.42261342e-003 -6.67188503e-003 -2.09669601e-002
      -5.83529249e-002 -1.81889292e-002 5.71333570e-003 -2.95023657e-002
      -9.71900485e-003 -2.59076674e-002 -3.42735206e-003 1.13849025e-002
      4.66931751e-003 2.10267841e-003 2.80226162e-003 3.72568630e-002
      -3.25298533e-002 -3.22739966e-002 -3.32570076e-002
      -2.06110507e-001 -2.48098940e-001 -1.10621199e-001 6.05436042e-002
      4.22858775e-001 2.16083363e-001 1.43625513e-002 3.51164192e-002
      5.75794801e-002 6.65795617e-003 1.58146187e-003 1.01855779e-002
      3.41947190e-002 1.03830369e-002 1.40215410e-002 -7.42189586e-002
      3.17470372e-001 4.84330744e-001 1.88824177e-001 -2.70560712e-001
      -2.39561796e-002 -6.78754002e-002 -3.73675942e-001
      -2.27608934e-001 1.83758084e-002 -1.28941955e-002 -3.52586545e-002
      -3.11265811e-002 9.69826244e-003 -7.33734900e-003 -3.61881597e-004
      -7.63300387e-003 4.35480848e-002 -8.52667093e-002 -7.67888455e-003
      -2.18593031e-002 -3.33461575e-002 -1.32283848e-002
      -6.87943995e-002 -2.18187422e-002 1.16601530e-002 4.27169260e-003
      1.49642152e-003 1.22473040e-003 -1.41941605e-003 -1.76256988e-003
      -8.06248281e-003 -9.46890377e-003 -2.42712628e-002
      -1.67580042e-002 -1.82883237e-002 -4.14460041e-002 5.09514250e-002
      -1.07647208e-002 1.09495036e-002 -4.00350876e-002 4.92736883e-003
      -4.42934077e-004 -2.34180922e-003 7.12135341e-004 -6.75415201e-003
      5.43149151e-002 -2.69714426e-002 -5.12656048e-002 -1.77158922e-001
      4.19715494e-001 3.09250146e-001 2.10670773e-002 1.96879700e-001
      -4.09045145e-002 5.80045246e-002 -1.51594326e-001 1.58656687e-002
      3.03976387e-002 -3.48430243e-003 -4.82678646e-003 2.00669374e-002
      5.36279427e-003 -7.12176785e-002 -5.81427813e-002 -4.73111272e-001
      -9.51141939e-002 9.03135091e-002 -3.92899141e-002 2.79156566e-001
      5.27971983e-002 7.09818676e-002 -9.82272923e-002 3.24907228e-002
      1.54916430e-002 -8.01471341e-003 -6.95175026e-003 3.04679299e-004
      2.12577777e-003 -3.68670188e-003 -1.21567203e-002 -5.28597236e-002
      2.75664721e-002 -5.79326339e-002 -8.92524719e-002 6.52726889e-002
      1.01362869e-001 -1.29086745e-003 -1.30654633e-001 9.40631237e-003
      1.27671948e-002 -2.66893185e-003 -1.23076029e-002 1.18106687e-002
      5.57514187e-003 -1.35614094e-003 -4.44562733e-003 9.00034681e-002
      2.42450349e-002 3.83920595e-002 -6.38283268e-002 -8.91388729e-002
      2.66618910e-003 -5.71168326e-002 -2.51600500e-002 3.70704773e-004
      -5.31093404e-003 -4.23184084e-003 -5.41552063e-003 5.76380789e-002
      2.48715132e-002 1.40074198e-003 -3.84195745e-002 8.72573629e-002
      -2.30939299e-001 2.43957624e-001 -1.55335084e-001 -4.75008667e-001
      -2.84011841e-001 -4.28178102e-001 -1.44461542e-001 9.10354313e-003
      2.15818882e-002 -7.80118629e-003 3.89797660e-003 2.14962866e-002
      3.96962650e-002 1.04429414e-002 -4.45756130e-002 -2.74545550e-001
      1.03882447e-001 5.66753671e-002 -5.06114140e-002 1.42435193e-001
      2.61214882e-001 -6.58258274e-002 -7.74312466e-002 -5.33291586e-002
      4.01427001e-002 2.26171538e-002 2.70315399e-003 -1.26247283e-003
      -1.39810913e-003 -1.74531958e-003 -7.72022875e-003
      -3.11088953e-002 1.00202477e-002 1.10919485e-002 -7.13931844e-002
      2.78676599e-002 2.74597649e-002 3.97078274e-003 -3.90520841e-002
      -4.29839734e-003 -2.19288259e-003 -1.77704543e-003
      -4.77194274e-003 1.86605435e-002 5.26899518e-003 9.14416090e-003
      3.36655835e-003 -4.75858301e-002 4.07462530e-002 -4.69269324e-003
      4.57788259e-003 3.56142893e-002 -5.79384575e-003 -1.55633027e-002
      -6.19383296e-004 1.26059009e-002 -5.94793353e-004 -1.37822854e-003
      -2.38185562e-003 9.65605825e-002 -3.57164666e-002 2.80718189e-002
      2.33565811e-002 -4.02443469e-001 -1.05468147e-001 1.48340017e-001
      1.16260335e-001 5.46531677e-001 4.01137799e-001 -1.58525318e-001
      5.08463196e-002 6.40102103e-002 2.59228908e-002 -4.16022027e-003
      -1.56257134e-002 5.79306893e-002 2.27119727e-003 1.86901763e-002
      1.01476796e-002 4.80759680e-001 8.41342732e-002 6.63541257e-002
      9.68977213e-002 -3.48659344e-002 -1.68145239e-001 -2.85069555e-001
      2.16625780e-001 5.65845929e-002 -6.08304981e-003 1.94812454e-002
      4.08971757e-002 3.31402803e-003 -1.06690032e-002 8.47958867e-003
      -6.71389396e-004 5.57498410e-002 -9.18787867e-002 -1.40756764e-003
      2.05186345e-002 -1.04756921e-003 -9.74018946e-002 -6.44031391e-002
      8.65151659e-002 1.60048380e-002 -1.06685739e-002 1.57731399e-003
      1.33135039e-002 -1.09485886e-003 -1.54376849e-005 -5.58306882e-003
      4.29119245e-004 -6.09658053e-003 3.19192745e-002 -4.21220660e-002
      -2.67412368e-004 7.03380704e-002 -8.63749608e-002 -6.85357824e-002
      -2.36189906e-002 1.33158276e-002 -5.92351146e-003 1.74788684e-002
      3.94571573e-003 7.13652968e-002 4.18209434e-002 -5.11413850e-002
      -2.57621892e-002 -2.20328942e-001 2.53518015e-001 -2.11936608e-001
      4.47974093e-002 7.74899572e-002 2.82160431e-001 -5.61236441e-001
      1.62306488e-001 1.09730557e-001 -5.87678840e-003 1.52059808e-001
      5.20088747e-002 1.44396678e-001 -1.26205618e-002 -3.72281708e-002
      -1.42353792e-002 -4.63725030e-001 -5.98669499e-002
      -3.12637538e-001 -1.01595726e-002 1.83265612e-001 -1.73408791e-001
      -4.09640640e-001 1.41702905e-001 8.35799873e-002 7.12276017e-003
      1.68897316e-001 5.08782454e-002 1.20548932e-002 -5.90034761e-003
      -6.23955438e-003 -5.07978117e-003 -6.57333285e-002
      -3.47089954e-002 -3.54587212e-002 -1.97313894e-002 3.52701098e-002
      -5.21414727e-003 -4.75067198e-002 -1.37000754e-002 5.28449938e-003
      -1.48725864e-002 1.87803023e-002 1.70779005e-002 8.73697642e-003
      8.84721801e-003 6.42255414e-003 1.44349877e-003 4.69046980e-002
      1.18251823e-001 2.58768792e-004 -8.17589182e-003 3.04022022e-002
      6.16700724e-002 6.68982938e-002 6.77459016e-002 4.54118988e-003
      7.59453699e-003 1.70478653e-002 1.31537337e-002 1.85212847e-002
      3.88238467e-002 2.17473768e-002 5.02233021e-003 1.69751018e-001
      3.39290798e-002 -5.76276004e-001 1.02650546e-001 8.09969753e-002
      -1.40150577e-001 7.15467930e-002 5.01690388e-001 6.01714477e-002
      9.47510079e-003 1.44575134e-001 8.38003159e-002 -3.44496109e-002
      2.99482681e-002 3.10595147e-002 -1.74258333e-002 2.18731612e-001
      -9.02219489e-002 -3.64690483e-001 -5.30123897e-002
      -1.13118723e-001 5.95103949e-002 -5.40827513e-002 3.47060412e-001
      1.61242560e-001 3.77026969e-003 1.64357364e-001 1.02938399e-001
      -1.23524545e-002 -6.09841850e-003 7.37451576e-003 -3.78817320e-003
      4.54588681e-002 -1.09797101e-002 4.35842248e-003 4.30549786e-004
      6.86373515e-003 2.81121656e-002 2.20072884e-002 4.01513241e-002
      1.81557201e-002 -2.65759928e-003 1.38008017e-002 1.55430073e-002
      -2.30159261e-003 4.70147235e-003 3.91941896e-004 -5.70857991e-003
      1.46665037e-001 -3.38511616e-002 1.08543681e-002 -2.49900781e-002
      1.31480649e-001 1.95601988e-005 5.29427677e-002 1.39750808e-003
      9.34578944e-003 5.54792024e-003 1.08774630e-002 4.04474372e-003
      3.84014547e-002 3.25168334e-002 -7.68235419e-003 -6.68404326e-002
      6.01271391e-001 5.66959739e-001 -3.34620804e-001 -5.46560287e-001
      6.43386543e-001 -3.44809800e-001 5.68275690e-001 9.94864926e-002
      1.21010184e-001 -7.79102184e-003 6.26346841e-002 3.47818434e-002
      6.47704527e-002 2.41057631e-002 3.00548896e-002 -4.84458879e-002
      3.05076540e-001 -2.22294778e-001 -2.36327231e-001 -1.41689211e-001
      4.77920383e-001 1.26558214e-001 3.60449076e-001 6.99799061e-002
      1.66264430e-001 -7.54840020e-003 6.90589771e-002 1.91842616e-002
      -1.53873954e-003 4.30620275e-003 5.02468692e-003 -4.57910448e-003
      2.65341811e-002 1.89793855e-002 6.68685930e-003 -1.96899772e-002
      1.37765273e-001 1.58893932e-002 7.65715167e-002 -4.96413698e-003
      1.67681538e-002 3.68115609e-003 1.15256952e-002 2.45407037e-003
      5.57710370e-003 -1.58711209e-005 1.25508395e-003 -4.16108640e-003
      -5.41871451e-002 6.53602481e-002 -3.32383960e-002 -4.94472645e-002
      2.13152915e-002 3.86377424e-002 3.41974348e-002 -2.19755266e-002
      9.00614168e-003 -3.29588121e-003 3.55521124e-003 3.32456734e-003
      5.52007593e-002 -4.44541546e-003 -2.60695303e-003 -2.41840854e-002
      -1.32809713e-001 7.91333914e-002 -2.69002020e-001 -1.96247622e-001
      -1.02174163e-001 1.62092820e-001 2.04317153e-001 1.05349787e-001
      4.96842042e-002 -1.11615350e-002 3.15766893e-002 1.11108292e-002
      -1.30228524e-003 -5.60504617e-003 -2.79416908e-002
      -6.57889172e-002 2.32156113e-001 -5.79841733e-002 -6.96564391e-002
      -1.88693359e-001 -4.63554114e-001 -3.57815176e-001 1.70352221e-001
      3.40518773e-001 8.02460238e-002 3.94737860e-003 7.22556561e-002
      4.96175885e-002 2.78182351e-003 -2.09577056e-003 1.68055994e-003
      -3.75294243e-003 -2.03474462e-002 -4.57913056e-002
      -3.97199206e-002 -2.91977376e-002 -5.52106202e-002 8.59357696e-003
      8.72588996e-003 1.19503988e-002 1.54382475e-002 -1.73898961e-003
      7.03487918e-003 -2.07157061e-003 -5.99269476e-003 3.43178888e-003
      -3.84437037e-003 1.42161758e-003 1.52132642e-002 3.45319174e-002
      -7.60712381e-003 2.79725008e-002 3.36771309e-002 2.26732343e-003
      3.64626087e-002 5.70229739e-002 1.84636768e-002 -5.21228125e-004
      7.34936493e-003 5.01347706e-003 1.92251371e-003 2.46970281e-002
      -2.28125136e-002 -1.01454016e-002 -1.32513428e-002 1.81172356e-001
      8.88879225e-002 2.26161584e-001 1.46487966e-001 1.89845920e-001
      -2.49133958e-003 2.94323295e-001 1.09603919e-001 2.78124511e-002
      7.32920468e-002 2.45654043e-002 4.22849432e-002 4.03116234e-002
      4.31953892e-002 1.00284124e-005 -1.72205374e-001 -1.07105091e-001
      -2.30662510e-001 -1.02597058e-001 3.14450085e-001 3.15740816e-002
      -1.04958713e-001 5.73053584e-002 6.06881082e-002 2.67677940e-003
      6.82502910e-002 3.90855707e-002 -1.57607964e-003 2.68926495e-003
      3.31461988e-003 -3.24710575e-003 -3.53548415e-002 3.00703887e-002
      -8.99480935e-003 -1.80976298e-002 6.56288341e-002 2.04025880e-002
      3.28913750e-003 -1.64270066e-002 1.26467617e-002 -5.64103946e-003
      3.60680604e-003 7.89625105e-003 3.87697248e-003 -5.43008791e-003
      4.16050479e-003 5.30383643e-003 4.20446023e-002 -2.46582348e-002
      -3.41960900e-002 -2.70776991e-002 4.89854030e-002 -1.30978301e-002
      -2.95916814e-002 1.59188733e-002 9.76101309e-003 4.50921897e-003
      2.60475278e-003 4.32775589e-003 6.47252332e-003 -1.93728018e-003
      5.54561391e-002 1.03434715e-002 2.23655194e-001 -7.27634877e-002
      -4.80439663e-001 -1.22565717e-001 4.00559098e-001 -1.80742756e-001
      -3.89061809e-001 -1.11670913e-002 1.30403057e-001 1.88429398e-003
      1.78136639e-002 7.56060937e-003 -1.16237402e-002 2.14613602e-002
      3.51923630e-002 1.80891016e-003 1.01791888e-001 -5.17707616e-002
      3.70377041e-002 -2.00046878e-002 4.14180785e-001 -3.53569239e-001
      4.29826863e-002 2.56837159e-001 1.25899747e-001 -2.41039693e-002
      -1.27397990e-002 -1.28032509e-002 6.98620407e-003 -1.03079360e-002
      9.15047247e-004 -5.09654172e-003 -4.69944142e-002 -5.36222234e-002
      -2.50755958e-002 -5.69857322e-002 6.00610748e-002 1.11940932e-002
      -3.27745103e-003 -1.54941594e-002 2.48063933e-002 -2.79439759e-004
      3.73069453e-003 -7.75225926e-004 -1.02088298e-003 -6.20193721e-004
      6.17833063e-003 2.82736146e-003 -1.12450949e-003 2.56121233e-002
      -9.40827653e-002 -3.95857841e-002 -1.98494866e-002
      -1.57441784e-004 -4.87086549e-002 -2.02639103e-002 1.03260214e-002
      4.99375863e-003 8.67989566e-003 2.09746161e-003 -5.43809719e-002
      1.43476855e-002 1.80457458e-002 -8.02698638e-003 3.57353508e-001
      4.77143005e-002 -3.29784244e-001 -6.37733042e-002 -4.35383081e-001
      2.08485335e-001 -2.79535115e-001 1.27234459e-001 1.12574391e-001
      3.32226418e-003 5.34789674e-002 1.73215475e-002 6.71142433e-003
      -1.74145084e-002 -6.14467077e-003 -4.37582284e-002
      -5.14350124e-002 -2.18228012e-001 -3.77819210e-001
      -8.65717158e-002 1.12123027e-001 -1.48111075e-001 1.25696003e-001
      2.26194069e-001 4.88709994e-002 3.13076451e-002 5.38021512e-002
      5.78053407e-002 -3.45569756e-003 3.28184501e-003 8.33085447e-004
      -3.91314551e-003 -2.84088198e-002 3.63955423e-002 -2.35245526e-002
      1.85258929e-002 4.06101122e-002 8.06293264e-003 4.00359891e-002
      1.77582242e-002 1.29218018e-002 -4.32309555e-003 9.70096979e-003
      5.19730663e-003 -7.34307431e-003 -8.50472788e-005 7.60782463e-003
      4.50160028e-003 -6.72258735e-002 -6.40060157e-002 -2.01039691e-003
      2.90223435e-002 6.43334463e-002 -3.08942795e-002 -1.16770566e-002
      1.48441643e-003 6.25362433e-003 3.12353228e-003 2.67614680e-003
      9.23486485e-004 -7.64237866e-002 -5.31806163e-002 1.50142359e-002
      6.61550555e-003 -3.67435068e-001 -1.46419322e-002 -2.28793964e-001
      3.98661308e-002 4.14859176e-001 -7.59485960e-002 -1.89760312e-001
      2.34388933e-001 1.11173913e-001 -4.10410650e-002 6.22492917e-002
      2.29682252e-002 -1.31520659e-001 -2.74566412e-002 8.69251266e-002
      -1.21812597e-002 1.69226661e-001 -1.35971621e-001 5.92657253e-002
      1.25860065e-001 7.24503249e-002 9.19077396e-002 4.13762480e-002
      3.34644616e-001 1.59258753e-001 1.05424318e-002 8.27128664e-002
      4.33663130e-002 -9.79585666e-003 -4.08801157e-003 1.59289278e-002
      2.16212517e-004 -1.56969379e-003 1.78705156e-002 5.62197063e-004
      2.02744417e-002 5.71975298e-002 -2.54576523e-002 6.49101585e-002
      4.47550640e-002 1.01092104e-002 -1.43081148e-003 1.62810925e-002
      8.94031487e-003 -2.99107982e-003 5.08364057e-003 2.79864320e-003
      1.55046175e-003 2.40579247e-002 1.38991894e-002 6.56380178e-003
      4.45621274e-002 1.49114318e-002 -4.92256805e-002 -1.08304322e-002
      2.04691682e-002 2.14548316e-002 -3.81669984e-003 3.36559024e-003
      4.10037627e-003 -4.37927134e-002 4.02940214e-002 -1.22693311e-002
      8.38548504e-003 1.02731012e-001 -2.08108112e-001 -6.61492050e-002
      -7.42713287e-002 1.35327458e-001 5.34454882e-002 -7.65007176e-003
      1.43962637e-001 1.31028026e-001 -2.66075204e-003 8.88792891e-003
      2.86761448e-002 -1.00556146e-002 9.48280934e-003 9.14710481e-003
      1.86775345e-002 -8.68205801e-002 3.81363153e-001 -1.84113026e-001
      -1.66006878e-001 -6.52232580e-003 -1.55612662e-001
      -3.08724761e-001 -7.64398947e-002 1.65192589e-001 -2.62332037e-002
      4.06826064e-002 5.66135645e-002 8.29758588e-003 -1.41635479e-004
      4.21152625e-004 -8.58899497e-004 -7.29427487e-002 -5.09838127e-002
      -2.19485611e-002 -3.60793248e-002 5.92222624e-003 1.78933740e-002
      -5.63461287e-003 -2.29555294e-002 1.87814888e-002 7.46887585e-004
      1.52317751e-002 7.91785680e-003 7.30960723e-003 -1.15489652e-002
      3.19408858e-003 -2.19236012e-003 1.30744219e-001 4.17330153e-002
      7.23718330e-002 -4.66941902e-003 -8.18616971e-002 2.15779375e-002
      -3.18221562e-002 8.69640615e-003 5.58115367e-004 3.74690484e-004
      2.38466379e-003 4.69213584e-003 5.11602946e-002 6.99850246e-002
      -1.10161668e-002 -7.61984736e-002 5.89734256e-001 -2.15075657e-001
      3.96975160e-001 -1.29339248e-001 -4.75151390e-001 -2.85452485e-001
      1.93985179e-002 7.75494650e-002 5.23830131e-002 4.03460339e-002
      4.28509079e-002 5.22399396e-002 9.15137678e-003 8.70721601e-003
      3.06029655e-002 -3.06700524e-002 -1.27261743e-001 -9.11100879e-002
      3.35527887e-003 -2.14166716e-001 3.94174904e-001 1.94126442e-001
      -1.34519130e-001 -1.18847676e-001 1.17416568e-002 3.91817056e-002
      -9.33065603e-004 1.51824597e-002 -4.85329161e-004 2.42657308e-003
      1.35573419e-003 -8.04654323e-003 4.50473800e-002 5.20401038e-002
      -1.88780408e-002 -4.14307527e-002 3.34821455e-002 4.68864813e-002
      -5.92549779e-002 -1.71513297e-002 -7.61659932e-004 1.20212371e-003
      -1.90858182e-003 1.04546547e-002 -9.88344941e-003 5.78080676e-003
      -5.63825248e-003 -3.36337881e-003 6.29857555e-002 4.26838137e-002
      4.13865447e-002 -7.09682470e-004 5.72584681e-002 6.25440758e-003
      3.71666290e-002 1.60000771e-002 1.52068473e-002 -1.15366350e-003
      6.07903395e-003 2.05778051e-003 -2.79489160e-002 3.67851257e-002
      -1.09935947e-001 -5.15060350e-002 1.81342736e-002 3.51455510e-001
      2.02793777e-001 -1.16392724e-001 5.79198636e-002 -1.70935392e-001
      1.66755110e-001 3.21118422e-002 1.54407024e-001 -4.65488955e-002
      1.65685285e-002 -5.80910873e-003 9.06373337e-002 4.29566987e-002
      -1.12508312e-001 -3.88157144e-002 -5.18964052e-001 4.87945154e-002
      -4.73875344e-001 -5.71585037e-002 -8.56480300e-002 7.79853016e-002
      -4.91204560e-002 3.84868890e-001 1.59026504e-001 -7.06823077e-003
      9.88650974e-003 3.19038928e-002 1.99484848e-003 -1.26203746e-002
      -2.55273306e-003 -1.06404547e-003 -4.63957572e-003
      -5.12269512e-002 -5.35757355e-002 -4.32612635e-002 1.25688948e-002
      5.67283295e-002 -2.44275499e-002 -6.22957665e-003 1.20739974e-002
      1.78596645e-003 4.20904206e-003 5.72515279e-003 1.83098332e-003
      4.46625473e-003 -5.39056631e-003 -5.64165926e-003 -1.88944545e-002
      1.45604489e-002 -3.37424614e-002 -3.68093923e-002 -5.33721037e-002
      -1.69475526e-002 -2.40283720e-002 -3.65027040e-002 4.28176578e-003
      -7.17709027e-003 9.43867781e-004 3.03371530e-003 1.09197283e-002
      1.26607670e-002 -3.23083848e-002 -9.61837992e-002 -1.95321396e-001
      1.30640924e-001 -1.51133700e-003 -3.33134383e-001 -3.85429472e-001
      3.94508213e-001 1.10453926e-001 3.65054131e-001 -1.79118868e-002
      5.60543574e-002 -3.83951399e-003 3.64116170e-002 -4.41356655e-003
      -8.84471461e-003 -2.10226700e-002 -1.10678218e-001
      -2.39137816e-003 -8.99892475e-004 1.52185569e-002 -2.91502744e-001
      -2.79155403e-001 2.88474914e-002 -2.16192342e-002 2.56519079e-001
      -7.39945378e-003 5.91077693e-002 -3.73495929e-002 -8.70553544e-004
      2.65018689e-003 -2.28332728e-003 -6.14247285e-004 -6.82794955e-003
      -3.93043235e-002 6.11497648e-003 -4.19025170e-003 -1.90702192e-002
      5.86170442e-002 2.74610873e-002 -2.92307716e-002 -8.85048788e-003
      4.71871626e-003 6.33632345e-003 -5.40169934e-003 -8.25913157e-003
      1.33929057e-002 3.36996326e-003 -4.09389706e-003 -4.95068869e-003
      5.73553368e-002 5.07214330e-002 -4.28514555e-002 -7.89811313e-002
      -2.93441731e-002 2.90040150e-002 -3.66025753e-002 -4.66129258e-002
      1.11007309e-002 1.59211492e-003 4.60940273e-003 -1.06549333e-003
      1.05229609e-001 4.27056663e-002 -7.73625728e-003 -6.15292042e-002
      1.65032312e-001 -3.78723629e-002 -2.96199650e-001 -2.44359687e-001
      -7.41292462e-002 1.52117357e-001 -1.23137966e-001 -7.17681125e-002
      7.84802958e-002 6.04386739e-002 1.63120385e-002 -1.01471953e-002
      -2.40987353e-003 -6.48099557e-003 2.08777729e-002 6.78893644e-003
      4.73788053e-001 -7.23996088e-002 1.14628255e-001 -7.14795068e-002
      1.46104097e-001 2.05640331e-001 3.03792953e-001 4.08947952e-002
      8.76739472e-002 3.51706296e-002 1.90116260e-002 -7.80780846e-003
      -1.20340462e-003 2.14451062e-003 7.64304167e-003 -4.83697653e-003
      8.09625909e-002 -4.61909361e-003 1.48661751e-002 -2.13734619e-002
      4.20039855e-002 2.79642101e-002 8.57428089e-002 3.86854843e-003
      6.89365342e-003 -1.77301036e-003 -4.76757486e-005 1.98686437e-004</_>
    <_>
      1.39863091e-003 -1.76778529e-002 8.87550507e-003 9.90903564e-003
      6.29082993e-002 -4.31012958e-002 -4.71661985e-002 1.77055132e-002
      1.31190807e-001 -5.57362549e-002 2.33891830e-002 2.89892778e-002
      1.41152162e-002 -1.13264620e-002 7.36391079e-003 1.60837770e-002
      -1.65741276e-002 4.35096920e-002 2.82269251e-002 -6.08593691e-003
      3.88797075e-002 9.15715173e-002 -3.81817847e-001 6.34702109e-003
      4.39060956e-001 -4.33415681e-001 1.63170248e-001 -1.82894155e-001
      1.18654154e-001 -1.05664462e-001 -1.07269464e-002 -1.71755459e-002
      -5.89931943e-002 1.18006989e-002 -3.78689952e-002 -1.78217646e-002
      4.95807528e-001 2.36289054e-001 2.26382110e-002 -6.42490983e-002
      -5.38405716e-001 1.53130978e-001 -2.51678169e-001 -6.34232387e-002
      2.09604234e-001 1.85197860e-003 -2.46470440e-002 -2.51077954e-002
      4.60803555e-003 4.32049669e-003 7.89880170e-004 -2.92070978e-003
      5.29384799e-002 -5.30656204e-002 -3.76209691e-002 -7.26138428e-002
      -2.36819591e-002 5.27517274e-002 -4.21855077e-002 -7.03785717e-002
      2.05234867e-002 6.10202923e-003 1.60693040e-003 -6.52844179e-003
      1.70621760e-002 -3.02994717e-003 -3.94722866e-003 4.63288557e-003
      -4.83714826e-002 -2.80101430e-002 -8.58265627e-003 6.13974221e-002
      3.98585610e-002 -2.17409674e-002 1.02643017e-002 -1.37727903e-002
      7.78728072e-003 -4.88036266e-003 -2.18598242e-003 2.21648486e-003
      5.65484948e-002 -1.45646678e-002 3.70647246e-003 5.97855970e-002
      1.34651735e-001 2.27654204e-001 8.61321017e-002 1.23479843e-001
      -8.95785242e-002 3.18110943e-001 -1.16820104e-001 1.55200258e-001
      1.02096573e-001 4.51243743e-002 -1.03167985e-002 2.11650282e-002
      8.88047740e-002 4.75791171e-002 3.58817214e-003 2.37700026e-002
      1.25301513e-003 -6.51469827e-002 -3.30839716e-002 1.23971730e-001
      2.47102275e-001 -2.31723994e-001 -2.46374011e-001 -2.50462413e-001
      2.99547315e-002 3.97612229e-002 -8.09586979e-003 -2.01107413e-002
      1.06705157e-002 -4.79049236e-003 -2.68087140e-003 2.11306004e-004
      -5.61044477e-002 -4.41428609e-002 -4.17658128e-002
      -2.37618573e-002 8.22193176e-002 -1.85359083e-002 -1.37122190e-002
      -2.21596491e-002 5.49782952e-003 -6.68856967e-003 2.59191357e-003
      7.80417642e-004 1.00587355e-002 8.09378736e-003 6.02276577e-003
      -5.04641421e-003 -2.90411226e-002 3.57089527e-002 -7.82684907e-002
      -1.00041822e-001 9.30440873e-002 -1.45296035e-002 -1.08102886e-002
      -5.73411547e-002 -4.76497179e-003 8.45196471e-003 -1.02097746e-002
      1.47612544e-003 5.98483011e-002 1.81849916e-002 -6.65194448e-003
      1.42236482e-002 -2.11446077e-001 2.69813359e-001 -4.19290930e-001
      3.47392447e-003 2.51131058e-001 8.04837495e-002 2.43064225e-001
      1.33278787e-001 2.00351570e-002 -5.88334128e-002 -6.04798533e-002
      -2.24502180e-002 4.16156948e-002 -8.63919873e-003 2.27038190e-002
      1.67052150e-002 1.84481829e-001 3.93015087e-001 -4.17351685e-002
      1.59954071e-001 -3.94508600e-001 3.76218230e-001 6.74834728e-001
      5.92632778e-002 8.95063281e-002 5.09767458e-002 2.40258928e-002
      -1.02721227e-004 1.75432349e-003 -3.58599331e-003 7.47608161e-003
      2.13409378e-003 4.81819250e-002 -7.47577623e-002 1.62143055e-002
      3.47807370e-002 3.91722977e-004 -4.50836830e-002 1.76908448e-002
      2.00191550e-002 3.24144750e-003 4.72136587e-003 5.68448752e-003
      3.57734435e-003 6.63914671e-003 6.74713578e-004 -1.93900522e-003
      -7.82902353e-003 -3.88925783e-002 -4.23777439e-002 6.97299615e-002
      7.75380014e-003 1.79106910e-002 7.93806836e-003 -7.06542656e-003
      -4.82628075e-003 1.96012855e-002 -2.20890506e-004 9.70551651e-003
      -4.27371211e-004 4.55974899e-002 2.36924607e-002 -4.36159642e-003
      -1.60418125e-003 1.82607248e-002 1.29099026e-001 5.65626919e-001
      9.35210884e-002 1.25039399e-001 1.50838330e-001 -1.13525718e-001
      -6.56909704e-001 1.53132573e-001 2.57943813e-002 1.26673719e-002
      -5.08906096e-002 6.88180402e-002 -1.80040561e-002 -7.20312744e-002
      -5.34427762e-002 8.58994573e-002 -9.87614840e-002 6.83453754e-002
      -3.81438196e-001 2.87971944e-001 1.36461318e-001 -6.77914694e-002
      -6.64926231e-001 7.51753375e-002 1.53722055e-002 -1.48916626e-002
      -1.03166617e-001 1.19840475e-002 -9.08036623e-003 -1.14759775e-002
      -9.02448036e-003 2.27186107e-003 -2.93507017e-002 -2.47055553e-002
      -7.90388435e-002 8.49885494e-002 4.57376521e-003 -2.03734133e-002
      -6.32351711e-002 6.52321475e-003 -7.06075632e-004 -2.67895521e-003
      -5.92920696e-003 -9.51909646e-003 1.72505702e-003 -4.20241058e-003
      -9.47203115e-003 1.24391556e-001 6.86373282e-003 9.58906859e-003
      -6.42674193e-002 2.88122650e-002 -1.10392617e-002 4.87330332e-002
      -2.73380224e-002 -2.40728361e-004 -1.61839111e-004
      -2.07975623e-004 -5.55900997e-003 -9.37033352e-003 8.08811374e-003
      -5.27772075e-003 -3.83141451e-002 4.51310813e-001 3.12097132e-001
      2.31743172e-001 -6.48985088e-001 -1.56494975e-002 -2.22590297e-001
      3.82351220e-001 -4.96375650e-001 2.77395528e-002 -5.43297976e-002
      -2.41081621e-002 -3.27812321e-002 4.72339168e-002 -1.76653471e-002
      3.83105199e-003 -3.49083543e-002 2.56526083e-001 -4.94282730e-002
      -1.23395942e-001 -1.50160044e-001 -2.25292355e-001
      -1.48302823e-001 -2.35746652e-002 2.14964477e-003 1.84010472e-002
      -1.15586855e-002 -1.02606062e-002 -3.23470049e-002 7.39789335e-003
      -4.76933131e-003 -6.59293029e-003 -7.13781361e-003 3.38641740e-002
      -1.26658883e-002 6.04741648e-003 -3.78533974e-002 -2.64576524e-002
      1.50046246e-002 -3.84618305e-002 -1.40707335e-002 5.79744531e-003
      2.54646852e-003 1.58388226e-003 6.92229660e-004 1.54220592e-002
      -4.14068857e-003 7.93312397e-003 4.89827944e-003 -3.21643543e-003
      -1.79386232e-002 -7.56783737e-003 2.29302179e-002 -7.96129182e-003
      -4.11346257e-002 -9.12276842e-003 9.33093764e-003 8.90877005e-003
      -6.04000175e-004 9.90193710e-003 7.69714685e-003 7.30447248e-002
      -5.39525785e-003 5.00341393e-002 1.64269861e-002 7.80923665e-002
      -1.96954101e-001 -1.18972637e-001 3.85399312e-001 -1.14348739e-001
      3.69230285e-002 -1.17227249e-002 8.98993164e-002 1.10716671e-001
      -1.09972311e-002 4.53880131e-002 1.73854874e-003 6.35470971e-002
      -2.79114135e-002 6.34153336e-002 2.00322755e-002 3.48383904e-001
      -1.56493392e-002 5.24392612e-002 7.39694089e-002 -1.11689687e-001
      2.14478880e-001 2.03753158e-001 -1.74534708e-001 1.06914483e-001
      1.39355625e-003 5.12660369e-002 -1.88828278e-002 1.47321420e-002
      -3.52613897e-005 3.79623775e-003 2.22482579e-003 6.55613914e-002
      9.27316677e-003 -1.93162747e-002 -5.34464419e-003 5.99943008e-003
      5.13873575e-003 2.15736590e-002 3.22416518e-003 7.36163044e-003
      1.36389746e-003 8.27946048e-003 2.27995403e-003 1.98962316e-002
      2.90827500e-003 3.40887648e-003 -3.57599906e-003 5.02086058e-002
      -2.38844063e-002 -6.39138697e-003 -3.81549671e-002 9.06477496e-003
      1.31627489e-002 -5.11619225e-002 -5.27324341e-002 3.38651496e-003
      6.22576743e-004 -1.07049951e-002 -1.09187374e-002 9.60569084e-002
      5.11327721e-002 4.37234640e-002 2.69875093e-003 5.06982440e-003
      9.41656344e-003 2.92422950e-001 -1.68572947e-001 3.30449671e-001
      -2.10299522e-001 -2.42055148e-001 -4.63830769e-001 1.86072886e-002
      -3.01795099e-002 -5.19051924e-002 -6.19313642e-002 1.29183114e-001
      -2.10673604e-002 6.32900819e-002 3.69992070e-002 -1.78662669e-002
      2.03822568e-001 1.97995976e-001 2.31564090e-001 -4.78906520e-002
      1.18887372e-001 -2.23026853e-002 1.88196115e-002 8.89249742e-002
      2.23903656e-002 -6.70057386e-002 -4.85081784e-002 1.50970342e-002
      -1.62858446e-003 2.43002689e-003 -2.01925379e-003 2.11967900e-002
      -3.64981294e-002 2.63741501e-002 8.11619312e-003 1.87375527e-002
      -8.61775596e-003 -1.69848965e-003 -2.77209673e-002 2.45569064e-003
      4.28723125e-003 -1.63765606e-002 -7.07297912e-003 1.25444001e-002
      7.37539143e-004 -2.10246653e-004 -3.32852406e-003 1.01412304e-001
      6.80236220e-002 1.48338899e-002 -4.39903475e-002 8.30378570e-003
      6.74700141e-002 -1.65901594e-002 -3.93374562e-002 1.83543917e-002
      2.05260934e-003 3.97742074e-003 1.60243234e-003 8.85736868e-002
      5.06702773e-002 -9.45839752e-003 -1.91902816e-002 4.79213595e-001
      9.18136016e-002 5.85234836e-002 -3.19702148e-001 1.85146615e-001
      -7.31594488e-002 1.67087644e-001 -1.14599884e-001 4.77213226e-002
      -1.44762164e-002 -1.24928774e-002 -3.66494283e-002 1.05961636e-001
      6.57549202e-002 3.68423387e-002 -2.71356702e-002 -1.24077253e-001
      2.31783018e-001 7.72969872e-002 7.40341842e-002 1.99360088e-001
      -1.36153772e-001 -2.80505955e-001 -4.98608425e-002 7.71864802e-002
      -6.35917857e-003 -8.65463912e-002 -1.40085230e-002 9.74661205e-003
      -9.01860278e-003 2.76711560e-003 -8.29127058e-003 -2.22429261e-002
      -4.03826088e-002 2.26470828e-002 -3.93496938e-002 2.88262982e-002
      4.19607200e-003 -4.80369925e-002 -8.35661665e-002 1.32563878e-002
      3.22284386e-003 -7.52096996e-003 -4.62450273e-003 5.85651351e-003
      1.06909359e-002 -2.67125573e-003 -5.99700725e-004 -5.71273006e-002
      5.03231846e-002 -7.43568540e-002 -1.83608942e-002 6.93109035e-002
      5.23744822e-002 -1.79717634e-002 -3.03653558e-003 -1.07089104e-002
      3.07446159e-003 -1.03607289e-002 3.56111967e-004 3.64486612e-002
      8.49257107e-004 -1.38732819e-002 -8.13911296e-003 1.48380101e-001
      3.06175917e-001 -3.37144375e-001 -4.05900227e-003 -9.60779563e-002
      3.03538442e-001 -7.19741639e-003 4.79382016e-002 -3.60074975e-002
      2.38275770e-002 -3.39176767e-002 -6.63292222e-003 6.92827851e-002
      -5.08535607e-003 4.70913295e-003 -2.17577890e-002 1.41143411e-001
      -9.18750688e-002 -1.81411713e-001 -9.40708891e-002
      -2.13442668e-001 -1.60664633e-001 -1.79299071e-001
      -3.94642949e-002 3.30251008e-002 1.68007985e-002 -3.99180017e-002
      -2.47334484e-002 8.57503153e-003 -1.32729337e-002 -4.69298055e-003
      -7.85891619e-003 -3.18313017e-004 -8.23023170e-002
      -7.52292573e-002 -5.43075092e-002 9.05009918e-003 -6.26189783e-002
      -4.13392670e-002 -1.21913115e-004 -3.26613965e-003
      -1.18413409e-002 -4.78031393e-003 1.35775935e-003 9.73965693e-003
      2.97380541e-003 -7.83615105e-004 -7.94486422e-003 1.43135697e-001
      3.11048217e-002 6.49942681e-002 1.60638094e-002 -3.74490470e-002
      -2.15050834e-003 -3.33033800e-002 -4.47248966e-002 1.25943953e-002
      5.68642654e-003 -4.99273837e-003 -1.31452940e-002 9.29789245e-002
      5.44039570e-002 -3.21507268e-002 -2.63034087e-002 6.37535632e-001
      7.62980506e-002 1.05792254e-001 1.51399702e-001 -4.25524086e-001
      -2.87047207e-001 1.83343664e-001 -2.04668939e-001 9.84069481e-002
      -1.77932475e-002 -6.17169193e-004 -4.97150868e-002 6.47671223e-002
      4.57443185e-002 -2.34715063e-002 -2.90461536e-002 1.07355222e-001
      1.18936710e-001 -5.71908355e-001 1.62949935e-001 -1.30787566e-001
      2.15349048e-001 2.15395585e-001 -1.43462308e-002 6.57078326e-002
      -4.57212143e-003 -4.43435926e-003 -1.29725402e-002 1.28582669e-002
      -5.46708936e-003 -4.17354936e-003 -6.67134952e-003 3.70518900e-002
      9.61148180e-003 -6.35949671e-002 -2.30105482e-002 -1.50140915e-002
      2.38882154e-002 -1.61228348e-002 -7.36083137e-003 1.14965241e-003
      -1.42635918e-005 -1.68041943e-003 -6.81235408e-003 1.83399655e-002
      1.87137246e-003 -1.05847921e-002 1.60951749e-003 5.43081053e-002
      4.46247635e-003 -4.82580476e-002 1.12024173e-002 1.06357492e-003
      3.12136998e-003 5.61263263e-002 1.30946850e-002 5.11170737e-003
      -1.83806906e-003 -9.39460937e-003 -9.68902488e-004 6.22894727e-002
      2.55703088e-002 -3.11559122e-002 1.75021365e-002 4.24891531e-001
      -9.01513845e-002 -2.14057907e-001 1.24857888e-001 -1.80576369e-001
      -7.03546628e-002 3.18610489e-001 -2.61697508e-002 -1.11963809e-003
      -2.22225562e-002 -1.00674957e-001 -2.32451297e-002 1.33826062e-001
      2.41232254e-002 -2.53545959e-002 3.29820476e-002 -9.24770907e-002
      7.97296762e-002 -1.31657749e-001 1.21531904e-001 1.61948830e-001
      2.98885312e-002 -5.14752008e-002 -1.68994263e-001 -1.13289896e-002
      -2.23318078e-002 -1.03061669e-001 -1.15120541e-002 1.71826705e-002
      -4.38958406e-003 -7.33269518e-003 -1.87056302e-003
      -1.82929114e-002 -3.12218517e-002 -1.16280634e-002
      -3.72955063e-003 5.29114623e-003 -3.81004028e-002 -5.03775664e-002
      -5.21515906e-002 1.85785408e-003 -4.51827794e-003 -4.73742187e-003
      -1.37209974e-003 1.53976749e-003 5.17638214e-003 -5.23710717e-003
      -7.32367579e-003 8.63919929e-002 1.92744136e-002 -7.54864588e-002
      -7.11871311e-002 1.58304684e-002 1.76934432e-003 -5.46259154e-003
      -9.12381858e-002 7.27245398e-003 6.40152371e-004 -1.46448743e-002
      -1.52242230e-002 3.95572856e-002 -2.80595990e-003 -4.04644050e-002
      -4.96957488e-002 5.31452000e-001 1.65218487e-001 -3.85586023e-001
      -3.74653518e-001 -3.16047519e-002 2.39116982e-001 2.13245735e-001
      -1.84558943e-001 8.43240917e-002 -8.02875683e-003 -1.28964156e-001
      -7.28555173e-002 8.81185755e-002 3.68922465e-002 -4.20365110e-002
      -4.51042019e-002 3.14478904e-001 3.30719389e-002 -1.26878425e-001
      -1.75827324e-001 1.59073427e-001 5.06354787e-004 -1.24956677e-002
      -2.56282896e-001 4.69420627e-002 3.82544845e-002 -1.08372055e-001
      -7.74626359e-002 6.68621762e-003 -2.66596419e-003 -6.21124171e-003
      -5.04629361e-003 4.14277241e-002 -3.51567939e-002 -4.11417633e-002
      -5.73530011e-002 6.03846684e-002 -2.41458658e-002 -5.22995181e-003
      -7.41068721e-002 7.54455454e-004 -7.24301208e-003 -1.24342218e-002
      -9.30305291e-003 2.72658840e-003 3.63305467e-003 -1.09496303e-002
      -3.86854121e-003 8.58151019e-002 2.83785071e-002 -3.31105292e-002
      -8.06335453e-003 8.21493845e-003 5.39203756e-004 -5.67008667e-002
      -3.87740657e-002 1.40006281e-002 8.30625836e-003 -7.66356592e-004
      -1.91285950e-003 7.14360178e-002 -5.07405214e-003 -4.04189937e-002
      3.88526469e-002 3.05359036e-001 1.63246896e-002 -2.84401160e-002
      2.79897511e-001 2.16876075e-001 3.22223842e-001 1.33763775e-001
      -7.71918520e-002 5.13233840e-002 -1.04187857e-002 -1.92105677e-002
      -8.67115147e-003 6.37955666e-002 -2.20321808e-002 -1.81058664e-002
      2.66657327e-003 3.95725071e-001 2.15222061e-001 -6.59875691e-001
      -3.38107497e-002 2.13804752e-001 -1.46229610e-001 -1.74955372e-002
      6.96836133e-003 2.87747700e-002 -6.42773136e-003 -1.05862226e-002
      9.45750158e-003 1.13187348e-002 2.87755718e-003 -7.94507749e-003
      -5.80930291e-003 6.73004240e-002 -2.76594814e-002 -7.79773742e-002
      -5.71499579e-002 1.92200895e-002 4.78645377e-002 -5.84284179e-002
      -4.14667726e-002 5.47235832e-004 3.35392845e-003 -1.46073103e-002
      -9.30493232e-003 -4.17957170e-004 1.48380012e-003 2.18561874e-003
      -5.68872085e-004 6.12285547e-002 -4.13570628e-002 -2.69631064e-003
      -3.37072983e-002 1.12378083e-001 -4.29057553e-002 -5.91421239e-002
      -3.77337262e-002 1.06247496e-002 -7.01037468e-003 -1.51980221e-002
      -7.40154926e-003 1.98769867e-002 1.70088336e-002 -2.31417478e-003
      -2.88318135e-002 1.66285202e-001 1.76236946e-002 -1.42619550e-001
      -1.17232651e-001 4.68310326e-001 -1.94994077e-001 -1.33816063e-001
      -3.21924955e-001 1.41637489e-001 -4.77782004e-002 -1.08855687e-001
      -9.71947331e-003 4.04101610e-002 -1.27288029e-002 2.22706255e-002
      1.58598498e-002 9.41262096e-002 -9.76807848e-002 -2.34076023e-001
      2.64462203e-001 1.11790121e-001 -2.85524100e-001 1.85388960e-002
      7.28592873e-002 1.55961618e-001 -5.15126400e-002 -1.20797716e-001
      -2.18963809e-002 -1.10128298e-004 -8.09982826e-004
      -5.24242036e-003 -2.91240076e-003 6.17838232e-003 -1.95831656e-002
      -3.48752439e-002 -1.62162371e-002 2.83913016e-002 -2.47324742e-002
      -3.67367314e-003 -3.42042721e-003 7.17527000e-003 -4.52461513e-003
      -1.72680523e-002 -5.13728568e-003 -3.79286404e-003 4.65337979e-003
      9.05042514e-003 8.54820851e-003 7.24144578e-002 -9.42257047e-003
      -3.15474048e-002 5.11463434e-002 -2.74818633e-002 -3.60619351e-002
      1.89399085e-004 2.01689675e-002 1.95629429e-002 6.34250464e-004
      1.07625229e-002 1.21457987e-002 6.75072568e-003 1.19307572e-002
      7.88956583e-002 1.10786259e-001 7.18099549e-002 -1.05797155e-002
      -6.92328364e-002 6.70655370e-001 -2.14541554e-001 4.33087908e-003
      -5.71513250e-002 2.73548245e-001 1.70623705e-001 -9.64316819e-003
      9.82322097e-002 7.29928985e-002 2.96759158e-002 -2.09550243e-002
      6.70751184e-002 8.95496532e-002 3.77513796e-001 7.22430348e-002
      5.25827482e-002 3.30070138e-001 -1.74967900e-001 3.62609029e-001
      -1.91229627e-001 5.16254455e-002 1.35377839e-001 7.65759796e-002
      1.11509822e-001 7.53516033e-002 4.71978541e-003 3.04357405e-003
      1.38694374e-002 1.38323558e-002 4.08912189e-002 6.55733421e-003
      1.39445961e-002 6.86636046e-002 1.10197617e-002 -2.51193214e-002
      2.83262599e-003 4.15047668e-002 1.51961986e-002 -3.98603128e-003
      1.49668502e-002 1.80651452e-002 7.18532968e-003 3.96019453e-003
      -2.31224834e-003 -1.07830130e-002 2.07240041e-002 4.63177636e-002
      -1.05664715e-001 -7.35134184e-002 2.83562932e-002 1.43713374e-002
      -3.47284451e-002 -3.36846374e-002 -4.89498896e-004 1.27713452e-003
      -7.75534194e-003 -3.26877902e-003 2.24400256e-002 -3.36540863e-002
      7.08971173e-003 -2.33217254e-002 2.94234097e-001 3.46880443e-002
      -4.80196439e-002 1.54193314e-002 -1.98263466e-001 2.63844520e-001
      -2.95147419e-001 9.44242179e-002 4.21437211e-002 4.58919033e-002
      -6.79076985e-002 -2.57800706e-002 -1.14583746e-002 8.50624871e-003
      1.32441642e-002 -4.16169651e-002 1.35665238e-001 -2.25917995e-001
      -1.54019132e-001 -3.15344036e-002 4.97752368e-001 -2.04720706e-001
      1.91692889e-001 -4.53442298e-002 2.04190630e-002 5.39159551e-002
      -8.56262594e-002 -5.40387146e-002 4.55409708e-003 4.00602864e-003
      -3.04432795e-003 -5.28963981e-003 -9.15659405e-003 4.25727526e-003
      -1.01856388e-001 -4.05511782e-002 9.10209566e-002 5.40288724e-003
      6.20563934e-003 -1.85061730e-002 8.76104552e-003 -2.38208356e-003
      -9.59238317e-003 -7.55411293e-003 8.05555377e-003 3.82362725e-003
      -1.26310089e-003 -7.06474384e-005 3.91921513e-002 7.19136745e-002
      -5.02488427e-002 -7.99758136e-002 4.21540774e-002 1.76423918e-002
      -1.22515149e-002 -3.95632572e-002 2.28142552e-003 -1.92483433e-003
      -3.45745916e-003 -8.82652495e-003 9.95363891e-002 5.72791025e-002
      -4.45547663e-002 -8.10577944e-002 3.95396829e-001 2.11744189e-001
      -1.09023012e-001 -2.96128273e-001 -3.65803480e-001 2.04022840e-001
      -1.59566313e-001 -1.59508213e-001 1.61677469e-002 5.58811566e-003
      2.10552686e-003 -7.13833421e-003 5.82921654e-002 -2.57690866e-002
      -2.31864341e-002 -2.44238079e-002 5.73216192e-002 -1.59822047e-001
      -6.36119843e-002 -4.17397171e-001 2.46242896e-001 -6.08163280e-003
      -2.01317593e-001 -5.19275904e-001 -2.85806488e-002 4.45485748e-002
      5.58574982e-002 -1.87805947e-002 1.22044133e-002 8.27894430e-004
      -7.59390695e-003 -5.07753529e-003 4.38094027e-002 3.71477380e-002
      8.90474487e-003 -4.49402966e-002 1.74708907e-002 1.03283022e-002
      -3.37781161e-002 -4.09927256e-002 -8.95836740e-004
      -3.78303230e-003 -2.77422764e-003 9.91029548e-004 2.77526230e-002
      4.67749982e-004 -2.29531768e-004 1.88750483e-003 1.61743775e-001
      3.74375768e-002 4.93558459e-002 -3.71995545e-003 3.39333317e-004
      8.67385697e-003 -4.76894528e-002 -1.69087015e-002 1.40285387e-003
      4.29691281e-003 -2.55357730e-003 3.10233724e-003 2.24415362e-001
      7.87039623e-002 7.63080493e-002 5.54455444e-002 5.20601332e-001
      1.16348505e-001 2.67051280e-001 7.56892040e-002 -4.85427715e-002
      -2.44905353e-001 -2.86454469e-001 1.35418192e-001 6.89204559e-002
      -2.01412421e-002 -4.14786004e-002 -1.71855688e-002 2.32711241e-001
      -1.10936277e-002 6.82277232e-002 6.12918437e-002 1.46886095e-001
      1.21624261e-001 1.56902462e-001 2.87994355e-001 1.98046397e-002
      1.61873534e-001 -4.66059983e-001 7.55349398e-002 1.04890369e-001
      4.37932573e-002 -5.11741303e-002 -2.13918388e-002 2.52844803e-002
      -7.40686944e-003 7.25332182e-003 -6.88817701e-004 6.56249970e-002
      -3.49780135e-002 -2.31460780e-002 -2.99141128e-002 2.24754456e-002
      -2.75170673e-002 -1.09169602e-001 -2.48770732e-002 9.34978947e-003
      -6.24068733e-003 -6.43571699e-003 -6.08504703e-003 1.49892531e-002
      7.29634706e-003 8.19279160e-003 -2.61801318e-003 -1.28744822e-002
      2.97992192e-002 -4.12903652e-002 1.57025922e-002 8.74797553e-002
      -1.54697048e-002 2.30192617e-002 1.88453440e-002 6.72683632e-003
      -3.19960614e-004 3.53715150e-003 1.67368527e-003 9.64231566e-002
      -3.25886309e-002 8.15122575e-002 2.53096689e-002 -1.93241730e-001
      -6.22377507e-002 7.31289163e-002 1.98663417e-002 1.36455432e-001
      -6.84821159e-002 1.49778113e-001 8.95882398e-002 5.68253808e-002
      -6.65567219e-002 2.37876214e-002 5.72143216e-003 5.34915626e-002
      -8.34183246e-002 7.96769336e-002 3.24587189e-002 1.58052117e-001
      -5.02122045e-001 -1.38131574e-001 -1.36197567e-001
      -1.89077273e-001 -5.71157098e-001 1.74268961e-001 4.85978097e-001
      1.18291818e-001 -6.32605478e-002 4.53511141e-002 4.42121439e-002
      -1.07472320e-003 -2.81369966e-003 3.77633702e-003 -3.03816912e-003
      3.66092362e-002 -7.52298310e-002 -4.51985486e-002 -8.44323728e-003
      3.65809798e-002 3.47757689e-003 4.99898707e-003 1.00569669e-002
      1.46209942e-002 7.35072233e-003 -1.09301996e-003 3.89324618e-003
      8.12310074e-003 3.54419067e-003 -1.90128433e-003 -1.17468240e-003
      7.42050037e-002 -2.82934867e-002 -5.80338016e-003 -5.76899052e-002
      -5.56986127e-003 -3.23216133e-002 -1.74066089e-002
      -4.20584194e-002 1.60280429e-003 3.20409285e-003 -6.70545921e-003
      4.61012498e-003 1.03886634e-001 3.36732678e-002 -4.48433608e-002
      -6.53413832e-002 2.65296221e-001 3.91834825e-001 -1.21491775e-001
      -3.36914897e-001 -1.59215674e-001 6.47820830e-002 1.06180072e-001
      6.26444444e-002 4.15487634e-003 -5.94688067e-003 -6.83144778e-002
      -5.51984599e-003 1.24796741e-001 1.62596926e-002 -6.32790551e-002
      -6.26367182e-002 1.15739806e-002 -7.94628859e-002 -1.69233888e-001
      -2.01852709e-001 -8.01124349e-002 -3.23398374e-002
      -2.82295227e-001 -1.45030588e-001 -1.43482089e-002 2.93651633e-002
      -5.96543513e-002 -4.44766805e-002 8.52077361e-003 -6.90642651e-003
      -1.28262686e-002 -1.24245565e-002 4.63342182e-002 -4.17581499e-002
      -4.77008410e-002 -9.49873552e-002 2.36235503e-002 3.69725786e-002
      -3.42879444e-002 -8.31114724e-002 -7.15824869e-003 3.18407593e-003
      -3.51519557e-003 -6.06513536e-003 7.15431944e-003 3.92053789e-003
      -6.16119150e-003 -5.41437301e-004 1.36451032e-002 6.04974329e-002
      -3.59388702e-002 1.01513984e-002 -1.08903379e-003 7.19748496e-004
      -4.16544676e-002 2.13554688e-002 1.29071111e-002 -3.74550326e-003
      6.39465777e-003 1.29276551e-002 6.42684847e-002 1.96252111e-002
      -1.41317472e-002 1.90863963e-002 -1.36176005e-001 -9.72632617e-002
      -1.63361937e-001 2.43385732e-001 6.06795847e-002 6.19478934e-002
      -4.96711165e-001 1.26620978e-001 2.23507900e-002 -6.75576320e-003
      6.71760365e-002 3.17521393e-002 5.09508774e-002 -4.42911424e-002
      4.43141907e-002 4.75405380e-002 -6.01086766e-002 -1.93200052e-001
      1.18529797e-001 3.54329288e-001 2.13185400e-002 -2.53980905e-001
      1.08000547e-001 3.80959243e-001 5.88405244e-002 -4.04744893e-002
      4.87244204e-002 2.39684060e-002 9.72261280e-003 2.86378781e-004
      -1.49950490e-003 2.73105223e-003 -1.20637370e-002 -4.15807888e-002
      -4.39520404e-002 -5.28847217e-004 -1.57098044e-002
      -3.67084779e-002 2.17209663e-002 1.27562741e-002 7.71469390e-003
      -7.09306169e-003 5.95707959e-003 5.07695659e-004 8.57861154e-003
      6.83224527e-003 1.61750447e-002 1.38171436e-002 2.52359640e-002
      4.23510335e-002 2.09057312e-002 3.18981297e-002 -2.52996981e-002
      -5.88435940e-002 -5.48994318e-002 1.49337715e-002 -6.89574797e-003
      -3.76575533e-003 -7.15504121e-003 7.25435885e-003 -6.22811057e-002
      -1.14977174e-002 2.18691170e-001 9.04368460e-002 -8.46724659e-002
      -1.67640150e-001 3.19835812e-001 2.84605920e-001 -2.06777662e-001
      1.90406531e-001 -2.82433987e-001 1.80764705e-001 -3.02463211e-002
      6.22649258e-003 -4.83927317e-002 1.86373349e-002 -6.54538162e-003
      -1.64511986e-002 1.52665332e-001 6.04840741e-002 -2.56460160e-003
      -4.75948155e-002 -1.44528270e-001 -1.46180019e-001 1.58830628e-001
      1.97069701e-002 -1.56499609e-001 1.46544427e-001 -7.58710653e-002
      5.88695146e-002 -1.84946507e-002 2.88795773e-002 7.24073639e-003
      -9.92032979e-003 1.29909012e-002 1.11525680e-003 7.19769998e-003
      -3.30342818e-003 1.31686358e-002 -2.00581159e-002 7.13314489e-002
      2.45822407e-002 -2.86537223e-002 -2.78201737e-002 -8.58538784e-003
      6.64642360e-003 -1.15155056e-003 -1.00334245e-003 -2.82569556e-003
      -2.96950690e-003 9.42414161e-004 6.73337467e-003 -4.30603810e-002
      1.47045888e-002 -2.04128865e-002 3.60208787e-002 9.19264853e-002
      -1.96708273e-002 2.33188979e-002 2.40355227e-002 1.28056090e-002
      3.28589231e-003 3.39207239e-003 4.66084294e-003 6.74293842e-003
      7.13775307e-003 3.38849723e-002 4.24013473e-002 -5.70969954e-002
      3.47077340e-001 -2.70930707e-001 -1.30230680e-001 5.48211694e-001
      4.88112092e-001 -3.22481841e-002 8.39998871e-002 8.59179646e-002
      7.91722257e-003 -2.07655001e-002 4.79487814e-002 3.52944210e-002
      -2.40362864e-002 4.36794721e-002 2.50790324e-002 3.12343508e-001
      1.28487512e-001 -5.42761870e-002 1.72865652e-002 2.53031850e-001
      1.63691863e-001 9.15529877e-002 -7.17677176e-002 3.50485183e-002
      1.66712012e-002 -1.40432604e-002 2.12179273e-002 3.35199619e-003
      -4.19760495e-003 8.30967631e-003 5.59184980e-003 3.81013677e-002
      -7.78214708e-002 -2.04972271e-002 -2.10768301e-002 9.17955637e-002
      -3.82739715e-002 2.69181281e-002 -2.31527369e-002 7.02899531e-004
      -3.22806532e-003 -6.87256875e-003 -2.95630773e-003 1.48666408e-002
      1.16299116e-003 -6.60196319e-003 -4.35323408e-003 1.65812876e-002
      8.57364968e-004 -5.22217937e-002 -2.63997838e-002 2.65179835e-002
      -8.31279978e-002 -4.85831127e-002 -2.24427879e-002 2.57748365e-003
      2.85116653e-003 -1.02476785e-002 -3.84181994e-003 1.39360696e-001
      -2.38824114e-002 -8.41842517e-002 -3.68697830e-002
      -2.06536949e-001 -3.44194889e-001 -1.63723648e-001 1.25603348e-001
      -3.57812196e-002 -1.83823839e-001 -1.59323186e-001
      -1.40791491e-001 1.41725928e-001 -6.27316311e-002 -4.18031402e-002
      -6.41617458e-004 3.41952667e-002 -7.60132913e-004 -1.07131884e-001
      -8.13388899e-002 2.46971175e-001 -1.63492709e-001 -2.91229606e-001
      -3.01510811e-001 -1.67324722e-001 7.98943639e-003 -1.61918122e-002
      -2.67827034e-001 6.17467798e-002 -2.04443894e-002 -5.70957474e-002
      -2.52046473e-002 -1.80010428e-003 -9.01652151e-004
      -1.23077817e-002 -9.66482330e-003 7.73341507e-002 -2.44819913e-002
      -4.01335880e-002 -5.72784767e-002 1.22135840e-002 4.15927731e-002
      -1.79766025e-002 -6.29749103e-003 3.71949351e-003 1.37257520e-002
      -7.51315663e-003 -1.91437535e-003 6.45474810e-003 -1.56814919e-003
      7.47887325e-003 -1.57511502e-003 4.59844396e-002 5.00017311e-003
      -4.50400151e-002 -5.15383147e-002 2.57268436e-002 -4.76089977e-002
      -3.57728824e-002 -3.21482383e-002 1.31030835e-003 7.22647924e-003
      1.95196993e-003 -1.45919831e-003 2.83212774e-002 1.55164413e-002
      2.46816650e-002 -2.78307293e-002 3.04246992e-001 1.12024128e-001
      4.81463894e-002 -2.02154636e-001 -5.71441501e-002 1.56979904e-001
      -1.95907772e-001 -2.28002071e-001 2.07681105e-001 4.07176167e-002
      1.17572442e-001 8.42821610e-004 2.02339552e-002 8.40182975e-002
      2.43135355e-002 4.80895787e-002 3.70617598e-001 5.03733099e-001
      1.40287250e-001 1.34405151e-001 -1.43096119e-001 3.11749071e-001
      -2.20993176e-001 -2.74600416e-001 1.81314558e-001 -6.95306063e-003
      1.01324216e-001 -3.70655134e-002 9.44079831e-003 2.13987250e-002
      7.87373167e-003 1.40589615e-002 -4.93284129e-002 7.58001804e-002
      5.17028384e-002 6.84535578e-002 -1.54291810e-002 1.63120274e-002
      -4.41874638e-002 -1.90871619e-002 1.52374310e-002 2.09992900e-002
      1.09160617e-002 3.83546622e-003 -5.35460003e-003 -1.97872636e-003
      1.95658524e-002 2.86709773e-003 9.09696370e-002 -1.19551606e-002
      4.27813418e-002 2.68068947e-002 -1.21372100e-002 -2.48117708e-002
      -1.87782645e-002 4.23727781e-002 5.64223062e-003 3.34802433e-004
      -6.75139157e-003 -2.01975810e-004 6.66413549e-003 -1.55990350e-003
      1.40529662e-001 3.01702674e-002 1.14701398e-001 -2.46958554e-001
      2.07381770e-001 3.00019741e-001 2.29942515e-001 -3.79257023e-001
      -8.88603181e-002 3.26761305e-001 -2.06461698e-002 -3.30548845e-002
      -3.67705077e-002 2.42451578e-002 -1.90408025e-002 -3.54692973e-002
      1.46022648e-001 -3.58018605e-003 2.31080383e-001 -2.44412124e-001
      1.47221163e-001 -4.49411362e-001 -1.19532317e-001 -1.87726244e-001
      -3.45701724e-001 -7.61283264e-002 4.74734195e-002 -7.87257701e-002
      -4.51903120e-002 9.63326357e-003 -2.26984848e-003 -5.52617619e-003
      1.09041240e-002 -4.08725813e-004 6.55720234e-002 -4.47436906e-002
      2.48902030e-002 -5.61559461e-002 -2.76678633e-002 2.02294625e-002
      -9.72762927e-002 -6.51420653e-002 1.15668634e-002 1.71414838e-004
      -6.20254129e-003 -5.12852613e-003 1.49944248e-002 7.25225452e-003
      -3.24773439e-003 -2.18152208e-003 8.47610738e-003 1.41236726e-002
      1.78666972e-002 -2.16465071e-002 2.11640466e-002 -2.30894145e-002
      -6.16356265e-003 -3.83463427e-002 7.81147508e-003 1.22130383e-003
      -1.81262381e-003 -7.09643262e-003 9.08624083e-002 1.82299465e-002
      -2.36085765e-002 -3.64593863e-002 -2.90036947e-002
      -8.59294087e-002 -3.14507484e-001 -2.21262768e-001
      -3.84598449e-002 1.18801169e-001 4.27889377e-001 2.03702170e-002
      1.34536222e-001 -5.95910363e-002 -1.28325978e-002 -2.20260508e-002
      9.37392656e-003 -2.96646859e-002 2.50465795e-003 -2.01506373e-002
      5.77517271e-001 -9.23607871e-002 3.66892144e-002 -3.89602453e-001
      -5.08290052e-001 -1.56320527e-001 -2.61669438e-002
      -1.05650499e-001 7.24717975e-002 -2.09099632e-002 1.07558668e-002
      -3.87640111e-003 -1.76218571e-003 -5.12862112e-003 1.60318078e-003
      -7.32776662e-003 1.15466543e-001 -3.08640618e-002 2.56785564e-002
      -5.68919964e-002 -6.94789365e-002 -5.73624764e-003
      -2.06703935e-002 -2.92994343e-002 8.55945237e-003 3.92717076e-004
      5.53230429e-003 -6.05397392e-003 1.13230813e-002 3.31115606e-003
      -1.04388101e-002 -4.23729979e-003 6.88057393e-002 8.96253586e-002
      -3.62096354e-002 -6.17315732e-002 -1.22955889e-002
      -4.01352439e-003 -8.02574158e-002 -9.84771848e-002 4.28118603e-003
      -3.02796229e-003 -1.71635039e-002 -1.52417766e-002 1.71731234e-001
      7.92193227e-003 -2.36706045e-002 -1.47900758e-002 -3.57852340e-001
      -9.51308161e-002 1.40487581e-001 3.18005890e-001 2.43640523e-002
      -3.64958972e-001 1.52729630e-001 -1.50090724e-001 -1.30230347e-002
      -6.96585774e-002 -1.01048611e-001 -8.12000632e-002 1.47669628e-001
      -6.40210435e-002 -4.98049706e-002 -5.13421707e-002
      -2.14725018e-001 -3.43575209e-001 -8.25386867e-002
      -3.23451430e-001 2.37441927e-001 4.19441730e-001 -8.66502374e-002
      -5.95304847e-001 -1.77747626e-002 4.13082503e-002 -9.43304151e-002
      -1.19318396e-001 1.05141904e-002 -2.99125584e-003 -5.25603397e-003
      -3.58895422e-003 6.99023083e-002 -3.34445126e-002 -8.31766520e-003
      -4.26114872e-002 4.32546139e-002 -4.29867990e-002 -2.82366499e-002
      -7.85864368e-002 9.79794189e-004 5.38663752e-003 -1.43463211e-002
      -1.29072908e-002 -1.40744969e-002 -2.02580006e-003
      -1.85999181e-002 -7.46353122e-004 3.88427526e-002 -6.75641522e-002
      -2.84529245e-003 -1.29167177e-002 4.47448194e-002 -7.51245171e-002
      4.32690047e-002 -4.45741266e-002 9.32013616e-003 -2.89308256e-003
      1.02430582e-002 -2.48891558e-003 -6.41726479e-002 1.88951977e-002
      -1.47427022e-001 -1.34338047e-002 2.16023967e-001 2.16366515e-001
      -1.22470655e-001 -1.32950217e-001 -4.15297560e-002
      -1.88579261e-001 6.46820962e-002 -1.74718171e-001 1.51524305e-001
      -2.85984371e-002 9.24056768e-002 5.08733094e-003 -6.45816475e-002
      3.88636328e-002 -1.05171613e-001 1.05991149e-002 1.12654090e-001
      -4.05097157e-002 -3.17548484e-001 8.83463398e-003 -1.99308634e-001
      1.60902739e-001 3.02805871e-001 8.60848650e-002 1.35884091e-001
      -3.15658562e-002 1.14599757e-001 8.88891667e-002 -1.37808481e-002
      2.53493479e-003 -2.05972958e-002 6.46880537e-004 -1.42669519e-002
      7.95648992e-003 -4.69544716e-002 -1.21881033e-003 2.26348117e-002
      4.72129323e-002 5.19707091e-002 6.00394001e-003 1.39119513e-002
      7.93306530e-003 9.30434838e-003 3.01404204e-003 1.78564573e-003
      -6.43840246e-003 6.92420034e-003 7.19809765e-003 4.63645384e-002
      1.92174427e-002 6.64936029e-004 3.67577821e-002 -3.86397988e-002
      -3.43130156e-002 -4.99622487e-002 3.38852182e-002 9.25705303e-003
      4.05701715e-003 2.24228809e-003 9.68110003e-003 7.72385001e-002
      -3.40514779e-002 7.50100836e-002 2.43082661e-002 2.88516849e-001
      -2.08689213e-001 2.21812859e-001 1.89835548e-001 4.52289097e-002
      1.91487268e-001 -2.89162338e-001 3.14500481e-001 7.64970183e-002
      6.16852716e-002 5.32290675e-002 6.44956082e-002 8.14664587e-002
      -5.64687559e-003 3.97743937e-003 1.08363982e-002 3.68588418e-001
      -9.21201110e-002 -2.13903263e-001 -7.27407634e-002 4.68330324e-001
      -5.87404631e-002 -2.01889247e-001 1.81664169e-001 2.26472970e-003
      -1.34070532e-003 4.80711572e-002 5.29854298e-002 1.11956475e-002
      9.68413614e-003 3.01722507e-003 7.45795900e-003 6.44764826e-002
      -4.33723861e-003 7.27648521e-003 1.75836440e-002 2.70826947e-002
      -6.82561332e-003 -5.28859273e-002 2.99461614e-002 4.53817565e-003
      -4.22790786e-003 9.00953833e-004 3.69620719e-003 1.05399238e-002
      -6.13052119e-003 -5.30079752e-003 7.09946081e-003 -4.63847741e-002
      1.95372850e-003 -5.31041138e-002 4.70009632e-002 2.94349976e-002
      -3.91150676e-002 -1.98622774e-002 5.42975105e-002 9.68920160e-003
      -9.19955503e-003 1.05659617e-003 2.78871204e-003 1.18767582e-002
      -5.32638393e-002 -2.44787126e-003 4.74092513e-002 -1.79630101e-001
      -2.14624643e-001 -2.67953098e-001 3.06618035e-001 8.94781575e-002
      1.42066285e-001 3.70172203e-001 1.60605967e-001 1.36534497e-001
      1.07191689e-002 7.49755427e-002 4.55754250e-002 -6.74513774e-003
      6.71512540e-003 5.79174655e-003 7.01755956e-002 1.97355419e-001
      2.70174235e-001 -3.21435630e-001 1.14338309e-001 -1.67734340e-001
      -1.04501225e-001 5.26515283e-002 3.98941427e-001 1.52153984e-001
      2.93159811e-003 6.24958947e-002 5.24827167e-002 4.73948382e-003
      5.37544535e-003 4.21411870e-003 4.68189642e-003 2.94982493e-002
      2.77115609e-002 -2.04211171e-003 1.34509588e-002 -1.10244248e-002
      6.00838661e-002 8.46514385e-003 2.25850884e-002 1.34886475e-002
      7.16677913e-003 5.35816746e-003 2.98642693e-003 5.30274957e-003
      -1.70343509e-003 1.47584826e-002 3.45902075e-003 -1.51770245e-002
      -6.80942461e-003 1.58391465e-002 1.38341822e-003 4.95503843e-002
      -2.47773714e-002 4.60263826e-002 -7.21254796e-002 7.66390795e-003
      5.27936220e-003 4.14474122e-003 -1.06333354e-002 2.43037916e-003
      -1.02500267e-001 7.54404292e-002 1.40139004e-002 -2.93228589e-002
      -3.76212269e-001 3.00842315e-001 -2.70111375e-002 5.72503865e-001
      -1.92159787e-001 3.17347497e-001 -4.58928913e-001 6.03479519e-002
      -2.78019980e-002 5.48826158e-002 -4.51880544e-002 -5.25884107e-002
      1.45631805e-002 1.07080147e-001 6.71299770e-002 6.94224060e-001
      1.18743598e-001 1.60366036e-002 -7.93115199e-002 -1.22102164e-001
      -5.48150465e-002 -1.13532156e-001 -3.90649259e-001 7.70924538e-002
      -5.67172468e-002 3.11294869e-002 -8.08413699e-002 -2.44604610e-003
      2.06379755e-003 9.26018227e-003 7.25311460e-003 4.26827297e-002
      -1.64170898e-002 -3.82719077e-002 -3.30868363e-002
      -2.19766200e-002 -5.53522073e-002 -2.63983048e-002
      -6.86313957e-002 7.44447345e-003 -6.28871890e-003 1.03640649e-002
      -2.14023399e-003 6.72892202e-003 1.34896080e-003 -4.73315967e-003
      1.06171425e-003 -6.14353195e-002 -1.97035130e-002 -5.92839438e-003
      -3.79807549e-003 4.06554202e-004 9.55914220e-006 -6.87478781e-002
      -4.54677716e-002 1.76750235e-002 3.55710043e-004 -9.93751176e-003
      -9.54653602e-004 -4.10500281e-002 4.71300911e-003 1.21726217e-002
      1.60433389e-002 -4.61044461e-002 -2.25835174e-001 -2.93081611e-001
      1.17031410e-001 -1.31115122e-002 1.34364918e-001 -1.07551701e-001
      -7.27644190e-002 8.12093988e-002 -3.81601714e-002 -2.05094635e-001
      -1.17307521e-001 -6.85214251e-002 2.06900220e-002 1.92466180e-003
      5.08816503e-002 1.66248307e-001 4.73190218e-001 -1.50953308e-001
      2.77181983e-001 -1.42442882e-001 2.93870568e-001 -1.49940163e-001
      2.97182530e-001 4.58214208e-002 7.63897970e-002 -1.91531718e-001
      -3.70525680e-002 -8.34855810e-003 2.28716689e-003 1.57271908e-003
      -6.27077126e-004 -2.59509161e-002 -3.93286049e-002
      -6.38913959e-002 -4.49609905e-002 7.35146031e-002 3.87315080e-002
      -5.99609315e-003 2.30714399e-002 3.11069447e-003 2.19645095e-004
      -1.61124431e-002 -2.24057439e-004 2.13857703e-002 1.26170646e-003
      -1.79517968e-003 -4.07993468e-003 1.19737256e-002 -1.53703103e-002
      -3.13884653e-002 -4.47199820e-003 -4.22706380e-002
      -3.28093744e-003 -3.12033277e-002 -2.01146267e-002 8.34855810e-003
      3.32282763e-003 -1.10977318e-003 -2.53744912e-003 9.69935954e-002
      -1.39549198e-002 1.62654482e-002 -4.75139432e-002 3.19833960e-003
      -4.35145110e-001 -1.05090536e-001 1.18808202e-001 2.16081757e-002
      -9.47504342e-002 -1.19723650e-002 -8.15565661e-002 1.10346138e-001
      -4.30113589e-003 -1.10557610e-002 -4.65740729e-003 1.04322493e-001
      2.70108576e-003 2.26915609e-002 -7.27295503e-002 -8.36467743e-002
      1.17982261e-001 1.69499218e-001 -1.10328555e-001 7.10537136e-002
      -2.25702718e-001 -2.29376301e-001 -2.08931834e-001 6.77078590e-002
      -6.51097670e-002 8.38984444e-004 -5.38938455e-002 5.69782453e-003
      -3.35201761e-003 -2.01626390e-004 -4.78504971e-003
      -9.97077394e-003 -6.59100413e-002 -3.75659624e-003
      -9.08271689e-003 2.62758025e-004 -2.19999496e-002 -4.84606326e-002
      -3.86048965e-002 3.86548392e-003 -2.22953944e-003 5.76567836e-003
      2.20634206e-003 1.76089089e-002 -7.78826606e-003 3.38031864e-003
      3.00539285e-003 5.68361720e-003 -1.24952011e-003 -5.86967617e-002
      -1.34855844e-002 7.93056786e-002 1.37689291e-002 -2.09129099e-002
      7.30746845e-003 2.75878678e-003 -1.95947289e-003 -7.81055912e-003
      2.96947011e-003 1.22066654e-001 3.26773189e-002 5.66050746e-002
      2.06467044e-002 1.25015378e-001 1.44225955e-001 -1.24854378e-001
      1.27566606e-001 6.17090285e-001 6.16667084e-002 -2.05466315e-001
      1.00105423e-002 -5.35832383e-002 -9.00315773e-003 -8.48476030e-003
      -2.62711346e-002 1.06621884e-001 5.03032245e-002 6.74480572e-002
      2.56584194e-002 5.17620929e-002 1.38633341e-001 2.33367339e-001
      1.84825674e-001 3.73037815e-001 8.34117010e-002 -3.36073518e-001
      -2.57877916e-001 -1.37194199e-002 -5.37286652e-003 5.07122353e-002
      9.04738251e-003 4.51465091e-003 -2.22127512e-003 9.98911355e-003
      1.95442862e-003 2.95470022e-002 -3.64616886e-002 5.32656536e-002
      3.79760154e-002 1.02157425e-002 -3.43397968e-002 -5.89828007e-002
      -7.53278378e-003 6.41086372e-003 -5.45312278e-003 6.27527060e-003
      5.24215121e-003 3.88263213e-003 4.90149762e-003 5.50536299e-003
      -7.63209595e-004 6.98954836e-002 4.03414369e-002 -1.16160754e-002
      -3.19720320e-002 -1.10349040e-002 9.20175854e-003 -5.59819341e-002
      -4.41144444e-002 -1.30739610e-003 -5.11760311e-003
      -1.05388137e-002 -9.79878008e-003 1.96114816e-002 -8.61807726e-003
      8.86227097e-003 9.39645618e-003 1.38135433e-001 -4.49455589e-001
      6.59184977e-002 -2.74109636e-002 9.81275588e-002 -1.88004062e-001
      -5.70590794e-001 -3.15175474e-001 -6.65717199e-002 1.34327263e-002
      -1.09246626e-001 -4.22105826e-002 2.53604818e-003 -2.17505880e-002
      1.39836650e-002 1.75022762e-002 1.06078535e-001 1.47285327e-001
      -1.05425425e-001 9.43224784e-003 4.58384573e-001 2.72813812e-003
      -5.03479354e-002 -1.61737844e-001 -9.34104696e-002
      -1.15070399e-002 -1.01337187e-001 -4.56018411e-002
      -2.13643699e-003 6.17735554e-003 7.47294771e-003 4.57152119e-003
      1.73716322e-002 6.83360454e-003 9.86258686e-003 2.18058494e-003
      2.76972149e-002 3.13698053e-002 -2.89053451e-002 -3.77198048e-002
      -9.78642516e-003 -4.41980129e-003 -1.68502480e-002
      -7.28815282e-003 9.42068733e-003 -4.71646246e-003 7.40514742e-003
      -3.90352821e-003 -2.70435307e-002 2.11118925e-002 5.52281737e-003
      1.92934144e-002 -2.18695905e-002 6.93632849e-003 -1.20149534e-002
