<?xml version="1.0"?>
<opencv_storage>
<my_svm type_id="opencv-ml-svm">
  <svm_type>C_SVC</svm_type>
  <kernel><type>LINEAR</type></kernel>
  <C>1.</C>
  <term_criteria><epsilon>1.0000000133514320e-010</epsilon>
    <iterations>1000000</iterations></term_criteria>
  <var_all>500</var_all>
  <var_count>500</var_count>
  <class_count>8</class_count>
  <class_labels type_id="opencv-matrix">
    <rows>1</rows>
    <cols>8</cols>
    <dt>i</dt>
    <data>
      80 165 171 195 209 210 245 249</data></class_labels>
  <sv_total>28</sv_total>
  <support_vectors>
    <_>
      5.59716113e-003 6.77997246e-004 -8.33087880e-003 -1.38819348e-002
      6.90230262e-003 -6.17135875e-003 -1.02170482e-002 3.85895511e-003
      -1.40568512e-002 -2.20510270e-002 2.56164302e-003 -1.85182772e-003
      -6.60693133e-003 9.04344860e-003 -9.31461900e-003 -1.44575415e-002
      4.77424776e-003 8.93737283e-003 1.03728371e-002 -8.65793787e-003
      -3.93839832e-003 7.01832632e-003 -9.63284925e-004 2.06076703e-003
      -2.25820998e-003 1.35897174e-002 1.52227273e-002 -6.34278636e-003
      2.00967602e-002 -2.23045554e-002 8.52519833e-003 -8.66654795e-004
      3.22412979e-003 -9.66674741e-003 8.31023324e-003 -9.62290354e-003
      -1.54511621e-002 2.07310859e-002 3.58471344e-003 6.73405873e-003
      1.79066148e-003 -9.09446925e-003 -1.73361432e-002 -1.46884285e-002
      -5.77437272e-003 -2.79956218e-002 -3.43245664e-003 4.35953867e-003
      -9.40089300e-003 4.83928481e-003 -9.56971943e-003 -1.10368412e-002
      -8.09660240e-004 -1.15659628e-002 -3.07273539e-003
      -1.49621703e-002 2.89579364e-003 -9.00036562e-003 -5.34554198e-003
      9.32698313e-004 -9.81303491e-003 -4.50215628e-003 1.65895675e-003
      -3.28939734e-003 -8.12687725e-003 3.12916492e-003 1.06372815e-002
      3.94814461e-003 -5.47223445e-003 4.53361962e-003 3.04532959e-003
      -2.50378600e-003 9.11506824e-003 -1.03392266e-002 1.29836658e-002
      5.29467827e-003 -7.09069800e-003 7.82128982e-003 -2.16602813e-002
      8.25194828e-003 -1.01308548e-003 4.88010515e-003 4.61478252e-003
      3.26538901e-003 -1.76744105e-003 7.51373963e-003 -8.37691221e-003
      6.11150078e-003 -7.48530903e-004 2.68909037e-002 1.11831622e-002
      -8.17360636e-003 -2.49508675e-003 -1.24548264e-002
      -5.82276261e-004 -1.77553836e-002 1.16418619e-002 6.52536284e-003
      9.58983228e-003 1.94195774e-003 -4.89193480e-003 2.39938032e-002
      2.00796053e-002 1.45000461e-002 8.86004884e-003 -1.34297740e-002
      -5.69369295e-004 -2.80052386e-002 -1.32591818e-002 1.09893866e-002
      -5.98590681e-003 -9.57120303e-003 -8.78468622e-003 3.57473356e-004
      8.50818865e-003 7.49666989e-003 1.61949024e-002 -3.29031586e-003
      5.45017933e-003 -6.79907249e-003 1.21187302e-003 -4.47083451e-003
      -2.76564690e-003 3.72181210e-004 2.98659373e-002 -9.20659024e-003
      -3.95437516e-003 -9.63802915e-003 -4.51093493e-003
      -2.01445185e-002 -9.51927807e-003 1.43299382e-002 7.26912695e-004
      -1.52187038e-003 1.04188062e-002 3.54350870e-003 1.24057033e-003
      4.88009863e-003 -6.15888159e-004 7.26652425e-003 -9.29366238e-003
      -1.73161421e-002 -8.39866139e-003 -8.64236616e-003
      -1.35395781e-003 -9.44734318e-004 -2.74043251e-003 8.14165734e-003
      4.28173784e-003 -1.35141676e-002 8.99326429e-003 -3.28691537e-003
      -2.86536687e-003 1.01451781e-002 -7.98134133e-003 6.74098264e-003
      -1.47940479e-002 1.32531477e-002 -1.20584350e-002 -5.51509019e-003
      -3.77452758e-004 2.50009331e-003 6.05938118e-003 -4.29659756e-003
      -3.00365477e-003 2.85395421e-003 -1.52421491e-002 -3.17472126e-003
      -5.73137728e-003 -1.65186380e-003 -2.92977807e-003
      -6.70428993e-003 3.95825785e-003 -1.02293072e-002 8.56052502e-004
      -6.05014758e-003 5.45215467e-003 2.06027995e-003 2.63154274e-004
      -5.39409695e-003 -1.08279695e-003 5.09336265e-003 5.02143893e-003
      -5.57822315e-003 -5.44672832e-003 -1.95852551e-003 7.87500385e-003
      1.03253564e-002 5.79207856e-003 3.04242433e-003 -8.01491458e-003
      -3.63168772e-003 1.09386258e-002 -5.10080718e-003 4.07455256e-004
      -1.29948463e-002 -9.24690219e-004 -1.03003141e-002
      -3.52792116e-003 -1.70029793e-002 4.33336524e-003 -7.14322738e-003
      -2.19117035e-003 -6.93732314e-003 8.80785193e-003 1.40509643e-002
      1.76663001e-004 -5.72499027e-003 -3.83825251e-003 2.11362261e-003
      -2.30848137e-003 -8.80456995e-003 -7.48787308e-004
      -7.49206590e-003 2.10849219e-003 -1.58903748e-003 1.21681148e-003
      -1.15993666e-002 1.27212610e-002 -1.24352798e-002 1.22640235e-002
      -5.55835292e-003 -9.96454712e-003 -9.05217510e-003
      -6.26555271e-003 -1.13083152e-002 -1.47811149e-003 5.64582227e-003
      5.63394977e-003 -8.34026653e-003 3.89210274e-003 1.46136153e-002
      -1.01818936e-004 6.91630063e-004 -2.17244327e-002 1.63352303e-002
      -4.50604362e-003 -6.10694056e-003 2.55801226e-003 -4.91207559e-003
      9.89389885e-003 -7.70225143e-003 -1.34689100e-002 -1.20837511e-002
      4.02219221e-003 -1.49289947e-002 -1.61890034e-002 5.73616661e-003
      5.67042921e-003 4.50882316e-003 9.40532330e-003 -5.43245720e-003
      -3.30779562e-003 2.51552509e-003 -9.70993005e-003 -6.80212723e-003
      -6.37202803e-003 -1.16350141e-003 -1.89175643e-002
      -3.46473441e-003 3.23209306e-003 6.86331047e-003 -1.57260452e-003
      -1.06468694e-002 -1.51535764e-003 7.16252136e-004 2.35828920e-003
      -1.02582555e-002 8.54790211e-003 8.48216005e-004 2.09618360e-002
      4.25019488e-003 -8.11935775e-003 -3.33331467e-004 -3.78518738e-003
      2.43974873e-003 -9.32542421e-003 -1.94691829e-002 -2.89590866e-003
      -3.36916163e-003 5.14546316e-003 -8.78458098e-003 -9.36381985e-003
      -1.14939995e-002 2.32139486e-003 -1.46607896e-002 1.15060424e-002
      7.50151114e-004 -1.09612774e-002 -4.76326002e-003 2.40597734e-003
      -9.26442165e-003 -3.66300531e-003 -8.69743805e-003 5.33430278e-003
      2.16894131e-003 -1.35241007e-003 -4.87111649e-003 1.16067717e-003
      2.25502346e-003 -1.43572711e-003 -3.99401877e-003 2.77520786e-003
      4.41399962e-003 -7.21387984e-003 -1.18972026e-002 -6.89611770e-005
      -1.68073457e-002 -7.45342579e-003 -3.01782100e-004
      -4.02642926e-003 7.91985262e-003 3.02696513e-004 2.54017115e-003
      -3.52106430e-003 -3.07287881e-003 -1.85790798e-003 5.21218404e-003
      2.99572898e-003 -1.17271580e-002 -3.79299233e-003 -4.06361977e-003
      1.60982762e-003 -1.71014329e-003 -5.91985509e-003 7.70965964e-003
      3.66091751e-003 2.17096191e-002 9.28961847e-004 7.57466024e-003
      -1.59438059e-003 3.10940086e-003 2.92226556e-003 -2.60736211e-003
      -3.61548807e-003 -2.18010973e-003 1.42354295e-002 1.18967658e-003
      1.83148552e-002 -1.14673665e-002 -8.70195217e-003 4.18002950e-003
      -1.17840096e-002 1.55795999e-002 -1.43453781e-003 5.28518111e-003
      6.60322653e-003 -2.74082064e-003 7.61633913e-004 -2.39989464e-003
      -3.11214826e-003 4.45633708e-003 -4.78530908e-003 5.32004191e-003
      -8.12730810e-004 5.59744239e-003 -5.89189492e-003 -1.08614853e-002
      -3.91078368e-003 -1.26101738e-002 -9.76150914e-004
      -9.07502417e-003 1.90442037e-002 7.35772029e-003 -6.56950194e-003
      -7.68665550e-003 -2.48418190e-002 -7.69741077e-004
      -1.77007914e-003 4.02462203e-003 2.30128667e-003 5.43457340e-004
      1.58642903e-002 -1.37895690e-002 7.86726945e-004 1.24117211e-002
      3.12531809e-003 8.77475600e-007 -6.77143130e-003 -1.24101155e-002
      2.67455704e-004 -7.30781956e-003 -7.87492935e-003 1.88458823e-002
      -1.46917738e-002 8.70615244e-003 -1.91671832e-003 6.18881080e-003
      -6.49487274e-003 5.76240534e-004 1.18955588e-002 -6.25086192e-004
      7.42742745e-003 -5.67300711e-003 -7.66663207e-003 9.86661389e-003
      -3.95088224e-003 7.55134504e-003 1.44754909e-002 -1.15628000e-002
      3.77942738e-003 2.04350799e-003 -4.99334605e-003 5.90227079e-003
      8.37536529e-003 -7.28209177e-003 6.78569870e-003 2.66816444e-003
      2.19579739e-003 -3.06621706e-003 2.77700514e-004 5.60281845e-003
      -3.19754472e-003 -2.06010826e-002 -4.54931194e-003
      -1.40529890e-002 -9.70865879e-003 -1.15406793e-002
      -4.94625885e-003 2.58189067e-002 -1.43301859e-002 -1.47942025e-002
      -1.95861440e-002 -1.03422150e-003 1.25074442e-002 7.43012410e-003
      1.01672392e-002 6.94754720e-003 2.16978160e-003 1.02047238e-003
      -3.84797039e-003 -1.26316887e-003 -2.04335409e-003 3.27656954e-003
      7.37954630e-003 -2.36892933e-003 2.81948503e-003 1.30298398e-002
      9.60138813e-003 -9.61378682e-003 1.59171980e-003 -6.05540117e-003
      -3.38778133e-003 -9.34202038e-003 1.73800606e-002 1.20194396e-003
      -2.19007907e-003 -1.14073344e-002 2.00167415e-003 9.65196732e-003
      -7.95296673e-003 -5.90015552e-004 1.01526408e-002 3.20166093e-003
      2.11824966e-003 -3.03362999e-002 -1.25774192e-002 1.56009337e-002
      -2.55381828e-003 5.58585394e-003 -2.72289524e-003 -5.11374464e-003
      -3.24269495e-004 -6.26916857e-003 4.95056389e-003 -2.84563145e-003
      1.09284157e-002 -1.63119950e-003 1.96412075e-004 -1.73860986e-003
      -4.84311674e-003 7.37871462e-003 -1.96706839e-002 6.15696609e-003
      9.07105580e-003 3.10683646e-003 2.45548151e-002 4.50487016e-003
      -1.58407690e-003 1.20882811e-002 -4.29026410e-003 3.43969936e-004
      -7.12011755e-003 -6.09329529e-003 3.64422775e-003 -1.08077396e-002
      -1.64907575e-002 -1.99322980e-002 7.36554060e-003 5.74212754e-003
      4.62959753e-003 -3.78133904e-004 -7.36231962e-003 3.35276779e-003
      -3.03185661e-003 1.13123385e-002 -1.03559839e-002 -1.11696636e-002
      6.18328061e-003 7.53669417e-004</_>
    <_>
      8.65318999e-003 -8.39254912e-003 -1.38593083e-002 -2.46672835e-002
      -1.00888917e-002 7.40436371e-003 -1.19771147e-002 6.33764593e-003
      7.19775213e-004 -1.60350390e-002 1.73743349e-002 1.81724131e-003
      -7.46480003e-003 3.08559760e-002 1.32187037e-002 -2.29245033e-002
      -4.02464606e-002 1.21011781e-002 1.65658910e-002 -2.35698242e-002
      -9.36695095e-003 1.85633532e-003 -1.00012012e-002 -9.87819862e-003
      1.42396176e-002 2.74476372e-002 6.63802680e-003 1.15406746e-003
      -6.94295540e-002 -4.75886464e-003 2.29656361e-002 -2.19281558e-002
      -1.87714316e-003 -1.35218240e-002 -1.46577377e-002
      -1.51891867e-002 -3.55978089e-004 1.41727859e-002 1.67619232e-002
      4.76065166e-002 1.51880197e-002 -3.34986076e-002 9.67322662e-003
      1.97052397e-002 1.29714720e-002 2.13822685e-002 5.74125256e-003
      1.01592205e-002 3.78782698e-003 -2.10135616e-003 -7.41662364e-003
      7.75731541e-003 2.31188722e-002 -3.74491978e-003 -3.01344376e-002
      -1.10981343e-002 -1.40978940e-004 1.30701857e-002 1.12949647e-002
      -2.86995862e-002 1.28750829e-002 -9.25539993e-003 1.75050169e-003
      -6.93695806e-003 5.77743817e-003 -1.73499621e-003 1.94430687e-002
      -4.54855326e-004 -2.45123956e-004 3.31973832e-004 2.02166066e-002
      -1.36229945e-002 1.07036456e-002 7.41997384e-004 3.66841280e-003
      4.18298272e-003 -8.07641633e-003 4.15282743e-003 -2.67577060e-002
      2.51168180e-002 1.13658058e-002 1.59954317e-002 -2.46249663e-004
      2.10805628e-002 -4.57989937e-003 -1.49415080e-002 -7.13936426e-003
      -2.92582847e-002 2.60340273e-002 2.16664970e-002 -7.14682741e-003
      6.25232747e-003 -1.82571951e-002 -2.87937094e-002 6.03503641e-003
      -4.61549237e-002 3.95578798e-003 -6.76056696e-003 7.39370612e-003
      4.21918230e-003 -9.12347622e-003 2.51404848e-002 2.81690788e-002
      -4.85864142e-003 -6.27707317e-003 2.07173009e-003 1.19075533e-002
      -8.88827723e-003 -4.93229553e-003 -5.22460230e-003 1.24409748e-002
      -6.89356215e-003 -1.45682460e-002 7.11230980e-003 -1.36386380e-002
      -8.20894167e-003 1.37259867e-002 -2.22320147e-002 9.41318739e-003
      1.74300130e-002 -9.25050583e-003 -9.07919928e-003 -1.32981455e-002
      -2.99741141e-002 2.16659997e-002 -3.11274752e-002 -1.63273830e-002
      6.43629767e-003 -2.61626802e-002 -1.20222187e-002 -2.12744735e-002
      -2.11825725e-002 1.07431123e-002 -2.54047830e-002 -9.30036698e-003
      -2.07224954e-002 -2.10780166e-002 1.61875840e-002 -1.43879456e-002
      1.28202811e-002 -1.71801280e-002 1.74748562e-002 -3.31877284e-002
      -2.67490919e-004 -2.51199249e-002 1.16893789e-002 2.60670274e-003
      1.62831210e-002 -1.48837334e-002 -1.11357654e-002 1.85437072e-002
      -1.49010848e-002 1.18891932e-002 1.47440508e-002 8.43595341e-003
      1.43459570e-002 1.07361758e-002 1.14530679e-002 -7.53519032e-003
      -1.11379232e-002 -2.47622281e-003 -8.80956743e-003 2.78236382e-002
      1.07036938e-003 -3.38112772e-003 -1.85579415e-002 5.12983231e-003
      -1.30114313e-002 1.24086440e-002 -8.51520279e-004 -1.53439473e-002
      -7.74047244e-003 1.82239956e-003 -1.53365908e-002 3.99813801e-003
      6.65595755e-003 -8.12766794e-003 2.23309454e-002 -6.32957555e-003
      -4.68327198e-003 1.42751234e-002 1.58227999e-002 1.80855428e-003
      -2.55019171e-003 -2.76104845e-002 -5.66618564e-003 5.51769882e-003
      2.02431437e-002 3.52394581e-002 -7.64188170e-003 -2.25612707e-002
      2.70091766e-003 1.46334143e-002 2.93021766e-003 1.40909664e-002
      -8.03092215e-003 -1.77475456e-002 -6.28501596e-003
      -1.21996477e-002 -1.66585967e-002 1.62354242e-002 -2.13691927e-002
      8.07767268e-003 -8.33652634e-003 1.90393962e-002 -2.45159050e-003
      -1.84507819e-003 -3.89861800e-002 2.31094081e-002 1.86434854e-002
      9.98492260e-003 -1.64148193e-002 6.22663414e-003 8.92553013e-003
      -1.46004390e-002 2.51444876e-002 1.78575870e-002 -2.16908995e-002
      -6.99923933e-003 6.10273937e-003 -2.63046403e-003 -5.62891699e-002
      -2.62866542e-002 1.41792456e-002 5.57389716e-003 -1.31432177e-003
      -8.83055094e-004 1.14878677e-002 1.78427380e-002 3.35275917e-003
      1.08659500e-003 1.74015258e-002 1.56935547e-002 1.12759890e-002
      6.86955405e-003 1.04375714e-002 -3.29281986e-002 -6.43508416e-003
      3.38901803e-002 -9.75342188e-003 -1.25334086e-002 1.32958256e-002
      6.22893963e-003 -4.87620570e-003 -1.12965470e-002 4.96150693e-003
      6.68965932e-003 2.20407106e-004 2.60592718e-003 -3.03276465e-003
      -1.17598113e-003 2.27545481e-002 -2.09072772e-002 3.11791548e-003
      -1.68145727e-003 7.81730376e-003 2.08655354e-002 -7.53068365e-003
      1.36732887e-002 7.84650911e-003 -1.11376336e-002 1.00189289e-002
      4.39653173e-003 -1.20463576e-002 6.58826390e-003 -2.64226855e-003
      1.82422362e-002 -7.86606409e-003 4.94633391e-002 2.09231651e-003
      1.42406058e-002 -1.08035160e-002 7.85773993e-003 -1.09895356e-002
      1.17708674e-004 1.14186655e-003 1.76391623e-004 2.12209318e-002
      -2.02315319e-002 -5.61569538e-003 -2.00039940e-003 1.23922136e-002
      -4.25010622e-002 -4.06462178e-002 2.35125632e-003 3.51707422e-004
      9.54979192e-003 -1.27467234e-002 1.04551772e-002 6.85701938e-003
      4.34646523e-003 -4.27360972e-003 9.24185198e-003 -7.24643283e-003
      1.96863078e-002 1.32639967e-002 -1.19895209e-002 -2.57930364e-002
      -2.35209567e-003 -1.21537419e-002 1.62119027e-002 1.34580610e-002
      -2.16071550e-002 -2.51560844e-003 -1.90998111e-002 2.73003075e-002
      -2.91853125e-004 -3.15300713e-005 1.94027610e-002 -1.45007633e-002
      2.59277448e-002 3.10225822e-002 6.37748884e-003 4.73898277e-003
      -3.08129610e-003 1.05273686e-002 -1.55225005e-002 1.15053821e-002
      -1.51386466e-002 -3.54646565e-003 -2.94488017e-002 2.89819203e-003
      -2.48998515e-002 -1.77960787e-002 9.07670241e-003 -1.47003308e-002
      -4.26154993e-002 1.90699045e-002 4.46974719e-003 -1.51202257e-003
      2.35384423e-002 -2.19942946e-002 -8.35098699e-003 -5.50882611e-003
      -2.46229954e-002 -1.28100533e-002 -2.34174644e-004
      -5.62719908e-003 4.28314358e-002 6.67182123e-003 -2.47756038e-002
      8.52952059e-003 -2.70996871e-003 2.15087514e-002 1.56095419e-002
      -1.49887148e-002 1.76019836e-002 -3.88284377e-003 2.31428375e-003
      -5.16311126e-003 2.88815908e-002 1.05393240e-002 -1.84824094e-002
      7.26113794e-003 6.62172493e-003 8.51156935e-003 -3.61118428e-002
      -1.05092945e-002 -1.97016802e-002 1.40771212e-003 -1.60962269e-002
      2.17097327e-002 9.73211788e-003 1.79872215e-002 -9.14914440e-003
      4.43381770e-003 -4.49162675e-003 1.65774170e-002 1.30260019e-002
      9.11738072e-003 -8.68126983e-004 8.96184612e-003 8.99513718e-003
      -1.60028804e-002 1.14763305e-002 2.03242283e-002 1.36129220e-003
      2.53612250e-002 4.51023196e-004 4.08958783e-003 -1.41503382e-002
      -2.28494089e-002 2.89529073e-003 7.86456838e-003 -2.48205699e-002
      1.03455354e-002 7.60307210e-003 2.18001637e-003 -1.29845412e-002
      -2.50637438e-002 -6.11596787e-003 1.70359705e-002 8.00920650e-003
      -1.88573431e-002 -3.57010812e-002 -1.83598958e-002
      -1.50707345e-002 1.57241337e-002 3.24793980e-002 1.09642204e-002
      -1.90800638e-003 -4.13050130e-002 -1.42859081e-002 7.40056392e-003
      1.40742259e-002 2.21250318e-002 -2.87392940e-002 3.72627154e-002
      1.08825071e-002 4.99809440e-003 2.08255593e-002 -2.53104465e-003
      9.69638675e-003 2.43196264e-003 -1.70403044e-003 2.01578215e-002
      -2.45411042e-003 -5.80596039e-003 -1.70346859e-004 1.23599507e-002
      -2.99051795e-002 9.52095084e-004 3.48554435e-003 -7.73981307e-003
      1.24520520e-002 -1.97930988e-002 4.57456289e-003 1.30222570e-002
      -8.48483015e-003 -1.22454045e-002 -1.42986104e-002
      -8.39101244e-003 -1.17606134e-004 1.37292519e-002 2.08522808e-002
      -2.90936828e-002 1.76711380e-003 2.47175060e-002 1.82475653e-002
      1.14855887e-002 2.39631962e-002 1.46999583e-002 -2.57810280e-002
      -2.31851209e-002 -2.68662145e-004 2.38999873e-002 -8.94660503e-003
      2.73460783e-002 1.45971170e-002 1.14858635e-002 2.84099067e-003
      2.08724756e-002 -5.35959750e-003 -1.90960814e-003 -1.93955551e-003
      -8.17841478e-003 -2.00541486e-004 -1.59264833e-003 2.19187001e-003
      -1.86905032e-004 7.55566871e-003 4.59160144e-003 1.18449712e-002
      -2.09072969e-004 6.71224995e-003 1.50358090e-002 -1.19933048e-002
      -2.24486627e-002 -1.95121253e-003 -6.36590226e-003 6.61834422e-003
      9.96924844e-003 1.59298982e-002 -4.50394116e-003 1.00233322e-002
      2.05729362e-002 -8.17182288e-003 -1.22372415e-002 7.47061009e-003
      -3.26021127e-002 2.09131818e-002 -1.09147690e-002 -4.70494619e-004
      1.98459113e-003 1.85304619e-002 -2.06960160e-002 -1.30562522e-002
      -3.15962620e-002 -2.99617853e-002 1.48947397e-002 1.12095149e-002
      -8.72089155e-003 -8.31747521e-003 5.83182368e-003 9.94728412e-003
      2.40480807e-002 2.15427764e-003 -1.32108538e-003 -5.05601289e-003
      -1.21016679e-002</_>
    <_>
      9.41212662e-003 -5.18497871e-003 -9.38648544e-003 -1.40169654e-002
      7.92842451e-003 1.81947032e-003 -1.36348847e-002 -9.13662557e-003
      -1.64388958e-002 -4.96691791e-003 1.24004480e-004 -1.32425157e-002
      -7.05333101e-003 4.29854495e-003 9.92367137e-003 -1.35344109e-002
      1.26424180e-002 -9.48950369e-003 1.07958829e-002 2.06928607e-003
      -1.18715568e-002 -1.28411409e-002 8.42745230e-003 2.00753030e-003
      -7.12738954e-004 7.37055950e-003 9.11200978e-003 7.90736987e-004
      2.09186152e-002 -1.09043298e-002 7.07604224e-003 2.70657931e-002
      -1.63329802e-002 -1.13219041e-002 8.15137383e-003 -1.62240802e-004
      -2.26154923e-002 1.19465711e-002 9.35753249e-003 1.24560082e-002
      1.90370320e-003 -3.54367949e-004 -1.36351828e-002 -9.43900831e-003
      -2.19395924e-002 1.65539235e-003 -9.74670798e-003 -4.28308826e-003
      1.03477063e-002 -3.13986093e-003 1.13254618e-002 4.41983575e-003
      4.62577073e-003 7.71992607e-004 -1.78026892e-002 9.88982618e-003
      -3.83041892e-003 4.63419966e-003 3.09670460e-003 -1.87292490e-002
      2.14063898e-002 -2.06852723e-002 1.53851900e-002 -3.11599812e-003
      9.18336213e-003 -1.51923299e-002 4.81896801e-003 -3.86666856e-004
      -3.11353873e-003 -5.79254562e-003 -1.46680251e-002
      -2.63241073e-003 7.62412744e-003 -6.15954341e-004 -3.37844394e-004
      -9.32192896e-004 -1.29152080e-002 7.82787392e-004 -1.80921294e-002
      7.30408868e-003 5.82695613e-003 -2.83093331e-003 1.42968846e-002
      -7.50369625e-004 -8.96924641e-003 -1.56603083e-002
      -6.97076786e-003 1.40108587e-003 8.70268419e-003 1.91586185e-002
      6.94823032e-003 -1.04208691e-002 5.58974920e-003 1.03079935e-003
      -6.88877073e-004 -1.37181981e-002 4.75749344e-004 4.39458620e-003
      3.65022570e-003 -2.86730379e-003 -1.67790661e-003 1.57158971e-002
      9.16893315e-003 6.75489660e-003 1.90420337e-002 -1.33014135e-002
      1.05447378e-002 -1.77170802e-002 6.05237437e-003 -4.20840876e-003
      -1.87363327e-002 -1.43522518e-002 -2.30873047e-005 6.00894634e-003
      -7.54984748e-003 1.27026876e-002 1.46295195e-002 6.08817860e-003
      1.38708185e-002 3.49601195e-003 -1.29704010e-002 -1.71084225e-003
      -1.01774186e-002 4.88821371e-003 9.15491115e-003 1.24464845e-002
      8.51979852e-003 -1.97427836e-003 -7.83106312e-003 -3.33115421e-002
      -5.10768825e-003 -7.23068090e-003 -1.14910966e-002 6.67798007e-003
      -5.32066915e-003 1.26650529e-002 9.26589535e-004 6.39894372e-003
      1.90787527e-004 -1.55881525e-003 7.05068873e-004 1.31209567e-002
      4.73251054e-003 -1.41977062e-002 -1.35916667e-002 8.68649408e-003
      4.31853253e-003 -4.45088046e-003 2.03687721e-003 -9.54115856e-003
      4.58489731e-003 1.61840138e-003 -5.30444272e-003 7.54556851e-003
      1.14821841e-003 7.91758113e-003 8.19181278e-003 3.42676090e-003
      8.24319292e-003 -2.06654035e-002 1.76560294e-004 -2.64399145e-002
      1.02307426e-003 -1.66326819e-003 8.07978120e-003 6.29899884e-003
      4.02070303e-003 -1.00545054e-002 -4.99471743e-003 5.40566444e-003
      -1.73958181e-003 -8.37166049e-003 1.13078544e-003 -1.85536314e-003
      -1.16273900e-002 6.13963231e-003 -5.73139521e-004 -1.70740448e-002
      -2.32118857e-003 -9.22442507e-003 -2.75751925e-003
      -3.24984291e-003 -3.83977982e-004 -9.68623627e-003
      -3.34770675e-003 -8.82767979e-003 -1.56299062e-002 6.22141361e-003
      2.58029886e-002 7.43349176e-003 -7.74854468e-003 -1.90720567e-003
      -1.48137845e-003 -3.23005137e-003 6.30686479e-003 -1.25154108e-002
      9.82512720e-003 -3.93842394e-003 -2.90808873e-003 1.48825068e-003
      -9.94923525e-003 2.82508321e-003 -1.23323901e-002 5.71338460e-003
      -9.19144135e-004 -1.06048808e-002 2.04237215e-002 -1.09010609e-002
      -6.77886792e-003 1.44567303e-002 6.04112586e-003 -4.47345618e-003
      -5.20590832e-003 -3.02166864e-003 -1.14285294e-003 6.39205286e-003
      1.76120978e-002 -1.20646795e-002 8.49259738e-003 -1.12871109e-002
      -1.16015775e-002 -1.18870139e-002 -1.17257759e-002 2.66527082e-003
      -1.31832846e-002 7.55252549e-004 -1.81703479e-003 5.58226509e-003
      -5.60862804e-003 -3.36661167e-003 1.15118688e-003 8.51634832e-004
      -7.68064335e-003 -1.48596719e-003 -8.16710666e-003 4.58808523e-003
      -1.82788558e-002 5.45454491e-003 1.41107067e-002 1.86743517e-003
      1.33202167e-003 7.17365695e-003 -1.76487193e-002 -1.40029900e-002
      -1.04053691e-002 1.33943337e-003 -1.09145185e-003 2.30363058e-003
      -1.40864523e-002 -2.20087823e-003 3.62344872e-004 -2.92990124e-003
      1.88793847e-003 -9.40954487e-005 2.60050711e-003 1.31270066e-002
      -1.05871018e-002 5.12810284e-003 2.31080782e-002 -1.91958304e-002
      3.07074399e-003 6.99056173e-003 1.93902180e-002 3.16177495e-003
      -1.33021902e-002 9.46259499e-003 1.45343300e-002 -2.07653246e-003
      1.81164797e-002 -1.90657172e-002 1.35772442e-003 -1.89598408e-002
      -1.11005083e-003 7.27200089e-003 7.88438774e-004 1.34100514e-002
      -1.65474489e-002 -1.22609292e-003 -2.43492587e-003 2.21124082e-003
      9.13289608e-004 -3.85139021e-003 -1.19607281e-002 7.65203917e-003
      -7.77215278e-003 -9.54894256e-003 5.10993460e-003 -3.44065949e-003
      -5.80152869e-003 -2.16492750e-002 4.68030712e-003 -2.68218089e-002
      3.69998370e-003 -1.51289310e-002 -5.95500274e-003 4.99676960e-003
      -8.86715541e-004 -2.63188574e-002 6.23951852e-003 -1.33115286e-003
      -1.04449177e-002 -3.80023965e-003 -2.59305770e-003
      -1.23236226e-002 -1.85794439e-002 -6.50214730e-003 1.21489039e-003
      -5.25204511e-003 4.88285022e-003 9.63176310e-004 -2.82764621e-003
      9.62783862e-003 -2.84890691e-003 -9.95314773e-003 6.34123245e-003
      -3.13694542e-003 -7.52580771e-003 3.05086747e-003 -2.83089280e-002
      -2.02465220e-003 -1.97387375e-002 5.48683153e-003 -6.28039334e-003
      2.68308329e-003 4.25618468e-003 -1.10514704e-002 -5.97545318e-003
      9.98916384e-003 3.21666896e-003 1.05718384e-002 1.13326414e-002
      -2.14505917e-003 8.61068629e-003 8.44561681e-003 -4.23267996e-003
      -2.17323173e-002 -3.02322977e-003 -1.36441994e-003 1.40869105e-002
      4.61006508e-004 -2.68792901e-002 -6.44093845e-003 -2.81613530e-003
      1.18920468e-002 6.12360518e-003 1.53821688e-002 7.89480284e-003
      -8.13303608e-003 -7.04467809e-003 2.63287523e-003 2.17991741e-003
      -1.70678645e-002 -2.60040327e-003 2.00273586e-003 4.79088817e-003
      -2.84731435e-003 7.58048287e-003 4.72960994e-003 -1.39352428e-002
      -1.10601392e-002 -5.65177388e-003 -1.35507522e-004 2.11724509e-002
      1.67058862e-003 4.65095183e-003 7.89678749e-003 -2.55045705e-002
      5.89339528e-003 -5.79931727e-003 4.83907107e-003 1.67370774e-002
      1.23646865e-002 1.63595434e-002 2.57813814e-003 2.00104760e-003
      2.00967584e-002 2.01157341e-003 7.99757894e-003 5.37083531e-003
      5.32216253e-003 1.07709598e-003 -8.79954267e-003 -5.05832303e-003
      5.88173419e-003 -1.49236554e-002 8.71236343e-003 9.23926570e-003
      7.61684356e-003 1.15940459e-002 -3.45797613e-002 8.56822357e-003
      4.25570557e-004 4.59976681e-003 -1.75570901e-002 -1.76061820e-002
      -1.31405331e-003 -5.43272309e-003 -1.70366676e-003 1.66347008e-002
      -1.03508011e-002 8.82432982e-003 -1.23704225e-002 -2.00022012e-002
      5.78151317e-003 5.03819669e-003 1.13282437e-002 -6.46898570e-003
      1.35247095e-003 4.96261381e-003 7.88682140e-003 -8.99184123e-003
      1.41065028e-002 -7.41118158e-004 1.03903776e-002 -1.95586635e-003
      1.86792153e-004 -1.95207596e-002 1.15920892e-002 4.37967107e-003
      1.05093606e-002 -2.01781560e-002 5.13462629e-003 5.39716240e-003
      5.41768502e-003 -1.52407811e-004 1.25251636e-002 -3.48948454e-003
      1.10929576e-003 -1.07103772e-002 -6.22058101e-003 -3.46836098e-003
      -1.04141291e-002 -4.31343075e-003 -3.66681116e-003 7.78672472e-003
      -5.93320234e-003 6.42444985e-003 8.65934044e-003 5.49470587e-003
      8.60905927e-003 3.83434142e-003 -1.83926706e-004 -7.38417637e-003
      -1.20001957e-002 -1.81187000e-002 2.06332915e-002 -2.66956678e-003
      7.46023562e-003 5.54055208e-003 7.01352861e-003 -1.66414622e-002
      2.24638917e-003 1.00271748e-002 1.15759466e-002 -6.15004823e-003
      -7.44226342e-003 -6.94811763e-003 -6.54257042e-003 1.54050672e-002
      -5.98243088e-004 4.26645437e-003 -1.05245598e-002 2.59797234e-004
      -6.83457591e-003 1.45630334e-002 3.66389588e-003 -1.25776157e-002
      1.22181640e-003 -8.24788399e-003 -4.01994120e-003 -9.74216871e-003
      -2.30706809e-003 9.87596158e-003 -7.24265305e-003 5.49904536e-004
      1.23598538e-002 -9.78540120e-005 -1.96503056e-003 -9.48825944e-003
      7.09137693e-003 1.15915353e-003 -7.49474019e-003 -9.37767699e-003
      2.03575683e-003 -2.34982837e-003 -4.50864295e-003 9.48019791e-004
      -1.14157228e-002 7.72137754e-003 1.71661228e-002 1.77347884e-002
      -1.01456428e-002 -6.89331908e-003 -6.50603324e-003
      -7.50056934e-003 5.38400002e-003 2.72402354e-003 -1.56762712e-002
      -6.39761239e-003 -7.55760213e-003</_>
    <_>
      1.04139056e-002 7.34420912e-003 7.09434273e-003 -1.24639850e-002
      1.28586339e-002 7.61826243e-003 2.02339627e-002 4.85734985e-004
      3.75155406e-003 -5.63552184e-003 2.33872840e-003 2.43308377e-002
      -1.50490468e-002 -2.11000443e-002 -1.79991554e-002
      -1.01584587e-002 -8.28370824e-003 -1.93304960e-002 1.57047044e-002
      1.21848891e-002 -1.46665750e-002 -1.72137935e-002 -1.12848552e-002
      5.17270528e-003 -1.66885313e-002 1.00986613e-002 -9.57403146e-003
      2.21629324e-003 2.11236868e-002 7.03364331e-003 2.10084300e-002
      -1.03910938e-002 1.29274689e-002 -1.37250144e-002 3.27190608e-002
      5.09415427e-003 -2.03177836e-002 1.76336672e-002 7.38496380e-003
      2.69376170e-002 -8.44265055e-003 -2.16043238e-002 1.22071980e-002
      -1.13468356e-002 -4.96734399e-003 -2.16194335e-003
      -4.78155445e-003 -6.62061153e-003 -3.70376860e-003
      -1.53105119e-002 -1.06819076e-002 -1.26261795e-002
      -6.31527649e-003 -1.54629480e-002 -1.91045012e-002 1.23423978e-003
      5.58555266e-003 -4.86300420e-003 1.29819009e-002 -1.38604501e-002
      1.52352601e-002 -1.43555310e-002 -1.38803408e-003 1.92504900e-004
      -8.65145121e-004 2.02008504e-002 2.53703222e-002 -1.05729094e-002
      -6.41687028e-003 -4.67829732e-003 -6.00542314e-003
      -5.92487492e-003 -4.21872362e-003 -2.58923955e-002 1.03667844e-003
      4.41281497e-003 6.78921351e-003 -1.42580885e-002 -2.49971217e-003
      -1.38859851e-002 3.84072936e-003 -1.55687435e-002 7.73672713e-004
      -2.22694371e-002 -2.17185193e-003 -2.19759326e-002
      -1.09890969e-002 2.22047027e-002 -1.32007396e-003 -6.92559592e-003
      -1.34738432e-002 -7.82943610e-003 -1.29800914e-002
      -3.03950589e-002 -3.35565093e-003 -2.96893138e-002 1.19781997e-002
      -3.97393014e-003 5.29149128e-003 2.47148704e-002 6.48871344e-003
      -2.74088676e-003 1.37852430e-002 5.86493453e-003 -4.04071948e-003
      2.27591954e-002 -2.93679107e-002 -5.67440689e-003 3.41499201e-003
      -2.47502904e-002 1.27325971e-002 -4.39575873e-002 -3.24690640e-002
      -4.78379056e-003 -4.10148920e-003 2.72422656e-002 3.40034440e-002
      6.91917399e-003 2.13257130e-002 2.39470024e-002 -4.07431135e-003
      -2.49141995e-002 4.68089851e-003 1.52961258e-003 3.70282605e-002
      6.69835927e-003 -5.47810225e-003 2.50598155e-002 -1.90015347e-003
      -4.44234395e-003 -2.78319977e-002 -1.90901514e-002
      -9.44565888e-003 1.92000922e-002 4.03588545e-003 -1.60564436e-003
      1.11712003e-002 2.01608334e-002 -4.59943190e-002 6.62701996e-003
      -4.96101286e-003 -2.07997635e-002 1.18500395e-002 5.13562374e-003
      -3.28696072e-002 -4.58978862e-003 7.50329578e-003 9.91645386e-004
      -2.88660768e-002 -2.24237554e-002 -1.10166427e-002
      -5.40763931e-003 3.36770341e-003 -2.62874295e-003 1.59861613e-002
      5.19972201e-003 4.91446396e-003 1.59485377e-002 6.53347408e-004
      -1.94196347e-002 -2.58305874e-002 1.03188176e-002 3.39606032e-003
      1.71130709e-003 1.34043144e-002 2.44101486e-003 -1.25623103e-002
      -1.53648462e-002 -7.55203236e-003 -1.10181021e-002
      -1.68553852e-002 -4.28113155e-002 2.04750290e-003 8.06800649e-003
      -1.74688513e-003 -1.06550753e-002 2.19883099e-002 2.22576410e-003
      -5.03195729e-003 8.96804780e-003 -1.13885300e-002 -1.22037735e-002
      6.77050930e-003 -1.11410907e-002 9.43344738e-003 -2.89962105e-002
      1.95626840e-002 -3.67381377e-003 3.00454609e-002 1.92778483e-002
      -6.31827442e-003 -1.33555094e-002 2.04460323e-002 -5.41152945e-003
      9.25498176e-003 7.51042273e-003 1.99019760e-002 1.41852563e-002
      -1.70955695e-002 -1.33398722e-003 -1.39654451e-003
      -3.44332494e-003 -5.58217568e-003 -1.08916108e-002 5.41948574e-003
      1.38051342e-002 2.71457601e-002 -3.43211554e-002 -1.16467364e-002
      4.56745736e-003 2.60641705e-003 -6.99835503e-003 -1.50832953e-002
      -2.48549897e-002 -1.18081635e-002 -3.02528054e-003 4.37375717e-003
      -1.93314571e-002 -3.75929251e-002 -1.91906337e-002
      -1.78550072e-002 -3.29679660e-002 -4.89827581e-002
      -3.35197104e-003 3.37544153e-003 -8.45168810e-003 1.56916585e-002
      1.78428963e-002 7.35108135e-003 -1.93492714e-002 -2.00433359e-002
      1.40009997e-002 -6.18877681e-003 -1.74780488e-002 -3.64399957e-003
      3.56771089e-002 -1.38742095e-002 -3.08194314e-003 2.16027200e-002
      4.01175907e-003 -3.75701189e-002 5.53339487e-003 -1.41243953e-002
      -6.18442520e-003 -3.35728228e-002 -4.41580312e-003 8.25121719e-003
      7.59847974e-003 4.84751491e-003 -1.16684432e-005 1.33370906e-002
      5.78045566e-003 -1.47116352e-002 7.03526428e-003 -8.88359409e-006
      -3.95914586e-003 -1.22860260e-003 2.87157227e-003 2.43527573e-002
      -2.45149881e-002 1.60671445e-003 1.47063993e-002 -6.47418317e-004
      -6.89707417e-003 1.92353297e-002 3.89092974e-003 -6.76320121e-003
      9.84949060e-003 7.10647507e-003 -4.01001945e-002 1.25005366e-002
      3.51104187e-003 4.41320753e-003 1.26314489e-002 1.44977414e-003
      8.70631449e-003 -7.18204305e-003 2.59460732e-002 -1.49457389e-003
      -1.80233251e-002 8.85947514e-003 5.39452676e-003 -4.44320682e-003
      -1.80405229e-002 -8.47173482e-003 -1.44131137e-002
      -1.35553814e-002 -4.21795296e-003 1.45689920e-002 -1.93414483e-002
      -7.08405045e-004 -2.14630794e-002 -1.73382577e-003
      -1.17081031e-002 7.30609288e-003 4.10577515e-003 4.90102824e-003
      9.56161413e-003 -6.87263999e-003 -6.56203972e-003 6.04179082e-003
      -2.88785882e-002 -3.29237208e-002 -1.29074883e-002
      -3.45790125e-002 -1.07570188e-002 1.76335815e-002 -1.31439567e-002
      7.10904039e-003 4.20107739e-003 -8.32847843e-004 3.48361470e-002
      -9.72466730e-003 2.45012273e-003 4.70608287e-003 1.80431700e-003
      6.84280694e-003 7.68159982e-003 -5.04761189e-003 -6.16830308e-003
      -2.01629158e-002 1.24065047e-002 -1.09626316e-002 -7.73927057e-003
      1.68810133e-002 -2.46673170e-002 4.98447847e-003 2.61211880e-002
      1.54434443e-002 1.18665062e-002 3.65105942e-002 8.88715498e-004
      2.75290273e-002 -9.01330786e-004 1.73345804e-002 -5.46257198e-003
      2.55165175e-002 -3.28985453e-002 1.21318167e-002 2.91794110e-002
      -8.28964636e-003 -4.08221828e-003 1.26167852e-003 4.17048670e-003
      -8.04036739e-004 8.65324587e-003 8.69185012e-003 -9.54482798e-003
      -6.65220665e-003 5.63139375e-003 3.83933890e-004 5.86323964e-004
      1.79312769e-002 5.16745728e-003 2.38617286e-002 5.16264979e-003
      4.89841448e-003 -1.40340561e-002 2.21607136e-003 -4.75761946e-003
      -3.39431479e-003 7.38192059e-004 1.43361371e-002 -1.09001547e-002
      -2.71380581e-002 -1.04335332e-002 -6.62054541e-003
      -1.02584315e-002 -6.30984083e-004 -1.34442383e-002 4.63843485e-003
      1.90653447e-002 2.31050905e-002 -2.34891735e-002 1.17011310e-003
      4.50308025e-002 2.96099484e-003 1.49580827e-002 -3.15176835e-003
      2.39760522e-002 5.18138753e-004 -3.35753672e-002 -6.44333995e-005
      -1.34024089e-002 -2.63239723e-002 1.11780548e-002 5.04047144e-003
      2.78020781e-002 1.11335013e-002 1.46096395e-002 -2.32824814e-002
      -1.01772044e-002 3.65265692e-003 -3.48695292e-004 -1.24799721e-002
      -8.52478202e-003 -2.55193263e-002 2.00045248e-003 2.48176698e-002
      1.36612616e-002 5.38629340e-003 -2.46487204e-002 -1.00411838e-002
      2.16387566e-002 -2.54038983e-004 8.19349755e-003 -1.11562600e-002
      -9.49127192e-004 1.97759550e-002 1.55214211e-002 -1.11387093e-002
      -4.84614028e-003 7.90694915e-003 2.25064103e-002 -2.69247894e-003
      -5.25715854e-003 -3.09759863e-002 -6.87157735e-003
      -2.35014334e-002 1.33605266e-003 1.51140513e-002 -1.55820535e-003
      2.41455529e-003 1.74714122e-002 5.15722064e-003 2.88716089e-002
      -3.10611236e-003 2.48606596e-002 5.58761414e-003 -1.50495917e-002
      1.29668666e-002 -7.03123352e-003 -2.04821769e-002 9.79308318e-003
      -8.93417094e-003 -2.96422243e-002 -1.06865866e-003
      -3.67848091e-002 -7.42043136e-003 1.03749027e-002 6.00185199e-003
      -9.70963016e-003 3.94407101e-003 -1.32060442e-002 -1.22790039e-002
      6.72624307e-003 -9.82467271e-003 -1.49861304e-003 2.44154353e-002
      9.56031901e-004 4.73884307e-003 2.90659140e-004 -9.69451037e-004
      -1.44129479e-002 6.80041732e-003 -2.60854457e-002 -1.79069526e-002
      8.10741913e-003 2.84850542e-002 -7.88796227e-003 3.32170655e-003
      -2.26252247e-002 3.53951775e-003 -7.15794181e-003 -1.20861083e-002
      -6.28324924e-003 -3.39751923e-003 4.60444391e-003 -1.68610748e-003
      -2.49762321e-003 -1.00100311e-002 2.95383073e-002 3.21898423e-003
      -3.45847011e-002 2.56612059e-002 5.11804922e-003 3.90368770e-003
      -3.57298274e-003 -2.09776834e-002 2.65117604e-002 7.44751608e-003
      1.59755088e-002 2.60188687e-003 1.48306051e-002 2.92149503e-002
      -3.85791762e-003 -8.01388733e-003 -6.20993227e-003 1.10011529e-002
      5.12740947e-003 -4.85054823e-003 -2.31818249e-003 2.37769596e-002
      7.56327854e-003 4.77792369e-003 1.36704091e-002 8.89804680e-003
      -8.87731928e-003 -1.12407273e-002 -1.42173609e-002</_>
    <_>
      1.08748060e-002 -3.09215044e-003 -8.21821112e-003 -6.39736280e-003
      -1.47946142e-002 1.43325748e-003 -2.53829942e-003 -3.35780228e-003
      -3.60688730e-003 -8.97867722e-004 3.31896520e-003 3.79075948e-003
      -1.02420605e-003 -2.50610034e-003 1.85068685e-003 -1.29295113e-002
      -2.46001519e-002 1.24179991e-002 -4.86259209e-003 -2.42818007e-003
      -2.18331553e-002 -1.87129632e-003 -9.20581631e-003
      -3.90637619e-003 1.01248594e-002 1.14062726e-002 -2.13898392e-003
      -4.86357458e-004 -4.51936712e-003 2.47225561e-003 2.09729541e-002
      1.69931836e-002 -1.87114300e-003 5.81557862e-003 3.04277550e-004
      9.46943555e-003 -1.71438623e-002 -3.34304408e-003 1.95641140e-003
      1.05633866e-002 -4.38342802e-003 -1.65665504e-002 3.96911957e-004
      -8.87431111e-003 -8.76326393e-003 -7.20789190e-003
      -8.33634287e-003 -8.26383999e-004 -2.77981162e-003 1.24100745e-002
      2.34387000e-003 9.48056299e-003 3.93576361e-003 -5.60373999e-003
      -1.29480381e-002 -3.76626779e-003 -2.74220146e-002 6.96008280e-003
      1.39540555e-002 5.67650422e-004 3.03554125e-002 -5.17312717e-003
      1.08334012e-002 -4.74591926e-003 -1.29627576e-003 5.14121435e-004
      1.74360182e-002 1.82293053e-003 3.40466341e-003 9.82331019e-003
      2.28737947e-003 4.80655069e-003 -1.50441974e-002 4.94353101e-003
      2.59757368e-003 -2.11305311e-003 -8.48623365e-003 -3.13047064e-003
      -1.17451688e-002 -2.39349203e-003 3.32626095e-003 -1.47229555e-004
      -4.09139413e-003 6.82411250e-003 -7.91226048e-003 -1.23952134e-002
      -6.96515944e-003 -1.12681249e-002 8.23173486e-003 1.38730044e-002
      -1.45764947e-002 -9.68077779e-003 -5.72717329e-003
      -5.17302239e-003 -1.80025981e-003 -1.79246385e-002 6.02677977e-003
      -1.55336154e-003 -9.62832198e-003 1.23550594e-002 3.46765009e-005
      1.39140617e-002 9.95803438e-003 1.59301888e-002 1.42795197e-003
      -3.02356780e-002 -1.15825878e-002 -2.12248024e-002 1.42502983e-003
      9.37951542e-003 -1.83647834e-002 -3.01692784e-002 -1.70803778e-002
      -4.74896660e-004 -6.98188460e-003 -8.06167815e-003
      -2.74052890e-003 7.04952003e-003 1.61659699e-002 1.00380853e-002
      -2.05941554e-002 -5.46325371e-003 9.72924381e-003 4.08081134e-004
      9.41924565e-003 5.04180463e-003 1.64374779e-003 1.11150397e-002
      -3.64332017e-003 -2.34215595e-002 -2.11421540e-003 1.09840175e-002
      9.13193740e-004 -2.69027753e-003 -2.46440573e-003 7.30683387e-004
      1.14266174e-002 1.88234504e-002 -8.27093702e-003 1.50041971e-002
      -9.64720268e-003 3.12236813e-003 -2.59161484e-003 -6.35853794e-004
      -8.21509771e-003 1.31683126e-002 6.79216674e-003 -2.58975662e-004
      -1.16181169e-002 -9.73473210e-003 7.44050741e-003 -1.35058211e-002
      5.53837279e-003 -1.48985414e-002 2.17918400e-002 -7.92213809e-003
      1.38122402e-003 2.36691814e-003 4.71056765e-003 -8.41523148e-003
      -3.74270906e-003 -3.89943738e-003 3.08319251e-003 4.74228244e-003
      2.62572872e-003 -3.92733095e-003 5.19250846e-003 -5.58423111e-003
      1.37782618e-002 -1.89558826e-002 -7.72935164e-004 -1.58908125e-002
      -1.07967481e-002 4.58731176e-003 -2.18830351e-003 1.34646231e-002
      2.10683094e-003 7.53058773e-003 -8.83612130e-003 2.84802890e-003
      2.71370023e-004 -5.06071467e-003 3.29498347e-004 -1.29546402e-002
      4.13531344e-003 3.06707167e-004 1.22070871e-002 1.55934431e-002
      2.19400749e-002 -1.20670162e-003 5.27851470e-003 1.26446271e-002
      3.65525344e-003 -7.24076817e-004 2.19960092e-003 -4.22305614e-003
      -2.98518362e-003 -7.75240827e-003 6.11626019e-004 -1.37101719e-002
      8.49147048e-003 -1.65752377e-002 -9.02314205e-003 -1.23392213e-002
      -1.82298047e-003 -4.87629557e-003 -5.95442718e-003
      -1.73918512e-002 -3.66949057e-003 1.33868335e-002 8.99082422e-003
      8.12348328e-004 7.49217067e-003 1.65273983e-003 -1.96415856e-002
      6.55978313e-003 1.10159870e-002 -2.39534006e-002 -7.35306181e-003
      -1.94362570e-002 -1.16066337e-002 1.49734726e-003 -6.30898727e-003
      7.94625201e-004 1.75040262e-003 -1.54617708e-002 3.09333042e-003
      1.01959752e-002 -7.77516002e-003 -3.32870783e-004 1.86694763e-003
      -1.89741235e-003 -4.76566795e-003 -1.25140715e-002
      -9.43225157e-003 4.28395520e-004 -2.07878612e-002 -1.09192654e-002
      1.60756037e-002 7.29145017e-003 5.93886245e-004 6.85556885e-003
      4.26591001e-003 8.10192619e-003 -6.09001564e-003 2.56766391e-004
      6.54732634e-004 6.39166450e-004 -6.73513021e-003 -7.41189299e-003
      -4.10546688e-003 -2.41649919e-003 -1.97494635e-003 9.94975772e-003
      -1.63098518e-003 1.10658742e-002 4.92472015e-003 4.87268949e-003
      1.05186868e-002 -3.63421859e-003 1.34760700e-002 1.61536410e-002
      9.98241175e-003 4.16785432e-003 1.07448660e-002 5.91042545e-003
      1.83734158e-003 -3.27653717e-003 -8.54731724e-003 -1.97375976e-002
      2.66439025e-003 -1.19685838e-002 -3.73017485e-003 9.29617556e-004
      -6.38552383e-003 1.00535080e-002 -1.02744885e-002 1.36176571e-002
      -9.00432875e-004 -1.31151825e-002 6.66767219e-003 -3.51326744e-004
      -2.07394478e-003 1.24227135e-002 -4.72358242e-003 6.49843691e-003
      5.60326444e-004 -2.88579077e-003 7.26070430e-004 -2.86137164e-002
      1.88539072e-003 1.55116722e-003 6.06918335e-003 2.25734781e-003
      1.02339126e-002 5.70158055e-003 7.78477080e-003 -1.93183571e-002
      -6.74788980e-003 -4.05623997e-003 3.55607970e-003 -2.06172783e-002
      -1.22620510e-002 -4.49889479e-003 -6.81358203e-003 2.73960090e-004
      -2.36553396e-003 -8.06292333e-003 -1.09199621e-002 1.63266365e-003
      -7.58946268e-003 1.85771268e-002 -9.53391078e-004 -3.44878412e-003
      -6.04748074e-003 9.56159085e-003 -6.16847258e-003 9.28530656e-003
      6.40389416e-003 -1.87616493e-003 1.21863105e-003 -1.11093954e-003
      -1.52679291e-002 1.07650876e-005 9.14674718e-004 4.61832795e-004
      -7.04936171e-003 5.20943291e-003 4.68933862e-003 5.49494289e-003
      1.24718482e-003 -1.41581306e-002 1.16883600e-002 -5.77283732e-004
      6.59481063e-003 1.84037932e-003 8.37901025e-004 -1.71343982e-002
      6.93039736e-003 2.48584207e-002 -5.93911950e-003 6.90740580e-003
      8.15089885e-003 1.52053321e-002 4.84783947e-003 4.33668494e-003
      -9.71523987e-004 -2.44349358e-003 8.15418456e-003 -8.05707707e-004
      -9.26952623e-003 -9.18507576e-003 4.78586135e-003 7.18037877e-003
      -1.94955699e-003 -1.64272869e-003 -4.57200734e-003
      -3.38220084e-003 -2.15245690e-003 1.13385897e-002 4.15669661e-003
      1.36859925e-003 6.55836007e-003 -1.72851817e-003 4.10152413e-003
      -1.54316751e-002 -6.25759736e-003 1.32104906e-003 -5.82345296e-004
      -5.39886253e-003 -1.48473661e-002 1.11167077e-002 7.89430644e-003
      -2.05681287e-002 -2.67299148e-003 1.36060193e-002 -2.90057180e-003
      1.62816867e-002 9.33198538e-003 5.03662042e-003 -1.64929088e-002
      2.01130562e-004 7.82871991e-003 -1.19403722e-002 -1.79685745e-002
      -9.35656775e-004 1.00601222e-002 1.43101513e-002 5.67727070e-003
      -1.18379379e-002 -8.39909445e-003 5.13456715e-003 2.61571794e-003
      -8.20306968e-003 -1.77817382e-002 4.75720706e-004 -8.29684734e-003
      1.11886552e-002 9.26915463e-003 -7.72136438e-004 1.86905032e-004
      -1.54966572e-002 -2.82803718e-002 5.74454432e-003 5.41156158e-003
      6.50972920e-003 -1.92203969e-002 -2.15426713e-004 1.58932414e-002
      -5.95917832e-003 -1.44714583e-002 9.24713537e-003 -2.37327926e-002
      -4.05278336e-003 -3.77001241e-003 -4.32704296e-003
      -6.18787669e-003 2.62783533e-006 3.39590106e-003 -5.22356387e-003
      -1.60613041e-002 2.28589913e-003 9.89323389e-003 9.16047022e-003
      1.13042034e-002 -2.82575376e-002 -5.19292941e-003 7.05253379e-003
      -2.71509215e-002 -3.11013144e-002 3.03228525e-003 -2.03380268e-003
      -1.20711960e-002 1.51987644e-002 -4.25025495e-003 -2.90255086e-003
      1.97048448e-002 1.58694908e-002 -4.36977902e-003 1.05880375e-003
      2.01480407e-002 4.10706212e-004 -6.43093465e-003 -1.86564922e-002
      7.88914505e-003 3.54603725e-003 -1.82100665e-002 -3.83764564e-004
      9.44739394e-003 7.56358611e-004 6.32767519e-003 2.20664567e-003
      2.14359746e-003 4.42248397e-003 -3.95104382e-003 -1.04045132e-002
      3.99694138e-004 -3.47187044e-003 -2.59545399e-003 2.82242987e-003
      1.19840875e-002 -1.67777657e-003 -2.32424866e-003 -1.95903867e-003
      2.56483513e-003 3.94870248e-003 -3.83467670e-003 -1.92313921e-002
      2.66465056e-003 2.02976447e-003 1.19263574e-003 1.03095397e-002
      2.11086404e-003 -1.87885687e-002 -1.68017286e-004 1.57308467e-002
      8.99533741e-003 -6.79750368e-003 -6.06368016e-003 -3.34483664e-003
      7.26122176e-003 4.13855491e-003 -1.64741818e-002 -3.46803968e-003
      7.70497927e-003 4.05002851e-003 -3.03002819e-003 1.51105067e-002
      1.07251038e-003 1.29447016e-003 -2.71931151e-003 -1.92823317e-002
      -1.98332546e-003 1.03169363e-002 -1.53110269e-003 9.80053004e-003
      -4.62011551e-004 6.30044425e-003 -3.44318897e-003 -4.09786589e-005</_>
    <_>
      7.09071755e-004 -2.94158459e-002 -1.18742157e-002 -1.21634863e-002
      1.26947481e-002 -9.08301491e-003 -5.73318312e-003 -6.12715818e-003
      1.54424552e-002 5.51375374e-003 2.10538332e-004 1.10067790e-002
      -1.69292931e-002 1.13865240e-002 -1.02859549e-002 -1.04751661e-002
      1.98513642e-003 -1.37028554e-002 1.16610937e-002 -6.97615650e-003
      -6.74598210e-004 -1.82285681e-002 2.09759199e-003 -6.49699301e-004
      -2.69968819e-004 1.02912413e-003 6.48880086e-004 -3.85978119e-003
      1.58726443e-002 -2.56056748e-002 -1.23707308e-002 2.69216858e-003
      5.49116451e-003 -1.67275667e-002 8.81234836e-003 4.64466680e-003
      -1.98608022e-002 1.87700964e-003 2.92708855e-002 2.62759794e-002
      -5.28166955e-003 -6.41836692e-003 -2.76855985e-003
      -2.88347877e-003 -6.43879315e-003 -6.65006228e-003 1.91257019e-002
      1.95721816e-002 -2.00206786e-003 -1.87740254e-003 2.99823750e-003
      3.00812977e-003 7.30587309e-003 7.29041779e-003 -1.66223329e-002
      1.20179709e-002 6.91346079e-003 -2.19907495e-003 5.37455431e-004
      -1.30737498e-002 1.55886319e-002 9.30140819e-003 -4.06186329e-003
      -1.38148461e-002 -1.12681594e-002 -1.76776596e-003 3.73251666e-003
      6.06671441e-003 -1.07837096e-002 -4.58410056e-003 7.05214217e-004
      5.36167203e-003 5.02313115e-003 -1.35517176e-002 7.13464292e-003
      1.65332516e-003 -4.60965745e-003 4.54475638e-003 -2.36390159e-002
      -2.48356219e-002 1.69934798e-002 -1.52496865e-003 2.26907874e-003
      -3.88505147e-003 -1.75588839e-002 -1.48024997e-002
      -1.15496339e-002 3.60557460e-003 1.45052429e-002 -3.55332973e-003
      2.09105061e-003 1.94306171e-003 -6.29814295e-003 -2.00850777e-002
      -1.59727130e-002 -1.97786484e-002 1.45592187e-002 -1.64496768e-002
      -3.31369927e-003 -1.03426445e-003 3.68005410e-003 3.51124182e-002
      1.38827171e-002 3.26531171e-003 1.81654654e-002 -5.58761507e-003
      -6.03668578e-003 -1.87727716e-002 -4.40198462e-003
      -1.54937757e-002 -1.30054941e-002 9.88691463e-005 -2.10546087e-002
      -1.90757345e-002 1.24228187e-004 9.93258785e-003 2.47455593e-002
      1.66501757e-002 1.76990777e-003 4.04682243e-003 -2.51894370e-002
      5.37965959e-003 -1.62929092e-002 6.63903076e-003 1.20581156e-002
      2.55344110e-003 -2.02533565e-002 1.10804215e-002 1.11225573e-002
      -6.49391208e-004 -1.90524161e-002 -1.07908621e-002 2.18980247e-003
      -8.11228156e-003 -9.06719267e-003 -4.57102759e-003 2.52620713e-003
      1.07920337e-002 1.03272814e-002 7.34077673e-003 1.29584903e-002
      9.21564735e-003 2.33788658e-002 -1.22764474e-002 -2.01832540e-002
      1.16768293e-002 5.33922284e-004 1.44478492e-002 -5.47426566e-003
      1.76048710e-003 -4.30278620e-003 5.76551631e-003 -6.82611857e-003
      1.24501158e-003 9.88787971e-003 1.09769572e-002 1.14092529e-002
      4.20120824e-003 -8.10393307e-004 -2.26947833e-002 -4.58560046e-003
      -4.17379290e-003 4.67835227e-003 1.48354890e-002 2.35846732e-002
      -1.02921529e-002 -4.58739791e-003 -1.16654700e-002
      -1.18817957e-002 -1.32043089e-003 6.77798962e-005 -8.78563523e-003
      -1.59449829e-003 5.53914718e-003 -9.34432819e-003 8.61105695e-003
      5.59022510e-003 -2.12990912e-003 -7.20600924e-003 -3.20466468e-003
      6.14371384e-003 1.09518860e-002 -1.15986932e-002 8.37003626e-003
      -1.23899877e-002 -1.46749467e-002 3.41963721e-003 -1.31060707e-003
      2.94260532e-002 1.55691998e-002 -1.26224598e-002 -1.07950242e-002
      1.16320122e-002 1.59036294e-002 1.60413254e-002 7.86196347e-003
      1.30265746e-002 1.01306345e-002 -7.42123369e-003 -1.32115092e-003
      -8.22415762e-003 -5.28917182e-003 3.11140623e-003 7.85563421e-003
      2.14914493e-002 -4.51150863e-003 -6.19008299e-003 -3.63283493e-002
      -5.05080028e-003 8.32319539e-003 1.14240786e-002 1.06459754e-002
      1.35179516e-003 1.58388633e-004 8.53532366e-003 7.35025341e-003
      6.74170768e-003 -5.79293864e-003 8.34977441e-003 -7.31289340e-003
      -8.22159741e-003 -4.15613353e-002 -3.09796147e-002
      -7.08067371e-003 1.10201202e-002 -2.24495400e-003 1.18624102e-002
      -1.61462855e-002 5.95217850e-003 6.40923448e-004 1.64035312e-003
      7.28222542e-003 -3.14561278e-002 -3.08557460e-003 -2.27301456e-002
      1.08307004e-002 -5.59443329e-003 7.92384986e-003 1.99987292e-002
      -1.46433683e-002 -1.60865393e-002 2.23678090e-002 -2.07371288e-003
      1.70868039e-002 -1.43091362e-002 5.24299080e-003 -6.25177613e-003
      7.42991315e-003 1.10619264e-002 8.00046232e-003 1.15087274e-002
      8.38812906e-003 -3.32720801e-002 -3.80562572e-003 3.81289376e-003
      1.50235966e-002 -1.75665983e-003 9.15103499e-003 4.86459443e-003
      1.62390005e-002 -5.78554068e-003 1.13159362e-002 2.24930495e-002
      -9.79041448e-004 -9.45633336e-004 -1.05862254e-002 1.09808045e-002
      4.97305533e-003 1.77872615e-004 -1.14922561e-002 1.32901026e-002
      -6.93712616e-003 7.34958518e-003 -5.21685695e-003 9.93685983e-003
      4.16634697e-003 -2.64229556e-003 1.40550099e-002 -1.51121756e-003
      1.59189629e-003 1.01493383e-002 -1.24912686e-003 5.11180423e-003
      -1.94602739e-002 5.21948561e-003 1.84129487e-004 2.17520185e-002
      -1.52851138e-002 -1.88762359e-002 -1.92002505e-002 1.30711906e-002
      7.59169227e-003 1.06229875e-002 -1.38448579e-002 1.14021925e-002
      2.43536942e-003 -1.35649650e-004 -1.63826142e-002 -6.23109750e-003
      1.40738124e-002 -5.77586470e-004 1.92241080e-003 -3.72845232e-002
      2.11250223e-003 4.70547890e-003 1.61005910e-002 -9.38813668e-003
      -1.99249331e-002 2.05860729e-003 4.58982959e-003 -5.72535722e-003
      1.02358321e-002 8.85241386e-003 -9.60058905e-003 1.19748423e-002
      1.10508231e-002 3.46830930e-003 1.78230554e-002 -1.78651959e-002
      -7.91853672e-005 6.72114873e-003 5.13015722e-004 -1.17871379e-002
      -2.55328584e-002 2.03918107e-002 -1.37128588e-002 -2.19281614e-002
      -8.46471265e-003 2.89506814e-003 1.39118405e-002 1.31017538e-002
      1.88616698e-003 1.09675759e-002 1.19604748e-002 -5.17961616e-003
      -1.33408615e-002 -1.25692468e-002 1.69236050e-003 2.58686934e-002
      3.41965747e-003 -3.05185579e-002 -2.97235069e-003 -3.10933613e-003
      5.52100362e-003 1.42278534e-003 -7.08563952e-003 2.40347032e-002
      -1.52702928e-002 1.76520664e-002 -3.95682734e-003 -5.36134746e-003
      -1.15901455e-002 3.11983027e-003 7.41824973e-003 1.33405244e-002
      5.65770548e-003 -1.30102062e-003 4.16217698e-003 6.14808014e-005
      -2.35958416e-002 7.59058911e-003 3.82587523e-003 6.58180518e-003
      1.08115897e-002 -1.61427085e-003 -1.71478151e-003 -1.69855058e-002
      2.05751564e-002 8.05686507e-003 -5.53189404e-003 1.35071599e-003
      1.04764467e-002 4.85847797e-003 2.17525586e-002 -5.73874684e-003
      1.45376716e-002 8.53306241e-003 3.03287562e-002 2.59468821e-003
      -1.88891753e-003 7.75599945e-003 -1.56127159e-002 -1.27487129e-003
      -4.85400116e-004 -2.88623478e-002 9.23243933e-004 6.53566187e-003
      1.30088730e-002 1.90329459e-002 1.69911631e-003 1.24216834e-002
      5.88462921e-003 -1.54075841e-003 -6.08735485e-003 -1.13522587e-002
      -1.99330114e-002 -8.37572571e-003 2.40584649e-002 6.37984695e-003
      1.34192035e-002 1.25848996e-002 -1.89566184e-002 -2.14705290e-003
      -9.84904706e-004 5.78462426e-003 -2.94897929e-002 -6.96055638e-003
      -6.68341946e-003 3.76899750e-003 9.89365298e-003 8.30337591e-003
      1.64645130e-003 -1.26315188e-002 1.00674620e-002 1.59845632e-002
      4.99170972e-003 -1.92894996e-003 1.93030690e-003 1.22935034e-003
      2.61134710e-002 4.61917277e-003 -7.31344707e-003 5.43844048e-003
      -2.39786357e-002 -2.97747756e-004 -2.11422089e-002 4.34307521e-003
      1.24123571e-002 1.32984975e-002 2.96343176e-004 3.17263976e-003
      -6.36371225e-003 -2.29143649e-002 -2.15092897e-002
      -5.72156813e-003 -3.97240184e-002 2.74058757e-003 -1.48616487e-003
      4.69678221e-003 2.34066769e-002 9.37418360e-003 -1.50728654e-002
      -1.49480673e-002 -1.81810874e-002 2.90679652e-003 1.70465335e-002
      -2.25345418e-002 1.31750237e-002 -8.04072618e-003 -1.23738321e-002
      6.67067058e-003 -2.29282188e-003 -1.53891556e-002 1.61919836e-002
      3.47832311e-003 -5.10500558e-003 -1.08969016e-002 -3.84713570e-003
      1.47432974e-002 -1.74454367e-003 -9.24726762e-003 -6.69290591e-003
      1.02695143e-002 -1.83465630e-002 -5.37105231e-003 -9.03211534e-003
      -7.95158930e-003 -7.79487146e-003 -2.10499316e-002 1.41607765e-002
      -8.74561258e-003 1.48897320e-002 -8.05087388e-003 8.86537414e-003
      -1.38681633e-002 1.54060377e-002 -3.22124129e-003 1.02285799e-002
      1.74990250e-003 1.17344614e-002 1.01809725e-002 -3.38487420e-003
      7.37944152e-004 -6.64338935e-003 1.16911007e-003 -4.49821819e-003
      -7.52167869e-003 -3.56708579e-002 1.42670535e-002 8.11454654e-003
      1.37992523e-004 2.53110309e-003 -1.24240397e-002 9.36140120e-003
      -2.09965948e-002 2.00729184e-002 -2.17005126e-002 9.22012422e-003
      -1.39031361e-003 -1.68188550e-002</_>
    <_>
      3.72357364e-003 -4.03948920e-003 -6.07218873e-003 -1.09666130e-002
      -3.72119551e-003 -6.76229922e-003 -5.73438313e-003
      -2.54831859e-004 -1.07186958e-002 -6.70311274e-003
      -7.58182816e-003 -2.95817642e-003 1.07800486e-002 -6.31044898e-003
      -1.05455667e-002 -6.86065294e-003 -4.38220287e-003 5.39734727e-003
      7.76133034e-003 -1.23189660e-002 -1.83338039e-002 2.62854248e-003
      1.19850701e-002 -8.44586920e-003 9.02087241e-003 1.05357142e-002
      -3.70911183e-003 -9.32295341e-003 2.86286045e-002 -1.13621904e-002
      9.50515550e-003 1.16854971e-002 3.95960920e-003 3.65179940e-003
      -2.88238958e-003 1.86004676e-003 -7.45997997e-003 1.28499009e-002
      1.00922212e-002 8.64918064e-003 -1.47032617e-002 -1.49575481e-002
      -1.56713314e-002 -5.77829732e-003 -2.77672661e-003
      -1.77704729e-002 -1.04902983e-002 -1.98691362e-003
      -5.61393704e-003 1.87442196e-003 -1.80502720e-002 -4.27145371e-003
      -1.77907050e-002 -1.31351165e-002 -6.98740594e-003
      -1.02297338e-002 8.35613057e-004 5.96807199e-003 1.16230035e-003
      -7.42740463e-003 8.01074039e-003 9.71383415e-003 1.29523259e-002
      -8.67719576e-003 3.02965986e-003 -2.60632462e-003 -2.86391098e-003
      -1.79879796e-002 8.27310316e-004 -6.04811707e-004 -4.39707568e-004
      1.22788763e-002 -2.24337857e-002 -3.63580562e-004 7.13809906e-003
      -6.56871730e-003 1.15109626e-002 9.59250552e-004 -1.54349701e-002
      -2.02155001e-002 1.19363638e-002 -1.52427433e-002 8.77524167e-003
      -2.05292441e-002 3.60552873e-003 -1.08176274e-002 -2.97109736e-003
      -1.03125246e-002 2.15422213e-002 1.15096904e-002 -3.04825924e-004
      -2.53003836e-002 -1.63618010e-002 -1.47699136e-002 2.06547417e-003
      -1.57713126e-002 -3.22232931e-003 6.64378470e-003 3.25444364e-003
      1.89682022e-002 -3.26419575e-003 2.09633596e-002 8.93237069e-003
      1.78271420e-002 1.08174533e-002 -9.24666412e-003 -7.63096474e-003
      -1.53971007e-002 -1.49199190e-002 1.18303914e-002 -8.82022921e-003
      -1.11125438e-002 -1.26565611e-002 6.89062383e-003 -1.49763338e-002
      7.86687713e-003 9.04373918e-003 -9.17411782e-003 2.27725897e-002
      -1.25873368e-002 -1.90057699e-002 3.22118565e-003 -1.89311542e-002
      2.99328443e-004 7.87364878e-003 3.50390724e-003 8.24553519e-003
      1.28246853e-002 -1.41949495e-002 -2.54903957e-002 -1.83166917e-002
      1.19629810e-002 4.15736868e-004 4.49237693e-003 -1.74148642e-002
      6.70894794e-003 8.25971272e-003 6.46896847e-003 -6.00717962e-003
      1.09665720e-002 2.19691603e-004 -1.24467472e-002 -2.52902764e-003
      -7.88920093e-003 -1.74464174e-002 -8.07706639e-003
      -2.94230087e-003 5.89388004e-003 -6.73003634e-003 -1.03490232e-002
      -1.86666548e-002 -6.56392751e-003 -9.65107512e-003 8.54526460e-003
      1.51066929e-002 4.79566166e-003 1.97278764e-002 -9.34365671e-003
      6.46673841e-003 -1.95567086e-002 1.74768211e-003 -6.08484726e-003
      1.02941953e-002 -9.77206742e-004 3.69788427e-003 8.99831578e-003
      -1.22935802e-003 -2.93973461e-002 8.38060025e-003 -2.31375005e-002
      -7.40692765e-003 -2.06537116e-002 -4.91499063e-003
      -1.27153816e-002 -2.28547156e-002 -2.01611430e-003 9.73277929e-005
      -1.37114422e-002 -6.37180358e-003 -8.52259621e-003 1.45880505e-002
      4.33513569e-003 5.98834921e-003 1.14971178e-003 -2.10818890e-002
      -4.54192702e-003 1.66589743e-003 8.96142423e-003 1.94013324e-002
      3.70905036e-003 7.74368970e-003 -1.96175021e-003 1.42072318e-002
      -8.99047870e-003 -3.36964993e-004 -1.89213885e-003 1.16215728e-003
      -2.42213644e-002 5.00568282e-003 1.48663123e-003 -4.36218409e-003
      5.46016636e-005 4.50703222e-003 -5.39039681e-003 6.62220269e-003
      1.43925548e-002 5.04376274e-003 8.18774337e-004 -2.52172407e-002
      1.17888034e-003 2.01786286e-003 9.61494632e-003 -1.36973700e-002
      4.48176777e-003 -2.16606446e-002 -3.13162454e-003 8.53795372e-003
      -2.39511151e-002 5.58155961e-003 -3.09206769e-002 1.80337008e-003
      -4.85299295e-003 -1.28793744e-002 -1.67385247e-002 1.20282127e-002
      -2.00226251e-002 -7.06772041e-003 1.22595280e-002 1.65393315e-002
      -9.95300617e-003 -3.98723118e-004 1.40804406e-002 -2.44758977e-003
      5.69082657e-003 -2.08626725e-002 2.75291293e-003 -1.80694775e-003
      2.43232027e-003 4.91498876e-003 1.08036445e-002 4.10280516e-003
      -6.53161493e-004 -2.35191099e-002 -3.56496847e-003
      -4.90315864e-003 1.24862939e-002 -6.57009805e-005 -1.76804718e-002
      1.01162149e-002 -7.74147268e-003 6.53952872e-003 4.95400233e-003
      -2.43851263e-002 -6.24809740e-003 -2.41398383e-002 6.99110283e-003
      -8.92735552e-003 2.76423991e-003 2.54652929e-003 6.76046591e-003
      1.76242716e-003 6.76953467e-004 4.25263133e-004 9.50117968e-003
      -1.61811598e-002 -1.86438859e-003 8.16423446e-003 -8.26788228e-003
      1.71984006e-002 -1.13011664e-002 1.85416117e-002 -2.73092510e-003
      7.14737969e-003 9.16296523e-003 -1.38106579e-002 -5.23638446e-003
      -2.26377491e-002 -1.22448271e-002 -8.14396422e-003
      -1.84932239e-002 1.29244654e-002 -2.73757125e-003 -1.22947944e-002
      1.28621906e-002 -1.42889414e-002 -1.15037174e-003 -6.47382578e-003
      -1.58739742e-002 -1.45008336e-004 -4.53447318e-003
      -4.17282572e-003 -1.19975787e-002 -2.86400830e-003
      -1.31015317e-003 1.09582078e-002 6.04236673e-004 -2.60553835e-003
      -2.20674966e-002 -2.32787547e-003 -5.11416816e-004 6.84549159e-004
      -1.20048426e-004 -7.63998134e-003 -8.68027005e-003
      -1.57898590e-002 -5.88605553e-003 4.45709052e-003 -3.89562733e-003
      -1.73249822e-002 -5.88873634e-003 -1.60007421e-002 1.01708453e-002
      -1.89760178e-002 5.98337688e-003 -3.00481892e-003 -1.23846531e-002
      -2.09906208e-003 2.04370320e-002 1.11961141e-002 -5.41236438e-003
      7.66746653e-003 4.42179153e-003 -9.37721785e-003 3.34464572e-003
      -1.41760940e-002 1.73282847e-002 1.00680878e-002 2.24655662e-002
      1.56262647e-002 9.80000664e-003 2.23116558e-002 4.23898315e-003
      -2.16733143e-002 -1.75612362e-003 4.23718290e-003 -4.92641330e-003
      2.81867646e-002 -7.82113988e-003 1.86384618e-002 2.69328281e-002
      -4.59159305e-003 4.00765613e-003 -9.55553446e-003 2.06355620e-002
      1.29413735e-002 9.69699398e-003 3.48823005e-003 2.15748179e-004
      -1.48496786e-002 -7.41709955e-003 -9.40251257e-003
      -3.85083095e-003 2.89587094e-003 1.79288145e-002 7.75244227e-003
      7.28739146e-003 1.22683812e-002 -4.24577594e-002 -6.51017437e-003
      -4.53334395e-003 2.71636690e-003 7.61144469e-003 2.61656828e-002
      1.76349655e-002 9.94404405e-003 -1.46536333e-002 -1.35122165e-002
      5.64440677e-004 -3.18583474e-003 -2.06665229e-003 -1.06904367e-002
      2.11027618e-002 6.09866157e-003 -2.23353575e-003 1.45306932e-002
      2.94597019e-002 -1.66867040e-002 -4.86745173e-003 -3.06675327e-004
      1.87209644e-003 4.53345384e-003 -1.09076814e-003 6.40506996e-003
      2.94011622e-003 -2.89869588e-002 5.10375248e-003 3.90248350e-003
      1.34656951e-002 2.48846114e-002 -1.44308498e-002 7.20181409e-003
      5.30094723e-004 8.21537152e-003 -7.80129991e-003 -9.96446796e-003
      -8.40239692e-003 -2.61076670e-002 2.27326658e-002 -6.57138124e-004
      -1.96678638e-002 -1.92881282e-002 9.31142014e-004 -2.13167667e-002
      3.91191989e-003 -4.89713391e-003 3.01914499e-003 -7.05380319e-003
      8.72944854e-003 -3.24736466e-004 1.20473523e-002 -1.98050751e-003
      6.87802630e-003 3.38622648e-003 -1.60421487e-002 3.48196691e-003
      -1.98801514e-002 4.12027491e-003 7.98192527e-003 -1.24371946e-002
      1.51474634e-002 -2.67546996e-002 3.01416148e-003 3.09006637e-003
      -1.30819762e-002 7.48013658e-003 4.75815311e-003 -6.30224776e-003
      2.29531117e-002 -3.75107839e-003 -1.06745772e-002 -6.80175144e-003
      -1.36944437e-002 -1.39278956e-002 -1.33927574e-003 6.57472201e-003
      4.23343474e-004 -8.41558725e-003 2.21883226e-002 -8.50756839e-003
      -2.59132497e-003 1.07094022e-002 -5.39085502e-003 -7.68786389e-003
      -6.31671958e-003 1.00126285e-002 -3.89514561e-003 -3.96646326e-003
      1.39452168e-003 2.10306179e-002 -1.09827444e-002 7.44504342e-003
      6.57899724e-003 1.10272141e-002 -1.91942020e-003 1.10962735e-002
      -2.11016946e-002 -1.25979492e-002 8.31496809e-003 5.65585506e-004
      -2.54696561e-003 4.19092784e-003 1.19291164e-003 -8.93669203e-003
      -4.54873079e-003 1.19842980e-002 9.84382443e-003 -1.87762231e-002
      1.42132137e-002 -3.67564964e-003 -1.47894947e-002 -3.89509788e-003
      -5.69085730e-003 6.71118405e-003 -1.04954261e-002 -9.66932811e-003
      1.61740519e-002 -2.44269543e-003 1.10900570e-002 -6.77269697e-003
      2.39453949e-002 -2.03700550e-002 4.40924242e-003 -1.79181229e-002
      -1.33395484e-002 3.96342686e-004 -1.05276108e-002 -2.64873356e-003
      -2.15898566e-002 4.84607788e-003 -1.54148880e-003 -1.39844918e-003
      -6.57404400e-003 -2.01290846e-003 3.89100029e-003 -9.95908119e-003
      1.40447840e-002 7.85591733e-003 -4.64119436e-003 -8.57838336e-003
      -3.01310457e-002</_>
    <_>
      -5.79227088e-003 -1.63402339e-003 7.40372622e-003 -1.03143486e-003
      1.50811102e-003 1.00508314e-002 -5.26591856e-003 1.67640031e-003
      1.18092587e-002 1.45781292e-002 8.23699636e-004 8.38751718e-003
      6.64206408e-003 7.73474993e-003 8.80832877e-003 1.00925751e-002
      1.58177484e-002 -2.91933795e-003 -1.15126763e-002 -1.30032012e-002
      -6.13972917e-003 -4.86924080e-004 3.39480210e-003 -5.31089725e-003
      7.66440947e-003 -6.99364860e-003 2.45508202e-003 -5.03603893e-004
      -2.53190100e-003 7.67762819e-003 -1.43207132e-003 -1.18533205e-002
      -5.82329754e-004 1.51856701e-004 -4.45225183e-003 3.88788641e-003
      1.10403905e-002 -8.12626816e-003 6.70241751e-003 8.33737757e-003
      4.46090009e-003 -7.69853313e-003 -1.17906847e-003 2.23341789e-002
      1.00137042e-002 2.20074281e-002 4.17327788e-003 2.59106979e-003
      1.17524331e-002 -4.20066249e-003 9.44796391e-003 1.83049552e-002
      1.39261049e-003 9.95364226e-003 -2.34403461e-003 -1.02762773e-003
      7.42001878e-003 1.07430778e-002 1.39833260e-002 3.55529669e-003
      4.42202529e-003 -1.33175077e-002 1.25908768e-002 7.98234902e-003
      1.05121816e-002 -8.55131249e-004 8.11760966e-003 8.28110962e-004
      -5.82947908e-003 4.86786198e-003 1.00037595e-003 -9.81361372e-004
      -4.69811587e-003 1.40552577e-002 2.58642540e-004 -4.51958040e-003
      -1.49274629e-003 -1.13363173e-002 2.30136681e-002 -7.23145297e-003
      1.52068036e-002 4.59594699e-003 4.84895380e-003 -4.08311142e-003
      -6.08525239e-003 -7.21612480e-003 -5.10511745e-005
      -1.80028360e-002 1.32485032e-002 -5.12440503e-003 4.19041811e-004
      -6.93823863e-003 8.24871939e-003 -9.66416020e-003 4.05298779e-003
      4.68050875e-003 -2.73026130e-003 2.99610459e-004 5.97114488e-003
      -5.99550642e-003 9.03855544e-003 -2.55828770e-003 -5.08640613e-003
      -2.12827846e-002 5.84395509e-003 1.03677372e-002 1.63398171e-003
      2.49873404e-003 -1.03883771e-002 -1.52079416e-002 3.78768891e-003
      -8.09917226e-004 1.19948736e-003 1.47693073e-002 -2.55198944e-002
      -2.31599528e-003 -2.31209025e-003 -3.27599165e-003
      -6.83981125e-005 4.47394996e-004 5.01322048e-003 2.88983365e-003
      -4.13795793e-003 -1.77938137e-002 -4.69429215e-004 1.89088145e-003
      2.42034439e-003 8.82780738e-003 -3.16334399e-003 1.13450075e-002
      -5.22915798e-005 -6.34952495e-003 1.35838827e-002 -1.33853648e-002
      -4.82016802e-003 3.91546637e-003 -8.49914830e-003 1.66274654e-003
      2.75542191e-003 -2.39372603e-003 9.32674296e-003 2.56888126e-003
      -1.26687624e-003 1.20763984e-002 1.67210528e-003 6.01647981e-003
      -2.34045368e-003 -4.48756618e-003 -8.73898808e-003 5.61642786e-003
      -4.15603071e-003 -6.98495947e-004 -1.70610175e-002
      -4.97339433e-003 7.82328565e-003 -2.01379531e-003 1.17311710e-002
      -5.38720237e-003 7.39169540e-003 -4.36158385e-003 -5.73439943e-003
      1.20960781e-003 -1.05573540e-003 4.11849096e-003 7.46285683e-003
      -5.79925661e-004 2.09984444e-002 -1.02548124e-002 1.27291828e-002
      5.26257418e-003 3.39235691e-003 3.98820452e-003 1.16921561e-002
      6.77349046e-003 6.47168048e-003 2.66045965e-002 -1.50855705e-002
      1.42139867e-002 2.01953319e-003 7.17654033e-003 4.89343842e-003
      -1.80951494e-003 -1.72881188e-003 4.60804068e-003 -5.75117953e-003
      1.93527012e-004 -1.03209512e-002 3.79785080e-003 9.24103428e-003
      9.25300922e-003 -4.99089947e-004 -5.11351135e-003 -7.57820811e-003
      8.35962687e-003 2.51774513e-003 6.64992351e-003 -4.01324499e-003
      1.28870807e-003 1.26115596e-002 1.00519639e-002 6.51365204e-004
      -1.78183385e-004 4.48069628e-003 3.30913323e-003 2.61663436e-003
      -1.11760581e-002 1.40076242e-002 -1.32780066e-002 7.91592058e-003
      1.81008282e-003 4.18267120e-003 1.42959449e-002 4.80921241e-003
      1.52481133e-002 -2.34814081e-002 1.66050028e-002 1.06024025e-002
      -7.54956098e-004 -7.88901001e-003 5.32861473e-003 9.40818340e-004
      -1.23566519e-002 -3.50806862e-003 4.16253740e-003 3.73087102e-003
      -1.79746421e-003 1.46289170e-002 1.80421432e-003 4.93594538e-003
      5.78521565e-003 -1.05184026e-003 -3.36681143e-003 -1.32125022e-003
      2.45267898e-003 5.95117360e-003 -1.42583903e-002 2.90768617e-003
      -7.16561917e-003 8.02342780e-003 -8.44088849e-003 2.90621747e-003
      1.54773258e-002 1.44218486e-002 1.14842562e-003 3.29180225e-003
      -6.99645793e-003 2.54099891e-002 2.19403199e-004 2.64021265e-003
      2.69982941e-003 8.53221456e-004 1.03744434e-003 -2.15630600e-004
      4.20970842e-003 6.26611663e-003 8.15952383e-003 3.38354893e-003
      1.08520337e-003 1.82197187e-002 -3.56915320e-004 7.30880909e-003
      -6.46473095e-003 1.97940064e-003 3.15054855e-003 7.54724815e-003
      -8.67146737e-005 -3.51714226e-003 2.67953053e-003 3.61076742e-003
      -1.20069422e-002 4.17908654e-003 8.01833253e-003 1.83078516e-002
      6.31220639e-003 1.87326875e-003 -7.10919790e-004 1.06538590e-002
      2.43335636e-003 1.24559505e-003 -5.76418219e-003 9.47303325e-003
      6.98501244e-003 -1.50513891e-002 7.67632527e-003 -7.23655848e-003
      1.00276656e-002 -3.14702233e-003 -2.14632601e-003 1.35237165e-003
      -1.64381505e-004 4.57083760e-003 -1.17721043e-004 5.65695763e-003
      -2.67063710e-003 -7.56586669e-004 -4.08462295e-003
      -1.46369031e-002 -4.08521853e-003 -3.11809010e-003
      -1.01321824e-002 1.34437531e-003 4.28458396e-003 -6.39890367e-003
      -1.65790264e-002 1.23654297e-002 1.83348674e-002 3.93521506e-003
      1.02721648e-002 6.42127404e-003 -7.98624288e-003 1.10863119e-004
      4.71225660e-003 6.86686859e-003 -3.04435403e-003 -1.44539010e-002
      5.27681550e-003 2.84857349e-003 5.89209655e-003 -7.08380947e-003
      7.78703811e-003 -4.61567333e-003 6.44565979e-003 -6.85405685e-003
      1.42965708e-002 7.88907986e-003 -7.30603095e-003 -8.48805998e-003
      6.72430499e-003 4.82267141e-003 -1.01736514e-002 1.35853672e-002
      4.96639963e-003 -8.93428270e-003 2.12922273e-003 -1.98473863e-004
      3.03774420e-003 -6.32276852e-003 -5.22955088e-003 -2.48523965e-003
      -1.75867078e-003 -2.27096025e-005 -2.15084787e-004 1.61693580e-002
      4.56809858e-003 5.80809370e-004 3.71461594e-003 -5.21864183e-003
      -5.61083260e-004 -8.46508145e-003 2.42479821e-003 1.26643078e-002
      -9.30120144e-003 -1.19046858e-002 3.50411778e-004 6.80782087e-003
      3.24873370e-003 -8.64585396e-003 2.62836157e-003 -8.31780490e-003
      2.11705392e-005 -1.98387243e-002 6.29864307e-003 -5.12696430e-003
      6.95740990e-003 -2.27081683e-003 8.15844163e-003 1.42398188e-002
      -2.47127749e-003 3.36258882e-003 -2.68392428e-003 -1.58314295e-002
      -9.79486154e-004 6.43789908e-003 -2.33116079e-004 7.04915402e-003
      1.12796417e-002 -5.30778256e-004 -7.99968746e-003 3.66830057e-003
      -8.23268574e-003 -4.48333053e-003 -9.08988621e-003 7.84721598e-003
      -1.50662765e-003 1.61541929e-003 -6.24068407e-003 -2.16473825e-003
      -1.69940554e-002 4.02807957e-003 5.07111847e-003 -7.13694328e-003
      -4.07736195e-004 6.61135418e-004 -2.03343178e-003 -8.59245285e-003
      -4.56242822e-003 1.39740773e-003 4.81827650e-003 4.44355799e-004
      4.02359245e-003 4.28099092e-003 -7.17766630e-003 -6.32116105e-003
      -4.20821086e-003 -7.19024893e-003 1.05957426e-002 -2.01415829e-003
      1.24731436e-002 2.51861697e-004 4.92182234e-003 -3.40453675e-003
      -5.08702500e-003 1.43525831e-003 7.50280404e-003 2.77678994e-003
      6.51377393e-003 4.15776018e-003 8.38781986e-003 -3.36899608e-003
      -3.10663553e-003 -2.14065611e-003 2.85537876e-002 1.11920768e-002
      -2.32954025e-002 1.34643251e-002 -8.15234333e-003 -2.18467627e-004
      2.71383743e-003 1.38697610e-003 -6.10225322e-003 3.19084642e-003
      -2.30881473e-004 -2.46334099e-003 1.46469828e-002 -4.88213822e-003
      -5.57584967e-003 3.22156539e-003 -7.95700704e-004 -7.89387338e-003
      7.48604024e-003 1.57030039e-002 1.34580312e-002 -6.53213682e-003
      1.95966786e-004 -6.21164404e-003 2.02176925e-002 -1.30691603e-002
      8.63831490e-003 6.55571232e-004 9.23071429e-003 1.03839673e-002
      6.00741757e-003 9.16385790e-004 -9.16713034e-005 3.93569423e-003
      1.63665544e-002 1.06493142e-002 3.57599743e-003 2.65175290e-003
      2.45597609e-003 1.08855003e-002 3.85247311e-003 -2.90661381e-004
      4.59194323e-003 -3.67980893e-003 1.32306363e-003 -1.71077978e-002
      2.81644426e-003 -1.24981729e-002 8.49416759e-003 -2.96792621e-003
      8.73039011e-004 1.00472458e-002 -8.29973631e-003 -1.11106294e-003
      5.04527008e-003 -1.50092887e-002 -1.95142266e-003 2.55856477e-003
      -1.86877046e-002 1.03561096e-002 -6.67883642e-003 1.75220752e-003
      1.25795417e-002 3.60759418e-003 1.31344022e-002 8.90509109e-004
      1.09582823e-002 -8.80919490e-003 1.63245313e-002 -6.45991694e-003
      -6.10896852e-003 1.65587161e-002 7.28434138e-003 -3.96772707e-003
      1.11042252e-002 5.26651368e-003 1.17124496e-002 -2.98059103e-003
      9.19386838e-003</_>
    <_>
      6.70467550e-003 -4.85241273e-003 -2.07315141e-004 1.12494314e-002
      1.07281469e-002 1.68449042e-004 -9.54340026e-003 -1.34484610e-003
      -2.57909880e-003 5.12414286e-003 -3.85624729e-003 -1.21782273e-002
      1.79187313e-003 3.47957131e-004 8.74336064e-003 1.04336813e-002
      7.18001137e-003 -8.32377560e-003 -6.20973529e-004 -3.31500010e-003
      -5.73382247e-003 -7.47593725e-003 4.98810364e-003 6.66330429e-003
      -4.18141892e-004 -1.17359683e-002 7.97924120e-003 3.60876764e-003
      3.00130458e-003 1.23298541e-002 -2.25038524e-003 -3.67143052e-003
      -1.58241913e-002 -4.59746720e-004 4.92540188e-004 5.34439087e-003
      8.02457985e-003 -5.14781382e-003 3.69288912e-003 1.71166193e-003
      1.53230561e-003 4.65456862e-003 3.89855285e-003 1.44095486e-002
      -9.08317324e-003 8.32856167e-003 -1.77704059e-002 1.73377839e-003
      1.06651578e-002 1.06322151e-002 5.28684771e-003 1.21287629e-002
      5.04021486e-003 4.02288465e-003 -5.35932183e-003 1.03851240e-002
      -1.02727748e-002 6.29206980e-003 -1.11402124e-002 7.13346945e-003
      3.83953983e-003 -1.69590733e-003 1.80015210e-002 1.04975677e-003
      5.56184910e-003 -4.65853652e-003 -1.36948740e-002 -3.19545786e-003
      -4.33539040e-003 -1.28821637e-002 -1.74357067e-003 1.92481140e-003
      -5.18095260e-003 5.13409497e-003 6.34265644e-003 -3.47656338e-003
      -1.70283660e-003 -1.44915134e-002 1.54726105e-002 3.01351509e-004
      -1.42414286e-003 -3.76137532e-003 2.19157673e-002 1.41018340e-002
      -8.99287779e-003 -8.14409647e-003 2.00448121e-004 5.25142625e-003
      4.62742709e-003 -1.25293024e-002 -4.07640403e-003 -7.38893775e-003
      7.43659819e-003 8.23625643e-003 -9.80340410e-004 2.00508628e-002
      5.48148341e-003 9.77207627e-003 5.45439916e-003 5.08933095e-004
      -2.33184709e-003 -7.83191342e-003 -9.14936047e-003
      -1.51063316e-002 1.56261474e-002 2.87252618e-003 -4.23934573e-004
      -1.49332965e-003 -3.03202821e-003 -1.17586935e-002
      -1.71098653e-002 -1.18514029e-002 -3.38116474e-003 2.00402327e-002
      -2.23777164e-002 1.06225675e-003 -2.62272358e-003 5.96268615e-003
      -6.07717375e-004 1.34555832e-003 -3.99596430e-003 5.56416810e-003
      -4.61387541e-003 7.16206245e-003 2.99726799e-003 1.12107685e-002
      3.98368249e-003 -1.12640293e-004 9.39143822e-004 -2.17420422e-002
      2.70933798e-003 -1.13488669e-002 -1.84121390e-003 -4.11894085e-004
      5.53878536e-003 1.44675672e-002 7.12249102e-003 4.03280137e-003
      -8.99006799e-003 -1.75946914e-002 2.03231676e-003 5.39321406e-003
      5.11733955e-003 4.86563426e-003 -1.08217681e-002 2.35081650e-003
      1.98512827e-003 -2.36002803e-002 6.30840287e-003 9.96613991e-004
      -1.76327280e-003 -6.98316493e-004 -1.24375252e-002
      -2.03170255e-003 5.60715655e-003 9.14924894e-004 4.74943640e-003
      -8.43934715e-003 1.24525893e-002 -1.78560317e-002 1.03188576e-002
      -5.64735732e-004 -2.29680663e-004 4.05886676e-003 1.24863489e-002
      1.02840941e-002 1.47522148e-002 -1.00321723e-002 -5.84017020e-003
      8.87810718e-004 2.63625081e-003 -1.09603966e-003 7.26490980e-004
      1.05481967e-002 4.17574914e-003 1.77510176e-002 1.20254070e-003
      -9.70686227e-003 -1.17661394e-002 5.26448537e-004 -3.86229088e-003
      1.02790175e-002 -8.40772918e-005 -5.13637299e-003 1.00341644e-002
      5.05688367e-003 3.08863446e-003 -9.56273545e-003 1.32504478e-002
      8.21139663e-003 5.02857519e-003 -5.88501291e-003 -1.09894620e-002
      8.30506106e-005 7.57433474e-003 -1.12574827e-003 2.34533218e-003
      -9.21140611e-003 9.56692826e-003 1.21073844e-002 -1.14224097e-002
      1.86376162e-002 -6.87186548e-004 7.12364260e-003 7.81500712e-003
      -6.99669449e-003 1.66996717e-002 5.35763055e-003 1.28602423e-003
      1.31475059e-002 -1.21018209e-003 9.28415079e-003 -7.84392562e-003
      1.66686531e-002 -1.26050264e-002 5.66794630e-003 8.40991177e-003
      -3.20802419e-003 1.47156371e-002 8.23764410e-003 -2.44368706e-002
      -1.27709098e-003 -1.20059657e-003 2.00196984e-003 7.66038708e-003
      1.05314106e-002 1.15276622e-002 -5.38519723e-003 -2.51501962e-003
      1.26266694e-002 5.15933707e-003 -1.50889931e-002 -3.22574680e-003
      8.78154766e-003 7.99519941e-003 -6.64008688e-003 -3.52385500e-003
      4.70528705e-003 9.11317486e-003 2.30254023e-003 4.17125365e-003
      7.84013327e-003 -2.45133834e-003 -3.57158645e-003 -1.46043599e-002
      3.59920133e-003 1.60935074e-002 8.98114522e-004 3.99058918e-003
      -3.44729610e-003 1.05984434e-002 7.53599592e-003 7.62379682e-003
      5.50504914e-003 7.60192424e-003 9.72251408e-003 -1.55546386e-002
      -7.29920575e-004 1.65983960e-002 -2.25692312e-003 3.72977438e-003
      8.49381648e-003 7.71451043e-003 1.08906524e-002 1.37063460e-002
      1.14026181e-002 5.25577413e-003 -6.43576263e-004 8.76271352e-003
      -5.59728267e-003 1.16953172e-003 1.94456556e-003 9.33550112e-003
      1.30828200e-002 1.16304168e-002 -1.22362829e-003 -1.75487355e-003
      1.89976810e-004 2.71254382e-003 -1.40658533e-002 5.98096056e-004
      1.99681986e-003 3.55493557e-003 6.49458962e-003 -8.54595099e-003
      1.14758173e-002 5.94651466e-003 -1.83280241e-002 5.45136537e-003
      1.31105110e-002 -2.54226895e-003 -2.12000906e-002 1.78928673e-002
      3.04834498e-003 -6.37220871e-003 7.93309300e-005 9.37385391e-003
      -2.10202299e-002 6.44169841e-003 4.31420095e-003 3.30244424e-003
      1.42293307e-003 -3.43720196e-003 1.65775404e-004 -1.21836492e-004
      1.08088730e-002 -1.90970115e-003 7.46123074e-003 3.40496073e-003
      9.48985107e-004 -6.60015875e-003 5.52588003e-003 -8.71045515e-003
      -2.87417602e-003 -6.17357146e-004 1.99700845e-003 4.96783806e-003
      1.08873443e-004 -3.25012282e-002 2.86584720e-003 -5.18485438e-003
      4.10609227e-003 2.27145036e-003 1.67653523e-002 -4.45520459e-003
      -8.73171724e-003 -4.47482476e-003 5.33118658e-003 -2.45635468e-003
      -3.60448449e-003 7.04233442e-003 -1.19653752e-003 -1.50961638e-003
      9.96469054e-003 -1.01962965e-002 -2.17443742e-002 -1.20513169e-002
      -8.92473559e-004 3.16928164e-003 2.86910264e-003 -1.00567043e-002
      -1.00717507e-002 7.32091069e-003 -2.79096072e-003 1.34308194e-003
      1.08958362e-002 -4.25356906e-003 3.64519714e-004 -1.02666374e-002
      8.62975698e-003 1.17663098e-002 -4.12355550e-003 4.13907506e-003
      3.70578258e-003 -3.94098461e-004 1.43683758e-002 1.95287704e-003
      7.24607788e-004 -9.70851537e-003 1.37325376e-003 -8.43826856e-004
      -3.24427849e-003 -2.38381457e-004 -1.08542023e-002 1.20540727e-002
      6.98762340e-003 5.45652537e-003 4.70974157e-003 6.12163451e-004
      9.53227282e-004 1.30450465e-002 -2.62804050e-003 6.77042315e-003
      -6.66024350e-003 -1.32591336e-003 1.46029470e-002 -2.16285349e-003
      -1.47553056e-003 1.97963547e-002 -4.49239416e-003 1.13700191e-002
      -8.98370892e-003 1.46016106e-002 -2.10687029e-003 -8.02750047e-003
      -7.12931529e-003 2.53907451e-003 1.45230140e-003 1.54354947e-003
      -2.01193877e-002 -1.05053093e-002 2.86773546e-004 1.88148022e-003
      -2.70580426e-002 1.00846821e-002 3.65443964e-004 2.89846072e-003
      -1.45034143e-003 4.19795187e-003 4.64010704e-003 2.42452882e-003
      -5.54923294e-003 2.18992284e-003 -3.30963219e-003 -5.25850861e-004
      1.91789456e-002 -1.76167767e-002 -2.88178748e-003 -9.51214973e-003
      1.03921220e-002 -1.36180446e-002 -6.15323894e-003 8.94617382e-003
      1.29406210e-002 2.50356086e-003 -5.10871457e-003 -9.03919712e-003
      1.00434916e-002 -1.93350273e-003 -1.43726971e-002 -1.79052483e-002
      1.15702124e-002 9.25119314e-003 -3.37938988e-003 -1.17866155e-002
      -1.72014255e-003 -1.51368864e-002 -2.44422071e-003
      -1.31840026e-002 -3.54535575e-003 1.20673736e-003 -2.27765576e-003
      7.55799920e-005 -5.83741069e-003 3.45534738e-003 -1.76859845e-003
      5.85571537e-003 1.19098267e-002 -1.07650449e-002 6.17038924e-003
      -6.51059626e-003 5.17191598e-003 -1.17141372e-002 2.61396822e-003
      -1.37741296e-002 2.44907127e-003 8.33785525e-005 1.85581464e-002
      2.98255472e-003 5.31735830e-003 -1.04442677e-002 -1.91546814e-003
      -3.26954294e-004 9.85678006e-003 7.34922010e-004 1.25733251e-002
      -9.85500962e-003 -4.78730118e-003 1.73787195e-002 -5.21813054e-003
      1.88512914e-002 2.01916252e-003 4.01195977e-003 1.24446675e-002
      3.88344005e-003 7.72616302e-004 6.74675126e-003 5.41749178e-003
      -8.53096228e-003 -2.04175548e-003 6.47329027e-004 -4.02149418e-003
      7.95444939e-003 -7.49075378e-004 -2.83361343e-003 -2.24610791e-003
      -1.92457605e-002 -8.17204826e-003 -6.85153808e-003
      -5.30345272e-003 -3.00568645e-003 5.00451727e-003 -1.13487393e-002
      8.67513102e-003 -6.91090198e-003 5.05359704e-003 2.33184677e-002
      4.49567474e-003 -2.99607869e-003 1.62502546e-002 -6.27399795e-003
      -1.07595492e-002 -1.52875576e-003 -6.72280462e-003
      -5.39176259e-003 4.85330634e-003 1.27747161e-002 2.28626232e-004
      -6.00483408e-003 2.06582109e-003</_>
    <_>
      -3.39274039e-003 -3.92914889e-003 3.28519847e-003 2.27917125e-003
      -6.56885022e-005 4.97832801e-003 1.35372607e-002 -1.10745593e-003
      1.17206490e-002 1.79204755e-002 1.53645570e-003 1.83385200e-005
      1.25219254e-003 -2.20802147e-003 -6.20441278e-004 -6.28067041e-003
      -1.11022154e-002 -7.74026942e-003 -9.82901081e-003 3.79254878e-003
      -1.98433152e-003 -6.92538032e-003 1.22032901e-002 -2.65031762e-004
      3.61492159e-003 -1.45252300e-002 -4.54694964e-003 1.03027327e-002
      -9.05292807e-004 2.08642446e-002 -3.38222575e-003 -1.89378001e-002
      -6.64438773e-003 -3.04349628e-003 5.97534422e-003 1.29000256e-002
      1.40750203e-002 -6.07885001e-003 1.25687639e-003 3.17018060e-003
      1.41231937e-003 -1.12719100e-003 1.55025152e-002 7.86489109e-004
      2.97289982e-004 1.14039993e-002 1.37335475e-004 2.65969359e-003
      6.53028907e-003 -9.38890676e-004 -1.27843823e-002 -5.15816314e-003
      -5.26888669e-003 1.02300746e-002 -1.93377659e-002 3.91607592e-003
      2.43202434e-003 1.22274263e-002 1.14588505e-002 -1.17903491e-002
      2.14167424e-002 7.48376548e-003 7.69222574e-003 8.08494911e-003
      -9.44871735e-003 -2.59013090e-004 -4.81662620e-003
      -2.22403021e-003 -2.21624086e-003 -1.14091882e-003 7.00822158e-004
      5.24363108e-003 -4.33740253e-003 -9.34882788e-004 -4.39076545e-003
      -8.58944375e-003 1.88495554e-002 -1.25320246e-002 2.39204820e-002
      -4.57741832e-003 1.69513596e-003 -4.68344986e-003 1.25635760e-002
      1.10874018e-002 -2.90741213e-003 -1.08569423e-002 -2.67404993e-003
      4.00458276e-003 5.53108240e-003 -2.11804900e-002 -1.28023839e-002
      -1.00220675e-002 -9.66509152e-003 -1.26291327e-002
      -9.38895810e-003 1.57766789e-002 6.89143967e-003 9.85479634e-003
      3.95247480e-003 3.68834939e-003 6.59244787e-003 -2.46451832e-002
      3.48933693e-003 -2.10831650e-002 -7.75978609e-004 1.10807251e-002
      -5.41484449e-003 1.76371895e-002 1.61354821e-002 -1.42318280e-002
      7.95137137e-003 -1.24708991e-002 -4.10786457e-003 3.51865217e-003
      -1.39947478e-002 -9.24739242e-003 -5.76606672e-003
      -1.13595668e-002 1.13011049e-002 9.79837123e-003 -6.14088541e-003
      6.41943142e-003 1.25139905e-003 1.22497592e-003 -1.30579909e-002
      7.63249490e-003 3.13570304e-003 -6.24261680e-004 -1.84972736e-003
      -4.17926768e-003 5.11501636e-003 -1.62407011e-002 9.85899474e-004
      1.04809180e-003 1.46712479e-003 -9.69586987e-003 1.43600500e-003
      4.68613440e-003 -8.97687860e-003 -8.31706077e-003 -3.17154825e-003
      -3.23896762e-003 6.46030856e-003 5.46395080e-003 3.13984609e-004
      -1.86479103e-003 -3.24482028e-003 -9.40684229e-003
      -4.38736938e-003 1.20613361e-002 -1.31746028e-002 -4.34552040e-003
      8.72564095e-004 2.78166519e-003 -8.41927686e-005 1.74211583e-003
      1.60691254e-002 -4.41484386e-003 1.80327939e-003 5.63837914e-003
      -9.57074668e-003 7.29485229e-003 -7.06474343e-003 -6.99221436e-003
      5.57276513e-003 1.28554099e-003 1.37299681e-002 -1.27899637e-002
      -1.08710648e-002 4.08672076e-003 1.75459150e-004 -2.14566812e-002
      -7.66465161e-003 1.26998620e-002 2.74758972e-003 2.64419941e-003
      7.37379631e-003 8.17995518e-003 -1.31944753e-002 -2.80104182e-003
      -1.14157498e-002 -9.09924135e-003 -1.31996721e-003 8.22288264e-003
      1.22460136e-002 -2.29292340e-003 1.00634601e-002 -7.61981588e-003
      -7.53996475e-003 4.82826680e-003 6.31225237e-004 -6.58261779e-005
      -7.12671783e-003 5.48944948e-003 7.63801439e-003 1.32287592e-002
      1.67488791e-002 3.76796839e-003 -3.10689746e-003 1.39784655e-002
      -3.13871074e-003 2.50386149e-002 -4.36480157e-003 1.20538950e-003
      -8.26315116e-003 -5.82214864e-003 1.55707030e-002 -2.55944580e-003
      8.52912385e-003 -3.60327354e-003 -2.68441159e-004 2.17703599e-002
      -1.18659353e-002 -2.49607535e-003 -3.92823759e-003 9.25220363e-003
      9.87928361e-003 1.95504772e-003 -7.22560938e-003 5.06427418e-003
      2.37545930e-003 4.93090414e-003 7.42571894e-003 9.63751227e-003
      1.04584526e-002 9.55300347e-004 1.06897438e-002 4.15350005e-005
      -8.29991046e-003 8.25597346e-003 -9.27624945e-003 -1.20116129e-004
      -1.71858747e-003 3.09471111e-003 1.31600630e-002 -2.27910990e-004
      -5.74345654e-003 2.18958268e-003 2.98312661e-004 -2.92842393e-004
      2.62585212e-003 8.63173511e-003 1.18671935e-002 1.08483285e-002
      -4.61665448e-003 2.07910943e-003 2.98900045e-002 -1.05680688e-003
      3.81364510e-003 -3.88658233e-003 6.19925000e-003 2.17711879e-003
      1.60807709e-003 7.25619844e-004 1.82507765e-002 1.58800534e-003
      3.96996643e-003 -8.13177787e-003 1.45747336e-002 -5.30932937e-003
      3.32922232e-003 1.16081778e-002 2.21191804e-005 4.99631977e-003
      1.14015434e-002 4.90099564e-003 -4.87116864e-003 -7.25814956e-004
      3.07335565e-003 -3.76289710e-003 3.18863569e-003 1.05934506e-002
      1.82231311e-002 3.50691820e-003 -3.61177302e-003 9.07766912e-003
      2.29206122e-003 1.18137505e-002 5.33395400e-003 -7.79303350e-003
      -2.84842006e-003 4.96111810e-003 7.32880225e-003 1.45958960e-002
      -2.58521438e-002 5.53466100e-003 -1.60585938e-003 -4.12280764e-003
      -5.37270168e-003 7.57362135e-003 1.75421461e-002 6.59382902e-003
      9.65677761e-003 -5.89525444e-004 -6.64559472e-003 4.34404612e-003
      9.52735916e-003 4.39610519e-003 8.49810021e-004 1.12911209e-003
      7.54573802e-003 -5.30398684e-003 -6.83831749e-003 -5.67922322e-003
      -9.62754525e-003 5.47572225e-003 9.48655419e-003 7.74845388e-003
      -4.56183741e-004 1.04645947e-002 8.06408003e-003 6.74769224e-004
      -5.73080219e-003 9.09995195e-003 4.42188932e-003 1.64979056e-003
      5.24278590e-003 2.39516958e-003 -1.57604981e-002 3.25285690e-003
      -3.61191761e-003 4.94539691e-003 -3.04423482e-003 -1.43384542e-002
      -5.81749529e-003 -1.93403673e-003 1.59497361e-003 7.01334607e-003
      1.93601288e-002 -2.53415247e-003 6.72375457e-003 -5.84896072e-004
      5.84685802e-003 6.40027504e-003 1.11346412e-002 -9.02750436e-003
      8.45952891e-003 1.06299436e-003 -1.07440981e-003 7.10308133e-003
      -4.53008711e-003 -1.18037732e-003 1.93861574e-002 -6.41795853e-003
      1.19340615e-002 2.15696404e-003 -2.63701146e-003 2.05705711e-003
      4.13494511e-003 1.12153469e-002 1.11281313e-003 -4.61422559e-003
      5.76764205e-003 -4.52103000e-003 1.08022811e-002 1.06801335e-002
      3.04271653e-003 4.22559725e-003 -2.52436404e-003 2.21777484e-002
      -1.20354118e-002 4.08503832e-003 -6.01236802e-003 -9.75626893e-003
      -1.13302823e-002 6.08558126e-004 1.98368151e-002 3.86396516e-003
      3.77552211e-003 -8.96552671e-003 -6.44705782e-004 4.45039058e-003
      -3.59745184e-003 -7.26325298e-003 5.21074468e-003 5.62958512e-003
      -5.47057437e-003 5.97869325e-003 3.74360615e-003 1.08857332e-002
      8.23504850e-003 -7.19057815e-003 5.24741458e-003 -1.85384508e-002
      3.81261838e-004 -8.27780645e-003 -1.49470533e-003 -9.78012010e-003
      4.10937425e-003 1.54871903e-002 -5.43264253e-003 -5.84436348e-003
      6.61638251e-006 8.07452109e-003 -1.05597815e-002 -1.76615771e-002
      -5.24895405e-003 5.82942879e-003 4.61687858e-004 3.65508022e-003
      -2.37418411e-004 -3.73493152e-004 5.40545536e-003 7.70344352e-003
      -3.72961233e-003 3.70265869e-003 -1.49811413e-002 -4.97614779e-003
      -2.01015198e-003 1.43158836e-002 -5.37481974e-004 4.85719538e-005
      1.20320637e-002 1.53628765e-002 4.93977405e-003 1.63311046e-002
      1.00432187e-002 1.08855087e-002 -3.56253143e-003 -1.11037409e-002
      1.47118159e-002 1.87429339e-002 5.04551036e-003 1.12899980e-002
      1.17552420e-003 -1.71509222e-003 -1.39196059e-002 -8.10324214e-004
      -2.78065307e-003 -5.95296547e-003 7.16001727e-003 -4.00729514e-005
      1.02416752e-002 -7.57430855e-004 -9.71745700e-003 -8.44102632e-003
      -9.83645674e-003 -1.02498075e-002 -1.17825586e-002 9.35984869e-003
      -1.68051943e-003 1.02715073e-002 1.25761679e-003 1.63054131e-002
      -6.13767467e-003 -1.08960196e-002 -5.87556092e-003 1.07165333e-003
      5.21851331e-003 1.15166195e-002 4.23917547e-003 -5.14554745e-003
      -6.55408949e-003 -8.69989488e-003 -5.27830236e-003 1.06441872e-002
      -7.23464275e-003 -6.85932953e-003 1.28508611e-002 -1.25585878e-002
      1.13346269e-002 -3.31684342e-003 -4.37205937e-003 3.38227232e-003
      -4.90582222e-003 -6.25677314e-003 -2.12147878e-003 7.83146452e-003
      -2.66977446e-003 3.61022074e-003 8.62459652e-003 6.90413034e-003
      6.18738122e-003 -9.00305528e-003 2.15759873e-003 -1.40133305e-002
      -1.61155760e-002 -2.31404742e-003 -9.65742487e-003 1.93156488e-003
      4.01701685e-003 7.90764205e-003 -3.49610782e-004 1.33738136e-002
      -6.24175323e-003 3.63431918e-003 9.69974231e-003 6.41056523e-003
      -8.60995147e-003 -2.06325296e-003 -1.96357202e-002
      -2.47167074e-003 4.15397575e-004 -1.38330422e-002 2.64972216e-003
      1.21712033e-002 2.41867937e-002 3.49124754e-003 -6.74200105e-003
      -3.19478987e-003</_>
    <_>
      2.45462079e-003 -1.40246807e-003 4.20230627e-003 -1.01089885e-003
      -1.68743217e-003 1.15785860e-002 1.55989481e-002 -1.00050785e-003
      2.74388329e-003 5.46374498e-003 -4.29890677e-003 -8.87035218e-004
      -2.02021119e-003 -3.97323351e-003 -5.83017594e-004 1.17811179e-002
      -7.77151436e-003 7.54748518e-003 -3.41570610e-003 -8.29020608e-003
      -3.65320733e-003 -4.94449923e-004 -2.29443377e-003 1.86009670e-003
      9.70492512e-003 1.15594198e-003 -4.25044913e-003 7.40933651e-003
      -1.35220205e-002 1.21815652e-002 9.96721722e-003 -1.35302998e-003
      -3.95927578e-003 1.33309178e-002 -1.33342957e-002 1.05356919e-002
      7.03994883e-003 -7.06380792e-003 -5.61762508e-003 -3.13884905e-003
      -3.76484357e-004 -4.95095365e-003 7.60533893e-003 1.08576054e-002
      -4.72840294e-003 -1.31787022e-003 -3.38270026e-003 3.87422246e-004
      1.32553345e-002 6.01765513e-003 -3.03755258e-003 1.48525210e-002
      -2.66162260e-003 6.49893563e-003 -1.01148793e-002 -5.68891969e-003
      -1.87278707e-002 -8.47815070e-004 1.21606812e-002 -5.67064807e-003
      1.40841193e-002 -1.30619784e-003 5.59689302e-004 -5.95733058e-004
      3.57741630e-003 -7.47462129e-003 1.12303738e-002 -2.74537085e-003
      -5.10028563e-003 5.33075398e-003 -2.09645179e-004 1.68902185e-002
      -1.05189905e-002 1.66960084e-003 -1.39151914e-002 -7.94814900e-003
      -5.98222297e-003 -9.44363419e-003 1.21467607e-002 -3.44637991e-003
      6.81025628e-003 -4.27500857e-003 2.10970547e-003 1.06980102e-002
      -1.37825748e-002 -1.37730446e-002 -3.29905725e-003
      -8.40910187e-004 7.45320320e-003 -8.61082505e-003 -1.75367892e-002
      -1.41204456e-002 -2.89957551e-003 -8.03450705e-004
      -3.53836990e-003 5.67922927e-003 -6.66072243e-004 5.17289480e-003
      -4.73516528e-003 4.17713262e-003 -4.12210263e-003 -9.49409790e-003
      3.39432212e-004 -2.90666660e-003 4.09543421e-003 -2.09313259e-003
      -5.25491731e-003 2.66962615e-003 6.97294157e-003 9.85319633e-003
      5.70068648e-003 -9.58154630e-003 -4.29643143e-004 1.01238918e-002
      -8.18167906e-003 -1.52051290e-002 -3.59840668e-003 5.53735066e-003
      1.50467723e-003 9.08915978e-003 -4.88851732e-003 4.40832367e-003
      1.34104164e-002 -9.95791634e-004 -1.10887885e-002 1.64621938e-002
      9.92718805e-003 -6.03109831e-004 -3.97351617e-003 -4.88598831e-003
      -2.68502426e-005 -4.59227897e-003 -6.25745044e-004
      -5.51954843e-003 -6.96007768e-003 -3.63518973e-003 4.96673444e-003
      1.19070886e-002 -2.83405324e-003 -1.51262118e-003 -4.22001758e-004
      7.44850282e-003 2.27403245e-004 1.44068059e-003 -2.23537139e-003
      2.41924124e-003 6.99586119e-004 -1.22836707e-002 -1.35927266e-002
      1.69892388e-003 -6.30311295e-003 1.87518855e-003 -8.44343659e-003
      -5.12378570e-003 5.64667769e-003 -1.08300103e-003 6.61149155e-003
      -1.38471117e-002 1.20277992e-002 -9.05577373e-003 -9.70379170e-003
      2.74972967e-003 3.45627894e-003 -1.01025943e-002 8.10925011e-003
      3.20732081e-003 1.51590239e-002 -5.76881366e-003 1.55232120e-002
      -9.25456733e-003 8.55800137e-003 -2.96449149e-003 7.55673915e-004
      4.04846063e-003 -6.14698278e-003 7.96438102e-003 -1.35077920e-003
      6.74316310e-004 1.74166192e-003 6.17515482e-003 -1.00637712e-002
      9.14973614e-004 2.84285750e-003 4.47678706e-003 3.40578612e-003
      9.01028980e-003 -5.03497990e-003 2.92776478e-003 8.90948251e-003
      -8.29834584e-003 1.43092386e-002 7.02947937e-003 -9.21669183e-004
      1.64068595e-003 3.63195874e-003 4.43847291e-003 2.62044580e-003
      -3.37823038e-003 8.49489402e-003 -1.77403016e-003 3.79502999e-005
      1.27294028e-004 9.29621141e-003 -6.37737382e-003 -7.20402785e-003
      -7.67336367e-003 9.22259223e-003 -6.98990468e-003 -5.75032132e-003
      7.35919224e-004 6.60516135e-003 5.25063230e-003 7.63678632e-004
      1.19280946e-002 -1.43639697e-002 1.56884529e-002 1.56850107e-002
      7.20887212e-003 -1.00176013e-003 6.08654879e-003 -3.94781539e-003
      5.92197571e-003 4.35186690e-003 3.87188839e-003 1.58488639e-002
      -2.46340921e-003 2.51132925e-003 1.04103424e-002 -2.95192352e-003
      2.24393583e-003 -1.10802695e-003 -7.57426117e-003 -5.54162776e-003
      4.93475003e-003 4.21976019e-003 -3.48230614e-003 -1.08764721e-002
      -4.11254633e-003 1.47173274e-002 1.02073811e-002 8.41564778e-003
      1.54967923e-002 3.65454867e-003 1.27919065e-002 -5.43343183e-003
      2.28687713e-005 1.04610911e-002 1.25516078e-003 2.42515773e-004
      -1.17578376e-002 -1.00870605e-003 3.87857342e-003 3.87784024e-003
      1.51166385e-002 -3.29053914e-003 7.19150295e-003 -3.19897756e-003
      -4.24936321e-003 1.84622519e-002 9.29709245e-003 1.71312632e-003
      1.26453768e-002 3.15260841e-003 1.07246907e-002 1.28899021e-002
      3.50263994e-003 3.72472685e-003 -5.52368164e-003 -2.52744579e-003
      -1.72170922e-002 4.44646692e-003 -1.81106303e-003 1.22321369e-002
      5.82617102e-003 3.17688729e-003 1.19781110e-003 2.07926496e-003
      1.60044357e-002 -7.81827657e-006 -1.23238293e-002 1.87876297e-003
      -6.70303532e-004 1.18771205e-002 1.66542586e-002 -1.31472060e-002
      1.04791122e-002 -1.48874680e-002 -2.86025275e-003 1.23894401e-002
      -3.28864212e-006 -4.25387500e-003 5.08207968e-003 9.21042170e-003
      1.10523039e-002 -2.40575150e-003 2.21488415e-003 1.09748635e-002
      -9.51569248e-003 2.48799788e-005 1.63665717e-003 4.75089857e-003
      -1.50674284e-002 -3.24948342e-003 -1.83588360e-002 1.13774557e-003
      1.05800489e-002 -3.15525662e-003 1.12320259e-002 -2.41175573e-003
      2.62582838e-003 -6.45888504e-004 6.46508718e-003 -2.63321167e-003
      -1.29132681e-002 -1.06676789e-002 3.34261684e-003 -9.43334599e-004
      8.08181823e-004 4.01340052e-003 8.19858164e-003 2.51145917e-004
      -1.03385909e-003 -1.72461532e-002 1.93712965e-003 -5.67789562e-003
      7.99295679e-003 4.25545406e-003 2.78086425e-003 3.18657770e-003
      1.90597633e-003 5.79728046e-003 -8.95797648e-003 1.57958758e-003
      -8.39147397e-005 4.19590157e-003 -3.83770303e-003 -1.05717778e-002
      -6.23614201e-003 -7.17227114e-003 1.41005581e-002 5.70232794e-003
      -6.18495746e-003 1.53319854e-002 -5.95230435e-004 -4.53603454e-003
      -2.58504180e-003 -1.25569908e-003 2.80869863e-004 -1.84827100e-003
      5.24755055e-003 1.88039892e-004 -6.91572670e-003 -4.85425908e-003
      4.99604875e-003 1.65895815e-003 3.19515122e-003 -3.12213670e-004
      -6.61306840e-004 -2.08614231e-003 6.71377080e-003 -1.82986888e-003
      -6.86206203e-003 -5.01802983e-003 -7.93954730e-003 1.76292437e-003
      -1.80796615e-003 1.32364538e-002 -2.49807700e-003 7.51096569e-003
      -2.12589232e-003 5.68077900e-004 -4.41373937e-004 -7.43249012e-003
      -5.63209178e-003 -3.60789942e-003 -4.71128104e-003
      -1.02904998e-003 6.88457582e-003 8.11539497e-003 3.43988370e-003
      -2.99673970e-003 5.78495255e-003 4.11187531e-003 -1.01017719e-002
      -5.75330807e-003 -5.08055463e-003 1.01607936e-002 7.72853103e-003
      2.74380785e-003 -5.91272535e-003 -8.76325648e-003 1.78112334e-003
      -6.02673506e-004 -9.52445157e-003 -2.22806074e-003
      -6.64002169e-003 3.27348523e-003 4.42792475e-003 5.93482167e-004
      4.57343832e-003 7.47986510e-003 -2.06254493e-003 -1.21916942e-002
      -8.21095798e-003 7.13782327e-004 1.01230601e-002 -2.03675553e-002
      5.45059703e-003 -7.22826878e-003 2.73242197e-003 1.19619363e-003
      -9.16840509e-003 -3.21946573e-003 5.32396371e-003 -5.97655447e-003
      -3.02103395e-003 -1.58908486e-003 1.55794257e-002 -2.48599239e-003
      -1.32230436e-002 -8.68025981e-003 1.15952408e-002 5.70554566e-003
      5.07147564e-003 9.60340165e-003 -1.12628490e-002 -1.45169604e-003
      -2.21896241e-003 -1.54163893e-002 -1.68805141e-002 7.17306742e-003
      2.18507135e-003 -3.91812855e-003 1.13659035e-002 -5.15215215e-004
      -6.69877336e-005 3.77845392e-003 -5.62372105e-003 -1.31618083e-002
      1.10742794e-002 1.44183896e-002 9.90525726e-003 3.68736772e-004
      -6.38236431e-003 2.88659823e-004 2.19906354e-003 -4.81830351e-003
      1.14854984e-003 7.58626452e-003 -1.25381828e-003 5.40090213e-003
      -4.22238046e-003 -8.82260874e-003 -8.24545394e-004
      -5.49705064e-008 1.35463467e-002 2.66656117e-003 1.91978575e-003
      -5.46885049e-003 2.64458754e-003 1.21103451e-002 -9.16223042e-004
      8.35747086e-003 -1.37923716e-003 -6.22949377e-003 -3.09726573e-003
      -4.61961888e-003 -7.40689412e-003 7.37050315e-003 1.56420004e-003
      5.20187151e-003 -1.02164887e-003 -4.83347988e-003 -4.25176276e-003
      -1.34251546e-002 1.68843078e-003 -5.56021510e-003 -2.13826704e-003
      -9.72552504e-003 -1.05030984e-002 5.37212472e-003 -9.15577542e-003
      -1.10323802e-002 -3.36668291e-003 8.23487993e-003 2.66627292e-003
      2.13795365e-003 2.54857820e-002 -1.96420006e-003 -1.63278519e-003
      -4.51167393e-003 -1.05232708e-002 1.34149904e-003 4.83233854e-003
      -1.57717394e-003 1.09757911e-002 1.02636693e-002 1.16052497e-002
      -6.42701983e-003 8.11558962e-003</_>
    <_>
      -3.92486108e-003 -5.44701563e-003 3.51393386e-003 -1.03864004e-003
      -1.46515656e-003 -5.29284705e-004 -4.75871377e-004
