<?xml version="1.0"?>
<opencv_storage>
<my_svm type_id="opencv-ml-svm">
  <svm_type>C_SVC</svm_type>
  <kernel><type>LINEAR</type></kernel>
  <C>1.</C>
  <term_criteria><epsilon>9.9999999392252903e-009</epsilon>
    <iterations>2147483647</iterations></term_criteria>
  <var_all>350</var_all>
  <var_count>350</var_count>
  <class_count>8</class_count>
  <class_labels type_id="opencv-matrix">
    <rows>1</rows>
    <cols>8</cols>
    <dt>i</dt>
    <data>
      80 165 171 195 209 210 245 249</data></class_labels>
  <sv_total>28</sv_total>
  <support_vectors>
    <_>
      -2.54746638e-002 -3.48888780e-003 -3.43309017e-004
      -2.57043005e-003 6.10293821e-003 -6.93433220e-003 -3.52464872e-003
      1.10381963e-002 -2.15314459e-002 1.18940137e-002 1.17335292e-002
      5.62629476e-003 8.02212860e-003 -2.99390638e-004 4.64309473e-003
      7.93470163e-003 2.16935035e-002 9.40610096e-003 -5.36494888e-003
      2.42771837e-003 5.06440271e-003 9.31936223e-003 -1.80121548e-002
      1.12718029e-004 2.07914412e-003 -1.67445522e-002 5.01842238e-004
      1.68332050e-003 -1.38477387e-003 2.52546137e-003 -1.69101935e-002
      -5.24279149e-003 -3.92467016e-003 1.23730944e-002 -1.81845762e-002
      1.18890135e-002 5.25640557e-003 -8.16647988e-003 9.98168485e-004
      7.93486927e-003 1.86552722e-002 6.26524445e-003 1.77774057e-002
      7.79532781e-003 9.39384743e-004 7.56369531e-003 -9.80061572e-003
      7.54797598e-003 -6.10501971e-003 -1.74932554e-002 -4.73080063e-003
      2.42687389e-002 -2.59073544e-003 2.14666743e-002 8.89576913e-004
      1.30317034e-002 7.94600882e-003 -3.73671018e-003 -7.33493175e-003
      -1.39388721e-002 1.32092638e-002 -1.40230749e-002 1.74439640e-003
      -8.62618815e-003 2.36095246e-002 -1.55018102e-002 -1.83511544e-002
      -1.13059068e-002 -1.13972160e-003 -2.68323068e-002 6.16713474e-003
      2.92207915e-002 -2.90613901e-002 -1.93463285e-002 -2.75107264e-003
      -4.47328063e-003 -1.76806170e-002 9.04200692e-003 6.84231473e-003
      4.36852360e-003 8.00679065e-003 -1.00248707e-002 -1.39078181e-002
      -3.98808159e-003 -9.66911111e-003 -3.70694266e-004 2.53008446e-003
      -1.18029995e-004 -8.97781365e-003 5.64017799e-003 1.62435789e-002
      2.36009504e-003 -7.14435894e-003 -4.12021019e-003 -1.23305582e-002
      2.20559392e-004 3.44734266e-003 -1.65416840e-002 -2.81681353e-003
      -1.21920139e-005 -1.56628632e-003 2.80400249e-003 -9.16782580e-003
      -2.92053516e-003 -1.11936647e-002 -9.44687054e-003 3.51222348e-003
      8.53551202e-004 -1.94572434e-002 -7.73117319e-003 6.76900474e-003
      5.20864967e-003 -1.82191608e-003 3.51561909e-003 7.65008386e-003
      8.69136862e-003 -1.76944733e-002 8.45299661e-003 -4.17380361e-004
      -8.17741640e-003 1.35178063e-002 1.15036415e-002 4.01607109e-003
      -6.03870722e-003 -5.32870507e-003 9.38542944e-004 -2.66256128e-002
      9.72831901e-003 1.00234458e-002 2.42351629e-002 -1.53416246e-002
      9.75594483e-003 -8.14401731e-003 -5.04328636e-003 -2.39260178e-002
      1.93954390e-002 -1.54676277e-003 8.40681233e-003 -2.39564828e-003
      2.00843974e-003 -9.61167552e-003 8.25595390e-003 4.84326342e-003
      -9.38645750e-003 -3.87119688e-002 -1.63042396e-002 1.04465773e-002
      2.30077617e-002 -6.46210695e-003 -5.10011893e-003 3.62179102e-003
      1.36200031e-002 -8.40658613e-004 4.05169465e-003 -1.16574271e-002
      -1.64305121e-002 5.07387798e-004 -1.24467826e-002 -1.83555037e-002
      3.14907706e-003 9.75252967e-003 -4.08118777e-003 5.58289792e-003
      -3.50594916e-003 2.59031393e-002 2.64301104e-003 3.91621143e-003
      7.81163760e-003 1.33630517e-003 1.18486211e-002 -1.08192395e-003
      9.69077554e-003 1.14637427e-002 -1.37612149e-002 -3.26363440e-003
      -6.23837719e-003 3.42471674e-002 -9.52257030e-003 -1.95486173e-002
      -1.06100338e-002 1.82899926e-002 -2.10998347e-003 1.08684711e-002
      1.92575436e-002 8.16149754e-004 1.72385722e-002 1.92428660e-002
      -2.41348241e-002 -1.30248005e-002 1.33126639e-002 1.85411107e-002
      -2.09946092e-002 1.42278196e-002 -3.32078687e-003 -2.96911923e-003
      7.32512353e-003 1.02349864e-002 2.61345785e-003 -1.31927980e-002
      5.57212066e-003 2.47685908e-004 -8.84883199e-003 -1.11487517e-002
      -1.36915920e-002 -3.23687657e-003 -1.27538880e-002
      -3.50085599e-003 1.43309764e-003 -1.66394114e-002 9.46070626e-003
      -1.06931264e-002 -2.46419339e-003 -9.49068367e-003
      -1.33330247e-003 -1.10374466e-002 -2.01829243e-002
      -5.77144884e-003 -7.08074542e-003 -6.14513364e-003 8.69240030e-004
      -2.09494326e-002 1.20454542e-002 -1.40424157e-002 -3.12277884e-003
      -1.57961864e-002 -2.08244100e-002 -1.18595511e-002
      -2.28997553e-003 9.09312256e-003 1.61430258e-002 1.43934684e-002
      -1.72337948e-003 9.25081875e-003 8.84466525e-003 2.73926891e-002
      4.17668978e-003 -4.96195536e-003 -2.98976004e-002 6.10711984e-003
      4.89129266e-003 1.09008001e-002 -2.06151605e-002 2.24978034e-003
      6.33694697e-003 -1.27195520e-002 1.24475574e-002 6.67526061e-003
      9.37001780e-003 -3.55276679e-005 1.02059143e-002 -2.48262007e-003
      7.26212608e-003 -3.55034973e-003 -3.14873061e-003 -2.15534661e-002
      -1.53328963e-002 2.69183889e-003 -5.61599899e-003 -1.50635075e-002
      1.37941139e-002 1.12306904e-002 -1.06496345e-002 -1.03675807e-002
      5.89892326e-004 -1.66325718e-002 -2.24490673e-003 -9.53393802e-003
      8.07820540e-003 -2.12837216e-002 3.04372120e-003 5.28281555e-004
      -1.54327636e-003 2.15165759e-003 -4.49944241e-003 1.13171712e-002
      7.66545907e-003 -1.10753914e-002 1.78250186e-002 4.92063863e-003
      -6.76227454e-003 9.76937730e-003 1.27083752e-002 -1.47195859e-002
      -1.71224158e-002 -1.81196036e-003 -1.20213022e-002
      -1.05457027e-002 -6.05776859e-003 -1.23352685e-003
      -3.50422077e-002 2.37447843e-002 1.52359996e-002 -7.31684081e-003
      -2.87918933e-003 -3.30856303e-003 4.36033588e-004 1.05578098e-002
      -1.59043688e-002 -2.48732278e-003 -4.58668964e-003 1.21234264e-002
      1.41423866e-002 -1.28622139e-002 -1.94325019e-003 -1.74295325e-002
      -3.55602466e-002 -1.29124587e-002 -1.46845160e-002
      -3.10306717e-003 2.39015818e-002 -1.32047152e-002 2.98882974e-003
      9.64337122e-003 5.28141437e-003 -8.35388899e-003 -2.37502325e-002
      1.94616280e-002 -7.65126664e-003 -1.35099459e-002 -2.58950097e-003
      -2.40795016e-002 -1.14228837e-002 -8.41969159e-004
      -7.00978097e-003 2.58191396e-002 -4.24053520e-003 -1.08963819e-002
      6.27869880e-003 -6.81305944e-004 5.25266584e-003 -6.96653547e-003
      5.84555138e-003 1.17434179e-002 5.73735160e-004 -5.34811895e-003
      1.21763870e-002 5.89685561e-003 -9.10203147e-004 4.07454697e-003
      2.79735337e-004 9.85401962e-003 -3.92426178e-003 -1.24666439e-002
      1.44071784e-002 4.63704084e-004 6.47566840e-003 -1.21487919e-002
      -2.04242617e-002 4.85440437e-003 -2.01591477e-003</_>
    <_>
      -6.78819194e-002 1.41383866e-002 2.06973832e-002 -1.34959398e-003
      -2.75868103e-002 2.39937985e-003 -6.25652121e-003 -2.04209890e-002
      -2.80517582e-002 -1.19009595e-002 3.39352116e-002 -1.51208648e-002
      1.73640940e-002 1.93784703e-002 -1.00836856e-002 3.65556031e-002
      2.45949738e-002 1.94963403e-002 2.50446554e-002 -5.30422106e-003
      -1.73583478e-002 3.55736353e-002 1.38241136e-002 2.12394446e-003
      -1.58860311e-002 2.09097117e-002 8.46380135e-004 1.15111619e-002
      2.94907950e-002 -7.34034693e-003 -9.89130203e-005 1.91937890e-002
      7.42912898e-003 -4.10206197e-003 1.23337228e-002 2.38387547e-002
      -2.63157375e-002 -1.69335324e-002 -3.64650227e-003
      -8.82660318e-003 3.94897126e-002 9.81822424e-003 2.47835089e-002
      1.95018053e-002 -7.43702147e-003 6.16578013e-003 3.04758572e-003
      -3.54440301e-003 1.96241438e-002 -4.85860668e-002 -6.49328670e-003
      -1.28293794e-003 1.73912756e-002 1.28188878e-002 9.26477369e-003
      2.08883882e-002 1.87352877e-002 6.41909521e-003 2.39941645e-002
      -1.24902176e-002 1.38286222e-002 1.80139684e-003 -1.35123078e-003
      -1.50192007e-002 3.71169299e-002 1.29159940e-002 -7.61721050e-003
      5.63152554e-003 -8.07171315e-003 -6.53813221e-003 -2.44170334e-002
      2.20042188e-002 -1.76030770e-002 -3.69543768e-002 3.37177771e-003
      -1.70840584e-002 7.39188492e-003 9.66342725e-003 3.75704356e-002
      -2.87298318e-002 -8.77546554e-004 4.46369871e-003 -3.88343260e-002
      1.11283716e-002 -2.91698473e-003 2.65397914e-002 6.62954990e-003
      1.76799782e-002 1.67079829e-002 -7.36048445e-003 1.37528516e-002
      1.02960719e-002 1.49165103e-002 -4.04390544e-002 2.37008426e-002
      1.50133381e-002 -5.68067329e-003 1.20292800e-002 1.62481083e-004
      -2.10520662e-002 -2.75795627e-002 1.12899113e-002 1.07668675e-002
      1.19563965e-002 1.84563436e-002 -2.53148954e-002 -9.31942929e-003
      -4.24602767e-003 -3.52617539e-002 -4.51575480e-002 1.10017546e-002
      9.96934995e-003 -6.37124991e-003 -1.83768384e-002 4.20061778e-003
      -5.99323306e-003 -1.35040423e-002 2.45845765e-002 2.27390826e-002
      -4.19404246e-002 -1.30798770e-002 -2.41224542e-002 6.56774780e-003
      2.73218006e-002 -1.95429195e-002 -2.32060137e-003 -1.90670472e-002
      -2.05611233e-002 1.34131694e-002 4.44035605e-003 -1.55631499e-002
      -1.33936815e-002 9.85122193e-003 6.84437715e-003 -3.20326723e-002
      9.58327204e-004 5.92781045e-003 -1.92358694e-003 -1.79222394e-002
      1.70741938e-002 -6.61623990e-003 3.52455117e-002 -9.88538563e-003
      -2.12192945e-002 9.41630919e-003 -3.22394222e-002 -1.48292966e-002
      1.77803282e-002 -1.81849990e-002 -6.03149133e-003 -1.72669347e-002
      1.96192376e-002 -4.23442088e-002 3.88879888e-003 -1.06661441e-002
      -1.18634067e-002 2.10990775e-002 -1.28712796e-003 1.33288214e-002
      -3.47578153e-003 5.27524389e-003 -7.59056909e-003 2.07378808e-002
      -7.47243967e-003 2.39590164e-002 1.42931361e-002 -1.04816016e-002
      2.32169032e-002 -8.40701628e-003 -1.33306077e-002 3.30755226e-002
      2.95359385e-003 7.14124413e-003 -2.81181596e-002 1.20781045e-002
      8.88560154e-003 -4.53630649e-003 -2.37377938e-002 2.91087292e-002
      1.36272656e-002 -1.00342249e-002 9.47982445e-003 3.49662490e-002
      3.11866566e-003 1.36524225e-002 -3.39222839e-003 1.78393386e-002
      3.25374515e-003 -6.52869195e-002 -2.63546705e-002 3.29532772e-002
      -2.30982322e-002 1.18540078e-002 -6.44749962e-003 2.94684414e-002
      1.33626051e-002 1.19090464e-003 -1.47157619e-002 -8.31388775e-003
      2.45486223e-003 1.11187417e-002 -8.02776590e-003 -3.37004960e-002
      -5.96763846e-003 6.76462846e-003 2.92020617e-003 7.92350713e-003
      2.71311286e-003 -5.98962000e-003 4.17444622e-003 9.08007659e-003
      4.08581691e-003 9.19420738e-003 -4.25735908e-003 -1.73569899e-002
      1.30223846e-002 2.80730333e-002 -1.92290358e-002 -1.64097678e-002
      -4.04263586e-002 -2.48123780e-002 -1.05253225e-002
      -1.74862966e-002 1.23532806e-002 -2.04481967e-002 -7.65786693e-003
      2.84473319e-002 -9.31450445e-003 5.63562429e-003 2.44389325e-002
      1.69785451e-002 9.64589790e-003 -7.34501425e-003 8.74320976e-003
      2.55780742e-002 1.06820408e-002 -2.41080765e-002 -1.19679666e-003
      -2.18213871e-002 2.82509327e-002 -7.99190719e-003 4.86346148e-003
      7.15301326e-003 8.23715795e-003 -2.55109509e-003 3.25067784e-003
      -1.01600739e-003 -7.16496306e-003 9.34720132e-003 8.17204360e-003
      -5.16740093e-003 -1.01266978e-002 1.50516145e-002 6.26446586e-003
      -2.49193348e-002 5.92650566e-003 -3.88897657e-002 -3.01007237e-002
      -1.43863559e-002 -4.68145870e-003 2.09295955e-002 -9.09721013e-004
      -3.18044331e-003 1.68449320e-002 6.33148663e-003 3.56360874e-003
      -1.52010582e-002 9.94974654e-003 1.70893520e-002 -2.47561652e-003
      1.49549982e-002 -8.27695522e-003 -1.74494833e-002 -2.16621924e-002
      1.24161225e-002 4.09918558e-003 1.21732801e-002 4.33669351e-002
      1.71505939e-003 -7.37630064e-003 -6.55272529e-002 1.56442281e-002
      -8.48593749e-003 -1.11647088e-004 -1.63023211e-002 3.11032706e-003
      2.77773980e-002 -7.35452166e-003 -1.69024374e-002 -3.60536724e-002
      2.19942629e-002 -3.78367770e-003 -6.21254090e-003 2.65807416e-002
      1.72150210e-002 -1.51604810e-003 -2.19931211e-002 -1.09358970e-003
      1.97968632e-002 -6.66735088e-003 -1.64101962e-002 2.94531193e-002
      -2.84342058e-002 -6.85277954e-003 -1.67174749e-002 1.54507370e-003
      -5.70818176e-003 -2.94995047e-002 -1.00470847e-002 4.90823686e-002
      -7.16824504e-003 2.66021714e-002 5.06747048e-003 -8.18872545e-003
      8.18368699e-003 -1.17615489e-002 -2.67822878e-003 3.81929707e-003
      -2.32008975e-002 3.19305845e-002 -1.09621612e-002 -9.51910950e-003
      -1.90948267e-002 -2.79909931e-003 -3.27051282e-002
      -3.59016354e-003 1.49532929e-002 2.19637938e-002 1.44636007e-002
      7.96256703e-004 -7.56528880e-003 3.08694672e-002 -3.85176134e-003
      2.48081284e-003 -1.67473238e-002 2.22548656e-003 -1.36421295e-002
      -2.12549102e-002 4.24201228e-003 2.59180996e-003 1.84876285e-002
      -1.28671508e-002 -3.35133146e-003 -1.94366761e-002
      -5.84242400e-003 -1.25850504e-002 -1.20845810e-002
      -1.60494372e-002 1.64485555e-002 3.64347659e-002</_>
    <_>
      -2.51822942e-003 5.55821229e-003 7.79038807e-003 -2.03939360e-002
      -7.41359126e-003 -1.41558433e-002 -8.33811704e-003 1.21715199e-003
      -4.65383232e-002 4.92759002e-003 3.52953270e-004 -2.14617676e-003
      6.40685251e-003 4.82763723e-003 -1.49833243e-002 -4.94426163e-003
      7.98865221e-003 -4.16383054e-003 1.59715638e-002 4.47040563e-003
      -9.63552576e-003 5.43494802e-003 2.24713096e-003 -1.02203097e-002
      -1.12493439e-002 -1.39280399e-002 8.28849245e-003 -2.04602280e-003
      1.68429483e-002 1.38464943e-002 1.28016351e-002 -1.69116706e-002
      6.75743795e-004 1.40745770e-002 -6.56598201e-003 -8.46469658e-004
      2.23742723e-002 -1.08010722e-002 -3.13913776e-003 -1.04811685e-002
      1.48286074e-002 6.79805130e-003 1.44915618e-002 9.90193058e-003
      -8.13676231e-003 3.18047404e-003 -1.65043138e-002 7.81382667e-004
      -1.52741708e-002 -1.37846358e-002 7.48335803e-003 1.82505678e-002
      9.90461558e-003 -2.14402750e-003 8.46459065e-003 -2.09130609e-004
      3.72813316e-003 -1.18171948e-003 1.39165409e-002 -1.21512116e-004
      -1.85364054e-003 3.48872622e-004 7.41568906e-003 -2.48242775e-003
      2.80683208e-002 -1.77275632e-002 -5.20453881e-003 3.13336588e-003
      4.84341010e-003 -2.43393444e-002 -5.37598832e-003 2.39803139e-002
      -1.41510377e-002 -2.36478820e-002 1.89113710e-003 -3.00689391e-003
      -7.84785673e-003 1.34373792e-002 1.70513429e-002 -2.92946436e-002
      1.76031925e-002 5.97141450e-003 1.20900450e-002 5.17144450e-004
      -2.38163979e-004 1.25502283e-002 1.71844065e-002 7.00109405e-003
      8.12906958e-003 1.66268926e-002 1.74123682e-002 1.28362970e-002
      -1.27233751e-002 -1.90265197e-002 -4.40639211e-003 4.60475974e-004
      -2.21857950e-002 -5.67760412e-003 -7.66829634e-003
      -9.85292811e-003 -6.10494241e-003 -1.42191332e-002
      -2.30253004e-002 1.10007217e-002 -1.23701047e-003 3.31006944e-003
      -1.87315904e-002 2.15169438e-003 -8.83348286e-003 -1.45581318e-002
      3.74886184e-003 -6.39051432e-003 -4.33922483e-004 -1.50494380e-002
      8.95050354e-003 -1.07247215e-002 1.49575006e-002 1.03917783e-002
      -1.32651515e-002 9.14320629e-003 7.85263628e-003 -1.83269847e-003
      5.19615319e-003 4.87238122e-003 7.73310708e-003 6.51455019e-003
      -3.65656149e-003 -5.62927802e-004 1.11704459e-002 1.29459342e-002
      -9.19545814e-003 -6.11122092e-003 -6.12949440e-003 5.26858820e-003
      -5.54540427e-003 8.64947774e-003 1.17878290e-002 9.20081395e-004
      -3.91457975e-003 -2.32838979e-003 3.77778808e-004 6.04888052e-003
      1.15632704e-002 -1.51549364e-002 -1.34440074e-002 -1.40404906e-002
      -3.44249047e-003 1.87773816e-002 1.95264758e-003 -1.31667349e-002
      -1.14130545e-002 5.77077735e-004 -4.01840918e-003 -1.01250755e-002
      -2.36340575e-002 -8.69611651e-003 2.96878945e-002 -1.54590691e-002
      -1.13322642e-002 8.76503065e-003 -6.93100272e-003 -1.17557282e-002
      -1.07609127e-002 -7.64786080e-003 9.92370117e-003 -9.00144130e-003
      -2.72691692e-003 -2.41145259e-003 2.29162164e-003 4.08304110e-003
      3.92825017e-003 -8.07639270e-004 -5.90897107e-004 -2.13762503e-002
      -3.36588323e-002 -1.46875232e-002 1.11349840e-002 -5.64408721e-003
      6.66704541e-003 -1.86918341e-002 -7.71237363e-004 3.64285428e-003
      -4.98265633e-003 -6.08762307e-003 -5.24789887e-003 7.21896440e-003
      1.02686947e-002 -2.37257648e-002 -2.45003682e-002 -7.66418595e-003
      2.02121194e-002 -2.38235239e-002 -8.70795455e-003 -1.85817678e-003
      -2.04048236e-003 2.79219053e-003 -1.21685080e-002 4.47391020e-003
      -8.32882058e-003 4.45779460e-003 -2.11423431e-002 8.29856284e-003
      -2.02328861e-002 2.21681856e-002 1.64220743e-002 -1.34143457e-002
      1.53989112e-003 -2.12584785e-003 1.86345971e-003 -1.22348201e-002
      2.09647771e-002 -1.75731704e-002 -7.69233564e-003 -1.84655413e-002
      -7.08756503e-003 -2.35579256e-002 6.48419652e-003 -1.22537399e-002
      1.28446827e-002 -1.77967250e-002 -2.06686277e-002 8.35255254e-003
      -4.71924618e-003 9.85700916e-003 1.04305018e-002 -6.37707673e-003
      1.75301190e-002 -8.31804052e-003 1.53900711e-002 1.33155966e-002
      -9.91922617e-003 -9.98685416e-003 1.57038067e-002 3.96003900e-003
      2.34316215e-002 1.64997485e-002 -1.92591846e-002 1.37403910e-003
      1.01746684e-002 1.24407904e-002 -9.96606774e-004 -3.59395146e-002
      2.37074238e-003 3.44829843e-003 9.32629162e-004 -1.64961931e-003
      1.03160795e-002 -4.52637527e-004 -1.92593771e-003 6.16788026e-003
      2.83035031e-003 -3.00179869e-002 -1.68928877e-002 3.32964445e-003
      -8.00779741e-003 -2.93939635e-002 -2.59454325e-002
      -6.14330778e-003 -6.11428497e-003 -7.31165940e-003 2.76634041e-002
      -1.28703620e-002 -1.26072196e-002 7.70104816e-003 -2.32647313e-003
      -6.60178857e-003 -2.93094921e-003 -1.00565944e-002
      -3.34372604e-003 5.41090639e-003 1.99862048e-002 -1.37116741e-002
      -8.60326545e-005 1.00490994e-004 2.00331472e-002 -1.78818647e-002
      -9.20344703e-003 1.69021487e-002 -4.02669422e-003 2.23174039e-002
      1.96799748e-002 2.63775885e-002 -1.11096480e-003 2.40850099e-003
      -2.06209011e-002 -1.01211164e-002 1.23568214e-002 1.98690235e-004
      -2.88059860e-002 -3.64976414e-002 6.24972535e-003 3.28076258e-003
      -3.64986372e-005 -1.64171532e-002 -1.70682196e-003 1.66099082e-004
      1.62877277e-005 6.42065611e-003 9.27041937e-003 4.79952479e-003
      -7.60477362e-003 2.06233393e-002 -1.52338045e-002 6.22695312e-003
      -1.80450119e-002 -7.46506639e-003 4.81238542e-003 -2.96218344e-003
      -1.19615225e-002 7.24705588e-003 4.52172011e-003 3.23866308e-003
      -1.45151531e-002 3.17018991e-003 -1.16940159e-002 1.79866366e-002
      1.63264219e-002 -1.65460929e-002 -1.42575670e-002 1.82907637e-002
      2.31047766e-003 -2.84376461e-002 -1.36787416e-002 -2.12257672e-002
      -1.60583470e-003 -5.23201190e-003 1.41451005e-002 1.34808440e-002
      9.20476858e-003 3.68611072e-003 1.69548031e-003 4.96970210e-003
      -3.42467055e-003 1.76528953e-002 1.41062746e-002 -1.20359100e-003
      6.25525881e-003 -9.39192344e-003 9.82025266e-003 9.81788617e-003
      6.96730521e-003 -5.73335856e-004 -3.02141788e-003 7.53924809e-003
      1.28305638e-002 -2.61353292e-002 5.54547086e-003 2.51405723e-002
      8.92300624e-003 1.15290964e-002</_>
    <_>
      -9.98825859e-003 -2.68579721e-002 -2.58468539e-002
      -1.00834547e-002 -3.14760879e-002 1.90994628e-002 2.95103109e-003
      -3.13579477e-002 -2.81591248e-002 1.03390869e-003 2.86142640e-002
      -2.09843386e-002 3.06060398e-003 3.22586764e-003 4.48102504e-003
      -1.18098473e-002 5.49160764e-002 5.54631604e-003 1.30775673e-002
      -5.58117544e-003 -9.62263718e-003 1.25719616e-002 1.04634501e-002
      -6.21494837e-003 1.09001733e-002 -3.23280841e-002 -3.60380299e-002
      6.49041263e-003 4.94402051e-002 -8.56960565e-003 2.54048053e-002
      2.58450750e-002 3.80853540e-004 -6.69295946e-003 1.77200744e-003
      1.93573330e-002 2.83799656e-002 1.11979246e-002 1.68500748e-002
      -7.80284218e-003 8.91676918e-003 -6.15516969e-004 3.46625857e-002
      2.55224463e-002 -1.89464577e-002 -2.06268597e-002 -5.29914536e-003
      -7.88984448e-003 -1.61312788e-003 -4.65092110e-003
      -1.93210579e-002 2.80474983e-002 3.50762978e-002 -5.82574541e-003
      2.32717283e-002 1.73896905e-002 1.45207252e-002 -2.98605510e-003
      1.90655235e-004 1.39962779e-002 -7.46907899e-004 2.91622076e-002
      7.03258719e-003 -3.09926681e-002 1.50491297e-002 -1.38275726e-002
      -3.39541174e-002 -2.65257377e-002 9.96749965e-004 -7.77779892e-003
      1.88496581e-003 1.96232926e-002 -1.31642353e-002 -1.33367162e-002
      -7.67308846e-003 -1.45987170e-002 -4.22047041e-002 2.49402113e-002
      2.91732308e-002 1.12838186e-002 1.23675345e-002 -1.40954191e-002
      1.41908638e-002 2.11171899e-002 -2.62039211e-002 -3.30232903e-002
      -1.37326848e-002 9.29809175e-003 -6.78758509e-003 -2.53579654e-002
      2.15989910e-003 2.51351222e-002 1.23901870e-002 -2.47301608e-002
      -2.96384580e-002 -1.77322831e-002 -1.38518941e-002 6.60212338e-003
      1.61943305e-002 -6.14685938e-003 -1.77267920e-002 -2.79385541e-002
      -1.24988928e-002 9.67882015e-003 -1.93529204e-002 2.11328790e-002
      -6.65662764e-003 -2.63207164e-002 -6.03533303e-003
      -2.46664435e-002 4.80947942e-002 -4.22237907e-003 1.79034248e-002
      -3.19762528e-002 1.86341791e-003 -2.06693145e-003 7.97071494e-003
      -2.46224366e-002 -5.85368183e-003 1.27485851e-002 3.99274373e-004
      2.40511121e-003 -5.04914997e-003 -2.43528355e-002 -3.04926140e-003
      2.93984893e-003 -1.68390200e-002 -1.17869228e-002 -3.97833064e-002
      1.96840335e-002 -5.07628638e-003 -3.62928696e-002 1.27454130e-002
      -1.03811058e-003 1.15129771e-002 -9.28025879e-003 1.59020128e-003
      7.43216090e-003 -1.39614483e-002 7.14137778e-003 2.73003411e-002
      -4.51176474e-003 -7.91138445e-004 -2.15470456e-002
      -2.37590671e-002 -3.53956558e-002 -2.12397594e-002 1.81559958e-002
      -4.08568680e-002 -3.85196880e-002 1.75480340e-002 -6.00220123e-003
      -2.96667535e-002 1.10032791e-002 1.90750286e-002 -1.04454719e-002
      8.55747610e-003 -4.29904833e-003 -6.86835451e-003 1.79795399e-002
      -1.03363686e-003 4.18748101e-003 -3.96312959e-002 -2.72491407e-002
      -1.06507167e-002 -6.73784316e-003 2.22590026e-002 -2.48637889e-002
      -1.61161087e-002 3.46447192e-002 1.99137833e-002 -7.75587978e-003
      1.52084958e-002 -5.04152291e-002 -2.17134599e-002 3.15121450e-002
      -1.49826042e-003 8.29680543e-003 -1.67893376e-002 -3.37088783e-003
      -3.61183137e-002 3.36956349e-003 2.32715113e-003 3.06750480e-002
      1.76783986e-002 -1.81310263e-003 1.35931335e-002 -1.66632570e-002
      -3.06850988e-002 3.19682695e-002 3.51738520e-002 -1.71490503e-003
      8.81815143e-003 -2.05964148e-002 9.70114768e-003 -3.87357525e-003
      2.02082144e-003 2.80248374e-002 1.97611022e-004 2.57528946e-003
      -3.77672315e-002 4.12006164e-003 7.32532656e-003 1.87959541e-002
      -1.55325914e-002 -2.92179137e-002 -1.83410884e-003
      -2.70999074e-002 -2.73593441e-002 3.10328975e-002 7.24083837e-003
      -1.82394926e-002 9.44395375e-004 5.43858763e-003 -1.34795671e-002
      -2.80811870e-003 1.19758956e-002 9.81160067e-003 2.65901745e-003
      -3.58593389e-002 -1.03428820e-003 2.69424785e-002 -4.19844035e-003
      1.40198469e-002 -5.29275462e-003 -3.26802023e-002 9.07159597e-003
      4.48064692e-003 2.87139360e-002 7.73347029e-003 -6.96903211e-004
      -9.75108705e-003 2.18304563e-002 -1.95978656e-002 3.69722918e-002
      2.28838660e-002 -8.52139387e-003 -1.92465261e-002 -9.49231535e-003
      -5.72970184e-003 -6.55371742e-003 2.65094582e-002 4.00789119e-002
      2.39160098e-002 -6.46234676e-003 -1.49145918e-002 -6.40527159e-002
      3.56140570e-003 2.29488797e-002 2.37176679e-002 -8.36291164e-003
      -5.47807897e-003 -5.64401830e-003 2.10066582e-003 -3.59382806e-003
      -7.05426559e-003 -5.95283322e-003 -2.28924211e-003 7.66568631e-003
      3.95795740e-002 3.42106558e-002 2.32849480e-003 -2.63260603e-002
      4.96294908e-003 3.58332396e-002 1.70394522e-003 -1.37895113e-002
      -1.79830019e-003 -1.05658071e-002 1.25400284e-002 -1.49820736e-002
      -1.40629709e-002 -6.59294613e-003 -1.34816756e-002
      -4.48293006e-003 3.56503320e-003 -3.10727581e-002 2.22456641e-002
      -2.07233131e-002 -1.21621983e-002 1.71192810e-002 1.58364102e-002
      -3.29588763e-002 1.63112290e-003 4.80897492e-003 4.24955226e-002
      3.58621702e-002 -6.43032650e-003 -3.65528986e-002 -3.25416140e-002
      2.50146482e-002 -1.00798300e-002 -2.63661183e-002 2.90559381e-002
      2.08644848e-002 1.42219542e-002 -3.58490907e-002 -8.46209284e-003
      1.35273486e-002 1.68069452e-002 1.51228569e-002 2.70478744e-002
      -3.77944000e-002 1.79278769e-003 7.01491348e-003 -3.72761348e-003
      2.33664159e-002 -2.29129847e-002 -9.32991737e-004 4.85379389e-003
      -3.56388316e-002 1.72971524e-002 1.11921169e-002 1.07848062e-003
      5.56984276e-004 -5.75208431e-003 1.53454123e-002 -6.68598223e-004
      -1.89719093e-003 8.19004700e-003 -4.31241170e-002 -1.58532616e-002
      -2.74517927e-002 -5.37092164e-002 3.65428887e-002 -1.19919991e-002
      7.55765289e-003 -1.39919994e-002 1.39826564e-002 -9.65546933e-004
      -2.40538195e-002 -1.94175704e-003 -1.58603990e-003 8.87278933e-003
      -1.14097074e-002 7.20660901e-003 4.07118350e-003 -5.57274790e-003
      -3.77623015e-003 1.54846190e-002 2.35109143e-002 1.54956765e-002
      -6.45155041e-003 -8.86822958e-003 8.00468214e-003 9.57639236e-003
      -1.74129300e-003 -2.04452220e-002 2.13571265e-002 2.07025055e-002</_>
    <_>
      -8.09537712e-003 -1.30441468e-002 1.53583139e-002 -1.61674563e-002
      -1.68153271e-002 7.48607155e-004 5.92882698e-003 -6.25015143e-003
      -2.81207990e-002 -2.57251766e-002 1.63929886e-003 -3.46696982e-003
      -4.59055230e-003 7.05210865e-003 -4.85036150e-003 7.30413804e-003
      1.23625863e-002 9.76382196e-003 7.84400944e-003 1.00630065e-002
      1.49496691e-002 9.80407838e-003 -6.68542110e-004 -8.24794453e-003
      3.64278356e-004 -2.38589440e-002 1.49873933e-002 1.13607664e-002
      3.40099819e-002 1.08510358e-004 1.03426131e-003 -1.96025018e-002
      8.45289230e-003 5.62483165e-003 -4.42357548e-003 8.07828270e-003
      -1.19632622e-003 8.24601483e-003 -1.40183410e-002 -1.54196220e-002
      1.76462699e-002 -6.59185322e-003 1.96240749e-002 1.09367529e-002
      -1.04407659e-002 1.14348449e-003 4.46963310e-003 4.08690277e-004
      6.51345297e-004 2.02549412e-003 -1.09404512e-003 5.52841974e-003
      -2.70778337e-003 8.79605114e-003 -6.99632568e-003 4.04938357e-003
      -1.11594675e-002 -2.62044910e-002 -5.69744501e-003 1.03433989e-002
      -4.34295321e-003 -3.06518655e-003 1.83039587e-002 -9.53764888e-004
      1.66674424e-002 2.50498578e-003 -7.03839958e-003 -3.44159361e-003
      1.39410491e-003 -6.95338054e-003 -8.54247808e-003 9.91727691e-003
      -1.66514497e-002 -2.83508413e-002 -1.30725065e-002
      -2.66463328e-002 -5.96354017e-003 1.45837730e-002 3.13612795e-003
      1.09835602e-002 3.50874756e-003 -8.10402445e-003 2.09113210e-003
      9.75371338e-003 9.23046842e-003 1.03588868e-003 3.95679474e-003
      6.89588580e-003 9.80485417e-003 -4.25637960e-002 1.02737192e-002
      -6.33889576e-003 -7.59118237e-003 -1.90104339e-002 1.01558352e-002
      1.34486865e-004 -1.09535027e-002 -1.35721881e-002 -5.59958024e-003
      3.51698766e-003 -2.60253809e-003 -4.76947753e-003 -1.39390323e-002
      -4.86756326e-004 -1.36724915e-002 9.07910429e-003 -1.36043802e-002
      -9.52097774e-003 1.33347865e-002 -2.56517567e-002 9.98746138e-003
      6.96999952e-003 -1.06637115e-002 -3.14658098e-002 7.61448126e-003
      -1.90815516e-002 9.23287123e-003 1.73326060e-002 -7.38579920e-003
      9.98723693e-003 6.96896529e-003 -1.14842057e-002 4.76012798e-003
      5.48329391e-003 -1.46059087e-003 -9.59572941e-003 -1.54368626e-002
      -3.40009201e-003 8.75458773e-003 2.17900593e-002 -3.18451715e-003
      -6.77855266e-003 -9.66836791e-003 -2.41008075e-003
      -7.68265780e-003 -4.04004799e-003 -1.33730238e-003 6.36156974e-003
      -7.94518832e-003 1.04926238e-002 -5.91296051e-003 1.16358791e-002
      9.54567734e-003 -1.62538290e-002 -1.53080896e-002 -2.68143625e-003
      -9.91633162e-003 1.39005063e-002 1.96487419e-002 -1.58909168e-002
      6.36386266e-003 -1.00351486e-003 -3.30426585e-004 -1.30020804e-003
      -4.55789687e-003 -1.30301621e-002 3.12028616e-003 -1.35019049e-002
      -1.88679099e-002 1.39604844e-002 -1.09442242e-003 -2.68634651e-002
      -1.91829924e-003 -2.37202123e-002 1.52520621e-002 -4.09325119e-003
      -4.64845309e-003 -1.21546641e-003 3.83443153e-003 -5.60225686e-003
      1.30819883e-002 -3.10411467e-003 1.50395127e-003 -2.07532458e-002
      3.25308717e-003 -2.32254807e-003 1.14273680e-002 -1.24998000e-002
      2.21532350e-003 1.28469628e-003 -3.44966003e-003 -6.40948303e-003
      -1.30116418e-002 -2.53968267e-003 6.99008023e-003 3.90528422e-003
      1.03618726e-002 -1.35424100e-002 6.07220689e-003 1.88065390e-003
      1.19735785e-002 1.56582228e-003 3.75960208e-003 -8.22549313e-003
      1.21581275e-002 -1.58014577e-002 1.53905340e-003 -6.91576488e-003
      8.95217061e-003 -4.67787031e-003 -1.39652044e-002 -4.37517557e-003
      -4.83376461e-005 -8.44016951e-003 1.66495494e-003 7.28449877e-003
      1.36201996e-002 -1.04235373e-002 7.99016678e-004 2.45435582e-003
      1.47613781e-002 7.43742939e-003 5.28897857e-003 -2.41189543e-002
      -1.19578345e-002 1.36086028e-002 -4.20104479e-003 -2.35150382e-002
      -7.69304391e-003 -9.33604222e-003 2.39579752e-003 1.16784042e-002
      -1.39606129e-002 1.38528459e-002 4.81898943e-003 -2.76494361e-002
      -2.21325969e-003 7.96427019e-003 2.17162259e-002 2.88109422e-005
      1.62484981e-002 -5.40604210e-003 1.09052192e-002 1.32902041e-002
      -1.01799646e-003 -2.96495133e-003 -7.13065872e-003
      -3.41066392e-003 -1.62963010e-002 -3.27757979e-003
      -1.35104684e-002 8.83506553e-004 1.35675827e-002 5.52433124e-003
      -3.67726083e-003 4.47238469e-003 -1.05590494e-002 2.89442658e-004
      1.73706040e-002 7.21540628e-003 1.56905421e-003 1.51870408e-004
      9.60738771e-003 -1.88572053e-002 -2.38196203e-003 -6.29016839e-004
      3.58466431e-003 -1.25058007e-003 1.54504378e-003 7.51634222e-003
      2.05592699e-002 1.87048558e-002 -5.48723713e-003 2.34140605e-002
      1.00851506e-002 -4.19590715e-003 -5.67443611e-004 -8.33994709e-003
      1.62814395e-004 1.10306712e-002 6.42631762e-003 -2.39460655e-002
      -3.27007882e-002 -1.86581425e-002 -1.19655859e-003 1.58533622e-002
      -1.97846699e-003 1.09649263e-002 -1.75654551e-003 8.90724454e-003
      -1.75671466e-002 5.81855094e-003 -5.08262659e-004 -4.32185130e-004
      -2.47915066e-003 -3.17160483e-003 7.27469102e-003 -1.76538422e-003
      -2.08850875e-002 -1.06687993e-002 1.21337036e-003 -2.88199838e-002
      1.36970906e-002 -4.40292433e-003 8.91270209e-003 -6.88602170e-003
      1.45777678e-002 -4.50731535e-003 1.52042340e-002 -1.15905739e-002
      1.65210082e-003 1.00014200e-002 -7.46853137e-003 -3.21727223e-003
      6.23562094e-003 -2.91145518e-002 1.16152996e-002 -9.25270747e-003
      5.07425284e-003 1.57093965e-002 4.58504213e-003 1.13928309e-002
      1.10978037e-002 -3.87974246e-003 -3.11241066e-003 -2.88608833e-003
      1.69933494e-002 -7.69335311e-004 1.31441737e-002 -5.74617181e-004
      7.84555171e-003 -2.09759008e-002 -2.19819825e-002 8.84415116e-003
      -2.26530060e-003 -5.71358623e-003 7.50807300e-003 4.89771599e-004
      1.47634959e-002 3.25692864e-003 7.52869574e-003 6.68068044e-003
      6.04989799e-003 -7.32617546e-003 2.38939375e-003 1.04838004e-002
      1.53774151e-003 1.18873669e-002 5.83758205e-003 4.52977046e-003
      8.48613959e-003 1.92228593e-002 8.43032915e-003 -2.04534084e-002
      -2.61599924e-002 -3.76614109e-002 -1.40591273e-002 3.25687556e-003
      -2.47058924e-003 -2.78914254e-003</_>
    <_>
      -1.24582238e-002 -3.10743554e-003 2.17512529e-002 7.97548145e-003
      -6.36087451e-003 -7.28139374e-003 -2.39338502e-002
      -2.93678958e-002 8.64560716e-004 1.65236164e-002 1.57573670e-002
      -2.74489773e-003 -6.89797010e-003 8.19153059e-003 -2.30927784e-002
      1.23378774e-002 8.86629056e-003 6.52044080e-003 9.35763866e-003
      2.24287692e-003 -2.91764922e-002 3.06561007e-003 1.37184728e-002
      2.94096321e-002 -6.36841264e-003 -1.95241999e-002 -9.05900449e-003
      8.10387172e-003 -1.07252719e-002 1.60154216e-002 -4.32026153e-003
      -3.04144640e-002 1.77129847e-003 -3.38801509e-003 2.53365794e-003
      1.58070065e-002 3.98287782e-004 -1.91147495e-002 8.03409424e-003
      -1.31485099e-002 -4.42051422e-003 1.68137867e-002 2.91411374e-002
      -2.70695388e-002 -5.29801380e-003 2.20200769e-003 -1.58563780e-003
      -1.42803750e-004 -6.05262220e-002 4.91885887e-003 -1.90903374e-003
      2.80230474e-002 3.57522294e-002 -1.99208502e-003 7.24500045e-003
      7.83977006e-003 -1.46006020e-002 6.92539383e-003 1.41040711e-002
      -2.60007977e-002 1.09602092e-002 -5.27558965e-004 1.64916944e-002
      4.00523422e-004 1.48519231e-002 1.08358804e-002 -5.69402298e-004
      -1.24110188e-002 -9.62044857e-003 -1.23489490e-002 2.21598661e-003
      3.57527356e-003 -1.76008604e-002 -8.04525428e-003 1.79517251e-002
      -1.42181087e-002 -1.41597949e-002 3.42533970e-003 3.18460427e-002
      -8.22511129e-003 1.59650561e-004 7.94657599e-003 -1.28489381e-004
      1.46690300e-002 1.12630529e-002 -3.63673829e-003 -2.83523928e-003
      9.77225229e-003 -5.34408540e-003 -4.29015886e-003 1.82364155e-002
      -6.80906000e-003 -7.91811850e-003 -7.66172167e-003 1.14169074e-002
      4.93299402e-003 -2.03242693e-002 6.93985820e-003 -1.26041230e-002
      -8.84024333e-003 -4.15338948e-002 2.76518520e-002 -6.05825153e-005
      3.39749013e-003 6.37276284e-003 -4.16944362e-003 -9.66641307e-003
      4.05154424e-003 -3.42512541e-002 7.79343629e-003 -1.87997101e-003
      -2.19764896e-002 3.93342227e-003 -1.83615014e-002 9.82454326e-003
      1.59756676e-003 1.96443778e-002 2.08532140e-002 -1.46604897e-002
      -3.15417605e-003 -1.24939717e-002 -1.04216812e-002 1.59030780e-002
      3.97247903e-004 1.62096005e-002 7.05710566e-003 -2.52541923e-003
      2.22740741e-003 -8.07700772e-003 2.64686672e-003 -2.03265063e-002
      2.28069182e-002 1.04793850e-002 7.99277332e-003 1.04783121e-002
      -6.08524308e-003 5.09404764e-003 -4.51742409e-004 -4.88746446e-003
      -2.19632452e-003 -6.52559567e-003 1.83187854e-002 -4.23316238e-003
      -4.22299234e-003 1.47731863e-002 -1.51601145e-002 -4.37808819e-002
      1.91705283e-002 2.99707381e-006 -1.17081339e-002 -1.56067277e-003
      8.37590639e-003 -2.52388474e-002 1.98321976e-003 1.38869537e-002
      -1.41126122e-002 -1.56510957e-002 -3.45322507e-004
      -2.76895240e-003 2.03293879e-002 1.67937763e-002 -5.14050806e-003
      -3.51050422e-002 1.23687675e-002 3.68814319e-002 1.65351294e-002
      1.72821563e-002 -2.48074741e-003 1.00248130e-002 1.94900334e-002
      3.23220901e-002 2.10557901e-003 1.80126578e-002 -3.03212460e-002
      -1.75590720e-002 8.63482244e-003 4.00844496e-003 5.40684164e-003
      1.26111330e-002 8.65506660e-003 9.47864912e-003 4.87539731e-003
      -7.02018011e-003 -7.08825188e-003 -8.25655274e-003 8.49809311e-003
      1.98721141e-002 -1.46564627e-002 -3.16724181e-002 2.03390662e-002
      -1.14137828e-002 -2.16486417e-002 6.04873104e-003 -1.97095107e-002
      2.43343669e-003 -2.32388116e-002 1.11243492e-002 7.57139060e-004
      3.28006060e-003 7.51866912e-003 -9.50093661e-003 2.00151480e-004
      -7.55125750e-003 5.28629776e-003 -5.88335237e-003 -7.70740444e-004
      -1.73086347e-003 -8.97044223e-003 5.72798075e-003 -5.22911687e-005
      -1.42454831e-002 -1.05538098e-002 3.54796508e-003 -1.32117672e-002
      1.22888724e-003 -5.70085552e-003 7.76550639e-003 -2.80607492e-002
      1.27832638e-002 -1.74053703e-002 3.64080188e-003 -1.30005758e-002
      -8.94762389e-003 6.16410188e-003 -1.12769697e-002 7.19508762e-003
      1.62131228e-002 -1.08491639e-002 1.28476555e-002 1.60021000e-002
      7.00414041e-003 6.92520617e-003 1.63788032e-002 -2.15764172e-004
      -1.66611299e-002 -3.44885513e-003 -4.11348045e-003
      -1.92344449e-002 -1.41798696e-002 1.09212035e-002 -2.13672053e-002
      -1.07540376e-002 2.48027258e-002 7.68599613e-003 -2.43520830e-002
      1.76268036e-003 -2.04446893e-002 -2.36724212e-004 3.95391788e-003
      -3.94052640e-003 4.20117099e-003 -7.09434622e-004 1.76879007e-003
      -1.61281042e-003 -1.29957823e-003 -8.24126415e-003
      -4.06765658e-003 -1.86177995e-002 7.94519577e-003 8.90031923e-003
      7.63076171e-003 4.25830809e-003 -8.89881141e-003 7.11555500e-003
      1.92331616e-002 2.98005558e-004 9.96321905e-004 1.50837637e-002
      1.85764991e-002 1.60160866e-002 1.70294419e-002 -4.09364142e-003
      5.80250053e-003 2.67168954e-002 -5.03654731e-003 8.01106170e-003
      -9.50244907e-003 1.52959451e-002 1.46081755e-002 -3.15231294e-003
      7.29949493e-003 3.28920869e-004 -2.33734981e-003 -4.60419338e-003
      -6.52573584e-003 8.13799351e-003 2.26607919e-002 1.80282779e-002
      4.63268673e-003 -3.13685648e-002 2.96622328e-002 8.35826620e-003
      8.38444661e-003 1.43651739e-002 -9.13776644e-003 1.27201695e-002
      -4.02151980e-002 -9.35188960e-003 -8.65962170e-003
      -1.38438325e-002 1.30661754e-002 1.16963303e-002 -1.22615192e-002
      8.41376279e-003 4.71913815e-003 -1.84292868e-002 -5.24049159e-003
      1.19304960e-003 -3.59806209e-003 1.62718026e-003 8.55900627e-003
      1.00060478e-002 1.81736276e-002 1.45099824e-002 -3.43626812e-002
      -1.93869707e-003 9.66875255e-003 4.39665420e-003 -9.81085561e-003
      1.74972769e-002 -2.51795556e-002 -1.94591805e-002 -2.88979225e-002
      -1.62404645e-002 2.78906478e-003 -5.01609454e-003 -1.88746629e-003
      1.07768849e-002 4.71767131e-003 -2.21612509e-002 -1.61948521e-002
      1.73308570e-002 -2.57606637e-002 1.96887329e-002 1.27622373e-002
      -5.30370465e-003 -1.34638185e-002 -1.38084022e-002 2.33936403e-003
      -1.63339451e-002 1.58871952e-002 -3.07100732e-003 -1.55736934e-002
      -8.55281949e-003 -9.14078020e-003 -3.80223058e-003 7.31089059e-003
      1.55433798e-002 -3.33731587e-004 2.32250039e-002</_>
    <_>
      6.70705596e-003 -1.11691309e-002 2.66973116e-002 -6.63322909e-003
      -2.55737696e-002 8.54568183e-003 7.63277477e-003 -1.24372849e-002
      -5.04815504e-002 6.98377099e-003 1.03910295e-002 -9.96028539e-003
      -4.23551770e-004 -1.04135461e-002 -4.46170755e-003 9.56910953e-004
      1.43312057e-002 1.93421112e-003 6.00778591e-003 1.50036216e-002
      6.66604703e-003 5.22179389e-003 -6.36597164e-003 2.25646468e-003
      3.78078129e-003 -6.42281119e-003 4.07920592e-003 4.90681408e-003
      1.20541500e-002 2.16362113e-003 5.88071125e-004 -4.03570710e-003
      2.68018595e-003 -5.00781462e-003 -1.21307103e-002 -6.74861483e-003
      1.16827739e-002 -1.74727131e-004 -5.43956645e-003 9.35952645e-003
      1.95524506e-002 6.66927919e-003 5.46930591e-003 5.93421329e-003
      4.83296346e-004 1.62800110e-003 -2.82635796e-003 -1.16223972e-002
      8.68804194e-003 -4.27064672e-003 7.56744016e-003 -2.62395642e-003
      5.49468724e-003 -7.97344185e-003 -4.56020096e-003 1.97601411e-002
      -1.02667725e-002 -3.25929490e-004 2.44140197e-002 1.47593832e-002
      4.32628265e-004 -2.08753254e-003 -3.36724304e-004 -5.76521968e-003
      -1.03388238e-003 -7.84200337e-003 -6.27167150e-003
      -4.46157530e-003 -1.51391774e-002 -2.56190393e-002
      -2.28209561e-003 2.71328036e-002 -4.03869562e-002 -2.51058899e-002
      -2.36081444e-002 -2.19485108e-002 -9.97101609e-003 1.82215646e-002
      8.99521448e-003 -9.94930975e-003 5.69879403e-003 -2.06834842e-002
      -2.22454164e-002 -3.68501507e-002 -1.81141160e-002 9.92530584e-003
      -2.33562440e-002 -7.07888789e-003 4.45004879e-003 -5.68302860e-003
      2.22963803e-002 1.02820210e-002 -1.31719131e-002 -2.75995228e-002
      -1.66681055e-002 1.92112625e-002 -2.43476946e-002 1.09737702e-002
      1.84852909e-002 5.43539412e-003 4.40889504e-003 -1.93124488e-002
      -3.46242450e-002 3.02944202e-002 -4.20338428e-003 1.57896075e-002
      2.69737444e-003 -1.92946196e-002 -2.09402665e-002 2.38084863e-003
      2.11486388e-002 -2.01466680e-003 -1.40151475e-002 -2.44854484e-002
      1.38306636e-002 -2.46944115e-003 -1.86205823e-002 -2.40117544e-003
      1.94581680e-003 7.74897821e-003 -4.11767559e-003 -1.43315839e-002
      7.30447052e-003 -5.46617142e-004 -2.20310222e-003 -8.90614989e-004
      -1.65741779e-002 -2.12605614e-002 1.59973698e-003 6.27357652e-003
      -2.26054695e-002 2.58049695e-003 6.06742129e-003 -1.41494581e-002
      -1.09794438e-002 2.78852936e-002 1.32638635e-002 -1.03035793e-002
      -1.58653483e-002 9.40887444e-003 -9.19909589e-003 1.12037752e-002
      5.00938203e-003 -6.86819840e-004 -2.77936645e-002 2.03698641e-003
      -1.11299623e-002 2.46799774e-002 8.54803436e-003 -2.68060621e-002
      6.34186296e-003 -4.60973382e-003 -1.42206540e-002 5.24160359e-003
      -1.61755513e-002 -3.53375673e-002 1.00649521e-002 -1.26093514e-002
      -2.09427383e-002 1.76402926e-003 -8.46496318e-004 -8.82559456e-003
      2.79859360e-003 -1.47331711e-002 2.05043852e-002 -1.43012227e-002
      5.16263593e-004 4.25339583e-003 -1.74663886e-002 1.29649723e-002
      2.53964346e-002 -3.80670768e-003 -3.64467571e-003 -9.33282729e-003
      2.47776508e-003 -5.32139465e-003 6.77889772e-003 8.27075634e-003
      -5.94537379e-003 -1.15908543e-002 -2.02311743e-002
      -9.42567270e-003 1.87796410e-002 -8.07977468e-003 3.74361058e-003
      1.84192287e-003 4.49868618e-003 -7.11808912e-003 1.10737169e-002
      7.94245955e-003 -1.65444501e-002 4.58905910e-004 -1.93488747e-002
      -3.15605812e-002 -9.70285665e-003 -1.74734965e-002
      -5.54357539e-004 -5.76545717e-003 -6.65235193e-003 7.58426450e-003
      -1.13166943e-002 -6.38736412e-003 -6.20463444e-003 3.05003324e-003
      -1.85128316e-004 -1.78270098e-002 1.20902993e-002 -2.03664862e-002
      -4.75331908e-003 2.39032395e-002 8.50235391e-003 -5.81762753e-003
      8.64813849e-003 -1.62477717e-002 -1.17329359e-002 -1.55575275e-002
      2.46708561e-002 -3.97587381e-003 -8.04484449e-003 -1.15540419e-002
      -1.79570206e-002 4.18106653e-003 -1.73273217e-002 1.88588314e-002
      -1.70927495e-002 -1.18242363e-002 -3.93617526e-002
      -3.05040111e-003 3.01741231e-002 5.88731375e-003 7.79544888e-003
      -1.92693379e-002 2.51806006e-002 -1.24482084e-002 3.87929939e-002
      1.84546933e-002 -1.35415951e-002 -5.12955524e-003 1.07604614e-003
      1.38052041e-002 -7.50759500e-004 -3.29842493e-002 1.54158864e-002
      2.03071795e-002 8.11017305e-003 3.65834939e-003 -2.07344778e-002
      -7.24282174e-004 1.82450246e-002 2.17446666e-002 1.11044580e-002
      2.99699535e-003 -3.93444812e-003 1.12427734e-002 -2.11375002e-002
      1.32457039e-003 -2.24478380e-003 -9.59470123e-003 -1.41959563e-002
      -8.89515318e-003 7.00480537e-003 2.08861157e-002 -5.03891206e-004
      1.58576481e-002 -6.29268214e-003 -1.67757366e-002 1.99412159e-003
      -4.31868657e-002 -1.15303332e-002 1.62994973e-002 -2.96069146e-003
      -1.11306803e-002 -1.70345921e-002 -8.64042155e-003
      -2.70071253e-003 9.07883793e-003 2.78018881e-003 1.79228447e-002
      1.12126702e-002 -1.25007536e-002 3.26618925e-002 -1.47954153e-003
      -9.86571424e-003 3.10861185e-004 -3.32471635e-003 3.61609273e-003
      -2.71149743e-002 -1.02497479e-002 1.73055334e-003 -1.85866803e-002
      4.01324965e-003 1.04959179e-002 6.89089624e-003 -4.00312804e-003
      3.56372958e-003 -4.08497127e-003 1.76667366e-002 4.84042522e-003
      5.55923861e-003 4.16654348e-003 -5.67864859e-004 2.07422916e-002
      -3.93155254e-002 9.78977606e-003 1.14178136e-002 -4.34332807e-003
      1.30223605e-004 -1.29870642e-002 1.02219833e-002 -5.90412039e-003
      -1.29307592e-002 -4.07120585e-003 8.30086134e-003 -2.02423111e-002
      1.60263646e-002 1.39392475e-002 1.11485822e-002 -1.36243505e-002
      5.02111251e-003 -1.03625655e-002 -2.40433645e-002 -1.82530575e-003
      -5.00229769e-004 -1.40731148e-002 2.64063161e-002 -8.96983501e-003
      9.99768730e-004 1.30789960e-002 -7.40461145e-003 8.36829562e-003
      -5.30054793e-003 9.48926341e-003 1.10626547e-002 2.09686323e-003
      3.28569766e-003 -4.30948380e-003 -2.93924026e-002 3.08638765e-003
      -3.02171480e-004 1.56502682e-003 2.66945604e-002 1.67409033e-002
      -6.76637469e-003 -1.05811364e-003 -1.27637237e-002
      -1.60760945e-003 -7.43891438e-003 5.44859678e-004 2.09843256e-002
      -1.09101888e-002</_>
    <_>
      5.59269032e-003 -1.57351401e-002 4.35801456e-003 8.97143595e-003
      -5.94102126e-003 1.32180778e-002 6.09175069e-004 -1.79902706e-002
      1.77557450e-002 -1.48449314e-003 -1.19595649e-002 -5.70842577e-003
      1.13239652e-002 1.29170576e-002 -4.24446957e-003 4.32289625e-003
      4.11185250e-003 5.04645053e-003 1.45289963e-002 -8.72388016e-003
      2.17091688e-003 2.53477320e-003 8.15941487e-003 1.16577111e-002
      -2.85384734e-003 7.73524120e-003 -4.06133896e-003 6.65215356e-003
      3.30684334e-002 -2.48153490e-004 2.20969319e-002 1.84383225e-002
      4.66512050e-003 2.87377252e-003 1.83002651e-002 -5.03129698e-003
      1.75777334e-003 -1.38349365e-002 -3.09813721e-003 6.85710879e-003
      3.39119998e-003 -1.05509497e-002 -6.61776448e-003 1.12440614e-002
      5.34644164e-003 4.23269719e-003 9.83866770e-003 3.91490059e-003
      1.86965503e-002 -7.48976227e-003 1.68842468e-002 -3.73894023e-003
      7.87793193e-003 -6.05840655e-003 2.70004239e-004 1.13818832e-002
      4.25766362e-003 1.15324063e-002 7.79187446e-003 1.95059907e-002
      1.30607293e-003 1.02178343e-002 6.13576325e-004 1.16912229e-002
      6.39721937e-003 1.79396272e-002 1.02675809e-002 1.09370556e-002
      1.58830395e-003 -7.41771306e-004 -1.32003063e-002 5.86478924e-003
      -1.60309603e-003 1.09183637e-003 -6.93973096e-004 -3.32538364e-003
      6.27363473e-003 -6.39091805e-003 1.98123716e-002 -1.59176663e-002
      -5.82861155e-003 4.69389022e-004 4.78373794e-003 6.38912013e-003
      1.75733585e-003 1.50637133e-002 6.11193338e-003 -2.67052697e-003
      1.79332029e-002 -1.92768150e-003 8.25163326e-004 -8.35935678e-003
      2.04958227e-002 -1.24921752e-002 1.53101441e-002 -2.78926891e-004
      3.49178235e-003 1.09807700e-002 4.08578431e-003 -1.65088288e-002
      -1.29827932e-002 -1.12918187e-002 7.95379374e-003 3.77626461e-003
      4.95739793e-003 5.12728514e-003 -8.97958409e-003 3.30514577e-003
      -5.94734028e-003 2.83810892e-003 -8.99210921e-004 1.39727900e-002
      -9.11935605e-003 -1.51725635e-002 -5.52652031e-003
      -8.56801681e-003 -7.18550989e-003 1.97903649e-003 1.01575674e-002
      -6.03507506e-003 -1.40762283e-002 -1.12639805e-002 8.99916887e-003
      1.05618816e-002 5.82885183e-003 1.03109097e-002 1.07776718e-002
      -7.20016612e-003 8.03946331e-003 -1.55769028e-002 4.46082558e-003
      -5.53943450e-003 7.47282116e-004 4.98032151e-003 1.65014784e-003
      -1.38644353e-002 9.88784991e-003 -2.86773685e-003 4.13802499e-003
      4.68780799e-003 1.44983567e-002 1.52325360e-002 3.06174275e-003
      -1.40719675e-003 1.22416504e-002 -2.41934019e-003 -1.14470916e-002
      -1.32001340e-002 4.81532235e-003 5.98747795e-003 1.12000396e-002
      -1.17844157e-003 -2.90223979e-003 -3.20942560e-003
      -1.52659873e-002 -3.20995552e-003 -5.01649268e-003 1.29018230e-002
      -3.22712702e-003 -6.02213852e-003 -1.27779553e-003 6.13225717e-003
      -9.87245515e-003 5.04572038e-003 -2.68058444e-004 3.89073207e-003
      -3.90407396e-003 4.32031462e-003 4.56897216e-003 6.92754239e-003
      1.75669026e-002 -1.05555113e-002 -8.07369780e-003 5.32418862e-003
      1.06311019e-003 4.57229465e-003 -1.61539838e-002 8.46091192e-003
      -1.26390846e-003 2.56244116e-003 4.50667553e-003 7.11058406e-003
      -8.89968220e-003 -1.24758389e-002 8.64950009e-003 -8.92666541e-003
      1.52272894e-003 2.40723751e-002 -4.46489407e-003 -1.51264621e-002
      -5.52228047e-003 -1.69519987e-003 -7.41437124e-003
      -7.50034954e-003 1.66682228e-002 8.05296842e-003 -3.00346711e-003
      -4.45303740e-003 6.36218255e-003 -3.33575939e-004 1.42492540e-003
      9.44702700e-003 2.94366176e-003 5.05861174e-003 6.39256183e-003
      1.71670020e-002 -1.68696679e-002 -6.42782450e-003 5.96505869e-003
      1.07189910e-002 9.51385871e-003 -6.54112687e-003 1.77766755e-002
      -1.44228176e-003 -1.50508666e-003 4.36541811e-003 1.28426803e-002
      1.08830240e-002 -1.73573531e-002 1.51870912e-002 6.68478897e-003
      -4.94728237e-003 1.08299786e-002 1.85953621e-002 -2.76252721e-003
      1.19370464e-002 6.54024491e-003 1.32279517e-002 -3.33704241e-003
      7.38775311e-003 3.61444009e-003 4.87961806e-003 -5.68763644e-004
      -8.50500632e-003 1.17299370e-002 1.51171051e-002 -3.08279824e-002
      1.78700946e-002 -2.07522064e-002 2.28449162e-002 3.28713562e-004
      1.84085425e-002 -2.56073708e-003 -1.65386647e-002 1.47243980e-002
      -7.14165810e-003 -1.44163787e-003 -5.09864744e-003
      -4.05612169e-003 -8.84941779e-003 2.99223117e-003 -9.99888405e-003
      1.14347774e-003 -7.81879644e-004 -3.91061744e-003 7.72978738e-003
      -1.20242182e-002 3.59655684e-003 1.32513605e-002 -5.65145910e-003
      5.67002362e-003 -1.17161833e-002 7.70776346e-003 1.08184165e-003
      -4.63416742e-004 8.84295069e-003 1.99635793e-002 2.75089336e-003
      1.68545619e-002 -7.95862265e-003 1.53584052e-002 -3.08658276e-003
      -1.92932859e-002 -1.96396522e-002 -8.82653426e-003
      -7.70831434e-003 5.72028942e-003 1.58181377e-002 -1.63884703e-002
      6.30429387e-003 9.81412921e-003 3.90660483e-003 1.16020460e-002
      1.95387565e-002 -5.52581949e-003 1.34645263e-002 7.43578514e-003
      -1.48346871e-002 -1.33053362e-002 8.09616223e-003 -7.20881019e-003
      5.80561953e-003 -4.58740257e-003 5.77616552e-003 3.03207934e-002
      6.74644066e-003 2.35737767e-003 -6.08340977e-003 8.43650429e-004
      5.04921470e-003 -5.81149291e-003 2.70907138e-003 3.86789121e-004
      -2.23523215e-003 -2.65721790e-002 1.34456353e-002 3.04003619e-003
      -2.46321391e-002 -1.52505748e-002 -1.00254873e-002 1.69400014e-002
      8.95317458e-003 5.84550202e-003 1.34250033e-003 2.37202318e-003
      -4.19552531e-003 -9.95757617e-003 6.53805109e-005 -1.33219771e-002
      5.80904190e-004 1.66800413e-002 2.19523478e-002 -4.06982331e-003
      5.80045767e-003 -2.60068979e-002 3.37205897e-003 8.70502554e-003
      7.56720826e-003 9.47763119e-003 -8.34590849e-003 2.20187125e-003
      3.55126872e-003 2.95472727e-003 2.92750285e-003 1.00234728e-002
      -2.27218866e-002 -4.27116454e-003 2.86983210e-003 -4.53478191e-003
      -2.62080673e-002 1.53627675e-002 8.35307408e-003 8.51491652e-003
      5.34100179e-003 -2.55999411e-003 -3.62946070e-004 4.04692022e-003
      2.39674058e-002 4.60506044e-003 -5.31133730e-004</_>
    <_>
      2.24644523e-002 -1.84440904e-003 9.38812271e-003 -2.10129726e-003
      -5.70186786e-003 -1.28445588e-002 -1.14736136e-003
      -4.49104235e-003 -1.39733925e-002 -1.13727730e-002
      -3.46004628e-002 -1.28030474e-003 -5.24397707e-003 5.04622993e-004
      -6.24875911e-003 -1.20835556e-002 8.66296794e-003 3.41434474e-003
      1.41538968e-002 -1.13289058e-002 -6.51522353e-003 1.10636875e-002
      1.60739068e-002 1.71815157e-002 -5.72312856e-003 -2.58293701e-003
      -1.11365414e-004 9.17243597e-004 2.11420711e-002 8.68823472e-003
      1.80637799e-002 1.13354577e-002 -1.78942992e-003 -5.42963389e-003
      1.23074679e-002 3.62923858e-003 1.03956768e-002 -1.40207047e-002
      -4.09419509e-003 -2.82074660e-002 -9.22485255e-003
      -2.11062841e-002 -1.22439992e-002 -1.98407425e-003 6.24138676e-003
      1.17497165e-002 2.93128192e-003 1.70622766e-002 3.19627835e-003
      1.31665089e-003 9.55507811e-003 -3.06437677e-003 4.73408028e-003
      -1.82729177e-002 -1.33555045e-003 8.18437524e-003 -8.65443144e-003
      -2.34535523e-003 2.33884044e-002 4.94605629e-003 2.48432369e-003
      1.50364768e-002 -2.59828218e-003 -1.18348887e-002 6.66825566e-004
      9.83716734e-003 1.41410250e-002 1.88140180e-002 1.92118455e-002
      1.28613794e-002 -2.10625287e-002 -9.89869703e-003 8.85352492e-003
      -5.86007861e-003 -1.13717327e-002 -4.59436467e-003
      -1.49584201e-003 -1.06951222e-003 1.84202399e-002 -3.93083468e-002
      -3.88883124e-003 1.15531879e-002 1.88082140e-002 9.91587620e-003
      -7.91620743e-003 -8.30142200e-003 1.12104835e-002 3.74990306e-003
      9.69193410e-003 -1.54332118e-003 1.25121232e-002 -2.62692338e-003
      2.16763765e-002 -5.45218773e-003 1.22425975e-002 1.77017786e-002
      -3.46357818e-003 4.18344187e-003 7.38467509e-003 -1.03170089e-002
      7.62192393e-003 -1.11492127e-002 -9.07730311e-003 6.37497427e-003
      -2.95820599e-003 2.11987253e-002 -2.31857859e-002 -3.46552115e-004
      -5.15042897e-003 -3.66795459e-003 3.27029126e-003 -1.95879652e-003
      7.31736608e-003 -6.74729794e-003 2.47140042e-002 2.02374184e-003
      1.03700338e-002 -6.76079188e-003 -1.69175956e-002 6.19562203e-003
      1.94091664e-003 -2.85480917e-003 -1.38527304e-002 -4.48998343e-003
      1.02695404e-003 4.24794387e-003 1.16732251e-002 -6.24287594e-003
      -2.79061287e-003 -3.47698951e-004 -2.71413592e-003
      -7.76594831e-003 9.32747871e-003 3.67150526e-003 2.69237850e-002
      -1.07728951e-002 8.41129851e-003 -3.08757368e-003 7.49740703e-003
      -7.15251733e-003 1.94635079e-003 1.30778914e-002 2.43890751e-002
      -5.66795748e-003 4.01993748e-004 -2.30473047e-003 -6.61770534e-003
      6.23590604e-004 1.97687349e-003 -2.47382652e-003 -9.02960077e-003
      -1.22805303e-002 -1.34923095e-002 -5.02888812e-003
      -1.43919205e-002 -8.66581872e-003 1.45104844e-002 3.76926921e-003
      -2.14838726e-003 1.50065850e-002 6.95519801e-003 1.71682576e-003
      -4.39068582e-003 1.44756923e-003 -2.85095326e-003 -7.86123425e-003
      -1.75884571e-002 -1.70255248e-002 -9.29859409e-004 8.98875296e-003
      5.11681614e-003 1.16068951e-003 -6.88994862e-003 -4.42098873e-003
      -4.66588093e-003 3.29132285e-003 1.07441295e-003 1.05980318e-002
      1.84612796e-002 4.59325965e-003 1.29921818e-002 -7.21959921e-004
      -1.69206262e-002 -3.16371620e-002 6.87040715e-003 -1.27916476e-002
      -5.27089741e-003 -1.21020125e-002 2.33960920e-003 9.24363825e-003
      -6.82715606e-003 -1.28567126e-002 -8.83017015e-003
      -2.19795824e-004 7.37257907e-003 9.00025479e-003 6.52433978e-003
      1.32989348e-003 6.83407579e-003 -4.00914485e-003 -4.29066690e-003
      1.94947738e-002 -1.74258195e-004 1.98551286e-002 1.74031500e-002
      1.17604705e-002 -7.56928371e-003 -9.87901073e-003 9.24019422e-003
      -7.89052900e-003 2.26345249e-002 -1.77610889e-002 -4.42717411e-003
      -1.79143660e-002 7.95760192e-003 -1.02110235e-002 -5.51529368e-003
      -1.09836003e-002 1.29007706e-002 -1.40620628e-002 -5.35272236e-004
      -2.44163605e-003 1.33828679e-002 1.01673426e-002 1.32875126e-002
      1.21136298e-002 -9.33510996e-003 1.51839172e-002 1.74082052e-002
      1.33952620e-002 -1.09184533e-002 -8.97083711e-003 5.21394005e-003
      -6.77660108e-003 -7.13994168e-003 6.11362327e-003 2.16119364e-003
      3.19956243e-002 9.49194748e-003 1.49402441e-002 -1.24376435e-002
      5.52108791e-003 1.52573001e-003 -6.29979128e-004 6.75598020e-003
      -6.95738057e-003 1.25694405e-002 -3.28498404e-003 2.00897735e-003
      -4.76849778e-003 7.87300710e-003 -1.61524490e-002 4.45959112e-003
      1.35204373e-002 3.13109928e-003 -1.08532403e-002 -1.12213781e-002
      6.75692549e-003 7.79884495e-003 1.53739192e-003 -5.37185976e-003
      -1.19751096e-002 5.03272563e-003 -6.71816384e-003 -3.04298941e-003
      9.03347600e-003 6.56234287e-003 -4.51253261e-003 -2.24159448e-004
      -9.84390080e-003 4.30430751e-003 -2.12025568e-002 -6.82511926e-003
      -1.75654106e-002 -1.29101211e-002 7.97648821e-003 8.03243252e-004
      -9.56225616e-004 5.95500087e-003 2.41799317e-002 6.30877493e-003
      1.27183460e-002 1.71170756e-002 9.47593246e-003 -1.21126184e-002
      5.57334954e-003 6.10190351e-003 -7.90306274e-003 -1.39232399e-002
      2.42290227e-003 -1.93409827e-002 3.87902861e-003 -6.28423458e-003
      -7.91277178e-003 -5.65493945e-004 -1.42343147e-002 5.74127957e-003
      7.77349761e-003 -4.16995445e-003 1.99253969e-002 -3.15768528e-003
      9.21340939e-003 1.57987245e-003 -1.22206183e-002 9.77048301e-004
      1.32181384e-002 1.06431087e-002 -5.10968687e-003 -8.35237186e-003
      -1.69271342e-002 1.74132679e-002 -5.82507532e-003 -1.11510716e-002
      1.02169653e-002 -7.19802082e-003 1.12445103e-002 -1.82228070e-003
      -3.82043840e-003 -9.19064227e-003 8.19457602e-003 1.94873866e-002
      5.72170131e-003 1.18625797e-002 -1.52327455e-004 4.18572081e-003
      -3.14642652e-003 8.41661543e-003 5.09475311e-003 4.30559786e-003
      8.31632875e-003 1.12564983e-002 -6.78984728e-003 -2.05937773e-002
      -1.92056282e-003 8.57966952e-003 -1.69071730e-003 1.12762460e-002
      4.14617499e-003 1.37720509e-002 -7.46547943e-003 2.10424932e-003
      1.51969967e-002 -1.00407619e-002 1.98837798e-002 2.41445703e-003
      -3.16120684e-002 6.95450092e-003 2.29010582e-002 1.90687925e-002
      -7.86658935e-003</_>
    <_>
      2.71565896e-002 -8.07171781e-003 -1.29776811e-002 -4.64169681e-003
      7.24974135e-003 8.99610575e-003 7.36345246e-005 -8.17602873e-003
      -8.82082060e-003 -1.01909982e-002 -3.06600006e-003
      -1.47573156e-002 -9.62893758e-003 4.81739611e-004 9.31510236e-003
      -1.86161865e-002 5.58801368e-003 -1.01738153e-002 5.19975228e-003
      -8.96483567e-003 -4.36997856e-004 -1.29823228e-002 3.08442470e-002
      1.83839947e-002 -3.51344049e-003 -7.55014736e-003 -8.70188326e-003
      1.98508352e-002 9.88939428e-004 -2.40578642e-003 2.88014207e-002
      1.01624653e-002 1.94077287e-002 -4.60205739e-003 1.37765696e-002
      1.68098451e-003 5.08243160e-004 1.33649958e-002 -6.04693359e-003
      -2.49186829e-002 -1.50054330e-002 -1.56469047e-002
      -1.33529713e-003 -4.31656139e-003 -3.88869114e-004 1.68248790e-003
      -5.03565324e-003 -1.16855334e-002 1.45080602e-002 1.11492593e-002
      -1.24406558e-003 -1.15275001e-002 1.33874156e-002 -3.92865278e-002
      1.46236103e-002 6.54519582e-003 -6.13367651e-003 7.77099468e-003
      1.39805302e-002 1.11024706e-002 -6.51462330e-003 1.07739205e-002
      -1.26848314e-002 6.17372571e-003 -5.38396742e-003 2.10494455e-003
      1.45816207e-002 8.63200799e-003 1.91681797e-003 2.48444807e-002
      -3.85292224e-004 -1.31670572e-002 1.05165225e-002 -4.60767187e-003
      -4.33100155e-003 2.19559390e-003 -1.24516357e-002 -1.44756923e-003
      6.04056427e-003 -2.37473636e-004 -3.93707072e-003 1.72455497e-002
      1.49818873e-002 1.88362580e-002 -7.98992906e-003 -3.23436363e-003
      -3.23293079e-003 6.31197542e-003 3.76821728e-003 -1.52307209e-002
      -2.92806327e-003 -2.93058692e-003 1.89098958e-002 -1.21038062e-002
      1.88763700e-002 3.90649587e-003 -1.30509157e-002 1.95749011e-003
      4.27834317e-003 -1.54633243e-002 -9.58975311e-003 -1.70718711e-002
      2.75607919e-003 5.79298800e-003 -2.10575946e-003 1.78442914e-002
      2.15648068e-003 -3.68352979e-003 2.00063293e-003 2.81256530e-003
      4.16508236e-004 1.23160249e-002 4.76097409e-003 -4.21576609e-004
      -3.58386594e-003 -1.17658479e-002 1.97124877e-003 -1.81602556e-002
      -5.50194178e-003 -6.17138389e-003 5.57931699e-003 -2.47896044e-003
      -5.55859786e-003 6.88855676e-003 8.74440372e-003 1.37829939e-002
      1.09488396e-002 -1.87427315e-004 -1.38276564e-002 -1.14588756e-002
      4.01193975e-003 7.90485553e-003 7.16623478e-003 9.84275341e-003
      2.66179200e-002 -4.58238367e-003 4.11391398e-003 -9.86621249e-003
      1.29520195e-002 1.90953184e-002 -1.35259388e-003 -8.66528787e-003
      9.38370172e-003 -1.33138327e-002 8.27994291e-003 -5.02640568e-003
      -1.18342061e-002 -1.78594496e-002 -1.67364944e-002
      -1.81390885e-002 1.15787601e-002 -7.77484034e-004 -1.32054137e-002
      -6.06460590e-003 1.62163898e-002 9.20664240e-003 -6.80978457e-003
      1.36778820e-002 -6.77996455e-003 1.52712138e-002 -6.16991101e-003
      -8.03162996e-003 -4.15713107e-003 4.76633478e-003 -2.38145702e-002
      6.48147380e-003 1.30198421e-002 -1.53545360e-003 2.14537117e-003
      1.50732668e-002 1.39636938e-002 -1.61248948e-002 -1.04524074e-002
      2.85339914e-003 1.37602200e-003 2.83456016e-002 -3.38060455e-003
      1.21419029e-002 7.54473382e-004 1.16780670e-002 -3.28075886e-003
      -1.88090990e-003 -2.87924171e-003 -1.24631701e-002
      -2.31326674e-003 -9.00561176e-003 -1.21786743e-002 4.17303853e-003
      1.24926772e-002 1.21619953e-002 -5.86076174e-003 1.67993531e-002
      7.17281597e-004 1.50987308e-003 1.22875161e-002 4.20886837e-003
      -1.57281365e-002 8.81664921e-004 9.84777580e-004 -7.81211536e-004
      -2.94859847e-003 1.12985456e-002 1.84881426e-002 1.84727777e-002
      2.68735457e-003 -6.75513502e-003 9.51310038e-004 -1.93401170e-003
      -5.70901483e-003 1.74561143e-002 1.72697380e-002 7.41314283e-003
      1.08501746e-003 -1.06764212e-002 1.03962608e-002 4.73673979e-004
      1.47953229e-002 1.17516862e-002 5.32350363e-003 3.58005194e-003
      1.79896969e-003 -1.22975679e-002 1.52275283e-002 1.12293739e-004
      6.44183112e-003 1.52499257e-002 -5.15687512e-003 1.79621447e-002
      1.66947786e-002 9.33387596e-003 -2.57829879e-003 -1.71518922e-002
      5.93140954e-003 -3.42867449e-002 7.69360107e-004 1.08987512e-002
      -6.14632014e-003 2.42620856e-002 -7.67855486e-003 -2.03762390e-002
      -1.62713102e-003 2.45182011e-002 -1.88180502e-003 -1.59823950e-002
      1.60255458e-005 -1.41404262e-002 7.82336481e-003 -4.96012904e-003
      -2.58448999e-004 -2.68081808e-003 -1.10910516e-002
      -1.53136840e-002 4.43666289e-003 -2.49012443e-003 6.03828020e-003
      2.21919618e-003 -2.86272005e-003 3.65200615e-003 2.50371713e-002
      5.71385166e-003 -1.27077978e-002 3.87940090e-003 3.96447163e-003
      1.78646354e-003 1.83737241e-002 1.20026851e-002 5.68942400e-003
      -5.57683455e-003 9.58863413e-004 -4.92941681e-003 -4.10089130e-003
      -1.03533119e-002 -1.34435634e-003 1.10855571e-003 -5.70102595e-003
      -1.23188570e-002 9.03963670e-003 7.09224585e-003 -1.37667474e-003
      2.28504697e-003 -9.87902866e-004 7.36689521e-003 1.61031391e-002
      2.56834142e-002 -6.14715274e-003 2.07401067e-002 8.57637636e-003
      5.26517583e-003 -1.30437203e-002 1.76938379e-003 -1.36889312e-002
      -1.68620013e-002 -5.46267070e-003 -2.01333966e-003 6.79375324e-003
      -1.57543831e-003 -1.25381006e-002 4.04142635e-003 5.18972613e-003
      2.21398920e-002 -2.32000952e-003 2.17467360e-002 6.13990379e-003
      -8.96079652e-003 1.62323527e-002 1.63621381e-002 -3.78085789e-003
      -1.26837455e-002 -2.06552539e-002 -6.51171105e-003
      -3.72110866e-003 1.82385230e-003 -1.20753869e-002 2.91205419e-004
      -5.52434707e-004 1.35622313e-002 -1.01892538e-002 4.51774162e-004
      1.18906368e-002 1.33004356e-002 2.27297843e-003 7.41389673e-003
      2.36987066e-003 -1.76722161e-003 1.34828715e-002 1.75596052e-003
      1.91321578e-002 -7.20538897e-004 5.20507863e-004 1.12973759e-002
      6.16019918e-003 -1.08837783e-002 -1.25853764e-003 -4.68700146e-003
      1.31165441e-002 -1.10047972e-002 1.12993484e-002 8.16704053e-003
      4.24794946e-003 -3.37375514e-003 -8.16023559e-004 -8.88722297e-003
      1.40464595e-002 2.80444906e-003 7.12377857e-003 -9.79703479e-003
      6.82395417e-003 1.32143227e-002 1.05565283e-002 6.77008880e-003</_>
    <_>
      1.88190881e-002 -1.85145438e-003 6.25344226e-003 -5.14936494e-003
      -7.61466054e-003 5.49755804e-003 7.09687639e-003 -5.62561303e-003
      3.60419624e-003 -2.19734497e-002 1.37632858e-004 -2.20296672e-003
      -3.67170083e-003 5.48031274e-003 -6.39806595e-003 -8.57225340e-003
      -4.42503672e-003 2.10269238e-003 3.83833516e-003 -4.32882039e-003
      5.88873588e-003 2.89888261e-003 1.13786226e-002 -1.13322551e-003
      -8.75431951e-003 -5.75943338e-003 4.40367777e-003 1.22380769e-002
      2.52550468e-002 9.98627301e-003 8.92872829e-003 -4.42885421e-003
      9.32796299e-003 -4.91085835e-003 1.69830546e-002 -5.03535150e-003
      -4.47332684e-004 1.90800857e-002 -1.25137866e-002 -2.11629849e-002
      1.98537228e-003 -9.36439727e-003 -1.36803361e-002 5.84141957e-003
      7.73140043e-003 5.94531512e-003 -5.49388304e-003 1.01022432e-002
      -1.09120505e-003 9.14483517e-003 7.90244434e-003 -1.72347110e-002
      4.40151570e-003 -1.27884317e-002 -4.53897798e-003 1.00560980e-002
      -1.09931072e-002 -1.31323505e-002 7.29116239e-003 1.39551312e-002
      -5.01735881e-003 -4.02734056e-003 4.26201103e-003 7.79082486e-003
      -3.50745162e-003 1.36312256e-002 8.74927547e-003 5.08538727e-003
      6.27365429e-003 1.44932568e-002 -1.39264558e-002 -1.09717939e-002
      6.95606042e-003 -4.12918115e-003 -9.92400758e-003 -4.85324813e-003
      4.44752537e-003 5.33787766e-003 1.19981421e-002 -6.15356630e-003
      -9.22296941e-003 -1.34812137e-002 1.16043456e-003 2.54931347e-003
      -5.71850780e-003 1.48984948e-002 1.03062028e-002 3.95653909e-003
      1.28466887e-002 -1.71651449e-002 4.94314649e-004 -1.17277056e-002
      -5.68472035e-003 -1.50500389e-003 8.71239137e-003 1.02556664e-002
      -1.34292468e-002 1.30494812e-003 -1.98293803e-003 -1.12749357e-002
      2.91194045e-003 -6.39601052e-003 -1.32426294e-002 6.29477017e-003
      -3.27338465e-003 1.12435138e-002 1.11840095e-003 -1.03571918e-002
      1.51414769e-002 -7.26077752e-003 5.44963125e-003 -2.21761316e-003
      -7.62267411e-003 -1.88091621e-002 1.25120673e-002 -1.58526152e-002
      -4.70132194e-003 7.92003330e-003 2.23609619e-003 9.62516665e-003
      -1.80553889e-003 -3.45077773e-004 5.71916671e-003 4.21628961e-003
      5.13327029e-003 3.71371419e-003 -9.07198992e-003 -7.62718823e-003
      -8.48296098e-003 8.07723124e-003 1.62041723e-003 2.02915329e-003
      -3.48492293e-003 1.87280849e-002 1.78925171e-002 4.82097967e-003
      5.32265473e-003 -1.56022729e-002 1.76219326e-002 2.02436615e-002
      -9.33346990e-003 1.06534241e-002 8.81869532e-003 -1.01026036e-002
      -5.56683447e-003 -1.03796497e-002 -9.96925216e-003
      -5.24922460e-003 2.62666866e-002 -6.26850873e-003 9.09525622e-003
      -1.35173099e-002 -4.95599257e-003 -6.95371651e-004 1.32479437e-003
      1.11727640e-002 -7.12484773e-003 8.13623425e-003 -1.88734140e-002
      1.06774373e-002 1.75077387e-003 -2.08955351e-002 -6.52261125e-003
      -6.83154562e-004 -1.43143404e-002 -2.74410064e-004
      -1.15206353e-002 -4.84330440e-003 -3.83170816e-004
      -7.19552115e-003 -1.15393789e-003 -4.07790160e-003
      -1.92209221e-002 5.44818630e-003 3.80232907e-003 2.62406934e-003
      -5.63113345e-003 -4.90376120e-003 2.62971092e-002 9.13025811e-003
      7.99860712e-003 -1.62679341e-003 -1.89052168e-002 -8.56381096e-003
      7.87474960e-003 -4.11653845e-003 2.14943546e-003 3.26848333e-003
      1.82760470e-002 1.38959615e-003 1.39411166e-003 9.06817056e-003
      1.37970725e-003 7.02360878e-003 1.63211953e-002 4.76933131e-003
      4.51108906e-003 1.13291375e-003 1.08757196e-002 -6.05824636e-003
      -8.26769881e-003 -1.13375066e-002 3.09815002e-003 -1.67647621e-003
      9.94434301e-003 1.69287901e-002 7.82750268e-003 -5.97005477e-003
      2.84748804e-003 1.17419905e-003 1.16964001e-002 2.14080065e-002
      1.31254476e-002 -1.59276798e-002 -6.75548473e-003 6.91074133e-003
      4.30628471e-003 -9.65810567e-003 -1.07147666e-002 -2.75682495e-003
      5.57151902e-003 -4.52478975e-003 -1.51336137e-002 2.36688484e-003
      3.88406264e-003 -5.74182440e-003 -2.21071462e-003 1.25810383e-002
      1.30287902e-002 -2.36295187e-003 3.58697784e-004 -1.13420226e-002
      -8.36729829e-004 -1.76799833e-003 -4.02467092e-003
      -1.70257082e-003 -2.30112690e-002 6.73659425e-003 -5.69147663e-003
      -7.87629467e-003 -1.02394614e-002 8.58961418e-003 8.91352165e-003
      -5.45575097e-003 8.54154676e-003 -1.02750575e-002 3.14976438e-003
      3.77447141e-004 2.76443944e-003 5.41307172e-003 8.83686170e-003
      5.55261104e-005 2.36216490e-003 -1.24441432e-002 5.62012102e-003
      1.43475542e-002 3.71526089e-003 6.57445984e-004 8.75065289e-003
      -1.98102021e-003 8.17874074e-003 4.57828538e-003 -1.61755853e-003
      1.30142476e-002 1.82881318e-002 1.56364758e-002 1.35643994e-002
      -8.20224825e-003 2.16760999e-003 9.50698275e-003 -6.64507318e-003
      -2.04532500e-003 -1.92648917e-002 -2.16936115e-002 5.84915513e-004
      -8.65661912e-003 1.06240390e-002 8.47438071e-003 -5.63463289e-003
      1.01748891e-002 -1.10447453e-002 -4.62316442e-003 5.66577725e-003
      1.10505046e-002 -8.21363553e-003 -2.50049308e-003 8.66105687e-003
      -7.34837772e-003 -1.05606783e-002 6.80951262e-003 -1.43906176e-002
      -6.33875653e-003 -2.58881395e-004 -2.63389712e-003 5.05580893e-003
      1.81657437e-003 3.27564683e-003 3.58425872e-003 -1.32229645e-003
      8.56644660e-003 -8.11205525e-003 3.51476832e-003 9.93928965e-003
      -8.93571507e-003 -2.34959112e-003 4.50058049e-003 5.33598615e-003
      -2.03122962e-002 -2.47325655e-003 1.52851800e-002 1.40844071e-002
      -8.03586375e-003 9.13457363e-004 -3.54183535e-003 6.39042910e-003
      8.04714020e-003 8.49768240e-003 4.18162718e-003 1.60926543e-002
      6.64749695e-003 2.99743563e-003 -2.15483340e-003 -1.32869137e-002
      1.06567247e-002 3.81045882e-003 5.90418419e-003 1.10817691e-002
      1.92934636e-003 5.47877466e-003 2.76468392e-003 -4.44268575e-004
      8.91702424e-004 8.37349519e-003 -5.73631702e-003 6.48739608e-003
      5.16007049e-003 1.43382456e-002 7.78770586e-003 9.23275761e-003
      -6.70655258e-003 1.75371964e-003 9.54100117e-003 -4.99420986e-003
      -1.52618485e-002 -1.36200320e-002 -3.19670029e-002
      -1.21932458e-002 6.78958511e-003 6.50082156e-003 -1.03599699e-002</_>
    <_>
      1.91701446e-002 4.22194880e-003 3.52022442e-004 1.29366638e-002
      -8.04548804e-003 -1.16639014e-003 -4.26672120e-003
      -1.43257659e-002 5.61547047e-003 9.03448183e-003 -2.06068195e-002
      7.97902327e-003 2.66510085e-003 -1.67308986e-004 -1.33597078e-002
      -9.71752312e-003 2.74930894e-003 7.14035588e-004 2.46047671e-003
      -1.86769990e-004 -2.46240590e-002 1.53218219e-002 8.53383634e-003
      2.10873596e-002 -1.05838626e-004 1.76202657e-003 2.05496093e-003
      7.68069969e-003 -1.02490289e-002 3.21458187e-003 1.56220235e-002
      6.17483212e-003 4.94247908e-003 4.10684908e-004 5.09728398e-003
      1.37929327e-003 2.45543430e-003 -1.87570462e-003 -5.52130118e-003
      -9.05652344e-003 -1.42269218e-002 -1.21556921e-002
      -7.97700719e-004 -1.81563979e-003 2.30213278e-003 -3.73777770e-003
      1.28991259e-002 7.62067083e-003 -1.69322211e-002 5.51654585e-003
      -3.10212234e-003 -1.15589111e-003 1.10545140e-002 -2.29322724e-003
      2.05223961e-003 5.94314607e-003 -1.78510032e-003 -2.00085645e-003
      7.62155838e-003 2.29240395e-003 1.75702255e-002 5.46866143e-003
      -1.54342595e-002 1.13820648e-002 -7.22036278e-003 1.11856824e-002
      9.35339369e-003 -3.63376504e-003 -1.30559858e-002 5.67484694e-003
      -4.40138020e-003 -9.24796984e-003 1.75055827e-003 5.97058795e-003
      4.27683524e-004 -7.20382761e-003 -5.70392655e-003 -8.33304785e-003
      7.35489186e-003 -7.04732258e-003 2.22743815e-003 1.34981070e-002
      1.67188048e-002 8.77072569e-003 9.72777512e-003 4.67253290e-003
      2.74101901e-003 2.25673290e-003 2.81632994e-003 -1.34601211e-002
      7.13559007e-003 -5.36667835e-003 1.38879465e-002 -1.43816676e-002
      1.29550220e-002 2.25199107e-002 1.35848401e-002 1.74500756e-002
      -4.99527995e-003 -1.44244051e-002 -6.83970703e-003 3.05747520e-003
      -7.02867610e-003 8.29586294e-004 1.02433823e-002 9.12288390e-003
      -1.11321416e-002 1.14838630e-002 -4.85896785e-003 4.79968323e-004
      4.29058354e-003 -3.04777594e-003 2.58738711e-003 3.08911782e-003
      7.40357675e-003 -2.02024938e-003 -9.92125017e-004 3.57766333e-003
      -7.45700998e-003 2.48685828e-003 -1.65879575e-003 1.62247545e-003
      -5.78120630e-003 -3.65111465e-003 9.06315353e-003 4.04564338e-003
      9.19019524e-003 9.73323919e-003 -6.50287652e-003 -3.52227152e-003
      -1.21883983e-002 -3.92407086e-003 2.68036150e-003 1.25179859e-002
      2.24796478e-002 -7.11540505e-003 1.16848731e-002 -5.81996189e-003
      1.26470560e-002 1.30743207e-002 -2.19645537e-003 1.44098222e-003
      1.10438978e-002 -1.83915114e-003 1.31802121e-002 5.55241527e-003
      3.19284364e-003 -7.53492443e-003 4.71084658e-003 -4.32521570e-003
      1.81849319e-002 -1.80490757e-003 -6.15990581e-003 -1.15838777e-002
      6.51835185e-003 1.96767063e-003 2.09398498e-003 4.17369232e-003
      -5.41500282e-003 8.08343384e-003 1.48810225e-003 6.81295642e-004
      -1.33614987e-002 7.46412436e-003 1.81873294e-003 2.73695565e-003
      -5.68614388e-003 -7.33722560e-003 8.90051760e-003 -5.57534862e-003
      1.76641233e-002 4.79361770e-004 5.61885186e-004 4.49213549e-004
      -2.64418800e-003 1.08751375e-002 -1.04249222e-002 1.16548827e-002
      -2.89198640e-003 8.48237518e-003 8.14374071e-003 1.56216708e-003
      -1.08918212e-002 -1.78648010e-002 6.28714962e-003 -3.47619085e-003
      -2.59911898e-003 7.40754791e-003 5.96733391e-003 5.99818397e-003
      -1.72974281e-002 1.66520115e-003 -1.05088186e-002 5.04060462e-003
      5.26564661e-003 -6.69842958e-003 2.11050618e-003 -8.39079078e-003
      1.51119623e-002 6.98190648e-003 7.03509199e-003 7.26302201e-003
      5.72882546e-003 7.11370166e-003 -5.00919670e-003 2.31210099e-004
      -6.19241828e-003 -4.32244688e-003 9.15865134e-003 6.67776354e-003
      3.64651787e-003 1.43190157e-002 2.61547919e-002 -1.00571360e-003
      7.38361757e-003 7.71696353e-003 -2.82924925e-003 2.59929686e-003
      1.25319315e-002 -1.32148378e-002 1.25535680e-002 -5.14438143e-003
      1.03220390e-002 7.60088582e-003 1.46486200e-002 1.59089249e-002
      9.24275606e-004 7.92329665e-003 9.87101905e-003 4.11407184e-003
      2.57908250e-003 5.61705965e-004 5.31703886e-003 -1.45959491e-002
      -1.88511219e-002 5.21711912e-003 -6.46051671e-003 6.48496300e-003
      1.22128360e-004 4.05271770e-003 -2.36974936e-003 1.42193707e-002
      6.28227042e-003 -7.34860078e-003 -6.86521735e-003 -4.34516557e-003
      8.13244726e-004 -5.21004375e-004 -7.79425260e-003 -7.92821217e-003
      2.55695870e-003 -1.16683273e-002 1.01390677e-002 7.13031506e-003
      1.07155815e-002 9.49032325e-003 -8.60237237e-003 -3.18497652e-003
      1.09760650e-002 7.59499380e-003 -1.24621531e-003 -5.88907674e-003
      1.11865299e-002 2.63781706e-003 1.02825025e-002 5.15783764e-003
      9.65528563e-003 -5.74546633e-003 6.77783648e-003 -1.59782721e-004
      2.28466908e-003 8.57604761e-003 -2.22835853e-003 7.08493346e-004
      -4.50285943e-003 6.04289072e-003 3.22884205e-003 8.05653539e-003
      6.83519291e-003 -5.75094670e-003 -1.92685961e-003 -1.49638439e-003
      3.66944168e-003 6.99352892e-003 -7.23995827e-003 5.18982997e-003
      2.24407716e-003 -3.65789072e-003 9.99159832e-003 3.77373537e-003
      -3.03926668e-003 -5.62243676e-003 1.60032813e-003 3.85297486e-003
      2.08278652e-003 5.97878499e-003 -1.57813262e-002 -7.46192783e-003
      2.07314326e-004 9.05071106e-003 -4.14762693e-003 8.38428270e-003
      -7.84059754e-004 -3.91549943e-003 8.62591434e-003 -3.18083516e-003
      6.94220280e-003 6.83870772e-003 4.87611760e-005 -1.35580180e-002
      1.30599989e-002 1.80431380e-004 -3.81933502e-003 -7.23295566e-003
      -3.83377844e-003 -1.74400513e-004 -7.44822528e-003
      -2.42672235e-004 -4.89784032e-003 7.18740094e-003 -6.33153017e-004
      8.72427423e-004 8.22603796e-003 -1.54593037e-002 -1.26297446e-003
      -1.28532015e-003 1.41131668e-003 1.73138059e-003 2.44956551e-004
      -1.17520411e-002 4.61564312e-004 4.56517795e-003 1.30847690e-003
      -1.62984524e-002 1.16367154e-002 -4.42066928e-003 -8.21218081e-003
      3.79892508e-003 -2.27708230e-003 -2.72305682e-003 1.01683959e-002
      7.77316839e-003 -9.12052300e-003 -1.73474697e-003 5.75725501e-003
      -1.36859864e-002 5.75318327e-003 1.25836655e-002 3.62252747e-003
      1.04043400e-003</_>
    <_>
      3.73493545e-002 6.03074674e-003 1.23292990e-002 5.51895890e-003
      -2.11144201e-002 3.30310618e-003 1.46881482e-002 1.01486510e-002
      -2.17020349e-003 1.18209445e-003 -1.55630149e-002 -8.88128486e-003
      -3.81380611e-004 2.34022504e-004 -1.53678237e-002 3.89373675e-003
      -1.60459522e-002 -1.01050986e-002 9.69316904e-003 5.62333083e-003
      7.34190969e-003 2.23704288e-003 4.86094225e-003 -7.24682212e-003
      -1.26388278e-002 -1.25934333e-002 -7.20374053e-003
      -4.22647834e-004 2.74338890e-002 -6.36325683e-003 2.45685279e-002
      -6.02536881e-003 -7.76812062e-003 1.01566100e-002 1.65410154e-002
      -1.05227828e-002 4.87434305e-003 1.49285933e-002 -5.75144542e-003
      -1.87222846e-002 -2.89711393e-002 -8.70809611e-003
      -1.34243174e-002 -7.36171054e-003 3.30283935e-003 9.86361876e-003
      -3.11170891e-003 -1.15581583e-002 2.13697385e-002 -2.68468657e-003
      9.14743729e-003 -2.46172063e-002 1.16208205e-002 -3.82952504e-002
      -7.33554363e-003 2.89880461e-003 -1.49071654e-002 -1.18780322e-002
      3.43852378e-002 1.26983309e-002 9.30591673e-003 8.42792727e-003
      -7.41928210e-003 1.19308950e-002 -2.87832171e-002 1.25474045e-002
      2.41769534e-002 -3.91559675e-003 2.44203093e-003 1.30702388e-002
      -3.54372803e-003 -1.60439536e-002 -1.76565605e-003
      -7.61579070e-003 -1.11467876e-002 -1.52946217e-002 9.34019871e-003
      -2.27711644e-004 2.04038844e-002 -1.89594720e-002 7.90144084e-004
      -2.82198132e-004 -2.78594042e-003 -1.03614349e-002
      -1.57409236e-002 1.37412166e-002 -7.69490749e-003 1.79483590e-003
      1.31919961e-002 -1.34712756e-002 1.19428069e-003 1.29009737e-002
      1.24419397e-002 1.46007882e-002 6.90917077e-004 3.61391380e-002
      -8.20720755e-003 2.49232110e-002 9.57043655e-003 -2.70761326e-002
      -1.11597485e-003 -1.31951133e-002 -2.68916078e-002 1.06962156e-002
      2.62277350e-002 -1.54789351e-003 9.27774818e-004 -1.61775686e-002
      -7.59057142e-003 2.31353361e-002 1.00954603e-002 3.21293296e-003
      -9.96432063e-005 -5.97417261e-003 4.83781099e-003 -1.21914828e-002
      -9.39390529e-003 -3.10062170e-002 2.70909019e-004 -6.73863851e-003
      -1.65181048e-002 5.15131420e-003 -1.32799689e-002 -7.36633269e-003
      -6.39857212e-003 6.90938905e-003 6.59215264e-003 -2.77237985e-002
      -1.21181300e-002 -6.14916207e-003 -2.54098214e-002 1.67440567e-002
      7.00489292e-003 7.09774299e-003 3.37916426e-002 1.57530736e-002
      2.45086066e-002 -1.28420033e-002 1.35005563e-002 6.55241031e-003
      3.27546964e-003 -5.92415081e-003 -5.33655426e-003 -1.13194399e-002
      3.08899122e-004 1.33873895e-002 -1.10077001e-002 -4.60302876e-003
      6.06983551e-004 -1.83261745e-002 -4.38688928e-003 -1.19104655e-002
      -8.74468219e-003 5.40539157e-003 3.93204717e-003 -1.22965302e-003
      2.22826400e-003 2.49756761e-002 -3.12468805e-003 1.13942120e-002
      -2.32116156e-003 -1.99665595e-002 1.99013669e-002 -7.28175556e-003
      -4.09828994e-004 4.25002305e-003 -1.37560396e-002 2.53067282e-003
      -5.91353094e-003 3.22575262e-003 9.28616337e-003 1.26361696e-003
      -5.19012585e-002 1.23653840e-002 -3.99765885e-003 6.45581051e-004
      -2.40930095e-002 8.37746821e-003 1.64208189e-002 4.40859748e-003
      1.19880205e-002 -2.42878268e-005 1.88626756e-003 -2.47798767e-002
      3.99188362e-002 -6.98167272e-003 -7.41382083e-003 2.73507517e-002
      5.61715150e-003 -3.27664347e-005 -4.69410047e-002 3.22236633e-003
      -1.65015049e-002 -1.81221194e-003 7.95154646e-003 4.42695164e-004
      -7.73595227e-003 -1.34184398e-002 -9.95774660e-003 1.04915770e-002
      1.11684948e-003 -9.46683623e-003 -4.43582470e-003 -1.58578728e-003
      1.02125825e-002 -2.20039091e-003 -1.45291965e-002 -2.79107839e-002
      1.74787994e-002 1.46777113e-003 1.63150802e-002 7.92350899e-003
      1.87332407e-002 -1.77574400e-002 -2.78159627e-003 1.38933379e-002
      3.00841630e-002 -1.10515356e-002 -6.12950092e-003 -1.23124495e-002
      1.49922213e-002 -2.11500525e-002 5.77301811e-003 8.25457461e-003
      -2.24809675e-003 1.95274949e-002 -2.53889002e-002 1.44776255e-002
      1.37280067e-002 1.28582697e-002 -5.32231200e-003 -4.14246619e-002
      1.49250440e-002 -1.68289170e-002 7.11472332e-003 2.65434617e-003
      -3.88431735e-003 1.54550197e-002 -5.44075761e-003 2.21512858e-002
      -8.51177983e-003 8.21768481e-004 5.55671053e-003 -2.41359994e-002
      -4.58658207e-003 -2.19960175e-002 -2.51268800e-002
      -1.26168234e-002 -9.46965069e-003 4.08164365e-003 1.69464983e-002
      3.15126451e-003 -1.15356334e-002 8.79560411e-003 -1.20054306e-002
      2.47041322e-002 -1.46617265e-002 -9.05063096e-003 9.81054828e-003
      -2.79742200e-002 -4.63331258e-003 3.63274105e-002 -5.10003557e-003
      1.89005565e-002 5.52838296e-003 -4.15017037e-003 2.17744112e-002
      -1.43584907e-002 1.07520930e-002 1.50586497e-002 -7.55846174e-003
      -3.27718258e-003 -8.50874092e-003 5.97928371e-003 -1.83940474e-002
      8.14661791e-004 4.23541805e-003 1.48459908e-003 2.31064726e-002
      1.03525277e-002 3.65031045e-003 1.21697253e-002 -1.12260031e-002
      2.00735033e-002 1.64109003e-002 6.94355462e-003 -1.29749049e-002
      -8.94888584e-003 2.60547292e-003 1.31704425e-002 -1.32372882e-002
      -2.51270202e-003 -1.89479645e-002 6.40578521e-003 -2.43534823e-003
      -2.17093970e-003 1.28021045e-002 -4.15027607e-003 1.16671054e-002
      2.16211360e-002 -5.29999426e-003 1.70676596e-002 -8.20958242e-003
      -1.27993254e-002 3.28864972e-003 3.28855775e-002 2.02934612e-002
      -1.70903336e-002 -1.10888025e-002 -1.95036344e-002 9.20028798e-003
      -3.90178785e-002 -1.13061294e-002 -2.28043478e-002 2.03474499e-002
      1.94134116e-002 -1.21133765e-002 3.98963271e-003 8.47119838e-003
      -2.17739400e-003 1.74556132e-002 8.13452248e-003 2.66112499e-002
      1.00253429e-002 1.08096907e-002 2.43980181e-003 -1.26470195e-003
      -1.01710120e-002 -3.57461907e-003 9.62390658e-003 -7.70556880e-003
      5.03208628e-003 -1.19387787e-002 -7.73038622e-003 4.62777400e-003
      9.38051380e-003 2.71282857e-003 8.02929979e-003 1.36372764e-002
      1.24106109e-002 -1.81071702e-002 1.93320159e-002 2.14972608e-002
      1.70095486e-003 -6.14010869e-003 -2.13680901e-002 -9.69013292e-003
      2.15002056e-003 1.90975145e-002 -9.92028858e-004</_>
    <_>
      3.12741809e-002 -1.00371838e-002 4.17033210e-003 -2.16367897e-002
      1.02670128e-002 -1.10845249e-002 4.19562683e-003 1.92567483e-002
      -1.56137114e-002 2.62049609e-003 5.09313587e-003 1.95039995e-002
      -1.21365320e-002 -5.29345870e-003 -2.14314908e-002
      -1.56793296e-002 -1.02032529e-004 6.70675281e-003 -1.41211543e-002
      -1.47577189e-002 -4.83140070e-003 -5.47134830e-003
      -2.51316577e-002 -1.10662431e-002 3.17888544e-003 -2.89224405e-002
      1.03708152e-002 -1.56496763e-002 -1.05778137e-002 -2.17173016e-003
      -1.71303831e-003 -8.95808078e-003 -8.06839857e-003 8.13977607e-003
      -9.88212321e-003 -1.08799140e-003 1.58833340e-002 1.26501769e-002
      4.28665057e-003 -3.05650122e-002 1.14790732e-002 5.91300894e-004
      8.14011041e-003 -1.09598124e-002 -1.63771231e-002 -3.43205594e-003
      -1.98156871e-002 5.07072173e-003 -8.05989001e-003 4.99917520e-003
      1.18309129e-002 3.35527100e-002 -7.96763692e-003 -2.29802579e-002
      -9.69679153e-004 -1.39151540e-004 -1.02187442e-002 5.32451272e-003
      1.17198182e-002 -3.55389481e-003 -1.63035896e-002 5.96880401e-003
      -5.07752597e-003 4.47513163e-003 -3.80364479e-003 -3.45295146e-002
      8.18854105e-003 6.79402472e-003 2.04861928e-002 9.73704178e-003
      7.59483129e-003 -5.19689405e-004 6.06612070e-004 -1.05044562e-002
      1.26807876e-002 -1.60511117e-003 -9.18448379e-004 -1.35828210e-002
      1.73560064e-003 -1.67820696e-002 3.02932449e-002 5.86967589e-003
      3.42705920e-002 -2.21680254e-002 -6.64128317e-003 9.06065106e-003
      7.91465677e-003 7.46656815e-003 1.44258402e-002 2.49896292e-002
      2.27786112e-003 -6.37278194e-003 -1.51672522e-002 -1.21968389e-002
      -2.61612907e-002 2.47860677e-003 -3.34260054e-002 -2.03552227e-002
      -1.45237744e-002 -9.70545970e-003 9.86458967e-004 1.24025811e-003
      -1.06334463e-002 -4.72812541e-003 7.65582640e-003 7.24454084e-003
      -5.57977660e-003 -8.69103707e-003 -1.24816695e-004 4.57950495e-003
      1.85163952e-002 -1.84590537e-002 2.15134844e-002 -6.58200169e-003
      1.29669402e-002 2.55058263e-003 -2.65300128e-004 -2.83091050e-003
      -4.11833599e-002 1.19652571e-002 1.04419980e-002 1.57653186e-002
      -1.08070057e-002 -1.75190624e-002 9.42850672e-003 1.90236431e-003
      1.62096992e-002 2.18548551e-002 -1.04662869e-002 2.94798948e-002
      1.61652616e-003 1.65134814e-004 -1.12048816e-002 8.29080027e-003
      1.54366894e-002 1.67711917e-002 2.50889454e-002 -1.56224445e-002
      5.07212663e-003 -1.52992308e-002 -9.24544316e-003 -2.18185745e-002
      1.51825948e-002 -3.87889706e-003 1.10636307e-002 4.38649673e-003
      4.42524115e-003 5.18162875e-003 2.00706930e-003 -4.76371730e-003
      -1.71563830e-002 -2.56528170e-003 7.30876578e-003 -1.62996370e-002
      -1.34823807e-002 4.23493190e-003 1.10205337e-002 1.67723570e-003
      -7.21326191e-003 2.32118238e-002 -2.77426513e-003 -1.15653258e-002
      -2.31572241e-002 -1.63495634e-002 2.00925861e-003 -2.87704859e-002
      -1.72771607e-002 -1.39461756e-002 5.97141124e-003 -4.60828608e-003
      -1.97366290e-002 -1.19548780e-003 3.37318308e-003 -2.10828017e-002
      -3.48859504e-002 -6.69736089e-003 1.22234784e-002 -5.07087493e-003
      -1.33240619e-003 -2.93036439e-002 1.19113806e-003 1.84628554e-002
      -1.70415230e-002 -3.03418562e-002 -1.47764953e-002
      -3.76514421e-004 -9.09676310e-005 -1.53048551e-002 8.24411120e-003
      -4.11530398e-003 -1.11898296e-002 -7.00870622e-003
      -1.76318179e-004 1.91582404e-002 -3.50127206e-003 5.01081115e-003
      -1.62837598e-002 1.86746437e-002 -8.74048274e-004 7.37609016e-003
      -1.87047962e-002 1.88803568e-003 -2.03219000e-002 2.42763180e-002
      7.43525149e-003 -1.08807767e-002 3.41513716e-002 -1.18208062e-002
      4.87316167e-003 -2.12556385e-002 4.77265753e-003 -4.25100839e-003
      -1.78812053e-002 -7.70574342e-003 -2.77873332e-004
      -2.83665359e-002 -2.47337315e-002 3.56837921e-003 3.37419100e-002
      -1.01120537e-002 1.07790530e-002 6.90401299e-003 7.85797089e-003
      -1.38867628e-002 2.55948808e-002 1.13777341e-002 4.50636353e-003
      -1.34743592e-002 1.46135781e-002 -1.72797227e-004 -1.73611939e-002
      -2.48943307e-002 -6.71206741e-003 -7.30533851e-003
      -2.78804302e-002 -1.05526419e-002 2.38688989e-003 8.14178959e-003
      2.35577580e-002 -1.08856037e-002 -2.02893969e-002 -4.57555652e-002
      -3.66239063e-003 -8.31257901e-004 5.01137599e-003 1.14779053e-002
      -8.94977152e-003 2.57542767e-002 4.01865877e-003 5.07820770e-003
      5.78188291e-003 -2.81406678e-002 -1.32160569e-002 8.20530113e-003
      -7.84685742e-003 -2.70031132e-002 -6.64771535e-003 6.72468217e-003
      9.28972010e-003 -9.66140721e-003 4.65778401e-003 -3.36507685e-003
      7.91566074e-003 4.08283155e-003 -8.19037319e-004 9.19214357e-003
      -3.73969786e-003 -6.83564879e-003 4.25526733e-003 -4.44980251e-004
      1.27404947e-002 -1.64087936e-002 2.47469191e-002 2.72402354e-002
      1.75529942e-002 -1.89143289e-002 -1.48279546e-002 -2.36821864e-002
      -8.99286568e-003 1.10612083e-002 9.16397199e-003 2.10251939e-002
      1.23877730e-002 -9.23252758e-003 2.00363924e-003 -1.87448151e-002
      -5.78724372e-004 8.62273388e-003 -1.02087879e-003 -1.38003973e-003
      -7.38618721e-004 -2.86933477e-003 1.04141356e-002 -3.34772058e-002
      -3.14614959e-002 1.87687215e-003 1.70870740e-002 1.36473831e-002
      3.44845210e-003 7.93213677e-003 6.21552300e-003 2.72483303e-004
      1.11368010e-002 -1.75627624e-003 1.12083070e-002 1.08215967e-002
      2.07521860e-003 1.02311252e-002 -1.69669674e-003 -1.18163237e-002
      2.03445032e-002 -1.92603767e-002 -2.53437180e-002 -6.44877087e-003
      -5.45504689e-003 1.69836748e-002 1.69296823e-002 -7.07944436e-003
      -4.26764949e-004 6.07529946e-004 7.92247336e-003 -2.69394070e-002
      9.98816174e-003 -1.28405085e-002 1.71290077e-002 -4.92015574e-003
      7.93066341e-003 -8.67598399e-004 -2.36730650e-003 9.51914303e-003
      6.98832935e-003 -9.00784857e-004 -6.97760144e-003 3.14115621e-002
      -9.87784239e-004 6.23445958e-003 1.02723837e-002 -2.04666727e-003
      -1.71927386e-003 2.96523403e-002 -4.41156700e-003 -1.75489057e-002
      -2.44070892e-003 1.65091734e-002 7.70539604e-003 -2.71068662e-002
      1.23934671e-002 1.51864700e-002 8.54128692e-003 -2.11589993e-003</_>
    <_>
      1.07078413e-002 -1.15548261e-002 -6.36526849e-003 -7.53827579e-003
      1.10961013e-002 7.91721791e-003 -3.83200007e-003 1.30809918e-002
      -1.58134140e-002 3.54657997e-003 2.73529179e-002 1.64660886e-002
      -2.25846097e-002 -3.77776031e-003 1.24625359e-002 -1.40971849e-002
      2.13838853e-002 -1.47710349e-002 -1.68968309e-002 -8.20137002e-003
      1.52992667e-004 -2.10247897e-002 -3.39477090e-003 9.11818165e-003
      1.48893492e-002 -5.85708208e-002 -5.63394604e-003 1.51049960e-002
      -3.48633761e-003 -1.22894654e-002 6.20591128e-003 -1.20431352e-002
      -1.80061627e-002 -1.80820134e-002 -2.16569342e-002
      -1.20003859e-003 1.84329599e-002 2.74762474e-002 -3.78951780e-004
      -4.26115235e-003 -1.33538665e-002 1.05928853e-002 -1.01287542e-002
      -1.06539000e-002 -3.12081911e-002 -3.83010954e-002
      -7.22076092e-003 2.30386597e-003 -3.23937722e-002 3.20653431e-002
      -1.84268020e-002 1.17770759e-002 -7.37941824e-003 1.88382808e-003
      6.51737954e-003 9.68774874e-003 -7.68991001e-003 7.97415338e-003
      1.59534141e-002 1.59293413e-002 -4.34242189e-003 7.48843420e-003
      -1.07093127e-002 6.88888691e-003 -2.10648645e-002 -1.86322238e-002
      -3.23746959e-003 -2.25491114e-002 -1.05906632e-002 6.72144955e-003
      2.64593177e-002 -3.45683470e-002 3.11872386e-003 3.54403979e-003
      -9.99536738e-003 -1.23805422e-002 -1.03856856e-002
      -2.15637498e-002 -2.79096104e-002 3.45169157e-002 1.19363479e-002
      -1.47669455e-002 1.64028108e-002 7.17119826e-003 -1.61837395e-002
      -2.48881374e-002 -1.49033377e-002 1.23210661e-002 3.12637468e-003
      1.14515505e-003 -2.43038721e-002 2.22349050e-003 -2.73274425e-002
      -1.20615633e-002 -5.10736108e-002 1.65836941e-002 -2.42005903e-002
      -3.17385700e-003 1.68316625e-002 4.13444825e-002 -9.58518218e-003
      -7.01876497e-003 7.73000252e-003 -7.86504615e-003 -2.33485154e-003
      1.58036109e-002 -8.38867854e-003 -1.11464309e-002 3.97978984e-002
      -3.90265603e-003 4.01910618e-002 -8.82719550e-003 2.57865083e-003
      -5.44016156e-003 -1.13480808e-002 1.45078264e-002 2.22800858e-002
      -1.33210830e-002 -2.46607289e-002 1.41665870e-002 1.89025402e-002
      2.77847908e-002 -6.39598165e-003 -2.50927899e-002 5.23695024e-003
      8.34510941e-003 -6.07373007e-003 1.97337773e-002 -3.49212065e-002
      1.83838215e-002 3.32556441e-002 -3.91962454e-002 1.21644745e-003
      1.12709240e-003 1.00624785e-002 1.11679044e-002 6.17934577e-003
      3.79621889e-003 -7.15099042e-003 -1.46651827e-002 6.82076812e-003
      -1.85014065e-002 7.64860353e-003 8.22284631e-003 1.31219942e-002
      4.69132187e-003 -5.25437389e-003 -7.04909908e-003 -2.90100705e-002
      -2.29268018e-002 -8.97748210e-003 5.49701974e-003 1.55902868e-002
      -8.91671609e-003 2.73668356e-002 3.21414368e-003 -3.53518687e-002
      1.57832932e-002 7.17983721e-003 1.41884312e-002 -1.06628556e-002
      -2.39852853e-002 -1.93151757e-002 -9.67720989e-003
      -2.18780804e-002 -1.87417623e-002 8.16935580e-003 -1.61959056e-003
      1.06037389e-002 7.85780605e-003 -2.52366811e-002 -3.30760516e-002
      6.42627757e-003 -2.33127717e-002 -2.07962580e-002 3.20547484e-002
      3.28668067e-003 -4.89185657e-003 -2.12098584e-002 -7.31346523e-003
      5.61213261e-003 7.13791139e-003 9.67466040e-005 1.22681921e-002
      -1.38411308e-002 -2.28401783e-004 -2.44762618e-002
      -1.17364228e-002 1.79228629e-003 3.60298567e-002 -2.63109570e-003
      1.12783182e-002 1.36391027e-002 3.00479643e-002 -1.00799520e-002
      -1.19172437e-002 5.26014669e-003 1.40565475e-002 -1.72857270e-002
      1.44023998e-002 -3.67445089e-002 1.09557972e-004 1.57199353e-002
      2.32584868e-002 -2.97165159e-002 -2.32783575e-002 4.56975168e-003
      -1.96179226e-002 -1.17271263e-002 2.98327897e-002 2.15149904e-003
      4.36090194e-002 1.75617002e-002 -1.53462393e-002 1.60598587e-002
      -8.33500270e-003 -8.65594856e-003 4.62628864e-002 2.89394818e-002
      -3.49880420e-002 1.08952178e-002 -4.02850192e-003 -1.03339106e-002
      -3.73169780e-002 2.34289337e-002 -7.66644487e-003 4.93757334e-003
      -9.73315968e-004 3.20428833e-002 -8.23350623e-003 1.13148033e-003
      -1.64663121e-002 1.58463998e-004 -2.03281641e-002 1.70796476e-002
      -6.48268359e-003 1.24108233e-002 -2.32394822e-002 2.59145033e-002
      -2.39418000e-002 -5.14031528e-003 2.03635190e-002 1.31085925e-002
      -2.62055732e-003 -1.66735370e-002 -1.03250220e-002
      -2.85373349e-002 4.82275523e-003 2.11036485e-002 2.09577885e-002
      -1.68071222e-002 -2.49852594e-002 3.22401524e-003 1.55573189e-002
      7.02390121e-003 2.64560943e-003 1.05047151e-002 2.50960235e-002
      1.96574610e-002 3.11135501e-003 -4.65241843e-004 8.97832308e-003
      1.41389831e-003 -6.93973061e-003 8.65245145e-003 7.25782104e-003
      -8.97790247e-004 -6.48853928e-003 -1.82027684e-003 2.69530267e-002
      -1.33996950e-002 -1.47194357e-003 4.48082155e-003 1.50460443e-002
      -6.74916618e-003 3.97265237e-003 -8.95406213e-003 -1.38740717e-002
      -4.07489948e-003 3.51737393e-003 2.65431497e-002 2.29741074e-003
      1.25508208e-003 -1.65397730e-002 5.70124621e-003 1.97934527e-002
      -4.87750303e-003 5.91880037e-003 5.96439582e-004 1.82697233e-002
      1.26062660e-003 -2.98159756e-002 -7.61320489e-003 -1.83051247e-002
      -1.34339388e-002 6.66936918e-004 -1.78524647e-002 -4.52780584e-003
      -1.18382759e-002 7.11249374e-003 1.68836117e-002 -1.15133859e-002
      4.13300050e-003 -4.32447670e-003 3.69215906e-002 1.31336991e-002
      -2.46825255e-002 -1.34197520e-002 1.25876525e-002 -2.42456794e-002
      -2.56714365e-003 -1.74381658e-002 -2.86867432e-002
      -3.23099717e-002 -1.41285062e-002 9.05147754e-003 1.62678100e-002
      -2.28194939e-003 1.96764432e-002 -1.38134351e-002 -9.69144329e-003
      -2.07379833e-002 -1.97557621e-002 -3.16977575e-002 3.40907462e-002
      -3.98322754e-003 1.23242452e-003 -3.09042484e-002 -1.49615845e-002
      -9.04929731e-003 -3.11269797e-003 -9.99618974e-003
      -2.79715396e-002 1.61110691e-003 -2.51340517e-003 1.20986169e-002
      2.63486113e-002 -1.02164494e-002 6.41816994e-003 2.43003350e-002
      4.84652771e-003 -5.97737590e-003 -2.75040623e-002 1.14494972e-002
      5.99642145e-003 1.01634115e-002 -1.24463195e-003 -1.18308589e-002
      6.80223154e-003 -2.46922311e-004</_>
    <_>
      6.72485493e-003 -3.51256155e-003 8.86358693e-003 -1.06215617e-002
      -5.79991657e-003 2.21843389e-003 2.38071894e-003 1.06931962e-002
      -4.29101801e-003 -1.51931839e-002 9.84183745e-004 1.61654933e-003
      -2.41256971e-002 3.55883641e-003 2.31191749e-003 -8.59963708e-003
      -9.36590228e-003 8.59213818e-004 -7.61981634e-003 5.77448076e-003
      2.07281746e-002 -3.46797961e-003 -6.80349907e-003 -5.63054066e-003
      4.80147544e-003 -3.32399979e-002 1.82158202e-002 4.91456827e-003
      8.21072515e-003 -4.79331519e-003 -8.61175067e-004 -2.21879091e-002
      1.62891904e-003 -8.26476607e-003 -7.59856589e-003 -7.59311346e-003
      -5.36029879e-003 2.31438428e-002 -9.06203315e-003 -3.10635436e-002
      4.78466786e-003 -8.95132590e-003 -7.80775305e-003 -7.15922564e-003
      -9.42446943e-003 7.04782782e-004 -6.99886354e-003 -3.51710268e-003
      -1.57363079e-002 1.29656792e-002 4.17985982e-004 7.78449280e-003
      -1.82732698e-002 -6.43636938e-003 -9.58866253e-003 4.10008756e-003
      -1.31444549e-002 -2.24755630e-002 4.01973259e-003 2.13915226e-003
      -8.11595097e-003 -4.22194926e-003 5.52144088e-003 3.13262152e-003
      -1.24877896e-002 -4.74944757e-003 -5.92695409e-003 4.33750870e-003
      1.39471758e-002 3.38416384e-003 1.30760774e-003 -7.73384701e-003
      1.54721120e-003 -1.12080704e-002 -4.95887641e-003 -2.12988257e-002
      9.42019280e-003 -4.91597224e-003 -2.24045683e-002 1.52933886e-002
      4.25639795e-003 -8.51982273e-003 6.88595884e-003 -7.71039119e-003
      -6.92664692e-003 -3.06476653e-003 2.99238297e-003 9.47435200e-003
      6.18767738e-003 -1.61908194e-002 -6.03916729e-003 -9.64004174e-003
      -1.00486660e-002 -1.12002762e-002 -8.09140597e-003 3.20581719e-003
      -1.17361331e-002 -2.70774253e-002 -2.94586830e-003 2.09539700e-002
      2.82237194e-002 2.67783972e-003 -1.42181886e-003 1.04254717e-003
      -1.67107843e-002 1.77372321e-002 -8.16194434e-003 -1.46055324e-002
      1.84606649e-002 -1.63230132e-002 1.61159579e-002 -6.17221650e-003
      -1.85714569e-003 -7.35097565e-003 5.08790417e-003 -2.43351609e-002
      1.34375719e-002 6.24286151e-003 -7.71380169e-003 1.41861169e-002
      -7.39488518e-003 4.17299243e-003 -5.15527837e-003 5.52391913e-003
      7.85584841e-003 -6.80483505e-003 8.71641189e-003 8.19978770e-003
      -1.06170308e-002 2.72152238e-002 1.23175764e-002 6.58838358e-003
      -2.83703348e-003 5.79550816e-003 3.30321630e-003 -7.11158791e-004
      1.24852797e-002 -1.25724105e-002 6.16584811e-003 6.75208576e-004
      -5.39920991e-003 -8.34163366e-005 1.13233086e-002 -1.57424975e-002
      -6.66463561e-003 -1.76739180e-003 6.13593869e-003 1.38465371e-002
      1.03711532e-002 5.14735948e-005 -1.40452581e-002 -9.87626985e-003
      1.59905653e-003 -2.64329812e-003 1.06732380e-002 -4.80077433e-004
      -8.85988586e-003 -5.81482565e-003 -1.50389038e-002 2.73431614e-002
      3.63799511e-003 -2.84897164e-002 1.01995431e-002 -2.88820174e-002
      -1.23566156e-002 -1.92575231e-002 -6.86720200e-003 3.52778618e-004
      6.26737205e-003 -1.53596383e-002 -4.27799532e-003 2.64246901e-003
      -1.08809490e-002 -1.53088225e-002 -9.75878071e-003 8.29537341e-004
      1.79524086e-002 -1.32799027e-002 1.70341344e-003 -5.63842990e-003
      1.36712724e-002 1.34895938e-002 -2.19024215e-002 -4.33047675e-003
      -1.05232131e-002 3.42314038e-003 -1.41006205e-002 -4.78265388e-003
      1.91977080e-002 9.97575186e-003 -7.39165302e-003 1.78453196e-002
      9.08790994e-003 -8.25455878e-003 -1.41557527e-003 -2.70068124e-002
      7.20147160e-004 1.91142899e-003 1.00123882e-002 6.29906449e-003
      -1.89448725e-002 -1.98071171e-002 6.30887412e-003 -6.34380151e-003
      -1.07512269e-002 5.16306423e-003 3.03358156e-002 -3.51736955e-002
      8.23077932e-003 1.44928172e-002 1.34650711e-002 2.08332948e-002
      9.39102285e-003 -1.75527111e-002 2.09847884e-003 6.30155625e-003
      -2.52469853e-002 -2.70455261e-003 2.05834247e-002 -1.49161471e-002
      6.64020842e-003 2.52086390e-003 -2.08863728e-002 1.47922197e-003
      1.89676974e-002 -2.04929411e-002 3.74742178e-003 1.14106042e-002
      8.01312830e-003 5.77863818e-003 4.11693333e-003 -1.14230225e-002
      -4.66676475e-003 1.51432613e-002 -1.31772067e-002 -1.48047190e-002
      1.00279041e-003 -1.53610604e-002 -2.44006538e-003 -1.52618121e-002
      -1.55107100e-002 7.39242230e-003 -1.70588738e-003 8.56432691e-003
      -9.02576558e-003 -1.78471114e-003 -1.69353373e-003 6.71294797e-003
      1.28889615e-002 2.25454327e-002 5.83596481e-003 -1.29924424e-003
      1.93523162e-003 -8.90310574e-003 8.76619108e-003 6.70758216e-003
