<?xml version="1.0"?>
<opencv_storage>
<my_svm type_id="opencv-ml-svm">
  <svm_type>C_SVC</svm_type>
  <kernel><type>LINEAR</type></kernel>
  <C>1.</C>
  <term_criteria><epsilon>9.9999999392252903e-009</epsilon>
    <iterations>2147483647</iterations></term_criteria>
  <var_all>300</var_all>
  <var_count>300</var_count>
  <class_count>8</class_count>
  <class_labels type_id="opencv-matrix">
    <rows>1</rows>
    <cols>8</cols>
    <dt>i</dt>
    <data>
      80 165 171 195 209 210 245 249</data></class_labels>
  <sv_total>28</sv_total>
  <support_vectors>
    <_>
      -1.32863689e-003 1.59775019e-002 3.34455329e-003 -6.34852936e-003
      6.08496042e-003 9.80293611e-004 -8.30960576e-004 -5.07874833e-003
      -1.31672816e-002 -1.35119734e-002 -2.14063451e-002 8.12246930e-003
      2.85330620e-002 1.12828910e-002 -6.85080979e-003 -7.62007199e-003
      -8.16453772e-004 -1.66636445e-002 -8.41210037e-003
      -3.93657992e-003 3.09467409e-003 -7.78373051e-003 -4.65867529e-003
      7.34624173e-003 1.70883276e-002 -6.94882963e-003 -1.74734174e-004
      1.80506837e-002 -3.78702045e-003 1.63295325e-002 -2.53121229e-003
      -1.03208749e-002 4.85843280e-003 8.20677914e-003 -2.61614621e-002
      8.65561236e-003 2.05290900e-003 -6.12970348e-003 -4.29687323e-003
      -1.76995713e-002 8.64181109e-003 1.65737197e-002 -1.51887927e-002
      -8.92040879e-003 6.46477100e-003 -1.09768454e-002 9.59956087e-003
      3.03469761e-003 -5.86127024e-003 -9.07958311e-004 1.84592456e-004
      1.30014094e-002 -1.50568131e-002 -1.80848017e-002 -1.35573614e-002
      -1.08951358e-002 4.57889587e-003 -2.75924010e-003 2.75927642e-003
      -1.01902997e-002 -1.90549549e-002 1.00806756e-002 -2.76695006e-003
      6.51652273e-003 6.56385673e-003 5.46476338e-003 -7.64619699e-003
      6.42624078e-003 2.25324696e-003 -2.63338955e-003 6.18266873e-004
      4.21645539e-003 3.01700085e-002 9.78697091e-003 5.63859567e-003
      7.71720009e-003 -6.03908952e-003 -4.34092944e-003 5.53184049e-003
      -3.15644555e-002 1.97426137e-003 -5.64686069e-003 -2.78267218e-003
      3.26689077e-003 8.67954164e-004 -1.09624900e-002 8.99863522e-003
      -9.12130717e-003 4.24783491e-003 -9.79207363e-003 1.40826060e-002
      8.20419402e-004 1.50493560e-002 -3.65944020e-003 9.29879025e-003
      -1.00433165e-002 1.10230660e-002 1.60395205e-002 -2.25780066e-003
      4.81190742e-004 2.90774484e-003 9.30847507e-003 1.68271493e-002
      1.62577350e-002 -1.83469523e-002 -2.02724803e-003 -2.53194459e-002
      8.65639560e-003 9.43369325e-003 -3.86956846e-003 -4.18469636e-003
      9.55324806e-003 -5.94991026e-003 2.26485077e-002 -3.48821562e-003
      -1.97353754e-002 -1.71673670e-002 -1.12265144e-002 6.82064425e-003
      -3.45464773e-003 4.74065635e-003 5.56316180e-003 3.55927809e-003
      -4.93938848e-003 1.66688673e-002 -1.66961574e-003 -3.41916503e-003
      -1.40802441e-002 2.02540662e-002 -8.20806436e-003 -9.68071166e-003
      -5.80331590e-003 -2.93059065e-003 -8.52029305e-003
      -1.52000366e-002 4.50244173e-003 5.76603692e-003 6.95905136e-003
      7.94365909e-003 -6.54013408e-003 2.06457991e-002 -2.29799226e-002
      -7.33758975e-003 -5.28502685e-004 -2.71507865e-003 1.03764236e-002
      -1.58089418e-002 3.77839105e-003 5.83729567e-003 -2.11404040e-002
      -2.15106513e-002 -5.52106369e-003 5.86243672e-003 -9.29430826e-004
      7.71331880e-003 -3.31912935e-002 -3.42969107e-003 -1.32488657e-003
      1.15799336e-002 -2.28027869e-002 -1.64710369e-003 -7.52986642e-003
      1.04983291e-002 1.18388636e-002 8.51451419e-003 1.28829731e-002
      -4.43297997e-003 -9.47720371e-003 4.19846096e-004 -3.07133119e-003
      8.32276419e-004 3.55852512e-003 -5.25335548e-003 4.88507142e-003
      6.66871248e-003 1.09474268e-002 3.76485777e-003 -2.15619970e-002
      -4.81077656e-003 4.46372153e-003 6.56672928e-004 -2.71970946e-002
      -1.71007775e-002 -6.10685442e-003 -1.41736437e-002 1.12019628e-002
      -1.93221718e-002 -1.25898356e-002 5.25201222e-006 -1.86364111e-002
      1.12618618e-002 4.83269338e-003 -5.46294264e-003 5.16174268e-003
      -7.51927122e-003 2.25350633e-002 5.78351784e-003 -6.61272649e-003
      8.66180519e-004 -5.28544770e-004 -2.32455134e-002 1.94939170e-002
      7.96459708e-003 1.33501934e-002 5.55746956e-003 -5.79003885e-004
      -1.27294543e-003 -2.12005470e-002 -4.27894760e-003 8.86527915e-003
      8.02711025e-003 1.24896625e-002 1.92449726e-002 4.98981273e-004
      7.08438409e-003 -3.80525528e-003 5.66005241e-003 1.87797833e-003
      -4.41118842e-003 3.65350768e-003 -4.95559815e-003 -3.22493538e-003
      -3.11652720e-002 -2.02616621e-002 4.57558344e-004 8.25273897e-003
      -3.70681798e-003 1.13745527e-002 5.11797285e-003 6.05387846e-003
      -7.46613368e-004 2.04966925e-002 3.56133864e-003 -2.58638896e-002
      -5.48715796e-003 -6.71168277e-003 -1.53860950e-003 1.28318311e-003
      -3.20246234e-003 1.05767325e-002 -1.47110950e-002 -4.90681361e-003
      5.53507404e-003 -4.94305231e-003 -1.26725463e-002 8.08461197e-003
      -1.27850845e-002 1.03894509e-002 -3.42371501e-002 2.32411977e-002
      -2.23140903e-002 -1.95193116e-003 -2.22505908e-002 7.38793286e-003
      2.02857405e-002 1.28092337e-002 -4.41405503e-003 3.69828311e-003
      1.76088113e-004 -3.76667432e-003 1.42439380e-002 -2.57685594e-002
      2.97016231e-003 2.20164787e-002 -2.57557463e-002 4.60228592e-004
      8.87634512e-003 -1.85496104e-003 -3.67212743e-002 -1.55103328e-002
      2.68244408e-002 -8.65773414e-004 -6.71532471e-003 1.67945642e-002
      -1.53915898e-003 1.40630978e-003 -1.39757870e-002 -2.11622864e-002
      1.20412058e-003 -9.28240176e-003 9.69580933e-003 -1.79450642e-002
      -1.77095958e-003 5.75846992e-004 2.46375310e-003 2.42374931e-003
      -2.04754192e-002 7.86975771e-003 -1.50460601e-002 8.49499775e-004
      1.65928286e-002 8.69146432e-004 2.79626641e-002 -1.50088756e-003
      -8.34102184e-003 -9.09212511e-003 -1.92461666e-002
      -7.27385143e-003 1.35059040e-002 -4.54002107e-003</_>
    <_>
      4.24696412e-003 -1.31193707e-002 2.75855567e-002 -5.15972637e-003
      1.55925574e-002 -1.82451180e-003 1.51857669e-002 3.78144607e-002
      -2.50921659e-002 -1.87644130e-003 -2.98034977e-002
      -1.25062643e-002 1.71145163e-002 2.44809990e-003 3.82857979e-003
      -1.42939873e-002 2.57246371e-004 -2.21719164e-002 -2.72134226e-003
      5.29032014e-003 1.09127322e-002 -1.25810802e-002 8.27804208e-003
      -1.50715578e-002 1.26415500e-002 -1.45606732e-003 4.08514626e-002
      -7.40416422e-002 1.73866861e-002 -1.89860798e-002 -5.06587476e-002
      2.93565113e-002 1.95721127e-002 -2.05681361e-002 -3.92266065e-002
      2.53302567e-002 -2.46096905e-002 -1.95876081e-002 4.13283519e-003
      6.44080108e-003 2.92686634e-002 2.53245384e-002 -2.53076758e-002
      -3.56641226e-002 2.02468541e-002 6.51666475e-003 1.43789453e-002
      1.08801564e-002 -1.25031471e-002 5.10860933e-003 -1.63189229e-002
      2.09566690e-002 1.27299735e-002 1.52551197e-002 -2.50900108e-002
      3.78539711e-002 3.92376222e-002 -4.50231787e-003 2.95446031e-002
      3.04882843e-002 -2.96271611e-002 -3.38242315e-002 2.85847634e-002
      1.82249341e-002 7.02483114e-003 1.21912519e-002 -7.52707105e-003
      -9.33611020e-003 -6.96602138e-003 8.99022352e-003 2.04288401e-003
      2.02396996e-002 -9.76509321e-003 1.24750484e-003 -4.82079759e-002
      -1.29926875e-002 2.98873726e-002 -2.86405776e-002 5.51967230e-003
      -1.69079732e-002 4.37419256e-003 -2.82201637e-002 1.64765939e-002
      1.88465845e-002 1.40570141e-002 3.04331612e-002 -3.57009866e-003
      -3.52054313e-002 -1.86964460e-002 2.21991306e-003 3.19609269e-002
      2.62955744e-002 1.29313944e-002 -1.39441397e-002 1.89630967e-002
      1.04613481e-002 1.48599604e-002 1.24168899e-002 1.98081532e-003
      -4.38175444e-003 -2.76915040e-002 -1.83680207e-002 1.05424772e-003
      -1.65693276e-003 2.28712019e-002 4.56499169e-003 -9.84296016e-003
      2.03324296e-002 2.14691572e-002 3.53153720e-002 -3.17179076e-002
      -2.15780344e-002 -1.05838412e-002 -8.57240241e-003
      -1.37160979e-002 -3.60545665e-002 -5.24161123e-002
      -3.86310853e-002 1.34652620e-002 -2.81109195e-002 2.22409307e-003
      6.28968850e-002 9.03050601e-003 1.05849998e-002 2.55034287e-002
      1.21767018e-002 -1.00539504e-002 -6.22087941e-002 4.21407109e-004
      -1.28174070e-002 2.16982644e-002 -4.27642092e-003 -1.06493449e-002
      2.79858173e-003 -9.29354969e-003 1.54775940e-002 -1.26759810e-002
      1.80971660e-002 1.66517217e-002 -3.10624880e-003 -8.31356083e-005
      -2.51748692e-002 1.82139315e-002 -1.37838684e-002 -8.45345110e-003
      1.14143628e-003 -3.36755477e-002 2.99119838e-002 -7.38569349e-003
      -2.45122630e-002 1.29601760e-002 1.01347044e-002 8.39039125e-003
      8.65904614e-003 -1.39909387e-002 1.23173334e-002 -1.39758410e-002
      -8.90868250e-003 1.51615422e-002 -3.30105354e-003 1.84034575e-002
      1.95504818e-002 1.86614282e-002 -1.73624966e-003 2.55211145e-002
      1.41961323e-002 1.08969398e-002 -1.66960701e-003 -4.05606627e-003
      -2.49357037e-002 -2.47221836e-003 -2.71078832e-002
      -1.15494095e-002 6.79728296e-003 1.75481625e-002 -4.78335744e-004
      -1.71819590e-002 -3.21163912e-003 -1.67580340e-002
      -2.21890435e-002 -1.18541354e-002 -1.98592606e-005 1.93076786e-002
      1.03643863e-002 -2.08488870e-002 4.25145626e-002 1.40825857e-003
      -1.30806388e-002 7.70073058e-003 -3.92046571e-002 1.55274319e-002
      8.33372772e-003 -3.54554355e-002 -5.26476791e-003 2.35791486e-002
      3.44337255e-004 3.18655223e-002 1.03325164e-002 -1.67153254e-002
      3.76117453e-002 -3.26798595e-002 -2.26672576e-003 -3.12927691e-003
      -5.06499410e-003 9.70162451e-004 3.91450990e-003 -5.47529012e-003
      -4.27366532e-002 1.59682781e-002 2.88769510e-003 3.81772108e-002
      2.06758324e-002 7.10594794e-003 -1.21586947e-002 1.42889228e-002
      9.42135509e-003 5.15215322e-002 2.48549208e-002 -1.18996883e-002
      -1.82712835e-003 1.24740107e-002 -2.02107802e-002 -4.06965464e-002
      -1.32641187e-002 -1.02803037e-002 6.73210155e-003 -3.80296037e-002
      -1.68058705e-002 1.55616160e-002 -1.64410006e-002 -2.97995806e-002
      2.51929518e-002 1.14912419e-002 5.30795520e-003 -1.85614303e-002
      5.00593521e-003 1.20994989e-002 2.12015137e-002 8.05798080e-003
      1.45666730e-002 -2.49598958e-002 -6.13261620e-003 3.48789990e-002
      -2.66417954e-002 -1.39446510e-002 2.83032022e-002 1.10301198e-002
      3.61257009e-002 -3.13181151e-003 4.51038517e-002 -2.55835131e-002
      1.66208055e-002 -1.83557980e-002 4.27224487e-003 3.65458839e-002
      1.34535404e-002 2.12842487e-002 3.74283479e-003 -1.48873206e-003
      -1.25182392e-002 -3.85493250e-003 -3.91442748e-003 1.96392797e-002
      3.56568396e-002 -2.73431465e-003 -2.22182106e-002 3.13852774e-003
      -1.26340529e-002 -1.86737571e-002 -9.61839594e-003 3.42153087e-002
      1.33517897e-002 -6.70286193e-002 2.43012104e-002 1.38353715e-002
      -1.44816050e-003 1.74516514e-002 -4.43298481e-002 -4.29776348e-002
      7.35977245e-003 4.89126286e-003 3.79967201e-003 -2.84209233e-002
      -3.10011264e-002 2.49106642e-002 2.58276798e-002 1.08392164e-002
      2.04080902e-002 -2.57361960e-003 2.94865854e-002 9.91464779e-003
      -1.17823528e-002 2.57752705e-002 4.12746612e-003 2.11409703e-002
      3.04246001e-004 -1.10443952e-002 -4.62412741e-003 -3.24722636e-003
      -2.76547065e-003</_>
    <_>
      3.40565806e-003 -3.72066931e-003 1.88702084e-002 3.88400187e-003
      1.58028044e-002 -6.36601821e-003 2.36164988e-003 4.79579996e-003
      -4.34965156e-002 -4.02363623e-003 -3.40204351e-002 1.23364897e-002
      1.27825132e-002 2.25277878e-002 2.33528670e-003 2.26368476e-002
      8.21029395e-003 -9.59295128e-003 -1.27883237e-002 -1.52319539e-002
      -4.21957206e-003 8.21889902e-004 -1.52380415e-003 1.24913258e-002
      -8.36003199e-003 -9.46993940e-003 1.48878675e-002 1.75050572e-002
      -6.44056825e-003 -2.16023228e-003 6.96002180e-003 1.48563040e-002
      -1.89194211e-003 9.62305348e-003 -2.19435766e-002 1.09163690e-002
      -1.35579836e-002 -1.48732215e-002 8.27394333e-003 -1.59398913e-002
      2.59125773e-002 1.13628106e-002 -1.19360965e-002 -2.67171189e-002
      9.38667078e-003 -8.33793171e-003 1.20030390e-002 5.14334021e-003
      -7.90207461e-003 1.17645934e-002 3.08601558e-003 7.01393932e-004
      1.79605670e-002 -1.23900287e-002 -2.38762726e-003 -2.43381653e-002
      -8.85842275e-003 1.32838613e-003 2.13086773e-002 -8.21819529e-003
      -1.86024688e-003 7.81601854e-003 2.02686228e-002 9.65390864e-005
      7.15846429e-003 -1.52395787e-002 -3.89338238e-003 -1.38577241e-002
      -9.22240037e-003 -7.96069205e-003 -3.24079907e-003 8.82021431e-003
      -6.38940092e-003 8.82955641e-003 1.46967173e-002 -6.60632271e-003
      1.26965856e-002 -2.68969331e-002 3.24135423e-002 -9.44146886e-003
      -7.72008905e-003 7.09185842e-003 8.31985613e-004 8.10890086e-003
      -5.28926915e-003 -1.00941602e-002 -1.05449799e-002 3.40966997e-003
      -9.55642387e-003 1.80790741e-002 7.08195986e-003 -6.90516876e-003
      -9.17812157e-003 -5.55541273e-003 5.35375811e-003 -3.68062477e-003
      1.04730036e-002 1.64465308e-002 -8.82782228e-003 -2.03399342e-002
      -5.30777685e-003 -1.67851262e-002 -1.73027292e-002 3.78684420e-003
      5.48372278e-004 -2.86743511e-003 -7.79564798e-005 1.65237524e-002
      1.20999692e-002 -2.99400114e-003 5.49689576e-004 5.14973421e-003
      4.49638814e-003 1.23343365e-002 -2.92264726e-002 -1.21194869e-002
      -1.56218475e-002 -1.07497470e-002 1.16006527e-002 -4.26426753e-002
      -5.62622119e-003 1.24782883e-002 1.74008664e-002 -5.63715771e-003
      1.39660388e-002 -1.29164848e-002 -7.54904374e-003 -5.98993804e-003
      -1.47268372e-002 -1.84174702e-002 -9.80140734e-003
      -3.24788280e-002 -3.60300561e-004 -1.19033922e-002
      -1.00902226e-002 1.77485272e-002 -6.88171014e-004 1.41966287e-002
      -1.40327634e-002 -6.86712191e-003 3.93023994e-003 7.74633884e-003
      -5.40189119e-003 -1.20198764e-002 1.70474953e-003 -1.03635117e-002
      2.83399574e-003 5.76927466e-003 1.85990662e-004 -8.63068271e-003
      3.83759849e-004 1.11097740e-002 1.83784608e-002 -2.08487734e-004
      -1.24775665e-002 -2.08665449e-002 1.04488265e-002 -9.64083150e-003
      1.95737137e-003 -4.48626094e-003 -1.56038031e-002 3.81279085e-003
      2.07421207e-003 -1.02507379e-002 1.68040525e-002 -3.50798224e-003
      1.58185530e-002 1.92661043e-002 2.23790295e-002 -1.08168265e-002
      1.16406241e-003 -1.64543483e-002 1.21478476e-002 2.76556471e-003
      8.14338494e-003 3.79622797e-003 -1.23982225e-002 1.12733599e-002
      -1.35252988e-002 -7.23150326e-003 1.83933079e-002 -4.90385853e-003
      8.51954613e-003 -6.43994985e-003 -1.31178219e-002 3.86598054e-003
      -1.17164319e-002 -3.29130329e-003 2.51600798e-003 -9.43137985e-003
      2.29668953e-002 4.73015895e-003 1.47815992e-003 -3.96394683e-003
      -7.69868027e-004 2.71146651e-002 1.48665067e-003 -3.72728426e-003
      -3.56169301e-003 -2.42091971e-003 -5.88133885e-003 9.34541970e-003
      -2.33505834e-002 1.60195678e-002 -1.61227304e-002 -6.91503054e-003
      8.83794576e-003 -1.63493752e-002 -9.86108906e-004 -6.46330928e-003
      -2.62664456e-004 8.05525295e-003 8.47544707e-003 -1.07460134e-002
      -1.00436443e-002 6.94728969e-003 2.50755807e-006 -1.27471834e-002
      1.85134858e-002 -3.02129053e-003 -2.51743104e-003 1.38428481e-002
      -2.10372005e-002 2.34000385e-003 -2.65982747e-002 -2.36949511e-003
      -1.41349612e-002 2.27622837e-002 -6.05799956e-004 1.16617009e-002
      -1.68760438e-002 3.30044515e-002 -2.34877374e-002 1.02841444e-002
      1.06662314e-003 1.33110164e-002 1.30691729e-003 5.75972663e-004
      -1.76611869e-003 -2.55213236e-003 -2.86250049e-003
      -4.29205922e-003 2.47026864e-003 6.00052590e-004 3.45583935e-003
      1.52583672e-002 -1.25594577e-002 -1.15124998e-003 -2.01037265e-002
      2.32384220e-004 -1.41604152e-002 1.49994930e-002 -8.49931501e-003
      -1.17603242e-002 6.95451722e-003 8.56576301e-003 1.12498263e-002
      -7.10285176e-003 6.61915913e-003 -2.45016180e-002 -2.33938079e-003
      1.10619701e-003 1.53898317e-002 5.49667096e-003 -5.28678589e-004
      7.70385517e-003 4.05087601e-003 -2.36032326e-002 -1.72866322e-002
      -1.64873768e-002 1.28985392e-002 4.44106525e-003 -1.38249788e-002
      -1.11003136e-002 1.50338570e-002 -1.04294345e-003 -1.53349503e-003
      -1.25733130e-002 -1.09473905e-002 2.46225460e-003 2.68164719e-003
      -1.35713781e-003 2.43485980e-002 2.10411265e-003 1.73093714e-002
      1.69599932e-002 -1.77736636e-002 2.36463379e-002 -3.17777172e-002
      1.22354263e-002 1.69021043e-003 -1.33287860e-002 1.68549903e-002
      -3.07955360e-003 3.77678289e-003 -1.55442124e-002 -1.20904809e-002
      2.14570519e-002 -1.45055270e-002 -5.84843045e-004</_>
    <_>
      1.37767196e-002 -3.43473963e-002 -3.23074427e-003 2.05692686e-002
      2.40556407e-003 6.73495885e-003 -3.87828331e-003 5.14297513e-003
      1.87354125e-002 4.03175130e-002 8.70421156e-003 -3.64279151e-002
      -2.77524795e-002 1.41971197e-003 1.50727835e-002 -1.46376167e-003
      3.89264449e-002 -1.87218729e-002 4.36421018e-003 -1.53833982e-002
      -1.79527816e-003 1.30419824e-002 -1.53918387e-002 -7.31171900e-003
      -7.53786741e-003 -5.63827995e-003 1.16017731e-002 -4.99200262e-003
      1.41916303e-002 -1.56998504e-002 -1.75637882e-002 3.29833068e-002
      3.62430625e-002 -1.67614520e-002 -1.80807132e-002 4.71429341e-002
      1.87170953e-002 1.39261084e-002 -9.56757087e-003 -1.26876161e-002
      1.66017432e-002 2.74167489e-002 -1.49331084e-002 -5.10982759e-002
      2.45136935e-002 2.21905275e-003 -3.50063387e-003 -2.17712671e-002
      -1.30036613e-002 1.18994173e-002 -2.03152671e-002 1.91035459e-003
      -1.53366858e-002 7.63354532e-004 2.22360101e-002 1.41984771e-003
      1.66096650e-002 -8.82145017e-003 -7.94691779e-003 -1.14070633e-002
      2.03885976e-002 -1.98287074e-003 -7.37161795e-003 1.28882090e-002
      -3.87214310e-002 1.68050930e-003 6.13972405e-003 -1.38681484e-002
      -1.17881000e-002 6.14437414e-003 9.61538870e-004 -1.67808998e-002
      2.94203837e-005 3.18158492e-002 -2.78206840e-002 -1.76784433e-002
      1.13325883e-002 -4.02996084e-003 2.27407198e-002 2.51245834e-002
      1.73924398e-002 1.16697866e-002 -2.84469780e-003 -7.30145862e-003
      -2.48416029e-002 -1.89684182e-002 -3.20584774e-002 9.44936089e-003
      2.74518994e-003 -2.50741690e-002 4.31589317e-003 3.02611738e-002
      5.46811242e-003 -1.46373510e-002 1.18071157e-002 -3.14904004e-003
      1.67711042e-002 5.14539070e-002 -1.99811570e-002 -3.40788700e-002
      1.89550370e-002 3.34472731e-002 -1.81316398e-002 3.51804718e-002
      -3.70238200e-002 -1.77831261e-003 1.99505016e-002 -1.63710397e-002
      9.45470389e-003 3.70509503e-003 3.14664245e-002 1.46251926e-002
      -1.51439635e-002 1.71967186e-002 6.68553403e-003 -2.29675584e-002
      -1.42381666e-002 -2.92446627e-003 2.94842641e-003 -1.29773337e-002
      1.51827820e-002 -3.65738049e-002 1.30669372e-002 -1.22338012e-002
      2.29630861e-002 1.27423164e-002 5.74826403e-003 -3.58858705e-002
      -1.81083055e-003 -2.31207591e-002 -6.30431343e-003
      -1.74739324e-002 -8.96532927e-003 -2.22890265e-002
      -3.49922888e-002 3.01154088e-002 -2.91971979e-003 -5.40370308e-003
      6.50225859e-003 -2.46660654e-002 -1.61118787e-002 1.36761088e-002
      9.59138200e-003 -4.07547271e-003 -2.51389276e-002 -2.75117178e-002
      -9.13677830e-003 1.20035103e-002 3.33986729e-002 8.73688702e-003
      1.38540557e-002 2.85123307e-002 -4.15611686e-003 -4.22809366e-003
      2.59887818e-002 -2.52430458e-002 -1.74152176e-003 9.63619165e-003
      -9.90383048e-003 1.43478550e-002 3.25331930e-004 2.07929146e-002
      -2.89127463e-003 -7.52718141e-003 3.24023068e-002 4.40379744e-003
      7.21656531e-003 3.25377821e-003 1.20438896e-002 -2.89590303e-002
      -3.18468548e-002 -2.64248196e-002 1.16130542e-002 1.37417787e-003
      1.58187896e-002 3.58569110e-003 -8.48746579e-003 3.14375618e-003
      -1.78488810e-002 1.76902134e-002 -2.78033074e-002 -2.24435907e-002
      -2.17880942e-002 -2.91869417e-003 -5.89038339e-003
      -2.37362483e-003 2.94315591e-002 1.25780664e-002 -1.88370631e-003
      1.54683916e-002 2.38735527e-002 2.30860543e-002 -6.78532664e-003
      -3.37019823e-002 6.03789371e-003 1.76660288e-002 6.26538461e-003
      -1.76195335e-002 2.05690879e-002 8.79527349e-003 6.83413993e-004
      -1.09672649e-002 -2.82714516e-002 5.38321957e-003 1.12582268e-002
      -2.97144111e-002 -6.61498075e-003 -5.68196252e-002 3.62284370e-002
      9.06436145e-003 3.45496833e-002 4.36495915e-002 -1.83747634e-002
      5.47338836e-003 -7.86692929e-003 -1.02441339e-002 3.33827425e-004
      -5.28911734e-003 4.52794246e-002 9.97058488e-003 -1.01693915e-002
      1.38983233e-002 -2.16965154e-002 8.52427166e-003 -2.94389594e-002
      -1.33754192e-002 4.63265739e-003 1.84253845e-002 4.15718146e-002
      -3.76265729e-003 -5.63642308e-002 -1.32203866e-002 2.55662464e-002
      -1.16369678e-002 -3.24847922e-002 1.53112095e-002 6.73539657e-003
      6.33098418e-003 -1.05127981e-002 3.83413769e-003 1.17307957e-002
      1.51881948e-002 -1.39677431e-003 -3.01222298e-002 -8.61174893e-003
      3.18218768e-002 -3.27951238e-002 1.72052998e-002 -5.23077622e-002
      5.53920120e-002 -7.25834817e-003 1.72065087e-002 -1.68942045e-002
      -1.55621427e-004 7.19771395e-003 1.28264083e-002 1.43280718e-002
      3.98743711e-003 1.80596381e-003 -1.10960249e-002 -2.16486864e-002
      1.32174580e-003 1.91428009e-002 3.40627395e-002 1.22996485e-002
      -9.32414830e-003 -7.01500773e-002 -1.98543780e-002 9.30532580e-004
      -3.17769125e-002 1.18030813e-002 1.03115933e-002 -2.98783276e-002
      -2.14502998e-002 2.52099074e-002 -2.12185234e-002 -3.00243776e-002
      -4.01983336e-002 -3.44343483e-002 3.39044794e-003 -2.39545889e-002
      1.05353836e-002 3.31852250e-002 2.15023793e-002 8.21358617e-003
      1.06032109e-002 -1.20645370e-002 4.17625159e-002 -1.89669710e-002
      -3.64987948e-003 2.66233403e-002 -2.49184333e-002 4.31411155e-003
      -3.10584363e-002 2.01051142e-002 -3.09066791e-002 -1.83015782e-002
      1.65092628e-002 7.79890921e-003 -1.66578963e-002</_>
    <_>
      1.47626433e-003 -9.94202867e-003 2.19973419e-002 3.56662949e-003
      1.68738363e-003 7.02289725e-003 3.03595769e-003 -7.57528655e-003
      -9.28146299e-003 -6.58669556e-003 -2.10831463e-002
      -4.57934977e-004 -8.09638016e-003 1.96338259e-003 -1.63863245e-002
      -2.70298752e-003 -1.31471129e-003 2.12991070e-002 -5.55270677e-003
      1.68805737e-002 -1.48373600e-002 -1.38095012e-002 8.46959278e-003
      -3.65086016e-003 -1.60361116e-003 -1.04915153e-003 1.05842156e-002
      -7.77055928e-003 1.62300165e-003 -1.66736748e-002 -1.35369878e-002
      1.34792384e-002 4.76027187e-003 -4.07758802e-002 -7.18361884e-003
      -2.72520445e-003 -2.99350619e-002 1.32708186e-002 8.81166197e-003
      -1.47058917e-002 5.95191494e-003 2.09972356e-002 -7.84356054e-003
      -4.11152560e-003 1.72918960e-002 1.82124749e-002 6.31340407e-003
      -8.36185925e-003 -1.84027404e-002 5.65721013e-004 -2.91971061e-002
      3.36927967e-003 5.52069023e-003 -1.41194407e-002 -7.27156503e-003
      -5.01061184e-003 -2.22013053e-003 5.16860979e-003 1.69169623e-002
      -4.60468139e-003 9.68797319e-003 7.03927735e-003 6.75229356e-003
      -7.13888882e-003 3.22064571e-003 -2.08313912e-002 7.59168155e-003
      -1.62209012e-002 -1.31593542e-002 6.49489369e-003 2.29422655e-003
      3.06288875e-003 -1.49010718e-002 -1.94314902e-003 2.56181974e-003
      6.91966619e-003 -9.16659366e-003 3.24866152e-003 1.46622164e-002
      -3.73659134e-002 -6.06936868e-003 -1.28537351e-002
      -1.12761147e-002 8.76200094e-004 2.97623454e-003 -1.47398310e-002
      -8.96924548e-003 -3.90345143e-004 1.94135383e-002 2.18456425e-002
      1.23321339e-002 1.47360554e-002 9.63045692e-004 3.40089248e-003
      -7.03974487e-003 6.92826509e-003 6.41840231e-003 1.58903040e-002
      8.12554732e-003 -2.07325723e-002 1.10374778e-004 1.67226586e-002
      -1.23788537e-002 3.30900750e-003 8.55700020e-003 9.06463712e-003
      9.79240052e-003 9.21787228e-004 7.36584840e-003 -2.30720863e-002
      9.14929435e-003 -6.43748883e-003 -4.00318298e-003 3.78568261e-003
      -9.09314957e-003 2.05547665e-003 -2.03898847e-002 -1.80021003e-002
      1.59693956e-002 -4.22045123e-003 -4.04391764e-003 5.00746863e-003
      1.26082953e-002 -1.89062767e-003 2.54449230e-002 -1.22480342e-004
      -6.44285977e-003 -5.98002365e-003 1.71847327e-003 -1.86264224e-003
      8.24004039e-003 4.09163767e-003 -1.88627671e-002 -1.27711035e-002
      -1.85735170e-002 2.53373198e-003 -7.75115332e-003 7.45181227e-003
      8.04259535e-003 -1.32086212e-002 1.26315607e-002 7.80580158e-004
      2.75188196e-003 -6.00151997e-003 4.30614367e-004 -4.16296488e-003
      -1.73912907e-003 -3.66646843e-003 -4.01732512e-003 9.58037970e-004
      1.29901534e-002 1.57917533e-002 -1.81602227e-004 4.96723782e-003
      9.49159358e-003 7.28794280e-003 -2.04754081e-002 -1.54478885e-002
      1.00865305e-004 3.00008198e-003 -2.45467182e-002 4.78174910e-003
      -1.35105355e-002 -1.36617804e-002 3.08650043e-002 2.73385597e-003
      1.33528495e-002 5.08580869e-003 1.42014539e-002 -5.43010235e-003
      9.27478133e-004 -6.75774831e-003 -1.38658062e-002 -9.03535038e-005
      6.35114778e-003 -2.37618503e-003 -1.23330625e-003 1.22131454e-002
      3.05633293e-003 -6.20468985e-003 -1.34934504e-002 -1.31337382e-002
      9.63891274e-004 6.54554460e-004 -7.67364772e-003 1.28148990e-002
      1.95342451e-002 -7.29769142e-003 -3.26898284e-002 -3.45697463e-003
      1.82643924e-002 6.77884044e-003 6.63152803e-003 -1.01856829e-003
      1.90565493e-002 -5.03861299e-003 6.98527042e-003 -5.29898982e-003
      7.46218953e-003 1.70952512e-003 -1.89377367e-002 -9.34143923e-003
      2.18684855e-003 1.05367228e-002 5.92838740e-003 -1.12289926e-002
      8.87150783e-003 -1.86462570e-002 8.74425750e-003 -1.75593537e-003
      3.91592365e-003 1.47816250e-002 2.88575441e-002 -6.28916407e-003
      -2.15237541e-003 1.98817346e-003 -9.41169541e-003 -1.62681043e-002
      -1.61617436e-002 8.09267815e-003 -3.12308827e-003 1.59960967e-002
      -1.71331298e-002 -5.91279520e-003 -5.77224093e-003 6.89916126e-003
      7.29876291e-003 1.65324789e-002 3.13350558e-003 2.03719037e-003
      -3.31588946e-002 1.50454510e-002 -1.25484839e-002 1.68273819e-003
      -1.44519948e-003 5.08121541e-003 5.33065293e-003 1.82021931e-002
      -2.04507611e-003 1.13358423e-002 7.08724000e-003 2.29478977e-003
      -6.89973217e-003 -2.66434047e-002 -2.83948821e-003 1.59144346e-002
      -1.86374728e-002 1.14461137e-002 -1.16573209e-002 1.50696216e-002
      -8.01726058e-003 1.39965415e-002 -4.66458350e-002 -3.76059301e-003
      3.58889840e-004 2.56369710e-002 6.66529965e-003 5.10945963e-003
      1.18005546e-002 -2.10469607e-002 -5.28688356e-003 4.52639855e-004
      -1.15272298e-003 1.00978054e-002 5.08097699e-003 -9.62073728e-003
      -2.24137940e-002 -1.64683675e-003 -1.43714035e-002 7.28608249e-003
      1.15443729e-002 1.98630407e-003 -1.20587815e-002 1.63655207e-002
      -1.00081768e-002 3.41713941e-003 -7.66681740e-003 -2.63209492e-002
      2.03477335e-003 2.96690851e-003 6.21047150e-003 2.77039898e-003
      2.53548054e-003 1.04722951e-003 8.99475440e-003 3.69624817e-003
      3.56043037e-003 -9.87430848e-003 -1.23575525e-002 -8.71762168e-003
      -6.42235333e-004 -2.49121860e-002 1.66942738e-002 2.46885791e-003
      1.15449596e-002 -8.48295540e-003 -1.27433147e-002 -6.31857663e-004
      -2.80594546e-002 -1.68198515e-002</_>
    <_>
      1.59394881e-003 -9.62423347e-003 5.65988570e-003 1.57584343e-002
      -2.14663055e-003 6.37656171e-003 4.29606671e-003 1.39381998e-004
      -2.78164875e-002 -2.30945442e-002 -1.42975021e-002
      -1.18906600e-002 -1.53167844e-002 8.17684829e-003 -1.03626382e-002
      -1.54978957e-003 1.92972291e-002 -3.75069082e-002 -3.53230338e-004
      1.24988239e-003 -2.17192378e-002 -1.47551764e-002 -6.24137837e-003
      5.47028007e-003 -7.52013235e-004 -2.53968895e-003 7.50971586e-003
      -1.13754650e-003 -1.97754416e-004 -2.80668270e-002 1.25964452e-002
      3.56496386e-002 2.40701810e-002 -2.62689218e-003 -2.92485543e-002
      2.35026274e-002 -1.55910486e-002 2.59190844e-003 9.58732236e-003
      -2.01916341e-002 5.22004515e-002 1.70630496e-002 -4.42260597e-003
      -2.51665921e-003 2.02582497e-002 1.22679779e-002 -8.36177205e-004
      -9.67241731e-003 1.18527245e-002 1.98855740e-003 8.08244571e-003
      1.39536324e-003 6.90166326e-003 -2.37249304e-002 -1.85250957e-002
      9.67455469e-003 2.92355511e-002 1.11186588e-002 1.77888479e-002
      1.79890450e-002 2.63903220e-003 3.76729784e-003 2.04067230e-002
      1.76497921e-002 -1.61778890e-002 -3.24106868e-003 -2.57794699e-003
      4.31242725e-003 -1.95406657e-003 -8.04536417e-003 -6.97382959e-004
      2.08805073e-002 7.27050006e-003 3.80970351e-002 -5.48893474e-002
      -2.75503714e-002 1.96848065e-002 -4.13859962e-003 1.17352912e-002
      -1.96381491e-002 9.73082054e-003 -4.57616244e-003 1.04180323e-002
      3.15981731e-002 1.71838906e-002 -2.26846840e-002 -7.23741436e-003
      4.24388982e-003 1.49738325e-005 -1.74686685e-002 3.25036533e-002
      2.26769429e-002 1.35648688e-002 1.83328125e-003 7.42408400e-003
      1.25711933e-002 -3.83145903e-004 -1.75459310e-003 -3.17097493e-002
      -9.25216544e-003 2.14315206e-002 -2.04868000e-002 1.42517872e-003
      -1.77165624e-002 -8.66722222e-003 8.09581485e-003 -6.78922189e-003
      8.93566757e-003 1.75558385e-002 -5.75855840e-003 -3.21847992e-003
      -9.09304887e-004 2.36388166e-002 2.76545044e-002 -3.87399010e-002
      -1.56340245e-002 -1.91781633e-002 -3.12956818e-003
      -1.91402026e-002 -5.75012644e-004 7.69141549e-003 1.65413953e-002
      4.93819872e-003 -6.42478187e-003 3.55391540e-002 3.37695959e-003
      -1.23429894e-002 -1.60764828e-002 1.63430385e-002 5.23977587e-003
      -2.71058292e-003 -1.31771155e-003 1.30888224e-002 -9.74604860e-003
      -4.05407418e-003 -6.82250131e-004 6.13895059e-003 1.49430474e-002
      1.55636074e-003 -6.07565977e-003 9.38866287e-003 -6.58787275e-003
      1.52868335e-003 -2.94789709e-002 1.67626645e-002 -1.42828673e-002
      -1.16222259e-002 2.15285122e-002 2.39095520e-002 -2.38468442e-002
      -2.99421442e-003 -1.10456087e-002 -3.90322320e-003
      -4.48561180e-003 6.80710748e-003 -2.07084548e-002 -1.67609248e-002
      7.46015226e-003 1.25852413e-002 2.10473570e-003 -1.61612462e-002
      1.63407736e-002 1.17840637e-002 3.26879043e-003 1.74594652e-002
      -1.32145062e-002 8.53866991e-003 7.55425403e-003 -3.19668296e-004
      -5.36923809e-003 3.44286649e-003 -2.71058921e-002 1.43509554e-002
      8.86470638e-003 -4.49325133e-004 -1.19073107e-003 -7.41242664e-003
      3.39683285e-003 -2.01363470e-002 -3.87371256e-004 -1.22354447e-003
      -1.23050595e-002 -9.42302030e-003 8.95398203e-003 -4.72081499e-003
      2.86397757e-003 1.74941383e-002 -1.75518170e-002 -8.53543635e-003
      4.28167544e-003 1.77725796e-002 1.18742762e-002 -1.09650949e-002
      3.51610361e-003 1.50238699e-003 -9.83151328e-003 2.17823889e-002
      -5.14057465e-003 8.64673406e-003 2.98454845e-003 -1.43391630e-002
      1.68912485e-002 1.42986327e-002 -5.24695730e-003 -2.63754483e-002
      -1.84684098e-002 3.15055624e-003 -1.87338702e-002 4.11843741e-003
      6.17348636e-003 2.51910593e-002 3.79920052e-003 -4.80499910e-003
      -9.75413341e-003 -5.16331382e-003 -1.76012944e-002 1.13971028e-002
      -2.60051917e-002 1.24613401e-002 9.17845033e-003 2.39146524e-003
      2.59822281e-003 -1.28146317e-002 -9.26552899e-003 -2.91035101e-002
      1.73562728e-002 -3.58293502e-004 -2.00374681e-003 1.20500196e-002
      1.48447203e-002 -4.73952629e-002 7.89191201e-003 1.76707078e-002
      9.60997399e-003 -6.36140723e-003 5.12252748e-003 -4.08509001e-003
      -7.48886447e-003 -8.91772937e-003 1.72790773e-002 3.30860843e-003
      6.86320709e-003 1.54618011e-003 -2.62461975e-002 -2.61318274e-002
      2.05385219e-003 -1.31310569e-002 2.06847657e-002 -2.35323068e-002
      1.50437364e-002 -4.82201949e-002 -1.99142136e-002 -6.92416495e-003
      1.09433255e-003 1.34167699e-002 -9.59386583e-003 9.55962390e-003
      9.14655160e-003 -1.21638002e-002 1.42625824e-003 3.88233503e-003
      -9.95770935e-003 2.16954164e-002 2.60539390e-002 -8.94809049e-003
      -4.65055415e-003 -1.22363698e-002 -3.33484029e-003
      -2.99028717e-002 -5.53651527e-003 -4.46695741e-003 8.61848705e-003
      -3.14201526e-002 -1.91319827e-002 1.09119937e-002 -3.38106602e-003
      -1.63338408e-002 -3.05495299e-002 -1.57431159e-002
      -4.22417885e-003 1.95552246e-003 1.07902074e-002 1.32296504e-002
      -1.31139876e-002 1.75472237e-002 1.70036051e-002 -1.61789730e-003
      3.03227548e-002 -8.72326735e-003 -3.30478102e-002 1.13497283e-002
      -1.86545663e-002 3.32089700e-002 -2.34708060e-002 -6.47850940e-003
      1.13046868e-002 -2.23408025e-002 1.04470155e-003 2.71930695e-002
      4.69647581e-003</_>
    <_>
      -4.53148363e-003 2.88481601e-002 9.84714180e-003 -3.95729253e-003
      1.64026488e-002 -5.83657715e-003 -2.85292190e-004 1.65970903e-002
      -3.63387391e-002 -1.51114436e-002 -3.82426120e-002 1.14646787e-002
      1.67658515e-002 1.91751420e-002 1.76587962e-002 -4.49135387e-003
      2.07557008e-002 -4.97321365e-003 -1.49810286e-002 -1.55802025e-002
      1.48581705e-004 -1.57410558e-002 -4.90323128e-003 -1.06075080e-002
      -3.39207775e-003 1.01161329e-002 8.32700264e-003 5.13001997e-003
      -1.05843470e-002 -5.53875270e-006 1.25798304e-002 5.55125298e-003
      3.63975135e-003 1.67716667e-002 -1.69533417e-002 1.04104904e-002
      -1.57546357e-003 5.32137696e-003 -1.58088040e-002 -1.73423868e-002
      1.99703891e-002 1.67839769e-002 1.74714136e-003 -2.24632733e-002
      1.05077671e-002 -6.17378205e-003 -2.80636828e-002 -2.84221768e-003
      -2.64776014e-002 2.30665857e-004 -2.03717630e-002 1.37670012e-002
      8.09363462e-003 -1.99715178e-002 -3.42619643e-002 -9.34611820e-003
      -1.79630090e-002 -5.37161529e-003 -2.75312643e-002
      -8.34112521e-003 -1.26578175e-002 3.90938891e-004 3.37609537e-002
      1.52940617e-003 -1.02853579e-002 -7.55337998e-003 -1.94647312e-002
      -1.05380742e-002 -1.82537816e-003 -1.13433762e-003
      -1.64352136e-003 3.91205912e-003 8.31272732e-003 -2.10856963e-002
      1.45081664e-002 3.82801308e-003 -1.45282876e-002 -2.49251369e-002
      3.06594633e-002 -2.95055145e-003 -4.64940583e-003 -1.88148785e-002
      -1.02554169e-002 4.19616699e-003 -6.06685085e-003 -2.44967965e-003
      -3.24772932e-002 -3.15511748e-002 2.00414881e-002 -1.22640114e-002
      2.44583581e-002 -6.45556813e-003 2.01403964e-004 -2.01993752e-002
      -1.96249411e-002 -2.65211537e-002 1.54643820e-003 2.34828424e-002
      9.36068688e-003 -5.71512384e-003 1.01576271e-002 -8.18914559e-004
      2.12354073e-003 3.08528617e-002 -8.21424555e-003 4.23904043e-003
      -2.59242803e-002 6.25180546e-003 1.50958439e-002 8.77261278e-004
      1.20950937e-002 1.16949491e-002 -6.98468508e-003 1.18132366e-003
      1.41731277e-002 -7.80153088e-003 -8.75870418e-003 -4.58730664e-003
      7.86637329e-003 -1.33591481e-002 -3.14060599e-003 -1.11606866e-002
      1.69100240e-002 9.40145645e-003 1.75162293e-002 -1.86807103e-002
      -1.05042113e-002 -1.01189511e-002 1.27763636e-002 -6.43764948e-003
      -4.78758104e-003 1.06927808e-002 1.55746210e-002 -9.43402667e-003
      -6.35881955e-003 2.00678036e-002 -1.76826082e-002 2.02056877e-002
      -2.64858408e-003 -1.31363757e-002 2.50235796e-002 9.57026426e-003
      -3.23683061e-002 -3.47744848e-004 -8.19790736e-003
      -4.42178035e-003 -5.27982553e-003 -1.21346097e-002 8.24100513e-004
      -2.04893425e-002 -3.55744315e-003 2.15229159e-003 1.60710420e-003
      -5.11544896e-003 2.59685051e-003 -3.26314159e-002 -6.43690815e-003
      -1.13630742e-002 -1.68899838e-002 -1.48872063e-002
      -3.42691783e-003 -7.35669211e-003 -6.53602323e-003 6.87750615e-003
      -3.52190970e-003 -1.82486959e-002 8.69919173e-003 2.20992789e-002
      2.68091653e-002 -2.24577952e-002 -1.01209255e-002 -2.71847080e-002
      1.25815924e-002 6.28775172e-003 1.63472891e-002 -1.26094976e-002
      1.29516525e-002 7.33765448e-003 3.40644829e-003 1.17457118e-002
      -4.42338549e-003 -3.11834719e-002 -1.11072343e-002 8.40198435e-003
      -5.78652881e-003 -3.55466059e-003 1.60298832e-002 -5.15614543e-003
      -2.05669575e-003 -1.18588815e-002 -6.00676425e-003
      -1.06520187e-002 -1.85680687e-002 9.91603173e-003 4.80872858e-003
      9.95265227e-003 -4.51311527e-004 6.36540819e-003 1.89834330e-002
      -1.90321617e-002 -1.21831493e-002 3.08565632e-003 -1.10829435e-002
      -1.89418904e-002 1.15838032e-002 -2.69551179e-003 -8.35579261e-003
      -4.92534833e-003 -1.09471511e-002 -1.71590503e-003
      -1.89370066e-002 1.52995791e-002 3.02044470e-002 2.00635754e-002
      2.96673849e-002 -2.68935841e-002 1.03634773e-002 -3.17299254e-002
      4.24145442e-003 -1.30131356e-002 -2.62924619e-002 2.17199931e-003
      -3.51308063e-002 1.66714992e-002 8.87872372e-003 2.14146450e-002
      -2.10919958e-002 -8.39695893e-003 -1.16920630e-002 2.22526062e-002
      1.23280287e-002 1.46661876e-002 8.30256473e-003 -9.11594462e-003
      -1.39530776e-002 -1.39732137e-002 -2.47906405e-003
      -9.41638276e-003 8.31613690e-003 1.33522917e-002 9.95104946e-003
      -2.41033956e-002 1.30175622e-002 -6.16210513e-003 -9.79941990e-003
      2.70320456e-002 -2.09797733e-002 2.08333414e-002 -2.61518881e-002
      5.56376018e-003 -1.23428013e-002 3.24681215e-002 -2.36072782e-002
      1.02691911e-002 2.36914344e-002 6.27628481e-003 2.33785659e-002
      1.05818622e-002 5.26942778e-003 8.02587252e-003 3.82703054e-003
      -1.55723542e-002 8.95220146e-004 4.47614044e-002 -3.47058699e-002
      -6.97881391e-004 -2.35277638e-002 -9.45206266e-003
      -1.02597764e-002 -1.04578063e-002 1.94587372e-002 -1.84272847e-003
      -7.13834958e-003 1.98221151e-002 9.76216607e-003 4.83649364e-003
      -2.67997906e-002 -5.67883812e-002 1.51250453e-003 -2.02697217e-002
      4.77735698e-003 1.25637874e-002 1.09281195e-002 -1.44764865e-002
      3.14097404e-002 1.99423619e-002 -1.40070161e-002 2.36560451e-003
      1.89231988e-003 1.01115648e-002 -7.11800670e-003 -2.50134291e-003
      3.12500186e-002 -9.13352519e-003 -1.09802128e-003 7.49980938e-003
      -4.30653151e-003 4.98486843e-005 -1.22263972e-002 -9.46672540e-003</_>
    <_>
      3.27409303e-004 -5.81076369e-003 2.46817004e-002 1.37083083e-002
      1.88841913e-002 8.68226215e-003 3.72608495e-003 3.52249071e-002
      1.83886308e-002 1.96109656e-002 1.33233890e-002 -5.81501378e-003
      -9.75707732e-003 4.96754842e-003 -1.74183282e-004 -3.89561919e-003
      1.40982689e-002 3.77542083e-003 -9.72947199e-003 6.31183153e-003
      -3.72828078e-003 -2.42050085e-003 -1.57922809e-003
      -4.62272903e-003 -2.67754216e-003 6.65666629e-003 2.24504191e-002
      -6.96161110e-003 -1.26079228e-002 1.22022312e-002 3.89062078e-003
      5.57820639e-003 -3.85757815e-003 1.09549845e-002 3.63489008e-003
      3.66862328e-003 -8.41092691e-003 -5.80276188e-004 7.49874208e-003
      1.58254337e-002 -1.05708919e-003 -8.90990160e-003 1.13160827e-003
      -1.26147736e-002 -1.34369992e-002 4.48627863e-003 -7.43645104e-003
      -7.08071049e-003 3.42022534e-003 3.86502920e-003 -3.40797636e-003
      -2.95431726e-003 8.97052139e-003 1.31114097e-002 4.58057271e-003
      2.13556048e-002 1.62965320e-002 -8.39282945e-003 2.04316317e-003
      3.66226211e-003 -1.98168750e-003 -1.51220197e-002 1.76398549e-002
      6.49688998e-003 -1.87111348e-002 -6.60523307e-003 -1.23916166e-002
      -8.70968774e-003 -5.69990044e-003 8.48434679e-003 -2.21558847e-003
      1.89811119e-003 -2.95934249e-002 -1.18521657e-002 -2.33424082e-003
      -9.69065950e-005 7.24502141e-003 -8.20763130e-003 9.46678483e-005
      4.90538124e-003 5.97796636e-003 -1.30035290e-002 1.48632843e-003
      2.49717291e-002 -2.46811821e-003 -1.12140574e-003 -9.01080202e-003
      4.96689184e-003 8.23493116e-003 1.25267718e-004 1.10320710e-002
      3.39373969e-003 -7.24141765e-003 -5.53872855e-003 -5.98217733e-003
      -3.69239831e-003 3.28432769e-003 9.26982984e-003 2.38971505e-002
      6.73570111e-003 -1.25991227e-002 -5.04341675e-003 2.03388743e-003
      2.86623687e-002 6.36584079e-003 1.84974223e-002 1.94269903e-002
      1.21453702e-002 3.18438630e-003 1.27452333e-002 1.13442279e-002
      -3.60994204e-003 3.77555320e-004 -1.79522410e-002 -1.02479970e-002
      -1.53800407e-002 -7.95398373e-004 -2.91602383e-003 1.26838195e-003
      4.81339521e-004 -1.00276398e-003 7.99433154e-004 4.32692468e-005
      -3.67299165e-003 3.03901243e-003 1.57646649e-002 1.51386876e-002
      -1.79521311e-002 1.17963022e-002 1.11085214e-002 -1.24070207e-002
      -6.09975029e-003 2.03746604e-003 2.17160350e-003 5.55333542e-003
      -9.62182973e-003 -1.09091867e-002 7.23623158e-003 -5.25658857e-003
      -1.36839494e-003 -1.23062860e-002 5.34173008e-003 1.30909737e-002
      -3.03257402e-004 -1.55532011e-003 -1.37654599e-003 5.06085344e-003
      -1.34989545e-002 -9.60601401e-003 6.95284270e-003 -1.01507250e-002
      5.24145039e-003 9.91948508e-003 -1.14146119e-003 1.04668383e-002
      1.59355495e-002 -5.86746959e-003 -2.35444936e-003 -1.21080119e-003
      2.06952058e-002 2.53373291e-003 1.62213258e-002 -1.64765157e-002
      1.05110798e-002 5.87480317e-004 7.69354077e-003 1.06551573e-002
      -1.44016603e-003 1.73997767e-002 -1.34887248e-002 4.58677066e-003
      7.85763655e-003 2.37885043e-002 5.59323700e-003 2.82827276e-003
      -2.31686197e-002 -3.15121412e-002 2.30970383e-002 4.93168272e-003
      -1.33861916e-003 1.34674748e-002 1.31212771e-002 1.58697553e-002
      -1.00796320e-003 5.39015001e-003 4.97096777e-003 2.17949855e-003
      2.78161764e-002 2.98853824e-003 7.67103862e-003 -2.16635671e-002
      1.60972401e-002 9.66249325e-004 1.95046316e-003 3.30434181e-002
      -9.89039522e-003 -2.28103250e-003 1.71719883e-002 -1.78814528e-003
      -1.24762822e-002 -6.68509770e-003 -1.59058366e-002 1.41626876e-002
      -6.46309229e-003 -6.74378686e-003 8.09922069e-003 1.68707955e-003
      1.02385064e-003 -3.79350898e-003 -1.51468965e-003 1.12394979e-002
      5.53015526e-003 -2.12913525e-004 1.23721715e-002 1.13050696e-002
      -1.63134513e-003 2.62192520e-003 2.30820328e-002 -1.44298170e-002
      -9.55824275e-003 1.83576904e-002 -8.66067689e-003 2.38985736e-002
      -6.75155409e-003 -6.71885582e-003 1.43957576e-002 -1.42276175e-002
      9.79249831e-003 -8.77078529e-003 9.28218570e-003 -8.55619367e-003
      1.16352597e-002 -7.45927123e-003 1.75131913e-002 -3.81662953e-003
      6.94063492e-003 1.11190125e-003 -1.45700984e-002 -6.42193435e-003
      3.65233491e-003 7.22540717e-004 1.00741088e-002 -2.07128958e-003
      -6.77077333e-003 8.45706090e-003 6.20521000e-003 2.89545837e-003
      8.68163351e-003 1.94024704e-002 -4.15719487e-003 -1.28222667e-002
      4.52295353e-004 -1.23064937e-002 -1.23256603e-002 1.35205844e-002
      -1.88785531e-002 2.25602053e-002 -1.04065016e-002 -3.42502492e-003
      -2.13100761e-002 -1.75846200e-002 2.10706480e-002 -1.81173510e-003
      7.94900022e-003 1.76139362e-002 -2.79480740e-002 -1.88854744e-003
      4.75541363e-003 1.55182770e-002 7.16764387e-003 -5.51791023e-003
      6.30477490e-003 3.34350229e-003 -1.88440904e-002 1.99860102e-003
      -7.84839317e-003 2.06339005e-002 2.93963793e-004 2.47749989e-003
      3.03382948e-002 -1.34547465e-002 1.19286915e-002 3.91630502e-003
      -1.94670223e-002 1.13274828e-002 1.69578772e-002 1.22029940e-002
      9.91633721e-003 3.02297110e-003 1.27534624e-002 -3.89445084e-003
      -3.14210518e-003 -1.05688609e-002 2.48627330e-005 2.35514529e-002
      -2.75040232e-003 2.27776133e-002 -5.42945461e-003 -1.13578551e-002
      7.23841367e-003</_>
    <_>
      1.03627527e-002 -1.42404949e-002 1.70584917e-002 8.89392290e-003
      2.81649665e-003 -8.49308912e-003 4.26612608e-003 1.85882747e-002
      4.95045492e-003 4.76088098e-005 -1.15019307e-002 7.57432077e-003
      -9.77015868e-003 -6.92260731e-003 1.26967169e-002 1.23477709e-002
      1.44512225e-002 -2.99089309e-003 -1.33195072e-002 -3.12947464e-004
      -1.77860241e-002 -5.33826707e-004 -2.65083043e-003 1.60620473e-002
      -3.52380634e-003 -2.09520571e-003 4.85441694e-003 1.79792587e-002
      -1.48698781e-002 1.79524403e-002 -1.46307168e-003 7.61883752e-003
      -1.56188849e-002 7.53212953e-003 5.90831216e-004 -1.52755547e-002
      -2.32183617e-002 -7.10892538e-003 2.03449540e-002 1.83894823e-003
      -4.19184193e-003 2.93986406e-003 1.06759230e-002 -7.32643111e-003
      7.95172621e-003 -1.20480051e-002 2.35082023e-003 -5.83247493e-005
      -1.98531616e-002 9.09901131e-003 2.32712319e-003 -3.01868748e-003
      1.33533916e-002 2.89018787e-002 2.49961996e-003 4.18941770e-003
      4.93847299e-004 -1.57618814e-003 8.69595911e-003 -9.39907134e-003
      7.56732794e-003 -1.96631569e-002 1.57579388e-002 -3.84792709e-003
      1.57775020e-003 -9.75785125e-003 -1.82507338e-003 -1.69489495e-002
      6.81444677e-003 -1.17529696e-002 5.71885903e-004 1.16462177e-002
      -8.60266853e-003 -1.09273270e-002 1.85277611e-002 5.53486310e-003
      -4.80425917e-003 -8.34864471e-003 8.80018156e-003 7.09054852e-003
      -4.15474223e-003 4.07707458e-003 -1.95241105e-002 1.14676356e-002
      -1.62176613e-003 -9.00209509e-003 -3.70729342e-002 1.51572106e-002
      1.01257898e-002 -4.08488512e-003 1.49020590e-002 -2.49236752e-003
      -1.91256199e-002 3.45174130e-003 -5.54280030e-003 1.61334537e-002
      -6.31025247e-003 1.00920247e-002 1.38239507e-002 -6.59843488e-003
      3.17071192e-003 3.96911055e-003 -2.73205675e-002 -7.68705737e-004
      2.70968466e-003 1.02063399e-002 8.32848065e-003 -6.05371688e-003
      1.19699026e-003 -1.21818553e-003 2.08452344e-002 5.54861780e-003
      1.68284518e-003 -7.62712210e-003 -1.56487804e-002 1.11521613e-002
      6.78163953e-003 1.27976260e-003 -4.99854283e-003 -1.85412969e-002
      -8.00052844e-003 9.48123820e-003 1.52019775e-002 -1.00393603e-002
      -1.54266250e-003 -3.80046805e-003 3.27119511e-003 4.91452077e-003
      -4.03417982e-002 -6.69134920e-003 -2.61728298e-002
      -3.43396259e-003 -2.84542958e-003 1.40087493e-002 2.73255701e-003
      -3.12509132e-003 8.53704289e-003 2.53821556e-002 -1.48421517e-002
      5.45210391e-003 -2.60089748e-002 4.69819643e-003 6.76916400e-003
      -1.04770595e-002 1.69916470e-002 7.87227787e-003 1.35437213e-002
      -9.95040499e-003 -1.29789552e-002 1.38679403e-003 -8.54970235e-003
      8.61114170e-003 2.59459596e-002 1.74279232e-002 -1.19070290e-002
      6.80170208e-003 1.58659671e-003 -7.02356221e-004 1.03903487e-002
      3.54308891e-003 1.23889167e-002 -1.66003476e-003 -5.07675996e-003
      5.75945247e-003 -1.49381859e-002 -7.99634308e-003 1.36214765e-002
      1.95382144e-002 4.75892751e-003 1.11957779e-002 5.33951446e-003
      -2.81076878e-002 7.32384343e-003 3.25835822e-003 -1.78355202e-002
      -2.45267451e-002 -1.09218573e-002 3.11215520e-002 -1.67251788e-002
      8.78768601e-003 1.70139838e-002 1.64980218e-002 1.26961665e-002
      1.78666543e-002 -6.82798214e-003 -9.85049643e-003 9.52753052e-003
      1.13655226e-002 -8.46994203e-003 2.02102438e-002 1.48944566e-002
      -1.16676306e-002 4.71701985e-003 1.56689435e-002 1.20373648e-002
      -2.29393918e-004 -5.79012884e-003 1.30933395e-003 8.69500276e-004
      -6.77019171e-003 1.24029359e-002 -1.55276037e-003 -7.06173386e-003
      2.14072987e-002 5.11822011e-003 1.89152472e-002 1.63015593e-002
      -1.24538206e-002 9.31419525e-003 -2.53050681e-003 -4.96464502e-003
      8.28518905e-003 -5.94687136e-003 6.02752157e-003 -1.61304343e-002
      4.83662728e-003 4.18409036e-004 -3.25417565e-003 1.70492195e-002
      -5.66373393e-003 -1.17304735e-002 9.89733171e-003 1.40407234e-002
      7.84789491e-003 -4.46812110e-003 -1.60715869e-003 -8.20026733e-003
      7.61981308e-003 -5.86870732e-003 6.27551600e-003 -1.39106447e-002
      -8.89081042e-003 -1.00279544e-002 2.70752236e-003 1.58187449e-002
      5.87806525e-003 -4.59759869e-003 1.57101545e-002 -6.40031940e-004
      -5.44247916e-003 1.59225017e-002 -2.60509434e-003 -1.42515358e-003
      6.46045664e-003 6.05256949e-003 1.11096529e-002 3.20022460e-003
      2.13177968e-002 8.42677429e-003 2.16979743e-003 2.83211074e-003
      -1.35738086e-002 4.97840950e-003 -1.60113182e-002 -2.53035203e-002
      -9.26223025e-003 1.34930229e-002 -1.28941070e-002 1.31527269e-002
      -5.75125776e-003 1.13325203e-002 2.02770717e-002 3.32476594e-003
      -2.00775042e-002 2.63062529e-002 -1.22918067e-002 7.87983462e-003
      -9.56837181e-003 3.59440558e-002 -9.74718947e-003 -7.64903286e-003
      9.39302985e-003 -1.12234307e-002 -1.75595265e-002 1.01568075e-002
      -1.68796312e-002 -1.17149167e-002 1.95610570e-003 1.50970893e-003
      -2.36513442e-003 -5.27728908e-003 1.03155440e-002 7.78460782e-003
      -1.62273890e-003 3.61500029e-003 5.77347353e-003 -1.07006785e-002
      2.45626848e-002 1.15984650e-002 -3.35130421e-003 -1.48191499e-002
      -2.80328887e-003 -1.39008113e-003 -4.93026339e-003
      -1.01859390e-003 6.48147473e-003 2.82592885e-003 1.61969438e-002
      -1.12073598e-002 4.83699562e-003</_>
    <_>
      4.51246463e-003 -5.05513744e-003 8.71159788e-003 1.80624817e-002
      -1.17781051e-002 -4.90262546e-003 -4.35232138e-003 1.24776326e-002
      5.08956425e-003 -3.55040468e-003 -5.31559635e-004 -2.19270145e-003
      -2.90136244e-002 6.94144517e-004 2.17176531e-003 1.11382399e-002
      1.77463517e-002 1.49100572e-002 -2.26841168e-003 1.23716854e-002
      -8.04465357e-003 1.66290887e-002 -6.40595006e-003 8.16731527e-003
      -7.73473131e-003 1.30564235e-002 3.20924656e-003 -3.89972003e-003
      -1.88859075e-003 -5.18820481e-004 5.31693175e-003 2.42229644e-002
      2.32486520e-003 -1.53146572e-002 -3.94700188e-003 9.55185387e-003
      -1.21637937e-002 6.58298656e-003 6.97200419e-003 -1.53792452e-003
      2.06305366e-003 -1.27325216e-002 4.34933743e-003 4.06745030e-003
      6.63688034e-003 -8.61361157e-003 -1.62302218e-002 -5.78635838e-003
      8.11296795e-003 6.81626424e-003 -4.01247852e-003 -4.05132119e-003
      -5.52516337e-003 2.38728877e-002 8.90224706e-003 2.80852336e-003
      3.64073878e-003 -1.22612575e-002 -1.32492799e-002 1.17508741e-002
      1.88195948e-002 -2.01262590e-002 -6.97466871e-003 -5.16037690e-003
      -4.31465544e-003 5.89182018e-004 -1.25203267e-004 -9.64772981e-003
      -1.66179221e-002 4.80953982e-004 -3.22584133e-003 6.96686748e-003
      4.54633124e-003 1.67300161e-002 2.37755547e-003 -4.27346118e-003
      5.10395365e-003 -3.52676888e-003 -3.30965966e-003 2.00241189e-002
      -6.59476127e-003 -1.04431389e-002 -9.93891037e-004 4.85497853e-003
      -1.57342525e-003 -2.68620346e-003 -1.56762749e-002 1.90672744e-002
      6.11798884e-003 -2.09481008e-002 -4.71001636e-004 4.35390696e-003
      -2.70539485e-002 4.56504337e-003 -1.09900013e-002 4.44450788e-003
      -7.20563461e-004 6.60412852e-003 -2.05002865e-003 -2.63274740e-003
      -5.86096139e-004 -6.82291109e-003 -9.30705108e-003 3.95169109e-003
      6.42684568e-003 1.35841239e-002 2.79084016e-002 -1.40367802e-002
      1.09587759e-002 -7.12624751e-003 2.06751842e-002 -1.68729527e-003
      1.91244297e-002 -9.65729542e-003 1.68749765e-002 1.54407332e-002
      -6.56909635e-003 9.03236121e-003 -4.17282019e-004 7.26135494e-003
      -2.00208253e-003 1.10299969e-002 -6.64301682e-003 -6.87726261e-003
      -3.00184381e-003 1.92548037e-002 -1.01075228e-002 -6.60558406e-004
      -2.36172508e-002 4.34541935e-003 -3.38806276e-004 -8.13609920e-003
      -7.00486870e-003 -1.82786391e-006 1.71844207e-003 2.10774480e-003
      1.57465767e-002 1.19381770e-002 -5.43892384e-003 6.93189073e-003
      -1.73772685e-002 7.84970541e-003 -6.55471999e-003 7.15457322e-003
      1.09179234e-002 -3.60826077e-003 -3.46097141e-003 -1.50619708e-002
      1.40345488e-002 1.52768381e-002 1.50004681e-002 7.48038245e-003
      9.98440199e-003 7.52736535e-003 6.21240027e-003 2.73327380e-002
      1.43428789e-002 1.60018913e-002 -1.09551121e-002 7.31621543e-003
      2.55037139e-005 1.48505112e-002 -2.51374748e-002 2.03028525e-004
      -7.02601159e-003 6.74029021e-003 4.11029905e-003 -1.20870275e-002
      -5.66224474e-003 2.07870873e-003 -3.13561969e-003 -1.95798539e-002
      1.81590999e-003 -4.86694090e-003 3.16279661e-003 -1.87716652e-002
      -5.48552629e-003 3.79850790e-002 -8.95701349e-003 1.91170511e-006
      -4.74942988e-003 9.97178163e-003 -4.22239583e-003 1.85196400e-002
      2.80352402e-003 -7.97269121e-003 2.67517399e-002 2.35087778e-002
      4.42833314e-003 3.63955721e-002 1.66820530e-002 1.54464534e-002
      -3.40144010e-003 -1.30882608e-002 1.45024126e-002 5.50344633e-003
      -1.17371893e-002 -1.27629796e-002 1.23377545e-002 1.54586826e-002
      8.65661539e-003 -2.08642596e-005 -1.84142850e-002 -2.50969711e-003
      -1.05116211e-004 -1.05867314e-003 -7.20387278e-003 3.13212816e-003
      1.89169962e-002 2.87229801e-003 -1.03952009e-002 -5.04600536e-003
      -1.66085120e-002 1.11698015e-002 -9.06345900e-003 4.21546574e-004
      -1.02358237e-002 1.53402733e-002 2.38014944e-002 -8.28493480e-003
      -6.62877457e-003 -4.76148166e-003 1.00625651e-002 -4.30376548e-003
      -1.44563243e-002 1.39694646e-004 -9.49335168e-004 7.17432797e-003
      8.42911750e-003 -8.62691179e-003 -1.35644451e-002 -3.16447625e-003
      -6.57689339e-003 -1.13074277e-002 -7.29291234e-003 1.33645022e-002
      6.04292203e-004 7.78780552e-003 -3.68165434e-003 6.65645720e-003
      2.79644281e-002 -7.85072055e-003 2.24829372e-003 -5.66162262e-003
      -3.26387421e-003 4.78709629e-003 -2.08200403e-002 7.10673677e-003
      1.50062675e-002 1.20078390e-002 3.03703006e-002 -1.32925613e-002
      -3.12912907e-003 -7.23464089e-003 -7.88441021e-003
      -1.91903450e-002 1.66617054e-002 -1.09839784e-002 -1.26047973e-002
      -4.50495584e-003 -1.93423743e-003 -1.30108721e-003 4.44249902e-003
      9.24940687e-003 1.60651281e-002 -8.61195754e-003 -1.32524082e-002
      -3.11090495e-003 2.82960664e-002 1.12808188e-002 -1.59145799e-002
      9.18481965e-003 -1.31462689e-003 -2.52035121e-003 7.28672091e-003
      -9.63855721e-003 -4.81353421e-003 1.56177813e-002 -1.36627052e-002
      1.43865263e-002 1.38682802e-003 -8.73882696e-003 -1.76074565e-003
      4.21750080e-003 -8.45407601e-003 -7.06547126e-003 -8.12062155e-003
      8.43319111e-003 2.30729673e-002 7.86872674e-003 -7.47765740e-003
      -2.98653319e-002 -9.13247000e-003 -3.50561761e-003 7.99494609e-003
      -1.98706519e-003 8.44046287e-003 4.49541630e-003 2.84508709e-003
      4.51045576e-003</_>
    <_>
      2.76252348e-003 -1.75416830e-003 1.27929263e-002 3.61195905e-003
      8.42143130e-003 -6.92928070e-003 -1.27195512e-004 1.84282754e-002
      1.61802955e-002 -1.91931229e-003 -8.98102240e-004 2.63881171e-003
      -1.14740273e-002 -8.61800928e-003 -5.50628919e-003 1.15272179e-002
      -1.74275425e-003 3.91746871e-003 -1.13561563e-003 8.84682313e-003
      -6.78927684e-003 -7.03148032e-003 6.36028824e-003 3.88522819e-003
      -3.35341855e-003 1.16189793e-002 1.14468308e-002 -1.44428369e-002
      -8.23379215e-003 -4.71352087e-003 -1.50414119e-002 7.09756045e-003
      5.04164537e-003 -1.18262842e-002 -4.52556461e-003 -5.20722382e-003
      -2.40179002e-002 3.24810157e-003 2.34332811e-002 5.36806416e-003
      -2.50888895e-003 -4.74730087e-003 1.85283348e-002 2.00490467e-002
      7.60239922e-003 -7.79085653e-003 -6.19929703e-003 -2.20044213e-003
      1.88805381e-004 5.80053497e-003 -1.79126542e-002 -9.77908727e-003
      1.41642140e-002 7.02052889e-003 -1.57135259e-002 2.38968914e-005
      2.30329460e-003 -1.82216882e-003 4.53535328e-003 5.32025611e-003
      1.18335867e-002 2.40273052e-003 -4.75844229e-003 1.38169271e-003
      -5.19846426e-003 -2.59233825e-002 9.29943286e-003 -3.93973663e-003
      -1.67941414e-002 1.46067021e-002 -1.98959350e-003 -3.73475882e-003
      -1.29558584e-002 -3.13265156e-003 7.27759907e-003 -1.05389440e-002
      -7.64476834e-003 -5.36661875e-003 9.46220360e-004 7.51350727e-003
      -9.16652288e-003 -1.45520447e-002 -6.74288347e-003 1.70004591e-002
      -4.10949462e-004 -1.49421324e-003 4.89940541e-003 5.95274149e-003
      4.71530762e-003 2.32789535e-002 5.59451664e-003 5.68885729e-003
      -1.33545706e-002 1.00860186e-002 6.19615486e-004 2.42901649e-002
      1.01196887e-002 2.10832269e-003 1.22959651e-002 -1.01826591e-002
      -4.46511246e-003 3.00646806e-003 -1.63802318e-002 -6.14743400e-003
      1.78612508e-002 4.59225802e-003 5.29066520e-003 -4.46647359e-003
      1.57530569e-002 -1.00541133e-002 7.72875920e-003 -1.06629720e-002
      -4.57261316e-003 -6.88020792e-003 3.85353179e-003 1.09266993e-002
      -2.76350114e-003 -1.21348919e-002 -2.90466496e-003
      -1.56062213e-003 -6.52203429e-003 -2.23577977e-003 7.50565762e-003
      1.41336024e-002 5.78472717e-003 5.68981376e-003 -1.04587004e-002
      1.59076671e-003 7.61345588e-003 6.18099747e-003 -7.74510903e-003
      3.36866616e-003 -2.26105805e-002 -2.76393443e-003 -2.96892104e-004
      -7.91104417e-003 2.18487272e-004 -1.37285236e-003 -3.12486640e-003
      -1.33709880e-002 -1.49799054e-002 1.54827330e-002 5.38820075e-003
      3.19952657e-003 -2.49795360e-003 -2.00355030e-003 -1.73272158e-003
      -1.03576109e-002 -4.62613720e-003 5.94955543e-003 1.40653579e-002
      6.50327932e-003 1.10531403e-002 9.58853774e-003 -1.29738881e-003
      1.48493154e-002 -1.04313968e-002 -4.03465517e-003 -3.42348404e-003
      2.72433599e-003 -1.44644165e-002 -3.60566215e-003 -8.94890539e-003
      -1.43637881e-002 4.26008366e-003 1.85604411e-004 8.61272682e-003
      5.84872579e-003 7.58123398e-003 -8.48915987e-003 -5.70580456e-003
      -2.23623421e-002 -1.87683001e-003 8.79486906e-004 -7.40151154e-003
      -1.21267308e-002 -7.00492924e-003 2.48066857e-002 -3.81405349e-003
      -1.69472292e-003 5.20567270e-003 6.57481141e-003 1.63235664e-002
      3.13693052e-003 -6.24337140e-003 1.08450176e-002 1.71850976e-002
      1.07377637e-002 -2.01805905e-002 1.52194593e-002 1.70167759e-002
      -7.62925763e-003 4.87650139e-003 5.68205549e-004 1.39504690e-002
      -3.30078509e-003 -8.79843161e-003 8.32891557e-003 3.64452973e-003
      -6.71877386e-003 -1.37712080e-002 -2.29273308e-002 4.84539010e-003
      8.59460142e-003 -1.43634656e-003 -4.81596543e-003 1.25690652e-002
      4.78185434e-003 1.24631042e-003 -7.20590586e-003 5.12313636e-005
      9.83268209e-003 2.23324560e-002 1.73546392e-002 -1.58521011e-002
      -5.75107709e-003 -2.25642440e-003 8.91230069e-003 8.76814872e-003
      -1.36872754e-004 2.67228764e-003 6.71502156e-003 9.21583083e-003
      1.55465072e-002 -7.63375079e-003 9.51182935e-003 2.96281418e-003
      5.25955902e-003 -4.70685976e-004 3.76427942e-003 -5.95014403e-003
      -1.49567053e-003 -8.11160170e-003 -4.35252953e-003
      -9.04450368e-004 1.55824784e-003 -1.18577480e-003 8.28016084e-003
      8.24254937e-004 1.52064972e-002 1.62761472e-002 6.29281765e-003
      -8.56865756e-003 -2.88981125e-002 1.03554977e-002 -5.83323417e-004
      -1.03361625e-003 5.77959698e-003 1.94632802e-002 -4.25528176e-003
      1.29517736e-002 3.42466490e-004 -2.30123922e-002 -1.82867479e-002
      -1.22597348e-002 4.05605789e-003 6.68943115e-003 -4.30407654e-003
      6.12151949e-003 -8.50048941e-003 -6.93025440e-003 2.04367447e-003
      -7.96367601e-003 5.97813865e-003 2.15554517e-002 -1.62939411e-002
      -3.08897742e-003 4.47090832e-004 3.15706506e-002 9.67541768e-004
      -7.21563399e-003 5.10281231e-003 -2.68437114e-004 -5.92496617e-005
      1.71651875e-004 2.45396560e-003 -2.29215459e-003 -2.93103280e-004
      3.99317825e-003 5.91749698e-003 3.12553393e-003 9.34461306e-004
      2.43598851e-003 2.32944358e-003 1.34921735e-002 1.94485427e-003
      9.40902811e-003 -4.61886916e-003 2.37938203e-003 -2.48534046e-003
      -9.89368279e-003 -9.69325565e-003 -1.21822311e-002 5.21683879e-003
      2.03403756e-002 -1.69283547e-003 1.21581799e-003 -1.10107763e-002
      -1.45255327e-002 2.33791907e-005</_>
    <_>
      4.01380705e-003 1.23875553e-003 1.19247418e-002 1.13084363e-002
      3.76010663e-003 1.14471437e-002 -4.66916477e-003 9.35648847e-003
      9.45898518e-003 -3.91368149e-003 4.61441558e-003 -5.32006565e-003
      -8.75292718e-003 -4.25403379e-003 2.35612225e-003 1.08627183e-002
      6.31739758e-003 -2.38086935e-002 3.85322864e-003 7.72646302e-003
      -2.13377811e-002 3.91562656e-003 -2.45825481e-003 1.20405545e-002
      -1.61849183e-003 1.90518831e-003 -1.07227368e-002 -5.95221715e-003
      4.35047923e-003 -4.71149944e-003 -3.41720507e-003 2.80600749e-002
      -7.30741443e-003 9.16916106e-005 3.23156972e-004 4.77386964e-003
      -1.11146988e-002 2.68070260e-003 2.19227033e-004 -8.21191352e-003
      6.63541770e-003 8.60571954e-003 -5.50291967e-003 8.70589074e-003
      2.74554850e-003 6.30793953e-003 -2.96512875e-003 -7.56566832e-003
      1.36618027e-002 -2.04798952e-003 -6.39124587e-003 -6.14107680e-003
      6.68357732e-003 5.08180773e-003 -2.67847022e-003 1.59565229e-002
      1.58453714e-002 -6.41309423e-003 -5.24609257e-003 1.80871005e-003
      1.59213860e-002 -4.52540163e-003 4.55734739e-003 4.37042536e-003
      -8.49659741e-003 -1.77522970e-003 3.09310923e-003 1.94269861e-003
      3.37894284e-003 -2.86387978e-003 -7.57798029e-004 -1.66596042e-003
      -1.35236895e-002 1.87215935e-002 -1.44955507e-002 1.09438074e-003
      1.22282859e-002 -2.88961595e-003 -6.57122862e-003 -1.00951809e-002
      3.14959371e-003 1.73329737e-003 1.01257879e-002 2.52305530e-002
      -1.42997904e-002 5.62049868e-003 -5.24163200e-003 4.96545201e-003
      9.04877950e-003 -2.15048713e-004 2.02735793e-002 9.25982278e-003
      1.49377040e-003 9.08197649e-003 -5.54565946e-003 7.73091102e-003
      2.72301934e-003 -1.53918052e-003 -1.12097813e-002 1.09449374e-002
      1.38704190e-002 -1.64105594e-002 -1.38960583e-002 -1.14129409e-002
      -8.93875398e-003 2.34592403e-003 5.51870698e-003 -1.28726370e-003
      8.38724524e-003 -4.37725289e-003 4.95813973e-003 -6.20633084e-003
      1.10393409e-002 1.19058480e-002 -4.14732704e-003 6.01843838e-003
      6.10691868e-003 1.34718288e-002 -1.03585087e-002 4.38111631e-004
      -1.00738872e-002 -7.45315105e-003 -7.61188334e-003
      -5.36143081e-003 -1.11860933e-003 4.20875801e-003 -6.24903198e-003
      1.67999032e-003 -6.07070001e-003 -5.41401654e-003 -1.62152238e-002
      3.27322679e-003 -1.50793814e-003 1.09129464e-002 5.46890823e-003
      -1.49328578e-002 8.29647295e-003 5.83153963e-003 -1.32718356e-002
      6.74774358e-003 -1.14727877e-002 9.63137206e-003 7.91488215e-003
      -2.86720390e-003 1.15463808e-002 -8.03125673e-004 -2.06383131e-003
      -1.09152822e-002 1.09220613e-002 1.38834992e-003 1.08238664e-002
      -4.91260504e-003 1.21474564e-002 1.12828333e-002 -1.04615800e-002
      1.33051844e-002 8.20686296e-003 1.75487468e-004 -3.60484258e-003
      1.47012752e-002 -3.04738409e-003 1.84610989e-002 3.56543437e-003
      1.05737038e-002 -1.06041087e-002 -1.42744195e-003 -4.63105447e-004
      -3.54998116e-003 -8.17892421e-003 4.21799487e-003 -3.14012496e-003
      -8.07213038e-003 -6.99647050e-003 2.34292634e-003 -5.49661694e-003
      -1.46666011e-002 -2.08495604e-003 2.97917612e-002 -8.58273637e-003
      5.63031388e-003 8.12995061e-003 7.11856131e-003 1.46285072e-002
      1.00927902e-002 -4.14939504e-003 -1.15955723e-002 2.80085783e-002
      1.66122485e-002 1.06931536e-003 1.61930695e-002 -1.77878246e-003
      2.87127099e-003 1.19040487e-002 4.97940648e-003 7.25934375e-003
      6.28896570e-003 -6.29162928e-003 -1.02347578e-003 8.48402549e-003
      8.58850032e-003 -6.27925713e-003 -1.78718381e-003 8.90566595e-003
      -5.18536894e-003 -1.14548774e-002 -6.67371508e-003
      -8.31390917e-003 -7.75857177e-003 1.04040783e-002 1.17396200e-002
      4.09733830e-003 -3.27619421e-003 -2.45378315e-002 1.16660846e-002
      7.75600784e-003 -7.08205951e-003 -2.25588512e-002 -4.15622443e-003
      1.34210763e-002 5.68645228e-005 1.42468617e-003 2.53726006e-003
      1.27115706e-002 -2.44354573e-003 8.40570196e-004 1.44140404e-002
      -1.64913444e-003 4.43218509e-003 8.83391686e-003 8.56061839e-003
      4.35422501e-003 -3.64122749e-003 3.29471170e-003 1.70308747e-003
      9.93305221e-005 -9.62356808e-006 -6.79484010e-003 -5.52352471e-003
      -1.99964177e-003 9.20569710e-003 1.24750687e-002 -1.25348172e-003
      -4.11480526e-003 -1.13644358e-003 1.03498651e-002 5.72048640e-003
      5.86488098e-003 4.98117832e-003 1.16458293e-002 -7.73877837e-003
      -2.79479777e-003 -7.04634469e-003 6.78843446e-003 -1.00748008e-002
      6.75131893e-003 -1.82496058e-003 2.01562401e-002 -4.97731287e-003
      1.32730231e-003 5.52922813e-003 -1.08888485e-002 8.76222737e-003
      -2.22477689e-003 -1.40609266e-002 1.60133393e-004 -3.57267563e-004
      2.37843115e-003 1.26956021e-002 3.26661058e-002 4.14239848e-003
      -1.43615529e-002 -3.51183978e-003 -9.60150640e-003
      -3.75514328e-002 8.58800253e-004 -1.26852165e-003 7.67048867e-003
      5.46819344e-003 9.74862184e-003 7.86562543e-003 5.42391371e-003
      5.52639319e-003 5.52363088e-003 -1.93369843e-003 -6.30826224e-003
      4.39819181e-003 4.16534720e-003 -7.91222672e-004 1.99112054e-002
      -4.62574651e-003 3.33382841e-003 -3.16791586e-003 -7.46435253e-003
      -4.10680799e-003 6.86542178e-003 -6.73472043e-003 1.13877021e-002
      8.90613906e-003 -5.62881632e-003 -1.08119108e-004</_>
    <_>
      1.75616122e-003 -5.38793160e-003 3.57885733e-002 1.21351378e-002
      -4.91711870e-003 2.36863513e-002 4.88747330e-003 2.98110060e-002
      -2.88457447e-003 -3.20057408e-003 -1.43754221e-002
      -1.50474356e-002 -1.35865761e-003 -2.16504596e-002 3.11813448e-002
      5.84481610e-003 1.33313965e-002 -4.66393912e-003 -2.36000586e-002
      -7.82562565e-005 -1.08399009e-002 -2.16266722e-003 9.67490661e-004
      -1.41902082e-002 -1.50447916e-002 3.36680971e-002 -5.80023788e-003
      -2.70762295e-002 -1.58619136e-002 -3.72784282e-003 1.09897917e-002
      2.22548153e-002 1.60588622e-002 -1.37612212e-003 1.84728429e-002
      1.39848851e-002 -2.91726384e-002 -2.15018820e-002 -1.40599990e-002
      1.15451468e-002 -1.69768312e-003 -1.50854411e-002 3.29486951e-002
      7.18317169e-004 2.08857190e-003 -2.51287897e-003 -2.85173282e-002
      1.19686099e-002 -8.37630499e-003 3.08650010e-003 -3.68974544e-002
      -6.68593450e-003 1.65263899e-002 9.18917917e-003 -2.45679189e-002
      9.59941372e-003 -6.58333953e-003 -7.47146457e-003 -2.83310190e-002
      -1.26078334e-002 1.97881982e-002 -1.57839563e-002 1.63075812e-002
      1.11816917e-002 5.81033248e-003 -1.30940676e-002 -9.86784697e-003
      -6.28588814e-003 1.15374951e-002 -1.65243745e-002 -9.87302745e-004
      -1.76057476e-003 -4.15313174e-004 -9.88249294e-003 2.28824206e-002
      -4.91201971e-003 -1.35319326e-002 -4.10259143e-003 2.66862363e-002
      4.08013500e-002 -7.67514296e-003 -6.89767534e-003 -5.16306027e-004
      2.78855134e-002 1.03887031e-002 -2.68730968e-002 -2.67141741e-002
      2.89332471e-003 1.02691045e-002 1.61872040e-002 -1.03548234e-002
      7.27723539e-003 -3.63141708e-002 -1.71905253e-002 8.06879762e-005
      -1.78696495e-002 -1.46777770e-002 4.85560717e-003 1.80007145e-002
      -9.98228509e-003 2.30685193e-002 -2.46718582e-002 1.33362431e-002
      2.75113769e-002 6.01304229e-003 2.11738814e-002 3.21906013e-003
      -1.66268973e-003 5.22585353e-003 1.08956890e-002 1.53733054e-002
      -1.01640252e-002 1.53019535e-003 -3.77845466e-002 1.75658893e-002
      3.24542308e-003 3.00966036e-002 3.13172750e-002 1.13928337e-002
      -1.32328272e-002 4.96880291e-003 -1.84531026e-002 -2.57478608e-003
      -4.23754146e-003 -3.69537086e-003 -1.76330637e-002
      -1.57025587e-002 1.49484966e-002 -1.79503765e-002 -4.71283402e-003
      5.96473180e-003 -1.66775603e-002 -2.83550005e-004 -2.97352695e-003
      1.98684782e-002 -1.00749265e-002 8.80509056e-003 4.41779271e-002
      -2.73358729e-002 -3.11402082e-002 1.07363600e-003 9.38216748e-004
      -1.57587398e-002 6.53585326e-003 -2.21242327e-002 -4.90726065e-003
      9.59912967e-003 -2.62465160e-002 5.24881203e-003 -1.46896495e-002
      3.16463155e-003 1.74158942e-002 9.12777055e-003 2.17611566e-002
      -1.35373487e-003 3.29249613e-002 1.90738253e-002 -2.24183202e-002
      -3.24465916e-003 -5.75155858e-003 -2.87036095e-002
      -3.23405769e-003 -3.07938512e-002 -1.80243794e-002
      -2.94108447e-002 1.59017951e-003 9.24385898e-003 1.03992363e-002
      1.06610432e-002 -3.29741314e-002 1.48124257e-002 -3.14795189e-002
      1.45165138e-002 2.90060509e-003 -1.56645421e-002 -2.75654886e-002
      -2.53088307e-002 6.92871911e-003 -1.29799321e-002 -1.18491566e-002
      -9.95509047e-003 1.17377071e-002 1.98315294e-003 7.79779116e-003
      4.57806420e-003 -1.11332266e-002 7.01182405e-004 2.42989548e-002
      -1.30951237e-002 -2.42917147e-003 -1.60900061e-003 2.28183977e-002
      1.36943755e-003 -2.13113762e-002 1.78912710e-002 -1.17285214e-002
      -2.39109062e-003 -8.09279829e-003 4.28599715e-002 5.52101526e-003
      1.44006852e-002 -1.37828169e-002 -2.38665324e-002 -1.67592745e-002
      -1.73414145e-002 -3.18945828e-003 4.87335911e-003 1.31201220e-003
      -3.08998814e-003 -1.78817566e-002 -2.93485093e-004
      -1.04732960e-002 3.44631437e-004 1.82569474e-002 1.10375986e-003
      -1.30989924e-002 5.86307468e-003 -4.94123762e-003 8.47498793e-003
      4.75110672e-003 2.74334773e-002 3.40240635e-003 1.07599003e-002
      1.84348822e-002 1.76707059e-002 -2.32754718e-003 -5.58512809e-004
      -3.00368909e-002 -2.86750458e-002 1.05795171e-002 5.86664723e-003
      -1.39693334e-003 -1.46061182e-003 1.88802313e-002 -1.35983797e-002
      7.15714693e-003 6.73583057e-003 -6.55920617e-003 1.41806686e-002
      5.23378048e-003 3.37259918e-002 -3.31531209e-003 1.65701527e-002
      2.64619198e-003 7.60394381e-003 7.32668722e-003 -1.41916405e-002
      1.25696100e-002 2.23367363e-002 1.70168150e-002 3.49607356e-002
      5.17489202e-003 1.44370822e-002 -8.54949001e-003 -2.60345936e-002
      8.01832881e-003 3.41759436e-002 -8.09526443e-003 -4.57313424e-003
      1.77357700e-002 -1.10823917e-003 3.61619182e-002 -1.68500713e-003
      7.70873763e-003 9.08667594e-003 -3.43332998e-002 -3.02148610e-002
      -1.33073544e-002 3.91137935e-002 1.10824006e-002 -4.57579270e-002
      3.85587453e-003 -1.84527356e-002 2.45913211e-002 -2.36530416e-003
      -9.76491906e-003 4.51077038e-004 -1.37448180e-002 2.80475826e-003
      1.21495314e-002 7.22751906e-003 1.08060502e-002 4.40268172e-003
      -1.26867453e-002 -8.58379237e-004 6.77651400e-003 -3.21162795e-003
      1.77491887e-003 2.21035574e-002 2.48079132e-002 -2.24684626e-002
      6.97901566e-003 -1.34984292e-002 -1.68624260e-002 3.04473415e-002
      2.72101127e-002 1.44045185e-002 -1.06842350e-003 -7.10262218e-003
      8.97051010e-004</_>
    <_>
      3.61588364e-003 7.11220782e-003 -1.58082228e-002 -4.56649635e-004
      -4.23060590e-003 -1.01501513e-002 -1.08874450e-003
      -1.70203391e-002 -2.55526640e-002 -1.85331050e-002
      -2.63190232e-002 3.68284341e-003 7.36747123e-003 6.35332335e-003
      -2.45305989e-003 2.51603909e-002 1.09978914e-002 1.34089971e-002
      5.32768574e-003 -2.31603738e-002 -9.89363436e-003 8.72843154e-003
      -3.76027450e-003 3.31075601e-002 -1.35475136e-002 -1.28585044e-002
      -1.04439156e-002 1.10555645e-002 -7.28094252e-003 1.14195775e-002
      8.70849285e-003 -3.17081693e-003 -7.64231430e-003 8.38396978e-003
      -5.55883953e-003 -1.56865623e-002 -1.05904136e-002
      -2.35633124e-002 1.30763305e-002 -4.51956224e-003 3.59473610e-003
      -1.28923552e-002 1.22237066e-002 5.21625951e-003 3.54375783e-003
      -6.21247687e-004 7.48341624e-003 -7.26650120e-004 -2.41549872e-002
      1.18747225e-003 -3.04318592e-003 -4.26390907e-003 1.98642667e-002
      1.98116875e-003 1.19643146e-002 -3.58018018e-002 -3.49161476e-002
      9.83131351e-004 2.67273486e-002 -1.85652208e-002 8.95077828e-003
      1.37194917e-002 1.29772758e-003 -2.50135716e-002 5.77317644e-003
      -2.44825933e-004 -1.98810343e-002 -2.60852873e-002
      -5.49322227e-004 -5.33928117e-003 -5.22278307e-004 2.21045911e-002
      -3.47933586e-004 9.27991141e-003 1.86068192e-002 -1.88318435e-002
      8.07275157e-003 -2.59333681e-002 2.58825962e-002 2.17977259e-002
      -1.43081741e-002 1.35307107e-002 -2.25803740e-002 3.68757930e-004
      -8.44915211e-003 -3.61807235e-002 -1.76481567e-002 1.91729348e-002
      -2.65967455e-002 1.84875168e-002 -1.34494212e-002 -1.73002686e-002
      -2.79902946e-002 5.63176256e-003 1.44616403e-002 1.10821184e-002
      1.90853775e-002 4.63568466e-003 1.83505770e-002 -2.33191103e-002
      2.47705192e-003 1.81865655e-002 -2.69754287e-002 -2.81694606e-002
      -1.66959642e-003 -1.69676617e-002 6.49353547e-004 -5.79944346e-003
      -2.71534664e-003 5.47251292e-003 6.84278738e-003 6.21647295e-003
      -4.00046259e-003 2.73635648e-002 -2.32236143e-002 1.36876013e-002
      -7.78092444e-003 9.37971345e-005 9.16338898e-003 -2.65880506e-002
      -1.88171081e-002 -6.54462585e-003 1.47904009e-002 -5.49452286e-003
      -2.80442019e-003 -1.34602049e-002 -8.14172719e-003
      -9.26184934e-003 -3.31912450e-002 -3.65536436e-002
      -8.83173756e-003 -3.38885523e-002 5.43569587e-003 -2.82810046e-003
      -6.79795677e-003 9.46872029e-003 1.29281394e-002 -1.37946161e-003
      -1.22166211e-002 4.22489038e-003 -2.41452493e-002 3.41392718e-002
      -1.74715966e-002 -9.60585196e-003 -7.53435818e-003
      -1.38892094e-004 3.18581611e-003 -5.62217459e-003 6.91793067e-003
      8.79208371e-003 -4.04199213e-003 2.15717573e-002 1.00425817e-002
      2.50070845e-003 -3.22729759e-002 -2.05093548e-002 2.73681730e-002
      -3.15092527e-003 4.02696338e-003 7.22902361e-003 -8.14325176e-004
      -1.83425972e-003 8.68173968e-003 -8.78886878e-003 -2.29605008e-003
      -1.17783137e-002 1.14910221e-002 3.97279812e-003 -3.56591959e-003
      1.32567771e-002 -3.99453985e-003 -1.80968028e-002 8.10995698e-003
      5.60893537e-003 -2.10648356e-003 -6.96207304e-003 -8.61990917e-003
      7.52314879e-003 -9.26121976e-003 1.07368047e-003 1.59345288e-002
      9.89987794e-003 6.52900804e-003 -3.14081348e-002 -2.38784626e-002
      -2.10354496e-002 -1.71964131e-002 1.16299791e-003 4.70444188e-003
      2.92951264e-003 2.07734928e-002 -1.91061813e-002 1.22672506e-002
      -1.07574731e-003 -1.18665518e-002 2.82513574e-002 -2.57714838e-002
      1.56130446e-002 8.04896653e-003 -2.87472532e-004 1.01170894e-002
      4.80672345e-003 -3.12966928e-002 8.31553061e-003 -5.65685099e-003
      2.30667479e-002 1.16056334e-002 -2.06639227e-002 -1.07540924e-003
      2.30044927e-002 -1.48454262e-002 2.05053091e-002 -1.02769583e-002
      -1.57150663e-002 -1.72739774e-002 4.89123398e-003 -5.49338292e-003
      -1.66309010e-002 2.56824680e-002 -3.33360909e-003 -1.15344692e-002
      3.20955738e-002 -4.51263832e-003 1.79742705e-002 -4.20366004e-002
      -1.54703204e-002 6.30980823e-003 3.14427130e-002 5.74050064e-004
      6.44886540e-003 1.59442108e-002 7.04858173e-003 -1.22142509e-002
      8.39305110e-003 9.16798972e-003 -3.27124400e-003 -6.09547133e-003
      1.07901962e-002 9.29996278e-003 -4.53590928e-003 2.85791047e-002
      -1.38850799e-002 -9.60387941e-003 1.19959433e-002 8.02873075e-003
      -1.12155629e-002 1.11538405e-002 -9.44020430e-005 -1.55782513e-002
      -3.77528705e-002 8.20352137e-003 1.17562320e-002 1.38762752e-002
      -1.07204188e-002 -4.59288200e-003 1.85970291e-002 3.15150432e-003
      -1.15633113e-002 2.01173853e-002 -1.34519618e-002 -1.85882312e-003
      7.27174524e-003 2.31626933e-003 -1.46168321e-002 -1.85614489e-002
      1.76365860e-002 3.64707899e-003 -1.88808441e-002 1.88773405e-002
      -4.95236134e-004 -1.79010537e-002 -1.41921798e-002 1.52750136e-002
      -1.60895672e-003 1.47076696e-002 -4.61925007e-003 -7.68852467e-003
      -5.77494211e-004 1.01675754e-002 -3.02582397e-003 -3.72020435e-003
      -1.05419906e-003 2.57331878e-002 1.27566420e-002 2.83939112e-002
      -5.91157842e-003 -2.20904015e-002 6.08308660e-003 -1.54352998e-002
      -2.21563666e-003 -8.63113441e-003 2.50878860e-003 7.13652465e-003
      -5.01733739e-003 -1.33846952e-002 -8.22830200e-003
      -1.16438940e-002 1.54017238e-002 -3.04200407e-003 -4.13153367e-003</_>
    <_>
      1.20088388e-003 1.20672854e-002 -9.46966372e-003 3.00401333e-003
      -3.71546932e-002 -2.43552518e-003 -1.41599402e-002
      -1.76262204e-002 4.14302088e-002 1.04732662e-002 -3.44682368e-003
      -3.13790888e-002 -2.51767151e-002 -1.21612540e-002 2.23625116e-002
      1.00184279e-002 9.52080451e-003 -4.71481122e-003 2.20380239e-002
      -4.71058954e-003 -2.22817734e-002 2.95404028e-002 3.87599343e-003
      2.80882604e-002 -7.86388852e-003 -2.15313602e-002 -2.71267537e-002
      7.42032286e-003 2.05870941e-002 -6.31747954e-003 -5.69293182e-003
      9.32447519e-003 1.93041079e-002 -1.58124324e-002 1.07291387e-003
      -1.66781545e-002 3.12241744e-002 -1.67576578e-002 8.08774214e-003
      -2.52515785e-002 1.25516625e-002 -1.59199499e-002 -1.07231401e-002
      3.99551075e-003 -7.95094296e-003 7.11603696e-003 1.09572690e-002
      -9.82142985e-003 4.24734317e-003 -2.69769784e-003 -3.08069941e-002
      -7.59421103e-003 1.42313158e-002 -1.27262808e-002 1.50888581e-002
      -2.64231525e-002 -3.97864543e-002 -8.67964048e-003
      -1.05611542e-002 -6.35266677e-003 8.28129146e-003 2.72682682e-002
      -1.02254609e-002 -4.02206816e-002 -1.48850819e-003 2.44290177e-002
      -1.02464752e-002 -2.33013481e-002 5.15102409e-003 -1.67950545e-003
      -5.09054353e-003 2.16135681e-002 9.40225460e-003 -2.15599677e-004
      -1.41613279e-002 -1.24631729e-002 -6.94016647e-003 1.18210423e-003
      -9.27249342e-003 3.46515067e-002 -1.65253803e-002 3.87205742e-002
      6.44625537e-003 -2.65332144e-002 1.06502520e-002 -5.17897680e-002
      -2.29145586e-002 1.82693489e-002 -2.37412238e-003 -1.13040684e-002
      -1.69177260e-002 1.20350439e-003 7.05454033e-003 -1.35052542e-003
      3.00507946e-003 -1.05837742e-002 1.29365046e-002 -4.02179430e-004
      -3.27847935e-002 -2.46832371e-002 4.22895327e-003 1.60454102e-002
      -6.27093296e-003 1.41381277e-002 6.04073470e-003 3.76575417e-003
      -1.76290758e-002 -3.38206254e-002 -5.51215606e-003 2.44525932e-002
      1.86011419e-002 -4.44070809e-003 -4.24473500e-003 2.80352198e-002
      3.19877900e-002 -4.22956049e-003 -1.59584056e-003 -1.80802261e-003
      -4.95102070e-003 4.15748283e-002 -3.71979619e-003 -2.41720695e-002
      4.54733195e-003 -1.53121017e-002 4.59768344e-003 2.63739354e-003
      -1.43239079e-002 1.83663685e-002 -3.96020664e-003 7.03258382e-004
      -2.10463088e-002 -3.55587676e-002 1.78141205e-003 1.99014158e-003
      -1.22725610e-002 9.20930225e-003 2.76790801e-002 -2.35455222e-002
      -6.46412838e-003 -2.01319754e-002 -2.25192979e-002 4.82410379e-003
      -7.84029253e-003 7.79637508e-003 1.35618271e-002 1.49742486e-002
      -1.73341613e-002 -1.05032139e-002 -1.66280079e-003 2.39761528e-002
      1.00217597e-003 1.99215915e-002 4.45623742e-003 2.31310111e-002
      1.80693883e-002 4.98460233e-003 -9.41757206e-003 -1.12292180e-002
      -2.51474604e-003 1.86676476e-002 -4.32018079e-002 9.31362621e-003
      2.71708574e-002 8.46767332e-003 -1.54337632e-002 1.60830747e-002
      -4.82821325e-003 -2.61810236e-003 1.05658351e-002 -3.29714804e-003
      -2.82507073e-002 -1.12507129e-002 3.94786149e-003 -1.70530018e-003
      -6.72859605e-004 1.22980122e-002 1.52893169e-002 1.28989322e-002
      -3.09667569e-002 -2.35097553e-003 -7.69705232e-003 7.07846181e-003
      -1.73158124e-002 -1.01949200e-002 2.01985296e-002 -3.90139148e-002
      1.63099170e-002 1.72461867e-002 2.12803371e-002 3.18341553e-002
      1.20910918e-002 4.58273524e-003 2.23720539e-002 -4.91600744e-002
      -1.42945051e-002 -1.26119247e-002 -2.05287151e-002
      -3.39775346e-002 1.15525043e-002 1.52500151e-002 2.66564228e-002
      -7.71915773e-003 -2.20861267e-002 2.30561886e-002 2.53986530e-002
      -1.31554706e-002 -1.44567071e-002 -2.89356709e-003 2.00635735e-002
      2.90085357e-002 -4.79320530e-003 7.42959231e-003 -2.03338675e-002
      3.46689322e-003 -2.81602256e-002 -2.44066324e-002 4.09420609e-004
      -5.69114648e-003 3.18153501e-002 3.99971567e-003 -9.39900801e-003
      3.40077989e-002 -3.36628873e-003 -2.05029896e-003 -1.81623697e-002
      4.04967548e-004 4.24029194e-002 2.68642548e-002 2.72744298e-002
      8.25793017e-003 -1.28215700e-002 -5.74429035e-002 6.70382613e-003
      -4.12631519e-002 -1.50997471e-002 1.52152861e-002 -4.98802168e-003
      -1.59731100e-003 5.72369434e-004 2.17813868e-002 3.24541703e-002
      -2.34808866e-003 -1.25748012e-002 -1.94652174e-002 1.93472598e-002
      -1.17434505e-002 -1.11745009e-002 1.97144113e-002 -1.82368830e-002
      -1.50152938e-002 3.87172252e-002 -2.28262111e-003 -2.16105301e-002
      -1.09469071e-002 -1.27480912e-003 -4.52013267e-003
      -4.65947029e-004 1.17262602e-002 1.38204796e-002 5.40239736e-003
      -1.41962152e-002 -1.42587423e-002 1.58715304e-002 2.01644097e-003
      -1.90993510e-002 1.28578553e-002 -2.91852485e-002 -2.12904532e-002
      -6.50176173e-003 6.59451168e-003 -3.76646966e-002 -8.88933986e-003
      1.82617677e-003 -5.92090189e-003 1.45044387e-003 -2.04685628e-002
      -1.11459214e-002 -1.84152853e-002 1.67794116e-002 -1.09754382e-002
      -6.95536495e-004 -1.07357167e-002 2.40173377e-002 4.19950634e-002
      -6.81557925e-003 -9.50687844e-003 -9.75216180e-003 1.35533344e-002
      5.05398167e-003 -2.70337686e-002 -5.11312531e-003 -1.87283512e-002
      -5.90166124e-003 -1.26791708e-002 -1.44152110e-002
      -1.68724507e-002 -2.90203299e-002 1.79919191e-002 -2.21863948e-002
      -3.16046327e-002</_>
    <_>
      4.25107923e-004 8.52885470e-003 5.18239196e-003 6.36164891e-003
      -1.05960285e-002 -4.64393012e-003 -1.11584477e-002
      -3.02481167e-002 7.32533960e-003 -7.26459920e-003 -6.14471128e-003
      1.30239967e-002 -1.86987706e-002 -8.92938115e-003 -1.59129761e-002
      4.11787350e-003 1.01380423e-002 1.26741156e-002 6.80716662e-003
      1.43692661e-002 -1.76861081e-002 8.21478758e-003 4.66018682e-003
      2.22253352e-002 -8.77834484e-003 -5.85929537e-003 -1.66385099e-002
      -5.09016309e-003 3.47393192e-003 -1.22793345e-002 -2.59712990e-002
      -1.19546382e-002 2.51431746e-004 -3.51554602e-002 -1.61464699e-003
      -2.51843911e-002 -2.27306075e-002 1.48527063e-002 4.56628157e-003
      -3.82695653e-005 -7.97849707e-003 -3.26138252e-005 1.09312255e-002
      9.39609483e-003 1.36426985e-002 1.20736724e-002 -8.14586412e-003
      3.04341316e-003 -2.00099442e-002 9.50226095e-004 -3.61335687e-002
      -1.39257237e-002 5.92832034e-003 -1.04156937e-002 2.37892196e-003
      -1.90625321e-002 -2.23135985e-002 -2.93871178e-003 1.00584598e-002
      -1.06805647e-002 8.79718456e-003 2.90705655e-002 3.79882869e-004
      -3.31013203e-002 1.26816537e-002 -3.28348503e-002 -3.84910894e-003
      -1.57092158e-002 1.89055910e-003 2.01500999e-003 8.20322498e-007
      1.01903379e-002 -9.54822358e-003 -1.07457638e-002 7.29612875e-005
      -5.08674048e-003 -9.77369118e-003 8.81699286e-003 6.02834974e-004
      -2.41159089e-002 -2.10869629e-002 6.02658512e-003 -1.56523902e-002
      -1.39853526e-002 9.43467394e-003 -2.93214638e-002 1.25653781e-002
      6.30604802e-004 -3.57902423e-003 4.11536768e-002 -1.65671371e-002
      8.74656811e-003 -8.97189975e-003 4.24541812e-003 1.18557392e-002
      8.04488733e-003 1.70901697e-002 -3.23071377e-003 -7.71414768e-003
      -2.37994380e-002 1.08424155e-002 4.44465689e-002 -1.83090437e-002
      -9.19645838e-003 4.49708989e-003 8.46787449e-003 -6.72352500e-003
      -1.98167693e-002 5.20217046e-003 -1.36021916e-002 1.36366161e-002
      -1.53957251e-002 -8.47933907e-003 8.20964109e-003 -9.42695700e-003
      2.61213128e-002 -8.05526134e-003 -5.57582127e-004 1.22706462e-002
      2.20013298e-002 -4.81531816e-003 -9.64253489e-003 1.38408020e-002
      1.25998063e-002 2.41501424e-002 -1.61537677e-002 -1.23635726e-002
      3.59425577e-003 -1.97590841e-003 -1.67057291e-002 4.73483745e-003
      -1.12666702e-002 -2.22273748e-002 7.69672310e-003 -6.15333114e-003
      2.89669912e-003 9.43026599e-003 -3.19666625e-003 1.97755881e-002
      -1.15171075e-003 2.78688944e-003 7.58040231e-003 1.46678686e-002
      -1.56944469e-002 -9.97790415e-003 -1.64244347e-003
      -7.27523444e-003 -5.69106871e-003 -9.32037644e-003 1.40683437e-002
      1.95204057e-002 5.60564804e-004 -1.81040901e-004 4.29625530e-003
      9.76631325e-003 1.20187821e-002 -1.15135042e-002 -1.57129988e-002
      7.67047424e-003 1.94262229e-002 -3.40544954e-002 -1.15522393e-003
      3.38145928e-003 -2.18709018e-002 1.68737303e-002 -1.87599286e-003
      1.49517879e-002 4.98856045e-003 -6.43094676e-003 2.56606005e-003
      4.05442156e-003 -3.51209901e-002 -1.17053445e-002 -5.54076536e-003
      -1.09006083e-002 3.14453442e-004 -1.73529517e-003 1.04599353e-002
      -9.45718307e-003 -1.15961470e-002 -8.73087347e-003 7.50684692e-003
      1.10528944e-002 -6.85032830e-003 -5.66616654e-003 -8.43163300e-003
      2.65120510e-002 -3.76415602e-003 -3.76929790e-002 6.68213889e-003
      2.68749520e-002 -5.95588144e-003 1.65839922e-002 -2.82386206e-002
      1.27999100e-003 -1.07376203e-002 -6.53636269e-003 9.99218225e-003
      1.55384317e-002 6.85728109e-003 -3.01425476e-002 -2.69492455e-002
      -9.30352253e-004 1.96290798e-002 6.05692447e-004 6.02825871e-003
      5.82760666e-003 -2.33534817e-002 -4.93099680e-003 8.64747725e-003
      -1.17510948e-002 2.07214132e-002 1.89076588e-002 6.13821531e-003
      -1.85888018e-002 2.53470452e-003 6.88337255e-004 -2.92482553e-003
      1.03852600e-002 2.21680310e-002 -1.15549862e-002 1.95296928e-002
      1.20152356e-002 5.01539512e-003 -2.10614316e-002 1.06991287e-002
      1.18173994e-002 2.22472027e-002 5.29847993e-003 5.21017145e-003
      -2.52025556e-002 -5.24612097e-003 -1.36528108e-002
      -1.18111810e-002 1.48462190e-003 3.44032608e-003 -2.31508398e-003
      1.52171087e-002 9.13506187e-003 4.65806527e-003 1.21657541e-002
      -2.21309345e-003 -1.55557506e-002 -2.76875552e-002 1.30654359e-002
      -1.83922704e-002 -4.74068848e-003 6.23695273e-003 -6.08427869e-003
      -9.18337330e-003 2.14737710e-002 2.02756026e-003 -3.61551642e-002
      -1.92825459e-002 -1.05463378e-002 2.50474438e-002 4.18072334e-003
      1.96951516e-002 1.50797479e-002 -2.69199884e-003 2.29897816e-003
      1.14144860e-002 -7.69643579e-003 5.81222679e-003 -5.86421415e-003
      -1.78141892e-002 -9.91296023e-003 -1.88208115e-003
      -1.01235099e-002 -3.39998771e-003 -1.79789420e-002
      -5.74655039e-003 7.07712024e-004 1.46838604e-002 -1.78822149e-002
      9.11727920e-003 -1.90749895e-002 -6.54294761e-003 1.18029015e-002
      -1.56991854e-002 9.73946694e-003 -1.76184415e-003 5.88820968e-003
      1.65970568e-002 1.29668880e-002 -2.06121430e-002 1.74707372e-003
      3.75309819e-003 -1.41873099e-002 -1.62740331e-002 -2.64115515e-003
      -8.76600668e-003 -1.21384552e-002 2.33545676e-002 -1.08528952e-003
      -2.33346000e-002 1.12456689e-003 1.32962009e-002 -3.92101565e-003
      -1.41619230e-002</_>
    <_>
      -3.44545511e-003 1.50508876e-003 -1.68646071e-002 1.74160171e-002
      -2.61939298e-002 -9.95556824e-004 -1.76219903e-002
      -3.39638144e-002 -1.49220666e-002 -2.16909256e-002 8.88447836e-003
      -2.81295869e-002 -2.09126882e-002 5.74869337e-003 1.94189772e-002
      -1.38917640e-002 -3.81890079e-003 -9.83740482e-003 9.98432841e-003
      2.40330063e-002 -2.58443877e-002 2.24414580e-002 -6.64845388e-003
      3.45310904e-002 -3.61237652e-003 -2.54660267e-002 -3.91829088e-002
      2.72169355e-002 1.05333095e-002 -2.69749376e-004 -1.91537775e-002
      5.29857725e-002 2.00509485e-002 2.75482722e-002 3.06797726e-003
      -2.87389830e-002 -2.26596352e-002 -7.68059073e-003 1.47844749e-002
      -1.54685124e-003 2.00320929e-002 -3.57331373e-002 8.37000646e-003
      2.67724115e-002 -1.32056009e-002 -5.13423281e-003 7.71241356e-003
      -1.42684542e-002 -4.27702442e-003 -1.45515585e-002
      -2.36077234e-002 -2.79640988e-003 1.53756868e-002 -4.71556447e-002
      2.01276150e-002 -1.83631445e-003 2.22210167e-003 1.67754367e-002
      1.25617534e-003 1.43248320e-003 1.19315535e-002 3.11805084e-002
      2.00104620e-002 -7.49249337e-003 -8.24288279e-003 1.38900224e-002
      -1.23395110e-002 1.84601955e-002 1.90869104e-002 -3.13087017e-003
      5.46258874e-004 1.78968403e-002 3.70267872e-003 5.79169095e-002
      -6.34538904e-002 -4.35213633e-002 1.43907843e-002 2.55722106e-002
      -1.84315760e-002 1.83735732e-002 -3.20357014e-003 2.96758637e-002
      -1.76804587e-002 3.63480998e-003 2.20891833e-002 -3.49855646e-002
      -2.22980939e-002 9.45523381e-003 -2.68328865e-003 -1.76523831e-002
      2.71740500e-002 5.32228826e-003 1.26884459e-002 1.69378053e-002
      3.31850210e-003 9.06225573e-003 2.01941188e-002 -3.08088493e-003
      -6.87214211e-002 -4.57362679e-004 4.21631411e-002 -2.40438934e-002
      -3.19424784e-003 -2.82083359e-002 1.08277453e-002 8.84690136e-003
      -1.47622591e-002 -6.96730148e-003 -1.74949169e-002 4.00112085e-002
      1.65039338e-002 -1.79807600e-002 3.47318277e-002 3.53259072e-002
      -2.79630739e-002 1.13664586e-002 2.31697764e-002 1.72697771e-002
      -1.65952053e-002 3.62528935e-002 2.12047319e-003 2.45549879e-003
      -1.34805935e-002 -1.04082450e-002 4.52797581e-003 -2.59283371e-003
      -2.87401564e-002 3.16647105e-002 -8.23408365e-004 8.00092239e-003
      -3.35919447e-002 -8.70307162e-003 1.23661757e-002 1.78663749e-002
      2.10692100e-002 -5.00598364e-003 3.32580097e-002 -2.32484229e-002
      1.60574354e-002 8.76399688e-003 -1.49808591e-002 2.05124971e-002
      -2.16904953e-002 -2.50666849e-002 1.11815901e-002 9.05922148e-003
      3.41400341e-003 3.07144411e-003 6.41616434e-003 -9.49870981e-003
      -4.72094491e-003 -2.12308336e-002 -8.04446731e-003
      -1.38095091e-003 3.44404392e-002 -6.24207361e-003 -1.15272524e-002
      -6.20290916e-003 8.67807493e-003 2.94144847e-003 -3.29719335e-002
      1.60088036e-002 1.82091333e-002 2.07873601e-002 -1.47103854e-002
      -2.46036910e-002 9.64371487e-003 -4.52095206e-004 -1.64222606e-002
      3.75888832e-002 -1.55071663e-002 -3.39055061e-002 6.25409279e-003
      6.82060421e-003 -1.24165947e-002 2.90747709e-003 2.28297915e-002
      1.44380005e-002 -2.87182927e-002 5.48412837e-003 3.47910635e-002
      2.76770685e-002 6.84219413e-003 -8.98567215e-003 2.01388448e-002
      -5.63960746e-002 -9.52249952e-003 -1.27008674e-003 9.75047145e-003
      3.34769413e-002 -8.77485424e-003 1.59159563e-002 1.23266149e-002
      -1.70977022e-002 -8.11142568e-003 -3.11781242e-002 3.89153697e-003
      -2.87078135e-002 -4.63707326e-003 1.27275130e-002 -9.02995118e-004
      1.92600712e-002 4.42321487e-002 3.11034819e-004 -2.25832947e-002
      -4.49193753e-002 -3.99997123e-002 3.72269331e-003 2.12947950e-002
      1.87978595e-002 -3.39487288e-003 -2.15331763e-002 -2.34161373e-002
      -1.57490242e-002 -1.11389747e-002 -1.64669119e-002
      -2.33259588e-003 -2.54309680e-002 4.62541170e-003 4.32405947e-003
      -6.33071084e-003 8.39381386e-003 1.81622896e-002 1.09099885e-002
      -3.32022049e-002 -6.32407609e-003 3.05421781e-002 1.02401553e-002
      1.57270525e-002 1.47613771e-002 -2.95470376e-002 -8.36146530e-003
      1.38606010e-002 -6.97249221e-003 1.60680991e-002 1.45488344e-002
      -3.15601714e-002 1.25266062e-002 4.27459832e-003 4.49555218e-002
      3.07112504e-002 -2.43981071e-002 -2.04560664e-002 3.94233130e-003
      -8.11252557e-003 -4.21629623e-002 5.30654751e-003 1.26338135e-002
      -8.99587292e-003 -3.12232375e-002 2.72683166e-002 -1.50460806e-002
      1.02586169e-002 4.64884890e-003 -1.10467179e-002 -2.62659844e-002
      -6.47874689e-003 2.60569621e-003 -1.84565969e-002 2.20888145e-002
      -1.78979896e-002 7.88410101e-003 1.99973714e-002 -4.42538830e-003
      -1.88419409e-002 -5.82284527e-003 -1.23079335e-002 2.69269887e-002
      3.38048581e-003 6.05502445e-003 -3.36522721e-002 -2.82670232e-003
      -1.37573294e-002 -1.87234413e-002 -2.66506756e-003 1.67813729e-002
      -2.52879150e-002 -2.25222707e-002 -2.41687689e-002
      -3.71150449e-002 1.39565812e-002 -9.85900126e-003 2.48598470e-003
      1.82610024e-002 -3.31124454e-003 -6.88610831e-003 -2.14405712e-002
      -7.37094597e-005 6.29680138e-003 -4.67994511e-002 -5.95713779e-003
      -1.18471403e-002 2.30614208e-002 -1.56037556e-002 -5.12586869e-002
      6.21025963e-003 6.60047110e-004 1.50495842e-002 4.37942334e-002
      -1.55254465e-003</_>
    <_>
      -8.90536932e-004 8.41685757e-003 -1.04414076e-002 -6.26321370e-003
      -7.86591880e-003 -1.09439446e-002 -6.65276311e-003
      -1.35512538e-002 -1.05033685e-002 -8.47432017e-003
      -2.65418906e-002 -1.39005464e-002 -6.07318059e-003
      -8.25906917e-003 4.28505335e-003 1.19670574e-002 8.08355026e-003
      -2.57095811e-003 1.81000568e-002 -6.71062944e-003 -1.36751253e-002
      -8.70186463e-003 1.39074354e-003 1.74441766e-002 -7.53461197e-003
      1.88616186e-003 -1.95036959e-002 -9.95380618e-003 4.99732932e-003
      -7.89476931e-003 1.07646715e-002 -2.13534036e-003 -4.22423938e-004
      1.81231536e-002 6.38599182e-003 -1.38980849e-002 -2.07062089e-003
      -1.33879785e-003 -2.75869519e-002 -3.97725310e-003
      -2.64261989e-003 -1.66428275e-003 1.85390767e-002 1.66420788e-002
      1.56212074e-004 -5.68953389e-003 -9.87450359e-004 -2.04142439e-003
      2.73922854e-003 2.89298571e-003 -1.23414109e-002 -3.10421060e-003
      1.98496655e-002 -1.81723060e-003 -2.36545224e-002 -7.23001314e-003
      -2.49323882e-002 -3.72861396e-003 -6.76379632e-003 5.56084793e-003
      8.92499182e-003 8.11529718e-003 9.13354277e-004 -2.52949186e-002
      1.74430814e-002 5.58503810e-003 -5.88094071e-003 -1.13292970e-002
      2.16848706e-003 -3.47736734e-003 2.11546919e-003 9.67011694e-003
      1.82538070e-002 8.86889454e-003 2.23175827e-002 -7.09505612e-003
      -1.76694505e-002 -1.78568228e-003 5.41751599e-003 1.59231517e-002
      -1.43561913e-002 1.51571520e-002 6.93949638e-004 -6.12435024e-003
      1.32485079e-002 -1.18651278e-002 -5.48702432e-003 -3.39696743e-003
      8.18296988e-003 8.42432957e-003 -2.10753642e-002 -7.54829589e-003
      -5.98881021e-003 -1.05694961e-002 -1.06540900e-002
      -9.86038800e-003 5.83615620e-003 -1.27338094e-003 -2.40699179e-003
      -1.38815623e-002 1.87798645e-002 3.40355677e-003 8.25491268e-003
      -4.37170547e-003 -4.86954069e-003 -6.09562313e-003
      -2.86220610e-002 -2.17165407e-002 3.97300394e-003 1.04157638e-003
      7.73002021e-003 1.72306332e-004 -6.03091158e-003 -6.09824574e-003
      2.99946219e-002 2.83200759e-002 8.41802265e-003 1.06608588e-002
      2.74536724e-004 5.98456105e-003 6.27636630e-003 -7.09695183e-003
      4.67737485e-003 7.61016854e-004 -1.22646289e-002 -1.55491671e-002
      -1.42039862e-002 2.24928167e-002 -5.59147261e-003 -6.62964303e-003
      1.18839997e-003 -1.24386279e-002 6.70212600e-003 2.48791911e-002
      -3.26993933e-004 -6.33653859e-003 1.34545304e-002 7.94911012e-003
      -4.30487050e-003 -8.79726745e-003 2.64219334e-003 3.20824701e-003
      -5.82130672e-003 7.09934160e-003 -1.13780815e-002 1.07675241e-002
      -1.27801287e-003 -1.56805012e-002 7.76985334e-003 1.19822351e-002
      -1.15432562e-002 1.10532320e-003 -1.01664509e-005 4.51312587e-003
      -1.88467186e-002 -7.86788296e-003 8.17952771e-003 -1.06670633e-002
      -1.71589293e-003 -1.09017128e-002 3.79788154e-003 -2.76513416e-002
      2.54222774e-003 -1.03160739e-002 -1.51578439e-002 -1.45341652e-002
      2.80930166e-004 1.56449545e-002 6.85880845e-003 1.35265896e-002
      7.78053800e-005 -1.47438422e-002 -5.27194608e-003 9.20306309e-004
      9.83976945e-003 1.10080466e-002 1.52602354e-002 -2.61751382e-004
      4.76325443e-003 -7.39531172e-003 -8.89466330e-003 2.70821340e-003
      -1.76266748e-002 -6.74561784e-003 1.87844597e-003 -2.38856860e-002
      -2.28125951e-003 1.31289067e-003 -8.93839728e-003 -1.03568612e-003
      -2.90057273e-003 -1.96660683e-002 1.16301375e-002 -7.50232302e-003
      -4.61111590e-003 6.23634737e-003 -2.33155955e-002 -1.71911847e-002
      -6.17619953e-004 3.60906357e-003 1.24464408e-002 -8.86453129e-003
      -1.41684692e-002 -1.83407627e-002 1.44266337e-003 2.57254625e-003
      -5.17791510e-003 1.63150474e-003 -5.53629175e-003 1.23966308e-002
      -2.02567652e-002 -6.42123586e-003 -1.90091170e-002 4.25976515e-003
      2.89446954e-003 -1.86730362e-003 -5.35446731e-003 -1.96364988e-002
      7.77643453e-003 -1.18963257e-003 -1.43316546e-002 5.83176455e-003
      -2.79771741e-002 6.91200979e-003 7.79648544e-003 2.87759653e-003
      1.53833523e-003 -1.17682582e-002 -7.35491747e-003 -1.85574498e-003
      7.58537231e-003 -1.29175195e-002 2.93432479e-003 -2.25588661e-002
      -1.61181393e-004 1.63398660e-003 -7.40266696e-004 -5.82951680e-003
      6.61236560e-003 1.54775716e-002 1.69429593e-002 -1.90720782e-002
      1.16843283e-002 7.37023354e-003 6.97406288e-003 -1.55490329e-002
      -1.40355229e-002 -4.99826274e-004 -7.62891909e-003 2.95075332e-003
      2.90288087e-002 6.94077136e-003 -5.68639603e-004 -2.53892038e-003
      -1.31309722e-002 1.37887644e-002 2.47002277e-003 2.30044057e-003
      2.29528770e-002 1.35078169e-002 1.05289724e-002 -1.18250344e-002
      -9.55103338e-003 4.40077111e-003 -2.75964942e-002 -1.95312710e-003
      -1.68797392e-002 -7.62579264e-003 -1.91498094e-003 9.47200041e-003
      -1.50538497e-002 -1.29365129e-002 -5.13984123e-003 6.50799973e-003
      6.31014211e-003 -3.35279095e-004 -6.99833734e-003 -1.02231652e-002
      5.82000054e-003 -2.41181385e-002 6.74238475e-003 -6.51841890e-003
      2.37406651e-003 9.06448625e-003 1.93960080e-003 -7.76285678e-003
      -1.61798019e-002 -1.65353175e-002 -9.58304293e-003
      -2.71226140e-003 -2.18571047e-003 3.02559161e-003 -1.06492043e-002
      -9.68776643e-003 -2.20496040e-002 -5.10988757e-003
      -2.92105228e-003 1.38395210e-003 -2.87956861e-003 -1.81076420e-003</_>
    <_>
      -7.33499648e-003 2.65193847e-003 -1.06670689e-002 1.15675759e-003
      -2.25312635e-002 7.10149389e-003 -1.01137562e-002 -1.03484967e-003
      5.37191778e-002 3.89990327e-003 1.12076849e-002 -6.73692720e-003
      -2.72353794e-002 -5.76649187e-003 -1.11820595e-002
      -1.74859669e-002 1.52783152e-002 4.12405329e-003 1.30450055e-002
      3.61139327e-002 9.88601428e-003 -2.77728777e-005 6.83057308e-003
      -2.53865179e-002 2.72120186e-003 -1.02701050e-003 -9.35997255e-003
      -1.20045850e-002 8.03821068e-003 -4.06943867e-003 8.53069406e-003
      -4.05005412e-003 2.25756411e-002 -2.41259672e-002 1.68920227e-003
      2.11759452e-002 1.62180308e-002 2.61209253e-002 -1.88572798e-002
      -3.96554312e-003 6.67499937e-003 -8.00660625e-003 -1.33199906e-002
      1.94634814e-002 5.54748578e-003 1.01889921e-002 -1.21122021e-002
      -1.51234418e-002 3.57922912e-002 -3.42257274e-003 2.93375533e-002
      -5.75512182e-003 -2.27249358e-002 -1.49654029e-002 1.42487194e-002
      2.75551695e-002 1.90015454e-002 -3.32497917e-002 -1.90727841e-002
      4.66805249e-002 2.80840416e-002 -7.46825617e-003 -2.59578545e-002
      -4.83628688e-003 2.60423273e-002 2.91147139e-002 2.31050234e-002
      1.04202032e-002 -1.58248022e-002 -4.63428069e-003 -6.33850577e-004
      -6.46849070e-003 1.26677817e-002 -8.38874187e-003 -1.70415528e-002
      -5.37639158e-003 6.41353475e-003 6.03377400e-003 -2.50691571e-003
      2.52156928e-002 1.97301246e-002 3.23190237e-003 -3.06167267e-003
      1.65310886e-003 -3.54038412e-003 -7.12688547e-003 -2.68035615e-003
      1.54733770e-002 3.60173779e-003 -4.72492874e-002 4.54817014e-003
      1.04380380e-002 9.96137853e-004 -2.08203704e-003 -1.72033627e-002
      -1.54886106e-002 -2.13404745e-002 -8.15694453e-004
