<?xml version="1.0"?>
<opencv_storage>
<my_svm type_id="opencv-ml-svm">
  <svm_type>C_SVC</svm_type>
  <kernel><type>LINEAR</type></kernel>
  <C>1.</C>
  <term_criteria><epsilon>9.9999999392252903e-009</epsilon>
    <iterations>2147483647</iterations></term_criteria>
  <var_all>400</var_all>
  <var_count>400</var_count>
  <class_count>8</class_count>
  <class_labels type_id="opencv-matrix">
    <rows>1</rows>
    <cols>8</cols>
    <dt>i</dt>
    <data>
      80 165 171 195 209 210 245 249</data></class_labels>
  <sv_total>28</sv_total>
  <support_vectors>
    <_>
      -9.05048626e-004 -3.37394117e-003 -7.73819769e-003
      -2.25002249e-003 -1.86584350e-002 -2.73269694e-003
      -6.30311621e-003 2.09421059e-003 5.87758236e-003 1.57081001e-002
      -1.18738553e-002 6.40917523e-003 -4.08686465e-003 4.99211950e-003
      6.94987364e-003 -1.48054315e-002 4.30416642e-003 1.94092579e-002
      -1.57592876e-003 3.14143021e-003 1.33152492e-002 7.63875293e-003
      -1.48097123e-003 2.21740780e-003 -6.96234684e-003 -4.47284523e-003
      8.28166679e-003 7.23000895e-003 1.03342420e-004 5.89909172e-003
      -4.73015476e-003 -5.07248845e-003 1.73781272e-002 -6.97209174e-003
      9.65332263e-004 -5.50047401e-003 -1.34247243e-002 -1.57760587e-002
      -1.55321788e-002 1.50166929e-003 -3.16851679e-003 -3.09843430e-003
      -1.67657286e-002 4.67712712e-003 6.40278077e-003 1.66589040e-002
      -3.15438933e-003 1.23605446e-003 4.44187596e-003 3.04952357e-003
      -1.02353131e-003 -1.65963564e-002 8.81111901e-003 -2.24597310e-003
      -1.36798825e-002 -4.92220512e-003 -1.31175562e-003 3.54603655e-003
      -1.73444147e-004 -2.27566482e-003 -2.03457959e-002
      -9.69142839e-003 -1.25815310e-002 -2.15813331e-002
      -2.11901614e-003 2.95929983e-003 1.09757371e-002 -2.40801983e-002
      1.82902087e-002 3.58673278e-004 -5.19237993e-003 9.70933586e-003
      -1.08522708e-002 8.79484229e-003 3.56976502e-003 1.10134743e-002
      -4.92215902e-003 2.24225242e-002 1.70446222e-003 4.51546954e-003
      -4.36537247e-003 3.63346771e-003 -6.02663681e-003 -2.52310233e-003
      -7.37147359e-003 -5.90206822e-003 -7.87081663e-004
      -2.34150887e-002 -7.38831609e-003 3.77737544e-003 1.67611595e-002
      -1.32980458e-002 8.54901038e-003 -4.09626821e-003 8.05420429e-003
      -1.26131075e-002 8.97738151e-003 -1.56883034e-003 1.15704788e-002
      -1.13330623e-002 -2.43207393e-003 3.18984996e-004 -1.06592830e-002
      -2.71161254e-002 8.28297250e-003 8.87357444e-003 -1.29578693e-003
      1.27046928e-002 -8.72008316e-003 1.35644898e-002 8.81393999e-003
      1.71014611e-002 1.50219882e-002 5.41254366e-003 -1.21689551e-002
      -2.63952259e-002 3.43583408e-003 -5.77798020e-003 -1.50946379e-002
      9.75597929e-003 8.74739606e-003 -9.91956051e-003 -2.20077615e-002
      -1.85756031e-002 -1.57125592e-002 4.22047160e-004 -6.53007417e-004
      -1.72275286e-002 8.15816969e-003 -5.57168666e-003 -1.05743045e-002
      2.15091817e-002 4.27529868e-003 4.31827037e-004 -1.36061655e-002
      1.47148911e-002 -7.00872159e-004 -8.89153313e-003 2.42835954e-002
      3.96127766e-003 -2.73946524e-002 -1.90940984e-002 -6.59970427e-003
      3.93432286e-003 3.12933116e-003 3.97372665e-003 -1.30244372e-002
      5.34221809e-003 1.36340298e-002 -9.50353686e-003 -1.83950234e-002
      7.23783625e-003 -1.59228686e-002 4.09731781e-003 2.60378374e-003
      -1.08475471e-002 4.03917814e-003 5.30980574e-003 3.85884219e-003
      -2.44338904e-002 -4.56027134e-004 -9.59249679e-004
      -1.12583358e-002 4.94060339e-003 5.91280404e-003 1.07319709e-002
      -1.00365588e-002 -2.89157256e-002 1.28930360e-002 8.25742539e-003
      1.29994808e-003 2.55875872e-003 -2.87367380e-003 1.98212033e-003
      -3.46251554e-003 -2.47699674e-003 -1.61073338e-002
      -1.40749672e-002 -1.54126268e-002 -2.89393705e-003 1.21464580e-002
      1.17184583e-003 -8.79371446e-003 -7.49898888e-003 5.80239808e-003
      -7.80015311e-004 9.20552667e-003 -9.02688969e-003 8.26647598e-003
      2.51495716e-004 -2.29933504e-002 -1.53496852e-002 -3.04358336e-003
      -1.16929961e-002 -2.08052038e-003 2.21968461e-002 -3.84693197e-003
      8.32324941e-003 3.91996093e-003 -5.35474392e-003 -1.54223479e-002
      -5.02712606e-003 1.37836728e-002 2.61937827e-002 -2.46920111e-003
      2.92955060e-003 1.07955178e-002 -2.20165681e-003 3.97321023e-003
      -1.14076585e-002 -1.23846123e-003 -3.62802763e-003
      -5.27392025e-004 -2.30855425e-003 -1.17773786e-002
      -2.04682630e-002 -1.47995418e-002 6.36134902e-003 -2.22463049e-002
      8.50796420e-003 -7.36766821e-003 -8.36524367e-003 -3.54953180e-003
      2.71322252e-003 1.28613319e-002 8.80325306e-003 1.94727408e-003
      -1.82545017e-002 3.47446767e-003 -6.15463592e-003 -1.29545471e-002
      6.11920841e-003 2.12844647e-002 1.00305742e-002 7.94906914e-003
      -1.04489569e-002 6.65035611e-003 2.92076473e-003 -4.84364433e-003
      -1.55565860e-002 -9.78330895e-003 -6.78856252e-003 5.75666665e-004
      1.13758557e-002 -3.35794874e-003 1.16654895e-002 6.20093371e-004
      -3.44768958e-003 1.47748711e-002 -3.75494454e-003 1.98720116e-002
      -1.90367486e-004 2.09722333e-002 -1.32509870e-002 -6.08198391e-003
      1.34215411e-002 -3.01058125e-002 1.29459072e-002 -1.90072916e-002
      -2.48625632e-002 -1.75828524e-002 -6.46512071e-003 3.09406710e-003
      3.57402209e-003 1.91154215e-003 2.46176533e-002 -8.67580529e-004
      -1.17524748e-003 -3.79011058e-003 -4.70669428e-003 9.56533477e-003
      -2.79484480e-003 5.78706246e-003 -5.80092566e-003 8.90916679e-003
      1.62523694e-003 5.20575373e-003 3.81379621e-003 -1.03031034e-002
      -1.51689723e-003 -3.09530422e-002 -5.64319431e-004
      -1.83812343e-002 -6.26103533e-003 -8.70895514e-004
      -4.96415654e-003 -2.88479794e-002 1.60735250e-002 7.11052073e-003
      1.38738687e-004 -6.16581428e-006 -2.44215387e-003 -1.10156578e-003
      -1.73411798e-002 -7.13904342e-003 -2.14435160e-002
      -2.36295536e-003 -1.98974041e-003 1.24773112e-004 3.19234771e-003
      1.05078574e-002 4.28594509e-003 -2.09666230e-002 9.67001484e-004
      7.39835319e-004 1.87961420e-003 -7.55866291e-003 -1.45290485e-002
      3.14125558e-003 5.48281707e-003 -1.01132421e-002 3.88008845e-003
      9.86136030e-003 -3.78279970e-003 -5.60314022e-003 -7.47050915e-004
      -5.45321871e-003 8.83655436e-003 1.26272868e-002 2.14320011e-002
      -9.84915998e-003 2.59045581e-003 -1.49643905e-002 7.09875580e-003
      6.32201508e-003 1.49144195e-002 -1.78286452e-002 1.71038136e-002
      -1.05818501e-002 7.01423036e-003 -6.51905453e-003 -3.86654661e-004
      -2.18401644e-002 1.73415476e-003 -2.07307767e-002 5.79851167e-003
      1.75703559e-002 6.34945245e-005 1.11822682e-002 -5.18786022e-003
      -1.64697487e-002 4.42262180e-003 -1.35638751e-002 2.35416670e-003
      -1.91070736e-004 -2.64677708e-003 9.37691238e-003 1.79778304e-004
      -1.26976697e-002 3.67030472e-004 2.30042171e-003 3.74108925e-003
      3.56895936e-004 3.63154162e-004 -1.38743287e-002 6.68533286e-003
      4.92812600e-003 -1.36726056e-004 9.85220820e-003 2.83272559e-004
      9.40286741e-003 -7.72351678e-003 -1.51159370e-003 6.17048761e-004
      1.40313199e-002 7.17317639e-003 1.87189486e-002 -4.34067426e-003
      4.44445381e-004 -2.94203474e-003 3.46253091e-003 -7.70968571e-003
      -4.89012524e-003 2.76680663e-003 3.25016715e-002 -2.33893888e-003
      -9.00574028e-003 -6.24283776e-003 4.51247627e-003 7.86609075e-004
      7.57272448e-003 -1.69452261e-002 -6.10485906e-003 -1.06844632e-002
      1.89309847e-002 2.74498924e-003 8.34352802e-004 -1.49544682e-002
      3.34749953e-003 -1.47078279e-002 -1.65844765e-002 1.83915086e-002
      -3.55719845e-003 1.69771984e-002 -6.08707312e-003 2.50586029e-002
      8.09060037e-003 2.01423299e-002 2.16669193e-003 -1.58229321e-002</_>
    <_>
      1.20795574e-002 5.89121599e-003 -6.53554732e-003 8.37724749e-003
      -7.32740387e-003 1.09428342e-003 -1.06111972e-003 -6.89936243e-003
      2.32883859e-002 -7.79973203e-003 -2.09489968e-002 2.07015108e-002
      -2.85190786e-003 5.55532891e-003 1.41904224e-002 1.33716147e-002
      -4.98034619e-002 5.74319111e-003 -1.49855493e-002 -2.20452412e-003
      1.13683147e-003 1.11188479e-002 5.68582863e-003 -1.29517959e-002
      1.06235212e-002 1.30272862e-002 2.12722761e-003 -5.36737964e-004
      1.64308250e-002 -4.11780638e-004 -5.18173026e-003 -2.44328100e-002
      3.83336633e-003 -8.88718409e-004 1.73608540e-003 3.69046885e-003
      5.41868573e-003 -1.48678618e-002 5.70503389e-003 1.22133270e-002
      -1.57478116e-002 9.23771784e-003 -1.35384966e-002 2.83245388e-002
      3.13800457e-003 4.24260907e-002 -1.28713995e-002 1.29085016e-002
      2.04569940e-002 -2.84755975e-002 -1.09479309e-003 1.43075902e-002
      -2.18285006e-002 2.77038058e-003 -1.58021916e-002 1.36818830e-002
      -4.23442340e-003 -1.26099456e-002 7.93834124e-003 4.81323898e-003
      5.73965535e-003 -9.12198052e-003 -4.51457733e-003 -5.75327724e-002
      -8.46660323e-003 -3.62110846e-002 2.10743025e-002 1.81211382e-002
      5.87610714e-003 -1.49379345e-002 -8.04269873e-003 1.60157643e-002
      8.84833978e-004 2.29250028e-004 5.04728919e-003 6.38854166e-004
      -1.55474870e-002 -1.19930599e-002 1.84871778e-002 -7.86470063e-003
      4.82622022e-003 -4.40118276e-003 3.13288122e-002 -1.31147597e-002
      -6.93873502e-004 -3.05717010e-002 -7.69285311e-004
      -4.02385282e-004 1.26638236e-002 -6.33397549e-002 -5.00031654e-003
      1.79630388e-002 1.76952649e-002 2.60672625e-003 1.87857505e-002
      -4.43271222e-003 2.12081298e-002 -1.31928297e-002 2.47755982e-002
      -2.65119560e-002 -1.27265146e-002 8.59409105e-003 -2.98607815e-002
      -1.62674487e-002 -1.92060340e-002 -1.87741537e-002
      -4.38172510e-003 -1.85158122e-002 -2.84020398e-002 9.38128098e-004
      2.14034803e-002 2.37858668e-002 4.21990529e-002 6.50424976e-003
      3.92350089e-003 -7.57045171e-004 1.86855288e-003 -5.37666120e-002
      1.76216513e-002 2.93563362e-002 -2.87298691e-002 3.84804225e-005
      -3.71285249e-003 -7.55115598e-003 -8.10564868e-003 1.06698284e-002
      1.11805676e-002 -2.53775939e-002 2.47027818e-002 -1.05098439e-002
      -8.55895877e-003 1.36683311e-003 2.25438792e-002 2.19142362e-002
      -3.40674967e-002 1.15795331e-002 -1.41907902e-002 -2.65034940e-002
      5.00521529e-003 1.76907834e-002 1.41246608e-002 -6.09845258e-002
      -2.46124268e-002 9.90720373e-003 2.34649261e-003 4.49449345e-002
      7.71907484e-003 -8.89641698e-004 2.65245489e-003 -9.20993462e-003
      -1.11715859e-002 -1.31979641e-002 -7.04103848e-003 2.42744014e-002
      -2.75381608e-003 1.99336163e-003 1.70208700e-002 9.09318589e-003
      -1.05914231e-002 -7.82265142e-003 -1.07155312e-002 2.11083032e-002
      9.44661349e-003 -1.18373921e-002 3.84572037e-002 2.85755731e-002
      -2.44835820e-002 -3.63321900e-002 2.01562811e-002 2.48943316e-003
      1.02118030e-002 -1.16097890e-002 -8.06251261e-003 -2.44955104e-002
      -2.32383423e-002 -2.16901279e-003 -9.60894860e-003
      -4.00795415e-002 -9.63570492e-004 1.10396771e-002 1.84022496e-003
      -1.12842731e-002 -7.90963508e-003 1.78349335e-002 2.39244895e-003
      2.78494302e-002 -4.88286326e-003 -8.90111644e-003 9.17112362e-003
      -8.46012961e-004 -8.64233542e-003 2.79952921e-002 9.23874043e-003
      -1.69913471e-002 9.96561907e-003 -3.04745114e-003 -2.30944641e-002
      3.23461671e-003 -2.46541388e-003 2.01856140e-002 -2.66592074e-002
      -5.23220166e-004 1.33108404e-002 9.05041490e-003 5.56884473e-003
      -1.20958034e-002 1.32857524e-002 -5.20020397e-003 -9.74525418e-003
      9.58876126e-003 -6.96176896e-003 -1.82187017e-002 -9.43341758e-003
      9.48594604e-003 -1.63927600e-002 -1.63326191e-003 2.76566856e-003
      1.73181994e-003 4.06399951e-004 -1.33691765e-002 -1.14680734e-002
      -3.12454160e-002 -2.23469976e-002 5.94138307e-003 3.48942429e-002
      3.34270112e-003 3.88324424e-003 1.69602409e-002 -3.99620794e-002
      -1.95352603e-002 1.14719542e-002 1.50308283e-002 1.47579703e-002
      -1.84348119e-005 -1.67772565e-002 -1.61107499e-002 6.80057798e-004
      1.87920742e-002 -5.51839545e-003 9.97332577e-003 1.14980936e-002
      -2.54838411e-002 -6.56395871e-003 -3.22135910e-002
      -3.02738324e-003 4.42029163e-003 1.76007412e-002 1.06373196e-002
      -5.65808779e-003 3.24818306e-003 1.51539664e-003 -8.43960699e-003
      2.02258509e-002 -5.56228170e-003 -6.22345181e-003 -6.95948163e-003
      -4.18762350e-003 1.28706954e-002 -1.65532641e-002 -1.59398460e-005
      3.14543098e-002 -1.27324481e-002 1.45696551e-002 1.73055939e-002
      2.27641817e-002 2.89136469e-002 -2.19018571e-002 1.58007897e-003
      -2.73527182e-003 1.24840615e-002 1.75937191e-002 -2.23805625e-002
      1.15860375e-002 1.30464574e-002 2.88591441e-002 8.23373813e-003
      8.92379135e-003 -3.11093498e-002 -8.05322954e-004 -7.87365716e-003
      -6.37327926e-003 7.16319494e-003 -4.94843535e-003 4.60757827e-003
      -5.05148508e-002 8.57897848e-003 -2.92604789e-002 7.88306352e-003
      2.20288690e-002 2.63159890e-002 1.09988339e-002 1.58215971e-005
      -2.80453544e-002 -1.54922518e-003 -1.37388986e-002
      -2.35627294e-002 -1.65516883e-002 1.15563599e-002 2.91500031e-003
      2.80953813e-002 -2.42058504e-002 1.26560824e-003 -2.48893537e-002
      1.59283970e-002 -2.04982329e-002 -3.02279112e-003 -1.76114608e-002
      -1.58726983e-002 1.01155788e-002 1.30769731e-002 9.50135477e-003
      2.10129954e-002 -7.39594316e-003 1.81624340e-003 2.32329872e-002
      -1.83773955e-004 -6.74659014e-003 2.36594640e-002 2.78753159e-003
      7.02218758e-003 -1.11268135e-002 -5.97628718e-003 -7.87946768e-003
      -1.93272688e-004 -1.28431432e-002 2.13808361e-002 -2.20534950e-002
      3.71173061e-002 -8.92388821e-003 6.87932409e-003 -9.26694460e-003
      8.06564279e-003 1.65681839e-002 2.92908936e-003 -3.91070452e-003
      2.40811091e-002 -1.00126304e-003 2.26180106e-002 -1.79001670e-002
      7.35568721e-003 -1.14671784e-002 -9.78181604e-003 -1.23352362e-002
      3.12350015e-003 7.94839673e-003 3.93845048e-003 -2.81530526e-002
      1.00272596e-002 -2.93791834e-002 -6.68336963e-003 1.26944548e-002
      1.46457897e-002 -1.06075974e-002 2.02431008e-002 -2.07628291e-002
      2.89270934e-003 1.83429737e-002 1.91960540e-002 4.74473722e-002
      1.16945980e-002 4.37772460e-003 3.49744852e-003 5.96000161e-003
      9.05258115e-003 -1.65880136e-002 7.23790657e-003 1.53361009e-002
      -1.34942413e-003 1.80149674e-002 1.45161273e-002 -5.21924207e-003
      -7.78937712e-003 7.98182620e-004 4.69768560e-003 -1.39331967e-002
      2.22943276e-002 1.93810230e-003 -5.98820811e-003 -6.06358331e-003
      1.39544159e-003 -7.13047152e-003 2.56217048e-002 -3.20060067e-002
      7.33249914e-003 4.58375644e-003 -4.95853228e-003 2.69996002e-002
      -1.69762578e-002 -1.89442448e-002 -1.02365799e-002 1.74186993e-002
      8.16310756e-003 2.88530579e-003 2.32377294e-002 6.97382400e-003
      2.61968318e-002 2.22684108e-002 2.38372479e-002 -6.31304597e-003
      1.71275325e-002</_>
    <_>
      1.21893361e-002 4.25733440e-003 7.74608401e-004 9.13857762e-003
      -3.68682370e-002 1.62587930e-002 -4.92853485e-003 6.02933858e-003
      -1.53421396e-002 1.10351071e-002 -6.77913008e-003 2.61391904e-002
      1.10906537e-003 1.01272427e-002 -1.46877486e-003 1.15110609e-003
      -5.16728591e-003 7.47103477e-003 -1.42083736e-002 7.70556927e-003
      -1.10552588e-003 9.09728836e-003 -9.25166626e-003 -7.60640425e-004
      8.89742281e-003 1.03787417e-002 5.14846668e-003 1.24607589e-002
      7.93850701e-003 -6.87444303e-003 7.07277190e-003 5.09523274e-003
      -6.09229365e-003 -1.30453827e-002 1.23297628e-002 7.84475729e-003
      -4.40986973e-004 8.07531271e-003 4.25127288e-003 -5.79224341e-003
      -4.26762225e-003 -3.36969942e-002 9.61743109e-003 2.31526028e-002
      -1.52287993e-003 -1.58073765e-003 -1.36147598e-002 4.30193264e-003
      1.17984181e-002 -9.91841499e-003 -2.95589101e-002 -5.81806991e-004
      -5.95178315e-003 -7.92867690e-003 -1.62811894e-002 2.52487976e-003
      7.74391275e-003 -2.78316694e-003 -1.06117758e-003 5.79170836e-003
      -2.13362444e-002 -1.77695416e-002 -7.70514552e-003
      -1.93231106e-002 1.08912736e-002 -7.99964834e-003 1.04619274e-002
      -7.92046729e-003 -5.54213673e-003 -2.76453234e-003 7.75334891e-003
      -1.03515023e-002 1.24556590e-002 4.26303316e-003 1.08196139e-002
      -4.19989135e-003 -1.22006040e-003 2.10713372e-002 -1.06412219e-002
      1.99605362e-003 -2.71306280e-003 1.24356812e-002 -9.36951314e-004
      3.86935137e-002 5.07345598e-004 -1.67441983e-002 -1.30310869e-002
      -2.17065383e-002 -4.10595816e-003 -1.14537375e-002
      -6.30704733e-003 9.00006387e-003 -8.97565577e-003 -1.71089137e-004
      1.42551493e-002 9.20147577e-004 7.83513021e-003 -1.46734910e-002
      1.67902524e-003 -2.82997992e-002 -1.28242467e-002 -2.24727904e-003
      -1.82357337e-002 -2.61728261e-002 -9.66439862e-003
      -1.27603859e-003 -2.04928946e-002 4.79420042e-003 -4.17365506e-003
      -1.09383911e-002 1.35120098e-002 1.28976144e-002 4.20922088e-003
      -7.36166025e-003 2.72014039e-003 -3.39642726e-002 3.17618530e-003
      -2.20314972e-003 5.84496558e-003 9.15733073e-003 -1.62168685e-002
      -1.19480945e-003 -1.17165847e-002 -1.84578840e-002
      -6.55472884e-003 -1.49624294e-003 4.80260281e-003 -2.20115259e-002
      4.41770907e-003 -4.94137406e-003 -1.63716841e-002 4.45914408e-003
      -6.66546682e-003 1.27482358e-002 1.84920186e-003 1.27647156e-002
      -1.15619274e-002 2.68132892e-002 1.82152912e-002 -2.84119276e-003
      5.10719721e-004 -2.70556174e-002 -1.62960566e-003 5.45673817e-003
      1.02676963e-003 1.18120192e-002 -1.31948860e-002 6.95654831e-004
      -8.81066371e-004 -1.17534306e-002 -1.14499461e-002
      -1.81986690e-002 8.35340004e-003 1.20627694e-002 3.80146038e-003
      -1.07669933e-002 1.01241972e-002 1.36963949e-002 2.25655269e-003
      -7.72869028e-003 -1.99078117e-002 8.25448614e-003 -1.75416609e-003
      -1.38527865e-003 5.24830213e-003 -4.39666770e-003 -4.56422986e-003
      -1.15402639e-002 9.36840754e-003 2.48247827e-003 6.07494789e-004
      2.94595631e-003 -1.86359771e-002 -7.86471367e-003 -8.71685892e-003
      1.14266323e-002 -9.47949756e-003 -3.04969563e-003 -1.58043243e-002
      4.47298866e-003 5.62769687e-003 -1.26434136e-002 4.48779389e-003
      -1.10150455e-003 9.86367231e-004 -1.83188450e-002 -6.08702144e-003
      5.34036150e-003 1.94572508e-002 -5.70922624e-003 -1.52252680e-002
      -1.10151619e-002 1.28295245e-002 -5.33377565e-003 -1.28564481e-002
      -2.61347601e-003 -4.93619731e-003 1.75386146e-002 -4.35808068e-003
      4.33408655e-003 2.16233660e-003 6.19830377e-003 1.01691736e-002
      1.64375938e-002 5.98722557e-003 -1.05766924e-002 -8.20870220e-004
      -3.11799161e-003 -9.45951696e-003 1.06709925e-002 6.78409683e-003
      -1.38784316e-003 3.40313092e-003 2.05689948e-002 -2.86282832e-003
      -8.28463677e-003 2.44840654e-003 1.09029999e-002 -1.71263586e-003
      -5.70165925e-003 -2.25846376e-002 -8.19267146e-003
      -2.05221027e-002 -7.96606531e-004 1.18327662e-002 1.58495177e-002
      -3.01311887e-003 -3.34094800e-002 -1.14005525e-002
      -7.98870344e-003 5.73663041e-003 -4.32641566e-004 2.10531596e-002
      4.92776372e-003 5.90604451e-003 -3.58270481e-002 -1.45419482e-002
      2.00775964e-003 -1.07682915e-003 1.34108737e-002 -7.25151086e-003
      -2.87398323e-002 9.94882826e-003 8.64969450e-004 2.75253579e-002
      -2.43439083e-003 -2.59679509e-003 4.48574871e-003 -4.98553272e-003
      -1.01300073e-003 2.65737157e-003 1.54904472e-002 -7.88888987e-003
      1.24952868e-002 2.75208335e-003 1.30950278e-002 -6.78847078e-003
      6.17069146e-003 7.41930678e-003 -1.81878614e-003 7.35232793e-003
      -3.87216988e-003 -1.07739568e-002 1.29846726e-002 3.70504358e-003
      -7.59902643e-004 -7.51422998e-003 -1.22108078e-002 5.78507734e-003
      -1.16539951e-002 9.42679308e-003 -7.21504819e-003 1.16762230e-002
      1.91357650e-003 6.82393031e-004 -1.53111182e-002 1.45922806e-002
      -3.19978758e-003 -8.39180313e-003 1.85761545e-002 -3.94040123e-002
      -4.43807058e-003 -1.58041231e-002 5.79339825e-003 3.02258832e-003
      1.38566783e-002 -2.09883302e-002 -3.60212580e-004 4.06772364e-004
      -7.10755819e-003 8.76508374e-003 -3.03300889e-003 1.73696247e-003
      -1.31945778e-002 -1.37609756e-002 -6.06201403e-003 1.35662202e-002
      8.14757776e-003 1.48464413e-002 2.43336037e-002 -4.23659896e-003
      -5.29008510e-004 2.67481967e-003 -1.57459651e-003 -6.23255037e-004
      -2.08143750e-003 1.26934163e-002 1.12865749e-003 5.57379564e-003
      1.77043844e-002 7.79416296e-004 6.40211022e-003 1.95851363e-002
      -3.32886213e-003 8.42936244e-003 1.49087096e-002 3.88815021e-003
      8.77426378e-003 1.21483048e-002 3.27263679e-003 -6.40035234e-003
      1.53224776e-003 5.83285466e-003 1.07766483e-002 -2.84506157e-002
      4.45803441e-003 1.02463193e-004 9.83240921e-003 -8.80214199e-003
      -2.38088164e-002 -1.09328628e-002 7.26988912e-003 9.11647920e-003
      -1.74625835e-003 -2.25137221e-003 -4.97628469e-003 8.20037816e-003
      -3.36416345e-003 1.74387842e-002 1.52609905e-003 1.79960839e-002
      -2.90301233e-003 -2.11481098e-002 2.59738718e-003 4.60939435e-003
      1.09097185e-002 -3.32962582e-003 -5.32644615e-003 -1.41774723e-002
      -4.13070573e-003 4.12772829e-003 -1.20971370e-002 -1.23530598e-002
      5.42900618e-003 -9.00387485e-003 5.63372299e-003 -4.79477691e-003
      -1.77167095e-002 1.83349159e-002 -5.86942118e-003 1.04209203e-002
      -1.19448919e-002 3.15944129e-003 2.50614434e-003 3.54887289e-003
      -1.68407150e-003 -1.50754547e-003 -1.58952102e-002 2.37142425e-002
      9.20972321e-003 -8.76835454e-003 3.36989947e-003 -4.59676562e-003
      -1.10792071e-002 1.83008164e-002 1.47193279e-002 -3.81607260e-003
      -1.74206086e-002 -7.30545586e-003 -1.10645052e-002
      -1.44422604e-002 -8.33027437e-003 -9.03630909e-003 9.13070049e-003
      1.85423568e-002 -1.99965341e-003 8.13396834e-003 -2.54236953e-003
      -4.57561854e-003 -3.24256555e-003 -1.60916615e-002 1.01311654e-002
      -7.93252140e-003 7.29854638e-003 -7.53284246e-003 1.21978428e-002
      1.23015074e-002 7.24137388e-003 -4.97061945e-003 -4.80769482e-003</_>
    <_>
      8.20918567e-003 4.64765169e-003 1.17689907e-003 6.74353866e-003
      -5.21467952e-003 -1.19168358e-002 -1.25547713e-002
      -1.05371624e-002 2.85574179e-002 -7.08540296e-003 -1.45460637e-002
      -4.11911914e-003 1.51379239e-002 1.60849914e-002 -2.00255327e-002
      1.65896975e-002 -1.34829022e-002 3.59896235e-002 -7.72314379e-003
      -3.79999471e-003 -9.27749649e-003 -5.98905282e-003
      -1.55241601e-003 -3.93462181e-003 9.11079254e-003 -2.49752365e-002
      1.06911287e-002 1.88095644e-002 1.74479689e-002 4.81381640e-003
      7.57011876e-004 -2.51602922e-002 5.96927200e-003 -3.80384387e-003
      7.12505775e-003 -1.80911869e-004 -2.15189112e-003 -3.28807463e-003
      -6.53931266e-003 3.45899351e-003 -6.20255072e-004 6.03898312e-004
      2.56972834e-002 2.59179715e-002 -1.22654093e-002 1.08723054e-002
      1.11935278e-002 1.52257346e-002 5.93807921e-003 -1.56036317e-002
      -1.92341618e-002 1.79502293e-002 -2.34146677e-002 -2.25656293e-002
      -2.43048649e-002 -5.45360055e-003 3.68241780e-003 -1.85222260e-003
      -9.75765008e-003 -8.46388564e-003 3.07302386e-003 2.31041778e-002
      -9.03304759e-003 -2.49364153e-002 8.40815715e-003 8.53462610e-003
      1.56143652e-002 -2.20020097e-002 -1.66337620e-002 1.44551499e-002
      -4.45202319e-003 1.04312059e-002 5.83482254e-003 2.14087814e-002
      4.03936766e-003 2.26408597e-002 -2.17618374e-003 3.72721888e-002
      -7.52763730e-003 4.37438628e-003 -8.72327294e-003 3.66657507e-003
      2.63520367e-002 -1.85883231e-002 1.64338090e-002 -1.34254526e-002
      -3.58216427e-002 -1.63329188e-002 4.37036809e-003 7.27349380e-003
      7.48666096e-003 -1.47288619e-002 -1.08516756e-002 2.04853378e-002
      7.43296929e-003 -3.27304155e-002 2.57118652e-003 -1.74825769e-002
      2.37128865e-002 1.10547272e-002 -3.15417419e-003 1.06817496e-003
      -1.69494897e-002 -8.54315935e-004 2.20946316e-003 1.95214117e-003
      2.39455272e-002 2.88371602e-003 -2.31219288e-002 -3.54959518e-002
      2.85555087e-002 2.26905216e-002 1.97984204e-002 -3.47006954e-002
      1.02450484e-002 -1.92369800e-002 1.86102220e-003 -3.03945951e-002
      5.76421269e-004 1.26920722e-003 -1.39250327e-002 -3.77582444e-004
      -9.54119768e-003 -2.16082297e-002 3.56348953e-003 -1.25569291e-002
      -1.61420275e-002 -3.29870619e-002 1.39579205e-002 -9.52795334e-003
      -4.20490876e-002 -7.33693189e-004 -1.65017694e-002 2.62465812e-002
      3.13643962e-002 3.83878825e-003 -3.94894592e-002 -4.53178538e-003
      1.68548003e-002 1.16347987e-002 4.23924513e-002 -4.57195714e-002
      -4.33533303e-002 1.92272067e-002 1.32693807e-002 4.44363011e-003
      -2.78916247e-002 -2.26379349e-003 -2.15811618e-002 8.11324455e-003
      -1.17646465e-002 -3.15416767e-003 6.28264202e-003 2.58066319e-003
      7.32640084e-003 -4.68215309e-002 6.58246630e-004 1.75288897e-002
      -2.15449114e-003 -2.57104523e-002 -3.14413235e-002 3.02997790e-002
      -6.65987469e-003 4.86446312e-003 8.92232452e-003 1.36150056e-002
      7.28694489e-003 -1.82099678e-002 3.38035380e-003 9.96292382e-003
      1.53673878e-002 1.66871473e-002 1.28481369e-002 -1.75931137e-002
      -4.75737974e-002 -1.87958628e-002 1.08733894e-002 -1.48654953e-002
      8.93955026e-003 1.78910382e-002 1.57411601e-002 9.85817984e-003
      2.31613610e-002 3.85197159e-003 5.47154015e-003 8.65205470e-003
      -2.08097454e-002 1.27937397e-004 -3.35917855e-003 -7.67348893e-003
      -1.68238450e-002 -9.91661474e-003 6.02931110e-003 -3.90164414e-003
      -2.16900483e-002 -1.53861940e-002 -3.79151925e-002 2.03829296e-002
      3.03618773e-003 -1.48540474e-002 -3.36650237e-002 -3.28260404e-003
      -2.06586290e-002 3.58176120e-002 8.66508111e-003 1.02960784e-003
      -2.38214899e-003 1.77181922e-002 -1.63728818e-002 2.35910919e-002
      -5.97406328e-002 1.93121994e-003 6.93299249e-003 -9.01817903e-003
      -3.00612617e-002 -4.70970431e-003 -8.20811745e-003 2.89138518e-002
      -7.85107608e-004 -3.13787013e-002 -3.72439362e-002
      -1.22904982e-002 1.87616516e-002 -5.35553042e-003 2.55447756e-002
      -2.63258372e-003 1.21432142e-002 -2.63683090e-004 -1.89452455e-003
      -2.61864183e-003 1.70864407e-002 1.10768881e-002 1.09210610e-002
      -3.07359304e-002 -3.38500589e-002 1.09707769e-002 4.66910843e-003
      1.89164281e-002 -3.91593715e-003 -1.65422056e-002 6.12258958e-003
      -1.22423284e-002 3.11019346e-002 -1.21694235e-002 5.70210628e-003
      -9.01021995e-003 -1.15313390e-002 3.95682529e-002 2.34275218e-003
      2.67162267e-003 -1.00624729e-002 1.49425082e-002 2.15765703e-002
      -1.06117958e-002 -1.57839209e-002 -1.25619443e-002
      -2.52526198e-002 2.33588051e-002 -1.98171497e-003 -2.08627223e-003
      1.29517484e-002 1.45689985e-002 -4.07653153e-002 1.14082275e-002
      1.56013826e-002 -1.77150499e-002 1.55711826e-002 -1.98676866e-002
      -2.97939014e-002 -4.95151384e-003 -3.65436040e-002
      -1.05296709e-002 2.67183408e-002 1.80727188e-002 -1.28849940e-002
      1.18885748e-003 -8.78675748e-003 -4.63559851e-002 -9.57416929e-003
      -1.11181252e-002 -2.52236314e-002 -5.49466489e-003
      -5.51620126e-003 8.39948002e-003 -1.71688702e-002 3.01172696e-002
      -6.50910288e-003 1.58327650e-002 2.30012578e-003 2.34692097e-002
      -6.53219270e-003 -1.10549368e-002 -1.92925595e-002
      -3.39198038e-002 -4.38881367e-002 -8.91370326e-003 1.31817104e-003
      -9.43838246e-003 1.16298255e-002 1.30916564e-002 5.75012341e-003
      2.03274153e-002 -1.18546542e-002 1.14136403e-002 -1.68388821e-002
      3.06263287e-002 -1.69334607e-003 1.39515921e-002 2.15556901e-002
      1.71138234e-002 9.96774714e-003 1.13036335e-002 -4.16539935e-003
      -1.92678235e-002 -5.39386971e-003 -8.20861291e-003
      -1.76334195e-002 2.23560520e-002 -1.24276746e-002 1.87981743e-002
      -4.81507834e-003 2.98559875e-003 1.71667710e-002 3.99344281e-005
      1.01965226e-004 2.14173298e-004 -6.16517104e-003 1.75254103e-002
      -1.20642763e-002 -1.70516372e-002 -6.02600863e-003 7.35165831e-003
      6.94084633e-003 1.30994804e-003 -2.47455947e-002 2.97266594e-003
      -2.37616990e-003 2.57817050e-003 2.19417140e-002 -2.65293624e-002
      -2.05264008e-003 -6.31673448e-003 -3.04938946e-003 3.31197008e-002
      5.77935111e-003 -1.38708279e-002 -1.54253552e-002 -1.16155315e-002
      -1.54730640e-002 2.16275994e-002 2.89751403e-002 3.47446613e-002
      -5.51794330e-003 2.74008926e-004 8.80886149e-003 2.15801829e-003
      9.55094304e-003 7.21133547e-003 4.01765779e-002 -3.04429084e-002
      -2.06363220e-002 -1.40495682e-002 1.87399816e-002 9.29551851e-003
      2.62091588e-002 -6.53629005e-003 -1.77642461e-002 1.00898379e-002
      -1.23931626e-002 -5.83275594e-003 2.88717151e-002 -7.86527712e-003
      7.42498925e-003 -3.60417627e-002 2.43946519e-002 -9.47553292e-003
      -3.66683654e-003 -1.69324055e-002 2.18484364e-003 -2.18732860e-002
      -1.37319770e-002 -1.17996493e-002 -8.56673345e-003 8.76208954e-003
      2.41955146e-002 -2.65287552e-002 2.37892885e-002 5.72944060e-003
      6.33757701e-003 -2.99813866e-004 -1.64106209e-002 -1.04556959e-002
      -5.85655449e-003 1.13699958e-002 1.97772626e-002 1.36725307e-002
      5.49165625e-003 2.26883125e-003 1.76332127e-002 -3.68540920e-002</_>
    <_>
      1.28233619e-002 5.14896913e-003 -1.22191058e-002 1.84107684e-002
      -1.42196976e-002 1.53509602e-002 -6.82868576e-003 -1.70189142e-002
      -2.28059580e-004 1.41188260e-002 -8.37075617e-003 2.54238266e-002
      5.43031981e-003 3.95703624e-004 -2.07735947e-003 1.35410596e-002
      2.38005351e-003 1.07534612e-002 -2.00195536e-002 -2.43030256e-003
      9.71126091e-003 5.92569727e-003 -2.30743550e-002 -1.45266326e-002
      9.70550254e-003 1.47057995e-002 9.37159173e-003 9.95279942e-003
      4.40162281e-003 -5.19654574e-003 2.34475615e-003 -1.27717359e-002
      -2.47416571e-002 1.59537792e-003 6.51392713e-003 5.51133277e-003
      -1.02449078e-002 9.06452187e-004 -2.47477577e-003 7.59078655e-003
      -2.55827885e-003 4.29924752e-004 4.01011528e-003 1.83582120e-002
      -1.27885980e-003 -4.10273951e-003 -3.44356592e-003 8.83870479e-003
      7.35068461e-003 1.06668081e-002 -1.96359074e-003 1.16799530e-002
      1.48979444e-002 1.04659526e-002 -5.49878739e-003 1.05094584e-002
      -8.31141137e-003 1.22476311e-003 -9.43969563e-003 8.11025966e-003
      1.13934930e-002 9.41798650e-003 8.26920848e-003 -7.63486093e-003
      2.38415858e-004 -1.00501850e-002 -1.53605593e-003 1.82768184e-004
      -7.64995301e-003 -8.72470066e-003 -1.29010538e-002
      -3.69556597e-003 -3.48595809e-003 5.76656894e-004 1.72433574e-002
      4.13875841e-003 -5.25970990e-003 2.32398361e-002 2.86454777e-003
      1.27314990e-002 1.60184950e-002 1.21773593e-002 -6.16955524e-003
      1.63510963e-002 1.32378889e-002 -1.91531982e-002 -1.22339251e-002
      -1.78963635e-002 -7.89524405e-004 1.71681831e-003 2.68092123e-003
      -7.95809459e-003 -2.55877036e-003 3.01517104e-003 1.45930601e-002
      3.44658713e-003 5.59586659e-003 -2.88226549e-003 -4.15394036e-003
      -1.68178435e-002 2.72913440e-003 -4.21957206e-003 -1.49412383e-003
      -6.78470638e-003 -2.58614756e-002 -8.76810343e-004
      -2.24186573e-003 1.38598951e-002 -1.81289986e-002 -1.18054310e-003
      -4.24311450e-003 2.02667322e-002 2.39848232e-004 -8.08987860e-003
      9.30725969e-003 -2.11735144e-002 8.52046814e-003 -2.05282811e-002
      -7.97623536e-004 -1.36901345e-002 -1.10818364e-003
      -1.67166963e-002 3.62728746e-003 -2.02701911e-002 -6.54468546e-003
      4.84389393e-003 4.43614461e-003 -6.36089081e-003 1.95269808e-002
      -9.84426960e-003 -4.29205876e-003 -5.10915928e-003
      -2.53241276e-004 1.28963105e-002 -1.43206408e-002 9.52108647e-004
      -2.73555629e-002 -1.29068107e-003 4.45648842e-003 2.28394149e-003
      -1.91651902e-003 -7.81415403e-003 -6.77302992e-003
      -1.61312073e-002 5.73794404e-003 8.25862400e-003 -4.12039430e-004
      1.25505561e-002 8.62343702e-003 1.14865843e-002 -1.75563451e-002
      -1.85102690e-002 1.13824848e-002 1.23310294e-002 1.76924936e-004
      -1.56432409e-002 -1.48111524e-003 2.62986752e-003 1.19188419e-002
      2.45800213e-004 -1.69427488e-002 2.11337879e-002 5.32824034e-003
      6.08632108e-003 1.66082140e-002 1.15936864e-002 -7.60027906e-003
      -1.07907029e-002 -2.56663095e-003 -1.46173872e-002 2.34498014e-003
      1.76749867e-003 -8.19658209e-003 -1.76130496e-002 -1.67666208e-002
      1.03674838e-002 -2.11047940e-002 -1.08520938e-002 3.93326487e-003
      1.46717569e-002 2.00027041e-003 -5.09705301e-003 2.72179674e-003
      2.06667557e-003 1.00345816e-002 1.02803381e-002 4.28302120e-003
      -8.49251077e-003 -1.31155765e-002 1.28649492e-002 -8.49199574e-003
      7.68893864e-003 -7.81498011e-003 -1.15571851e-002 -7.66012073e-003
      1.62456150e-003 6.52376516e-003 8.52430612e-003 -3.36403633e-003
      -1.42342709e-002 -1.90811474e-002 -2.13398319e-002 1.04876291e-002
      6.44807005e-005 2.52405973e-003 1.34668627e-003 -4.07267176e-003
      -1.98505204e-002 -1.51548898e-002 -1.13958502e-002
      -7.90714112e-004 -1.11328810e-002 -1.63127650e-002
      -1.66169871e-002 -1.58400945e-002 4.21333313e-003 -1.46772312e-002
      1.16001992e-002 -1.05385520e-002 -1.11416047e-002 -9.04150028e-003
      -2.70920396e-002 3.36880493e-003 -3.45856673e-003 1.32719809e-002
      8.46823119e-003 7.68919429e-003 -2.32055858e-002 -6.29341742e-003
      1.63342021e-002 -4.58511495e-004 -6.51522493e-003 1.16200605e-003
      -1.00084264e-002 -1.75228268e-002 7.28110317e-003 5.19831385e-003
      4.59022308e-003 -2.47865822e-002 -1.91977620e-003 1.02903051e-002
      -1.69074293e-002 2.21791305e-003 -4.00201939e-002 8.74837302e-003
      1.02547184e-002 3.19523830e-003 8.71123280e-003 1.89936887e-002
      -7.96617125e-004 2.64768535e-003 -2.80980743e-003 1.52785135e-002
      5.50951483e-003 -2.53397580e-002 -2.20276639e-002 -1.76647827e-002
      1.02921491e-002 7.00213201e-003 -1.35381259e-002 1.95377553e-003
      6.28215354e-003 6.50586374e-003 2.46903878e-002 2.49622483e-003
      -5.08311391e-003 9.68503766e-004 -8.93443357e-003 -3.66691663e-003
      -6.85428781e-003 7.09250744e-005 -1.13495709e-002 -6.20000937e-005
      1.84233906e-003 1.12742614e-002 -1.60215069e-002 -1.31201483e-002
      -1.53971324e-002 -1.81251876e-002 -1.64785720e-002
      -2.36785579e-002 3.47781507e-003 -2.72733788e-003 -5.73182199e-003
      5.37108723e-003 2.80825235e-003 -6.30737888e-003 3.51697695e-003
      -4.36474476e-003 5.25943283e-003 -7.49015203e-003 1.08119082e-002
      2.37951847e-003 -9.70265456e-003 -6.21103775e-003 -8.31898861e-003
      7.34134158e-003 9.36667318e-004 5.91921248e-003 5.85120823e-003
      7.46090850e-003 7.75514124e-003 3.94146377e-003 4.63557895e-003
      -6.57055993e-003 6.36769971e-003 -1.11700175e-003 9.92311817e-003
      7.05262600e-003 5.83948754e-003 -7.70724437e-004 -3.32479575e-003
      1.37450797e-002 -9.35118180e-003 8.70947819e-003 1.05508836e-002
      -3.37392418e-003 4.26050881e-003 1.67062215e-003 6.10591844e-003
      -1.64539833e-002 -1.22371437e-002 -7.17021013e-003
      -9.82921105e-003 -5.90016041e-003 1.13356393e-002 1.39262946e-002
      1.57221686e-002 -1.15327695e-002 -4.56901267e-003 -6.26441091e-004
      3.12987226e-003 2.47955951e-003 -5.18417824e-003 8.98039155e-003
      1.58856492e-002 -2.67955032e-003 -1.60201557e-003 -6.87975064e-003
      1.08247418e-002 -6.14134315e-003 -1.04728267e-002 1.94422260e-003
      2.06695776e-002 1.20927747e-002 -2.37531448e-003 -2.34832764e-002
      -1.01824640e-003 -3.27380747e-002 -7.57943327e-003 9.29372106e-003
      1.59963537e-002 -1.19335745e-002 -5.51438611e-003 -2.11574621e-002
      4.61429218e-003 2.14496739e-002 -1.79242846e-002 2.56987903e-002
      -8.27224087e-003 1.28363405e-004 -9.40946303e-003 1.42985582e-002
      1.15239080e-002 5.51404897e-003 -1.42629340e-003 -3.12360213e-003
      -4.26919013e-003 1.11512728e-002 -3.53498105e-003 3.62338894e-003
      -5.52110886e-003 1.19468067e-002 -2.00210102e-002 -1.98118147e-002
      1.30413827e-002 -5.32850216e-004 -3.33610992e-003 -1.11814933e-002
      -1.38270750e-003 -1.39244343e-003 2.08525197e-003 5.71818091e-003
      7.70869991e-003 4.42237221e-003 -1.14681078e-002 2.32349895e-002
      4.23887838e-003 -2.17868555e-002 3.32460483e-003 -3.63294892e-002
      1.01582110e-002 1.15260435e-003 -2.01654737e-003 2.03476902e-002
      5.07686380e-003 1.34690385e-002 8.94186459e-003 4.36599413e-003
      -3.67293227e-003</_>
    <_>
      1.48794297e-002 -4.30988707e-003 7.62815634e-003 1.11386962e-002
      -2.92765871e-002 -1.72323501e-003 -6.07128814e-003 1.11012459e-002
      2.22354438e-002 7.35254958e-003 -3.74982716e-003 2.56139915e-002
      -6.33646222e-003 8.82139802e-003 8.13864055e-004 -5.18729305e-003
      -3.15754749e-002 -6.79180771e-003 -2.04497878e-003 3.62105318e-003
      -1.08021246e-002 -1.05294050e-003 3.22316680e-003 2.57013156e-003
      1.03881825e-002 -1.04414020e-002 8.52130819e-003 2.40796804e-002
      1.53962774e-002 -2.15000613e-003 5.37559565e-004 2.13399832e-003
      6.62916899e-003 -1.01695731e-002 2.56226473e-002 4.30508796e-003
      1.07764481e-002 -2.30482314e-003 -2.89967720e-004 5.90691203e-003
      3.18870327e-004 3.76154948e-003 1.57569926e-002 1.80120412e-002
      4.80494462e-003 2.82467576e-003 1.08492216e-002 1.76825542e-002
      -1.77005995e-002 -1.14245294e-002 -1.01175001e-002 3.78618104e-004
      -2.55025402e-002 2.08217694e-004 7.94302963e-004 -5.37748216e-003
      -6.55471394e-003 6.53008185e-003 -2.15796623e-002 4.55381756e-004
      -1.86063210e-003 7.18834391e-003 7.50322780e-003 -2.03905683e-002
      -1.64828785e-002 -2.00523026e-002 1.43907359e-002 -4.88693407e-003
      -2.18642801e-002 -1.33418599e-002 1.24058397e-002 1.51596051e-002
      3.04891784e-002 1.64650586e-002 -3.19709623e-004 8.62573087e-003
      -4.48919386e-002 1.73562802e-002 -4.80481423e-003 -3.27564497e-003
      -8.10326170e-003 8.12713429e-003 3.35844606e-002 1.11926990e-002
      1.34560931e-002 -6.90066069e-003 3.45370197e-003 -3.00917716e-004
      4.90025524e-003 -3.81853501e-003 -1.33937774e-002 1.02376575e-002
      9.42193030e-004 5.77020692e-003 1.68282278e-002 -9.18857846e-003
      -8.69429298e-003 -9.93771013e-003 1.82165559e-002 -5.52651379e-003
      -1.15699228e-002 -7.43754301e-003 1.02667483e-002 -2.74763834e-002
      1.15245888e-002 -2.44565569e-002 -3.32690612e-003 -4.39681998e-003
      -1.40460832e-002 -3.80222052e-002 1.72005780e-002 2.64895130e-002
      -3.71009088e-003 -1.76183984e-003 -1.12881688e-002
      -1.54674239e-002 1.30204400e-002 -2.61006784e-002 -2.31299503e-003
      4.80290706e-004 -2.79128621e-003 -1.85113940e-002 7.94745632e-004
      -1.97235737e-002 -6.65807771e-003 1.40211210e-002 -7.67666323e-004
      -2.69295815e-002 2.27598846e-002 -1.79174053e-003 -1.31651890e-002
      -1.55493617e-003 2.37676650e-002 -4.77374671e-003 5.01113525e-003
      -2.18515913e-003 -5.77375293e-002 -8.65074527e-003 2.17574313e-002
      7.79406819e-003 3.07403179e-003 -3.45342457e-002 -2.21921317e-002
      1.34407533e-002 9.53376293e-003 1.44194504e-002 -1.65210385e-003
      -4.46752924e-003 -1.12074846e-002 -4.96742688e-003
      -8.53194296e-003 -7.60304683e-004 -3.68378870e-002 1.19438702e-002
      2.58379849e-004 -2.07519066e-002 7.93227181e-003 4.35788138e-003
      1.63996574e-002 -3.27312313e-002 -1.52332177e-002 1.48012163e-002
      -5.18500023e-002 3.24359699e-003 2.06569135e-002 2.52607781e-002
      -1.89233804e-003 -9.38828010e-003 4.97747399e-003 -5.95720531e-003
      2.44317530e-003 -6.68392330e-003 5.10150474e-003 -1.48974396e-002
      -1.51664298e-002 1.54341469e-002 -1.11727146e-002 -1.89107493e-003
      -1.53556969e-002 1.97487567e-002 1.25389500e-002 7.58918189e-003
      5.35891624e-003 1.16091371e-002 6.51247567e-003 1.39300991e-002
      7.97087792e-003 9.51637048e-003 1.73684563e-002 6.78680046e-003
      -1.19103827e-002 1.07603716e-002 1.70642976e-002 2.59167026e-003
      7.21799443e-003 1.83895638e-003 -6.04679994e-003 2.14090366e-002
      -1.12131126e-002 5.33371232e-003 -1.01295402e-002 1.03266409e-003
      8.61087348e-003 -1.18072154e-002 -5.79417730e-003 -6.35144941e-004
      -1.08570317e-002 1.29315183e-002 -7.28732860e-003 1.11202700e-002
      -1.89213008e-002 2.00893972e-002 8.11392500e-004 9.80140269e-003
      -7.47279963e-003 1.33381821e-002 -1.45672392e-002 -1.12812978e-003
      -1.73977762e-002 -2.98547535e-003 -1.83938798e-002 1.33749507e-002
      -1.77525356e-002 1.13485074e-002 2.02988479e-002 -2.24910997e-004
      1.52673470e-002 -1.88051444e-002 1.04962727e-002 -9.56192554e-004
      -1.32412635e-004 1.23072341e-002 6.72646239e-003 -6.23841304e-003
      -8.52069724e-003 8.01605545e-003 3.98957403e-003 2.89157219e-003
      2.64315363e-002 3.00190272e-003 5.70193352e-003 -5.07607404e-003
      2.36151032e-002 -8.21153168e-003 2.88936077e-003 6.85277255e-003
      7.53192650e-003 1.08846668e-002 -2.95139998e-002 4.41733142e-003
      6.89131580e-003 1.55026866e-002 2.01804098e-002 1.23729566e-004
      -3.04599106e-002 -5.42470952e-003 -1.91613287e-002
      -4.94481483e-003 1.89525937e-003 -1.47424685e-002 4.94406279e-003
      -2.02705879e-002 6.10317383e-003 -2.59735789e-002 2.52083931e-002
      -5.49233332e-003 -1.09628011e-002 -5.73588349e-003 6.36000931e-003
      -1.57847330e-002 -1.13945510e-002 -2.09271330e-002 1.59102231e-002
      -4.70136944e-003 -2.46729003e-003 -1.89703703e-002 1.26701072e-002
      -8.77394341e-003 -5.22036012e-003 1.32207004e-002 -5.24071651e-003
      -5.13564004e-003 -2.00682841e-002 3.21876048e-003 -9.51118674e-003
      9.10947751e-003 -2.07414292e-002 4.71471250e-003 1.37578277e-002
      1.74801890e-002 -6.93474384e-003 5.04487846e-003 -1.06208278e-002
      -1.94333754e-002 3.13825207e-004 -1.45823904e-003 -1.49819162e-002
      5.25932584e-004 3.69287352e-003 1.31967114e-002 -6.82565616e-003
      -5.50133130e-003 9.97251272e-003 3.09997564e-003 -1.51571231e-002
      1.77623909e-002 -3.89268360e-004 -3.88870854e-003 3.13504227e-002
      -9.83219873e-003 -8.56627896e-003 5.24281349e-004 -1.68737099e-002
      -5.10445330e-003 1.34861320e-002 5.02665574e-003 7.42951827e-003
      1.64337475e-002 6.97203632e-003 7.78389396e-003 -9.10345279e-003
      -1.74957234e-002 1.41143473e-002 8.59877747e-003 -9.97085962e-003
      1.34162772e-002 -5.43696387e-003 1.86507758e-002 -7.50688976e-003
      -1.03395119e-004 1.49871735e-002 3.55707156e-003 8.28925800e-003
      -1.13675687e-002 -1.47863906e-002 1.10563217e-002 7.89755676e-003
      5.63837448e-003 4.93110716e-003 -1.12880161e-002 8.20806436e-003
      -8.24922230e-003 -3.33025679e-003 2.08637514e-003 2.05207244e-002
      -2.26779911e-003 -2.14322712e-002 -2.28532813e-002
      -1.46821206e-002 1.50925538e-003 -3.43899196e-003 1.68915428e-002
      1.42061664e-003 4.89365309e-003 -1.18209829e-003 1.82506405e-002
      -2.81545613e-002 1.22062992e-002 2.28546336e-002 7.97327701e-003
      9.60053410e-003 -4.60962253e-003 -7.85765145e-003 -3.05104069e-003
      5.85474260e-003 1.48900226e-002 -3.35811847e-003 -6.87321788e-003
      2.05860119e-002 -1.55983390e-002 5.52034983e-003 -2.30345391e-002
      2.36385866e-004 -1.19786579e-002 1.51909236e-002 1.41509464e-002
      -6.46864343e-003 -2.09265132e-003 -2.52305437e-002
      -8.30253772e-003 -1.41751012e-002 8.75902176e-003 -1.38791613e-002
      -6.60312362e-004 4.51936712e-003 1.32663622e-002 3.30331549e-002
      1.01237651e-002 -2.09780224e-003 -1.08572142e-002 -2.49846652e-002
      -5.59200486e-003 -1.43930316e-002 8.20183009e-003 6.06979709e-003
      8.32721312e-003 3.63624352e-003 2.79200030e-003 7.43197743e-003
      -1.93867914e-003</_>
    <_>
      -5.81082981e-003 -1.70223566e-003 -7.02132145e-003
      -6.66476600e-003 -2.39112917e-002 5.37062949e-003 -5.00962650e-003
      -1.38719333e-002 2.26830803e-002 -9.27556830e-004 -9.77431703e-003
      1.92284975e-002 -2.21347120e-002 1.08890068e-002 -7.47865858e-003
      -3.78179550e-003 1.29689882e-003 6.08246028e-003 -1.83666998e-003
      -1.25744510e-002 3.76575589e-002 3.75855458e-003 4.83366381e-003
      8.28336179e-003 -5.53052686e-003 -5.13391756e-003 4.10940126e-002
      -1.10765249e-002 2.93035137e-005 -2.87942751e-003 -1.00987544e-002
      -1.07728159e-002 -4.44494467e-003 -1.05259204e-002 1.72004979e-002
      -1.83166619e-002 4.17964673e-003 -9.99438204e-003 4.71496116e-003
      -2.34833322e-002 -9.25097056e-003 8.86602094e-004 -1.01053603e-002
      1.79966595e-002 -2.11720355e-003 1.35439942e-002 -1.61017012e-002
      1.37485024e-002 1.66293494e-002 -1.67470090e-002 -2.22222670e-003
      8.20849370e-003 1.25800669e-002 4.58639767e-003 -4.31903219e-003
      6.21121563e-003 4.88189660e-004 7.01729814e-003 -1.32290432e-002
      3.95797426e-003 -6.18912932e-003 5.27847279e-003 -1.67893979e-003
      -2.35515926e-002 -9.62218456e-003 1.31937228e-002 -2.17564814e-002
      -1.49660315e-002 -5.17005334e-003 -1.81868095e-002
      -3.00036184e-002 -4.55347728e-003 -7.69190490e-003 1.35090062e-002
      1.78764723e-002 -1.95197482e-002 -1.31237200e-002 -1.40695425e-003
      3.78776994e-003 1.15640592e-002 4.66266461e-003 2.07555741e-002
      1.74654163e-002 1.20912381e-002 -1.08616017e-002 -7.85751361e-003
      8.74169578e-004 1.12022576e-003 -9.70468950e-003 -1.63825415e-002
      1.40921408e-002 -9.90865938e-003 5.94511023e-003 7.80564453e-003
      9.30984225e-003 4.66868374e-003 -9.76357423e-003 -2.37130094e-002
      -4.83606651e-004 -8.38573184e-003 1.03482325e-002 -4.16339055e-004
      -6.01201132e-003 -3.44441598e-003 1.56534202e-002 -7.04136165e-003
      -8.89072753e-003 -2.16975044e-002 -1.87969413e-002 7.69735081e-003
      1.52794458e-002 1.25123775e-002 -5.10022882e-003 -1.71378851e-002
      -9.01386701e-003 4.72675450e-003 -1.93368215e-002 4.83117707e-004
      -1.08597120e-002 5.24532655e-003 5.43928007e-003 -2.41116397e-002
      -7.92638306e-003 -2.89136660e-003 -1.52899260e-002 2.23356541e-002
      -1.85919832e-003 -3.49034965e-002 7.42860883e-003 -1.45769287e-002
      -1.55918850e-002 9.88588296e-003 1.04309898e-002 -5.77506283e-003
      4.42697713e-003 -1.69194478e-003 -3.86786018e-003 2.86315996e-002
      1.98072996e-002 8.87046847e-003 -2.22543944e-002 1.43992687e-002
      -2.91730165e-002 2.17112625e-004 8.74129217e-003 1.71973929e-002
      -2.50316449e-002 1.24117220e-002 -4.84456867e-003 -2.01659072e-002
      -3.25827226e-002 -5.67671703e-003 -5.23641054e-003 1.21917967e-002
      -1.14060268e-002 -1.23565756e-002 4.46295273e-003 3.36146844e-003
      1.78534333e-002 -2.08461490e-002 -2.37096101e-002 1.77938007e-002
      -1.18168537e-003 -8.23795854e-004 2.71594641e-003 4.60042758e-003
      -1.78707240e-003 -1.79405492e-002 -4.35768068e-003 1.55828642e-002
      7.65779242e-003 -3.79001023e-003 -1.62983984e-002 -1.48548447e-002
      -2.06554569e-002 1.64041892e-002 -2.90124863e-002 -2.23204531e-002
      4.79461020e-003 7.42463954e-003 7.12410314e-003 1.81117617e-002
      -4.25614230e-003 2.17402708e-002 1.53108202e-002 -2.54919170e-003
      1.81361586e-002 -1.31158149e-002 4.17612074e-003 -1.34349084e-002
      -1.44934487e-002 1.47551959e-002 1.22342389e-002 -4.00409102e-003
      -9.59785841e-003 -1.88353099e-002 -1.38713885e-002
      -2.07466986e-002 -2.23420784e-002 -7.99572375e-003
      -1.38312979e-002 -1.12142432e-002 1.07787941e-002 2.98457406e-002
      1.49363754e-002 4.26931912e-003 1.95882879e-002 1.16317475e-003
      1.66041325e-004 1.57911833e-002 -1.06277457e-002 -2.97412425e-002
      -9.83648095e-003 1.63628515e-002 -1.22992005e-002 -1.53629007e-002
      -1.82775073e-002 -2.75980146e-003 -8.64716189e-004 3.88458394e-003
      4.58105421e-003 6.51972229e-003 -1.99031620e-003 -5.26695047e-003
      1.80930402e-002 -1.70156173e-002 1.17160976e-002 -1.60768963e-002
      -8.18293076e-003 -7.10774492e-003 3.97020858e-003 -1.08785480e-002
      1.94085464e-002 -6.20076433e-003 -5.23342146e-003 -2.91423872e-002
      1.41119035e-002 -1.27993580e-002 -1.40362484e-002 -3.66677274e-003
      2.60560634e-003 -3.55615234e-003 1.00724231e-002 9.11463704e-003
      -9.68688354e-003 8.32455698e-003 -7.81511515e-003 -3.03362100e-003
      7.95889553e-003 -2.50476587e-004 1.01796687e-002 7.77270366e-003
      6.88439328e-003 6.90077711e-003 -9.38007236e-003 7.98174739e-003
      -1.43172154e-002 1.81652941e-002 3.13500466e-004 -1.71318315e-002
      -9.93184280e-003 3.35339899e-003 -4.48688678e-003 5.87410666e-003
      -5.55119105e-003 9.97693744e-003 -4.74843476e-003 7.19901081e-003
      -2.40600598e-003 -8.95252917e-003 1.43114070e-003 -7.70349568e-003
      2.25237515e-002 -1.34786060e-002 1.54964169e-002 -9.52331722e-003
      -8.02892540e-003 -1.55363716e-002 -2.76675299e-002
      -8.08021612e-003 -5.29779345e-002 -1.10353250e-002 1.58180541e-003
      9.49514844e-003 -9.75257065e-003 8.24502110e-003 -1.59023050e-002
      1.35559151e-002 -1.39577178e-005 -9.22175962e-003 1.84504651e-002
      8.72639997e-004 -2.79849246e-002 -1.76255852e-002 -2.01171301e-002
      -1.05402265e-002 7.00336182e-003 -1.59385689e-002 6.52698148e-003
      -6.19963231e-003 -1.57728326e-002 5.99938910e-003 -5.61676035e-003
      8.10692925e-003 1.76439807e-002 1.69427916e-002 8.49546306e-003
      4.72179987e-003 1.95269287e-002 1.94818359e-002 -9.63213667e-003
      -9.43231978e-004 1.71289053e-002 -3.19221392e-002 1.32320570e-002
      -1.40620489e-002 -2.01718435e-002 6.61540776e-003 2.70692874e-002
      1.13257850e-002 -1.07688969e-002 -7.70003023e-003 -6.63875416e-003
      -5.50915441e-003 1.04920994e-002 5.19953901e-003 5.71397832e-003
      -1.01584131e-002 -2.21882239e-002 3.71211767e-003 -8.89881887e-003
      -4.36715968e-003 -2.97798106e-004 -1.39943985e-002
      -1.68711718e-004 -1.15640387e-002 -3.02212918e-003
      -1.09971194e-002 -6.85182575e-004 -2.03281947e-004
      -3.83189414e-003 -1.91022456e-003 -3.82072316e-003 2.08047610e-002
      9.83753894e-003 -2.94525712e-003 -4.00732132e-003 5.64344577e-004
      -2.16016527e-002 1.93696953e-002 8.39505158e-003 5.05068293e-003
      -4.25774138e-003 -1.02898916e-002 -1.16914576e-002
      -5.64533705e-003 9.15901922e-003 2.68758950e-003 6.33684918e-003
      5.44537744e-003 1.03230411e-002 -1.42878722e-002 -1.10384112e-003
      -9.65417887e-004 2.81871613e-002 4.39395430e-003 4.87305457e-003
      -5.90060093e-003 4.65239445e-003 -1.33799715e-002 1.33950682e-002
      -3.99708487e-002 -1.54922251e-002 -1.17555335e-002 2.94393618e-002
      8.45282152e-003 4.59363265e-003 -1.82118397e-002 -4.19749273e-003
      -7.35733751e-003 -7.68554956e-003 -2.14604801e-003 9.98270139e-003
      -5.88889420e-003 1.31692206e-002 1.18722161e-003 1.96155682e-002
      -7.16249784e-003 -2.49364506e-003 2.58461689e-003 -1.05570760e-002
      2.30860673e-002 -1.54338898e-002 -6.62196055e-003 2.59642322e-002
      -2.32730657e-002 2.80354841e-004 -6.26482815e-003 2.15621223e-003
      7.29640899e-003</_>
    <_>
      -1.65872998e-003 1.79368053e-002 7.75073702e-003 7.70644937e-003
      1.22332694e-002 1.25140855e-002 4.20392770e-003 1.44573981e-002
      5.94605645e-003 -4.37509734e-003 -2.46800622e-003 1.43122552e-002
      1.58395097e-002 6.17222209e-003 -8.54311790e-003 2.97415536e-004
      -1.49154989e-002 -7.74149084e-003 -3.06243915e-003
      -2.73924600e-003 -5.52925048e-003 -3.32732592e-003 1.48893250e-002
      -1.81364384e-003 7.95603171e-003 1.24146305e-002 1.04219513e-002
      6.33166358e-003 3.05087608e-003 -6.96616340e-003 1.04053840e-002
      1.90956809e-003 -6.56594429e-003 7.71149248e-003 2.01221704e-002
      1.49247830e-003 5.69759076e-003 1.23124570e-002 1.72059312e-002
      1.22816991e-002 -4.83149942e-003 -1.64752314e-003 4.10713116e-003
      -9.30282811e-004 -6.98884833e-004 -5.01019740e-003
      -1.09996889e-002 2.95430864e-003 2.02267654e-002 -1.87843163e-002
      7.95412064e-003 -5.50691038e-003 -1.29900556e-002 -2.53479043e-003
      5.16447658e-003 3.38337920e-003 1.34516722e-002 -3.38537735e-003
      6.18698425e-004 6.30878843e-004 1.23202102e-002 -1.69142615e-002
      1.69617645e-002 -1.40336426e-002 5.04731666e-003 -1.52614685e-002
      -2.92201480e-003 5.17566828e-003 -5.48763387e-003 1.46801919e-002
      9.47135442e-004 2.14986896e-004 7.10960431e-003 -1.57302301e-002
      8.66106339e-003 -7.79112009e-003 -1.07193980e-002 -1.64166503e-002
      -3.24145192e-003 -3.66140716e-003 -5.51791349e-003 2.97635142e-003
      7.35535333e-003 2.23378302e-003 2.75178291e-002 -6.96268864e-003
      -7.07295164e-003 8.25250708e-003 1.39996763e-002 7.67075224e-003
      3.11291404e-003 1.88417602e-002 5.84214693e-003 -9.40297148e-004
      2.80752103e-003 -9.79562476e-003 -9.25881043e-003 -6.21911651e-003
      -6.44391356e-003 -1.12700723e-002 -3.24902567e-003
      -5.15140360e-004 -5.35632158e-003 5.01611782e-003 3.35854921e-003
      -1.33530479e-002 8.01329501e-004 -4.47751302e-003 -9.81117599e-003
      -1.47359655e-003 -7.78256217e-003 -1.24574583e-002
      -1.71432842e-003 1.23132700e-002 -1.95796206e-003 1.39121879e-002
      -1.59106553e-002 -1.37963211e-002 9.80577711e-003 4.67230799e-004
      -7.36294221e-003 2.67631304e-003 1.10645667e-002 1.46203553e-002
      5.23397326e-003 8.61883350e-003 9.30237398e-003 -5.04258554e-003
      1.98702365e-002 1.61865167e-003 1.36485818e-004 -2.97533791e-003
      2.50100214e-002 2.34242901e-003 -1.46843158e-002 -1.18044131e-002
      1.92726019e-003 -9.03090555e-003 6.05373352e-004 1.81877576e-002
      1.03010582e-002 7.11222738e-003 -1.33134648e-002 -8.70039314e-003
      -6.14053663e-003 1.33734802e-002 -9.19872429e-003 9.71652195e-003
      -4.76968009e-004 -1.76716335e-002 7.83614232e-004 -2.57626567e-002
      -8.55500158e-003 1.39190583e-002 4.66946932e-003 4.27267980e-003
      6.73224172e-003 3.87557549e-003 5.08217234e-003 9.87524725e-003
      -1.47992214e-002 1.13910241e-002 2.59873383e-002 -1.94944290e-003
      9.63880774e-003 6.15550205e-003 5.22540463e-003 9.40779503e-003
      4.87291068e-003 9.44711093e-004 2.12039420e-004 1.05076679e-003
      6.73445733e-003 9.70378518e-004 -1.17057366e-002 6.76472206e-003
      1.06808811e-003 1.96528016e-003 2.18864959e-002 1.38774374e-003
      -2.76194233e-003 8.46044347e-003 -6.36795582e-003 1.46792969e-002
      2.44900100e-002 9.61859769e-004 1.54303270e-004 7.33893923e-003
      1.83064374e-003 1.03143249e-002 -8.25906696e-004 1.26743382e-002
      5.91430394e-003 1.77212935e-002 -2.74760276e-003 1.88443670e-003
      -5.00268536e-003 -3.42721841e-003 -1.06037669e-002 8.88256822e-003
      -7.85030797e-003 -1.61012242e-004 -5.83633839e-004 4.74976795e-003
      3.31716565e-003 8.09668936e-003 6.29877578e-003 -3.09062167e-003
      -2.96843727e-003 1.13868751e-002 -5.35758631e-003 -1.39279785e-002
      1.21447956e-002 -1.61359296e-003 1.34860328e-003 1.26928156e-002
      -2.79872026e-003 2.49632751e-003 1.98469702e-002 -9.48776677e-003
      4.23708232e-003 -8.67791532e-004 7.15272641e-003 -3.83904087e-003
      8.60509835e-003 -7.33129773e-003 8.91377963e-003 1.50157642e-002
      -3.02138012e-002 1.48788737e-002 9.33117699e-003 9.48768295e-003
      -4.43650922e-003 -6.95991470e-003 -8.81664176e-003
      -9.64808464e-003 -5.89022506e-003 1.35218417e-002 -1.06919063e-002
      3.27811353e-002 -1.88936619e-003 -1.81472339e-002 -5.94090810e-003
      1.08464779e-002 3.19158495e-003 4.51055821e-003 -2.17075678e-004
      1.49995293e-002 -2.80269273e-002 7.40802800e-003 -3.99783766e-003
      1.25725670e-002 -1.73682384e-002 -2.24297075e-003 8.00495874e-003
      -2.11393504e-004 1.78465340e-002 -1.64585225e-002 1.28299287e-002
      2.59884559e-002 1.91621277e-002 -8.11439566e-003 9.49162338e-003
      -6.27910392e-003 -1.00121032e-002 -5.99566149e-003 5.02631068e-003
      3.73821286e-003 -1.36800844e-003 8.06484185e-003 1.28360605e-002
      -1.00014489e-002 -6.19741110e-003 -3.14039935e-004 1.32503044e-002
      6.53735502e-003 2.30305153e-003 -4.99104802e-003 5.65455342e-003
      -9.12207644e-003 1.42647773e-002 -3.86493583e-003 2.79455520e-002
      1.43378098e-002 -1.23107182e-002 9.02430713e-003 2.92651989e-002
      -9.61200334e-003 1.84967685e-002 -9.88858379e-003 1.53851276e-002
      8.65307171e-003 -1.60651430e-002 3.59288626e-003 -1.05528431e-002
      -1.44536784e-002 -3.16430978e-003 9.81269521e-004 9.87650361e-003
      1.16889579e-002 -9.34499037e-003 2.11380646e-002 1.35533772e-002
      -8.42818152e-003 1.52356867e-002 2.99897161e-003 1.69116654e-003
      -6.77889306e-003 -3.71277868e-003 8.37435946e-003 -1.10872863e-002
      1.76308397e-002 4.78200056e-003 -1.29028026e-003 1.51682068e-002
      -3.45379696e-003 -6.85814652e-004 7.40956981e-003 -1.99532993e-002
      8.11578706e-003 3.36122490e-003 -4.40374395e-004 7.91942794e-003
      -1.18681379e-002 -8.83173570e-003 -9.25502088e-003
      -9.25909914e-003 -3.20524164e-003 1.26107468e-003 4.44340898e-004
      4.91273031e-003 1.05144633e-002 2.10154243e-003 -2.43610796e-002
      1.03101097e-002 -3.31192976e-003 -1.55155535e-003 1.00649521e-003
      -2.06713192e-002 2.47785263e-003 9.89858247e-003 7.89805967e-003
      -9.54319816e-003 -1.27327756e-003 5.92086290e-004 1.10009257e-002
      1.49271812e-003 7.36042252e-003 -6.61783665e-003 6.10502379e-004
      4.88347048e-003 6.10963500e-004 3.50189419e-003 4.86923149e-003
      8.49938486e-003 -1.76543056e-003 1.01523502e-002 6.49492396e-003
      -9.22704421e-005 -1.29515992e-003 1.37488134e-002 6.40376052e-003
      -1.85616699e-003 1.81033916e-003 -2.98938015e-003 -7.47947861e-003
      6.39477279e-003 1.57864653e-002 1.52496547e-002 -1.46662514e-003
      -3.96209583e-003 4.58261324e-003 1.29266074e-002 -1.80769758e-003
      -4.39295359e-003 8.17920268e-003 9.75662842e-003 4.94464417e-004
      9.95702669e-003 7.07727158e-003 -5.79752261e-004 1.46795036e-002
      -3.89041612e-003 2.20808703e-002 -2.58506439e-003 -4.94167674e-004
      4.84673493e-003 7.67444493e-003 -2.04385985e-002 -1.09243963e-004
      -6.10068673e-004 -3.67273157e-003 9.17552318e-003 -1.69957448e-002
      1.09520005e-002 -1.38818789e-002 -7.61705078e-003 1.32693509e-002
      1.00201136e-003 1.93387736e-002</_>
    <_>
      6.01504836e-003 8.10348243e-003 6.42897049e-003 6.70532836e-003
      4.48839692e-003 1.24579286e-002 -1.89970509e-004 1.25390086e-002
      -2.74131517e-003 5.38433297e-003 6.25907304e-003 7.58567220e-003
      2.21308880e-002 4.65426501e-003 -1.14650233e-002 2.82388390e-003
      1.65862555e-003 5.53136597e-005 -1.68881360e-002 6.39658235e-003
      -8.24099500e-003 -2.59152753e-003 2.70853890e-003 -3.72252706e-003
      1.44210830e-002 5.06737269e-003 1.14771528e-002 -1.60494689e-002
      1.05902627e-002 -9.37403645e-003 5.42025827e-003 3.79650039e-003
      -8.00724979e-003 4.63715475e-003 9.81510989e-003 1.14955183e-003
      5.03971521e-003 1.54404826e-002 5.55168232e-003 8.65754578e-003
      -1.28206669e-003 -1.64333184e-003 -3.67893651e-003
      -4.78601037e-003 1.03401858e-003 -1.29426066e-002 -7.33473338e-003
      1.48039428e-003 8.75457935e-003 6.81243371e-003 -1.36681767e-002
      -4.58065653e-004 -9.38267168e-003 -1.40827196e-003
      -9.54051036e-003 9.62399226e-003 1.97913628e-002 -9.32674482e-003
      6.32694596e-003 3.95516166e-003 -5.54713653e-003 -3.84552870e-003
      4.17104317e-003 1.85695733e-003 3.32561997e-003 1.38053985e-003
      2.70933402e-003 -6.42014202e-003 -1.94859616e-002 4.55903530e-004
      1.70646689e-003 1.62317138e-002 2.69025448e-003 5.20633440e-003
      1.38555549e-003 3.31523549e-003 -1.83297892e-003 1.72854438e-002
      4.03718837e-003 -5.99456346e-003 -1.58226024e-002 6.86401175e-003
      -4.16718936e-003 4.44247294e-003 -7.12116482e-003 -6.80820877e-003
      -5.38788177e-003 6.95586484e-003 1.28474878e-002 -1.04986094e-002
      -3.72535782e-003 -4.44764178e-003 1.97185040e-003 -6.11558370e-003
      4.18209052e-003 1.41922720e-002 -6.01268746e-003 5.20567643e-003
      -2.36111484e-003 -1.93851106e-002 -3.53764067e-003
      -3.21676885e-003 -4.60898969e-003 3.89454910e-003 -8.96564685e-003
      6.22167625e-003 5.07685123e-003 9.71490517e-003 3.23821721e-003
      -4.88636363e-003 9.23991017e-003 -5.72582881e-004 -1.49677380e-003
      6.39821449e-003 1.10317580e-002 2.07601301e-003 -3.92486434e-003
      7.57073285e-005 7.00314716e-003 -5.65084117e-003 7.94327259e-003
      2.86391180e-004 3.55654652e-003 8.30161758e-003 2.87700910e-003
      1.42298331e-002 1.43533386e-002 -1.08172745e-002 3.17329797e-003
      -1.15416630e-003 -1.00252992e-002 -8.43321625e-003
      -1.46213884e-003 1.67028839e-003 1.84987709e-002 -3.23360832e-003
      5.02542220e-003 1.43793486e-002 -4.88311192e-003 -7.23972102e-004
      1.55601315e-002 7.55268149e-003 -2.63817678e-003 -9.41931456e-003
      -4.44928836e-003 1.05385417e-002 -6.25079032e-003 3.04252282e-003
      -7.78893474e-003 -1.10563897e-002 -2.23884569e-003
      -4.02150191e-002 1.86411384e-002 1.12645933e-002 -1.33191850e-002
      3.96563904e-003 -9.01665445e-003 6.41754176e-003 1.08023575e-002
      6.07318012e-003 -7.06961937e-003 2.86503648e-003 1.67934317e-002
      4.71184775e-003 2.99245748e-003 1.80505589e-003 -1.40998082e-003
      2.23120917e-002 6.70816004e-003 -5.27702738e-003 1.53527435e-004
      9.22001991e-003 -8.14533606e-003 -1.73185151e-002 -2.62272288e-003
      8.41826852e-003 9.66017600e-003 1.95673965e-002 6.63967570e-003
      -4.70821885e-003 -6.80501200e-003 6.36097463e-003 3.40258074e-003
      1.75861213e-002 1.56043721e-002 5.80078631e-004 -5.21728490e-003
      -2.55543948e-003 2.31867880e-002 6.38338563e-004 -1.04413265e-002
      2.78685917e-003 -1.13637920e-003 8.19151319e-005 2.77010421e-003
      2.13509100e-003 -1.08783161e-002 1.27833420e-002 -2.65222471e-002
      1.03629632e-002 -8.14891362e-004 3.56476917e-003 9.71711334e-003
      8.11558042e-004 -4.80964221e-003 1.20560732e-003 -1.38835805e-002
      6.15729298e-003 3.98531090e-003 1.15886452e-002 4.19126172e-003
      -5.96122211e-003 -3.71162407e-003 1.38976453e-002 1.28222834e-002
      1.03462543e-002 -1.87443581e-003 1.35709373e-002 5.45135979e-003
      5.99940540e-003 -4.47320612e-003 -7.47975660e-003 4.43170266e-003
      -6.69555413e-003 -1.94104027e-003 -8.97112396e-003 2.92599457e-003
      6.51478954e-003 9.09141556e-004 1.97714847e-003 -7.31276348e-004
      7.72003434e-004 3.78949358e-003 -1.51646161e-003 9.73539613e-003
      -2.64982320e-002 -2.94545814e-002 -9.63839144e-003
      -4.91730450e-003 5.90796489e-003 1.86425052e-003 -2.75768223e-003
      1.58286281e-003 1.34735974e-002 1.73977949e-002 -1.78228579e-002
      -9.44898464e-003 -5.65691479e-003 -2.00364310e-002
      -6.12751488e-003 -9.31316428e-003 5.96189313e-003 -1.17147109e-002
      1.62059851e-002 1.78638520e-003 -7.87796278e-004 1.52202249e-002
      1.17092615e-003 1.16419178e-002 6.43153768e-003 1.21640461e-002
      1.58808697e-002 -7.79679650e-003 -1.62556258e-004 5.48045151e-003
      -1.18790874e-002 -1.08882394e-002 9.07763932e-003 1.49652380e-002
      -1.38725145e-002 5.40354010e-003 -7.29701575e-003 6.83218287e-003
      -9.03932191e-003 2.90782074e-003 -1.39031447e-002 -1.63813913e-003
      -4.55748988e-003 6.07355498e-004 1.36362808e-002 -1.83101054e-002
      -2.11984711e-003 1.42161548e-002 7.46977702e-003 -7.23079732e-003
      1.13566481e-002 3.15709114e-002 -9.78492387e-003 -1.25539824e-002
      -1.44216965e-003 9.75242350e-003 5.39689208e-004 1.22091165e-002
      -4.35415190e-003 3.72462301e-003 1.18889688e-002 2.61460291e-003
      2.00441312e-002 4.22805222e-003 1.26036778e-002 -6.18759589e-003
      2.13098968e-003 6.16341550e-003 -7.80160655e-004 5.08404477e-003
      -1.04064355e-002 6.65883906e-003 9.65809263e-003 1.05743418e-002
      1.30378753e-002 -4.55452641e-003 -1.59710553e-003 5.68945287e-003
      -8.10353179e-003 3.98321543e-003 7.07019866e-003 6.45280024e-003
      -7.11001689e-004 -9.91067570e-003 -9.61453468e-003 1.08221788e-002
      -1.06198071e-002 1.12536373e-002 -7.25087384e-003 -3.07972431e-002
      1.64769460e-002 -3.13183642e-004 -1.20023824e-002 -4.95160557e-003
      1.13589240e-005 2.32245959e-003 5.08665852e-003 1.85478013e-002
      -1.87696908e-002 -4.72328946e-004 -1.70810837e-002
      -1.38535793e-003 -1.00920135e-002 2.49721925e-003 1.47770671e-002
      1.69309098e-002 2.48942617e-003 -7.51929311e-003 6.66608801e-004
      -6.07055938e-003 8.95457901e-003 -1.57729778e-002 -3.88270454e-003
      -2.18141568e-003 6.74887886e-003 1.09513979e-002 -2.11670958e-002
      -1.30848838e-002 -1.38461546e-004 9.21601802e-003 6.88904431e-003
      -3.41043179e-003 -2.11028699e-002 -7.13646878e-004
      -2.32363492e-002 2.41362564e-002 -3.33728269e-003 1.66146979e-002
      7.23287323e-003 2.11551407e-004 -6.01176405e-003 -6.09817076e-003
      -1.77296039e-004 1.15411058e-002 1.82724483e-002 -2.31253915e-003
      3.81074846e-004 1.60663240e-002 -2.50288099e-002 -2.33659288e-003
      1.12060318e-003 2.93526892e-003 6.00203592e-003 1.33417323e-002
      -5.63660171e-003 -1.96551979e-002 9.09046456e-003 -1.63251034e-003
      1.41631262e-002 5.83226676e-004 2.71693175e-003 9.99487122e-004
      4.58379416e-003 1.71657242e-002 1.58557594e-002 8.88648268e-004
      -3.77893215e-003 1.05035666e-003 -7.09794741e-003 1.07272658e-002
      -1.25117283e-002 -3.27970530e-003 -9.38711781e-003
      -3.02642840e-003 1.37295621e-002</_>
    <_>
      3.22998315e-003 2.10913885e-002 4.88873664e-003 -2.28540949e-003
      1.62312649e-002 -3.19464551e-003 5.33222873e-003 7.11169560e-003
      1.81935616e-002 -6.34959014e-003 -1.10134226e-003 -1.17005808e-002
      4.47452214e-004 5.48435561e-003 -6.72421837e-003 -6.91703102e-003
      -2.54029464e-002 5.45825856e-003 -4.42595826e-003 -3.46931117e-003
      4.73769382e-003 -8.93719215e-003 3.67345492e-004 -1.31149376e-002
      1.05569726e-002 -7.36079225e-003 1.59758851e-002 -6.13199966e-003
      -8.38973152e-004 -1.15251187e-002 -1.90268178e-002 3.13568301e-003
      -1.77808963e-002 1.60947982e-002 1.55199077e-002 1.18811568e-002
      -3.04766023e-003 1.01826433e-002 1.00974189e-002 1.47060305e-002
      5.71618136e-003 4.71361866e-003 1.28562963e-002 -1.32455453e-002
      -7.41784135e-003 -4.91040875e-004 8.56273808e-003 1.29685700e-002
      5.90415765e-003 -6.08333526e-003 -1.67522598e-002 8.77502002e-003
      -2.60766619e-003 -8.96125101e-003 -1.28155416e-002 8.56331736e-003
      1.11987134e-002 3.63742234e-004 4.91975900e-003 1.83985638e-003
      3.62345530e-003 1.04342839e-002 -8.25439952e-003 2.68762223e-002
      -4.04768100e-004 2.98940088e-003 5.07198973e-003 1.71005558e-002
      -4.66925045e-003 5.02802990e-003 -2.18363060e-003 3.93610029e-003
      1.77043974e-002 1.65024921e-002 -9.14548431e-003 -1.60854170e-003
      -1.33862989e-002 7.36212591e-003 6.83318079e-003 1.87927601e-003
      1.64420123e-003 3.33734276e-003 7.33270717e-004 -1.21420892e-002
      1.50720961e-002 -7.19328457e-003 -1.55133614e-002 2.22249678e-003
      1.12221818e-002 -7.73249718e-004 1.87785737e-002 4.75728279e-003
      -1.15408888e-002 4.87703044e-004 -3.86425829e-003 -1.55475475e-002
      -5.72311506e-003 2.61330488e-003 6.32441742e-003 5.19856205e-003
      5.23898005e-003 -3.49030388e-003 -5.21730073e-003 7.88813981e-004
      1.11146066e-002 1.11521473e-002 1.06321294e-002 6.36498211e-003
      1.20501611e-002 -4.50325105e-003 5.70723880e-003 -2.58314470e-003
      9.37652867e-003 -6.22473797e-003 7.08649401e-003 1.30998297e-002
      -3.21965548e-003 -1.65582709e-002 1.55364256e-002 5.07162302e-004
      2.52718409e-003 1.50835747e-002 1.82039384e-002 1.78872589e-002
      1.71315912e-002 -1.01418479e-003 5.90028940e-003 1.70480402e-003
      -1.34201311e-002 -4.33362415e-003 -1.70545466e-002
      -1.01748845e-002 -1.67398888e-003 1.68950506e-003 1.05162254e-002
      -7.50013068e-003 -1.13640726e-002 1.76050290e-002 -5.88687230e-003
      1.88761239e-003 3.26153077e-002 1.05227577e-002 -1.87128782e-002
      5.13941515e-003 -3.91389849e-003 -4.82527399e-003 8.30615591e-003
      -2.60229595e-003 -2.03673299e-002 5.54347364e-003 4.83878888e-003
      -8.71766079e-003 1.00984955e-002 5.49042691e-003 6.68161036e-003
      1.19000105e-002 -5.62316738e-003 6.02587173e-003 8.81957822e-003
      1.13605047e-002 -1.90434325e-002 4.44751140e-003 1.14415521e-002
      1.25903240e-003 2.83159153e-003 -1.60668530e-002 1.91593617e-002
      2.88652610e-002 2.46390118e-003 2.96861888e-003 -1.43334386e-003
      -7.88059086e-004 -6.12434838e-003 -1.27850417e-002
      -2.75983196e-003 7.53944321e-003 2.92102657e-002 1.13638602e-002
      1.74605269e-002 1.28424782e-002 -6.56226324e-003 7.92903919e-003
      5.55308303e-003 3.03320643e-002 9.55752190e-003 1.92444008e-002
      -4.67341486e-003 -1.96050876e-003 -9.24970023e-003 1.65634472e-002
      8.73625570e-004 1.98699236e-002 -4.55057435e-003 -1.59476872e-003
      3.80154233e-003 -9.90623888e-003 -6.97349256e-004 1.83275212e-002
      -2.48154309e-002 3.90249165e-003 1.86985126e-003 1.49978499e-003
      3.60021426e-004 7.22987577e-003 5.89398248e-003 1.22369155e-002
      -8.77266750e-003 2.80388840e-003 7.76426308e-003 1.18766176e-002
      -3.41483788e-003 -1.36718191e-002 -7.91903585e-003
      -6.12368295e-003 5.90398628e-003 1.62879247e-002 1.69999269e-003
      1.17672505e-002 5.83306374e-003 4.76512685e-003 1.66061975e-003
      1.27068348e-003 1.96370343e-003 -1.29148392e-002 1.48013665e-003
      -8.49072076e-003 1.35113287e-003 2.16978546e-002 5.31486329e-003
      -7.23151769e-003 5.11376653e-003 -5.17086172e-003 5.72798681e-003
      4.44207224e-004 1.53287989e-003 7.55115133e-003 -2.75971666e-002
      -6.99433545e-003 6.03822432e-003 1.43451542e-002 -9.08319373e-003
      2.16188910e-003 1.71790216e-002 -2.07633171e-002 -9.96086746e-003
      -1.23947589e-002 1.60273979e-003 9.33808926e-003 -1.98410675e-002
      5.81530482e-003 -7.65536958e-003 1.22123547e-002 -5.34010213e-003
      -2.44211336e-003 -1.40355173e-002 -1.43303303e-002 5.08127455e-003
      -1.30196111e-002 1.29024899e-002 2.31649168e-002 2.25537438e-002
      2.71343235e-002 -1.53197283e-002 7.26788258e-003 -5.21862367e-003
      -1.55542102e-002 -3.88779584e-003 7.97265489e-003 -8.32043937e-004
      4.96245502e-003 1.18500115e-002 3.24343273e-004 1.54076638e-002
      6.88221352e-003 6.98531658e-005 -1.37410956e-002 -4.79148375e-003
      -7.53168156e-003 5.70504041e-003 -1.64819614e-003 -1.35877617e-002
      1.94999634e-003 1.68041515e-004 -9.73988976e-003 -2.70153768e-003
      9.37201176e-003 2.90327426e-002 -4.25826106e-003 -1.34488882e-003
      8.02902039e-003 -1.00341887e-004 1.04019197e-003 6.01342879e-004
      8.47342331e-003 -8.63707345e-003 1.86931848e-005 -3.10805836e-003
      3.37983947e-003 4.31623106e-004 3.49802757e-003 -1.55263615e-003
      1.12988409e-002 1.13242790e-002 -6.40765647e-004 2.89230421e-003
      1.64518617e-002 -8.43503338e-004 1.47536639e-002 1.10022072e-002
      7.61400443e-003 7.51537876e-003 4.77131549e-003 -8.59239977e-003
      -3.69455596e-003 -2.91801263e-002 5.03210258e-003 1.89107482e-003
      1.99248013e-003 -1.46093583e-002 2.21344852e-003 2.85987998e-003
      -2.42314767e-003 1.97581742e-002 -2.56502125e-002 2.10643816e-003
      -1.24627771e-002 -1.95925543e-003 -9.48390178e-003 7.98967667e-003
      -5.74070774e-003 -3.99834104e-003 1.41342338e-002 2.38219444e-002
      -5.81623521e-003 -1.02940146e-002 -1.30064068e-002 2.45893630e-003
      2.76054000e-003 1.74032501e-003 -1.63284354e-002 1.79142952e-002
      -7.32836640e-003 -2.29626289e-003 2.08791043e-003 1.13627566e-002
      2.00463831e-003 -3.95623641e-003 -1.83720957e-003 6.02559978e-003
      1.62996873e-002 2.25269143e-002 3.42059485e-003 -4.40173870e-004
      -9.87709593e-003 5.45513304e-003 -2.68348609e-003 -8.63356574e-004
      -5.91137586e-003 -7.96533749e-003 -9.70201660e-003 4.81344014e-003
      -2.76073976e-003 3.19979666e-003 4.93936054e-003 -2.78822728e-003
      1.12034148e-002 -9.64592490e-003 5.71445096e-003 -1.29326461e-002
      5.36792539e-003 1.03312600e-002 3.45567800e-003 2.78340909e-003
      -1.29541494e-002 -1.06955012e-002 -9.07377433e-003
      -2.48906319e-003 -2.15029088e-003 -1.88496988e-003
      -3.48399067e-003 -6.59728656e-003 3.49212205e-003 -3.23221739e-003
      1.89836249e-002 -3.94763798e-003 -1.71899050e-002 -4.97918716e-003
      1.56508107e-002 7.52836792e-003 4.11587134e-002 -1.50208478e-003
      1.29792967e-003 -5.74304548e-004 -1.03710536e-002 -4.92054550e-003
      -9.70434677e-003 -5.13703842e-003 -3.10423691e-003 1.19933533e-002
      1.66120119e-002</_>
    <_>
      9.49230697e-003 7.78467814e-003 -1.96802150e-003 1.95181358e-003
      7.83131458e-003 2.58205133e-003 8.66041891e-003 2.12218775e-003
      -8.95702920e-004 1.71231816e-003 -1.57962169e-003 1.27682416e-002
      1.06152957e-002 2.81972880e-003 -7.39975600e-003 1.50388479e-003
      -1.22214435e-002 3.19798407e-003 -1.72901265e-002 7.95893185e-003
      5.67154866e-003 -3.02066072e-003 -7.12560210e-003 -1.57941822e-002
      1.05157485e-002 7.81521760e-003 5.08018350e-003 1.45682169e-003
      -2.13901931e-003 -6.66602887e-003 4.89545288e-003 -5.31486608e-003
      -2.55957916e-002 8.68484471e-003 1.72096342e-002 -3.98288073e-004
      -4.67584981e-003 2.52670441e-002 7.21667474e-003 1.33186420e-002
      1.42695382e-003 9.63334460e-003 7.09316926e-003 8.74068355e-004
      4.48607188e-003 -2.12442037e-002 -3.44604417e-003 5.17657772e-003
      3.43194557e-003 6.71114260e-003 -3.32223671e-003 9.22825094e-003
      1.30575038e-002 3.41525930e-003 5.72509831e-004 8.47892463e-003
      9.95048787e-003 2.63255415e-003 5.18408837e-003 8.51679943e-004
      1.44535871e-002 -4.17151721e-003 1.34506114e-002 9.83649027e-003
      -1.57220673e-003 -2.42088176e-003 -1.09534254e-002
      -7.20538804e-003 -1.67535730e-002 -9.30368528e-003
      -6.74268883e-003 9.32309777e-003 1.17549091e-003 -3.90000548e-003
      2.74240482e-003 5.61877713e-003 -8.88131501e-004 1.53179821e-002
      3.37135838e-003 8.28397181e-003 1.39967659e-002 4.63425741e-003
      -7.32535915e-003 9.62855667e-003 -1.46977161e-003 7.13565620e-004
      -2.53335177e-003 -7.77876936e-004 6.98545203e-003 -1.37850962e-004
      3.44086485e-003 -1.14879338e-002 1.88558735e-003 -8.20410729e-004
      5.18824090e-004 -6.48417044e-004 -1.55444595e-003 -7.34197395e-003
      -2.92444765e-003 -5.64536313e-003 1.46826264e-003 2.33061565e-003
      5.58017706e-003 2.13443651e-003 -1.09627368e-002 -5.57713164e-003
      -7.52981706e-003 7.77078327e-003 -2.79208180e-003 5.40584000e-003
      -6.95158320e-004 -5.74598671e-004 7.51920650e-003 3.52385796e-005
      1.22953095e-002 4.92514577e-003 1.29529755e-004 -6.51363889e-003
      2.06323853e-003 -2.15430874e-002 -6.29194640e-003 -1.30839357e-002
      6.84866030e-003 1.62283628e-004 5.19452430e-003 7.98778329e-003
      8.60118493e-003 -3.25860921e-003 1.43407639e-002 -3.88672715e-003
      5.48439333e-003 -5.87071944e-003 3.82083491e-003 4.68945084e-003
      -5.56831900e-003 -2.66063982e-003 -2.05736738e-002 1.64907929e-002
      5.55429514e-003 -4.14231699e-003 -7.02526933e-003 8.75890255e-003
      4.42951889e-004 -9.31310002e-003 2.01671995e-004 -6.92919013e-004
      -4.36632149e-003 5.43764746e-003 -5.87989762e-003 8.22583586e-003
      -2.11558212e-003 -1.52193671e-002 2.32116599e-002 7.94263650e-003
      -3.09579447e-003 -5.25105326e-003 -1.11838058e-002
      -5.96297765e-003 1.47325294e-002 1.05164666e-002 -8.48243013e-003
      5.43022063e-003 1.28243500e-002 6.22299922e-005 7.39027001e-003
      6.09279377e-004 5.63098118e-003 1.82577986e-002 -9.62416921e-003
      2.51806504e-003 2.37637851e-003 7.37235323e-003 -6.91053551e-003
      -1.03073101e-002 -6.82448130e-003 7.57024996e-003 1.01807183e-002
      7.36949779e-003 1.55910179e-002 2.56705028e-003 -3.16443923e-003
      -1.77830586e-003 4.90096456e-004 -5.00371316e-005 2.62515824e-002
      1.23376055e-002 2.30714655e-003 -6.36736816e-003 -6.02081232e-003
      1.08167920e-002 5.26417652e-003 1.24701597e-002 -1.45260128e-003
      2.36991723e-003 -3.50825302e-003 2.52506509e-003 3.50972870e-004
      1.54542935e-003 -1.11140739e-002 -1.41845772e-003 -1.33379537e-003
      -1.02006206e-002 -1.08519113e-002 -8.43001902e-003 4.73836495e-004
      5.12595568e-003 -9.28094704e-003 -1.71806023e-003 3.42325796e-003
      5.22610685e-003 4.46462538e-004 -2.62379181e-004 -1.84689127e-002
      1.16738331e-004 -9.52579826e-003 9.90233570e-003 -1.29211498e-002
      1.21041238e-002 9.79713257e-003 -4.61035827e-003 2.74967682e-003
      -5.44036389e-004 1.14810495e-002 -7.85088912e-003 4.48535010e-003
      -7.96055235e-003 5.38795139e-004 1.32213440e-003 -1.95595785e-003
      7.55391410e-003 -3.23455315e-003 -8.17077607e-003 -3.04833008e-003
      -5.40566305e-003 -2.29655225e-002 9.51065030e-003 -1.07487636e-002
      4.15024441e-003 -6.36201166e-003 7.28650438e-003 6.86247833e-003
      -1.52913556e-002 -4.90206806e-003 -4.14834969e-004
      -2.65356340e-003 1.12758148e-002 -2.62299250e-003 3.53353843e-003
      1.15824901e-002 -3.32674291e-003 -5.77648450e-003 -1.47976726e-002
      5.68275340e-003 1.41080748e-002 -3.26552708e-003 -1.61655117e-002
      1.00052152e-002 1.14471838e-002 1.75582897e-003 -4.89912927e-003
      1.53540727e-002 1.18141491e-002 1.89889630e-003 -1.62035262e-003
      -1.53929053e-003 -1.26811648e-002 8.23080353e-003 -7.64381001e-003
      9.30815190e-003 1.18396636e-002 -3.18795722e-003 -3.73965036e-003
      -9.74656083e-003 1.84929033e-003 2.81618827e-006 -2.86651449e-003
      -1.12305833e-002 -7.45932851e-003 -4.97630518e-003 1.37530861e-003
      1.61866134e-003 -4.26148484e-003 2.32360475e-002 6.46884600e-003
      2.47975608e-004 5.70890587e-003 2.01876219e-002 -7.37196626e-003
      6.42794999e-004 -6.47472567e-004 -6.21996401e-003 2.94773071e-003
      -3.52342636e-003 -9.21209157e-003 1.14598768e-002 4.81530838e-003
      8.75810627e-003 1.85856018e-002 3.44490749e-003 4.51987144e-003
      9.79881641e-003 2.35612993e-003 1.41927712e-002 -4.33253916e-003
      -1.52773072e-003 -6.71489257e-003 6.48328895e-003 1.18638268e-002
      9.17955674e-003 9.52942390e-003 -7.40820402e-003 4.72561782e-003
      8.02709814e-003 -4.39360132e-003 -6.01800159e-003 -4.03799303e-003
      1.50676456e-003 -1.15789073e-002 -2.54198647e-004 4.94011072e-003
      -1.84566202e-003 -1.37164872e-002 4.18855256e-004 -1.95701513e-002
      -3.57345492e-003 8.78126547e-003 1.01451185e-002 2.02058954e-003
      2.69490550e-003 2.71208771e-003 8.99982057e-004 8.98087677e-003
      7.69942580e-003 -2.08531618e-002 2.80398736e-003 5.68589242e-003
      -1.12055745e-002 -5.75610157e-003 -7.59782735e-003 1.71089377e-002
      -4.93998313e-003 4.47900454e-003 8.69481638e-003 1.00069297e-002
      9.39316396e-003 -1.16315263e-003 -1.82302427e-002 2.33441778e-003
      -1.14894370e-002 1.41370036e-002 2.81835068e-003 -3.08871409e-003
      -6.65958878e-003 1.33436127e-003 -8.18473659e-003 3.18716490e-003
      1.09256478e-002 -9.81400535e-003 5.00799995e-003 -1.21208923e-002
      3.23650963e-003 -5.12023317e-003 4.17368347e-003 1.00748045e-002
      -4.65962943e-003 -1.13772955e-002 -4.40506684e-003
      -2.21968323e-004 3.03947739e-003 -1.73384312e-003 -1.25211151e-002
      -1.76610388e-002 7.04427203e-003 -1.50815286e-002 -1.84704028e-002
      3.96585558e-003 -4.88279620e-003 -2.14827550e-003 -2.07512057e-003
      4.73274244e-003 -9.23586357e-003 4.76744818e-003 -6.72586169e-003
      4.80223121e-003 -7.58555671e-003 -8.01850390e-003 4.45626676e-003
      1.54172834e-002 -1.56017123e-002 2.23589819e-002 -1.35071855e-002
      -3.62931541e-003 7.01154023e-003 -9.32552945e-003 5.75296581e-003
      -1.55269429e-002 -6.66602841e-003 -4.75795334e-003
      -7.23812170e-003 1.38627961e-002</_>
    <_>
      4.25182842e-003 1.20616900e-002 8.94265063e-003 -2.61025387e-003
      1.74068194e-002 8.56489129e-003 -1.47601566e-003 -7.41814554e-004
      9.05089919e-003 -2.45467690e-003 -1.32587797e-003 -1.27170456e-003
      1.43016072e-003 2.13878881e-003 -1.15281189e-004 4.21294710e-003
      -6.26653712e-003 -1.55855799e-002 1.56980171e-003 -1.39386766e-003
      -1.65527372e-003 -4.79908334e-003 2.94239889e-003 -4.04406106e-003
      8.36949982e-003 1.37408674e-002 2.08572485e-003 -7.21890153e-003
      3.43282567e-003 -1.41320499e-002 3.55822500e-003 5.09516476e-003
      -4.81723296e-003 5.56276506e-003 1.23939551e-002 3.56431655e-003
      2.02726875e-003 1.31129462e-003 -4.66994150e-003 2.13649287e-003
      1.50215987e-003 6.91023376e-003 1.73399947e-003 3.10083269e-003
      1.73286081e-003 2.68362288e-004 5.07324992e-004 1.90854131e-003
      -1.22048007e-002 -4.34990507e-003 3.21132131e-003 7.22991349e-003
      -2.75527537e-002 -3.61381704e-003 1.27655594e-002 1.03278374e-002
      3.58971418e-003 3.00861942e-003 -7.20872637e-003 2.55587325e-003
      2.16876436e-003 4.11808770e-003 1.66427623e-002 8.93331226e-003
      1.91805570e-003 -1.30498279e-002 5.25273569e-003 -1.42844685e-003
      -1.71933547e-002 -8.79381131e-003 5.75226790e-004 1.20462442e-003
      1.62362624e-002 3.75908474e-003 -4.28676512e-003 9.65372776e-004
      -9.51804593e-003 6.90726144e-003 4.82846255e-004 -2.18508765e-003
      2.25494453e-003 8.57967534e-004 7.99284503e-003 -5.02101053e-003
      1.10537903e-002 -7.77110551e-003 -5.58226975e-003 1.38368653e-002
      1.16099892e-002 1.38220121e-003 1.50344754e-003 -2.81314156e-003
      1.57437136e-003 4.30151261e-003 3.60491313e-003 -3.13874707e-003
      5.97338192e-003 5.17292228e-003 2.71670218e-003 9.77310352e-004
      4.63117089e-004 -2.60807993e-003 5.94258076e-003 -2.29838490e-003
      1.59071980e-003 6.73593301e-003 -2.36131204e-003 -5.19192684e-003
      -2.38540652e-003 2.41937535e-003 -4.21776809e-003 -3.07145761e-003
      -1.45575525e-002 5.16409148e-003 4.79550305e-004 -4.45261976e-004
      3.29620414e-003 -6.72058249e-003 -8.54692305e-004 -7.68755656e-003
      4.53293743e-003 -6.97888108e-003 2.38160696e-002 1.71320271e-002
      1.36319976e-002 1.18329516e-002 3.87407630e-003 6.43593259e-004
      -7.86708202e-003 -3.72583838e-003 1.20606378e-003 1.38586201e-003
      2.18758415e-002 -4.34578070e-003 1.29612396e-002 -5.21343015e-003
      1.23735017e-003 1.25457821e-002 4.71067801e-003 3.75290611e-003
      9.79757495e-003 1.11806719e-002 -7.40567921e-004 -1.07166925e-002
      -3.87293473e-003 7.54511589e-003 6.28734427e-003 2.92682974e-003
      -1.55723048e-003 -4.36806062e-004 2.75715394e-003 -1.31898676e-003
      -1.64468496e-004 4.77031013e-003 1.88100350e-003 5.06747793e-003
      8.38952255e-004 9.11697093e-003 1.89215224e-002 2.32763775e-003
      2.94370321e-003 8.64471216e-003 -2.26555876e-002 -9.93742869e-005
      -1.23348227e-003 3.79034248e-003 3.88501631e-003 2.48281192e-002
      7.51947239e-003 1.87047699e-003 -1.07684103e-003 -9.24094289e-004
      1.19233802e-002 -1.42431427e-002 -8.86791106e-003 1.35693857e-002
      1.96549185e-002 1.06184790e-002 2.91861896e-003 1.52918724e-002
      7.29199080e-003 8.51823110e-003 -9.48846631e-004 2.10139472e-002
      1.07420599e-002 1.43550681e-002 -9.27113742e-003 5.95689751e-003
      1.53112719e-002 8.11287202e-003 7.80408690e-003 1.41702099e-002
      4.26262710e-003 1.19289793e-002 -4.54694877e-004 -3.95908393e-003
      6.05186634e-003 4.34815511e-003 -1.51829952e-002 -2.88898149e-003
      -2.62222183e-003 -3.59324971e-004 -7.17631029e-003
      -1.50370384e-002 -3.11839132e-004 1.01302974e-002 -3.30939330e-003
      3.10993730e-003 -5.85396083e-005 5.40019525e-003 6.62156381e-003
      6.05595950e-003 2.25978019e-003 -5.30322548e-003 8.45396239e-003
      1.62183922e-002 -8.53210129e-003 -6.72956835e-003 1.60172619e-002
      2.85432907e-003 3.30313062e-003 -4.61638067e-003 6.58836169e-003
      1.34882890e-003 5.29079093e-003 -1.61076151e-002 1.69036109e-002
      6.64621126e-003 7.56285200e-003 2.31311540e-003 2.10442045e-003
      -1.25068957e-002 -8.42486450e-004 -1.28208706e-003 3.03468114e-004
      6.22675056e-003 1.82636559e-003 5.96834812e-004 3.54721467e-003
      1.08090155e-002 8.27804860e-003 -2.58840248e-003 8.61589238e-003
      -3.04088765e-003 6.67873886e-004 -2.63264356e-003 1.26429705e-003
      -2.97572371e-003 -2.26612575e-002 4.02670074e-003 -9.56916995e-003
      -9.76659078e-003 -9.71751567e-003 1.83056984e-002 -9.47229471e-003
      -7.15614203e-003 1.56502984e-002 6.14378223e-005 1.39301680e-002
      1.03033073e-002 4.47196746e-003 5.61781647e-003 -8.19945335e-003
      -2.89917667e-003 1.33994827e-003 -6.37291046e-003 2.11066986e-003
      2.46980623e-003 9.20580979e-003 -2.59939930e-003 2.43986142e-003
      -1.07532013e-002 -2.64605827e-004 -9.21380892e-003
      -1.36651518e-003 -1.05170775e-002 -2.21706112e-003
      -3.23442766e-003 4.06893063e-003 8.01966758e-004 1.15213906e-002
      -7.86639284e-003 1.04819741e-002 2.77215731e-003 -1.56253797e-003
      3.30212130e-003 1.72638744e-002 -1.33633064e-002 7.15734391e-003
      3.24052013e-003 -5.66901220e-003 7.87302572e-003 5.28524769e-003
      8.07947945e-003 9.50951036e-003 2.27471604e-003 -4.71381983e-003
      8.75687879e-003 1.25197656e-002 1.04446867e-002 3.46908183e-003
      -3.46444058e-003 1.43946530e-002 4.69745755e-005 -4.11420013e-004
      4.11339710e-003 -3.38456803e-003 6.28287112e-003 1.08212885e-002
      -2.80468538e-003 3.10354936e-003 -2.41574040e-003 -7.15476042e-003
      -5.64889843e-003 9.98817198e-003 2.74382089e-003 4.67754947e-003
      2.13783933e-004 -1.70248635e-002 -6.24123868e-003 1.52533622e-002
      3.13748815e-003 1.27474582e-002 1.10115507e-003 -1.26198726e-002
      2.17572623e-003 1.24219817e-003 -1.14944093e-002 5.80176571e-003
      4.40326007e-003 1.30896783e-002 1.50798224e-002 5.96794020e-003
      -1.01778563e-002 -1.34096453e-002 -2.69215321e-004
      -1.61917042e-003 5.67752868e-003 4.36473545e-003 -2.66921800e-003
      1.65215321e-002 -4.55574133e-003 7.53032602e-003 7.98622798e-003
      7.96066504e-003 -1.09802298e-002 -1.13269892e-002 -4.69884370e-003
      -1.97327090e-003 4.02258290e-003 -1.73386768e-003 -8.45031999e-003
      -8.90616141e-003 4.14129626e-003 8.12188070e-003 -1.50805456e-003
      -2.83035599e-002 -6.87640300e-003 -1.64837088e-003 5.35542611e-004
      1.33783715e-002 -4.13217786e-004 -2.80432776e-003 4.17036330e-003
      -6.49593165e-003 7.96299987e-003 7.66299549e-004 9.19344928e-003
      7.83997774e-003 -7.74924783e-003 -4.92512062e-003 -2.71328585e-003
      9.79455188e-003 -5.47365798e-003 2.81718816e-003 -4.39595291e-003
      1.05880245e-004 1.68534964e-002 8.11927952e-003 -1.40288204e-003
      -4.69160033e-003 1.30430227e-002 -1.04259877e-002 8.46092310e-003
      -2.09992309e-003 2.54399423e-003 7.05068524e-005 1.20866289e-002
      4.11904138e-003 1.48360692e-002 2.26111524e-003 -8.20652489e-003
      -1.37719186e-003 -7.98577536e-003 4.29557590e-003 -1.58310495e-002
      -3.92344547e-003 3.12660146e-003 1.25586512e-002 6.96885167e-003</_>
    <_>
      2.86057126e-003 4.27091355e-003 -4.71650017e-003 -4.80970787e-003
      1.76666316e-003 -2.91671720e-003 1.13432426e-002 -5.58454404e-003
      1.66339558e-002 -1.45513192e-002 -3.47909443e-002 1.74746644e-002
      -5.06698387e-003 -2.54027516e-004 -7.64119159e-003 3.83987906e-003
      -1.85617711e-002 -1.48308035e-002 -6.09555515e-003 3.80818010e-003
      3.45824286e-003 4.83851181e-003 -1.19117349e-002 -1.95238125e-002
      6.66462071e-003 1.54456086e-002 3.10491435e-002 -7.55154015e-003
      7.23866804e-004 -3.57936998e-003 1.03080715e-003 1.13420794e-002
      -2.04328485e-002 1.82948355e-002 7.11582182e-003 9.32949770e-004
      2.96212304e-002 2.41072308e-002 1.64761171e-002 -1.28810173e-002
      8.12417362e-004 -7.33625703e-003 2.82602431e-003 -1.47708502e-004
      -4.91554383e-003 -5.92062483e-003 -1.76148862e-002 1.43393744e-002
      2.82832775e-002 -8.87114555e-003 9.01594199e-003 2.58948226e-002
      1.75205655e-002 4.18245839e-003 -1.77130178e-002 2.13199537e-002
      1.65781495e-003 -3.44574940e-003 -1.79549493e-003 2.38166023e-002
      9.04380064e-003 3.62033420e-003 1.39619336e-002 -3.73930298e-003
      -1.65437174e-003 6.96997065e-003 -1.92710143e-002 2.42213923e-002
      -8.63593817e-003 -5.80786821e-003 -1.00732474e-002 1.29046720e-002
      1.54693732e-002 1.52355270e-003 7.92960357e-003 -2.99909222e-003
      -5.63888997e-003 4.67165746e-003 2.90160477e-002 6.60929887e-004
      2.37314194e-003 1.96663979e-002 -6.31450955e-003 -1.44172125e-002
      8.98748823e-003 1.43792760e-002 -1.24668470e-003 2.15824619e-002
      6.71022385e-003 -1.36477845e-002 9.04625934e-003 -1.19934035e-002
      7.58016016e-003 3.20848152e-002 -2.85665109e-003 3.17317853e-003
      -3.05468938e-003 -3.54443002e-003 -2.20865980e-002
      -4.51936293e-003 1.09441262e-002 5.12601109e-004 1.52769797e-002
      1.68280173e-002 -1.26874521e-002 7.68172613e-004 -9.65170190e-003
      -2.63973679e-002 -4.78881923e-003 4.05683834e-003 1.23692937e-002
      -4.11792519e-003 -3.97045072e-003 -5.06006461e-003 5.60616096e-003
      3.67416479e-002 -1.75680760e-002 1.80133786e-002 2.70089437e-003
      -4.92075109e-004 -7.44806882e-003 -2.41338275e-002 8.18347372e-003
      2.65767449e-003 1.90388914e-002 1.95734929e-002 6.44858088e-003
      -6.10359199e-003 8.68029241e-003 2.90629291e-003 -9.26092267e-003
      -1.39529200e-003 -1.06345200e-004 -3.88587476e-003 2.40146852e-004
      -1.43227978e-002 1.93150388e-003 2.36942023e-002 1.69489421e-002
      7.90385250e-003 -1.67650841e-002 1.24958949e-002 9.33578145e-003
      -6.43082429e-003 7.50026520e-005 -6.54530665e-003 -8.52137711e-003
      9.08685755e-003 -1.86779778e-002 -1.67707319e-003 2.93109915e-003
      -3.02509721e-002 9.95340571e-003 6.86698733e-003 -1.88353490e-002
      1.68838222e-002 -8.79103318e-003 -1.07318843e-002 5.89608331e-004
      3.92042426e-003 1.19478826e-003 -3.52906366e-003 3.61103565e-003
      -2.81832949e-003 5.82539290e-003 -1.13200722e-002 2.38244585e-003
      3.03947292e-002 -1.04026329e-002 7.95904361e-003 1.86968001e-003
      -6.08415296e-003 -1.77285951e-002 -1.76785756e-002
      -2.41777953e-003 1.95865277e-002 -9.79504548e-004 1.48814195e-003
      3.92662324e-002 -1.10769169e-002 -2.04588585e-002 -5.86001435e-003
      1.63360802e-003 3.06036491e-002 1.49932886e-002 6.45450782e-003
      4.92272386e-003 -1.37382392e-002 1.54175255e-002 -7.58072129e-003
      -1.53961359e-002 8.21354706e-003 2.76146369e-004 1.82794575e-002
      -4.83277673e-003 -1.19595258e-002 9.19457152e-003 -1.01771411e-002
      -2.20366344e-002 -3.43140401e-003 1.32429404e-002 -1.08871106e-002
      3.53329997e-005 1.80505943e-002 2.65779672e-003 2.14810129e-002
      -1.68791767e-002 -2.29526241e-003 2.44332431e-003 -7.42785167e-003
      2.91923527e-002 -2.24569198e-002 -2.25313716e-002 3.20695341e-002
      1.92345970e-003 1.39682693e-002 -2.37467326e-003 1.09353883e-003
      2.20863968e-002 1.45890971e-003 -1.05715692e-002 2.11992618e-002
      1.53296757e-002 5.47232432e-003 1.04709016e-002 -6.97273156e-003
      -1.62393190e-002 1.30132399e-002 -1.63625441e-002 -1.21603450e-002
      4.51123109e-003 1.12095140e-002 -9.73520894e-003 -3.41720320e-003
      1.09335138e-002 7.61883799e-003 -1.37398159e-002 -3.45626404e-003
      -1.70844123e-002 2.96185520e-002 3.99483077e-004 4.91633732e-003
      -3.24035389e-003 -1.73647068e-002 -9.38702654e-003 1.16530415e-002
      -1.04511352e-002 1.46129495e-002 -9.23605543e-003 3.46013764e-003
      -9.10408702e-003 9.73294675e-003 -1.77347194e-002 1.32228835e-002
      -1.16184335e-002 -1.63861141e-002 1.29512260e-002 1.15930028e-002
      8.66767310e-004 1.70077197e-002 1.77941006e-002 2.27100383e-002
      -5.80644887e-003 1.31396502e-002 9.53092647e-004 -3.33155915e-002
      -1.52319213e-002 2.36517452e-002 2.83008255e-003 -5.15558338e-003
      -2.68546958e-002 -1.45910634e-002 -4.86049801e-003
      -1.74956080e-002 1.35493539e-002 -4.85727005e-003 -2.50732582e-002
      -1.36078950e-002 9.98612121e-003 -5.02432976e-003 -1.01436628e-002
      -3.97886150e-003 2.01202668e-002 2.73039248e-002 -2.17022207e-002
      -6.62761461e-003 1.62166115e-002 3.45336506e-003 3.98807788e-005
      -1.37980822e-002 1.87597778e-002 -1.49317617e-002 -2.79793479e-002
      6.36901101e-003 -5.88216865e-003 6.49639079e-003 -1.65551726e-003
      5.35463728e-003 1.40536604e-002 -7.01087480e-003 -8.47507641e-003
      -4.58757859e-003 -7.19850417e-003 -9.73356795e-003 2.88102441e-002
      -5.00773918e-003 -7.13980617e-003 5.69385896e-003 1.16547411e-002
      1.52599625e-002 -3.82076693e-003 2.15295013e-002 -1.68145020e-002
      -4.47593303e-003 -8.31605692e-004 -1.55133009e-002 5.02516422e-003
      -1.32339746e-002 -3.34660348e-004 -1.63103174e-002 2.68602557e-003
      7.38184433e-003 7.69858062e-003 -1.98019706e-002 -1.79066174e-002
      2.43681693e-003 1.41256107e-002 -1.83855128e-002 1.36454832e-002
      -1.12549660e-005 -1.02444068e-002 -9.78619419e-003 1.75162908e-002
      -3.38550434e-002 1.76043715e-002 -4.19099024e-003 -1.69934034e-002
      -2.59192828e-002 -5.50217403e-004 1.58460066e-002 8.70163552e-003
      2.02419441e-002 -7.88432918e-003 3.47097684e-003 1.75484437e-002
      1.02981012e-002 -9.24923457e-003 -1.57979950e-002 5.09192643e-004
      2.99261343e-002 -2.26146611e-003 -4.47873818e-003 -4.39366326e-003
      -3.35470936e-003 1.02638621e-002 6.93525653e-003 -7.03770109e-003
      2.68771546e-003 -1.92593057e-002 7.17474613e-003 1.17330505e-002
      -1.76726021e-002 -2.99314107e-003 -3.48792151e-002
      -1.68105476e-002 -4.34533088e-003 1.19593763e-003 8.91761947e-003
      -8.28544982e-003 2.76732328e-003 -1.89008622e-003 -1.42421490e-002
      -1.93294454e-002 -1.07301017e-002 -3.58931161e-003 8.41696560e-003
      8.32403312e-004 -1.59238353e-002 -4.89501562e-003 9.70057677e-003
      -4.55895159e-003 1.55196423e-002 1.65781770e-002 -4.91255615e-003
      -1.39786741e-002 -1.45668639e-002 1.39491986e-002 2.29616165e-002
      1.47202713e-002 2.18995530e-002 -2.83874087e-002 -3.84063181e-003
      -7.19810696e-003 -2.48118602e-002 2.61420552e-002 -5.61370924e-002
      -1.83306746e-002 -2.14464795e-002 -6.46075467e-003 2.23286729e-002</_>
    <_>
      4.36910242e-003 7.78693799e-003 4.45245707e-004 1.97156172e-004
      -2.29161661e-002 1.78910643e-002 -8.33848771e-003 -1.95352510e-002
      -1.35936476e-002 2.63404497e-003 1.12792589e-002 -7.45183323e-003
      2.10545585e-002 1.54967476e-002 4.17734293e-004 -2.22351076e-003
      5.26891369e-003 2.34223641e-002 -3.16280574e-002 5.89801371e-003
      9.08108987e-003 4.29728953e-003 -4.59219003e-003 4.22029197e-003
      -9.63968411e-003 -8.49397574e-003 -1.48902573e-002
      -1.22460292e-003 -7.99498404e-004 -1.14044966e-002
      -4.38452000e-003 1.82461292e-002 5.16534178e-003 -1.53129706e-002
      6.09920127e-004 5.68459788e-003 2.82233744e-003 1.68766901e-002
      -7.88396969e-003 -1.73612200e-002 -1.55549245e-002
      -2.88984440e-002 2.17234455e-002 -1.04584582e-002 -9.50879883e-004
      -2.33976562e-002 -3.73693625e-003 -1.00830775e-002 1.30873336e-003
      6.48242934e-003 -4.07537855e-002 -1.37651386e-003 -1.36188548e-002
      -3.30919144e-003 -1.62558500e-002 7.20030349e-003 2.07394566e-002
      3.22432420e-003 -1.35766668e-002 -7.93143362e-003 -1.47353830e-002
      1.48020638e-002 -1.37113901e-002 1.33134518e-002 5.68675436e-003
      -1.44178923e-002 -1.15884608e-002 -1.08682327e-002
      -9.09013301e-003 -1.22102955e-002 -5.89781487e-003
      -1.07353544e-002 1.52970953e-002 1.15795573e-002 -2.13324395e-003
      -7.80024007e-003 9.94144101e-003 1.94163509e-002 1.27038704e-002
      3.31113674e-003 9.53819416e-003 8.11311137e-003 -3.29805724e-003
      4.29166891e-002 -1.13559114e-002 1.42540708e-002 -3.47636687e-003
      -5.74376388e-003 -1.77305955e-002 9.06087738e-003 -1.55660287e-002
      -9.68964305e-003 -1.74551662e-002 -2.14517186e-003
      -8.30321014e-003 2.16056108e-002 -4.78823390e-003 -6.04556967e-003
      -5.57354325e-003 -2.94547565e-002 -9.45484638e-003
      -8.29574745e-003 8.43088236e-003 -1.86100174e-002 4.66410862e-003
      2.15861667e-002 -2.08077338e-002 1.89497396e-002 4.11625719e-003
      -5.24329580e-003 1.44773154e-002 -7.12078437e-003 -1.98336020e-002
      -1.76573545e-002 -6.96524652e-003 -2.55095828e-002 6.63348893e-003
      1.32775148e-002 2.96965335e-003 -1.04780393e-002 -2.05945168e-002
      -1.30537702e-002 1.94484112e-003 -1.58173405e-002 -3.85396811e-003
      2.20700121e-003 -2.99188518e-003 -3.12190503e-003 -2.32338682e-002
      9.78183001e-003 -3.91208380e-003 8.47449154e-003 -2.68559009e-002
      9.12630651e-003 3.88575681e-002 1.56558584e-002 1.32130114e-002
      2.62351632e-002 -5.00087533e-003 7.96138030e-003 -1.62017485e-003
      -3.32277478e-003 8.74828734e-003 -5.31713653e-004 -1.11960610e-002
      -1.48516884e-002 1.03172171e-003 -3.72960442e-003 -2.74405302e-003
      3.94218368e-003 -1.04535893e-002 -1.02994060e-002 7.38713006e-003
      7.15721212e-003 -6.36680843e-003 -7.17848260e-003 -2.94720125e-003
      5.80121996e-003 1.13883270e-002 -7.80216372e-003 -6.29562419e-003
      -2.21607601e-003 2.56233499e-004 -4.99864388e-003 -1.75400302e-002
      3.64061841e-003 -5.92984539e-003 2.33323369e-002 -4.56980290e-003
      -9.97501076e-004 -3.73947877e-003 1.04118763e-002 -1.92576665e-002
      -5.11254556e-003 1.99336410e-002 1.21624786e-002 4.51956701e-004
      5.13199158e-003 -1.21189654e-002 -3.09112272e-003 1.52153487e-003
      -2.27261689e-002 5.32058068e-003 1.34847593e-003 -1.12695713e-002
      -2.09953096e-002 -3.61094694e-003 -1.88017191e-004 1.13428179e-002
      -1.34599777e-002 1.29170643e-004 -3.17187086e-002 1.39111485e-002
      -5.16303815e-004 -2.51664724e-002 -4.10895282e-003 8.71618371e-003
      1.14481905e-002 6.79994095e-003 -2.92208674e-003 1.62396412e-002
      1.61049571e-002 -4.79833269e-003 -2.52018706e-003 6.89488230e-003
      -9.23936162e-003 1.36767598e-002 9.98954009e-003 -1.58641208e-003
      8.90389178e-003 1.51610682e-002 1.09265195e-002 -1.09504648e-002
      1.91033185e-002 1.68256499e-002 -1.02413930e-002 -3.24389245e-003
      7.90825579e-003 1.52412953e-003 1.38415082e-003 -2.84115281e-002
      3.23096989e-003 -1.56709161e-002 -9.69435088e-004 -2.13119928e-002
      1.42296897e-002 -6.41816296e-003 -1.74991470e-002 2.22981325e-003
      6.35831244e-003 -8.90400633e-003 -4.59539285e-003 1.39309075e-002
      7.89690390e-003 2.81563587e-002 -2.49734577e-002 -4.48408648e-002
      -1.67003535e-002 -8.27817439e-006 -5.11720451e-003
      -8.73222575e-003 5.43571718e-004 2.54110782e-003 -4.70344117e-003
      1.39043527e-002 -1.72769260e-002 8.86687636e-003 -1.79167371e-002
      7.12751551e-003 -8.05158820e-003 -1.86730234e-004 1.15029560e-002
      -1.31178042e-002 2.94169914e-002 -1.14763752e-002 -7.62345875e-003
      2.30469834e-002 9.95825417e-003 3.12552671e-003 -1.80114305e-003
      -1.91686247e-002 8.93108547e-003 -2.76439842e-002 1.79965813e-002
      8.39734729e-003 -2.88404687e-003 4.41952283e-003 -7.26543507e-003
      3.64265479e-002 -1.28552672e-002 -5.53282350e-003 -1.08761424e-002
      6.81200298e-003 4.28387400e-004 -9.10137221e-003 -1.72437932e-002
      8.94544180e-003 4.04763594e-003 -7.43030803e-003 1.90428812e-002
      -1.58940256e-002 -1.59090851e-002 -1.26924505e-002 7.03596277e-004
      2.43171137e-002 -1.15183899e-002 8.87094904e-003 -1.17495330e-002
      -3.61112431e-002 -7.14911241e-003 6.63640257e-003 -1.68962986e-003
      5.50953718e-003 -4.62140329e-003 2.35798638e-002 1.66051928e-002
      2.90695461e-003 4.09990922e-003 -1.54982274e-002 -1.48604391e-003
      -6.32476760e-003 -1.92991423e-003 -6.43481035e-004
      -4.58180951e-003 8.85959901e-003 4.80808504e-003 2.35980321e-002
      1.04892245e-002 1.90845272e-003 5.08481963e-003 1.70735512e-002
