<?xml version="1.0"?>
<opencv_storage>
<my_svm type_id="opencv-ml-svm">
  <svm_type>C_SVC</svm_type>
  <kernel><type>LINEAR</type></kernel>
  <C>1.</C>
  <term_criteria><epsilon>9.9999999392252903e-009</epsilon>
    <iterations>100000</iterations></term_criteria>
  <var_all>400</var_all>
  <var_count>400</var_count>
  <class_count>8</class_count>
  <class_labels type_id="opencv-matrix">
    <rows>1</rows>
    <cols>8</cols>
    <dt>i</dt>
    <data>
      80 165 171 195 209 210 245 249</data></class_labels>
  <sv_total>28</sv_total>
  <support_vectors>
    <_>
      1.32218907e-002 2.86560063e-003 -1.78853097e-005 -1.82551481e-002
      -3.64708379e-002 -3.03486791e-002 7.82514736e-003 -3.77696869e-003
      -2.56247371e-002 2.07747333e-003 -2.99336240e-002 -1.10182278e-002
      7.15994928e-003 -1.02098742e-002 -8.08013510e-003 -1.26677454e-002
      -1.29755298e-002 2.51710718e-003 -2.08437555e-002 6.54080603e-003
      -1.76223125e-002 -5.43296337e-003 1.74539424e-002 -2.35057585e-002
      -8.16530269e-003 -3.25412154e-002 -1.63513049e-002
      -4.47551254e-003 -6.17527822e-003 -9.33024287e-003
      -1.09406468e-002 -2.25051902e-002 -1.09208701e-002 1.28236404e-002
      -1.29669616e-002 -1.13861682e-002 2.21377681e-003 -1.66252648e-004
      5.51323686e-003 -1.21271117e-002 -9.37097613e-003 -1.14748357e-002
      1.66740664e-003 -1.43525070e-002 -4.68575675e-003 2.71995581e-004
      -4.17618491e-002 8.34027596e-004 -2.12983675e-002 -6.86328346e-003
      -2.63736974e-002 1.26467636e-002 -1.60559230e-002 1.20120626e-002
      1.43438939e-003 -1.83160137e-003 2.61065643e-003 -1.15892198e-002
      2.78377702e-004 2.22079223e-003 -1.47216232e-003 3.81228607e-003
      4.24167095e-003 -1.37118958e-002 -6.97147381e-003 -9.25735198e-003
      1.53470947e-003 9.00421757e-003 -1.51849333e-002 -5.55157429e-003
      1.12907938e-003 3.64059070e-003 -1.20772030e-002 -9.04623792e-003
      2.99615902e-003 -8.98415782e-003 3.50612868e-003 -1.56008801e-003
      -1.67149585e-002 3.12481783e-002 -3.67269898e-003 1.41295530e-002
      -4.81825881e-003 -2.04864927e-002 -4.72020416e-004 1.97507683e-002
      -8.94019008e-003 -2.00360790e-002 -6.34665601e-003 1.16514955e-002
      4.97878669e-003 -9.05630272e-003 -3.26401065e-003 1.08493883e-002
      1.53906709e-002 -8.58984329e-003 -6.59326371e-003 -6.67824270e-003
      6.99893478e-003 -7.44298892e-003 -1.77292004e-002 8.03142134e-003
      -3.94318672e-003 -7.47008994e-003 1.18216360e-002 -6.83223596e-003
      1.92006845e-002 9.58819780e-003 1.29736476e-002 -1.42985508e-002
      -4.86135017e-003 -1.77657176e-002 -4.18470101e-003 1.32715376e-002
      -4.60539199e-003 7.92943500e-003 -1.19761406e-002 -1.48024084e-002
      -4.40346589e-003 -7.77672452e-004 -2.23632596e-005
      -3.26645887e-003 -4.94026020e-003 1.59414578e-002 1.15885884e-002
      -4.59756749e-003 1.07289040e-002 -4.26334655e-003 -1.41453324e-002
      1.34879369e-002 5.32318559e-003 1.00527154e-002 -8.51882622e-003
      1.25340540e-002 -7.73411104e-003 3.56037496e-003 6.61337376e-003
      -1.86664481e-002 6.37859222e-004 -4.84963530e-005 -3.18652578e-003
      -7.17508374e-003 6.29828125e-003 -3.73174576e-003 -3.27794673e-003
      -1.22695870e-003 -4.37081512e-003 5.66651998e-003 2.36616004e-003
      8.17416143e-003 3.61616281e-003 2.07573641e-003 -8.73031281e-003
      -2.61208531e-003 -1.50696095e-002 2.26106448e-003 -1.82589528e-003
      -8.06803070e-003 4.68355790e-003 1.20222010e-002 -4.86388523e-003
      3.43946479e-002 -1.04240412e-002 3.94028117e-004 -3.95287108e-003
      -1.14751114e-002 -4.01409855e-003 -1.71238487e-003
      -4.93940152e-003 1.46830513e-003 -1.42975617e-003 -2.58493610e-002
      -5.03534963e-003 -1.87653340e-002 -1.67382378e-002 2.28303787e-003
      -4.77944035e-003 -7.57384021e-003 1.42412810e-002 1.61847495e-003
      6.54003117e-003 -2.54224595e-002 6.24195067e-003 -7.25232021e-005
      -5.04742202e-004 8.12584627e-003 5.48648043e-003 6.36837538e-003
      1.15774889e-002 -1.13557139e-002 -8.70808086e-004 -1.63510107e-002
      4.30376874e-003 -3.03967413e-003 7.53345387e-003 3.84771498e-003
      -2.22652941e-003 -1.01572713e-002 2.19283596e-004 -9.71335731e-003
      1.07356731e-003 6.86155166e-003 -5.94112044e-003 1.58049483e-002
      -1.69556867e-003 5.94750687e-004 9.45749599e-003 -9.29636415e-004
      3.75314523e-003 2.31862767e-003 -6.85254158e-003 7.71739846e-003
      -2.75973161e-003 6.90684933e-003 2.05481630e-002 9.40414239e-003
      -8.61781824e-004 -7.35634705e-003 1.36590214e-004 -6.88602077e-003
      1.37486570e-002 -6.05326658e-003 -1.30568887e-003 -6.04677293e-003
      1.73814106e-003 -2.19512545e-003 -1.06341848e-002 -3.88836674e-003
      1.01646427e-002 -7.49625731e-003 -1.45165389e-002 1.00537501e-002
      1.27062863e-002 -1.27930166e-002 9.67915263e-003 -7.59421091e-005
      -4.10795026e-003 -1.85671374e-002 -2.14972370e-003
      -1.08145392e-002 -2.29356228e-003 -2.66823615e-003 1.15231341e-002
      -6.79910416e-003 2.64347494e-002 -7.15535018e-004 2.07432266e-002
      -5.39354281e-003 7.16970908e-003 2.20942381e-003 6.24318272e-005
      5.49770775e-004 1.11475568e-002 -4.92039835e-003 1.60993496e-003
      -2.06007883e-002 4.30316757e-003 7.38242548e-003 -3.29455739e-004
      3.79138836e-003 3.04553629e-004 -5.93819562e-003 -8.92515387e-003
      2.63446337e-003 2.27393340e-002 4.81720828e-003 1.51889678e-002
      4.56319936e-003 -1.29055809e-002 -9.18620080e-003 -8.96046590e-003
      1.03253610e-002 2.56540114e-003 2.03558356e-002 8.33514985e-003
      -6.83210045e-003 6.46537263e-003 -1.22745810e-002 8.23588483e-003
      7.03887374e-004 8.09025206e-003 -1.11268705e-003 5.14798751e-003
      2.54400214e-003 -4.44751140e-003 1.28501542e-002 -2.26311758e-002
      1.17483670e-002 2.38977419e-003 -9.94656887e-003 -2.14665881e-004
      -1.43716177e-002 -8.05011857e-003 6.90080784e-003 1.77099614e-003
      -1.12821488e-002 -7.71215931e-003 5.86936064e-003 9.46578104e-003
      1.25963567e-002 4.08677803e-003 4.57982933e-005 -4.51369397e-003
      6.90235104e-003 -6.61675178e-004 8.67839251e-003 1.13201737e-002
      -9.01980791e-003 -1.20698353e-002 -4.31031361e-003 1.13987885e-002
      8.27792101e-004 -1.77398918e-003 -6.74928073e-003 3.61738494e-003
      1.21657113e-002 -3.10780224e-003 2.48512849e-002 -1.11815846e-003
      -7.99028296e-003 9.98667534e-003 8.53689015e-003 -5.64161595e-003
      1.86992506e-003 1.67551972e-002 1.57760233e-002 -8.40282347e-003
      -1.20453080e-002 -3.31741176e-003 6.16627512e-003 9.02081933e-003
      -1.05901221e-002 7.73575623e-003 2.12761369e-002 -1.66444888e-003
      -9.05685872e-003 6.31309999e-003 -1.16999764e-002 1.41698751e-004
      2.19359831e-003 -3.01317801e-003 -5.06981928e-003 -2.44068336e-002
      1.43296085e-002 -1.85901932e-002 -1.36303650e-002 -1.83204990e-002
      -8.27698689e-003 -7.35972123e-003 8.85724835e-003 9.76884738e-003
      1.00474630e-003 1.44926272e-002 -1.24245653e-005 -1.35752494e-002
      1.00913355e-002 7.55639048e-003 7.60709587e-003 -3.03487647e-002
      1.28346877e-002 1.50987543e-002 7.94415921e-003 2.32868511e-002
      -3.18560190e-003 -1.26583772e-002 -2.73124897e-003 4.79135569e-003
      -3.20857414e-003 1.88103516e-003 1.51237100e-002 -1.33656608e-002
      2.23488500e-003 -1.45661016e-003 9.27722838e-004 1.64453743e-003
      -4.08704299e-003 -3.27941589e-003 -8.51912145e-003 6.71208976e-003
      2.28147861e-002 6.06129295e-004 7.69760227e-003 4.90981527e-003
      1.37300026e-002 -2.11825897e-003 -4.60676663e-003 3.70045193e-003
      -6.02825964e-003 -3.23618855e-003 6.99959649e-003 -8.72165244e-003
      4.52152686e-003 2.69183936e-003 3.08055133e-002 -6.52917894e-003
      1.06436247e-002 1.09208087e-002 1.65302330e-003 1.07186381e-002
      1.42049883e-003</_>
    <_>
      2.44766884e-002 5.61532304e-002 -6.09895401e-003 1.34870326e-002
      2.53640418e-003 9.41745006e-003 2.53570788e-002 -1.32383080e-002
      -2.91860197e-002 1.53585616e-002 2.99759256e-003 -3.03889159e-004
      1.19899102e-002 6.21028338e-003 8.63419101e-003 -3.18606663e-003
      3.09993997e-002 1.40544018e-002 -6.50773803e-003 1.70212516e-004
      1.76879484e-002 1.60833970e-002 8.68046284e-003 1.77372817e-003
      3.08315232e-002 -2.42121089e-002 3.76826269e-003 -1.51293082e-002
      -1.31553924e-002 2.48121563e-002 -9.17869434e-003 -7.48999836e-003
      1.12440251e-002 3.06984950e-002 -1.39900101e-002 3.08211846e-003
      2.41978187e-002 -2.02902332e-002 2.43077036e-002 -1.41697284e-002
      -1.32412836e-002 -6.43646857e-003 2.31874567e-002 6.03007429e-005
      1.14259345e-003 -3.98150459e-003 -4.14624773e-002 -2.95141392e-004
      3.82290292e-003 -1.92454010e-002 -3.71173434e-002 -3.77957448e-002
      -1.16667654e-002 1.02897622e-002 -3.92782427e-002 -1.48403803e-002
      -2.45552249e-002 -1.56369749e-002 1.03287743e-002 2.07686387e-002
      1.91214483e-003 -1.20537663e-002 1.63143929e-002 -8.80178735e-002
      -4.21357676e-002 -2.10680086e-002 -1.86774489e-002
      -2.17869226e-002 -2.41439678e-002 -2.87390221e-002 6.98488764e-003
      -1.88352764e-002 -1.69478692e-002 -6.13680982e-004
      -4.87295305e-003 -2.84949560e-002 3.42517048e-002 -1.87233482e-002
      1.29020493e-002 -8.53942987e-003 7.90889841e-003 -1.43170282e-002
      8.37629254e-004 4.31257533e-003 -1.90466456e-002 -1.89147051e-002
      9.13623837e-004 -3.93949710e-002 -2.18779920e-003 3.22079621e-002
      -2.75991075e-002 -5.11322729e-002 -5.71185537e-003
      -2.02943161e-002 3.49536762e-002 -3.87961194e-002 1.46680810e-002
      3.53062246e-003 -2.19559632e-002 -5.91527037e-002 -3.47219035e-002
      2.31916793e-002 -8.28882772e-003 -2.45241001e-002 -7.00721797e-003
      -3.74889597e-002 -1.35665042e-002 1.61735956e-002 -6.44948473e-003
      -3.53448018e-002 -7.41051976e-003 1.81298144e-002 2.58378871e-003
      7.21185934e-003 -1.47899520e-002 1.51598388e-002 1.93508994e-002
      1.61888395e-002 2.33636540e-003 4.86744242e-003 -5.77685656e-004
      5.82905579e-003 1.71067920e-002 6.95392629e-003 7.63255730e-003
      1.31178293e-002 -5.44488849e-003 -8.37880373e-003 -4.65643499e-003
      2.95878947e-002 1.33758038e-002 -5.94966533e-003 -1.61786862e-002
      -1.57137215e-002 2.14773081e-002 -3.10548227e-002 -9.27187968e-003
      -8.99338257e-003 -1.47544099e-002 1.52184842e-002 -3.67084285e-003
      -1.29875764e-002 5.73125295e-002 1.73105788e-003 2.64222501e-003
      6.70795911e-004 4.98860609e-003 1.87439099e-002 2.48641912e-002
      2.48164274e-002 8.90783221e-003 -1.10952677e-002 2.79251039e-002
      -2.08098367e-002 -1.15440146e-003 7.89686013e-003 8.11439939e-003
      4.86833649e-003 8.48158728e-003 1.21848576e-003 1.30409142e-002
      3.05931401e-002 2.86389072e-003 -4.01343306e-004 3.37986021e-005
      3.06257117e-003 -8.35318118e-003 -2.50923280e-002 7.61651946e-003
      7.89353624e-004 3.16272415e-002 -2.24894565e-002 -1.36466026e-002
      1.65352654e-002 -3.34408530e-003 -2.96768267e-003 -6.55518379e-003
      -2.43174122e-003 2.12541223e-002 2.12990232e-002 -9.54016019e-003
      -2.59234514e-002 -1.15734143e-002 1.51213109e-002 -5.00924373e-003
      1.14165256e-002 -1.52188540e-002 -2.06411374e-003 8.60708673e-003
      4.19635512e-003 -1.19269332e-002 -5.18034957e-003 1.04334084e-002
      4.69639944e-003 -9.96415387e-004 1.95303815e-003 3.62979458e-003
      -1.56908277e-002 -1.80736315e-002 -3.91200855e-002
      -2.39210110e-002 1.38708530e-002 1.27630746e-002 1.98236611e-002
      2.43295426e-003 -5.94281545e-003 -1.61691811e-002 1.87299065e-002
      -6.10251212e-003 -1.75940450e-002 9.59877390e-003 -3.57944369e-002
      -1.55373272e-002 5.19452244e-003 3.38014169e-003 2.59139901e-003
      1.16726533e-002 -5.67457732e-003 1.20143155e-002 1.78660844e-002
      1.87393110e-002 3.04944813e-003 -8.95039085e-003 -4.64266952e-004
      -7.19522499e-003 -1.62330382e-002 -1.05213013e-003 1.40411425e-002
      -1.17862681e-002 1.74899309e-004 -2.22939607e-002 2.38959417e-002
      1.66170858e-002 -3.71287169e-004 3.00425179e-002 -2.33678576e-002
      -2.87448918e-003 5.05207293e-003 -6.43995963e-003 9.46194958e-003
      -1.92694720e-002 -2.32955795e-002 1.84293091e-002 -2.56843306e-002
      -1.72668993e-002 1.42382411e-002 -5.35349781e-003 2.12459005e-002
      -5.14950277e-003 1.40472585e-002 2.11646594e-002 -5.06792497e-003
      3.36110853e-002 -3.93501204e-003 -4.35535423e-002 -1.52119389e-002
      -9.69751645e-003 -3.61446902e-004 -1.19864894e-003
      -2.64690397e-003 -1.45619353e-002 -1.17981993e-003
      -7.12445937e-004 -7.49222701e-004 8.02735100e-004 -7.00696977e-003
      3.20753045e-002 2.65355338e-004 1.61975622e-002 -9.71541740e-004
      1.18637905e-002 1.76650640e-002 -3.72426361e-002 2.16713157e-002
      -9.31424834e-003 3.25398496e-003 1.56771846e-003 -4.26371396e-003
      1.70173720e-002 -1.33481417e-002 -1.88926142e-002 -2.92706005e-002
      -6.15154626e-003 -3.68826166e-002 -1.15555115e-002
      -7.97288958e-003 -5.97014232e-003 -2.04826682e-003
      -1.22416411e-002 -1.02742445e-002 4.58714692e-003 4.57572378e-002
      4.91507724e-003 1.19547974e-002 4.36300877e-003 8.62040557e-003
      -2.35119667e-002 -1.53244007e-002 1.35972304e-002 2.48884670e-002
      8.02347716e-003 -2.14802902e-002 -6.20504655e-003 -1.27426405e-002
      4.46634274e-003 2.81193270e-003 1.41282370e-002 -5.29854000e-003
      -2.28313683e-003 6.94525428e-003 -7.88747426e-003 1.43459253e-003
      -1.43517938e-003 -2.69997329e-003 2.93479189e-002 -4.06075298e-004
      1.15085645e-002 2.91392058e-002 -3.24687595e-003 -1.80527046e-002
      3.21969464e-002 3.58712822e-002 -7.14114727e-003 -1.61805341e-003
      2.56176721e-002 -2.37009414e-002 -2.01940667e-002 -2.23919135e-002
      1.55827412e-002 4.34410013e-002 8.67281575e-003 -2.08463669e-002
      1.82629414e-002 -9.83743928e-003 5.11831976e-003 -8.84203520e-003
      -1.00535788e-002 1.16582103e-002 -1.97680462e-002 2.39288472e-002
      -4.55047702e-003 1.11856861e-002 -1.64946902e-003 2.18467601e-002
      1.15335919e-003 2.60118931e-003 -4.36712755e-003 2.10524444e-002
      -1.06375841e-002 -9.65103507e-003 1.38016781e-002 3.51091549e-002
      2.62622330e-002 -2.92690634e-003 5.24352444e-003 3.41580692e-003
      2.29247883e-002 -7.16386712e-004 1.00716883e-002 1.98745094e-002
      2.06869468e-002 -1.67454891e-002 1.14624249e-002 7.59961922e-003
      5.84000675e-003 8.32286850e-003 3.33169848e-003 6.52063778e-003
      9.34604649e-003 -1.73104908e-002 1.60491298e-004 -1.80642027e-002
      7.23958481e-003 1.77777291e-003 6.05845824e-003 2.52933754e-003
      1.74876652e-003 -1.36414496e-002 2.52980720e-002 1.60967857e-002
      2.69464985e-003 1.36021525e-002 2.04762034e-002 1.56278722e-002
      -1.79415625e-002 -3.12382933e-002 6.18056487e-003 -1.99545338e-003
      -9.41375853e-004 6.85132295e-003 1.59514640e-002 6.13883696e-003
      3.33629386e-003 1.23954928e-002 -5.38585847e-003 3.30825597e-002
      6.26842678e-003 2.46271938e-002 1.06701853e-004 -1.90596785e-002</_>
    <_>
      1.24721313e-002 6.42140443e-003 8.27542879e-003 4.39972198e-003
      1.77494604e-002 -1.76306311e-002 2.08103266e-002 -1.58457104e-002
      -3.33471186e-002 1.24426642e-002 -4.39503463e-003 -3.99986340e-004
      5.81836887e-003 1.94090989e-003 -1.29786553e-003 -4.13592905e-003
      -2.92967423e-003 -1.07365451e-003 2.15744674e-002 -2.92166253e-003
      -7.70828547e-003 1.33807398e-002 1.33664357e-002 -4.36914415e-004
      4.65977238e-004 -1.36820646e-002 -3.53234867e-003 -5.18629793e-003
      -2.09376458e-002 -1.41861606e-002 -1.51567291e-002
      -1.40881236e-003 -1.70784239e-002 -7.47121172e-003 9.90457181e-003
      3.94412456e-003 -8.57486669e-003 -4.92773158e-003 2.07481924e-002
      5.58880623e-003 -1.96443591e-002 -3.38141085e-003 8.05856660e-004
      -1.42368712e-002 1.39514236e-002 5.39674098e-003 -1.72289424e-002
      9.01837775e-004 -2.29430705e-004 -1.17775965e-002 -2.96476092e-002
      -1.21613629e-002 -1.38670346e-002 2.26557907e-002 -1.76475961e-002
      -1.64264571e-002 -3.96819040e-003 6.26472104e-003 2.31919140e-002
      2.91916961e-003 -7.35225575e-003 2.40166835e-003 1.33345951e-003
      -1.10647082e-002 -1.22149782e-002 7.78101850e-003 5.76055050e-003
      9.98374354e-003 1.08224135e-002 -1.53000676e-003 -1.45436889e-002
      -1.27304122e-002 -7.86407478e-003 7.42835179e-003 3.74384597e-003
      -1.87542429e-003 1.01945354e-002 -1.62824485e-002 2.84060929e-003
      -7.47413980e-003 2.50089448e-004 -3.41508933e-003 -1.54712750e-002
      -7.84821436e-003 2.52321269e-003 -3.32270842e-003 3.98301519e-003
      -2.34811334e-003 -2.21813121e-003 5.77393174e-003 1.18008479e-002
      -1.11277802e-002 4.44711186e-003 2.31313938e-003 3.91310919e-003
      -1.25711923e-002 -1.65477265e-002 3.51879420e-003 9.13720299e-003
      7.44289311e-004 -3.09332106e-002 2.47783447e-003 1.89913844e-003
      -1.33255348e-002 -8.22598673e-003 5.17816190e-003 -1.31435087e-003
      5.35195740e-003 -1.10244602e-002 9.20634018e-004 -1.88932084e-002
      -1.63781445e-003 1.43609056e-003 -1.97614972e-002 -1.09546585e-002
      9.19206347e-003 -1.62424166e-002 -1.08327297e-002 5.28767596e-005
      6.45992404e-004 -5.26052015e-003 4.16085916e-003 -1.13797681e-002
      3.24017694e-003 5.61710307e-003 -1.32901166e-002 3.01688025e-003
      -1.89638603e-003 -2.60880720e-002 2.27456558e-002 -1.07443547e-002
      6.94205705e-003 -3.52490768e-002 1.94475222e-002 -3.45139531e-003
      -2.56703440e-002 -9.02779307e-003 -1.60753950e-002
      -1.47617084e-003 -9.93315782e-003 -6.30479772e-003
      -1.09967496e-002 -7.32811773e-003 -1.83793232e-002
      -1.61541589e-002 1.01824515e-002 -6.27604080e-003 1.55590679e-002
      -1.93172917e-002 1.88083239e-002 -1.39967576e-002 2.14081258e-002
      4.35463013e-003 -8.49288050e-003 -2.81441864e-003 3.23079852e-003
      4.29953728e-003 1.10353355e-003 -9.41007677e-003 -1.77371129e-003
      1.17226352e-003 1.96437631e-002 2.73620989e-003 4.77753719e-003
      4.71594324e-003 -3.13782357e-002 4.38902667e-003 2.61987397e-003
      1.46673201e-002 -3.37076327e-003 1.09426370e-002 -1.66322570e-002
      1.83342292e-003 -1.38044916e-002 -6.44753105e-004 -1.17522292e-002
      -6.36887597e-003 -2.02864613e-002 1.02204643e-002 -6.07858645e-004
      -1.09195467e-002 -3.98486666e-002 -1.62774213e-002
      -8.83675274e-003 1.23967100e-002 -5.26792230e-003 1.09145330e-004
      -1.52200775e-003 7.89356697e-003 1.74474027e-002 -1.12851383e-003
      2.34290957e-003 -8.14424362e-003 2.94215715e-004 1.89791005e-002
      -4.76445537e-003 -1.92587159e-003 5.88152139e-003 1.86243709e-002
      -2.51650182e-003 -1.40010212e-002 -4.26167436e-003 1.11024268e-002
      -5.38571086e-003 1.38897886e-002 -1.13710330e-003 -4.93562454e-003
      -2.28087491e-004 1.43269096e-002 -8.47687479e-003 -1.11907572e-002
      2.07132977e-002 -2.50048488e-002 2.73083872e-003 1.11210421e-002
      1.14852590e-002 -6.16756408e-003 3.30188265e-003 1.34882974e-002
      -1.00926054e-003 1.33810816e-002 -1.74157638e-002 5.46008023e-003
      -1.37640070e-002 -1.41059458e-002 -2.61986889e-002
      -6.96535129e-003 1.79919275e-003 5.67765720e-003 1.24184787e-002
      -3.86611966e-004 1.13508776e-002 1.14463130e-002 -1.47515731e-002
      2.03574654e-002 -3.29356524e-003 4.09148820e-003 3.60865099e-003
      -3.45594808e-003 6.90847589e-003 -1.58657916e-002 4.81062662e-003
      4.62232716e-003 -2.45876554e-002 -1.73596777e-002 -9.97269340e-003
      -1.60883330e-002 1.17337778e-002 1.82480849e-002 2.64192023e-003
      1.11726113e-002 9.03278962e-003 -1.42834540e-002 -1.21861035e-002
      -2.84880603e-004 -8.62703845e-003 2.32739700e-003 -1.14901608e-003
      -1.06473388e-002 6.31433504e-004 8.40147212e-003 -1.04877502e-002
      -9.06614214e-003 -3.28054070e-003 8.07487685e-003 1.92217696e-002
      2.20589824e-002 -7.21530803e-003 2.67839991e-003 -1.09285186e-003
      -1.10681448e-002 1.28599573e-002 -1.37788588e-002 2.61338917e-003
      -3.31661577e-004 6.79290947e-003 -1.81824469e-003 -4.10102628e-004
      2.29482446e-002 5.17867971e-003 2.28048414e-002 -1.56407175e-003
      -7.08528701e-003 1.78130064e-002 -8.31441861e-003 -9.23078414e-003
      -9.49198194e-003 7.98023492e-003 -5.73512819e-003 1.49416486e-002
      -7.52852065e-003 -1.38510047e-002 -3.74061661e-003
      -1.31478009e-003 4.56021028e-003 -1.83080025e-002 1.20839453e-003
      8.94640293e-003 5.48822107e-003 -1.93910720e-003 3.07279918e-003
      -5.34795318e-003 -4.07075956e-002 -1.11581143e-002
      -2.72646081e-004 -9.31505393e-003 1.55204264e-002 2.26828028e-002
      2.70357617e-004 2.35485472e-003 -4.42484859e-004 -4.75211116e-003
      1.06033105e-002 -7.03599676e-003 9.81572364e-003 -9.52530373e-003
      -2.38500237e-002 3.15377070e-003 1.60183851e-003 -1.84998987e-003
      1.16395140e-002 1.52813429e-002 -8.69574584e-003 5.12426812e-003
      1.48671046e-002 -1.11612503e-003 4.58842656e-003 -2.55997702e-002
      6.30210794e-004 1.90247446e-002 1.78856365e-002 -1.20414849e-002
      1.65245011e-002 2.50427774e-003 5.32495731e-004 5.14836609e-003
      -2.48513324e-003 -3.10793193e-003 2.19648122e-003 1.26394425e-002
      5.20876748e-003 3.20211356e-003 -1.41755976e-002 -4.12175898e-003
      -1.88434049e-002 -2.12731306e-002 -1.25959832e-002 5.79121569e-003
      1.01154400e-002 5.90573205e-003 9.35481954e-003 1.62297562e-002
      1.63518377e-002 -8.12921906e-004 1.90806929e-002 3.98643967e-003
      5.25491452e-003 1.67199727e-002 -1.24716768e-002 7.99666997e-003
      1.40686827e-002 -2.23438479e-002 -7.09697884e-003 -4.12404677e-003
      3.46799940e-002 -3.81573034e-003 4.36617900e-003 -9.66789594e-005
      1.30440248e-003 1.11096594e-002 -7.19310855e-003 -6.67968183e-004
      -6.35373080e-003 7.47424411e-003 5.68036828e-003 -2.89970776e-003
      -2.75394823e-002 8.00988730e-003 1.07456846e-002 2.40108557e-002
      1.48009546e-002 3.39277950e-003 1.12049300e-002 -1.76250387e-003
      8.36355146e-003 6.50987681e-003 7.17115123e-003 8.50400422e-003
      1.77219172e-003 9.02612321e-003 1.29148159e-002 3.59035737e-004
      -4.46064025e-003 1.82855446e-002 2.17551319e-003 -1.17028337e-002
      2.04903423e-003 -4.01456933e-003 1.30577795e-002 -8.08026921e-003</_>
    <_>
      -2.15789080e-002 3.61090200e-003 -9.65485722e-003 8.22982099e-003
      -1.66478958e-002 2.52521113e-002 2.39613224e-002 5.71398903e-003
      1.28702698e-002 1.43732894e-002 -4.09535170e-002 -1.68223726e-003
      -1.25778215e-002 -7.05369050e-004 2.32212581e-002 -3.89838740e-002
      1.24211609e-002 1.06881447e-002 2.43655853e-002 1.56657882e-002
      1.77649278e-002 2.74012052e-003 3.52896228e-002 2.03943768e-004
      2.46299691e-002 -1.04112169e-002 8.25831946e-003 -9.96990595e-003
      9.54158325e-003 -3.35763943e-005 -1.25116762e-002 -1.25763714e-002
      -4.38001752e-002 2.06531156e-002 -3.88991041e-003 1.20244054e-002
      1.29108019e-002 -4.11615503e-004 -1.91173945e-002 -1.54841812e-002
      5.07382501e-004 -3.48069631e-002 -5.17152576e-003 -4.19429094e-002
      1.49198137e-002 1.87635422e-002 -2.27094069e-002 4.72158106e-004
      -4.92167659e-003 -2.85588019e-003 -1.13723660e-002 2.33131014e-002
      2.46643145e-002 -4.71824314e-005 -6.04008930e-003 -1.18784364e-002
      2.05212785e-003 9.77655593e-003 9.27574001e-003 1.49731189e-002
      1.29663581e-002 2.48591765e-003 -1.37944072e-002 -3.16418405e-003
      3.29487063e-002 -6.25450397e-003 7.09670130e-003 3.38905938e-002
      2.69896202e-002 -2.47197319e-002 -3.98659967e-002 1.20037384e-002
      5.36994915e-003 1.28519032e-002 -1.80891622e-002 -2.73713581e-002
      2.90214177e-003 1.46894436e-002 8.33006762e-003 2.72526368e-002
      8.00755806e-003 -1.34091722e-002 -9.71088279e-003 2.24378286e-003
      1.97114740e-002 -6.83545228e-003 -2.61253472e-002 7.69545604e-003
      -1.33612370e-002 -8.88421386e-003 -1.96918398e-002 1.81423351e-002
      1.69592742e-002 -2.27069273e-003 -2.07507005e-003 1.80730987e-002
      1.08516924e-002 1.34705659e-002 -4.83023515e-003 -1.19134830e-002
      -1.95483863e-002 -2.06649918e-002 2.37305965e-002 -1.74740106e-002
      1.35237332e-002 -1.13119809e-002 9.40939598e-003 1.37665682e-002
      -1.47647867e-002 3.33781838e-002 8.82025249e-003 -2.58962922e-002
      -1.22251585e-002 3.96134984e-003 2.74691894e-003 2.60597747e-002
      7.88721349e-003 1.45195061e-002 -2.36335280e-003 -4.09804918e-002
      -1.86402723e-002 -3.80401523e-003 -1.53252482e-002 8.16670433e-003
      1.12346504e-002 1.17064139e-003 1.22672506e-002 1.28815789e-003
      -6.68934919e-003 2.77325343e-002 2.25250777e-002 1.28818816e-002
      -8.03161319e-003 -4.31366311e-003 -1.70453023e-002
      -5.42238578e-002 1.87625382e-002 1.16850100e-002 -1.96467340e-002
      -9.33879241e-003 -1.86552219e-002 -3.76104452e-002
      -2.78797629e-003 -5.84578747e-003 1.02246297e-003 1.05975438e-002
      -1.55024678e-002 2.82313470e-002 1.33962948e-002 1.66110862e-002
      -4.59292252e-003 2.44791643e-003 1.20965205e-003 -3.15787084e-002
      -7.50298193e-003 -1.30446674e-002 -1.43896854e-002 1.78138167e-002
      5.54009620e-003 1.79852564e-002 1.82108842e-002 1.80265382e-002
      -1.64386351e-002 7.04571977e-003 2.69384813e-002 -4.13658246e-002
      4.94681299e-003 -1.71282794e-002 2.12740342e-004 -8.64867028e-003
      4.68422333e-003 -1.30055798e-002 -3.50766703e-002 -1.05824992e-002
      -2.00486667e-002 -1.15175871e-002 -1.71922315e-002
      -1.65076796e-002 -1.57148130e-002 3.02977525e-002 1.15994159e-002
      -1.82033032e-002 -1.14195347e-002 -2.18968336e-002
      -2.58823242e-002 7.08787469e-003 -5.79024956e-004 2.38050856e-002
      -1.84465467e-003 -6.87257561e-004 1.84663776e-002 -1.11816032e-002
      -1.98214091e-002 7.68920686e-003 1.30054671e-002 7.27260625e-003
      -2.24776827e-002 -4.29412629e-003 -1.43751148e-002
      -3.41207930e-003 -4.15681750e-002 -3.72255105e-004
      -3.47663239e-002 4.34728712e-003 3.54292709e-003 -1.66114308e-002
      -1.48408515e-002 -1.83818641e-003 -8.99353903e-003
      -1.66799407e-002 7.82797579e-003 -2.23274119e-002 -1.26741000e-003
      2.65077539e-002 1.62603594e-002 8.35619122e-003 7.06317835e-003
      9.73069295e-003 -8.14781524e-003 -1.84205826e-003 1.60287917e-002
      2.11424455e-002 -2.21385807e-002 6.62192563e-003 -1.44178178e-002
      4.98205423e-003 1.96086708e-002 5.54066431e-003 1.01178717e-002
      -2.40866300e-002 -9.35368519e-003 3.09862606e-002 -5.85469743e-003
      -2.30656415e-002 -4.75095678e-003 -3.78378131e-003
      -5.50903147e-003 -5.15395589e-003 -1.29556740e-002
      -8.15294217e-003 -7.20196450e-003 -2.92933434e-002 1.91902313e-002
      -3.64672840e-002 -1.53080374e-002 -2.44427137e-002 2.15842575e-003
      1.20711243e-002 -6.65549515e-003 1.82983745e-002 3.45873274e-003
      -1.91554090e-003 1.41721098e-002 -3.36629301e-002 6.92147180e-004
      4.62125055e-003 -1.56771985e-003 -1.17820669e-002 -3.88395600e-002
      -7.33364606e-003 3.09777167e-003 4.22448479e-003 -4.21156511e-002
      3.35291331e-003 4.48376546e-003 -2.74493871e-003 1.45690860e-002
      -2.75268890e-002 -1.38916830e-002 -2.27169646e-003 2.96387803e-002
      6.64630346e-003 -1.20619172e-002 -9.82901920e-003 -3.56922485e-002
      -1.92437340e-002 -3.01236343e-002 3.48469126e-003 3.94798676e-003
      -6.12787763e-003 7.14276591e-003 -2.22136863e-002 2.06734277e-002
      -1.05291381e-002 2.20283177e-002 -2.26291525e-003 9.58034769e-003
      2.30082478e-002 1.75609216e-002 5.29491436e-003 -3.60225141e-002
      -1.27012050e-002 9.40388348e-003 5.08911116e-003 9.78565658e-004
      1.44633036e-002 -1.81556703e-003 1.62765589e-002 1.34607973e-002
      -1.02761397e-002 -8.78817774e-003 -6.33495348e-003
      -5.99129908e-002 1.24637997e-002 2.79223807e-002 2.20599901e-002
      2.15029605e-002 -4.14816942e-003 -1.34084886e-002 -2.06979066e-002
      -3.57919633e-002 1.01487036e-003 -6.59797946e-003 3.11252545e-003
      -4.36718669e-003 2.05909368e-002 3.97355296e-003 1.79002732e-002
      -7.93808233e-003 -1.34021938e-002 9.26923659e-003 1.58499386e-002
      3.25873122e-003 8.16001371e-003 3.34328003e-002 -3.77596878e-002
      -7.94451975e-004 -1.40578030e-002 8.30179080e-003 3.27250063e-002
      3.98266688e-002 -1.15996646e-002 4.06187735e-002 -1.99636514e-003
      6.87672582e-004 -2.75924383e-003 -2.21321099e-002 -2.48121545e-002
      -1.99199822e-002 2.74011400e-002 4.49083792e-003 1.51342088e-002
      -2.09725071e-002 1.84343103e-002 -1.70150585e-002 1.11252535e-003
      -1.84079781e-002 -2.55386782e-004 1.55517971e-003 -1.64565109e-002
      -2.57188305e-002 3.66621502e-002 9.50251520e-003 -7.83197954e-003
      2.65446436e-002 6.60821935e-003 1.44832861e-002 -9.56893153e-003
      -1.54832583e-002 2.10166797e-002 9.97233018e-003 7.50046270e-003
      1.40996184e-002 -4.90266597e-003 1.93071179e-002 1.58432890e-002
      3.52632813e-003 7.76221883e-003 -5.83544653e-003 -1.27015989e-002
      -1.71468128e-002 2.42197514e-002 9.50367469e-003 -1.78787615e-002
      1.76753905e-002 -1.42778608e-003 -2.98969913e-002 -6.79316968e-002
      1.86748095e-002 3.28068286e-002 1.74852349e-002 1.78502649e-002
      2.10020430e-002 -7.40936818e-003 -1.29512027e-002 1.54713662e-002
      -4.11348604e-003 1.03954254e-002 7.37497942e-007 1.06132375e-002
      3.60970125e-002 8.27171374e-003 -3.01772379e-003 2.05021668e-002
      5.74267330e-003 -1.17240911e-002 1.25169959e-002 -2.66319904e-002
      8.26840848e-003 1.25362407e-002</_>
    <_>
      1.36256637e-002 5.99904358e-003 -1.66241005e-002 1.15238279e-002
      -3.71739874e-003 -1.70898659e-003 1.60728823e-002 -8.83880164e-003
      -1.00687426e-002 7.77750323e-003 1.19174868e-002 1.72263198e-003
      1.77857541e-002 1.93179138e-002 1.98429590e-003 -2.12663249e-003
      3.22645437e-003 -3.01265682e-004 8.26064870e-003 1.65537000e-002
      -1.77798327e-003 6.05052849e-003 2.10338621e-003 1.26685365e-003
      1.27772018e-002 -7.26650143e-003 -3.96526325e-003 -6.36252947e-003
      9.69873555e-003 1.70154534e-002 -1.54500334e-002 -8.48601758e-003
      -2.82701086e-002 -1.21818371e-002 -1.72903258e-002 6.07666885e-003
      -1.77986920e-002 1.98732279e-002 1.30127473e-002 9.99547169e-003
      -1.12563856e-002 -1.02456557e-002 -3.76730808e-003
      -2.85681267e-003 2.22766977e-002 2.71391682e-002 -8.57254025e-003
      1.04033286e-002 4.49694600e-003 8.51724390e-003 -8.95900000e-003
      1.19356532e-002 4.55341302e-003 4.53577656e-003 -1.47488592e-002
      -5.34032052e-003 8.52450728e-003 6.28190115e-003 9.33679985e-004
      -8.05514283e-004 7.03313015e-003 -1.93587802e-002 -1.05108600e-003
      -6.50095567e-003 -3.02338367e-003 1.29380506e-002 2.03709286e-002
      6.88805757e-003 1.07809510e-002 -1.27881172e-003 -1.14112031e-002
      5.00065740e-003 -6.27318397e-003 -9.88189969e-003 -2.29026400e-003
      9.95417009e-004 2.89733382e-003 8.43131635e-003 -1.26263015e-002
      4.72473400e-003 2.41317246e-002 -1.07750427e-002 -1.79934148e-002
      1.11596901e-002 1.53806545e-002 -9.08153970e-003 9.01120994e-003
      -2.54671238e-002 2.27990255e-004 -8.82754847e-003 -1.81231033e-002
      -1.35227079e-002 1.37362108e-002 1.58922710e-002 1.25524784e-002
      -9.51854140e-003 2.22721882e-003 -1.19354219e-004 6.05524844e-003
      9.14304703e-003 -1.18778599e-002 9.59210750e-003 -1.44138848e-002
      -1.75992362e-002 3.48243769e-003 -8.60376982e-004 -6.10291399e-003
      -7.49646639e-003 1.57271489e-003 1.03669353e-002 2.99096876e-003
      1.14046382e-002 6.87026558e-003 -3.50221270e-003 -1.41735533e-002
      -7.84352538e-004 -1.18721640e-002 -3.59713985e-003 3.90595203e-004
      4.46472783e-004 -8.63800850e-003 -3.86471557e-003 -1.41619444e-002
      4.50289901e-003 8.11946765e-003 -2.50050314e-002 5.37673011e-004
      -1.84812956e-003 -2.04552598e-002 7.67569710e-003 -3.03480448e-003
      -8.48723855e-003 -1.31088747e-002 4.19677282e-003 -1.02371005e-002
      7.02347839e-004 -1.13788545e-002 -3.56887118e-003 -1.90176815e-002
      -7.90545344e-003 1.68507211e-002 5.78835374e-004 -7.40625837e-005
      -2.80280691e-003 -1.09757017e-003 4.78160521e-003 1.12483846e-002
      -6.01874199e-003 1.27146603e-003 1.48555869e-003 9.70045850e-003
      3.13465507e-003 1.33311348e-002 -6.93530543e-003 -3.96593660e-003
      -3.23587470e-003 -1.10094026e-002 2.04372853e-002 -3.68853658e-003
      1.14373509e-002 8.84236069e-004 3.24843079e-003 9.69949272e-003
      8.42029601e-003 2.02609822e-002 -1.50309317e-002 -8.80078238e-004
      -1.91913976e-003 -5.38142957e-003 -3.58062983e-003 1.84748359e-002
      -7.58458069e-003 -6.41663652e-003 -2.54762173e-003
      -1.65958237e-003 -3.15515208e-003 -2.82147676e-002 4.80177440e-003
      8.17641709e-003 -1.00805061e-002 9.10201017e-003 -6.01151399e-003
      -8.95426795e-003 -1.26168327e-002 1.26006557e-002 -2.67469138e-003
      2.27902876e-003 1.27404847e-003 -2.17243936e-003 1.96206360e-003
      5.65589638e-003 2.15646555e-003 8.08253512e-003 -6.37141336e-003
      -1.75552480e-002 -1.45512249e-003 -1.48474285e-002
      -1.16057158e-003 -6.62756385e-003 -4.25392436e-003
      -3.01110931e-002 3.39953019e-003 -1.03031136e-002 -5.40723326e-003
      1.43007403e-002 -5.61360549e-003 -2.73675732e-002 -1.73955422e-003
      -2.17394475e-002 -1.16043556e-002 -1.46554166e-003
      -2.14883070e-002 -2.71273665e-002 3.69167747e-003 -4.83383378e-003
      -4.28710552e-003 -5.06648375e-003 -1.00005530e-002 9.46867163e-004
      -3.67944804e-003 2.99226842e-003 -2.23513469e-002 -1.64489225e-002
      -1.87973585e-002 -1.71910729e-002 3.25366273e-003 7.84144364e-003
      2.74628383e-005 -2.58003417e-002 -3.81072834e-002 -1.26584237e-002
      1.60927325e-002 1.39376763e-002 -2.91713662e-002 7.55148893e-003
      -9.58023407e-003 4.34854534e-003 -1.37822554e-002 -1.80467181e-002
      3.04625928e-003 -3.80525514e-002 -1.82725571e-003 1.08030392e-002
      -1.69001240e-002 -1.64306145e-002 -3.46414791e-003 1.43138384e-002
      -7.42287422e-003 1.00664152e-002 -2.03382736e-003 9.49056447e-003
      8.56886245e-003 2.37715635e-002 -1.07688587e-002 2.66294973e-003
      -4.50906763e-003 9.47852992e-003 1.22482621e-003 -5.14943991e-003
      7.31305499e-003 -1.88792031e-003 -1.72002974e-003 -4.14145552e-002
      -7.40281120e-003 3.11581302e-003 -3.55904596e-003 2.31207069e-002
      3.61966260e-004 -1.35653270e-002 1.20797139e-002 1.27101559e-002
      7.34479353e-003 -2.86881719e-002 4.62519238e-003 -1.41396709e-002
      -1.34268543e-002 -2.15094624e-004 -7.05840206e-003 2.56987289e-003
      -3.44664650e-003 5.61450608e-003 -2.11746264e-002 -4.47509112e-003
      -1.35825416e-002 7.49832438e-003 6.41186908e-003 -3.31386272e-003
      6.49349159e-003 -2.13073157e-002 -5.17133670e-003 -2.61821579e-002
      -1.09799504e-002 1.30713787e-002 9.83196869e-003 2.15423596e-003
      -7.21860956e-003 -1.12904254e-002 -5.28706796e-003 2.12707743e-003
      -2.36813314e-002 1.25804460e-002 4.26376611e-003 2.04305910e-002
      -1.33831101e-002 6.90273894e-003 1.01432716e-002 1.86416414e-002
      3.00097017e-004 -7.28960556e-004 -8.58392287e-003 -5.32166567e-003
      -7.42161227e-003 1.60745271e-002 -1.12028383e-002 7.24371290e-003
      -1.89410057e-002 -1.38855008e-002 5.85897360e-003 -6.56724675e-003
      -3.76929017e-003 3.76057299e-003 2.92168818e-002 -1.71294063e-002
      1.14580728e-002 6.66644890e-003 2.72679795e-002 -3.12589109e-003
      -9.69566777e-003 -3.25449905e-003 3.22651654e-003 -1.18062012e-002
      -1.31558022e-002 1.18277352e-002 9.14947223e-003 2.86682276e-003
      -9.68599867e-004 -9.88842268e-003 2.27289344e-003 -1.18857929e-002
      1.11185070e-002 -2.40511517e-003 5.56672784e-003 -5.92905190e-003
      2.35699732e-002 -5.78458235e-003 1.51738999e-002 -1.59352440e-002
      -3.88955872e-004 1.87653396e-002 1.62039604e-003 -1.60962269e-002
      1.38193993e-002 2.96165515e-003 -1.89667419e-002 -1.55239668e-005
      -8.28423444e-003 8.57764389e-003 -5.82166761e-003 1.03253638e-002
      -4.52677812e-003 1.59114972e-002 -3.65641993e-003 2.96091964e-003
      -1.03775794e-002 8.70474055e-003 2.74245488e-003 5.00295078e-003
      9.90639906e-003 -2.61438359e-003 -4.21125302e-003 -4.08829004e-003
      1.05823446e-002 3.38707556e-004 -4.73187724e-003 5.58120571e-003
      3.58547037e-003 -4.07023123e-003 -3.90784070e-003 1.90576576e-002
      1.32362386e-002 7.40921765e-004 -4.80316859e-003 1.24613577e-002
      1.81541275e-002 1.78038049e-003 1.07761137e-002 6.50334964e-003
      1.48035651e-002 2.93392898e-003 -1.73809705e-003 6.99810171e-003
      1.21129621e-002 -5.76096959e-003 3.00908778e-002 -5.24869235e-003
      -4.43464052e-003 1.01114865e-002 6.51052687e-003 -3.76179162e-003
      1.27319284e-002</_>
    <_>
      6.44204498e-004 1.30608538e-002 -3.14057834e-004 8.95820558e-003
      1.10411765e-002 -1.68706998e-002 2.47203223e-002 5.96369896e-003
      1.64301340e-002 1.51078133e-002 -2.59708357e-003 -1.55921588e-002
      1.89134795e-002 -6.06692396e-004 -4.71351639e-004 -3.08070914e-003
      1.63810682e-002 3.16250250e-002 1.88865859e-004 4.88445582e-003
      -3.45219974e-003 -4.02523484e-003 -8.11653491e-003 4.73701116e-003
      2.47723889e-002 8.35609529e-003 -6.83063688e-003 -8.93998984e-003
      1.67653672e-002 6.23912830e-003 -7.51206884e-003 -1.19527020e-002
      -2.17127390e-002 -3.36070941e-003 6.33090211e-004 -1.85555648e-002
      -8.43372848e-003 -2.64017358e-002 1.68005526e-002 3.46045068e-004
      -9.37963277e-003 -9.51968506e-003 9.56845004e-003 7.39847310e-004
      9.06982925e-003 6.39197091e-003 -2.99129151e-002 3.22890189e-003
      4.49321466e-004 -2.22136453e-003 -6.06449805e-002 1.99184008e-002
      -1.15688832e-003 1.33430706e-002 -5.81080932e-003 -2.23127333e-003
      6.52189227e-003 1.25368303e-002 2.02357452e-002 1.31725417e-002
      -2.25049141e-003 1.54503668e-003 1.22941434e-002 -7.16778310e-003
      1.18770543e-002 -5.06582344e-003 -1.27413524e-002 6.28626999e-003
      -2.31588911e-002 -1.19813951e-002 -7.85251800e-003 2.14872556e-003
      -1.02824643e-002 -1.25510257e-003 -1.88814458e-002 3.85028147e-003
      2.22795866e-002 -1.59614859e-003 1.04792928e-002 1.37131894e-003
      3.03202169e-003 -2.13057157e-002 7.28998100e-003 -5.03044995e-003
      8.74820072e-003 1.78554840e-002 -2.45413068e-003 -6.63504237e-003
      3.44158616e-003 -8.23031296e-004 7.21307425e-003 -8.96388851e-003
      -1.26150064e-002 -6.68187439e-003 7.43049663e-003 1.04355514e-002
      -9.64829139e-003 -8.16150103e-003 -1.18373916e-003
      -1.98931363e-003 -1.82228945e-002 -1.52336585e-003 8.96217488e-003
      -3.14456262e-002 4.56202729e-003 -1.26172015e-002 5.82336495e-003
      1.60506982e-002 -1.02955904e-002 1.88690163e-002 -1.18401991e-002
      -3.15368199e-003 6.57747500e-003 -2.27945950e-003 -3.80282552e-004
      2.45091431e-002 -2.95427237e-002 9.74568725e-003 2.04317477e-002
      -3.55648575e-003 -3.61690950e-003 5.48484782e-003 3.81654222e-003
      1.87535817e-003 6.70190901e-003 7.26997806e-003 -3.31482821e-004
      -8.34804866e-003 -3.54547775e-003 3.26238126e-002 1.44992610e-002
      1.59479361e-002 -2.29961798e-002 5.11098478e-004 1.89537797e-002
      -3.94223146e-002 -6.13337848e-003 1.36435749e-002 -2.77418587e-002
      4.79985215e-003 2.49592848e-002 1.29707456e-002 1.06895380e-002
      9.60340258e-003 -1.25035997e-002 -5.27191767e-003 -2.32366491e-002
      2.39434633e-002 2.45385757e-003 6.49381662e-003 -9.62283183e-003
      -1.77132506e-002 1.02465982e-002 -1.82967000e-002 -4.36282018e-003
      -9.42501146e-003 -2.13214587e-002 6.98659290e-003 -1.02982679e-002
      7.57611683e-003 1.15490602e-002 1.72620639e-002 4.65237489e-003
      -1.26696355e-003 1.09929070e-002 9.35821503e-004 -3.01021971e-002
      2.43677036e-003 2.31114458e-002 -1.95686589e-003 3.05131599e-002
      -3.64547484e-002 -1.25513237e-003 -2.96554225e-003 1.04143117e-002
      1.40092932e-004 -1.61797702e-002 -4.63202101e-004 8.06588866e-003
      1.28057068e-002 1.88302563e-003 -3.96837927e-002 3.05293966e-003
      -2.21963343e-003 6.47723163e-003 5.50732203e-003 6.06947904e-003
      -9.49416496e-003 -9.63429920e-003 9.84342303e-003 6.97184168e-003
      -3.06620658e-003 7.41533842e-003 -8.02501384e-003 3.03631164e-002
      3.88896815e-003 -9.33092460e-003 -1.71530491e-003 1.47564744e-003
      -5.42815251e-004 1.20069431e-002 3.02549009e-003 -5.41624390e-002
      5.39380498e-003 1.62548646e-002 -2.16790964e-003 1.72540769e-002
      9.72670782e-003 1.43422047e-002 -2.44846698e-002 -5.18940249e-003
      1.16460519e-002 6.32423628e-003 1.67313442e-002 -1.62767689e-003
      7.00767478e-003 1.41771669e-002 -3.22642300e-004 -9.30433534e-003
      1.66980121e-002 -1.30817411e-004 -6.27516245e-004 1.29004940e-003
      -5.77819534e-003 -2.03558384e-003 -1.36062605e-002
      -2.85893632e-003 7.61550665e-003 -7.50790909e-003 -2.90170312e-003
      -1.11726867e-002 1.55417146e-002 2.48499736e-002 -2.35335063e-002
      2.63706129e-002 1.71021633e-002 -3.58531927e-003 -1.20281223e-002
      1.17815677e-002 4.47294395e-003 -2.57177185e-003 -1.35452428e-003
      1.57499965e-002 -2.53189206e-002 4.12226701e-003 -1.40037118e-002
      1.32636596e-002 1.71420760e-002 1.19281104e-002 1.01180037e-003
      -7.85695575e-003 1.12045254e-003 -1.23485439e-002 -1.97810866e-002
      -9.87716857e-003 -1.25556695e-003 -1.16037522e-002
      -1.33494744e-002 -1.26183741e-002 -1.57428402e-002
      -2.67329905e-003 -4.02604509e-003 -3.87541018e-002
      -6.32141391e-003 -2.37016473e-003 1.09693669e-002 1.23399664e-002
      -1.06971087e-002 -3.47295702e-002 -7.86490180e-003
      -7.00961379e-003 7.89513160e-003 -1.62519906e-002 -9.02319886e-003
      -3.59952115e-002 -3.99391018e-002 -1.13195237e-002
      -2.49529034e-002 1.59935523e-002 -1.98642742e-002 -4.87605529e-003
      -1.53967459e-002 1.55290039e-002 1.10416133e-002 -2.89295837e-002
      -6.22495683e-003 -2.82559334e-003 1.94711965e-002 -3.43745165e-002
      1.26235420e-002 -9.94902104e-003 1.53336776e-002 -1.37425249e-003
      -3.00862752e-002 -8.54529627e-003 -1.18897082e-002
      -2.85064466e-002 -1.77153328e-003 6.43313164e-003 -2.12995224e-002
      8.47666897e-003 3.58957285e-003 -3.03216837e-002 -8.42140242e-003
      4.25926736e-003 3.46207875e-003 2.14051306e-002 -6.25855429e-003
      -1.57278273e-002 1.41919721e-002 -1.25912987e-002 -3.62537359e-003
      -7.65261846e-003 -1.65554658e-002 9.16931604e-004 1.37321800e-002
      -2.90591419e-002 1.30151892e-002 1.59132946e-002 3.08970362e-003
      1.87105704e-002 2.34905820e-004 -1.09552629e-002 -6.80037134e-004
      3.69498953e-002 -1.08186724e-002 -3.45739117e-003 -4.77926852e-003
      -7.04107573e-004 1.90485436e-002 4.80808597e-003 -1.71109233e-002
      -5.80392964e-003 5.93416905e-003 3.99373518e-003 9.66862123e-003
      -5.66709088e-003 -1.30493324e-002 -3.23427562e-003 1.65334865e-002
      4.21976467e-004 -4.47101006e-003 6.90060295e-003 1.53753068e-003
      6.09406270e-004 -2.63713170e-002 -1.35354372e-002 1.72792226e-002
      -2.84318440e-002 -3.03592556e-003 7.01840688e-003 2.83510592e-002
      1.69123989e-002 -1.55765759e-002 1.39387054e-002 1.23616867e-002
      2.71223504e-002 8.98223836e-004 5.24029182e-003 4.61009797e-003
      9.86139942e-003 1.20816880e-003 1.09043177e-002 -1.32464096e-002
      6.98232045e-003 5.57738263e-003 1.34340730e-002 -6.33837748e-003
      1.19245742e-002 5.69689739e-003 -1.53269656e-002 7.57142063e-003
      1.08260931e-002 -9.77056287e-003 -6.18041120e-003 4.53722570e-003
      -5.03846537e-003 -8.03208537e-003 -1.31322246e-003 3.23538971e-003
      5.67907514e-003 1.01766065e-002 1.60328709e-002 5.79740433e-003
      -4.66821343e-003 -6.06818544e-003 1.49160735e-002 1.30419899e-002
      6.62409095e-003 1.11421039e-002 1.61414761e-002 1.01831611e-002
      -4.15962981e-003 1.41228735e-002 -7.52262771e-003 -9.22512356e-003
      2.67577358e-004 6.68707676e-003 -1.56076136e-003 -1.71027686e-002</_>
    <_>
      2.45709773e-002 2.80974456e-003 -1.75565351e-002 -7.67321046e-003
      -2.89491322e-002 -1.67391300e-002 2.20955559e-003 -5.77811757e-003
      -1.79812573e-002 1.35343838e-002 -1.72476787e-002 -9.12851468e-003
      2.35460773e-002 2.71282159e-002 -3.12177255e-003 1.42131455e-003
      -3.00142518e-003 -1.28980977e-002 9.80263017e-003 1.85828563e-002
      -1.96665945e-003 1.77729898e-003 1.97017249e-002 -1.74019188e-002
      7.61700515e-003 -3.92103195e-002 -2.11045146e-003 -5.10399463e-003
      4.37925599e-004 5.32306312e-003 -4.14688513e-003 -2.19631735e-002
      -1.87351077e-003 -1.80656649e-002 -4.07762453e-003
      -5.21034189e-003 -2.42072786e-003 6.15889626e-003 1.18474755e-002
      -6.74781762e-003 -1.04471911e-002 -1.68834366e-002 2.17386466e-002
      -2.15128884e-002 1.21646924e-002 2.21102610e-002 -3.27824317e-002
      2.81151384e-003 -4.53717075e-003 -1.36397791e-003 -2.95079499e-002
      1.72659960e-002 -1.00718485e-003 3.59703600e-002 -2.90326383e-002
      -1.62352936e-003 1.18545694e-002 -1.43004302e-002 -2.70550326e-003
      8.37526005e-003 1.36029599e-002 -7.26401166e-004 5.09495672e-004
      -3.43762484e-004 -4.65558516e-003 4.55649570e-003 1.22692715e-002
      3.19784060e-002 2.17189826e-002 -2.85999663e-003 1.85149871e-002
      -1.26363384e-002 -1.52704613e-002 -1.60156805e-002
      -1.41320750e-002 -2.39072498e-002 -6.18598098e-003 3.33123608e-003
      -1.91697329e-002 2.32247729e-002 1.18071912e-002 7.33607495e-003
      -6.81132916e-003 -7.07395258e-004 1.05306739e-002 -8.04663432e-005
      -2.79986154e-004 2.75575882e-003 -7.24055571e-003 -2.24288125e-002
      1.12228170e-002 -2.18306761e-002 1.01532750e-002 -1.29679283e-002
      8.35783593e-003 -1.18240379e-002 -1.59305800e-002 -5.08441823e-003
      5.91756683e-003 1.89192425e-002 -3.61225456e-002 7.84558244e-003
      -2.09268946e-002 -2.28898991e-002 1.97109543e-002 -2.30673770e-003
      2.02679820e-003 1.39241973e-002 1.33759575e-002 3.11615760e-003
      5.85807674e-003 -7.21880700e-004 8.47783871e-003 -8.93089548e-003
      -1.30012631e-003 1.43200159e-002 1.79463450e-003 -3.67235877e-002
      -1.50019873e-003 5.84124308e-003 -2.80644614e-002 6.40781270e-003
      1.34667195e-003 2.46174983e-003 1.98211009e-003 8.39220267e-003
      5.64666279e-003 -1.61940809e-002 -1.09493025e-002 8.72321986e-003
      2.80404445e-002 4.48017195e-003 -6.05482329e-003 4.45085810e-003
      -3.22983484e-003 -6.84070960e-003 3.89019004e-003 -1.81684420e-002
      3.40978359e-003 -9.90895368e-003 1.53020769e-002 -1.73625024e-003
      6.85863616e-003 -1.20715303e-002 -1.74859294e-003 1.33525915e-002
      -1.56362709e-002 -1.46916986e-003 1.77360196e-002 4.85479785e-003
      2.21839640e-003 -2.43739225e-002 8.70876573e-003 -1.07291376e-003
      -3.06007266e-003 -2.04669721e-002 -1.11673297e-002
      -1.15417158e-002 8.10118206e-003 1.86588895e-002 1.60809904e-002
      2.78247744e-002 -1.11730434e-002 1.41736504e-003 -1.13431024e-005
      -2.34170742e-002 -6.49045873e-003 -1.49376290e-002 4.80962498e-003
      2.35191453e-003 3.79804871e-003 -1.28873447e-002 -2.26799008e-002
      -2.92675314e-003 6.64403988e-003 -7.92584848e-003 -1.81261413e-002
      -4.00694646e-003 -2.00291779e-002 3.30515765e-002 2.55343560e-002
      7.39917113e-003 -1.52539257e-002 -1.02482326e-002 -3.23394430e-003
      -1.28394447e-003 -3.62114841e-003 -9.04050842e-003 4.42386698e-003
      4.93044360e-003 -3.07014881e-004 -1.19376248e-002 7.02072575e-004
      2.46224599e-003 -9.45568923e-003 6.30797353e-004 -1.64037626e-002
      1.07280854e-002 -5.10358252e-003 -1.21997325e-002 -3.32284789e-003
      -2.65262229e-003 -2.73457239e-003 2.71893363e-003 -5.39391674e-003
      6.18595863e-003 -2.68987883e-002 -2.14563147e-003 -4.18516761e-003
      -9.03812796e-003 -9.30255093e-003 3.89060867e-003 -1.76256970e-002
      2.77343695e-003 1.20970979e-002 -1.23679293e-002 3.92302452e-003
      -2.81620864e-003 -1.85968000e-002 -1.50936479e-002 1.27485441e-002
      -1.10857305e-003 -1.26489699e-002 -1.85354743e-002
      -2.93465741e-002 -3.13935173e-003 -1.51875047e-002 8.55316594e-003
      5.33775380e-003 -2.69102901e-002 7.29619898e-003 5.90218510e-003
      3.33615392e-003 -1.23159261e-002 2.08534319e-002 -2.21488662e-002
      -4.49769618e-003 -1.22049148e-003 1.22778611e-002 -1.37907062e-002
      -8.97143036e-003 5.62664763e-006 5.47511829e-003 -1.53541425e-002
      -3.28209586e-002 -1.05786100e-002 1.28330467e-002 -1.29898936e-002
      -1.94353866e-003 -1.27378404e-002 2.33543552e-002 1.05105322e-002
      1.27787935e-002 1.55180495e-003 -1.01838298e-002 6.69759873e-004
      -1.11012312e-003 -2.16941219e-002 -5.61495731e-003
      -2.09328035e-004 1.49790440e-002 -1.56088732e-002 5.73452376e-003
      -1.13887852e-002 1.66392121e-002 -2.05206196e-003 1.06296577e-002
      1.64346176e-003 -1.10472981e-002 3.64856888e-003 -2.59976294e-002
      5.69610996e-003 3.48139275e-003 1.30793620e-002 -1.58952754e-002
      -1.27057061e-002 7.49640819e-003 5.73602365e-003 2.80353501e-002
      2.61195353e-003 1.40187535e-002 -9.77804232e-003 -1.08015994e-002
      2.34678909e-002 -2.69114715e-003 2.37757107e-003 1.94010995e-002
      1.67719312e-002 3.10989991e-002 -1.86112579e-002 3.22471350e-003
      -3.74248773e-002 1.37960466e-004 1.98839493e-002 -1.05271842e-002
      1.75201204e-002 -2.35552806e-002 -1.16356043e-003 1.08780032e-002
      -1.02363769e-002 -3.45987547e-003 -1.55099090e-002
      -9.06477217e-003 1.04589770e-002 1.05497835e-003 -4.32531955e-003
      1.41849536e-002 -2.91795526e-002 9.08603950e-004 5.39210252e-003
      2.03320640e-003 6.00046245e-004 -2.42486410e-002 1.05958162e-002
      -5.38757350e-003 4.83371504e-003 -2.07997370e-003 1.22643942e-002
      1.35319810e-002 -3.42144957e-003 1.26623632e-002 6.31876336e-003
      -1.62359346e-002 3.97264911e-003 -1.35874911e-003 -7.36010214e-003
      4.88208979e-003 -1.65377427e-002 -4.67039738e-003 -1.53882168e-002
      -5.33055048e-003 -1.91725139e-002 2.33153650e-003 3.11505478e-002
      -5.55211538e-003 7.93304015e-003 -9.35661793e-003 -2.26215622e-003
      -1.89721342e-002 -7.70911574e-003 -8.59438442e-003
      -2.60467045e-002 -4.76481169e-002 -5.73874684e-003
      -2.71025077e-002 -9.07423499e-004 -1.98472273e-002 1.85703114e-002
      -1.46094989e-002 -6.19696965e-003 -2.09989063e-002 1.28400261e-002
      9.39160679e-003 -3.78320203e-003 1.96445994e-002 -1.69907734e-002
      5.52427862e-003 9.55231674e-003 -2.25512078e-003 2.30591595e-002
      2.05647368e-002 1.21064354e-002 -2.86811031e-003 1.28723960e-002
      2.06327604e-004 1.07332051e-003 5.56442048e-003 5.45723224e-003
      6.30774722e-003 8.55149236e-003 -6.65126415e-003 1.25434455e-002
      8.23877379e-003 9.98939294e-003 -2.25329422e-003 7.89103750e-003
      1.23957812e-004 -4.14231271e-002 -1.11038249e-003 2.30984539e-002
      1.73967984e-002 2.46495157e-002 2.49045528e-003 -1.47021457e-003
      1.97787415e-002 6.63151499e-003 2.13042903e-003 1.21564148e-002
      2.48673093e-003 1.78001262e-002 2.02502310e-002 8.83804727e-003
      9.54183098e-003 3.57418247e-002 2.23931478e-004 1.31024169e-002
      -1.58482734e-002 -1.69490147e-002 7.91714527e-003 -5.42338612e-003</_>
    <_>
      1.66645590e-002 1.96092725e-002 -3.43059632e-003 3.00554819e-002
      3.04332804e-002 2.23082975e-002 7.39987183e-004 -3.01402924e-003
      1.17974114e-002 1.32219680e-002 1.42478691e-002 1.45783937e-002
      9.66349803e-003 8.35031085e-003 9.73073114e-003 1.01084607e-002
      5.99409686e-003 2.86484533e-003 6.09846367e-003 3.51251266e-003
      1.17260134e-002 1.01667428e-002 -1.58511580e-003 1.94946826e-002
      2.26918031e-002 7.19518261e-003 2.01355517e-002 8.79998971e-003
      -1.06892746e-003 4.77365125e-003 -1.66152127e-003 1.52572654e-002
      2.49886094e-003 7.57666631e-003 8.35216418e-003 9.91791487e-003
      2.12367550e-002 9.83464997e-004 7.08629959e-005 1.81230735e-002
      -9.82445758e-003 6.23027142e-003 -2.33934517e-003 1.40385488e-002
      1.35672027e-002 -6.04187325e-003 2.82317027e-002 -7.78678712e-003
      1.05546527e-002 9.99324769e-003 -8.84809066e-003 -3.55938859e-002
      1.37160430e-002 -4.84465109e-003 -2.31517814e-002 -6.51492155e-004
      2.60590855e-003 -1.00400224e-002 7.43856514e-003 7.55256834e-003
      -1.34897215e-004 -3.16271704e-004 1.44262463e-002 4.15009120e-003
      3.23727960e-003 -6.64230343e-003 -5.75458631e-003 -9.34049487e-003
      -9.12123360e-003 -1.34532908e-002 1.50127597e-002 -1.03310887e-002
      -4.99120168e-003 -7.62359530e-004 -8.34756065e-003 1.24145243e-002
      -1.20255733e-002 -8.14444036e-004 3.48072988e-003 -1.97975244e-002
      -6.40379032e-003 -1.45636173e-002 -9.08238534e-003 3.12611787e-003
      -2.03512013e-002 -2.93359123e-002 -1.00570684e-002
      -9.26510803e-003 -6.75563235e-004 -1.62030775e-002
      -2.13664453e-002 -2.73770541e-002 3.54993343e-003 -1.65344104e-002
      -9.54016391e-003 -6.48643496e-003 -9.65893548e-003 6.31379522e-003
      6.02426380e-003 -1.31480908e-003 -1.28025487e-002 5.69452904e-003
      -4.54042014e-003 4.56012599e-003 -1.07113216e-002 -4.10436280e-003
      -8.45710840e-003 5.61401760e-003 -2.52602971e-003 6.15935959e-003
      -7.28910370e-003 6.68629259e-003 -3.20749939e-004 1.31928390e-002
      5.78846270e-003 1.66137107e-002 9.46934428e-003 5.01914043e-003
      -2.37935362e-003 -5.80525048e-005 -3.93033493e-003 5.62001998e-003
      -7.26718208e-005 1.05005607e-003 -1.91822415e-003 1.06451416e-003
      -6.78809080e-003 -5.34923794e-003 1.24703906e-002 -1.05703296e-002
      1.77450350e-003 -1.18069798e-002 -8.53574276e-003 -7.13510020e-003
      9.45859961e-003 2.83473241e-003 5.40272845e-003 -6.57777209e-003
      9.41913691e-004 5.51581942e-003 -3.25954007e-003 -4.67374641e-003
      1.45594608e-002 -1.30155748e-002 -1.78715447e-003 -1.95370917e-003
      -1.94086041e-002 -5.28448820e-003 1.00077791e-002 1.05979051e-002
      2.40778015e-003 -9.98742413e-004 1.32990638e-002 -4.10199491e-003
      1.97124705e-002 2.53953435e-003 -2.32207138e-004 5.70675544e-003
      1.23662560e-003 7.50925066e-003 -4.18058690e-003 8.70369002e-003
      3.32760625e-003 8.10871460e-003 1.07551143e-002 2.85012717e-003
      2.16158032e-002 -1.68125834e-002 1.94720645e-003 -1.28839296e-004
      7.83427991e-003 2.82730232e-003 -1.45468060e-002 1.10051222e-002
      -8.41748901e-003 -8.65185633e-003 -8.72547459e-003 5.31277619e-003
      -1.32221561e-002 1.01656439e-002 4.14285669e-003 -1.61961056e-002
      -8.63210484e-003 -1.73941080e-003 4.68418119e-004 -6.23854250e-003
      -8.33428465e-003 5.12012094e-003 3.85628105e-003 1.88376065e-002
      2.61348998e-003 5.43308037e-004 -1.60604680e-003 4.80327755e-003
      -9.96833108e-003 -1.76739704e-003 -2.90224189e-003
      -1.11748849e-003 7.46808888e-004 1.26866717e-003 -1.01942783e-002
      -9.74816503e-005 1.59550607e-002 -2.53757555e-003 5.20951953e-003
      5.70581248e-003 -1.37730932e-003 2.03469340e-002 1.42644660e-003
      -4.36589262e-003 -3.87704605e-003 1.28170056e-002 -1.40328184e-002
      3.81449470e-003 -1.69203989e-002 6.97518291e-004 -4.52718837e-003
      5.65036247e-003 4.89684462e-004 8.06409027e-003 1.89262698e-003
      -5.40304987e-004 -1.63344422e-003 -3.11859651e-003
      -3.09783407e-003 -8.24165437e-003 -2.28152075e-003 9.07298829e-003
      -7.74984574e-003 8.25725961e-003 3.41190235e-003 5.40866796e-003
      -6.10029965e-004 8.68851598e-003 7.26472354e-004 -1.23712374e-003
      -9.67822131e-003 2.46159434e-002 3.11558833e-003 1.04637519e-002
      6.47818064e-003 -3.61703709e-003 -4.42119222e-003 -7.81672914e-003
      -1.26203671e-002 1.66241184e-003 -1.14589408e-002 -2.14172644e-003
      1.59186358e-003 1.21148012e-004 -1.85243553e-004 -1.94053445e-003
      8.91629839e-004 -6.06546458e-003 -1.87820010e-003 1.11338748e-002
      3.05580464e-003 -3.25512490e-003 6.39129197e-003 -3.91063839e-003
      -6.72002488e-006 1.54998351e-003 4.38894238e-003 -6.43849745e-003
      -1.08066127e-002 1.62022673e-002 1.15817143e-002 -1.04504335e-003
      3.25087388e-003 4.14444320e-003 1.51522681e-005 3.70368571e-003
      1.02804303e-002 4.41676658e-003 1.30117852e-002 -9.62614641e-003
      2.42940593e-003 4.52019833e-003 1.41583970e-002 -1.21875675e-002
      1.54164119e-003 -1.33852661e-002 8.45844671e-003 6.85020536e-003
      -9.49930679e-003 -9.87024326e-003 -6.98613934e-003 1.06857410e-002
      8.56264087e-004 6.81596156e-003 3.12690926e-003 1.34957870e-002
      1.53440256e-002 1.26911104e-002 -5.80052519e-003 2.21990515e-002
      -2.72406754e-003 -8.83702375e-003 -3.94412596e-003
      -4.19819867e-003 1.06411660e-002 -9.08807106e-003 -9.39059909e-003
      -6.80272747e-003 6.79339608e-003 -5.61085111e-003 4.22577839e-003
      2.14031655e-002 1.39589305e-003 -3.91642214e-004 -2.47877911e-002
      -5.71881747e-003 3.33319209e-003 -4.22029197e-003 8.74421839e-003
      3.27280280e-003 2.14857031e-002 5.63051784e-003 3.82849621e-003
      -1.00549348e-002 8.83166678e-003 6.05257985e-004 -9.14323237e-003
      -2.09377147e-003 1.29527058e-002 -4.83843591e-003 9.25544475e-004
      6.77617919e-003 2.19221562e-002 7.11101573e-003 1.42339093e-003
      2.25617317e-003 -3.16375308e-003 -9.18805879e-003 1.73397234e-003
      2.07223967e-002 3.82015540e-004 1.89224374e-003 -8.65399837e-003
      -1.13952521e-003 -3.33468476e-003 -4.16018395e-003
      -2.02881731e-003 1.35754130e-003 1.99716296e-002 1.98030518e-003
      -5.32206893e-003 2.49758773e-002 -1.71082225e-002 -8.53010733e-003
      1.08512454e-002 6.88679656e-003 -7.98445288e-003 5.41442260e-003
      1.51509000e-002 -2.02863361e-003 1.09219342e-003 9.14473203e-004
      2.89812237e-002 9.58029460e-003 -2.11969204e-003 -1.44480227e-003
      -1.71106197e-002 6.95175771e-003 -3.12459003e-003 2.91546248e-003
      -1.33175170e-003 -4.09374619e-003 3.08818230e-003 -1.30239688e-002
      -5.37617365e-003 6.66440418e-003 -7.93153979e-003 3.69431073e-004
      4.65840800e-003 4.27976623e-003 -8.97498149e-003 2.19041947e-003
      2.49289954e-003 -1.32096626e-004 4.39103600e-003 -5.08418493e-003
      2.64325668e-003 1.07418175e-003 1.34216843e-003 -1.57293666e-003
      4.21854435e-003 6.85442146e-003 6.51830982e-004 -3.10926302e-003
      -5.18512679e-004 1.82001735e-003 1.26743992e-003 6.42656023e-003
      1.03651593e-003 8.99526197e-003 2.82302615e-003 4.23047692e-003
      1.00032073e-002 -1.12432726e-002</_>
    <_>
      -6.76252355e-004 -5.31512080e-003 -1.85289253e-002 2.23664138e-002
      1.77146103e-002 1.41389119e-002 1.45535881e-003 -7.86590204e-003
      2.57383799e-004 9.77719016e-003 6.95879757e-003 4.38648183e-003
      5.23390016e-003 1.46499192e-002 -1.70970277e-003 2.82187629e-002
      -9.14090034e-003 -1.18942633e-002 1.58845447e-002 1.42508335e-002
      6.32124906e-003 1.51405856e-002 -4.98442398e-003 1.10505410e-002
      2.57686544e-002 1.27317570e-002 7.60081457e-003 -3.22333234e-003
      -1.30043486e-002 2.34494992e-002 9.08988342e-003 8.05464759e-003
      -7.07074534e-003 5.34218876e-003 4.28909576e-003 8.47093202e-003
      -1.24096908e-002 1.04226079e-002 6.31540921e-003 -4.91892104e-004
      1.23452628e-003 5.33941342e-003 1.27289072e-002 1.58635192e-002
      2.17740480e-002 1.14572113e-002 1.92833338e-002 5.06703323e-003
      1.13555975e-002 7.19062705e-003 -1.83560001e-003 -2.23536585e-002
      3.72232147e-003 -2.22182297e-003 -1.78478509e-002 -2.03519990e-003
      -3.30478698e-003 -3.48397339e-006 7.85176456e-003 6.82449993e-003
      -1.06051965e-002 3.88122513e-003 -3.97574157e-003 -1.90534983e-002
      -1.37416180e-002 6.55446725e-004 1.56236058e-002 1.15254438e-002
      3.13597471e-002 7.34305149e-003 -7.01719243e-003 7.38709606e-003
      7.22973095e-003 9.00236238e-003 -9.36980639e-003 7.25100469e-003
      -2.97159143e-003 -1.14238830e-002 -1.03016393e-002
      -1.13032060e-002 -1.25951311e-002 -1.87177653e-003
      -1.36794439e-002 8.28724448e-003 -2.30798381e-003 -1.19556701e-002
      7.62726227e-003 2.19443552e-002 -6.86387718e-003 -1.02609284e-002
      2.55217124e-002 -5.47885941e-003 1.73069295e-002 -9.53032263e-003
      -1.21826567e-002 1.05232047e-002 -1.36120198e-002 6.61271438e-003
      -1.70033530e-003 6.24928391e-003 -5.58838295e-003 -2.59884354e-003
      -5.32536069e-004 -9.60802101e-003 5.25539217e-005 1.72677264e-002
      -1.58357844e-002 -2.23947293e-003 -1.09052630e-002
      -1.04815261e-002 -5.69749670e-003 -3.17292055e-003 5.69831533e-003
      -5.49207116e-003 1.96757726e-003 -7.36532314e-003 3.42714461e-003
      2.03413598e-004 3.71858041e-004 2.82706134e-003 -2.78497604e-003
      2.17285962e-003 -8.86761677e-003 -1.10370750e-002 -7.74226384e-004
      -1.01892313e-003 -3.75415408e-003 6.37001358e-003 -1.71221402e-002
      -1.33093735e-002 -2.58502457e-002 2.58438941e-003 -2.26594880e-002
      2.10292321e-002 -8.10340571e-004 -1.22465547e-002 -5.01425052e-003
      -7.85623305e-003 3.21514253e-003 -9.98100918e-003 4.56193835e-003
      -6.68790936e-003 -1.15025416e-002 -9.62516014e-003
      -1.45888655e-002 -9.04379180e-004 -9.38480813e-003
      -1.90674874e-003 -6.45383867e-003 6.87674712e-003 -4.06024000e-003
      6.05595810e-003 -4.52379556e-003 -7.98233692e-003 1.18174516e-002
      1.41982278e-002 4.01530275e-003 -7.75929354e-003 -1.84050761e-002
      -2.82957428e-003 -7.14137685e-003 4.50374931e-003 1.74108800e-002
      5.14950021e-004 1.08181695e-002 4.02490795e-003 1.43435141e-002
      -5.03380504e-003 7.18372548e-003 -8.56716000e-003 2.01946367e-002
      6.89894706e-003 8.73657316e-003 2.98476964e-003 -1.78926683e-003
      -2.07127980e-003 -6.64497726e-003 -5.88394795e-003
      -1.49625503e-002 6.39058324e-003 -7.70416285e-004 -1.84962212e-003
      -1.42273377e-003 -6.04190025e-003 7.95732159e-003 -7.60837644e-003
      -1.23643898e-004 -8.39729235e-003 -2.16819942e-002 2.06202585e-002
      2.11989027e-004 -3.06205678e-004 -5.11997641e-005 1.35055110e-002
      8.73792160e-005 -1.45847797e-002 -2.88184662e-003 1.36949513e-002
      3.58306617e-003 2.24940386e-003 3.17404489e-003 6.08819537e-003
      -4.02841571e-004 -8.79754871e-003 1.14445370e-002 -6.31337287e-004
      -4.82639112e-003 3.18962918e-003 2.30435445e-003 -6.55446015e-003
      3.37848585e-004 9.89404973e-003 -1.76794024e-003 2.69928161e-004
      -4.77074552e-003 1.83901435e-003 -8.73959623e-003 9.95112490e-003
      -3.68307368e-003 3.41614336e-003 -6.76589040e-003 -1.64882299e-002
      2.01105811e-002 -9.49015841e-003 -1.15550319e-002 -2.55432408e-002
      8.47112969e-005 7.39292149e-003 2.50643468e-003 1.00587588e-002
      -1.77563855e-003 1.67356282e-002 1.03763619e-003 1.00299660e-002
      6.24476094e-003 4.44150995e-003 5.78808412e-003 2.86821611e-002
      -1.15983672e-002 1.00579821e-002 8.25004536e-004 5.86545747e-003
      -2.01783446e-003 -7.48174032e-003 -9.12098680e-003 1.70899241e-003
      -8.29009712e-003 1.40670305e-002 1.13328760e-002 -1.06214462e-002
      -1.58733614e-002 7.23268930e-003 -2.24428326e-002 -1.22901760e-002
      -3.16838431e-003 6.55396702e-003 2.45973561e-003 4.37703542e-003
      1.23201951e-003 -1.25201270e-002 1.82583998e-003 4.92886780e-003
      1.84457432e-002 -1.04965689e-002 -1.12041924e-002 2.33954098e-002
      1.66490134e-002 -2.05120835e-002 5.40398294e-003 -5.57654072e-003
      -2.44160788e-003 9.37103387e-003 -1.15344282e-002 1.29675341e-003
      1.43203940e-002 1.12418309e-002 -2.10308214e-003 4.10276139e-003
      5.13736811e-003 -1.09114368e-002 5.10410126e-003 8.41700751e-003
      8.99477582e-003 1.40404999e-002 4.91066743e-003 -1.07515967e-002
      2.29675695e-003 3.73516022e-003 -1.72483418e-002 -9.91493464e-004
      -1.19203832e-002 2.05536205e-002 7.07144523e-003 1.51476590e-003
      -6.55586552e-003 -7.99830072e-003 -2.84920842e-003 1.61241498e-002
      2.05871928e-003 -6.57093478e-003 1.12551274e-002 -1.38830021e-002
      -2.45639998e-002 -7.50806089e-003 -2.03965488e-003
      -8.55003204e-003 -3.48744751e-003 2.30029058e-002 -4.46383795e-003
      -5.20495651e-003 3.28562711e-003 -1.24194603e-002 3.89622943e-003
      -1.26354411e-004 1.23072602e-003 -9.46730934e-003 -1.42996637e-002
      5.37615782e-003 7.17964349e-003 -1.17246835e-002 -1.02349287e-002
      -6.99137151e-003 -1.63168702e-002 1.43590886e-002 -3.36628174e-004
      -1.29832011e-002 3.79527826e-003 -6.22479850e-003 -2.25821394e-003
      8.91560409e-003 5.17737237e-004 1.12889949e-002 2.67647766e-003
      2.86339229e-004 -7.68962724e-004 1.23081654e-002 1.02872457e-002
      2.92155379e-003 -1.09805586e-003 -6.30326336e-004 4.51805396e-003
      1.79426547e-003 -6.21953420e-003 -1.39539391e-002 9.58479661e-003
      9.06775892e-003 -1.73054356e-002 6.25134399e-003 2.97614140e-003
      3.55748367e-003 -1.97129184e-003 -1.14561711e-002 -1.46976318e-002
      -2.00271417e-004 4.15737228e-003 1.34255260e-003 6.93153997e-004
      1.37196733e-002 8.17857962e-003 -5.20901429e-003 -5.19944122e-003
      -1.13394018e-002 -1.95035618e-002 1.56033905e-002 1.99773908e-002
      1.89370068e-003 5.92366559e-003 -2.93091079e-003 8.68872367e-003
      -7.50429928e-003 9.70131892e-004 7.31659308e-003 -9.37401596e-003
      -5.92614384e-003 3.39369709e-003 -1.59988191e-003 1.60172663e-003
      1.43989027e-002 -1.37944734e-002 1.55557087e-002 4.25880495e-003
      1.08589986e-002 7.57573079e-003 2.26420016e-004 3.18218977e-003
      1.73623264e-002 1.93793955e-003 1.59247927e-002 5.05351648e-003
      -6.48883311e-003 3.49653210e-003 -1.53744000e-003 -3.14591033e-003
      3.43507563e-004 3.96925490e-003 -2.72971895e-002 6.39853813e-003
      3.44023295e-003 1.41713182e-002 -2.55762171e-002</_>
    <_>
      -7.66785815e-003 -6.15278119e-003 1.40859454e-003 4.64290120e-002
      1.10893985e-002 3.16958278e-002 6.31757604e-004 3.60750477e-003
      6.34128693e-004 8.45107157e-003 1.36935040e-002 1.11494316e-002
      5.61191374e-003 8.69496539e-003 1.16335135e-002 -1.35314674e-003
      -3.31673212e-003 -2.55711819e-003 1.99527536e-002 5.64993359e-003
      2.39905808e-002 1.37515422e-002 7.74098001e-003 2.36274339e-002
      1.09927831e-002 2.08615214e-002 2.54085306e-002 2.09746580e-003
      1.75233826e-003 8.62162001e-003 5.04650036e-003 1.68250855e-002
      -5.34337340e-003 1.29399467e-002 2.98823342e-002 -4.31635603e-003
      1.07853375e-002 1.86199357e-003 -2.46952777e-003 8.93643685e-003
      6.84762560e-003 -4.56880545e-003 -1.90722141e-002 8.06095451e-003
      1.34124653e-002 -5.52298548e-003 1.55666387e-002 3.38974898e-003
      2.71390341e-002 -7.17105065e-003 1.17048891e-002 -6.23179507e-003
      1.63488612e-002 -9.55086574e-003 -1.26177715e-002 1.31093198e-002
      -7.50777125e-003 3.32850846e-003 -1.38198175e-002 -7.26574007e-003
      -2.62106513e-003 2.64813239e-003 -5.94067154e-003 -4.04099002e-003
      1.77328046e-002 3.59212747e-003 2.42660809e-002 1.93709694e-002
      3.63250338e-002 -1.13951880e-002 1.61973143e-003 -5.04032150e-003
      5.14712557e-003 3.96995386e-003 -1.23728560e-002 -9.32209194e-003
      9.00654402e-003 7.28990766e-004 9.13685188e-003 -1.80932158e-003
      7.31608970e-003 -2.98811328e-002 9.43125412e-003 9.60360002e-003
      6.41773641e-003 -1.03103314e-002 -7.85278995e-003 3.99565771e-002
      -2.11647782e-003 -4.59559495e-003 -1.27758477e-002 5.73567441e-003
      8.63632839e-003 -9.64042731e-003 4.73950105e-003 8.59754905e-003
      5.12801111e-003 5.70890214e-003 -2.59999931e-003 1.37893474e-002
      7.12284818e-003 -1.31503176e-002 1.68667305e-002 -6.85219094e-003
      1.27790601e-003 4.82733315e-003 -3.06204101e-003 7.09372060e-003
      -2.11672224e-002 8.40242766e-003 7.22283591e-003 -1.21324114e-003
      -2.28023529e-003 1.20047657e-002 1.00058988e-002 -1.57491234e-003
      8.98544304e-003 1.95454638e-002 -2.45533371e-003 4.82625281e-003
      -1.74964464e-003 2.08349600e-002 -9.00780782e-003 -1.85699873e-002
      1.18404289e-003 9.01886169e-003 3.46989371e-004 -7.14841372e-005
      1.21626835e-002 -1.22658759e-002 -8.68062209e-003 -2.26565613e-003
      -3.45060625e-003 -1.86601159e-004 -2.64458172e-003
      -6.94666663e-003 7.14023132e-003 1.35062588e-002 2.75732426e-004
      -9.82447900e-003 -2.43806490e-003 5.47186006e-004 -9.88362543e-003
      -1.22490907e-002 4.53313859e-003 -4.35146550e-003 -2.39012903e-003
      2.43812823e-003 -1.45290522e-002 9.43078939e-003 -8.48274771e-003
      -3.45602253e-004 1.91332039e-003 -3.51746893e-003 2.51794374e-003
      -6.42784871e-003 -4.39373218e-003 1.24915959e-002 -1.34774754e-002
      -1.32711614e-002 3.28883156e-003 -2.38414574e-002 -4.16933093e-004
      -2.00689235e-003 -5.97363152e-003 1.44093717e-003 -7.29079708e-004
      -3.87505325e-003 -3.90462507e-003 -3.05493991e-003 1.23868324e-002
      1.23926299e-002 3.69951525e-003 1.03161670e-002 -1.72214694e-002
      -6.09891675e-003 -2.11939868e-002 -8.58604163e-003
      -2.28194427e-002 8.33371095e-003 5.95256872e-003 4.98831365e-003
      -5.79834159e-004 -1.11647798e-002 2.99619744e-003 -6.93908660e-003
      -6.81308191e-003 -8.53958481e-004 -1.03512325e-003
      -8.86090379e-003 7.93317892e-003 -3.75747937e-003 -2.63299653e-003
      1.12380803e-004 7.51655549e-003 4.55204397e-003 2.43647466e-003
      3.00667668e-003 -1.60982478e-002 5.21251466e-003 -1.00029295e-003
      -7.13655399e-003 -6.39088778e-003 -8.55330192e-003
      -1.96835492e-003 -1.49574061e-003 -2.27583777e-002 1.35028083e-002
      1.28588192e-002 -1.35515826e-002 2.01589940e-003 1.15389554e-002
      1.46317091e-002 -6.32827310e-003 -4.24207281e-003 -1.48461224e-003
      -2.90067424e-003 1.65763614e-003 3.54542304e-003 -1.45656047e-002
      -9.93923657e-003 3.39926756e-003 2.49892604e-002 1.31328066e-003
      -2.20364938e-003 -1.76330358e-002 8.52051564e-003 3.13605089e-003
      7.15847919e-003 3.85641959e-003 2.67608487e-003 2.17269436e-002
      -1.93351461e-003 1.09123737e-002 2.95250886e-003 -1.46804180e-003
      3.87138105e-003 1.09053506e-002 5.06772334e-003 5.42604888e-004
      -2.36413733e-004 3.63739301e-003 3.02392943e-003 -6.21637795e-003
      5.04370220e-003 -8.23726691e-003 -1.01579586e-002 2.22207624e-002
      5.89771336e-003 5.39997732e-003 1.60914864e-002 -2.73244339e-003
      -9.83156916e-003 -1.93943251e-002 -6.55128621e-003 1.75021999e-002
      7.53709953e-003 -5.10300323e-003 -3.56675661e-003 -5.76867349e-003
      4.26875334e-003 5.69969835e-003 3.36258044e-003 4.11444390e-003
      -1.64238550e-002 1.38983876e-002 -9.92930401e-003 -9.15665552e-003
      -2.14621704e-003 -3.95332277e-003 6.35350123e-003 4.23165550e-003
      -7.84581341e-003 -2.08095517e-002 -1.38763646e-002 1.08531734e-003
      -1.65374111e-002 -3.95331159e-003 5.34300832e-003 -6.86166482e-003
      -3.16154002e-003 3.80870141e-003 4.85860929e-003 -7.47876056e-003
      -7.50514504e-004 3.43888416e-003 1.92165971e-002 1.75324723e-003
      1.48152914e-002 1.19969361e-002 -5.06792916e-003 1.00483815e-003
      5.26732719e-003 -3.31493327e-003 4.58983239e-003 1.77061539e-002
      1.20928017e-002 8.79237987e-003 6.15528831e-003 1.07436630e-004
      1.65641848e-002 -3.14741465e-003 -2.03337446e-002 -1.34154344e-002
      -4.43729281e-004 -5.82781341e-003 9.72842984e-003 -1.16147278e-002
      5.88696310e-003 8.70976364e-005 6.28411071e-004 -6.67417841e-003
      -2.43580886e-004 7.59444665e-003 2.93990574e-003 -9.61822364e-003
      -4.58921492e-003 5.67695452e-003 2.41686101e-003 -1.50117604e-003
      2.10883003e-003 -8.64174962e-003 9.02839284e-003 8.12654104e-003
      -5.17013669e-003 -8.58716760e-003 -9.30143334e-003
      -5.56225935e-003 1.48291104e-002 -8.65976419e-003 1.84669700e-002
      1.76001564e-002 1.16414716e-002 -1.18549978e-002 3.47822323e-003
      -1.95823447e-003 7.15029426e-003 -1.85327437e-002 1.86825485e-003
      -3.27513495e-004 -4.02332935e-003 -8.10481049e-003
      -3.95771861e-003 -1.29432408e-002 1.31412810e-002 -2.34845257e-003
      9.08688270e-003 1.03989094e-002 5.05186245e-003 5.03046846e-004
      -6.58384431e-003 -1.20020786e-003 -9.83147789e-003 2.91632488e-003
      2.23939996e-002 -4.29055979e-003 4.33049951e-004 -2.61794194e-003
      8.95998534e-003 4.72631026e-003 -5.94436657e-003 -7.95007683e-003
      -1.54011343e-002 -5.59104700e-003 2.55151349e-003 5.57815423e-003
      -6.02828385e-003 -3.25649837e-003 1.00440532e-003 6.28327543e-004
      -1.11960340e-003 5.11912396e-003 -8.69984552e-003 -2.47969422e-002
      8.09143949e-003 2.88154231e-003 -4.01166594e-003 -1.99362561e-002
      -9.58998501e-003 1.10566318e-002 1.79361086e-002 -7.99493957e-003
      2.00929563e-003 1.63553434e-003 -5.48427226e-004 1.11160800e-002
      7.33113266e-004 9.59352497e-003 1.17801521e-002 -1.90865831e-003
      2.03078445e-002 1.77036296e-003 -3.25547066e-003 -2.17132941e-002
      1.30680101e-002 -1.69540234e-002 6.69246772e-003 9.60361329e-004
      -8.86043475e-004 -1.28329759e-002</_>
    <_>
      1.28556779e-002 -3.96232028e-003 -1.47788953e-002 1.84112452e-002
      1.08531872e-002 2.07608826e-002 9.83533356e-003 8.41462053e-003
      2.25076708e-003 5.83787914e-003 4.10506641e-003 1.01756128e-002
      1.86690334e-002 1.24426177e-002 5.84379886e-004 2.23768447e-002
      1.84218935e-003 -6.90883910e-003 3.23234103e-003 1.13040973e-002
      1.57851614e-002 9.71390214e-003 -1.44595793e-002 4.93029365e-003
      1.47410575e-002 7.55329663e-003 8.81721359e-003 -2.77889357e-003
      7.02001853e-003 1.79328080e-002 -1.19337160e-002 -1.17219491e-002
      -1.33512346e-002 5.10724308e-003 2.49237614e-003 8.72233231e-003
      -2.90023978e-003 1.11477915e-002 1.69399602e-003 1.33611308e-002
      2.61989725e-003 5.00130747e-003 -9.51896980e-003 1.16801243e-002
      9.33425222e-003 6.82875933e-003 2.86489036e-002 5.06497454e-003
      1.15616657e-002 3.22018168e-003 4.11591539e-003 -7.39439391e-003
      1.49609735e-002 -1.40864765e-002 -1.36578763e-002 7.10511755e-004
      8.88888817e-003 2.81757326e-003 -2.51283473e-003 2.99055665e-003
      -1.62905676e-003 9.26533947e-004 3.84547096e-003 1.29300039e-002
      -5.37119340e-003 1.27648292e-002 7.68622383e-003 -2.99763889e-003
      1.75744407e-002 -3.01213958e-003 4.80572367e-003 -5.26267663e-003
      1.97982998e-003 -8.27262271e-003 -3.34259984e-003 1.04855141e-002
      2.86750263e-003 -7.27315480e-003 -5.99448476e-003 -1.03463857e-002
      1.31024935e-004 -2.78242817e-003 -1.38674036e-003 6.27464242e-003
      -7.57526234e-003 -2.17680950e-002 2.87495577e-003 1.22129619e-002
      3.63488519e-003 2.37493543e-003 2.30024057e-003 6.05153677e-004
      3.26520950e-003 1.18236765e-002 6.38438668e-003 -7.33251916e-003
      1.13710051e-003 8.06072378e-004 -9.29304492e-003 6.92310603e-003
      6.85862964e-003 4.02047718e-003 1.78072939e-003 4.92488674e-004
      -4.83136391e-003 2.05990318e-002 -8.54338892e-003 -1.44179212e-003
      1.05543470e-003 8.97177588e-003 -7.06745032e-003 3.20237968e-003
      7.88398087e-003 -2.60036229e-003 5.31900302e-003 -3.79736861e-003
      6.87479461e-003 1.27800414e-002 -6.20391918e-003 4.92709549e-003
      -3.34646506e-003 8.70329421e-003 -1.07263010e-002 3.00218642e-004
      -5.16889244e-003 2.83403485e-003 1.88982754e-004 6.56795502e-003
      2.67783063e-003 -1.73536700e-003 -1.25314202e-002 -1.09691471e-002
      1.12542314e-002 2.08689342e-003 -1.27919961e-003 4.60595218e-003
      -1.49856070e-002 -6.39934605e-003 -1.84192366e-004
      -1.13479067e-002 2.49515381e-002 -2.56110472e-003 -1.00847222e-002
      -4.78382595e-003 -4.01291111e-003 -1.45679794e-003
      -1.54329743e-003 -1.29527012e-002 -9.69550572e-004
      -3.41655128e-003 4.37933370e-004 1.02624297e-003 1.05139976e-002
      -6.51505950e-004 5.38780307e-003 -2.31839227e-003 -2.05688458e-003
      5.08902036e-003 -6.75020879e-003 -7.09530944e-003 5.49871475e-003
      -1.28699010e-002 6.48781983e-003 3.38283135e-003 1.93577148e-002
      -7.65357260e-003 4.74874070e-003 -7.54839089e-003 -8.15193541e-003
      -5.43883676e-003 1.11828800e-002 4.32574749e-003 1.07870614e-002
      1.18137663e-002 3.77580081e-003 -1.20215362e-003 -1.73716675e-002
      7.61938933e-003 -8.32426548e-003 2.77817599e-003 3.22748767e-003
      5.37921907e-003 2.42368924e-003 8.42379779e-003 3.43342638e-003
      -3.86173488e-003 -2.64649000e-003 1.34082849e-003 -8.53046891e-004
      1.92715810e-003 6.56126300e-003 1.62246812e-003 7.21212802e-003
      4.82709752e-003 -1.63492709e-002 -8.23995378e-003 -6.76070107e-003
      1.29525792e-002 1.15261157e-003 5.21782925e-003 -1.44309839e-002
      -1.10077169e-002 -1.89933006e-003 -1.22919576e-002 6.75441697e-003
      -8.03000201e-003 -2.38185003e-002 9.52855498e-003 -1.18737919e-002
      -2.05913428e-002 -6.72897277e-003 -5.62485587e-003
      -1.29528968e-002 -8.02209415e-003 -1.99336633e-002
      -3.76222306e-003 -3.95274628e-003 -1.21937571e-002 2.03336705e-004
      -1.25119789e-002 -1.05363699e-002 -5.79755101e-003
      -5.39362105e-003 -8.32728855e-003 -1.79083422e-002 1.82482949e-003
      2.44538882e-003 6.13071118e-003 -1.56798810e-002 -1.69371646e-002
      -6.97342400e-003 4.52712504e-003 9.74577293e-003 -6.71395008e-003
      -7.56710256e-003 -3.74085759e-003 3.95951420e-003 9.88277420e-003
      -7.51809683e-003 9.38941818e-003 -6.98278332e-003 -1.72130077e-003
      -6.05074363e-003 -8.81598424e-003 -1.79901421e-002
      -5.94017841e-003 -5.50707942e-003 8.47440446e-004 1.28514227e-002
      -1.33012747e-002 1.43005112e-002 4.14261856e-004 5.36965625e-003
      2.32913066e-003 2.57334393e-003 9.71218105e-003 -4.33722371e-003
      -8.72275233e-003 5.06139547e-003 -9.17904731e-003 9.86478175e-004
      1.87026081e-003 -1.05843479e-002 -2.27013184e-003 -4.29527089e-003
      1.06471265e-002 8.26723780e-003 1.27994642e-003 -5.36114117e-003
      2.01383000e-003 6.12172484e-003 7.05563929e-003 -3.30382166e-003
      -6.14852831e-003 -3.38091137e-004 -8.01606663e-003 3.58546083e-003
      7.58803217e-003 -5.13056060e-003 -8.65237787e-003 5.88664028e-004
      -1.05409622e-002 2.00005732e-002 -7.25216605e-003 -1.97964458e-004
      5.24251768e-003 3.40630562e-004 -7.98993371e-003 -1.36518315e-003
      2.47542094e-003 -1.67547166e-002 -3.98310716e-004 1.12619959e-002
      -2.78162444e-003 3.80029343e-003 1.00698380e-003 -4.28969273e-003
      -7.89485872e-003 -6.52907044e-003 -1.42276119e-002 1.19601935e-002
      -1.12179397e-002 1.44801810e-002 -1.21437516e-002 -2.90702534e-004
      1.94941112e-003 3.52823758e-003 -2.37614661e-003 3.49885435e-003
      -2.61874008e-003 -6.16373122e-003 -9.25745443e-003 8.70452449e-003
      -2.63077556e-003 1.85072224e-003 -7.52513576e-003 -1.06152715e-002
      1.59208849e-003 -1.09362360e-002 -4.11582086e-003 -6.47512078e-003
      1.90617200e-002 -5.29102795e-003 6.13786469e-005 -1.58000309e-002
      1.23925824e-002 3.09051829e-003 3.83283407e-003 1.83063291e-003
      -5.91817452e-003 -7.10505154e-003 2.24369811e-003 -4.72787861e-003
      -3.73974792e-003 1.68938795e-003 6.33355603e-003 -1.40816858e-002
      -2.55058170e-003 -9.97771230e-003 -4.52058995e-003 1.93949020e-003
      1.72668509e-003 -5.14047081e-003 5.20093692e-003 6.71153469e-003
      1.02489255e-002 -9.64658521e-003 1.08077116e-002 1.18406098e-002
      -5.82540466e-004 -1.60391245e-003 -1.96051435e-003
      -6.76363194e-003 -6.44849613e-004 8.34177621e-003 -9.61029157e-003
      1.51216646e-003 -4.17032046e-003 1.32195866e-002 -1.58190932e-002
      4.09006607e-004 -9.35695414e-003 -1.54390642e-002 -5.38828492e-004
      8.64194706e-003 -2.27490021e-003 -1.60290670e-004 1.62436941e-003
      4.36660973e-003 1.75560603e-003 5.40636061e-003 1.54765025e-002
      -5.49606804e-004 -1.21978940e-002 2.20790389e-003 -9.58394550e-004
      2.44624633e-003 2.02407571e-003 3.05569707e-003 2.48043775e-003
      -4.74321516e-003 -2.53512384e-003 8.31707288e-003 -3.41100246e-003
      -4.94862115e-003 3.96275520e-003 -2.13490753e-003 1.57106165e-002
      5.33824367e-003 -7.07619218e-003 3.01650749e-003 1.44850765e-003
      2.18486879e-003 1.29132140e-002 6.30467571e-003 1.74346683e-003
      1.46674295e-003 1.11871464e-002 -3.68690304e-003 2.63889832e-003</_>
    <_>
      -1.42405350e-002 -3.45665449e-003 3.08554713e-003 2.72462647e-002
      2.09524110e-002 5.29288175e-003 7.65423058e-003 -4.19329014e-003
      1.77362785e-002 6.79508597e-003 1.36431970e-003 1.46257458e-003
      3.51322116e-003 6.03949651e-003 -2.76165875e-003 1.06209796e-002
      9.45782103e-003 5.91978477e-003 3.26448656e-003 1.90592781e-002
      3.97633854e-003 7.74099492e-003 -2.86040734e-003 1.71472002e-002
      1.28508769e-002 1.15151685e-002 1.24167483e-002 3.58220446e-003
      -2.07910244e-003 1.46517167e-002 1.01011409e-003 1.17216259e-002
      3.42556159e-003 -4.63217590e-003 5.99648384e-003 3.39901453e-004
      -1.24898739e-003 -4.01106756e-003 -3.86805041e-003 5.72185451e-003
      -4.59093554e-003 -3.85422056e-004 1.31922700e-002 1.89636592e-002
      1.12158395e-002 1.76598085e-003 2.26398315e-002 -2.01436831e-003
      3.19778873e-003 1.67148176e-003 4.77585616e-003 -5.89550100e-003
      9.03957710e-003 -6.04568608e-003 -7.90840946e-003 2.77555338e-003
      1.60743706e-002 8.04705638e-003 4.50181495e-003 7.58105144e-003
      -6.18811278e-003 -5.89859998e-003 3.73192527e-003 5.32028126e-003
      3.68819316e-003 4.95212479e-003 5.64514333e-003 4.08056984e-003
      7.23561924e-003 1.45433599e-003 1.37272598e-002 9.50382184e-003
      1.11178299e-002 4.35906509e-003 -6.83123618e-003 1.64576285e-002
      -2.68770644e-004 4.76047164e-003 1.37278496e-003 -1.50487507e-002
      1.65222958e-003 -1.05025684e-002 -8.83558707e-004 9.19772079e-004
      -2.25531426e-003 -2.83635966e-003 -3.69383226e-004 1.47885550e-002
      -5.32256498e-004 -6.24814304e-003 8.86305515e-003 -6.88103086e-004
      -1.42770936e-004 -4.61359741e-003 -1.15576200e-002 8.91492888e-003
      -4.55241418e-004 4.63733496e-003 -2.75491457e-003 7.68827740e-003
      1.33850344e-003 3.14356177e-003 1.74482015e-003 -8.32053460e-003
      -9.85672791e-003 -3.81130446e-003 4.02491045e-004 -9.31538525e-004
      -1.13331396e-002 6.73802942e-003 -4.70951712e-003 4.32644831e-003
      5.00612473e-003 7.85014685e-003 9.00828373e-003 7.45511614e-003
      -6.40419358e-003 3.30661656e-003 3.40732210e-003 4.14132141e-003
      -1.75166503e-003 7.42058130e-003 -9.16453777e-004 -3.90411424e-003
      -1.65501807e-003 1.97605733e-002 -1.12914178e-003 2.46590259e-003
      4.55150194e-003 2.07871012e-003 -9.88630578e-003 5.78409410e-004
      9.93642397e-003 7.26822438e-003 1.70268063e-002 -6.18173089e-003
      -3.25254165e-003 3.31831980e-003 -2.10137269e-003 -2.58303073e-004
      1.41876554e-002 4.32651956e-003 -5.85567765e-003 3.45451524e-003
      6.73567690e-003 -8.92066676e-003 -1.07807200e-003 7.57642556e-004
      -2.37074308e-003 9.51686036e-003 -3.90231551e-004 -5.36693959e-003
      2.51833862e-003 1.64049701e-003 4.75178985e-003 1.39316602e-004
      -5.50143933e-003 1.04935579e-002 -6.63848827e-003 1.98904847e-004
      -9.57943778e-003 -1.83369126e-003 2.07305234e-003 -1.35755655e-003
      5.37525630e-003 -6.04113215e-004 1.20591018e-002 1.84831978e-003
      7.05818227e-003 8.72292439e-004 1.58125274e-002 1.10249557e-002
      7.52832973e-004 1.17044216e-002 -2.70269345e-003 3.54712736e-003
      -1.43155176e-003 5.86812757e-003 -1.14003476e-002 7.57097919e-003
      2.94111855e-003 6.62136171e-003 1.09361187e-002 -6.47498248e-003
      1.12280883e-002 -2.05586402e-004 -4.86540934e-003 -9.18942504e-003
      -7.73884356e-003 1.58328731e-002 5.01979701e-003 1.00870233e-003
      2.93735927e-003 7.23370723e-003 8.59252701e-004 -5.16444538e-003
      -5.32051502e-003 3.89689230e-003 -3.77349555e-003 1.30922731e-003
      4.92644636e-003 9.16208141e-003 -1.95437297e-002 -6.91083120e-003
      9.15423688e-003 3.56628583e-003 -1.34359216e-002 1.25995213e-002
      1.33787775e-002 -5.39864274e-003 -8.90879135e-004 1.42288096e-002
      7.28718296e-004 9.03917197e-003 -2.07232591e-003 -4.02881597e-005
      5.00911556e-004 1.79639319e-003 1.35579484e-003 -5.64400456e-004
      -2.12511118e-003 2.28725024e-003 1.16136558e-002 -6.40430721e-003
      -2.03283224e-003 1.73321634e-003 -1.89907628e-003 2.20437371e-003
      -1.03194909e-002 9.66170861e-004 4.21218399e-004 4.13677003e-003
      -6.25120476e-004 4.74896980e-003 5.42957289e-003 1.39596348e-003
      3.05106514e-003 2.47400720e-002 6.22298894e-003 6.77927164e-003
      3.10286623e-003 8.89008341e-004 -3.17900744e-003 -3.26053193e-003
      -3.20892641e-003 -5.91066200e-003 -7.08720041e-003 1.26726916e-002
      5.27765555e-003 -2.81415018e-003 -4.64044308e-004 -5.94447192e-004
      -1.09790238e-002 -9.91934724e-003 -2.96143512e-003 8.51178356e-003
      -6.70230621e-003 2.18556705e-003 -8.69841222e-003 -1.07681528e-002
      -4.42308187e-003 3.61763663e-003 4.28963825e-003 -7.39785377e-004
      -1.07810963e-002 1.28837135e-002 -1.50429513e-002 -1.17420219e-003
      -4.07406408e-003 -2.23296438e-003 -6.42451225e-003 3.79549363e-003
      -9.73790232e-003 -9.85940173e-003 -8.92240088e-003
      -3.16043408e-003 -2.72844965e-003 6.34844939e-004 5.95698785e-003
      -4.65698959e-003 -5.70910145e-003 -4.84319311e-003 5.82068320e-003
      3.37610324e-003 -1.31864650e-002 -6.42648619e-003 2.51138536e-003
      -2.73827347e-003 -1.77022591e-002 2.93197762e-003 -8.59981403e-003
      1.59597341e-002 6.32165279e-003 -2.41126888e-003 -9.01323278e-003
      7.99972971e-004 -1.13422545e-002 -5.67126740e-003 -6.85324660e-003
      -9.93452035e-003 1.30642178e-002 -1.99705735e-003 -4.99412371e-003
      -1.24237891e-002 4.77004424e-003 -3.99616873e-003 3.58700054e-003
      1.37385636e-004 -7.54632149e-003 1.13252213e-003 -1.56210484e-002
      -3.36122862e-003 -3.61049501e-003 -2.19919090e-003
      -2.56162998e-003 -2.21473142e-003 -7.24458182e-003
      -3.24413786e-003 6.15504384e-003 6.41203905e-003 2.22300761e-003
      -2.10867692e-002 1.77530537e-003 -1.22693647e-003 -1.28636253e-003
      -1.40554374e-002 3.38664930e-003 4.57118265e-003 3.13821319e-003
      1.08481832e-002 -2.95305159e-003 -1.20721702e-002 -3.54366610e-003
      7.68416515e-003 3.04018776e-003 1.28093893e-002 3.28978000e-004
      -5.20089921e-003 -3.80748650e-003 -5.67914825e-003
      -1.23022264e-003 -6.06081868e-003 4.28885687e-003 -4.89288475e-003
      1.90554764e-002 4.67278092e-004 -7.97534769e-004 1.08935656e-002
      -3.85696231e-003 9.38430079e-004 1.67899653e-002 -4.17572865e-003
      -2.86205020e-003 -2.89649959e-003 1.50597664e-002 1.78198214e-003
      -6.35744911e-003 2.64253328e-003 2.09266748e-002 -1.04012340e-002
      -2.80049141e-003 -2.36607250e-003 -3.94988852e-003 1.75732549e-003
      3.83687695e-003 6.76361704e-003 1.17697902e-002 -3.19165387e-003
      8.02720897e-003 -8.05449206e-003 -4.08887584e-003 9.59883444e-003
      -2.22815876e-003 -2.03345297e-003 -1.80133840e-003
      -1.75758486e-003 -1.40348671e-003 -1.75685785e-003 8.71910655e-004
      4.49134177e-003 8.97050183e-003 -3.38086183e-003 -4.47352091e-003
      3.72976158e-003 1.21844318e-002 4.13910253e-003 4.41419939e-003
      4.62845294e-003 6.43938081e-003 -4.79922164e-003 8.81986506e-003
      3.82389268e-003 -5.03248209e-003 7.35541945e-003 3.65963718e-003
      -4.05896251e-004 -8.12712125e-003 -2.99997022e-003 3.27433413e-003
      -1.65009741e-002</_>
    <_>
      2.41470453e-003 -1.68657340e-002 -1.31604653e-002 1.28152175e-002
      1.60729196e-002 6.32928219e-003 -6.29264070e-003 1.18809752e-003
      2.12857686e-003 8.41911882e-003 1.39900455e-002 1.98708028e-002
      1.95069611e-002 2.03028582e-002 6.86477125e-003 1.88760012e-002
      -6.93205139e-003 -6.61669439e-003 -1.87313755e-003
      -8.67038127e-003 2.91258655e-002 5.59384294e-004 -1.46996565e-002
      1.22894123e-002 1.42444205e-002 -2.17299145e-002 2.14049276e-002
      3.39331781e-003 1.21190795e-003 1.34850573e-002 -5.91935450e-003
      -1.98461562e-002 -1.29942745e-002 -1.56185748e-002 8.97141546e-003
      8.71680956e-003 -2.33724993e-002 8.67029745e-003 6.49502792e-004
      1.41601739e-002 -5.28394990e-003 3.92095326e-003 9.47824493e-003
      2.69597047e-003 3.24099399e-002 1.17972409e-002 1.85935646e-002
      -2.22230260e-003 2.72442773e-002 3.48206460e-002 1.32289510e-002
      8.87655560e-003 1.50394123e-002 5.97615307e-003 -1.74063817e-002
      -2.79682735e-003 -4.47093043e-003 8.17978755e-003 8.51222780e-003
      8.10339954e-003 -4.97730542e-003 7.43040349e-003 -7.01325852e-003
      2.67102011e-002 -1.27720563e-002 -1.58277694e-002 4.81192023e-003
      4.65997728e-003 4.10255492e-002 2.30798242e-003 2.00205352e-002
      -3.10546402e-002 5.16526122e-003 -8.16221908e-003 -1.81182958e-002
      -2.17836276e-002 4.19168686e-003 8.94695800e-003 1.14363767e-002
      -3.26287448e-002 -7.26538128e-004 -1.75238885e-002 9.32965521e-003
      2.05974653e-002 4.34352737e-003 -2.69225594e-002 5.93607780e-003
      1.12161161e-002 1.64147988e-002 -8.38865247e-003 1.42987873e-002
      3.46660707e-003 1.86569076e-002 -1.55649604e-002 -5.51519264e-003
      1.17024351e-002 -6.29535131e-003 6.04692963e-004 -1.37576479e-002
      1.03680808e-002 8.04634113e-003 -2.21601613e-002 -7.01941224e-003
      -7.52970809e-003 8.57922062e-003 -9.15206131e-003 -6.35911850e-003
      -5.83915599e-003 -1.94145157e-003 -2.05969714e-004
      -3.18801933e-004 7.74267549e-003 2.57805567e-002 -3.01682996e-003
      3.49639752e-003 -1.10298945e-002 8.81155767e-003 -7.50314025e-003
      -3.11464653e-003 1.65365431e-002 -6.84741745e-003 1.13070542e-002
      -5.85486181e-003 -7.88215362e-003 -9.68016498e-003 5.55420155e-003
      8.49354174e-003 -6.77733775e-003 1.08921649e-002 -3.39684892e-003
      8.70401878e-003 2.73630791e-003 2.26557814e-002 4.33262251e-003
      -4.21065884e-003 1.63274463e-002 -9.39920079e-003 -2.28565023e-003
      9.13264172e-004 -3.41667701e-003 2.06657089e-002 -4.03282436e-004
      -7.61598349e-003 -1.68146379e-002 3.27093992e-003 4.70775552e-003
      -1.30773550e-002 -1.64681452e-003 1.15392683e-003 5.08414675e-003
      -9.50684492e-003 -2.55665518e-002 1.49786519e-002 -1.54715905e-003
      2.46467311e-002 -6.69840304e-003 -1.03329867e-003 -7.44886417e-003
      5.84514020e-003 -2.11592037e-002 -1.41270924e-003 -1.68473218e-002
      -6.37528661e-004 -2.04265118e-003 -2.66131782e-003
      -2.33567576e-003 -5.47687756e-003 -9.94479004e-003
      -2.86550261e-002 4.47708135e-003 2.30602780e-003 -2.62322836e-003
      4.56206547e-003 1.66957993e-002 1.41455205e-002 8.65855627e-003
      -1.65217854e-002 1.50753660e-002 -3.13832425e-002 8.30087997e-003
      5.03178872e-003 2.42106188e-002 1.27383554e-002 1.58938784e-002
      -1.36140659e-002 -5.34613244e-003 -5.56914136e-003
      -1.90586168e-002 -1.28179891e-002 2.31041703e-002 8.19166377e-003
      2.48342822e-003 -2.65168073e-003 4.57347929e-003 -1.31905032e-002
      -2.86450135e-008 -3.22198379e-003 1.26818521e-002 -1.40237343e-003
      -4.59659752e-003 3.08606471e-003 -4.64181416e-003 -6.82647014e-003
      1.25967362e-003 -1.01622604e-002 1.26803396e-002 -2.51223221e-002
      1.45416586e-002 -6.75920909e-003 -4.40161349e-003 -1.08130155e-002
      -1.18541177e-002 -7.14340527e-003 -1.31933428e-002
      -1.02898264e-002 -1.09591503e-002 -4.59978264e-003
      -6.72084093e-003 2.51732394e-003 1.39533095e-002 -1.78862317e-003
      2.01445073e-003 4.00500232e-003 -3.37647041e-003 -6.88025169e-003
      -2.89823889e-004 1.82042960e-002 7.33361114e-003 -8.21068417e-003
      1.02071813e-003 1.04163028e-002 9.96849034e-003 -5.46786143e-003
      -5.38021419e-003 6.10732520e-003 -5.36966883e-003 1.20689850e-002
      1.94976404e-002 5.55140618e-003 -1.20506971e-003 -9.29523446e-003
      1.20824471e-003 -1.60712544e-002 6.76790252e-003 -3.30894515e-002
      4.03867103e-003 -1.85897704e-002 2.22974606e-002 1.01164626e-002
      -8.55898298e-003 1.48545802e-002 2.08336152e-002 -4.69255634e-003
      1.62277051e-004 -4.30256408e-003 1.23794582e-002 -1.29041839e-002
      -1.42696034e-002 1.22063868e-002 3.66443302e-003 1.37128471e-003
      -1.89822132e-003 3.15786302e-002 -1.22508360e-002 -1.69701334e-002
      4.47196700e-003 9.16732289e-003 -2.20423136e-002 5.13228914e-003
      -9.27761011e-003 -1.03520360e-002 7.69695546e-003 -8.71042721e-003
      -3.20103317e-002 -2.95658577e-002 1.58225372e-002 -2.01681396e-003
      1.25860879e-002 4.38296376e-003 2.90422351e-003 2.91399029e-003
      -9.14119557e-003 1.12905288e-002 9.94753093e-004 7.95687828e-003
      1.28458850e-002 2.20294315e-002 -1.38484649e-002 3.29116657e-002
      2.72117811e-003 -1.94443448e-003 2.30149981e-002 1.33059956e-002
      -2.13878211e-002 -5.14823198e-003 2.69190930e-002 2.65793852e-003
      -1.27530433e-002 -5.45151206e-003 -1.62182003e-002 1.08545404e-002
      -1.51690906e-002 -2.51195015e-005 -1.50568096e-003
      -1.55300042e-002 -2.34109927e-002 -5.18404227e-003
      -7.55352434e-003 5.22290869e-003 4.30777948e-003 -1.14714392e-002
      -1.64466482e-002 -4.06035222e-002 6.32127235e-003 3.41711054e-003
      -9.72766336e-003 2.86441948e-003 4.31800866e-003 -3.97704728e-003
      -2.02579703e-003 1.92519575e-002 -1.41658476e-002 1.02511607e-002
      -1.63975377e-002 -2.49803532e-002 -3.13748121e-002 6.42568665e-003
      2.49301493e-002 2.34523620e-002 -1.06564844e-002 2.99191941e-003
      1.13794357e-002 -2.57221819e-003 -1.97844580e-002 -1.07296593e-002
      1.85607746e-002 -7.09170755e-003 -1.00827496e-002 -1.02165900e-002
      -1.17196590e-002 -1.66752972e-002 -2.44062021e-003
      -1.37910638e-002 1.82133412e-003 4.98939538e-003 2.47426648e-002
      6.20456296e-004 7.44238915e-003 -1.68416114e-003 -1.15171331e-003
      -1.66542046e-002 1.15912678e-002 -1.87149402e-002 -1.32928463e-002
      3.15821432e-002 -9.52261128e-003 -2.07391232e-002 8.68663006e-003
      4.75649443e-003 3.25478651e-002 -7.37201376e-003 1.24471271e-002
      -3.54750156e-002 3.63234594e-003 1.15916897e-002 -1.01362378e-003
      -4.61948616e-003 -1.29554654e-002 -9.36234649e-003
      -1.18579343e-002 1.26226153e-002 -1.08374488e-002 3.39730899e-003
      1.42289978e-002 -1.28885722e-002 2.14714813e-003 1.18007604e-002
      -9.08904523e-003 -1.57163497e-002 6.69621257e-003 -2.49954243e-003
      1.89360784e-004 -4.96931141e-003 -1.84997898e-002 3.26555856e-002
      1.39660761e-002 6.34505274e-003 2.68080104e-002 8.49883072e-003
      -1.35419397e-002 1.53955454e-002 -7.69623648e-003 -2.25763861e-003
      -8.03026929e-003 -4.87449672e-003 3.49198864e-003 -2.62751826e-003
      -6.62625954e-003 -1.09450901e-002 4.26574657e-003</_>
    <_>
      -1.62257589e-002 -2.18673162e-002 2.68681720e-003 -2.68664770e-003
      5.08716749e-003 -3.83111928e-003 6.76691474e-004 -3.31347669e-003
      -1.61713213e-002 -5.61159570e-003 9.86205530e-004 -5.41573204e-003
      -1.57203898e-002 1.27878599e-002 3.01343226e-003 5.09151770e-003
      -2.00060681e-002 -2.20067520e-002 3.22296806e-002 -2.59850919e-003
      5.86002273e-003 9.05673206e-003 2.22340645e-003 1.00387232e-002
      -2.03478001e-002 6.24022679e-003 -9.43941530e-003 6.03929453e-004
      -2.65976842e-002 -1.73678286e-002 -1.10611925e-002
      -2.38627079e-003 -2.82247104e-002 -2.51729451e-002 1.89767946e-002
      6.73713814e-003 -2.12272163e-002 2.10324023e-002 3.13915662e-003
      -1.62503717e-003 -1.34241022e-003 2.60653265e-004 -1.23162977e-002
      -2.43182164e-002 5.38344868e-003 -3.42238625e-003 1.78333782e-002
      7.49345031e-003 -7.70900585e-003 -6.55660289e-004 -1.79975126e-002
      -6.15739357e-003 -1.79904955e-003 6.26509078e-003 5.25616249e-003
      -2.00867541e-002 1.87706780e-002 1.16606131e-002 1.00829620e-002
      -4.53280332e-003 4.15079948e-003 1.82000343e-002 -2.01553702e-002
      8.10639467e-004 4.29040170e-004 1.13610802e-002 2.45232582e-002
      1.06402757e-002 7.98249617e-003 1.41014131e-002 7.50829279e-003
      -1.19597185e-002 1.34771469e-003 1.00421775e-002 2.59907823e-002
      3.96559155e-003 -5.09115634e-003 -1.53251141e-002 8.02460499e-003
      5.57952700e-003 -1.41258053e-002 2.21732296e-002 -5.72354626e-003
      -1.75464768e-002 2.55403202e-002 2.53924206e-002 2.68472452e-002
      3.60896215e-002 -1.18270800e-004 1.21354656e-002 4.42635752e-002
      2.18110159e-002 3.34565039e-003 8.95514898e-003 -5.18702483e-003
      9.10422672e-003 -6.46712352e-003 1.69660840e-002 8.58931895e-003
      -1.14339245e-002 7.44552002e-004 -1.40219294e-002 3.36287380e-003
      4.75714449e-003 -1.12584392e-002 4.47271504e-002 2.81173992e-003
      4.19885665e-003 -2.59132124e-002 3.90965072e-003 -2.15706695e-002
      -1.83714125e-002 7.37861870e-003 -2.88204513e-002 -4.53770487e-003
      -8.36279057e-003 -1.80504080e-002 -2.10105162e-002
      -6.25203736e-003 1.37792742e-002 7.33472407e-003 -1.12110581e-002
      -1.75222307e-002 3.78876692e-003 -5.67894103e-003 -1.65327229e-002
      1.36534655e-002 6.31048903e-003 -1.95611417e-002 -3.69824073e-003
      -2.55218185e-002 1.52543252e-002 -2.21902579e-002 2.38684397e-002
      -1.74654368e-002 -1.12024713e-002 -1.37808053e-002
      -2.36272998e-002 -3.83209670e-003 -1.48930000e-002 2.38310988e-003
      3.35732708e-003 -2.73661502e-002 -4.35504178e-003 -8.84954352e-003
      1.76481847e-002 -8.77056038e-004 -7.32696801e-003 -4.92990389e-002
      3.13269300e-003 -1.05219968e-002 4.49326029e-003 -2.30127783e-003
      4.62504011e-003 -1.12154754e-002 -8.71262455e-005 9.41297039e-004
      1.18370308e-002 -1.29623720e-002 -1.61273852e-002 -4.58020065e-003
      3.10334959e-003 1.50093473e-002 -1.20305398e-003 2.91892253e-002
      -1.41940285e-002 -1.46329599e-002 -1.09686563e-003 1.22479834e-002
      -4.05849470e-003 -8.04816652e-003 -2.72947270e-003
      -9.27104498e-004 -1.21919755e-002 4.07226756e-003 -1.20327650e-002
      -1.21701285e-002 -2.09072474e-002 2.19838182e-003 -5.87106729e-003
      -9.65122506e-003 -1.02327922e-002 1.97503865e-002 -1.60144959e-002
      -2.27017188e-003 3.43293441e-003 1.28690312e-002 -1.65797435e-002
      -1.12138717e-002 1.18425852e-002 6.72819209e-004 -1.00426620e-003
      -2.33631432e-002 9.72566719e-004 1.71442851e-002 -7.20898446e-004
      -4.77008941e-003 2.66788341e-002 7.42879510e-003 1.65487844e-002
      5.51343104e-003 -6.27623033e-003 1.34938559e-003 3.74390208e-003
      1.73420925e-002 9.22308769e-003 -1.18340282e-002 9.48556419e-003
      1.11725358e-002 -1.86100695e-003 -1.35699296e-002 1.89562067e-002
      -1.29428860e-002 -1.38619244e-002 1.09271975e-002 6.79902500e-003
      -1.27430120e-002 -1.39989443e-002 -2.98158941e-003
      -1.25400294e-002 -3.94387124e-003 -9.86803696e-003 8.07171594e-003
      -3.71374423e-003 -1.48473103e-002 -2.90803444e-002
      -1.89616418e-004 -4.46596742e-003 8.27110466e-003 -4.89733648e-004
      -7.39793573e-003 -1.26107456e-002 -3.35523207e-003
      -1.03396224e-002 -4.94765211e-003 1.37217594e-002 9.18970909e-003
      1.49556100e-002 -6.49373839e-003 2.20869090e-002 1.50172440e-002
      1.84289161e-002 -1.31031014e-002 2.56281608e-004 -2.23852883e-004
      2.57714279e-003 -2.71941479e-002 2.23998018e-002 2.95449141e-002
      -1.10072372e-002 -3.16153886e-003 -4.69393423e-003
      -2.96803620e-002 2.90330313e-003 -7.92136509e-003 2.25741370e-003
      -1.32568320e-003 -5.11021493e-003 -1.13670612e-002
      -6.26586052e-003 6.96746958e-003 3.10140033e-003 1.93684418e-002
      -4.47443454e-003 7.76811643e-003 1.07910950e-002 -1.07653178e-002
      -5.92500856e-003 -1.29448194e-002 -1.14506697e-002
      -2.35320460e-002 1.13221230e-002 -1.12139375e-003 -2.30931528e-002
      6.53489900e-004 1.60316657e-002 1.48924701e-002 4.28814499e-004
      1.86913635e-003 1.84802040e-002 9.57523566e-003 1.60412248e-002
      -4.12488449e-003 2.89988164e-002 9.53333918e-003 5.72853722e-003
      -2.33056117e-002 -8.60405155e-003 -7.66702648e-003 4.70071286e-003
      7.34784361e-003 -3.41087207e-002 -1.38455182e-002 -1.35026965e-002
      6.67950092e-003 -1.86501164e-002 1.33145405e-002 3.30935456e-002
      7.09509477e-003 -7.11666653e-003 -1.42535670e-002 1.44363707e-002
      -1.35429027e-002 9.90562370e-008 -1.50762787e-002 -1.35054179e-002
