<?xml version="1.0"?>
<opencv_storage>
<my_svm type_id="opencv-ml-svm">
  <svm_type>C_SVC</svm_type>
  <kernel><type>LINEAR</type></kernel>
  <C>1.</C>
  <term_criteria><epsilon>9.9999999392252903e-009</epsilon>
    <iterations>2147483647</iterations></term_criteria>
  <var_all>800</var_all>
  <var_count>800</var_count>
  <class_count>8</class_count>
  <class_labels type_id="opencv-matrix">
    <rows>1</rows>
    <cols>8</cols>
    <dt>i</dt>
    <data>
      80 165 171 195 209 210 245 249</data></class_labels>
  <sv_total>28</sv_total>
  <support_vectors>
    <_>
      -2.08247602e-002 -2.07079598e-003 -3.75676388e-003
      -1.06643876e-002 6.76147538e-005 -4.65242006e-003 -1.91131923e-002
      -1.43692573e-003 8.99786502e-003 -9.23733599e-003 -1.04395840e-002
      1.38542475e-003 2.32403795e-003 2.24130508e-003 -1.26994560e-002
      -2.71000643e-003 -1.07896430e-002 1.55809498e-003 -1.28559442e-002
      -2.76803039e-003 -1.40566444e-002 -2.17227056e-003 1.37349470e-002
      -7.18805473e-003 8.41998309e-003 -5.94024546e-003 -1.40574831e-003
      -4.34935139e-003 -2.66096741e-003 5.52429259e-003 -1.14458278e-002
      -3.00015183e-003 -1.28716584e-002 -7.88284652e-003
      -8.51940736e-003 -3.72935792e-005 -1.68502666e-002
      -2.58656335e-003 -1.04992148e-002 -3.75364651e-003
      -2.38241274e-002 -1.37324363e-003 -1.07659390e-002
      -4.55996807e-004 -4.95135179e-003 4.74294228e-003 -7.29955127e-003
      -2.07671570e-003 4.62560961e-003 -2.65091518e-003 -1.56518128e-002
      -6.87604863e-003 -6.71581924e-003 -1.96145760e-004
      -1.13089783e-002 4.24930156e-004 -1.11978827e-002 -1.51890190e-003
      -5.02607739e-003 -1.29610319e-002 -5.06899972e-003
      -4.34900867e-003 -6.40783459e-003 -6.84688333e-003 5.63196419e-003
      -5.70943067e-003 -9.70209017e-003 -3.92335979e-003 4.67323791e-003
      -1.74519029e-002 4.90726205e-003 5.63720940e-003 -9.95932519e-003
      -1.86594836e-002 -1.87511630e-002 -1.67340285e-003
      -1.55802900e-002 -2.75562843e-003 -4.56076767e-003
      -1.19239772e-002 1.89975812e-003 -8.11817590e-003 4.15978488e-003
      -9.45263018e-004 2.86688306e-003 -9.70601290e-003 -1.98640507e-002
      -2.16263812e-002 7.05512182e-004 1.82365044e-003 -2.26153936e-002
      -7.26222387e-003 -5.52638853e-003 2.04073475e-003 -2.99588661e-003
      -8.84346385e-003 2.58237799e-003 4.65983711e-003 -1.50617491e-002
      -4.47727600e-003 3.67972278e-003 -3.11503303e-003 -1.31887859e-002
      5.57451625e-004 -1.00031588e-002 -7.18350662e-003 -8.99757817e-003
      -5.18646790e-003 -1.17478417e-002 -4.06405004e-003
      -8.04173574e-003 1.03213508e-002 1.33995025e-003 -6.05526520e-003
      -5.63618029e-003 9.84911714e-003 -1.24471253e-002 -2.25857971e-003
      -2.00394988e-002 1.14472862e-002 1.73674175e-003 6.06326200e-003
      1.60958599e-002 -2.88056163e-003 -1.15058348e-002 -6.73561357e-003
      -1.93051575e-003 1.24567589e-002 -1.06649138e-002 -8.26457050e-003
      -1.81046855e-002 -3.07962392e-003 -7.27316772e-004 1.08080602e-003
      2.18959991e-003 -5.24660759e-003 7.42746866e-004 4.01851285e-004
      -1.24075897e-002 -3.82737396e-003 3.75113660e-003 -4.81857744e-004
      -1.21190911e-004 -3.67306522e-003 -6.92400616e-003 2.69423425e-003
      -9.29651037e-003 -8.50964151e-003 1.49824074e-003 -1.55873233e-002
      4.46531019e-004 4.55772551e-003 1.07486744e-003 1.12011358e-002
      1.48948375e-002 -5.08751208e-003 -1.40489563e-002 -1.33185135e-002
      1.22879175e-002 2.95762508e-003 -2.01341324e-002 4.98013478e-003
      5.13178436e-003 -2.11376883e-003 -1.43044274e-002 -3.92867858e-003
      8.85996560e-004 -1.71592738e-003 6.29509473e-003 -2.36892328e-003
      3.14133911e-004 -2.56870151e-003 -4.33585793e-003 3.59216286e-003
      2.74565071e-003 1.13208890e-002 -1.32843871e-002 1.50241179e-003
      1.90096733e-003 1.72289312e-002 3.34016397e-003 -8.63580732e-004
      -4.58332198e-003 2.36020098e-003 -1.95028808e-003 5.42179914e-003
      4.41826740e-003 -2.40923301e-003 -1.00125456e-002 -1.19106798e-002
      8.19340814e-003 1.68713147e-003 -5.85717801e-003 -2.26887665e-003
      -7.24315364e-003 1.06965355e-003 1.66546600e-003 -1.99930067e-003
      1.22383563e-003 -1.13134570e-002 -1.17215188e-003 2.36087968e-003
      7.42520066e-003 2.47247191e-003 -1.08447485e-002 3.78872058e-003
      -8.56157206e-003 2.76375562e-003 -1.37242535e-003 3.89969605e-003
      -8.89565796e-003 -1.33643821e-002 -1.33087719e-002 5.95519086e-003
      -4.29493515e-003 1.18548376e-002 5.64012444e-003 -2.86657334e-004
      1.63130090e-003 -1.63591316e-003 1.16801010e-002 -1.83184177e-003
      -3.35844373e-003 8.04567430e-003 -5.08769648e-004 1.47915585e-003
      -4.43003466e-003 -9.87611618e-003 -1.28544681e-002 2.21547671e-003
      -5.79216983e-004 2.40888679e-003 3.97537649e-003 -2.91471276e-003
      -1.85147719e-003 -3.81063530e-003 -1.04247024e-002
      -3.59371398e-003 -2.57704873e-003 1.86237344e-003 -7.75093678e-003
      -2.49511632e-003 -2.72887410e-003 -2.01806705e-003 3.93135380e-003
      -8.76924023e-004 -5.18073281e-003 -6.28824858e-003
      -4.07424639e-004 3.14357295e-003 -1.17979040e-002 4.78466600e-003
      3.13855032e-003 5.49900811e-003 -1.06227528e-002 -5.06218337e-003
      -2.13580532e-003 5.66025777e-003 -1.02640782e-002 3.99140699e-004
      -5.23781823e-003 -2.62016454e-003 8.02272931e-003 1.74022410e-002
      -1.11297183e-002 -2.41521513e-003 1.09731080e-003 -4.24703071e-003
      -5.69698634e-003 -3.07809422e-003 -1.41482903e-002
      -1.38585474e-002 -1.33790262e-002 1.00060483e-003 3.68584017e-003
      -4.89518465e-003 6.77255506e-004 -4.51971637e-003 -8.17929488e-003
      -3.82297672e-004 -7.42132496e-003 -7.43806129e-003 1.56223483e-003
      -5.42282546e-003 -3.16671655e-003 -1.03475908e-002 2.41091661e-003
      -4.40868549e-003 4.67266748e-003 -2.04236098e-002 6.40244735e-003
      -1.36914535e-003 4.35672374e-003 -4.71724756e-003 -6.35617413e-003
      -8.07069801e-003 -4.88158315e-004 -6.33309735e-003 6.34631375e-003
      -1.06693609e-002 3.66759952e-003 -3.40277376e-003 -1.91590213e-003
      -6.76616607e-003 -7.46056391e-003 1.02453248e-003 3.72183626e-003
      -2.74922256e-003 -4.49255900e-003 4.20788478e-004 -7.62448763e-004
      2.97873456e-004 4.41811653e-003 -4.40010888e-004 -2.41519170e-004
      2.08922313e-003 8.15408397e-003 -1.17945326e-002 -7.82123534e-004
      -8.56069164e-005 -2.35464727e-003 -5.82221104e-003
      -1.67554419e-003 5.83611988e-003 6.05410954e-004 -8.09339527e-003
      -1.71005838e-002 -7.23377522e-003 -1.10954083e-004 6.21555699e-003
      1.29299248e-002 -4.41724900e-003 2.14302843e-003 -6.44655386e-003
      -3.25772306e-003 4.47309203e-003 -5.89693990e-003 -1.17908651e-003
      -3.08826449e-004 -4.65853838e-003 2.74282973e-003 -5.54995472e-003
      -5.93240233e-003 1.16098356e-002 -6.77895732e-003 8.19614448e-004
      -9.58606787e-003 -3.39234923e-003 6.30920613e-003 4.25471086e-003
      -5.39096445e-003 1.29001141e-002 -1.50186932e-002 5.68032870e-003
      2.24824078e-004 -9.97755560e-004 1.43017247e-003 8.97893868e-003
      -1.08105978e-002 2.49613193e-004 -3.04339407e-003 -1.12550538e-002
      -4.42739250e-003 -2.97614792e-003 -7.91223254e-003
      -3.81052378e-003 6.65203156e-003 -3.88454576e-003 -2.39746855e-003
      -5.35905082e-003 6.47121633e-004 7.55101908e-003 -1.33541226e-003
      5.22026094e-004 -3.37622856e-004 -2.81330838e-004 -5.04024047e-003
      -6.21887669e-003 -6.85381144e-003 5.88020217e-003 2.07212218e-003
      -7.51558924e-004 -3.14843236e-003 -2.30003707e-003
      -1.89002790e-003 9.46003199e-003 -4.41278145e-003 6.48877118e-003
      -5.29313220e-005 6.74620643e-003 5.82666975e-003 2.44271220e-003
      1.22960918e-002 1.90813490e-003 -6.22357149e-003 -8.04934837e-003
      -4.53889923e-004 1.82478153e-003 -9.17173922e-003 7.05234427e-003
      4.12358670e-003 -7.64139462e-004 -2.06033303e-003 -2.55959621e-003
      1.47830637e-003 1.76663965e-003 9.75095190e-006 -1.13478326e-003
      2.80672382e-003 6.30726013e-003 -2.91930023e-003 8.47735349e-003
      -7.74507737e-003 -5.42776892e-003 2.80961418e-003 -6.34438009e-004
      1.79996295e-003 -6.54019648e-003 -1.51691679e-003 7.40158418e-003
      2.64912564e-003 -1.52917940e-003 -1.24636116e-002 -6.68955827e-003
      7.80214183e-003 4.20188392e-003 2.11644033e-003 4.10499051e-003
      -2.06366414e-003 2.40491028e-003 -2.87115667e-003 -6.72307238e-003
      6.32779580e-003 -9.80059523e-003 2.52704555e-003 -9.14224947e-004
      4.68893582e-003 -1.54033974e-002 1.82517467e-003 -1.08196801e-002
      -1.00011537e-002 -4.28163353e-003 5.62360976e-004 2.09584204e-003
      -7.48159690e-003 4.13059257e-003 3.17139295e-003 -5.48556587e-003
      -7.47850211e-003 1.58983259e-003 -1.74730050e-003 6.50595920e-003
      4.41140961e-003 -6.81164302e-003 4.59400425e-003 9.98940226e-003
      4.55977162e-003 -1.59161154e-003 -2.39402917e-003 7.89328851e-003
      3.69159941e-004 2.98811775e-003 -1.88286696e-002 6.49284432e-003
      4.32026014e-003 -7.79819814e-003 -1.33971907e-002 5.67451445e-003
      -4.28547384e-003 -3.68617312e-003 1.82216126e-003 4.56203154e-004
      1.74236763e-003 -6.17926661e-003 -3.11718252e-003 5.56523819e-003
      -2.53388891e-003 1.07656559e-002 -2.41055177e-003 3.99796932e-004
      -4.28235345e-003 -5.29649481e-003 -1.31513039e-003 3.09973094e-003
      -3.95484734e-003 -8.33447964e-004 -2.21278286e-003
      -5.45523176e-003 -7.16567622e-004 -4.93149459e-003 1.37102907e-003
      -9.24736261e-003 5.90911089e-003 7.39374664e-003 -1.62367488e-003
      6.88384240e-003 2.30929162e-003 4.06210078e-003 -3.02615599e-003
      2.60929391e-003 -3.54223093e-003 -1.32311285e-002 1.83753145e-004
      -1.50574930e-003 -7.20813824e-003 4.75912681e-003 -8.31617136e-003
      2.82646809e-003 -3.49109690e-003 -4.09661047e-003 -5.61248569e-004
      4.40893695e-003 -1.50145183e-003 -1.03102168e-002 3.96454288e-003
      -6.55909861e-003 7.55711924e-003 -9.36955959e-003 -4.92737163e-003
      9.19931976e-004 4.58060624e-003 2.76719290e-003 -3.08528892e-004
      1.90353161e-003 3.88339884e-003 -5.31563954e-003 -2.93355901e-003
      2.55086372e-004 1.12551861e-002 8.12034402e-003 1.42892255e-002
      1.02423476e-002 1.95094047e-003 -1.15689519e-003 -9.66761820e-003
      -3.83348204e-003 9.02649667e-003 -1.81273237e-004 -2.13437690e-003
      -6.35422766e-004 -3.70054971e-003 4.54521086e-003 7.07820291e-004
      -1.50335825e-003 6.52014604e-003 6.15848089e-003 -3.60191800e-004
      -5.73981786e-003 -4.97603323e-004 -3.20852618e-003 2.04510475e-003
      -8.41402728e-003 3.52883409e-003 -4.84631350e-003 3.01918201e-003
      1.90504093e-003 6.57659676e-003 -9.78777464e-003 1.06834668e-004
      -2.87200278e-003 -2.64281966e-003 3.28698079e-004 4.59836144e-003
      2.07452671e-004 6.37019379e-003 -1.44807855e-003 6.71703182e-003
      1.12029556e-002 3.76552553e-003 -1.13321617e-002 -5.16829407e-003
      6.09939778e-003 1.10609755e-002 1.43428901e-002 1.03210518e-002
      8.51858640e-004 -1.09425113e-002 2.73964531e-003 4.50445013e-003
      -5.06042223e-003 3.38103971e-004 6.10610656e-003 -4.01439331e-003
      2.88443710e-003 7.82232848e-004 2.78390921e-003 1.63981714e-003
      -2.36135651e-003 5.69752883e-003 -2.05474859e-003 -3.05558741e-003
      1.10682880e-003 2.88449321e-003 -7.59225048e-004 3.47637711e-003
      7.80464150e-003 2.57615838e-003 -7.78794708e-003 1.58575852e-003
      6.70305872e-003 -6.79689785e-003 7.49493774e-004 -8.63157306e-003
      -1.58016700e-002 -5.94573794e-003 3.56756197e-003 -3.14049516e-003
      -1.06898788e-003 5.78303938e-004 -4.36442625e-003 1.13537302e-003
      7.73109542e-003 -2.29109754e-003 9.73342545e-003 -1.84503887e-002
      -6.33292645e-003 -8.85088090e-003 -2.16873921e-003 6.94846082e-003
      3.41062061e-003 -1.20149739e-003 6.39364449e-003 -4.09144023e-003
      -4.44425177e-003 3.08283814e-003 -8.74638325e-004 3.67804058e-003
      -7.47955497e-003 -6.52194768e-003 -4.00580978e-003 8.83753784e-003
      -4.11280850e-003 6.63236110e-003 6.47800229e-003 -6.58411765e-003
      -7.25600496e-003 -1.06031466e-002 -7.79188704e-003 8.44922010e-003
      -2.41677975e-003 5.64704358e-004 -2.93428893e-003 -1.84372871e-003
      3.87834269e-003 -9.26685799e-003 -6.15458796e-003 -3.63250118e-004
      -1.14173191e-002 -1.33782066e-002 0. 2.47167214e-003
      -7.48349447e-003 -3.54398554e-003 -5.52295614e-003 6.86431490e-003
      -8.68373271e-003 -1.95361278e-003 -6.79926295e-003
      -9.74383112e-003 -2.18475610e-003 -1.20174345e-002
      -1.54742142e-002 -7.14542111e-003 9.84436087e-003 -1.53720356e-003
      4.93935170e-003 -1.51491147e-002 -2.69930391e-003 -4.60032752e-004
      -1.74969970e-003 -8.34479369e-003 -4.81987651e-003 2.70077097e-003
      -2.86079734e-003 1.06486688e-004 2.72521895e-004 -1.20759634e-002
      -1.19295553e-003 -5.21204015e-003 -2.44706147e-003 1.64050553e-002
      7.89905060e-003 8.01061804e-004 -1.58986598e-002 1.31758424e-002
      2.83851223e-005 1.51152408e-003 -1.53951102e-003 -1.81161542e-003
      -4.51212702e-003 1.49877195e-003 -1.67411212e-002 -2.04340019e-003
      9.77720047e-005 2.15848093e-003 2.33048182e-002 -3.09645548e-003
      4.90991957e-003 -5.46021666e-003 -2.37279339e-003 4.95726895e-003
      1.24778785e-002 7.36977998e-003 7.02628517e-004 -1.08153056e-002
      -2.59742839e-003 -1.16343948e-003 3.41825467e-003 1.27409156e-002
      8.42134468e-003 5.38636185e-003 2.41681095e-002 -1.14443258e-003
      4.58567496e-003 2.87828967e-003 6.80793123e-003 1.50053836e-002
      1.09091857e-002 -1.40192127e-003 -7.67252874e-004 1.25588095e-002
      6.50680484e-003 1.23763112e-002 6.94253203e-003 1.89348124e-002
      2.68779695e-003 5.68286562e-003 5.08740777e-003 2.55773845e-003
      -8.05046968e-003 -1.41348195e-004 4.04436607e-003 3.89600842e-004
      8.83934274e-003 -8.67243297e-003 -5.24436543e-003 8.76073493e-004
      -2.15602852e-003 7.56589370e-003 1.18379225e-003 -2.94975331e-003
      2.73547950e-003 5.41812414e-003 9.65675712e-003 7.85404816e-004
      1.43550141e-002 3.85369500e-003 3.86527088e-003 1.76273920e-002
      -1.27311132e-003 8.82953126e-003 4.69494984e-003 5.40327374e-003
      8.60003568e-003 8.09849985e-003 -3.14820930e-003 1.46278245e-002
      1.05589963e-002 -4.51570842e-003 -6.16841018e-003 4.28221328e-003
      6.38007745e-003 1.12412851e-002 4.35229298e-003 2.19210796e-003
      2.42912420e-003 2.93330150e-003 1.89997535e-002 9.31941066e-003
      4.68796119e-003 7.22363405e-003 7.03926850e-003 -5.58401737e-003
      8.90549272e-003 1.28036449e-002 8.04095250e-003 1.16609456e-002
      -3.87463951e-003 1.42260653e-003 -1.52245862e-002 5.27809467e-003
      8.64591263e-003 -1.55491324e-003 3.12548969e-003 3.87564045e-003
      1.66368913e-002 1.96088497e-002 2.11422145e-003 -1.93820742e-003
      1.57143772e-002 1.78739205e-002 -4.03468637e-003 6.02164213e-003
      9.76883620e-003 1.61764026e-002 -4.06090496e-003 7.25216465e-003
      -2.13984080e-004 9.11846384e-003 5.64737851e-003</_>
    <_>
      -1.70211904e-002 1.20009314e-002 -5.98579005e-004 5.84170083e-003
      -1.00070389e-003 -4.04456304e-003 3.45501164e-003 -3.32578481e-003
      3.41879763e-002 2.82714074e-003 1.24009624e-002 8.93549714e-003
      1.04901716e-002 5.86400041e-003 1.11575397e-002 -1.12725655e-002
      -3.10439267e-003 1.76347569e-002 -5.38209081e-003 1.40732108e-002
      1.09118072e-003 8.09951033e-003 1.22764716e-002 1.54747339e-002
      -8.16445239e-003 -4.18836204e-003 2.38567181e-002 -4.18032845e-003
      4.97632148e-003 -5.93396090e-003 -6.78114640e-003 -3.52504174e-003
      -9.79011413e-004 4.79596341e-003 -7.48126884e-004 -6.77280826e-003
      -7.05729472e-003 4.08976106e-003 5.05508343e-003 -2.35704798e-003
      -1.30715426e-002 -9.67320334e-003 7.72115169e-003 1.14743160e-002
      -8.95440765e-003 -1.86881851e-002 -3.79117730e-004 1.11058000e-002
      -4.39016521e-003 -2.96087749e-003 5.65855298e-003 2.20924572e-004
      -1.71938110e-002 -1.03423968e-002 2.79761362e-003 4.64352546e-003
      1.18903294e-002 -2.51129754e-002 8.74792039e-003 2.04324927e-002
      -1.18976785e-003 2.87731900e-003 -9.51444265e-003 4.99632629e-003
      1.31977955e-002 3.94102093e-003 3.82394093e-004 3.71431187e-003
      4.82385373e-003 4.81442548e-003 -3.26908962e-003 -2.28602774e-002
      1.97702236e-002 2.19995319e-003 -1.05526606e-002 -3.80387008e-002
      9.41072474e-004 -8.47542658e-003 -1.83875784e-002 -2.77655711e-003
      -1.76761970e-002 -9.45271086e-003 1.16080632e-002 6.58829510e-003
      -8.02116934e-004 2.93136947e-003 -1.02450431e-003 -2.01817224e-004
      3.59915360e-003 1.26520703e-002 1.06599350e-002 -2.47781188e-003
      -4.11776174e-003 -1.40496995e-002 -8.95075593e-003
      -7.00414041e-003 -2.10181233e-002 -4.78470605e-003
      -8.09506886e-003 2.96038995e-003 -2.58296151e-002 -2.90628579e-002
      -1.22561678e-002 8.07162360e-005 -1.45496158e-002 2.52310443e-003
      -2.02557128e-002 1.01268003e-002 -5.48330881e-003 -1.12586385e-002
      1.57676568e-005 -2.78143119e-002 -2.44964138e-002 4.15982632e-003
      -1.26148928e-002 7.29872193e-003 2.88984156e-004 -7.15835532e-003
      8.42950959e-003 -1.81760676e-002 -1.20388744e-002 1.16111096e-002
      1.18800374e-002 -2.57012062e-002 -2.00644992e-002 -5.95335336e-003
      -7.09041487e-003 -1.15536293e-002 -7.51809822e-003
      -1.98217705e-002 -1.02189109e-002 4.97471029e-003 -2.00298894e-002
      8.76833074e-005 -4.64374432e-003 -1.29958922e-002 -2.05806028e-002
      5.04347729e-003 -1.72006376e-002 7.40375090e-003 -6.92611886e-003
      -1.03200329e-002 4.26243292e-004 -1.18649667e-002 -1.92483049e-002
      -8.69314466e-003 -1.20341303e-002 -2.72956733e-002 2.66068568e-003
      -1.99170578e-002 1.15956238e-003 -2.48942245e-002 -2.20666490e-002
      -1.09816647e-004 5.66279655e-003 -1.06387748e-003 -1.22941798e-002
      7.67960912e-003 2.83709634e-003 -1.77153246e-003 5.49855351e-004
      -1.18082166e-002 -1.20430039e-002 -8.27433728e-003
      -4.73208399e-003 -5.67050418e-004 -5.71351545e-003
      -9.58527380e-004 2.46113515e-003 -1.38069165e-003 -2.49459948e-002
      -2.81765815e-002 -7.49592582e-005 -6.28097169e-003
      -1.32536413e-002 -4.81796777e-003 -4.72379802e-003
      -1.65717266e-002 -2.94057168e-002 1.65373262e-003 5.16637135e-003
      -4.85483855e-002 -7.32230395e-003 6.51151640e-003 -1.16220452e-002
      -6.24325732e-003 5.17018978e-003 3.13434121e-003 -5.59152775e-002
      -2.63619758e-002 -5.26495744e-003 -6.41125080e-004 1.12625370e-002
      2.42363270e-002 -1.71146425e-003 -4.70688753e-003 2.43670726e-003
      9.13173053e-003 1.69627456e-004 -6.33022981e-004 -5.99433901e-003
      3.87229887e-003 1.33256065e-002 1.08489133e-002 -6.97734300e-003
      7.70335644e-003 -1.94651599e-003 3.64631088e-003 8.78684409e-003
      1.19378604e-003 -1.19752046e-002 -1.81212611e-002 -7.21117714e-004
      1.25213165e-003 2.06428226e-002 -6.13684300e-003 2.54510827e-002
      -7.44941831e-003 2.84244423e-003 -1.78130660e-002 6.23242790e-003
      -2.06410456e-002 -1.06933685e-002 3.65309272e-004 4.67806496e-003
      -3.54761898e-004 2.38935482e-002 8.25930107e-003 2.36046333e-002
      8.16087518e-003 1.82802632e-005 -1.94151851e-003 -1.31644111e-003
      9.03314818e-003 -3.91608663e-003 -2.97166128e-002 -8.83517321e-003
      -5.61678829e-003 -2.33544759e-003 -1.10288924e-002
      -2.11398527e-002 2.46748386e-004 2.52185669e-003 -2.88890917e-002
      -4.77308733e-003 4.75119194e-003 7.12771900e-003 -7.59080704e-003
      -4.99170553e-003 1.33860335e-002 -1.94974578e-004 2.16747150e-002
      9.04853176e-003 1.16423247e-002 -2.81622808e-004 -1.13925999e-002
      -2.05233591e-004 1.25919823e-002 1.08068688e-002 -4.37321141e-003
      1.63374690e-003 8.91215820e-003 1.40637858e-002 -2.65913806e-003
      -5.09059348e-004 -1.79315172e-003 7.98199046e-003 6.61445549e-004
      1.77203584e-002 3.74188018e-003 -3.87179526e-003 2.47776206e-003
      9.47048888e-003 4.74482495e-003 2.31964677e-003 1.26066525e-003
      -1.26993540e-003 2.63106963e-003 -1.56227928e-002 -2.46117227e-002
      5.33957081e-003 -2.72410852e-003 6.58542849e-003 1.27217192e-002
      -9.22675431e-003 4.89495462e-003 2.68206233e-003 -7.37322588e-003
      -8.89097154e-003 -1.39197987e-002 1.04246698e-002 -4.94826306e-003
      4.13572369e-003 -3.33802169e-003 3.72090656e-003 -1.74456171e-003
      -1.01161143e-003 7.52555765e-003 5.55249536e-003 -2.27616969e-002
      3.59202852e-003 7.61861354e-003 7.14905001e-003 -1.33143980e-002
      -1.90746947e-003 -1.47697888e-003 3.47779947e-003 1.27819311e-002
      2.28075627e-002 9.04376712e-003 3.63179529e-003 -1.21943816e-003
      1.70584787e-002 9.27240495e-003 -7.16714049e-003 6.19940180e-003
      -1.15859606e-004 -1.18245147e-002 -7.24143302e-003
      -9.41532943e-003 -6.34670909e-003 5.74835949e-003 -3.80176306e-002
      1.27221402e-002 -1.26174539e-002 5.06651727e-003 -2.78033386e-003
      9.96914599e-003 2.80302437e-003 2.22575851e-003 1.96209196e-002
      1.60848275e-002 7.45223183e-003 -2.17680540e-003 -5.74086513e-003
      1.55078014e-002 4.87039145e-003 9.88564361e-003 -4.94429469e-003
      -1.04657804e-004 8.14340450e-003 -1.22459875e-002 6.95552863e-003
      -9.68057010e-003 4.56751743e-003 -1.08705852e-002 -1.53512685e-002
      1.67811550e-002 -5.25082201e-002 -1.11844325e-002 -8.53964780e-003
      -5.54904000e-005 -1.23565493e-003 -1.02880010e-002 1.62132154e-003
      -3.43470974e-003 -1.20446496e-002 5.52905025e-004 -2.35179672e-003
      -1.36192460e-002 -4.13639500e-004 1.24038942e-003 1.15842856e-002
      1.35541316e-002 1.46428710e-002 -9.15354770e-003 -2.09477916e-002
      -4.33888892e-003 -1.70619581e-002 4.29998944e-003 -5.04121650e-003
      8.03768355e-003 -6.20937999e-003 3.84370703e-003 6.59040501e-003
      -2.50142242e-004 3.34121613e-003 1.42846932e-003 -1.02076884e-002
      2.38154978e-002 -1.23112404e-003 -6.00110181e-003 -4.94038798e-002
      -4.21831384e-003 -5.80976997e-003 2.26508006e-002 6.23724796e-003
      -1.99412229e-003 2.85805203e-003 -4.32009846e-002 1.25997746e-002
      -6.77898526e-003 -2.60537001e-003 -1.08945007e-002 1.37356399e-002
      9.83574055e-003 -2.37132777e-002 1.39785383e-003 -4.86255065e-002
      3.27046873e-004 2.56315526e-003 -2.70099137e-002 6.92821946e-003
      7.78719317e-003 -6.46197237e-003 -6.38827030e-003 7.42538506e-003
      3.92003404e-003 -2.05443182e-004 -1.52130220e-002 -2.45170221e-002
      9.26665217e-003 1.80113614e-002 -1.51617667e-002 1.08166374e-002
      2.50671618e-002 -2.50384901e-002 3.23785789e-004 7.59422267e-003
      1.23383198e-003 8.49170669e-004 1.30922592e-003 7.37444405e-003
      -2.36577950e-002 -1.51122664e-003 -3.19299381e-003 3.82887170e-004
      -1.13524124e-002 7.67404737e-004 1.49025340e-002 2.71014939e-003
      -1.63298869e-003 1.47695849e-002 4.86116018e-003 -6.28260970e-002
      -7.95125123e-003 -9.08030011e-003 -1.44895166e-002
      -1.65001943e-003 -7.02805584e-003 5.00026566e-004 -6.20815484e-003
      3.30644613e-003 1.77372922e-003 -2.03560721e-002 1.45987542e-002
      6.20751269e-003 -8.32611974e-003 -2.15443596e-002 -7.57027010e-004
      -3.77980387e-003 -1.64168689e-003 1.47838518e-002 1.55731784e-002
      -1.26531324e-003 1.87172350e-002 8.18035007e-003 4.86653298e-003
      -3.23776808e-003 -6.09259075e-003 7.51798216e-004 -5.21701109e-003
      -1.11356284e-002 -1.52735854e-004 1.04611553e-002 1.44595159e-002
      -3.20669338e-002 -2.73238705e-003 -1.07200947e-002
      -2.14520819e-003 1.98292620e-002 -9.12070926e-003 5.44918422e-003
      -1.09076509e-002 -1.41355395e-002 5.50575671e-004 9.07931535e-004
      -1.59060513e-003 6.59607770e-003 3.74541502e-003 -1.58501454e-002
      2.50067998e-004 -8.74416000e-005 2.40225736e-002 -3.14870686e-003
      1.59697533e-002 2.04646750e-003 4.68039047e-003 -5.65620326e-003
      -1.66956559e-002 1.16749154e-002 1.63019379e-003 -1.33975281e-003
      -7.50669744e-003 1.40609173e-002 3.43264150e-003 -3.07271187e-003
      -2.53221346e-003 -5.27793716e-004 -1.24705024e-002
      -1.12888562e-002 -1.12856431e-002 -1.64507146e-004
      -9.74550471e-003 1.13800808e-003 1.21820150e-002 1.47492820e-002
      -1.09644160e-002 -6.20438997e-003 9.63473599e-003 -1.23198575e-003
      4.26722283e-004 5.46358293e-003 -6.52463594e-003 -2.12966627e-003
      7.72357313e-003 2.98114177e-002 1.04719354e-002 -1.17911901e-002
      -8.64019897e-003 5.05906017e-003 3.28384712e-003 -8.21160385e-004
      3.34704295e-004 -1.24946227e-002 1.32431565e-002 -7.53858034e-003
      7.63983279e-003 1.88010074e-002 2.07998715e-002 -1.66191181e-004
      4.94052423e-003 -7.90466461e-003 4.02524602e-003 -1.01015754e-002
      3.38756084e-003 1.66376065e-002 -8.17713421e-003 8.69608950e-003
      5.48847194e-004 -7.04043172e-003 -2.07917276e-003 -1.82407931e-003
      2.10331306e-002 -6.83568045e-003 1.70220174e-002 -2.13109422e-002
      3.23237292e-003 1.90805197e-002 -1.46961526e-003 1.35546951e-002
      3.32104065e-003 -5.72662160e-004 -7.91072194e-003 -7.15647591e-003
      -2.69666524e-003 9.62258969e-003 5.32377558e-003 4.98338882e-003
      8.48929491e-003 5.62511059e-003 4.05839505e-003 3.39358882e-003
      -3.05554681e-002 1.27994651e-002 2.78216135e-003 1.75666362e-002
      3.14819517e-005 -7.65643036e-003 1.09117874e-003 6.54277485e-003
      5.43812755e-004 -8.51695426e-003 2.62563787e-002 1.12498384e-002
      1.13043757e-002 -7.31291668e-003 1.07515580e-003 2.50876183e-003
      -5.31860674e-003 1.23042765e-003 -1.30588105e-002 -1.60959009e-002
      -5.54205338e-003 -1.53682381e-003 7.83517957e-003 8.23680486e-004
      -1.06328679e-002 1.42442072e-002 3.89922853e-003 3.17371218e-004
      1.31085387e-003 8.91691260e-003 5.28565841e-003 -7.35128485e-003
      1.04892431e-002 -1.43083371e-002 -4.84454073e-003 2.28940770e-002
      1.22048408e-002 -3.98961222e-003 5.73493866e-003 7.70504493e-003
      5.17475512e-003 4.10807412e-003 5.52685931e-004 6.55140076e-003
      -3.81766306e-003 -5.68637671e-003 -4.83364519e-003 4.98380233e-003
      4.71544266e-003 1.25062522e-002 9.17652249e-003 -3.06293019e-003
      -9.21974611e-003 -1.46112144e-002 -6.49018772e-003 9.68798250e-003
      -6.66110637e-003 -1.22543946e-002 2.05167988e-003 4.64313757e-003
      1.16946893e-002 1.13007128e-002 -8.39983765e-003 6.10409817e-003
      5.73892659e-003 -6.12997962e-003 2.23245705e-003 3.57693480e-003
      1.22409008e-004 -1.43931173e-002 5.77236712e-003 1.08143073e-002
      -6.97131641e-003 -1.11645823e-002 -5.60667040e-003 3.93619004e-004
      3.76275415e-003 -3.06450925e-003 -5.90391028e-005 -1.26125626e-002
      -5.34773013e-003 -1.43225389e-002 -9.40405705e-004
      -6.17985660e-003 4.38212184e-003 1.67276838e-003 1.70694955e-003
      1.00579588e-002 1.47372000e-002 -4.33069537e-004 4.38377867e-003
      2.35684235e-002 1.73821789e-003 -6.44167140e-003 2.70427065e-003
      5.70368441e-003 -6.91312551e-003 -5.55328000e-003 1.01050232e-002
      -2.66279466e-003 8.13694578e-003 -4.22427151e-003 -1.14289271e-002
      -3.77336554e-002 -1.14217233e-002 -7.66619248e-003
      -9.09306109e-003 3.33112781e-003 5.26680984e-003 2.94101221e-004
      2.95650261e-003 -5.39548509e-003 4.01518354e-003 -8.26345850e-003
      6.28566137e-004 -5.13259787e-003 1.36642309e-003 7.81948585e-003
      -1.55534199e-003 1.02129420e-002 3.64250992e-003 2.93502193e-002
      4.84385947e-003 -1.38436388e-002 -5.36910817e-003 2.76571210e-003
      -1.25161409e-002 -2.64917351e-002 2.08825595e-003 -5.73587557e-003
      1.68261845e-002 -2.63449717e-002 3.00278906e-002 1.45776961e-002
      1.24832513e-002 -8.78599379e-003 1.49439704e-002 4.37065586e-003
      1.15756942e-002 2.21142173e-002 1.75484084e-002 7.54837878e-003
      -5.44496812e-003 1.99239235e-002 4.05660365e-003 8.21424648e-003
      5.51369926e-003 -6.61295792e-003 4.40649805e-004 -1.11797722e-002
      8.37515201e-003 3.54889967e-002 1.13318423e-002 8.39760061e-003
      1.73883382e-002 1.16085699e-002 -8.12628865e-003 1.40701868e-002
      1.43847605e-002 2.16528936e-003 1.31810969e-002 -1.71712658e-003
      -1.40013564e-002 4.37977863e-003 2.04041228e-003 6.86798804e-003
      7.84851797e-003 1.23425946e-002 -1.52295893e-002 -2.75236033e-002
      -8.09009094e-003 2.18096171e-002 6.63784891e-003 9.85591486e-003
      -5.98739833e-003 -2.20626798e-002 -4.35199216e-003 7.80420145e-003
      -1.36112515e-002 1.12087531e-002 9.79138725e-003 -1.63657335e-003
      1.72708537e-002 -1.77474110e-003 1.18129542e-002 5.35406778e-003
      1.72007736e-003 1.50119355e-002 -1.11683439e-002 1.31139695e-003
      7.59324059e-003 1.73284560e-002 1.87473220e-003 2.43156757e-002
      6.82078535e-003 -8.42780806e-004 2.42381147e-003 2.44486760e-002
      1.95446541e-003 3.36450496e-004 1.81326699e-002 7.23712146e-003
      2.61425786e-003 1.36871869e-002 1.96908023e-002 1.92854460e-002
      1.44870579e-002 1.42499236e-002 8.26933142e-003 1.79013107e-002
      1.08458502e-002 -7.40172854e-003 2.37814430e-002 2.82474328e-002
      8.47672578e-003 3.14917089e-003 -2.79676751e-003 1.03206579e-002
      6.25376496e-003 1.86375377e-003 -5.54749137e-003 2.67470488e-003
      1.51055818e-002 1.03851119e-002 -1.86685435e-002 -9.17100627e-003
      1.56354979e-002 2.40678936e-002 -1.65917668e-002 1.59680098e-002
      2.12714076e-002 3.07008382e-002 -1.57740340e-002 -8.95384047e-003
      2.20465497e-003 8.60217586e-003 1.60929598e-002</_>
    <_>
      -8.23298749e-003 -1.09436223e-002 8.95815552e-004 -1.41721386e-002
      -1.11379623e-002 -1.95977488e-003 1.90784701e-003 -1.35651948e-002
      2.65014134e-002 5.46785723e-003 3.39553365e-003 1.05631985e-002
      6.83133816e-003 2.77881511e-003 8.16670712e-003 6.90173218e-003
      -1.31443124e-002 -3.58382007e-003 -5.19655971e-003 5.78540098e-003
      -3.51310940e-003 6.44191727e-003 8.54408648e-003 3.48892435e-003
      3.23769217e-003 2.70756427e-003 1.28088100e-002 -3.49472254e-003
      -2.25907657e-003 -5.93953254e-003 -3.83449253e-003
      -1.03357863e-002 5.92861651e-003 -1.50952991e-002 -6.57069962e-003
      1.11783873e-002 -5.27023571e-003 6.00519124e-003 -4.54249978e-003
      4.15209774e-003 -1.22419056e-002 5.91363944e-003 9.03086504e-004
      -1.34117249e-003 -1.31771760e-002 -2.17845151e-003
      -6.26051845e-003 -1.85093528e-003 -1.45425589e-003 1.62279035e-003
      -3.00481683e-003 6.84897229e-003 6.36585150e-003 -3.77331395e-004
      -7.82566518e-003 -1.39004719e-002 -4.19306196e-003
      -7.87995104e-003 -3.26218759e-003 4.19632765e-003 4.17428045e-003
      5.74004464e-003 -3.92149063e-003 3.24730412e-003 8.29031691e-003
      4.19244450e-003 4.20659641e-003 6.68915082e-003 -1.32113388e-002
      -6.17931830e-003 4.89135878e-003 7.24898977e-003 2.55451654e-003
      -5.32514649e-003 -2.02121190e-003 -1.56446511e-003 2.18890002e-003
      1.65038323e-003 -2.14663800e-003 -1.23929149e-002 6.79204287e-003
      -9.35402000e-004 3.26091726e-003 -3.34775797e-003 2.65312823e-003
      -3.73951101e-004 -5.72644081e-003 -1.76579657e-003 4.61968081e-003
      -3.20584001e-003 1.17422557e-002 -3.33794835e-003 -8.10164772e-003
      -3.14652338e-003 6.22586440e-003 -6.10838365e-003 1.33219259e-002
      -2.20725173e-003 -5.22550661e-003 1.00984331e-002 -6.32852875e-003
      -2.15975214e-002 -1.36939008e-002 6.86296402e-003 -9.79752466e-003
      -7.09408312e-004 6.16333680e-003 1.16344634e-003 -7.41139101e-003
      -7.06148846e-003 -2.11996026e-002 -1.66261499e-003 5.01788175e-003
      -6.43671956e-004 -7.53604015e-003 1.55463640e-003 2.18495170e-005
      3.72577831e-003 2.79321428e-003 -5.00672171e-003 -4.23117215e-003
      -6.98594376e-003 1.09399408e-002 3.22915218e-003 -1.27330674e-002
      1.13094077e-002 5.97418228e-004 -2.02299422e-003 5.01466403e-003
      1.39190012e-003 -2.33754981e-002 9.12558567e-003 -1.15570091e-002
      -1.43080624e-003 -1.17443623e-002 -9.77880601e-003 9.90380254e-003
      3.74914659e-003 -2.80383416e-002 -7.58582866e-003 5.24465111e-004
      -5.23996353e-003 1.50747702e-003 -8.44495744e-003 5.26986783e-003
      -3.04764230e-003 4.97417012e-003 -1.05399052e-002 1.55830546e-003
      -8.81344639e-003 -1.06762315e-003 8.15204345e-004 -3.05641536e-003
      1.68420896e-002 1.42902760e-002 -6.33394113e-004 -8.11591092e-003
      -4.18232346e-004 -5.04633063e-004 8.94965231e-003 2.86339736e-003
      1.47261628e-004 -7.26226857e-003 3.16829956e-003 -9.74574778e-003
      -1.28204171e-002 -4.11712006e-003 -9.80298407e-003 3.88423004e-003
      2.47600232e-003 1.26170302e-002 -2.91704503e-003 -4.57976665e-003
      -5.88532165e-003 -7.05786655e-003 2.75737932e-003 -2.08488898e-003
      1.40703516e-003 -5.79536799e-003 -2.06715632e-002 -1.43989669e-002
      4.81331488e-003 -1.65847428e-002 -3.53485160e-003 -2.59746652e-004
      7.57695315e-003 4.38111648e-003 5.68827614e-003 -1.85305846e-003
      -2.57831719e-003 8.40450916e-003 3.64702125e-003 -3.09340586e-003
      1.54605173e-002 -7.58559257e-003 6.91190409e-003 -2.24915333e-002
      1.27527006e-002 7.28683127e-003 -7.21718650e-003 -1.33740157e-002
      -3.73658165e-003 -9.14685894e-003 -9.34662297e-003
      -1.34594142e-002 -8.85155969e-005 -9.35024582e-005
      -3.30935325e-003 -3.67935980e-003 1.03730627e-003 -4.32185782e-003
      -1.96918789e-002 -4.61405143e-003 2.60540913e-003 5.10912761e-003
      4.30887379e-003 -7.32974056e-003 -1.20918620e-002 -9.39612929e-003
      -1.03799591e-003 4.64940025e-003 -1.32392216e-002 -7.29229674e-003
      -6.89734844e-003 -8.74482933e-003 -1.98606355e-003
      -7.40246335e-003 -9.23825614e-003 1.67312683e-003 -7.54245976e-003
      -5.12757339e-003 -8.82314611e-003 -1.14143537e-002 1.18658900e-004
      -1.37116783e-003 -1.28562553e-002 -1.89348161e-002
      -9.72378417e-004 -4.01768321e-003 9.15543921e-003 -8.93426966e-003
      -9.58807766e-003 2.69076251e-003 -1.84271596e-002 5.08341985e-003
      -1.14276223e-002 -3.89069715e-003 -9.06618126e-003
      -1.03521841e-002 6.66578300e-003 -1.57362502e-002 1.11397384e-002
      9.16772056e-004 -1.83885789e-003 -1.61906537e-002 3.45844310e-003
      -5.85811818e-003 -5.65889664e-003 -4.69537824e-003 3.22163268e-003
      -7.63305370e-003 4.89444379e-003 4.48763883e-003 -7.64501048e-003
      -2.58916081e-003 -8.18878971e-003 1.33002584e-003 -2.23292317e-003
      -3.09493043e-003 1.11036247e-003 -3.12820934e-002 -1.26436749e-003
      -2.29117908e-002 2.07231520e-003 -2.17864830e-002 -4.56758263e-003
      -4.79594851e-003 -7.31276022e-003 -2.21709628e-002
      -7.26180524e-003 -9.58487578e-003 6.43831678e-003 -5.42617450e-003
      -1.51088815e-002 -7.61615671e-003 4.19203512e-004 1.66580360e-003
      -3.96891171e-003 -8.76561552e-003 -3.81425805e-002
      -1.21373050e-002 -1.17659736e-002 1.37875788e-003 -5.24617080e-003
      -1.51138380e-003 3.48163140e-003 -1.17930043e-002 -4.85586817e-004
      2.49185879e-003 -4.08481807e-003 7.80506234e-004 5.10743819e-003
      -1.62641499e-002 -4.00026748e-003 -7.60182133e-003 4.16716048e-003
      2.62327795e-003 1.00124106e-002 3.66216688e-003 3.48469755e-003
      -2.30904040e-003 -1.43134664e-003 3.39719444e-003 2.52145762e-003
      -7.07275514e-003 5.53721422e-003 1.43044360e-003 -1.38266059e-002
      -1.74829233e-002 1.54584250e-003 4.91542183e-003 -5.26013784e-003
      -6.74020220e-003 3.32863443e-003 -1.20506121e-003 -3.47621914e-004
      -4.85159643e-003 5.45677869e-003 -1.73335592e-003 1.46265617e-002
      3.80690442e-003 9.62334778e-003 7.33419787e-004 -1.32316174e-002
      -2.01021228e-003 1.14131365e-002 -3.01201479e-003 8.73141456e-003
      -6.96423650e-003 1.75450800e-003 2.58226227e-003 -2.81459489e-003
      1.71387510e-003 5.42118680e-003 9.64695180e-004 2.64378614e-003
      -1.04182521e-002 1.18849194e-002 -1.36392852e-002 1.92414562e-003
      -2.15328787e-003 -4.78263572e-003 -6.67057233e-003
      -4.67804074e-003 1.79795478e-003 -3.51497903e-003 -1.37967998e-002
      -2.58287368e-003 -3.07579478e-003 -1.48587395e-002
      -3.31225951e-004 -8.88078532e-004 4.08524880e-003 1.25819398e-002
      2.32814671e-003 -7.33465841e-003 8.27907119e-003 -4.55489499e-004
      -5.23153134e-003 -1.39070945e-002 2.34422321e-003 1.75066583e-003
      -8.35001527e-004 -4.74549877e-003 -1.95674342e-003
      -2.76045129e-003 -1.10007375e-002 -9.80962068e-004
      -4.60744789e-003 2.03877743e-002 2.05149408e-003 1.37282349e-003
      -2.93642655e-003 2.83652009e-003 -1.46639388e-004 2.16527022e-002
      -2.20654649e-003 1.74205136e-002 -9.15690092e-004 -7.86367804e-003
      -1.01736817e-003 2.04925495e-003 -1.69096363e-003 2.70672888e-003
      -1.12495199e-003 -4.65349120e-004 -1.53760321e-003
      -1.49907998e-003 1.28959483e-002 -3.87988985e-003 -1.33068264e-002
      -7.48299155e-003 -3.72822210e-003 -7.57482310e-004
      -1.64200161e-002 5.98469377e-003 -3.37566086e-003 -7.70519581e-003
      -8.77864286e-003 -2.01982576e-002 -4.99931513e-004 2.04689219e-003
      -6.41451159e-004 -4.82599571e-004 4.45313705e-003 4.31324309e-003
      -1.60121582e-002 -1.35652507e-002 -2.96408287e-003 8.61304440e-003
      -1.04329782e-003 -3.75351775e-003 -6.30097743e-003
      -3.48920887e-003 5.13801677e-003 -1.88331176e-002 6.29967311e-003
      5.85817685e-003 -1.87113527e-002 -7.95132015e-003 -1.61648877e-002
      5.89684350e-003 1.80680270e-003 -9.59287304e-003 1.19278524e-002
      1.56682096e-002 -1.02276839e-002 6.70357316e-004 6.63017854e-003
      -4.39436268e-003 -7.56072579e-003 -2.24729721e-003 1.36807386e-003
      1.66496623e-003 -8.02356005e-003 1.49563495e-002 9.35122650e-003
      -1.28099406e-002 -7.45532196e-003 8.67764093e-003 1.49164181e-002
      6.02419022e-003 8.91035330e-003 -2.16402556e-003 -2.39573140e-003
      -7.83670042e-003 -1.13676842e-002 -1.06424158e-002
      -1.06964512e-002 7.82156305e-004 5.34310064e-004 8.66364106e-004
      -1.25608714e-002 -4.50950436e-004 5.51226456e-003 -2.78301928e-002
      -8.62854999e-003 5.95748483e-004 -1.54856425e-002 7.48536969e-003
      9.47081205e-003 -1.34467324e-002 -1.27955461e-002 -6.09400682e-004
      -7.16093602e-003 -5.42447297e-003 -4.13615140e-004 2.51955865e-003
      -1.03043821e-002 3.95759707e-003 -6.13638293e-003 7.08141970e-003
      6.40674494e-004 1.03784278e-002 3.03507806e-003 -4.19256231e-003
      -1.19011253e-002 -2.88568274e-003 -4.45050467e-003
      -9.57932230e-003 1.67155953e-003 -1.04529513e-002 6.80599827e-004
      -5.92566212e-004 6.90856483e-004 3.58276372e-003 -4.31004446e-003
      -3.73034459e-003 5.43730093e-005 2.07781605e-003 -6.55616727e-003
      -1.47050023e-002 1.13971289e-002 -1.60020813e-002 -6.06342359e-003
      6.33057440e-003 2.29140255e-003 -1.73482429e-002 -7.03154830e-004
      -9.97450016e-003 4.03261278e-003 8.15740786e-003 -8.17450229e-003
      -8.90529063e-003 -1.41496770e-002 -8.31688114e-004 3.45274503e-003
      1.33166015e-002 -3.73021769e-003 4.68666432e-003 2.84533133e-003
      -8.58523510e-003 -1.65289873e-003 1.08038483e-003 -5.05691534e-003
      1.00395875e-002 9.49495658e-003 1.11045688e-002 2.55727442e-003
      1.59061030e-002 1.71843469e-002 2.08003540e-003 2.96157988e-004
      4.10821475e-003 1.53623871e-003 -8.47300049e-004 -5.09385997e-003
      -1.55887555e-003 1.46181751e-002 5.40805375e-003 1.23709859e-003
      1.08323209e-002 4.28054621e-003 1.17990626e-002 1.36504823e-003
      3.10703157e-003 4.87565901e-003 -4.85852979e-005 6.79900916e-003
      1.51616731e-003 -5.43460296e-003 1.09877735e-002 -1.47820718e-003
      1.73526481e-004 -2.87294365e-003 -7.13554071e-003 9.10235289e-003
      -1.04921814e-002 -3.30782821e-003 1.14857918e-002 3.93394241e-003
      7.93245214e-004 -1.23370183e-003 -1.51640223e-002 5.14268316e-003
      6.49858871e-003 9.69316810e-003 7.47120124e-004 1.26353493e-002
      3.82282218e-004 -1.22492183e-002 -1.03865927e-002 -4.06186469e-003
      6.43897196e-003 1.70843047e-003 -6.72271242e-003 -5.29411994e-003
      -1.07290186e-002 -2.80876434e-003 -7.06681795e-003 6.09817682e-003
      -4.40740446e-003 5.75285347e-004 -1.71553474e-002 -4.55441047e-003
      9.13637783e-003 -4.14782000e-004 2.66346615e-003 2.95512262e-003
      -3.99664370e-003 7.19190575e-003 1.31613463e-002 -2.53164116e-003
      1.65488303e-003 5.89112984e-003 1.35266874e-002 -5.81619702e-003
      -1.79871591e-003 1.96836498e-002 1.95806584e-004 -4.60364996e-003
      5.95930777e-003 -1.36468848e-002 3.92430276e-003 3.45891737e-003
      -6.66561245e-004 -1.78620778e-002 4.43308527e-004 1.16686360e-003
      -7.99697638e-003 1.12844340e-003 5.94049226e-003 2.89366627e-003
      1.30796954e-002 -9.70745241e-005 6.10251620e-004 -8.89449380e-003
      8.69637821e-003 -1.04775745e-002 2.90697117e-005 -9.69923940e-003
      -6.09965948e-003 4.91960673e-003 1.17249112e-003 4.57693310e-003
      -1.07684834e-002 7.24881748e-003 1.14283431e-003 -7.61938049e-003
      -4.43770178e-003 6.89049624e-003 -3.31286411e-003 -1.10286241e-002
      3.11034382e-003 5.19184163e-003 2.30936916e-003 -7.05747353e-003
      -9.59207490e-003 -1.57674460e-003 1.18372664e-002 2.27747578e-003
      -6.73508830e-003 -7.92045519e-003 -8.16524122e-003
      -6.77672820e-003 -9.29844845e-003 -1.02946740e-002 2.00798782e-003
      -1.08882878e-002 1.06670160e-003 -7.08360877e-003 9.75951203e-004
      -8.08708183e-003 4.35721688e-003 1.19500579e-002 -6.08531293e-003
      4.06823214e-003 1.00258191e-003 7.99348019e-003 5.73388813e-003
      -4.27756831e-003 -4.29920992e-003 1.49576413e-002 1.63938943e-003
      9.78821074e-004 -4.38667648e-003 -1.26041612e-002 -4.34711808e-003
      5.08803502e-003 -5.46434429e-003 -5.95021434e-003 1.64208969e-003
      6.18875399e-003 -1.46009680e-003 -7.87662226e-004 9.60050151e-003
      -1.22551965e-002 -5.19330055e-003 -2.55990750e-003 5.71476528e-004
      8.01155251e-003 -5.24092373e-003 -1.01503739e-002 2.91564222e-003
      1.70087703e-002 1.22171140e-003 7.31097115e-003 -6.93561696e-003
      7.95648142e-004 9.91263427e-004 6.57060323e-003 5.97515283e-003
      -5.08041540e-003 -3.26954620e-003 3.87482601e-003 4.98988526e-003
      -8.78011063e-003 4.07711230e-003 -4.48484393e-003 -6.06064918e-004
      4.54488723e-003 2.27876459e-004 8.77825823e-003 7.09032966e-003
      -2.07750779e-003 1.27659244e-002 1.08133769e-002 -3.91705567e-003
      6.04998739e-003 1.16938110e-002 8.96745455e-003 7.47166807e-003
      -8.61055311e-003 -4.86369617e-003 1.64894294e-002 1.46496613e-002
      4.17929981e-003 1.42684607e-002 1.07278777e-002 -3.41080222e-003
      3.27506778e-003 1.53308716e-002 8.89587495e-003 -1.86950853e-003
      1.80685036e-002 6.32134173e-003 -1.57504773e-003 9.37516615e-003
      5.24995802e-003 9.26321838e-003 1.10644079e-003 1.25041613e-002
      4.70401952e-004 1.82722542e-005 6.32823678e-004 -5.98538201e-004
      6.86696451e-003 -1.37303186e-005 -1.95160368e-003 -8.81096406e-004
      2.48913094e-003 -9.68435023e-004 6.37014396e-003 1.68521684e-002
      -1.66895241e-002 6.90401485e-003 -2.06884975e-003 6.91748178e-003
      1.35460123e-002 6.22834126e-003 8.96408409e-003 -8.66006769e-004
      4.36101155e-003 -1.99357467e-003 1.73684210e-002 -3.84241063e-003
      2.04880368e-002 2.97629088e-003 3.90338857e-004 -8.44942778e-003
      1.72405578e-002 1.33842072e-002 1.07365940e-003 1.01031605e-002
      1.41855916e-002 1.97551725e-003 3.41952802e-003 3.80296796e-003
      8.97648558e-003 8.76347627e-003 -2.61660200e-003 -1.13731287e-002
      1.15742497e-002 2.40561413e-003 1.52186002e-003 2.37176288e-002
      2.01962814e-002 6.48433017e-003 4.09054756e-003 3.06974608e-003
      5.03048301e-003 6.11334294e-003 3.45626939e-003 1.22656068e-003
      4.42721136e-003 1.15457065e-002 4.63350676e-003 -3.38718435e-003
      5.55792218e-003 3.03608272e-003 1.44863008e-002 -1.70809459e-002
      9.43561457e-003 1.24569414e-002 9.16680135e-003 -3.80623597e-003
      2.64180056e-003 2.59221415e-004 2.08319444e-003 9.49526671e-003</_>
    <_>
      -1.21314004e-002 -2.79693324e-002 -3.99829354e-003
      -1.17594618e-002 -1.02654407e-002 -3.49980011e-003
      -1.79717187e-002 3.17235175e-003 1.49886617e-002 -5.05953096e-004
      8.28877790e-004 -9.22039966e-004 -2.74911858e-002 8.97209533e-003
      2.21380331e-002 -1.53049116e-003 3.80540197e-003 2.46120477e-003
      -9.47869476e-003 -5.50878281e-003 4.26286459e-003 -2.87120056e-004
      -1.16571132e-002 -6.28741737e-003 3.78058245e-003 -1.85420946e-003
      4.63694846e-003 -9.72452573e-003 -7.28939427e-004 4.24083648e-003
      -1.09536154e-002 6.78296993e-003 -1.09823197e-002 -5.73629932e-003
      -5.55155007e-003 1.51886353e-002 -2.35279324e-003 1.42845269e-002
      -2.64874799e-003 -1.10936281e-003 6.17692620e-003 7.21655507e-003
      -1.22042559e-003 8.76192283e-003 6.00420078e-003 -4.29215981e-003
      3.21508688e-003 -4.62739961e-003 9.20181628e-003 1.61517337e-002
      5.19263151e-004 7.77980452e-003 5.41252969e-003 -2.38591768e-002
      7.40174670e-003 7.12636020e-003 9.87548102e-003 3.99727141e-003
      8.44046846e-003 1.84631124e-002 -4.69988794e-004 -7.24663306e-003
      -1.53877484e-002 -2.00792737e-002 -8.63307039e-004
      -1.64235085e-002 -8.53691623e-003 2.29920773e-003 1.85093551e-003
      2.87281303e-003 6.90565957e-003 -9.97776166e-003 1.19402129e-002
      1.96952149e-002 -8.93684701e-005 -1.26938671e-002 1.97094353e-003
      -9.66117997e-003 -9.02478490e-003 -1.49517637e-002
      -4.87919012e-003 -7.41804205e-003 1.58684254e-002 3.79169500e-003
      1.16014143e-003 9.74291842e-003 -1.53929368e-002 -6.17858116e-003
      4.95126937e-004 2.70093493e-002 -1.28087737e-002 -1.71626993e-002
      -6.80115027e-003 6.56944513e-003 6.04305835e-003 -1.53248180e-002
      3.28681758e-003 7.91388564e-003 -1.15139550e-002 1.30472872e-002
      6.81204628e-003 2.94310646e-003 4.89314878e-003 -2.25235266e-003
      -8.98100529e-003 -4.68752207e-003 -2.55042631e-002 2.99321185e-003
      1.35491891e-002 -1.59186013e-002 7.68921571e-003 -5.86795108e-003
      -4.03507380e-003 1.41100178e-003 -9.68465582e-003 1.77952088e-003
      -4.42548748e-003 -3.80088505e-003 9.96318273e-003 4.09322185e-003
      3.28199170e-003 6.22280082e-003 3.24041061e-002 -6.30425476e-003
      2.97150202e-003 -1.09425737e-002 7.26459268e-003 1.78278908e-002
      -1.69375155e-003 -2.16497504e-003 -2.90669110e-002 3.42351524e-003
      1.30225653e-002 1.97621365e-003 2.46300042e-004 -3.46578658e-002
      6.59987889e-003 7.76118599e-003 -2.27531027e-002 -7.81105133e-003
      5.01718698e-003 -5.95661579e-003 -5.54960454e-003 8.67254194e-003
      1.19156698e-002 -1.25875166e-002 -7.17509864e-003 -5.69578446e-003
      4.91526583e-003 1.32776182e-002 -6.67840708e-004 1.74488630e-002
      1.90390125e-002 1.46946404e-002 1.56879500e-002 -8.83379113e-003
      9.73941665e-003 -3.06812767e-003 5.15077310e-003 4.61078249e-003
      -4.74011339e-003 -4.61880770e-003 -1.33220218e-002 9.30422079e-003
      -4.53555863e-003 -8.89480766e-003 -3.24096926e-003
      -5.13934391e-003 -1.63418078e-003 -6.47640415e-003 3.56200449e-002
      -1.36061516e-002 -9.85122751e-003 -5.43401996e-003
      -1.31123676e-003 3.19593726e-003 1.66237485e-002 -4.32772515e-003
      -1.91116538e-002 1.04632729e-003 8.60614795e-003 -2.90143304e-003
      -1.28800599e-002 3.67506268e-003 -5.73608978e-003 1.35833500e-002
      8.17284454e-003 -8.77102651e-003 -1.38322813e-002 1.73704643e-002
      -7.73361186e-004 8.28139111e-003 -1.47755854e-002 2.90610660e-002
      1.67146251e-002 6.83146343e-003 6.67558191e-003 4.29173931e-003
      1.10813743e-002 -1.10885771e-002 -1.43253002e-002 8.40008445e-003
      8.85366555e-003 1.11214416e-002 8.37988046e-004 -9.20825358e-003
      8.32922105e-003 1.44617651e-002 -1.38075778e-003 7.37750717e-003
      -3.70306824e-003 -1.59792311e-003 4.13106894e-003 1.79081166e-003
      1.24921529e-002 2.99114757e-003 3.06581501e-002 -1.79960728e-002
      7.12648325e-004 -3.60407005e-003 -2.27738526e-002 -1.06765255e-002
      -3.68800038e-003 -2.25283168e-002 -7.29101151e-003 4.46355995e-003
      1.76305063e-002 -8.97530932e-004 -4.03171964e-003 4.63706814e-003
      -1.52431987e-002 1.55717237e-002 2.89985095e-003 1.74434477e-004
      -1.53597991e-003 -3.25355418e-002 -6.51260884e-003 3.80151032e-004
      5.03465344e-005 1.21445162e-002 -1.86180994e-002 2.90963263e-003
      -6.00836612e-003 -5.71014453e-003 5.17297129e-004 1.78880226e-002
      3.38441203e-003 -6.69298926e-003 2.22592298e-002 1.33532379e-002
      -1.21046894e-003 -5.50931400e-005 5.45433396e-003 -3.60159646e-003
      4.46564751e-003 -1.62000791e-003 -1.84896390e-003 4.20203665e-003
      1.35691222e-002 -1.49122253e-002 2.45765038e-002 7.35290023e-003
      -2.67703030e-002 8.16817675e-003 6.84892526e-003 -2.06602588e-002
      1.32287508e-002 -3.33792940e-002 8.04955326e-003 1.90762000e-003
      1.82794279e-003 7.52197346e-003 8.58876761e-003 -2.08390853e-003
      -6.15566084e-003 2.52793008e-003 -1.27170645e-002 -2.22441014e-002
      -2.12824419e-002 1.06163463e-002 -1.22703956e-002 -1.41361328e-002
      -2.06391490e-003 -2.10473500e-002 -9.56932176e-003
      -9.74572543e-003 5.90066193e-003 -5.02279354e-003 -4.28753346e-003
      -3.19440402e-002 7.54495803e-003 3.27440118e-003 -5.69495838e-003
      -1.85519662e-002 -7.36534223e-003 1.18456339e-003 -8.66346806e-003
      1.99097628e-003 7.86829833e-003 -1.77569725e-002 7.84539245e-003
      3.57949012e-003 -1.86573565e-002 -1.79042574e-002 -1.56785902e-002
      1.07694184e-002 -9.96117759e-003 -1.05749359e-002 -3.99493333e-003
      -3.13376728e-003 -3.65524041e-003 1.00494397e-003 -1.86949093e-002
      -1.25608305e-002 1.43919126e-004 -8.32736772e-003 -7.39202648e-003
      -2.55878363e-002 -1.76566816e-003 -1.83692388e-002
      -1.14323599e-002 3.87090200e-004 -1.54863400e-002 -2.15534330e-003
      9.17231780e-004 -7.17992987e-003 -1.28594711e-002 8.89003556e-003
      1.13281086e-002 5.43096289e-003 -1.16862189e-002 1.20050004e-002
      5.72262052e-003 -1.05433594e-002 -6.61687041e-003 -1.54857263e-002
      -2.31785909e-003 -8.65271036e-003 -5.16583165e-003
      -1.35831600e-002 -9.38723050e-003 -3.31654660e-002
      -8.11822060e-003 -1.67012177e-002 -6.07680762e-003 4.77515254e-003
      -6.16539828e-003 1.01731690e-002 1.28239263e-002 -2.80465186e-002
      5.39574539e-004 -1.61314216e-002 -1.22858929e-002 -4.60345186e-002
      -7.68466620e-003 4.88647539e-003 -5.48193092e-003 2.90503097e-003
      2.57519394e-004 -1.37745207e-002 -8.23927671e-003 -3.27339768e-003
      -5.52906422e-003 -1.02123618e-002 -9.64418333e-003
      -1.60912145e-002 1.30796311e-002 -1.31883491e-002 -8.88255425e-004
      -1.07988873e-002 5.32757165e-003 9.11347941e-003 -4.23680209e-002
      -2.35555577e-003 -3.36732273e-003 -2.35661212e-002
      -1.38487611e-002 -1.24896783e-002 -8.03727098e-003 1.53182792e-002
      2.60180840e-003 -2.15460826e-003 -2.90926527e-002 3.49279755e-004
      -3.07425149e-002 1.14528285e-002 -1.35025484e-002 1.57702932e-004
      3.37592466e-003 -7.01934053e-003 -4.59486060e-003 -5.10326400e-003
      -1.49298292e-002 -1.61901508e-002 -1.95299927e-002
      -5.13096573e-003 -2.11094450e-002 -1.07556162e-003
      -2.34463885e-002 1.05367415e-002 -1.31320991e-002 -1.68110132e-002
      -2.77771684e-003 2.85241148e-003 1.18202744e-002 1.63488258e-002
      -8.55612196e-003 7.52763182e-004 -3.22094595e-004 -3.00788116e-002
      -6.05340069e-003 3.65622714e-003 4.78316192e-003 -8.72069597e-003
      -2.75131268e-003 -1.90168675e-002 -1.58476178e-002 1.56682059e-002
      -2.97799986e-002 -6.80344179e-003 4.50634223e-004 6.76389178e-003
      1.80472224e-003 1.06536923e-002 -1.42070130e-002 -6.88003702e-003
      7.17616826e-003 -8.21570493e-003 -4.37458232e-003 -6.95266016e-003
      -1.12560941e-002 2.70147100e-002 2.70215957e-003 -3.42748463e-002
      1.62474066e-002 -1.98488254e-002 6.05563167e-003 1.42120961e-002
      1.60091661e-003 -1.86599861e-003 -7.10862176e-003 2.36068759e-003
      -6.66046189e-003 -1.45378700e-002 -3.12961522e-003 2.05831230e-002
      1.42022651e-002 -2.49878317e-002 -2.01503430e-002 8.69184267e-003
      -9.54867899e-003 -6.82709226e-003 2.33053658e-002 -1.09453627e-003
      -3.30971042e-003 -3.80752399e-003 1.26674911e-002 -1.13904895e-002
      -1.15021178e-002 8.04351829e-003 -2.45654443e-003 -2.54066801e-003
      -3.29099083e-003 1.24260345e-002 4.60584089e-003 -1.06447889e-002
      -1.01898042e-002 -2.29336484e-003 -1.60744321e-002
      -2.63070446e-002 3.06079921e-004 -3.02384812e-002 -2.48958915e-003
      2.91567552e-003 -1.72206145e-002 1.26229096e-002 -1.08202053e-002
      4.67972364e-003 -6.71543821e-004 1.96309481e-003 1.19636869e-002
      -8.07397626e-003 -3.07930447e-002 1.16441650e-002 -8.03574547e-003
      4.66104131e-003 -3.42436181e-003 -3.62351793e-003 -1.12983696e-002
      -2.46136002e-002 2.41692923e-003 -7.35789491e-003 -1.71166530e-003
      1.66472688e-003 1.61000881e-002 9.08422191e-003 -4.95951343e-003
      5.03884023e-003 1.55674131e-003 7.82117806e-003 -1.64460298e-002
      -6.77683344e-003 -1.27529176e-002 -5.46217337e-003
      -1.79706421e-002 1.12332189e-002 -3.84210423e-002 -1.48121305e-002
      -8.63407366e-003 -9.96745657e-004 2.56861676e-003 2.00995570e-003
      5.30424342e-003 -6.00375514e-003 1.53879274e-003 1.11876493e-002
      1.06230387e-002 8.10811855e-003 6.11177227e-003 1.21977425e-003
      1.58536378e-002 -6.96518319e-003 1.74744855e-004 -3.50283063e-003
      5.87158464e-003 -1.69414449e-002 5.62819839e-003 9.97973420e-003
      1.25748105e-002 3.11842421e-003 1.70387141e-002 -8.78298841e-003
      -3.34132602e-003 6.45986851e-003 5.54354570e-004 -5.72903827e-003
      -2.93876305e-002 1.75281037e-002 -5.41411480e-003 1.45266159e-002
      -7.78121641e-003 -1.89750444e-003 4.04522102e-003 1.07256100e-002
      1.34721501e-002 1.60470780e-003 -3.74460476e-004 8.21757875e-003
      1.81859266e-002 1.57026220e-002 -9.80613171e-004 1.07300200e-003
      -1.07887508e-002 -2.90534887e-002 7.50265270e-003 -2.18537450e-002
      2.05877945e-002 -6.42633205e-003 -6.77153980e-003 1.05426461e-002
      1.43020749e-002 -6.12107106e-003 -7.17640715e-003 -3.54031697e-002
      2.10942980e-002 8.58715829e-003 6.45771157e-003 -1.83486775e-003
      -3.16714146e-003 1.79800997e-003 1.82310410e-003 -2.81960960e-003
      -1.24398144e-002 7.74028944e-003 4.50189132e-003 -2.82370336e-002
      -1.11795040e-002 7.13773025e-003 -1.18497154e-002 -2.21340563e-002
      -6.33107871e-003 -5.92534849e-003 -9.91254766e-003
      -7.90838618e-003 -3.05456538e-002 1.20162200e-002 -1.26223983e-002
      -1.81876235e-002 1.26929954e-002 -2.26176735e-002 6.06536074e-003
      1.60070392e-003 4.36072750e-003 -5.74913668e-003 6.30460447e-004
      -8.74694902e-003 -9.15748533e-003 1.53121585e-002 5.83169376e-003
      9.98156611e-004 -1.37041993e-002 5.15534217e-003 -4.94237151e-003
      3.61043098e-003 -2.43379938e-004 5.26402704e-003 3.74347437e-003
      -2.45698518e-003 2.32837442e-003 2.28020642e-003 -3.57912690e-003
      5.82882063e-003 5.65543072e-003 9.14879027e-004 -1.98822818e-003
      1.41305267e-003 1.55037572e-003 1.26635795e-002 5.36047108e-003
      -5.75061375e-003 4.72708140e-003 -1.11106457e-002 -1.31396316e-002
      -8.96988437e-003 7.52972532e-003 -4.12489753e-003 7.29102828e-003
      -5.43669704e-003 -1.17002316e-002 5.42406598e-003 5.93565451e-003
      4.80223389e-004 -6.11456903e-003 1.11663353e-003 -5.08251775e-004
      -8.85813311e-003 -6.58017443e-003 -2.94504128e-002 3.57799255e-003
      -6.02464331e-003 -3.48016457e-003 -1.83723383e-002
      -2.37414427e-003 1.14246057e-002 -7.11850636e-003 9.83130303e-004
      1.71551239e-002 -5.15612122e-003 -1.57572757e-002 6.89965673e-004
      1.02021685e-002 -6.85541332e-003 2.27124221e-003 -1.07614705e-002
      2.15675905e-002 -1.07534640e-002 -1.24721264e-003 -3.78894364e-003
      -1.47321969e-002 5.68634132e-003 3.66816018e-003 -6.92172861e-003
      -1.27024017e-003 1.06395464e-002 9.22648062e-004 -2.94433963e-002
      -1.69599131e-002 6.11949386e-003 3.06761637e-003 -2.32098791e-005
      -1.43527305e-002 -1.53013393e-002 -4.92398487e-003
      -1.05108134e-002 -8.76858830e-003 8.36661644e-003 -2.46805660e-002
      1.88274607e-002 -5.87684987e-003 -8.44025519e-003 1.38424532e-002
      2.66532530e-003 -2.21303552e-002 -2.09674449e-003 7.94305652e-003
      1.79819029e-003 -2.88427575e-003 -1.76888844e-003 -2.58517568e-004
      6.30254718e-003 4.16490529e-003 1.24700237e-002 2.44991365e-003
      -9.94439144e-003 4.44452651e-003 2.99894456e-002 -6.51804544e-003
      2.93548708e-003 -1.34048855e-003 2.78238021e-002 1.71411466e-002
      -5.70575288e-003 2.05769818e-002 1.90941412e-002 1.02563435e-002
      -1.95276160e-002 2.60106530e-002 1.07567852e-004 1.46246399e-003
      1.00903464e-002 1.20537020e-002 2.00465675e-002 1.23497434e-002
      6.62581250e-003 1.98694970e-002 1.43628707e-002 2.30763294e-002
      2.33080965e-002 3.59372614e-004 6.05318276e-003 4.25892556e-003
      1.54805779e-002 8.02554190e-003 3.38500878e-003 2.24346155e-003
      7.61493528e-003 9.64931026e-003 6.62970729e-003 -5.45756891e-003
      1.08907111e-002 9.30405874e-003 -8.22935905e-003 -6.63722819e-003
      -3.91025841e-003 -7.59287458e-003 -5.38328371e-004
      -2.12360825e-003 -3.57183802e-004 9.65004042e-003 1.31145241e-002
      2.65407562e-003 8.59060325e-003 -7.53378263e-003 1.55831175e-002
      9.78933647e-003 1.42156798e-002 8.08902085e-003 1.44157847e-002
      1.16160391e-002 1.62194576e-002 1.38566792e-002 -1.69497565e-003
      1.74738504e-002 7.54542928e-003 3.44405533e-003 1.87274273e-002
      1.40739856e-002 1.15175843e-002 -9.99121368e-003 1.73588619e-002
      3.88043030e-004 1.30346417e-002 1.39190909e-002 3.64287454e-003
      1.63710546e-002 5.94242662e-003 1.86680928e-002 -7.13329157e-003
      -1.93716970e-003 1.29291024e-002 1.12010399e-004 -1.24809714e-002
      2.48327642e-003 9.50659066e-003 1.29521843e-002 -5.54946251e-003
      2.01369282e-002 -6.91853289e-004 9.44879744e-003 1.78242140e-002
      2.27459092e-002 6.06461801e-003 -8.35081376e-003 5.72700240e-003
      7.49255205e-003 7.68455537e-003 -3.00886389e-003 1.22158825e-002
      -6.29460299e-003 8.11538193e-003 4.90679825e-003 -1.66187659e-002
      1.06421011e-002 3.36379249e-004 2.73245070e-002 1.54849244e-002
      2.02679355e-002 7.98403565e-003 7.61658745e-003 1.50798094e-002</_>
    <_>
      -1.09774144e-002 -3.02439649e-003 2.15495611e-003 -2.80941930e-003
      1.17831875e-003 -2.79301603e-004 -7.41990097e-003 -4.88622999e-003
      4.61754296e-003 3.42188147e-003 7.22389901e-004 1.69963799e-002
      2.54637515e-003 1.39960758e-002 -5.57646761e-003 8.37287400e-003
      4.07737354e-003 6.89173164e-003 3.17076431e-003 8.57202243e-003
      -4.63614799e-003 7.22976774e-003 -1.59996247e-003 6.69645797e-003
      2.56900419e-003 5.82305947e-003 1.23525374e-002 5.59625169e-003
      -8.79017357e-003 6.79415651e-003 -5.82116842e-003 1.36660843e-003
      -2.78669340e-003 -4.50362684e-004 -3.55133903e-003
      -9.36720427e-003 -4.50152205e-003 -5.44034236e-004
      -3.28828418e-003 -2.94304243e-003 -1.83835439e-002 5.42788580e-003
      -1.22010731e-003 6.04950823e-003 -1.42843947e-002 -1.80782215e-003
      9.80190467e-003 6.19415240e-003 6.19062455e-003 7.22367503e-003
      -3.45845381e-003 -4.79172217e-003 1.30172051e-003 -5.29485708e-003
      1.78913135e-004 -1.06087597e-002 1.25390058e-003 -7.79560907e-003
      -1.01967205e-004 9.32780188e-003 7.94664118e-003 6.38416875e-003
      5.24172932e-003 8.55078176e-003 3.41477105e-004 2.04386376e-003
      2.72524985e-003 2.98710400e-003 -3.45284143e-003 -3.28853074e-003
      1.53877423e-003 -4.55179252e-003 -1.65192434e-003 1.02983769e-002
      -7.80879927e-004 1.11574493e-003 -4.64111660e-003 4.31204867e-003
      -5.48095163e-003 2.40939041e-003 2.11666268e-003 8.50380806e-004
      6.09558774e-003 4.14807582e-003 7.07265968e-003 3.53737595e-003
      -8.52929987e-003 -3.45066027e-003 3.80413048e-003 -4.76842467e-003
      -9.01224557e-003 3.37665179e-003 -6.29830593e-003 -4.20653727e-003
      -7.17119174e-003 3.63751664e-004 8.63367319e-003 3.66233429e-003
      -5.08757122e-003 8.06601346e-003 -3.00659053e-003 -5.20464405e-003
      1.91674731e-003 5.96290082e-003 -1.41989056e-003 -1.64339505e-002
      -1.32796995e-004 7.90635869e-003 -6.00232976e-003 -1.52110178e-002
      -6.66321162e-003 -9.54182539e-003 -3.68183028e-005 3.99360375e-004
      -2.38952995e-003 5.15469350e-003 -2.81240034e-004 1.83027587e-003
      7.44934939e-003 1.75105676e-003 -5.40173787e-004 -4.47382964e-003
      9.51318711e-004 -1.71377268e-002 -1.94640551e-003 4.70589660e-003
      2.22022575e-003 2.64448114e-003 -5.90390817e-004 -3.94335453e-004
      -1.67644694e-002 -1.45374089e-002 1.36550907e-002 -2.24029832e-003
      3.34807439e-003 -6.64780708e-003 3.79705918e-003 -1.32378726e-003
      -1.45482710e-002 1.87368109e-003 2.27393606e-003 -1.76191144e-002
      3.76887317e-003 -1.12203951e-003 -3.05962545e-004 9.08766931e-004
      -1.48882542e-003 4.39128093e-003 1.08260091e-003 1.70872197e-003
      2.19912338e-003 9.48429515e-004 1.48456183e-003 5.23883384e-003
      7.65987206e-003 5.25674841e-004 -9.09953192e-003 9.10181832e-003
      -3.78817902e-003 2.02834746e-003 2.15598359e-003 -9.67381801e-003
      -3.02808685e-003 -5.50147798e-003 -4.06354060e-003
      -4.06258693e-003 2.42390926e-003 -2.13314779e-003 -6.22848747e-003
      -1.12288084e-003 6.04184577e-003 -8.97479709e-003 -1.47180362e-002
      9.77746956e-003 -8.69321171e-003 4.81044967e-003 -2.54484266e-003
      -1.37296203e-003 -1.08028566e-002 6.98853191e-003 -2.00835941e-003
      -8.84329807e-003 -1.02392454e-002 5.48001099e-003 -1.62968773e-003
      1.06577687e-002 7.23412819e-003 1.60633249e-003 -9.23557673e-003
      -3.32087930e-003 -3.46768938e-004 2.06558942e-003 -2.01791897e-003
      1.98375955e-002 5.37453080e-003 -1.17303301e-002 -1.43109607e-002
      1.19029572e-002 1.31129194e-003 2.89344182e-003 -1.19903069e-002
      6.91417791e-003 2.10929589e-004 3.50419688e-003 2.92322622e-003
      1.00799259e-002 -2.16355198e-003 -1.58345175e-003 -3.02338996e-003
      1.79437490e-003 -1.17590809e-002 -1.28268283e-002 8.26892629e-003
      -2.42608227e-003 -1.04203047e-002 -1.26068629e-002 1.55717907e-002
      -5.68358833e-003 5.20412996e-003 4.12764912e-003 -7.27105141e-003
      3.79352621e-003 2.63570761e-003 1.76705178e-002 4.01360728e-003
      -1.42103317e-003 -5.61780762e-003 2.39789556e-003 -1.12524470e-002
      -3.66186234e-003 -2.73881480e-003 6.86234888e-003 8.06169305e-003
      -2.03197524e-002 -8.75997590e-004 -4.08733217e-003
      -2.48460262e-003 -7.38774193e-003 1.34563558e-002 -3.11849657e-002
      2.80087185e-003 6.36084564e-003 4.25882125e-003 -9.06756613e-003
      -2.25633266e-004 2.73297727e-003 -5.38517581e-003 -9.38132033e-003
      -6.63764775e-003 6.81016780e-003 3.35960579e-003 3.52698448e-003
      1.14619150e-003 -1.85829261e-003 -8.50510725e-004 4.62687761e-003
      -1.08611183e-002 4.76793526e-003 9.13363788e-003 -1.07761165e-002
      -4.06872248e-003 3.06474278e-003 -9.95144621e-003 4.80938237e-003
      -1.06091080e-002 -4.82730707e-003 -6.59006182e-004
      -7.95126520e-003 -1.15873630e-003 6.42544357e-003 -2.19468516e-003
      4.45439620e-003 -1.34408688e-002 -1.01997806e-002 -1.54575016e-002
      -2.48525437e-004 -5.65496739e-003 8.48070718e-004 -2.15847231e-003
      -2.41257111e-003 -8.90068617e-003 2.98104226e-003 -8.55584536e-003
      -1.00248284e-003 -7.11404113e-003 -2.17257533e-003
      -3.27057717e-003 1.63672329e-003 -2.93252361e-003 -2.70765554e-003
      1.07383579e-002 3.15798586e-003 1.63373863e-003 -8.33350141e-003
      9.02061118e-004 -2.02696491e-003 -4.12415806e-003 -1.31760696e-002
      7.23484484e-003 -1.21751381e-002 7.59160379e-003 -1.42129268e-002
      8.05757381e-003 -1.03786746e-002 -1.44281937e-002 3.02431639e-003
      -6.10285252e-003 -1.02584148e-002 -1.56595781e-002
      -1.02494918e-002 3.42920818e-003 2.59302615e-005 2.54023471e-003
      3.97277344e-003 -5.17810183e-003 -2.43217731e-003 -7.49657815e-003
      -4.11346927e-003 -4.14597848e-003 6.01928867e-003 5.19355247e-003
      1.67256757e-003 3.96514870e-003 -1.00789417e-003 -2.61918139e-002
      1.21571897e-002 2.36960500e-003 8.62164889e-003 3.06772720e-003
      7.88565911e-003 3.17697093e-004 3.75040667e-003 -2.85337004e-003
      -1.09957196e-002 -5.40122297e-003 7.51663884e-003 -3.08384444e-003
      4.09072498e-003 -3.94356321e-004 -2.56527332e-003 9.01708659e-003
      -3.85079905e-003 -1.31996451e-002 4.69367346e-003 -1.90791453e-003
      -3.90148279e-003 8.65732785e-004 6.97493262e-004 5.81482472e-003
      -6.90354919e-003 8.08271673e-003 1.36320665e-002 -3.80191579e-003
      -1.11927213e-002 3.82069615e-003 9.30838578e-004 -2.30785296e-003
      1.05156591e-002 2.69473786e-003 4.29159729e-004 2.30286596e-003
      9.35404561e-003 8.22426099e-003 -5.87548420e-004 -3.33276950e-003
      -1.83656495e-002 2.22644676e-002 5.81672182e-003 6.99229364e-004
      2.00763764e-003 1.95904286e-003 4.09724051e-003 -1.43226273e-002
      -7.19044241e-004 3.07067018e-003 -5.76209091e-003 -5.26721077e-003
      8.00854992e-003 5.01970388e-003 9.06186830e-003 -2.83933035e-003
      -5.43209771e-003 -1.75244622e-002 7.03911111e-003 3.37327248e-003
      4.25835745e-003 2.71010050e-003 1.14001306e-002 -4.83443961e-003
      1.73031352e-003 -4.58292197e-003 5.27591692e-005 -1.01261234e-004
      7.86563382e-003 -4.40912833e-003 7.48095009e-003 -1.89866759e-002
      5.95899159e-003 -3.35618760e-003 2.04263325e-003 -1.83780827e-002
      -7.41379382e-003 -1.21696182e-002 -2.80077066e-002 2.90618569e-004
      8.31925590e-003 8.29658750e-003 -9.06621644e-005 -4.54608072e-003
      -2.10836763e-003 -1.71180256e-002 -3.94541211e-003
      -2.98011885e-003 -7.34565733e-003 5.08250762e-003 -2.12107934e-002
      -5.34205837e-003 2.05963664e-003 -1.74559501e-003 -7.84064352e-004
      -3.95496609e-003 -4.94143926e-003 -4.03536623e-003
      -1.15625914e-002 -2.46887654e-003 1.86973892e-003 2.31456896e-003
      -9.00329463e-003 -4.54450212e-003 -2.37834454e-003
      -7.79102370e-003 -4.95811226e-003 -8.33215006e-003
      -4.18883041e-002 -2.94392090e-002 -9.14252177e-003
      -7.24122021e-003 4.49539395e-003 -1.78010622e-003 -8.83322582e-003
      -1.09536238e-002 -5.83332172e-003 -8.99769552e-003
      -9.01179761e-003 -1.76057257e-002 8.91132560e-003 -1.50331703e-003
      -2.50338111e-002 -2.05292180e-002 2.83065927e-003 4.82958090e-003
      -2.52935966e-003 3.35355708e-003 8.44442460e-004 -7.65796751e-004
      6.29064441e-003 -1.05143255e-002 -1.57201923e-002 -1.93874035e-002
      -6.50872756e-003 -5.35031548e-003 -1.09201176e-002
      -6.15454093e-003 4.17619105e-003 -4.73598298e-003 1.16235251e-002
      -5.13017224e-003 -1.76785700e-002 -7.54789682e-003
      -1.04740737e-002 3.16236936e-003 -1.00757936e-002 -1.60171255e-003
      -1.12182451e-002 -8.51123186e-004 -1.91738121e-002
      -1.37712397e-002 -3.83095583e-003 -1.79240853e-002 2.59110844e-003
      -2.81959586e-003 -7.18459859e-003 -1.22765144e-002 1.02575775e-002
      -2.36749370e-003 4.58323769e-003 -1.74129326e-002 -1.46787819e-002
      4.62907413e-003 -3.14131379e-002 1.02169358e-003 -6.66522142e-003
      -6.69165421e-003 -9.28394124e-003 -1.79806091e-002 4.26891027e-003
      -3.32064405e-002 -2.00821273e-003 -8.23403616e-003
      -1.55782711e-003 -1.62883606e-002 -2.52931025e-002
      -3.31833423e-003 -1.61993410e-002 -1.14637185e-002 4.63827653e-003
      1.02315675e-002 3.34375864e-003 -3.72366142e-003 1.46612467e-003
      -7.79655203e-003 -7.46698468e-004 -1.46049522e-002
      -3.99610680e-003 -2.50248611e-003 3.49622103e-003 6.64282544e-003
      1.54940982e-003 -8.48021545e-003 -1.16452891e-002 4.32128226e-003
      7.09944451e-003 1.84702431e-003 3.83708952e-003 7.04378588e-003
      -3.02228541e-003 3.68042081e-003 1.02567561e-002 8.46014358e-003
      1.83940139e-002 1.73311506e-003 1.00106257e-003 -1.22633413e-003
      -5.98290004e-003 6.39474660e-004 -6.96931453e-003 7.75857735e-003
      6.84293639e-003 7.86507328e-004 3.93414451e-003 -1.86644436e-003
      1.18219405e-002 5.47431409e-004 -4.03966726e-004 5.01436368e-003
      8.87168013e-003 -9.34221782e-003 -1.99162820e-003 5.25717903e-003
      2.30278703e-003 9.75235738e-003 6.22611586e-003 1.80273631e-003
      -1.39593957e-002 7.51616945e-003 -2.99809477e-003 1.05663911e-002
      -4.91660554e-004 7.69343507e-003 2.24969489e-003 -5.17737411e-004
      7.65276933e-003 9.00982972e-003 -2.29158010e-002 4.09312407e-003
      9.35936533e-003 4.89559351e-003 -7.68825272e-003 2.00290745e-003
      -1.27314124e-002 -1.24122808e-002 2.88973283e-003 1.18269147e-002
      -6.61977939e-003 5.93824603e-004 2.81340815e-003 -1.39128808e-002
      -1.04447044e-002 2.25985236e-003 -7.49795558e-003 -1.18841266e-003
      8.46325606e-003 -4.95914323e-003 2.81069521e-003 -3.93398339e-003
      4.58034687e-003 -7.23246159e-003 -1.39369722e-002 1.12808831e-002
      -8.22260790e-003 2.03416217e-003 3.80969420e-003 2.28470331e-003
      8.72188434e-003 1.80135830e-003 1.03547545e-002 -2.25934456e-003
      -7.05553684e-003 8.81294068e-003 1.01561639e-002 -3.03397863e-003
      2.55748094e-003 5.40933688e-004 6.96237246e-003 8.70933942e-003
      1.68193562e-003 1.07303793e-002 -6.40163431e-003 1.05794147e-002
      1.65010449e-002 6.49566413e-004 -1.04984509e-004 -6.82619866e-003
      -1.46179972e-002 -1.77647104e-003 2.36686552e-003 -5.87057648e-003
      6.66674227e-003 3.31501104e-003 -4.05854499e-003 -8.59210733e-003
      8.14744912e-004 -9.76726506e-003 -5.45963238e-004 3.94010264e-003
      -1.09940916e-002 5.65068563e-003 -8.03217234e-004 -9.97842755e-003
      -4.85045649e-003 1.12668022e-004 8.96053854e-003 -1.03946337e-002
      -1.37750350e-004 -5.18180197e-003 6.09600404e-003 -5.20038465e-003
      -2.03036866e-003 7.27986963e-003 2.88096373e-003 -4.08349186e-003
      7.40359956e-003 -3.34164477e-003 2.14917958e-003 -1.60394609e-002
      -2.05169362e-003 -7.67843053e-003 8.19238950e-004 -9.53451637e-003
      0. -3.87496827e-003 5.70867117e-003 -1.43548297e-002
      4.02990822e-003 1.35023883e-002 4.52945533e-004 6.38442207e-003
      -2.59377179e-003 -6.14408229e-004 1.69835764e-003 -1.25374086e-002
      -1.19217020e-003 8.61324649e-003 3.83238494e-003 -4.15846799e-003
      4.10035253e-003 1.08698858e-002 3.31173721e-003 -1.21412915e-003
      5.32886013e-003 -8.39412026e-003 -4.50596632e-003 -5.48288366e-003
      7.07966159e-004 -3.53310420e-003 -1.86849397e-003 -1.16720162e-002
      -7.26573309e-003 -5.89070655e-003 1.02023140e-003 1.34574026e-002
      -1.06952619e-004 -3.82649829e-003 -1.25051206e-002
      -4.12049145e-003 1.10035362e-002 -3.18677328e-003 -2.97082402e-003
      -2.15792912e-003 -1.14908104e-003 -3.36055458e-003 5.92439342e-003
      -1.96287408e-003 1.92309730e-003 1.05292769e-002 5.45107294e-003
      -1.25847990e-002 -4.15974157e-003 1.71147636e-003 5.11036953e-003
      1.26783596e-002 3.31115024e-003 1.15486002e-002 1.39927324e-002
      -1.28908700e-003 -3.32906470e-003 1.55942235e-002 -4.20374144e-003
      4.80299490e-003 -1.42465672e-003 2.02970998e-003 6.00930350e-003
      2.82158330e-003 1.69775188e-002 6.94870064e-003 7.39081996e-003
      1.47413872e-002 -6.66683540e-004 8.08003917e-003 -5.82924718e-003
      6.71716500e-003 1.72856599e-002 6.86608162e-003 -3.89999826e-004
      1.47671234e-002 4.60246811e-004 3.36843659e-003 1.48535874e-002
      1.83066018e-002 1.82133552e-003 5.35253342e-003 6.32908847e-003
      1.80943485e-003 -8.69824179e-003 1.99240842e-003 5.99475764e-003
      2.35434691e-003 6.83267647e-003 2.87005492e-003 2.07711547e-003
      -7.95601681e-003 2.52398499e-003 1.20012499e-002 7.56819872e-003
      6.35367725e-003 4.00451710e-003 -3.62028019e-004 8.14272463e-003
      2.55922880e-003 -5.25826588e-003 -3.26730101e-003 5.26170526e-003
      6.20972924e-003 2.93051079e-003 1.83510892e-002 7.77964364e-004
      1.40387360e-002 2.71192379e-003 7.89676502e-004 -1.30661624e-003
      8.43609497e-003 8.55588727e-003 5.80903608e-003 9.69171803e-003
      1.08574433e-002 -4.27199434e-003 -5.46227116e-003 1.00517273e-002
      1.12391803e-002 6.29695132e-003 8.06164753e-004 -3.29544040e-004
      1.30555676e-002 8.22484866e-003 -7.38660013e-003 -3.06213112e-003
      1.70461573e-002 -5.15185203e-003 1.32747851e-002 1.06482226e-002
      -8.16575997e-003 8.75073113e-003 -9.01220832e-004 -3.47329653e-004
      -3.82593600e-003 9.39001795e-003 1.32587077e-002 -2.22456758e-003
      -6.01909868e-003 1.00804623e-002 1.52493697e-002 -1.02542071e-002
      5.75081352e-003 5.86319016e-003 9.83867142e-003 4.86255996e-003
      5.33556985e-003 8.79283063e-003 5.24260383e-003 8.66265874e-003</_>
    <_>
      -2.70112623e-002 -1.40168360e-002 -1.80211884e-003
      -1.08669195e-002 -6.52635889e-003 2.39351718e-003 -4.13235417e-003
      -1.30874303e-003 5.46320202e-003 6.85820682e-003 6.48483587e-003
      -9.87587217e-003 8.72427132e-003 -3.47184506e-003 9.74993594e-003
      5.52645419e-003 -4.57623322e-003 9.74377617e-003 1.96234533e-003
      1.25359958e-002 -2.64345738e-003 1.20773334e-002 6.09311415e-003
      5.24404738e-003 1.32196618e-003 -2.58073374e-003 1.33269811e-002
      -2.37044203e-003 -8.19081813e-003 2.24532420e-003 -1.47717055e-002
      -2.04307237e-003 7.16585899e-003 -7.91266095e-003 -1.35763930e-002
      1.32087618e-002 -1.04695316e-002 6.20498229e-003 2.66684010e-003
      9.74871393e-004 9.57322773e-004 2.64717522e-003 7.06024049e-003
      -1.92498293e-004 -2.12726258e-002 -9.98224481e-004
      -1.55908419e-002 7.40187941e-003 5.95335430e-003 2.81432341e-003
      4.90964390e-003 4.21043998e-003 -9.25905723e-003 3.95035325e-003
      3.23929405e-003 5.97586343e-003 5.55250421e-003 -4.05627443e-003
      9.22773033e-003 9.29064956e-003 7.16791430e-004 -1.01681389e-002
      -1.63896405e-003 1.10768899e-003 8.15160573e-003 -1.34730348e-002
      -6.93114474e-003 5.83302788e-003 8.24276265e-003 -7.45344209e-003
      -3.52818752e-004 1.02062440e-002 4.03347565e-003 1.83025550e-003
      -2.63402588e-003 -5.35787130e-003 1.05593028e-003 7.73133128e-004
      -9.64095409e-004 6.23194850e-004 3.11052217e-003 -1.10573759e-002
      2.34739985e-002 8.76129023e-004 3.39205284e-003 1.25224339e-002
      -8.65613669e-003 -4.63425322e-003 3.40447226e-003 4.38917009e-003
      -5.63062355e-003 -6.27066754e-003 -8.20764899e-003
      -9.66580771e-003 -8.57238192e-003 -6.51820144e-003 2.92159896e-003
      5.96590713e-003 4.47241915e-003 7.11604161e-003 2.61740788e-004
      -1.38779567e-003 -1.80276651e-002 1.01345489e-002 -1.23794744e-004
      3.52714257e-003 -1.08642876e-002 1.88898668e-002 5.82972122e-003
      -5.49458386e-003 -5.73109137e-003 2.81618582e-003 -3.80027434e-003
      -1.01427175e-002 -2.24798527e-002 3.66574479e-003 -1.91806792e-003
      3.81567655e-003 4.78177644e-005 -2.82174355e-004 -2.83304881e-002
      -7.08386675e-003 1.31463036e-002 -1.78414874e-003 -1.08397834e-003
      3.65484529e-003 5.91180753e-003 5.61098941e-003 -1.04532717e-002
      2.39952235e-003 -7.20774895e-003 -3.59165802e-004 -1.63768996e-002
      2.63117207e-003 5.49942302e-003 -4.96300682e-003 3.99522157e-003
      7.46905059e-003 -5.12118265e-003 -1.77548314e-003 -1.16692130e-002
      9.41071473e-003 6.53903047e-003 -4.53911256e-003 -1.00610340e-002
      2.19569425e-003 1.11279292e-002 5.10514621e-003 4.30748845e-003
      -7.96659291e-003 -1.90359671e-002 9.67871025e-003 4.63907747e-003
      2.19491962e-002 1.06602022e-002 4.84781060e-003 -4.49245935e-003
      -6.71361294e-003 -2.22942978e-003 1.05662337e-002 5.62853925e-003
      -2.72744242e-003 -2.34002899e-002 1.10126855e-002 -3.85212805e-003
      9.05653462e-004 -4.06808872e-003 -1.63547229e-002 -5.25900163e-003
      1.77116191e-003 8.63450766e-003 -1.11155203e-002 -7.65763642e-003
      9.09565762e-003 -2.60259351e-003 3.15035484e-003 -1.80577650e-003
      8.95822700e-003 -7.89961219e-003 7.81925768e-003 2.96310452e-003
      1.55928184e-003 -3.06492602e-003 -5.62638417e-003 6.40698941e-004
      1.64519716e-002 -8.51267949e-003 -2.22644471e-002 -3.06044407e-002
      -1.71108171e-002 -1.50798466e-002 6.42441679e-003 2.67449510e-003
      2.11923942e-002 1.14603508e-002 7.50634167e-003 7.91123789e-003
      8.26913957e-003 2.92826211e-003 6.17879117e-003 -5.69573557e-003
      -3.86688043e-004 5.43309655e-003 9.38094873e-003 -1.47727877e-002
      8.05508625e-003 1.72866203e-004 2.95581692e-003 -7.73077272e-003
      4.01683990e-003 -3.44889052e-002 -2.00240090e-002 1.06378980e-002
      3.14526935e-003 -1.39712226e-002 2.32550403e-004 8.27310234e-003
      -3.23431706e-003 -9.07433778e-003 -3.24216974e-003
      -7.36406865e-003 -9.11528617e-003 5.18797943e-003 5.09188324e-003
      1.66000854e-002 3.01052537e-003 6.45664800e-003 -5.53639885e-003
      8.80228996e-004 -1.52908619e-002 -1.82546154e-002 9.94840451e-003
      2.52900529e-003 8.73830914e-003 1.29826483e-003 -2.38664970e-002
      -8.26666597e-003 4.29164665e-003 2.37904694e-002 3.32793035e-003
      -2.73332819e-002 -4.58606519e-003 6.97434042e-003 -1.69167463e-002
      6.50646677e-003 -1.16356194e-003 3.90619715e-003 -7.68057490e-003
      1.12819560e-002 1.22568980e-002 1.55017944e-003 1.58831384e-002
      -9.68893990e-003 1.08997179e-002 1.47533161e-003 7.44304108e-003
      7.07289577e-003 3.55306780e-003 7.52069335e-003 -1.91907249e-002
      2.45846430e-004 1.02213454e-002 -8.51344783e-003 -1.15188845e-002
      1.35133378e-002 -3.11782031e-004 1.12752263e-002 -3.85897607e-003
      -6.00439869e-003 -2.91606481e-003 -1.51895098e-002 1.16494612e-003
      1.46573717e-002 1.13760848e-002 5.12016425e-003 -4.50248081e-005
      6.89603039e-004 -2.56171986e-003 -1.72111057e-002 -3.48882447e-003
      -2.12588045e-003 9.35552362e-003 2.69447948e-004 -6.09851163e-003
      -8.67906492e-003 6.73466071e-004 -1.88092957e-003 -4.30512382e-003
      -7.28481635e-003 -2.82249823e-002 -1.02032013e-002 6.48427522e-004
      -4.37877461e-004 -7.42152613e-003 1.39581598e-002 5.37513231e-004
      3.72017617e-003 2.63388199e-003 7.86725152e-003 -2.80149141e-003
      1.38129089e-002 -6.14911201e-004 -2.61712866e-003 -2.73617753e-003
      -1.06815770e-002 -9.68203973e-003 3.57154198e-003 1.39546646e-002
      2.57750344e-003 9.46290977e-003 -4.89231152e-003 -1.53966462e-002
      -7.87623506e-003 -3.67824221e-003 -7.68788392e-004
      -3.92119726e-003 2.99248146e-003 -1.04337372e-002 -3.77145829e-003
      5.62364608e-003 1.93419633e-003 -1.29145123e-002 -1.35252215e-002
      2.98999948e-003 -4.65232087e-003 -4.44794586e-003 8.61875538e-004
      1.43107449e-004 1.94228906e-003 1.41043020e-002 -1.10376365e-002
      1.62807424e-002 9.47048608e-003 -1.58315641e-003 -6.26476621e-003
      3.93699482e-003 -1.10939862e-002 3.36769177e-003 -1.13460608e-002
      2.47749384e-003 7.05590297e-004 -1.57979187e-002 1.30945782e-003
      1.74277872e-002 -2.66275252e-003 9.53333359e-003 -1.16383070e-002
      1.12175951e-002 -4.20238683e-003 -4.81852256e-002 -4.88787238e-003
      -2.05744943e-003 2.57627806e-004 -9.67293326e-003 8.21946003e-003
      -1.44005718e-003 -1.28006814e-002 -8.46439798e-004 6.09254278e-003
      -1.06907375e-002 4.84329555e-003 -5.06467698e-003 -1.17484550e-003
      -9.87388921e-005 7.15900306e-003 -2.53544888e-003 8.89883086e-004
      -9.82772181e-005 3.92801268e-003 2.19862955e-003 4.86616604e-003
      1.03396047e-002 -1.02485595e-002 8.95510986e-003 1.00568756e-002
      -2.76379939e-003 -1.15837101e-002 -6.00408297e-003
      -1.10587885e-003 1.45143019e-002 3.13651777e-004 -7.18501955e-003
      -1.17444582e-002 -4.55634232e-004 -9.40665696e-003 2.65221130e-002
      -1.82859309e-003 1.42503111e-002 3.50656617e-003 -1.54508427e-002
      -9.00866929e-004 -2.34074262e-003 1.71191373e-003 -5.26135415e-003
      -1.08925151e-002 9.57681518e-003 -7.85318110e-003 1.74165284e-003
      -3.37230017e-006 6.47293124e-003 -4.00269870e-003 -6.44800253e-003
      3.26814107e-003 -5.23795560e-003 4.36945772e-003 -9.52603179e-004
      7.15434831e-003 -5.22336969e-003 4.28943383e-003 -2.40679439e-002
      -2.24207770e-002 1.31347198e-002 -7.18940143e-003 -5.60503872e-003
      1.25076517e-003 1.27685294e-002 -2.22455934e-002 1.16212564e-002
      -8.01051687e-003 1.81119051e-003 1.74151256e-003 6.28658198e-003
      -5.54042589e-003 -1.12220272e-002 -2.04173476e-003 3.86041356e-004
      4.06344142e-003 3.52676376e-003 -1.04153203e-002 1.27649205e-002
      1.19254016e-003 6.64694235e-003 2.34549819e-003 1.25053455e-003
      2.03516847e-003 -1.23350164e-002 6.49085455e-003 -5.18676918e-003
      7.18429545e-003 -3.45259672e-003 4.00727615e-003 -1.32249168e-003
      6.91265007e-003 -6.90783025e-004 -2.30293605e-003 1.30267758e-002
      -1.46752619e-003 5.22112288e-003 -2.33177636e-002 1.09128458e-002
      1.14819678e-002 -2.72260536e-003 1.57879107e-002 1.16913030e-002
      -5.19711897e-003 1.07377479e-002 -4.61892551e-003 -1.63985621e-002
      -1.94451828e-002 7.87008612e-004 -5.59875323e-003 -4.75488789e-003
      3.82711366e-003 2.22648378e-003 -3.59579176e-003 -2.58777710e-003
      -8.69477447e-003 1.67495776e-002 5.57207968e-003 -6.40877697e-005
      8.36621039e-003 -2.45464058e-003 -1.07790495e-003 -2.80969846e-003
      -6.93771569e-003 1.04328701e-002 3.70218093e-003 1.47723709e-003
      -1.40471524e-003 5.27390465e-003 1.01769604e-002 -7.83170108e-003
      -6.83744345e-003 8.22043046e-003 1.01116123e-002 8.97511654e-003
      -2.31788936e-003 -3.89562192e-004 -2.16271002e-002
      -4.74875048e-003 2.83881207e-004 -6.57491991e-003 2.83021363e-003
      -1.15841292e-004 9.92484018e-003 7.12328171e-003 4.63720132e-003
      2.23922282e-002 -6.82930509e-003 -4.60020173e-003 -3.43002565e-002
      -1.10182045e-002 1.26774674e-002 -2.72181956e-003 -2.91494373e-003
      5.61318360e-003 -1.03910035e-002 -8.29087384e-003 -6.30983571e-003
      5.20662463e-004 9.77081526e-003 -1.74870039e-003 -4.24215104e-003
      -1.31019400e-002 -1.15038557e-002 -8.22618976e-003
      -4.75627184e-003 1.00347567e-002 -1.27936276e-002 -3.31690093e-003
      7.01186247e-003 -6.97404053e-003 -5.60178701e-003 4.22969082e-004
      1.03227526e-003 -1.05281034e-002 8.75039026e-003 -1.21245822e-002
      2.01603416e-002 -2.18374245e-002 -1.22343497e-002 -1.37736769e-002
      -5.62092289e-003 -1.27776302e-002 7.22819054e-003 -1.18944934e-002
      -6.38243044e-003 -7.83321168e-003 1.86408833e-002 1.47926165e-002
      3.96553187e-005 7.86047429e-003 3.77272465e-003 1.09663066e-002
      -1.46732526e-002 7.41695985e-003 2.08364259e-002 -2.06479728e-002
      4.49918257e-003 -5.61574427e-003 -2.01750943e-003 -1.00271339e-002
      -7.50511931e-003 -4.14248332e-002 -4.94586304e-004
      -2.02802755e-002 -1.49729755e-003 -6.60131453e-003
      -5.18190768e-003 -4.42522252e-003 -1.45103969e-002
      -9.63553134e-003 -5.89931989e-003 -3.12144049e-002
      -1.72491488e-003 -6.42369222e-003 5.39544562e-004 1.51463342e-003
      8.09238385e-003 -4.00412036e-003 -7.17811799e-003 -3.08924913e-002
      -2.07162332e-002 6.01860974e-003 -1.83932832e-003 -2.60449946e-002
      -1.67662576e-002 -1.38557199e-002 -1.14723779e-002
      -7.50558032e-003 5.95250633e-003 -9.53568518e-003 -2.22616009e-002
      -1.87510438e-002 -1.40776895e-002 -2.16457853e-003
      -2.53055301e-002 -1.12623880e-002 9.23030451e-003 -1.07887723e-002
      -8.78485851e-004 9.51925386e-003 -2.82606892e-002 -2.28938218e-002
      4.41829022e-003 -1.31026823e-002 -1.04998862e-002 -2.37063766e-002
      -6.19546510e-003 6.45257533e-003 1.18783778e-002 8.03303439e-004
      -5.45012532e-003 6.83255633e-003 8.35512206e-003 1.22067379e-002
      8.36474169e-003 2.18849324e-004 6.76955376e-003 -3.96330468e-002
      -6.10445335e-004 1.12218484e-002 -4.43569524e-003 4.80365055e-003
      -6.09702896e-003 -4.11208253e-004 -5.78048034e-003 1.43194874e-003
      -1.48346939e-003 -3.63121135e-003 -4.52158693e-003
      -1.44512148e-003 3.60460067e-003 4.27230308e-003 -3.91003967e-004
      3.91329610e-004 -1.03730755e-003 1.43647590e-003 -2.00494961e-003
      -9.00840107e-003 5.48041705e-003 -8.30511842e-003 -5.42419683e-003
      -8.51031113e-003 3.15632438e-003 -8.44632927e-003 -1.58412280e-004
      -1.67454444e-002 4.58089449e-003 2.49484386e-002 8.30688514e-003
      -9.49571095e-003 -5.03487140e-003 -1.98982167e-003
      -7.95933604e-003 -7.08563311e-005 -6.16001152e-003
      -8.24994314e-003 -4.61568916e-003 6.34204014e-004 1.02514932e-002
      -3.90966237e-003 1.02716440e-003 -1.06615352e-003 2.24078703e-003
      -1.25481898e-003 1.11668445e-002 -5.91126923e-003 -1.19942985e-003
      5.89876203e-003 -2.37034564e-003 -2.08941568e-003 1.68549549e-002
      8.05850048e-003 6.16164831e-003 -1.36519307e-002 -7.54091702e-003
      8.58949497e-003 -7.42835971e-003 -4.77391481e-003 -1.30324345e-002
      6.57384191e-003 -3.27599235e-003 6.95519801e-003 5.34446305e-003
      -1.42292224e-003 -2.46493202e-002 -1.75258461e-002 3.12744919e-003
      -1.07164178e-002 7.14959623e-003 7.62137026e-003 -7.23408489e-003
      1.36283860e-002 5.41927200e-003 3.68997105e-003 2.47054821e-004
      1.08823855e-003 6.26983214e-003 -3.03878798e-003 -5.99269383e-003
      2.75784027e-004 9.15381685e-003 2.36238795e-003 1.06391739e-002
      -2.15025875e-003 -4.09358600e-003 2.53827358e-003 -5.64836664e-003
      1.22558596e-002 9.11352597e-003 1.08426092e-002 8.73408094e-003
      9.40272864e-003 2.62716482e-003 -1.41512519e-002 8.73204041e-003
      6.26189448e-003 1.99340028e-003 -5.37920278e-004 -6.48339791e-003
      8.68104957e-003 4.62631542e-005 3.02315992e-003 7.15389848e-003
      8.78678076e-003 1.03007052e-002 2.53838450e-002 1.47822369e-002
      1.08827394e-003 -1.33692651e-004 1.12907514e-002 1.58896130e-002
      4.15680418e-003 8.64187907e-003 1.03757242e-002 1.32798459e-002
      8.37083440e-003 -2.61174981e-003 -9.36185010e-003 -3.02427565e-003
      -1.47862593e-003 -1.80607883e-003 -7.03625381e-003
      -1.07519422e-002 9.85802268e-004 -4.76622052e-004 -2.04888545e-002
      -1.45683587e-002 -3.45408829e-004 8.63255467e-003 7.99808884e-004
      -6.26452500e-003 1.63049181e-003 -1.05891367e-002 -2.35453437e-004
      6.35872968e-003 9.38909594e-003 1.44912964e-002 9.36410949e-003
      5.05749509e-003 3.70964786e-004 1.16656935e-002 4.58570756e-003
      9.50220041e-003 8.67439527e-003 1.66891832e-002 9.91291087e-003
      1.44450543e-002 -5.75107289e-003 2.34225933e-002 -3.22503824e-004
      6.15935912e-003 9.78055317e-003 1.32918153e-002 5.92641346e-003
      8.37267935e-003 1.54858246e-003 2.17290409e-002 1.01289228e-002
      8.87162145e-003 -6.10954128e-003 -1.52516980e-002 6.08237367e-003
      -4.30175383e-003 1.03885625e-002 1.14646284e-002 1.04542141e-006
      -1.01240613e-002 -4.08787467e-003 1.37385940e-002 8.63289833e-003
      -3.40821524e-003 -1.38993468e-002 1.32515468e-003 -4.38761106e-003
      1.55088566e-002 -1.28102582e-002 7.37676304e-003 1.15087570e-003
      3.06940284e-002 -3.37500591e-003 1.15648415e-002 6.84873946e-003
      1.82415582e-002 1.07588312e-002 7.60996540e-004 8.31343699e-003
      -6.86472235e-003 1.52131766e-002</_>
    <_>
      -1.00995991e-002 -3.33021581e-003 -2.12656846e-003
      -4.39198781e-003 5.00914315e-003 2.90678814e-003 2.87802453e-004
      -3.13755451e-003 1.72870569e-002 5.64902369e-003 8.47919204e-004
      -8.04663869e-004 6.50942884e-003 5.38683846e-004 -1.03056356e-002
      4.68315848e-004 -6.96130656e-003 1.09896753e-002 -1.15097908e-003
      9.02667642e-004 -5.99398883e-003 1.45269819e-002 3.16754449e-003
      -3.28693027e-003 -4.70778253e-003 5.25778299e-003 1.85503357e-003
      8.31149635e-004 7.02822654e-005 6.46873238e-003 -1.52401142e-002
      -1.45649714e-002 -9.93315317e-003 -7.11123506e-003 2.51564477e-003
      -6.31974661e-004 4.53986134e-003 2.44714902e-003 -7.11264787e-003
      -6.51450176e-003 2.72041350e-003 -8.38863663e-003 2.41322350e-003
      -2.93559046e-003 -9.16216895e-003 -3.26507841e-003
      -4.24281880e-003 2.99067516e-003 7.21743843e-003 1.25455088e-003
      -3.75524629e-003 4.53455839e-003 -1.19184814e-002 -5.83652966e-003
      -1.88834313e-002 -3.38689005e-003 -7.54734408e-003
      -5.21396846e-003 -5.30397333e-003 1.60907470e-002 6.95906999e-003
      1.18981465e-003 -7.91918300e-003 9.80879739e-003 6.42606476e-003
      -8.81260261e-003 7.40650762e-003 8.94528255e-003 -2.56318995e-003
      -4.39244555e-003 -3.42825544e-003 2.72810040e-003 2.27636236e-004
      -7.20443530e-003 -1.95174338e-003 -9.27069876e-003
      -1.26956133e-002 -1.79747457e-003 2.79847486e-003 -1.33539066e-002
      9.37008392e-003 -1.04401233e-002 1.64618921e-002 -1.22619905e-002
      -3.27268196e-003 -2.89977458e-003 -1.29240938e-003
      -1.54506313e-002 9.72004607e-003 7.89500307e-003 -2.27533784e-002
      -6.36804674e-004 -4.31146845e-003 6.11013267e-003 2.91677378e-003
      -4.17363225e-003 -1.07021432e-003 4.03149147e-003 -3.04701994e-003
      2.06883643e-002 2.23451154e-003 -3.26493825e-003 7.50848372e-003
      2.58986326e-003 -1.95325864e-003 8.20930116e-003 -8.63717124e-003
      7.12173432e-003 -3.05994577e-003 -4.68065077e-003 -9.94990300e-003
      4.09747148e-003 9.83593985e-003 -8.32362100e-003 -2.26040371e-002
      4.16717818e-003 -7.22972304e-003 -1.31373033e-002 -7.05093087e-004
      8.48462689e-004 -6.88439934e-003 3.58750275e-003 1.36362445e-002
      1.97324320e-003 1.29383034e-003 1.35763688e-002 -9.42839077e-004
      5.51765226e-003 -8.70007277e-003 -6.92972727e-003 -1.31155364e-002
      -2.67513469e-003 1.39236376e-002 -4.61414130e-003 3.68424575e-003
      -8.53790995e-003 3.58226779e-003 6.08418509e-003 -9.54259932e-003
      -1.12135308e-002 -5.87486255e-004 -9.21055209e-003
      -4.14430350e-003 -1.01309400e-002 7.73023567e-005 -1.02552418e-002
      -1.36768837e-002 -3.95152485e-003 -6.41684933e-003
      -1.47355453e-003 -4.05461869e-005 3.03668994e-003 -6.57479186e-003
      1.30754884e-003 6.71805721e-003 -4.09440044e-003 -1.48864754e-003
      -7.74312299e-003 6.07795222e-003 9.32481792e-003 -2.16794685e-002
      7.89330434e-003 -7.40748225e-003 1.15330610e-002 -1.57303326e-002
      -7.46615091e-003 -5.77957043e-003 -4.52732109e-003
      -5.66892792e-003 -1.69605715e-003 8.51087854e-004 3.58640356e-003
      -1.11241657e-002 1.04802260e-002 -1.39062572e-002 1.03869932e-002
      1.47145186e-002 -3.35754768e-004 -6.56988285e-003 9.70575865e-003
      -1.33056734e-002 -1.06763944e-003 -5.98393660e-003 9.20666475e-003
      -8.23746435e-004 1.28434384e-002 -2.07431596e-002 -1.04388203e-002
      -2.02809111e-003 -2.49414402e-003 4.37718770e-003 1.03048992e-003
      -2.53281910e-002 9.93994530e-003 -1.05296178e-002 -7.50824437e-003
      5.22336224e-004 7.48626422e-003 3.38081061e-003 -4.03543236e-003
      -1.09676216e-002 -4.83372249e-003 -3.69287736e-004
      -1.00661404e-002 5.56677766e-003 4.41012951e-003 -9.78651806e-004
      1.25130182e-002 -3.41166952e-003 -4.66621062e-003 -1.34073850e-002
      -1.91124268e-002 -2.42020423e-003 2.99530872e-003 3.98772396e-003
      1.75315724e-003 4.13144007e-003 -1.29060661e-002 4.61701257e-003
      4.66902461e-003 4.43516561e-004 -3.01027991e-004 -1.32141672e-002
      2.61726766e-003 -4.79609799e-003 7.57851452e-003 -2.02849461e-003
      -6.43046014e-003 -1.56972911e-002 -3.07000196e-003
      -8.28372594e-003 1.28752552e-003 9.59125441e-003 -1.05298879e-002
      4.68812621e-004 -2.84232781e-003 -9.78647452e-003 -6.89438963e-003
      8.22420116e-005 -1.15950787e-002 -7.87774660e-003 4.85748192e-003
      -6.61864644e-003 1.08493846e-002 4.91610845e-004 -8.11852980e-003
      2.26492574e-003 -9.17051360e-003 6.80546602e-003 -9.26388719e-004
      4.81978944e-003 1.00427549e-002 -1.98247982e-003 -6.83527021e-003
      5.58259292e-003 3.55778402e-003 -6.34308113e-003 -4.50168271e-003
      -5.15607651e-004 -7.86915328e-003 -1.00668147e-002 1.03946298e-003
      -3.88369802e-003 -1.37908361e-003 5.28637960e-004 -1.04842111e-002
      1.14388382e-002 -6.11909991e-003 4.31945547e-003 1.36251445e-004
      -6.08019764e-003 -1.07492078e-002 -9.98908374e-003
      -8.39838467e-004 -1.22167310e-002 -9.62042366e-004
      -1.30140368e-004 -6.58239424e-003 -2.53595808e-003
      -4.88560507e-003 1.52034016e-004 -1.61566678e-002 -3.53854615e-004
      -7.63619458e-003 -4.73036757e-003 -1.27649195e-002
      -8.02385807e-003 -7.39854900e-003 -1.31629063e-002
      -6.18909998e-003 4.32496285e-003 -1.07348962e-002 -4.17151256e-003
      -1.38637132e-003 -8.90317000e-003 9.50508006e-003 -8.68577231e-003
      2.71811732e-003 8.55051354e-003 -2.54458236e-003 9.02494043e-003
      6.88260980e-003 -3.78769869e-003 -2.16545314e-002 -2.36661546e-003
      -3.91400792e-003 -3.56066716e-003 3.10417614e-003 -9.83228441e-003
      9.67037864e-003 6.75179204e-003 7.32290093e-003 -1.42835965e-003
      -4.23773751e-003 -6.83526183e-003 -5.40043972e-003
      -2.01075035e-003 -8.71792715e-003 -9.77897551e-003
      -4.32450790e-003 -1.04376525e-002 -7.20836129e-003
      -2.41447017e-002 -5.70107624e-003 -1.62767638e-002
      -1.04744406e-003 -6.77029835e-003 -2.88979500e-003 7.42458133e-003
      5.62734250e-003 -1.71684031e-003 -1.41597530e-002 4.66373097e-003
      -7.82880466e-003 -1.03258826e-002 8.03784188e-003 -1.05845677e-002
      1.11071812e-002 -2.35797302e-003 3.14299855e-003 1.04468502e-002
      -1.03049176e-002 6.49811141e-003 6.64336886e-003 -6.26773015e-003
      1.42340390e-002 1.50806131e-003 -4.26232722e-003 7.91597925e-003
      -1.67170726e-002 9.41574108e-003 -1.93651556e-003 -7.05111818e-003
      -4.31443797e-003 -1.13575929e-003 -6.08283840e-003
      -3.80694619e-005 3.66061088e-003 1.65748701e-003 -9.77722649e-003
      3.07921832e-003 -1.18000247e-002 -1.78672618e-003 6.00699685e-004
      7.54287350e-004 6.29465654e-003 9.45260655e-003 1.56613404e-003
      -1.29170883e-002 -2.22616270e-003 1.29997032e-004 8.04801285e-003
      3.80844227e-003 -1.33450911e-003 2.17831647e-003 -3.90475336e-003
      2.89317523e-003 5.86825609e-003 -3.40357330e-003 -9.55801050e-004
      -6.70644874e-003 3.39768874e-003 -1.05348025e-002 -8.11787322e-003
      7.55326217e-003 1.38024688e-002 -3.14620184e-003 1.34463729e-002
      -9.45757201e-004 3.06640239e-003 6.46294234e-003 6.43915191e-005
      1.02422396e-002 -7.17313495e-003 1.28933450e-003 -2.71472707e-003
      -1.32550923e-002 3.82097729e-004 -2.71294871e-003 -2.41667731e-003
      -5.13832970e-003 -3.99481924e-003 -7.47726939e-004 4.46339510e-003
      -1.70117931e-003 -8.06743104e-004 -2.12129578e-003
      -4.98582551e-004 -2.00228044e-003 -7.37009628e-004
      -1.05916131e-002 -7.09292432e-003 -6.32594479e-003
      -7.34415371e-003 5.07916650e-003 -7.39196828e-003 1.15426611e-002
      -2.07434385e-003 -4.76118689e-003 5.67528792e-003 1.02272327e-003
      -4.48277686e-003 -3.53698954e-002 5.01272734e-003 -3.21298954e-003
      -3.41561739e-004 1.05778072e-002 4.60259849e-003 2.69186264e-003
      6.04856573e-003 -9.46061220e-003 -1.11312512e-002 -2.03697290e-003
      -7.90890586e-003 5.91255492e-003 -1.26592908e-002 5.92543185e-003
      -1.54379313e-003 2.95128411e-004 -6.92326482e-003 -1.01535926e-002
      -1.01295859e-002 -5.09628840e-003 -5.89299109e-003
      -1.76638607e-002 1.33325933e-002 -3.16877646e-004 -1.00872638e-002
      -7.31807156e-003 3.23759718e-003 -2.62690941e-003 -2.10752804e-003
      3.43192136e-003 -5.85215958e-003 -5.11377177e-004 2.02916260e-003
      9.41974111e-003 -8.69501010e-003 -1.86445452e-002 1.59388334e-002
      -8.86372849e-003 -1.24530951e-002 -1.19107831e-002
      -9.27315280e-003 3.76687828e-003 -2.61172727e-002 -1.05830505e-002
      -9.10449494e-003 -7.77894771e-003 -1.56410206e-002 9.18831863e-003
      -1.04053896e-002 -1.65415904e-003 -6.58913224e-004
      -8.43103882e-003 -1.22966785e-002 -5.17954910e-003 2.99006421e-003
      4.83204436e-004 -7.31382519e-004 -4.84853590e-005 -7.31098000e-003
      -8.17587785e-003 -1.28868618e-003 -1.57822818e-002 5.83043555e-003
      -5.76196844e-003 -3.86241372e-005 -2.98267417e-003
      -8.50310177e-003 5.01816021e-003 -6.16557524e-003 1.27359887e-003
      -3.17240832e-003 6.26322441e-003 -5.08450810e-003 -1.35668991e-002
      -9.73113813e-003 1.04081463e-002 -1.12322662e-002 4.80827456e-003
      -1.41437491e-003 -1.25959469e-002 1.18264940e-003 -5.40015288e-004
      1.20510058e-002 -1.44444061e-002 2.02032435e-003 -5.53540420e-003
      -7.16739241e-003 -9.32840630e-004 -4.83314879e-003
      -1.39045827e-002 -2.83769984e-003 -6.43015886e-003
      -1.53888566e-002 2.80271610e-003 8.32807273e-003 -1.58929378e-002
      3.09178117e-003 1.19066369e-002 2.47902866e-003 -7.96243642e-003
      -4.37328912e-004 1.65450352e-003 2.31923861e-003 7.56660569e-003
      5.26799355e-003 3.59225739e-003 1.87081508e-002 3.28729749e-002
      -1.00611644e-002 -2.61104619e-003 -1.57566257e-002
      -6.01334032e-003 -4.00390988e-003 -5.40468795e-003 1.43261962e-002
      -6.78746263e-003 1.17714787e-002 -6.26595365e-003 5.85192768e-003
      1.36347080e-003 4.77122841e-003 1.59712567e-003 -1.49425468e-003
      8.45605042e-003 -8.80361069e-004 5.35298372e-003 -2.40943744e-003
      1.17447565e-003 -2.99970387e-003 7.06773857e-003 -1.21318409e-002
      2.65352405e-003 -6.83905929e-003 1.26156549e-003 -5.52796875e-004
      1.16592122e-003 2.00402867e-002 4.28720796e-003 1.77676833e-004
      1.97188091e-002 -1.25217438e-002 -9.56649520e-003 2.32856628e-002
      -1.25827817e-002 -2.31216196e-003 -1.15770882e-003
      -8.49691220e-003 1.53854070e-003 -2.91264779e-003 -1.05249081e-002
      8.51630792e-003 6.38525980e-003 -1.80914300e-003 -2.24906597e-002
      -1.33049311e-002 3.00441892e-003 -7.64643354e-003 -1.71913148e-003
      1.60391256e-002 -4.36796388e-003 7.91228667e-004 9.19228233e-003
      2.92020035e-003 -1.03225606e-002 -4.70713014e-003 4.34201490e-003
      -9.93362162e-004 -3.90995201e-003 -3.94563982e-003
      -5.17423963e-003 2.76036048e-003 5.95991407e-003 2.10601408e-002
      -4.87148669e-003 -6.28750946e-004 8.88762809e-003 5.68170426e-003
      8.77649803e-003 -3.03991628e-003 -1.03075849e-002 -6.01903303e-003
      5.90702286e-003 -4.55717510e-003 -1.76528993e-003 -7.26716898e-005
      -6.65908959e-003 -1.53207211e-002 -6.93588797e-003 6.05260674e-003
      -3.64458770e-003 -4.26536007e-003 3.69407726e-003 -5.10110846e-003
      -1.49364946e-002 4.43524114e-005 5.92225650e-003 8.43332149e-003
      -5.38064912e-003 -2.12155636e-002 -9.84515529e-003
      -1.08185527e-003 -3.10658186e-004 -1.63897239e-002
      -1.06317056e-002 1.45125315e-002 -5.59103582e-003 3.94517463e-003
      -1.01867691e-003 -6.86615414e-004 3.44970450e-003 -1.68845672e-002
      -4.71733743e-003 -1.33917229e-002 -7.90248159e-003
      -1.93892587e-002 -5.25593292e-003 -7.15601118e-003 4.20333678e-003
      -7.98575114e-003 -4.00095200e-003 -1.04138469e-002
      -2.03275103e-002 -2.38250419e-002 -1.53024653e-002
      -1.57028076e-003 -1.50769763e-002 0. -1.19917830e-002
      -9.66403447e-003 -1.89829767e-002 -8.51134304e-003 3.09344870e-003
      -7.49952905e-003 -1.64432544e-002 -6.40595006e-003 4.53102915e-003
      -6.00191019e-003 -9.11004283e-003 -1.21541731e-002
      -1.21223414e-003 1.40617858e-003 -7.60535616e-003 -2.76958756e-003
      -1.39794154e-002 -7.69322971e-003 -1.40386708e-002 7.91501661e-004
      -1.47135090e-002 -6.85263984e-003 -2.58690282e-003
      -8.85165669e-003 -7.20687117e-003 -5.82967699e-003
      -2.19565313e-002 -4.84308973e-003 -5.98092284e-003
      -1.57008953e-002 9.91129410e-003 1.02128945e-002 -1.17130652e-002
      -8.65962077e-003 6.37798104e-003 3.31450719e-004 -1.57990865e-002
      -1.01646036e-002 -1.01717822e-002 -3.37345409e-003 6.56006299e-003
      -2.08074134e-002 3.57240508e-003 -6.78668497e-003 8.94611236e-003
      -9.22309235e-004 -1.96614377e-002 -1.30668245e-002
      -1.30153699e-002 2.80217011e-003 2.09153441e-004 1.96836870e-002
