<?xml version="1.0"?>
<opencv_storage>
<my_svm type_id="opencv-ml-svm">
  <svm_type>C_SVC</svm_type>
  <kernel><type>LINEAR</type></kernel>
  <C>1.</C>
  <term_criteria><epsilon>1.0000000133514320e-010</epsilon>
    <iterations>1000000</iterations></term_criteria>
  <var_all>400</var_all>
  <var_count>400</var_count>
  <class_count>8</class_count>
  <class_labels type_id="opencv-matrix">
    <rows>1</rows>
    <cols>8</cols>
    <dt>i</dt>
    <data>
      80 165 171 195 209 210 245 249</data></class_labels>
  <sv_total>28</sv_total>
  <support_vectors>
    <_>
      -1.50640430e-002 -1.44172413e-002 6.60695974e-003 -9.63705778e-003
      -2.25281576e-003 -9.82946157e-003 -8.31114035e-003 7.11654639e-003
      3.14388843e-003 1.04576964e-002 -8.30904488e-003 7.00002012e-004
      1.62639674e-002 3.33122015e-002 8.75923038e-003 -2.13163556e-003
      -9.23739921e-004 1.19474903e-002 -1.75320134e-002 5.47865452e-003
      -1.11766560e-002 -1.30863045e-003 -2.55432981e-003
      -3.01370379e-002 2.12075561e-002 -1.22879436e-002 -1.34720281e-003
      -7.67107168e-003 8.83969665e-003 -1.16652553e-003 -8.16824008e-003
      7.70511851e-003 -9.67307948e-003 7.42676575e-003 1.25419488e-002
      1.10258460e-002 -3.11968639e-003 6.32974831e-003 9.69466195e-003
      -1.19646662e-003 -3.74344992e-003 -3.66251497e-003 4.47485456e-003
      1.82312932e-002 -1.35756880e-002 -2.21226201e-003 1.18423644e-002
      4.65632929e-003 -3.88552481e-003 1.43339736e-002 -4.67524491e-003
      -8.91911145e-003 1.58319008e-002 -4.13796725e-003 1.20117357e-002
      -6.51091849e-003 -5.92286745e-003 -2.02115122e-002
      -1.20267039e-003 5.83548564e-003 2.56292475e-003 -7.81301409e-003
      6.55353907e-003 -1.72161330e-002 -7.41280755e-003 4.26142523e-003
      -9.85716283e-003 1.32233463e-002 2.66725570e-003 -2.53260601e-003
      -3.06007005e-002 -5.52709168e-003 6.75810594e-003 9.05679190e-004
      -2.72262860e-002 3.40639870e-003 1.04884924e-002 8.82565323e-003
      -1.09249249e-003 3.64156040e-005 3.94967356e-005 7.89796468e-003
      9.44929011e-003 2.95956922e-003 8.69474281e-003 2.45267525e-004
      -3.81655805e-003 2.12785206e-003 3.17633920e-003 -3.68030975e-004
      -1.81132986e-003 6.04357896e-003 9.29321256e-003 9.89205902e-004
      1.19789857e-002 -1.37509722e-002 6.11926848e-003 -7.00213341e-003
      -7.57084088e-003 -2.62865108e-002 -6.15912490e-003 3.26807564e-003
      5.03427535e-003 6.12306409e-004 -4.17504692e-003 4.78035817e-003
      -1.52159873e-002 -7.15790316e-003 -5.60090365e-003 1.43813631e-002
      -3.57967289e-003 -4.78239404e-003 -4.00721142e-003
      -1.32779274e-002 -1.72959473e-002 -5.43807959e-003
      -9.49091453e-004 -8.39463901e-003 -1.00839150e-003 1.96969579e-003
      -1.57169662e-002 8.72654002e-003 -1.07042305e-002 1.96464290e-003
      -1.18310098e-002 1.75831337e-002 -5.01162326e-003 2.07579397e-002
      5.62400743e-003 -1.09101748e-002 1.28393251e-004 5.30725811e-003
      5.20179980e-003 1.20244576e-002 9.55735613e-003 -2.74960808e-002
      9.11699887e-003 2.00664662e-002 3.70664266e-003 -9.44294094e-004
      1.89336352e-002 2.41790805e-002 1.00764083e-002 -4.82594687e-003
      7.33133580e-004 9.50000156e-003 -1.78371631e-002 8.27299489e-004
      -7.41678430e-003 -3.34783178e-003 -1.99553203e-002
      -1.31607673e-003 9.47691686e-003 7.74137769e-003 1.96097028e-002
      -1.79896178e-003 -4.78426809e-004 -1.11031532e-002
      -9.15297586e-003 3.41736502e-003 -4.93203476e-003 -6.68748608e-003
      8.33622552e-003 7.47119775e-003 4.13742987e-003 -7.58997072e-003
      1.20978476e-002 -5.10611758e-003 7.49372225e-003 -3.16273514e-003
      -1.03648668e-002 -6.99136220e-003 -8.29937868e-003 4.20282711e-004
      -1.44359423e-002 -2.45616189e-003 4.20779688e-003 9.46831703e-003
      -1.57192062e-005 1.75837651e-002 9.82906669e-004 -5.90697816e-003
      -9.32353828e-003 1.93382874e-002 8.87344067e-004 9.86259803e-003
      -2.37610447e-003 -8.86024628e-003 -7.61080533e-003 6.63525789e-005
      -8.61648098e-003 -7.51883723e-003 -1.74814672e-003 7.67207704e-003
      7.32927001e-004 9.08620190e-003 -2.14972347e-002 2.97426106e-003
      -1.84154920e-002 3.73433204e-003 4.62977821e-003 -1.92592125e-002
      8.07234272e-003 9.66001954e-003 2.36380473e-003 -1.42382877e-002
      -2.50564031e-002 -1.83192838e-004 -2.14692615e-002 7.73286214e-003
      -2.32272334e-002 -5.25935693e-003 -1.52282408e-002
      -1.46380309e-002 1.50384568e-002 -6.78685540e-003 1.14794960e-003
      -9.32205282e-003 3.41400015e-003 -1.14952112e-002 1.43914735e-002
      -6.03628345e-004 -2.56194593e-003 -1.50001645e-002
      -1.22806551e-002 -6.70778286e-003 1.41761004e-004 -1.19931139e-002
      1.28311319e-002 -7.82958232e-003 -1.34032394e-003 -1.69268530e-002
      -1.21905431e-002 3.74888245e-004 -9.31922812e-003 6.28049253e-003
      -1.37500428e-002 2.03027599e-003 -1.76908495e-003 -1.85330175e-002
      -4.58241813e-003 8.95964727e-003 -1.04475506e-002 1.59164891e-002
      -6.29789894e-004 1.17458152e-002 -2.63501164e-002 -6.77558547e-003
      -1.84152499e-002 -2.50717588e-002 2.75292899e-003 2.41188495e-003
      2.33030971e-003 -3.28476960e-003 5.80906821e-003 2.18215398e-002
      2.18796777e-003 -3.96004459e-003 -1.24005135e-002 6.80533587e-004
      4.89028217e-003 -2.05431040e-002 -1.97631903e-002 -1.66822616e-002
      2.87723891e-003 3.72500857e-003 -8.37878045e-003 9.54368524e-003
      3.38383159e-003 6.70553884e-004 1.12547958e-002 -6.80044573e-003
      -3.38891195e-003 1.40511328e-002 -5.15251840e-003 2.16835514e-002
      -7.81046273e-003 1.71782319e-002 2.35534608e-002 -8.53754394e-003
      -3.48156877e-003 2.40158336e-003 -7.31027871e-003 -7.96279591e-003
      1.25066712e-002 -1.00825652e-002 1.87238131e-003 1.40627241e-002
      -4.19626012e-003 -2.24035955e-003 9.07607749e-003 8.18407815e-003
      1.07145286e-003 -5.54544944e-003 -1.12899207e-002 -1.89172651e-003
      -9.86733567e-003 -1.06660649e-002 -4.77053551e-003
      -3.34619172e-003 6.81398250e-003 -7.92523101e-003 1.04668215e-002
      -1.41197452e-002 -6.42679213e-003 -5.93751110e-003 1.61277642e-003
      -5.78132225e-003 -2.40878691e-003 2.84174960e-002 1.31805055e-002
      9.13799461e-003 1.53757464e-002 -4.26818617e-003 1.86685869e-003
      -2.44597606e-002 -7.54846958e-004 -2.82702576e-002
      -2.46042921e-003 -1.16619375e-002 -5.85626531e-003 9.37951449e-003
      5.52645093e-003 -2.29193084e-003 -2.20164016e-004 8.23524594e-003
      2.54944973e-002 -3.33561935e-003 -7.60744093e-003 -1.12780521e-003
      -4.08123946e-004 -1.34429522e-003 -6.65842136e-003 1.78230577e-003
      4.50337166e-003 -2.01604329e-002 -1.81573145e-002 6.53483626e-003
      5.73718920e-003 -1.02331545e-002 -1.77298393e-002 2.09769374e-003
      1.46533856e-002 1.59915525e-003 -2.11291108e-003 4.70709568e-003
      1.21165263e-002 4.16588475e-004 6.65538199e-003 2.96924263e-003
      1.18455589e-002 6.26360439e-003 -9.67998896e-003 -7.67963100e-003
      -9.05280095e-003 7.14799913e-004 2.82026245e-003 9.64585785e-003
      1.23765487e-002 -1.69757623e-002 5.31662081e-004 -1.42471660e-002
      1.30508170e-002 -1.46375671e-002 -6.15802128e-003 -7.87912123e-003
      -1.08983219e-002 -1.37374550e-003 -5.79635659e-003
      -1.03490567e-002 2.71575944e-003 2.33704830e-003 -3.26895178e-003
      1.61814759e-003 -5.33859618e-003 5.67145925e-003 1.19779278e-002
      2.17821202e-004 -1.17737101e-002 -6.97971275e-003 -1.77978398e-003
      3.42024490e-003 -1.93452826e-004 -2.43620831e-003 -1.21187803e-003
      9.82099795e-004 -6.70679496e-004 1.03049548e-002 4.95368475e-003
      -3.13310768e-003 -1.58114377e-002 5.72713884e-003 2.54050037e-003
      1.30601181e-002 8.55280180e-003 5.24793379e-003 5.47824940e-003
      -1.00042801e-002 -8.58389493e-003 -5.12812613e-003</_>
    <_>
      -1.22500490e-002 -2.13214830e-002 1.40482476e-002 1.18362391e-002
      -1.53719885e-002 -1.00515010e-002 1.68961734e-002 -2.89113484e-002
      2.57514156e-002 2.37115566e-002 -4.99002449e-003 1.82049870e-002
      9.81846917e-003 1.35262739e-002 1.88339092e-002 3.20665576e-002
      -2.79944688e-002 2.48289313e-002 -2.56490279e-002 -2.86536757e-002
      2.44050864e-002 1.22444304e-002 -1.03766536e-002 -2.66375579e-002
      1.42756077e-002 -1.52257392e-002 2.33245548e-002 -1.67609379e-002
      4.01868625e-003 -4.55428177e-004 -1.81688052e-002 2.91431434e-002
      1.94358937e-002 -7.32129142e-002 9.94328875e-003 2.78703291e-002
      2.88098678e-002 7.32672168e-003 1.00284833e-002 2.56449245e-002
      1.10782832e-002 2.04765238e-002 1.95240527e-002 1.14031713e-002
      -8.04837048e-003 5.14151389e-003 2.50766836e-002 -5.08883707e-002
      3.08382362e-002 -2.02170503e-003 -1.36277014e-002 4.95007087e-004
      1.85811501e-002 6.63881190e-003 3.70350666e-002 2.76796962e-003
      1.48225510e-002 -1.77166462e-002 2.02988405e-002 -3.56779434e-003
      1.76649680e-003 1.89887360e-002 1.53270587e-002 -3.08392174e-003
      2.91331969e-002 1.31647652e-002 -1.48235904e-002 4.20558034e-003
      -5.43042552e-003 2.63646478e-003 -4.19224054e-003 -4.31987830e-003
      1.40146045e-002 -1.70865984e-004 1.26362266e-003 -1.84228737e-002
      1.06425006e-002 5.19742840e-004 -2.34914082e-003 7.78717129e-003
      2.91151963e-002 -3.80343478e-003 2.26042513e-003 3.20227887e-003
      2.21121572e-002 2.23621586e-003 1.51851308e-002 4.14915122e-002
      -2.63575129e-002 2.16971803e-002 3.50505370e-003 1.01337861e-002
      2.33142190e-002 4.57395241e-003 1.19329933e-002 -1.06736086e-002
      3.72282416e-003 1.80868432e-002 2.35856269e-002 -2.25837361e-002
      -1.49382921e-002 -2.87311245e-003 -2.46849395e-002 1.17905317e-002
      -3.29825538e-003 2.78390874e-003 -2.05944106e-002 -2.02319957e-002
      -1.64918900e-002 -2.84808911e-002 -6.91226544e-003 6.49178680e-003
      -1.98961440e-002 2.24699732e-002 1.09211849e-002 1.32787530e-003
      3.13466229e-002 -8.93717632e-003 1.56828538e-002 -4.98541514e-004
      2.78851222e-002 -9.44779906e-003 -1.41429584e-002 -3.95799289e-003
      -1.27145387e-002 1.93610229e-002 -2.04342250e-002 4.80520912e-002
      -5.04643284e-003 5.62481675e-003 -5.95989171e-003 1.10748690e-002
      -1.79471802e-002 2.50343746e-003 2.12439429e-003 6.88851252e-003
      9.72425751e-003 4.75314148e-002 9.78534110e-003 6.51798036e-004
      2.82643549e-003 -3.57885589e-003 -3.60766239e-002 3.78606934e-003
      -1.01659521e-002 1.98595338e-002 -9.35442466e-003 2.52838689e-003
      6.60507753e-003 -3.45572680e-002 -8.02757964e-003 -1.12266149e-002
      -4.69028577e-002 1.51805999e-002 1.91270579e-002 -2.82760207e-002
      -6.78164186e-003 3.08734993e-003 -2.11662035e-002 8.15249141e-003
      -3.57691720e-002 -4.44150120e-002 7.97755737e-003 -2.67838500e-002
      -1.69190336e-002 -1.65504664e-002 7.38543971e-003 -3.29587795e-003
      -7.55449198e-003 -1.76867252e-004 1.38596958e-002 -6.49097040e-002
      -2.05843337e-003 7.83082750e-003 -1.48444939e-002 2.83870716e-002
      1.06798364e-002 4.17623436e-003 -6.87055709e-003 5.99450059e-003
      -6.90273184e-004 1.37383938e-002 -8.93405639e-003 2.34880042e-003
      -1.12033347e-002 -1.25803454e-002 1.02293468e-003 -2.44898605e-004
      -9.25289188e-003 -1.92156713e-002 -1.91559357e-005
      -2.26260396e-003 3.96732660e-003 -3.80555401e-003 -4.27570194e-003
      9.29261744e-003 -1.80967676e-003 6.89480966e-003 8.13302118e-003
      2.62293648e-002 -1.39868679e-002 -1.82348080e-002 6.63513131e-003
      2.83502843e-002 -5.84580097e-003 2.00893003e-002 -3.28776762e-002
      -6.68341108e-003 -2.40979139e-002 6.70471275e-003 -2.16601649e-004
      4.23380313e-003 4.65604942e-003 -1.36358971e-002 -1.59793068e-002
      -8.30265135e-003 7.31524022e-004 -2.14562453e-002 -7.36913760e-004
      3.50320935e-002 1.60873365e-002 -6.33158861e-003 -1.10839475e-002
      -6.54551387e-003 1.66372943e-003 -1.23282811e-002 -1.06247170e-002
      -1.82064231e-002 1.05865924e-002 2.60192771e-002 1.29474644e-002
      4.62567527e-003 -1.00417547e-002 1.87191404e-002 -1.33923534e-002
      -2.14221384e-002 1.16102062e-002 7.66757457e-003 -8.36838968e-003
      -2.97166817e-002 4.21460997e-003 -5.22060972e-003 2.29467219e-003
      1.90473832e-002 3.95383574e-002 6.23768754e-003 -1.35397501e-002
      2.70741084e-003 3.31501546e-003 -1.19805224e-002 1.50657585e-003
      1.16224622e-003 1.73980724e-002 -1.41462917e-003 -2.68576574e-002
      1.13195423e-002 1.08662015e-002 -4.92270291e-003 -1.87677070e-002
      7.49535160e-003 -4.92160616e-004 1.24220364e-002 -3.32799219e-002
      -3.90269309e-002 3.69390100e-003 1.39259798e-002 4.03796462e-003
      2.63055833e-003 -6.06186688e-003 -1.52021963e-002 3.57916094e-002
      -1.54519798e-002 -2.42936313e-002 -1.93631917e-003 1.48319220e-003
      2.82963249e-003 -1.93847455e-002 -9.87738930e-003 -9.91387386e-003
      1.19097193e-003 -1.15919393e-002 -1.12740323e-003 -2.86667775e-002
      -3.06151956e-002 9.06058494e-003 -1.03500939e-003 -1.13465982e-002
      -1.03905164e-002 -1.21195242e-003 8.52442440e-003 5.13977930e-003
      -7.73810782e-003 1.22217443e-002 8.10025632e-003 -3.50088952e-003
      2.78829467e-002 1.23037528e-002 2.95027415e-003 6.06643036e-003
      1.09314276e-002 1.61305144e-002 -2.30393056e-002 1.41178882e-002
      -2.08229981e-002 9.04133450e-003 -3.43589252e-003 -8.06745701e-003
      1.00159943e-002 9.37664974e-003 6.71410840e-003 7.50082909e-005
      -1.23959396e-003 8.59449245e-003 -1.63309425e-002 1.15760379e-002
      -3.45318131e-002 1.47388931e-002 -2.50274595e-003 1.32785412e-002
      -1.37472218e-002 -9.84685030e-003 1.52823068e-002 2.03104150e-002
      -2.27844692e-003 5.77553082e-003 8.73559341e-003 4.24090773e-002
      -1.36669548e-002 5.39010065e-003 1.85770188e-002 6.42006379e-003
      1.00360336e-002 -2.47458201e-002 -2.39346903e-002 -1.36280926e-002
      -2.67294963e-004 -5.35381585e-003 -3.53384227e-003 2.54307147e-002
      1.21070808e-002 6.50837924e-003 -1.39461095e-002 -5.59833832e-004
      1.76842492e-002 -1.60409585e-002 5.17712114e-003 1.98638495e-002
      8.10956489e-003 3.83748785e-002 -9.19935293e-003 1.75276045e-002
      6.16572704e-003 -1.45549672e-002 -1.43509507e-002 3.08421510e-003
      7.56641792e-004 -2.38154642e-002 6.40033511e-003 -1.71145855e-003
      -6.18552044e-002 1.60507709e-002 1.00995405e-002 -1.11926273e-002
      -5.63990732e-004 1.19691379e-002 -1.69906355e-002 -1.98195186e-002
      3.04905251e-002 -2.97451466e-002 -1.67164858e-002 -5.15203283e-004
      -1.88667234e-002 -9.06265527e-003 1.99611932e-002 2.43477803e-002
      1.69735570e-002 -4.89406660e-003 -4.90995944e-002 1.05913030e-003
      -9.39384289e-003 -3.30541246e-002 8.93978460e-004 -3.24572017e-003
      3.68629931e-003 -1.06435204e-002 9.41209681e-003 2.52249627e-003
      -7.04791863e-004 3.66489999e-002 -5.84684173e-003 -6.53443579e-003
      5.88984648e-003 -9.87384468e-003 2.21732520e-002 3.13673578e-002
      1.19980536e-002 -1.72461849e-002 3.49308713e-003 -1.43205132e-002
      -1.04599036e-002</_>
    <_>
      -3.19819748e-002 4.10912046e-003 -2.10944936e-003 -4.71772952e-003
      1.80887335e-004 4.69461363e-003 1.09042870e-002 -1.18578570e-002
      -5.13705006e-003 1.63738634e-002 7.09652202e-003 -1.59677714e-002
      -2.71590659e-003 9.19615384e-003 7.46465195e-003 7.66415033e-004
      -1.40912915e-002 2.22100448e-002 -1.83061194e-002 -2.85743969e-003
      -5.26297698e-003 1.26410061e-002 9.47351288e-003 -3.02961096e-002
      4.80829738e-003 -1.86283272e-002 3.50329746e-003 1.02706337e-002
      1.57283749e-002 7.36580743e-003 -1.07973041e-002 -6.75478624e-003
      6.81989919e-003 1.95776224e-002 1.70748439e-002 8.66375398e-003
      -5.57691976e-003 -6.93709636e-003 1.07703414e-002 1.81271024e-002
      1.39714347e-003 3.93444253e-003 4.41729976e-003 1.30427098e-002
      4.01812932e-003 1.03196967e-002 5.04682597e-004 -3.84427025e-003
      6.82961242e-003 2.55734636e-003 5.02558053e-003 -4.69436916e-003
      1.01542678e-002 -2.57304381e-003 1.18451323e-002 -1.11884400e-002
      -1.72971562e-002 -1.29551189e-002 -5.49965957e-003 5.45645086e-003
      -1.10489586e-002 5.92799345e-003 -3.02640954e-003 -3.98023846e-003
      -1.12069966e-002 -6.84153615e-003 -1.11837396e-002
      -7.98578281e-003 -1.48855420e-002 -3.08498573e-002 1.94019787e-002
      -4.05478897e-003 4.70496109e-003 1.80131588e-002 -2.80491123e-003
      -7.84217287e-003 1.22983009e-002 -5.59855532e-003 1.11304352e-003
      4.46860259e-003 2.97100912e-003 1.80576066e-003 1.92738473e-002
      -1.02285985e-002 5.79342619e-003 9.52890422e-003 -5.06755989e-003
      5.83637878e-003 -1.08157275e-002 -4.81907604e-003 -8.20268411e-004
      -1.51420082e-003 1.21196844e-002 3.65069159e-003 -4.66714846e-003
      -1.85804572e-002 -5.46261808e-003 -9.67378728e-003 5.00072539e-003
      -1.10656163e-002 6.22927444e-003 1.06605673e-002 2.42811721e-003
      6.42594695e-003 -1.51292980e-003 2.48061516e-003 -1.35672688e-002
      5.56950876e-003 -1.59283485e-002 -8.82840622e-003 2.00495124e-003
      1.13842555e-003 8.46764259e-003 -2.77903653e-003 8.73296708e-003
      -1.08155943e-002 5.22386096e-003 -8.79533216e-003 1.93266496e-002
      7.16282055e-003 1.56470505e-003 8.16375017e-003 -8.85307789e-003
      -2.25191712e-002 4.88368655e-003 -8.81116022e-004 -1.98225472e-002
      3.52093726e-002 -2.91874027e-003 8.70671496e-003 1.17569715e-002
      -1.10243512e-002 -1.21123120e-002 7.61498464e-003 -1.00204889e-002
      -1.57236550e-002 -4.33862762e-004 1.98270530e-002 1.95078290e-004
      9.54449701e-004 -1.32330619e-002 1.23820156e-002 9.66555160e-003
      3.23471986e-003 -9.84518230e-003 -2.09635566e-003 1.35893410e-004
      -1.43247414e-002 2.15009833e-003 -1.25563322e-002 -1.27626499e-002
      -1.86083466e-002 2.96169682e-003 -8.35444033e-003 4.49209334e-003
      -2.16635335e-002 5.43815456e-003 -1.04087880e-002 -8.07262678e-003
      1.74102187e-002 3.89945880e-003 -9.04751476e-003 -7.10654212e-003
      5.41711552e-003 1.06310798e-002 -5.44871110e-003 6.73663197e-003
      7.33189424e-003 1.70060638e-002 -6.99457992e-003 4.65638674e-004
      2.34705284e-002 -1.47930114e-004 -1.27763702e-002 5.56071708e-003
      1.25192283e-002 -2.78426893e-003 2.54054200e-002 1.22236526e-002
      -1.04842416e-004 -1.22029730e-003 -1.57374498e-002 4.50696005e-003
      3.71661643e-003 -1.11351330e-002 -1.88890158e-003 -7.36657064e-003
      -5.56145282e-003 -8.24880507e-003 -4.30692500e-003 4.17218171e-003
      -2.02883147e-002 -1.16536068e-002 2.95909750e-003 -1.37934648e-002
      8.20129830e-003 -1.62965283e-002 -6.37205690e-003 8.95132404e-003
      -3.00644641e-003 -9.25454870e-003 -7.53312092e-003
      -6.09290879e-003 -1.87149066e-002 2.90075736e-003 -5.71162114e-003
      -2.51894295e-002 4.51093353e-003 6.14340388e-005 1.48883294e-002
      -1.47350701e-002 -1.41867111e-002 -7.90501293e-003
      -8.09083693e-003 9.35195072e-004 -6.57318439e-003 -2.30326522e-002
      -2.95925653e-003 7.17159407e-003 1.53479287e-002 7.33416574e-003
      -4.32390627e-003 -1.38052665e-002 3.21550085e-003 -1.15299504e-003
      -2.04698239e-002 -1.62602942e-002 -7.38795707e-003 1.33228423e-002
      -6.29401254e-003 2.37337474e-004 -1.45399040e-002 1.06388377e-003
      5.78329293e-003 -5.23139397e-003 1.62272174e-002 -1.93382427e-002
      5.53254504e-004 -1.08990436e-002 -2.15709899e-002 7.51516083e-003
      1.39568681e-002 -7.04210531e-003 8.76270235e-003 1.88997164e-002
      -7.22627994e-003 -2.67558848e-003 9.24041029e-003 -7.54980312e-004
      -1.01593081e-002 -1.32279154e-002 -4.05109167e-004 1.15464395e-002
      -1.88213680e-003 9.49522574e-003 1.15744425e-002 -1.13928849e-002
      -3.45681421e-003 -8.01230408e-003 -1.59288831e-002
      -1.37956962e-002 5.68558509e-003 6.91869156e-003 1.86757767e-003
      -3.56084108e-003 -1.61203127e-002 -4.96308692e-003 1.29871955e-002
      -5.17977728e-003 -1.13592844e-003 1.13149118e-002 -1.11709377e-002
      -1.72920618e-002 6.46993658e-003 -6.20843843e-003 4.31841984e-003
      -1.46016050e-002 -1.59457640e-003 1.48896333e-002 -2.08767429e-002
      -6.16200780e-003 6.82594813e-003 3.95563524e-003 -2.95696370e-002
      1.52959609e-002 -5.51230554e-003 -1.92567836e-002 2.41994578e-003
      -2.61673201e-002 4.71128989e-003 -3.52925994e-003 1.18033565e-003
      8.34191311e-003 -1.19646704e-002 -4.21241298e-003 -4.81353141e-003
      1.86413899e-002 2.55422406e-002 -1.93991102e-002 1.08297737e-002
      8.99590179e-003 3.25028843e-004 -7.93085899e-003 -1.46853616e-002
      1.27999997e-002 -4.94905794e-003 1.05848042e-002 3.22515820e-003
      -3.02546960e-003 1.15915006e-002 -9.80179477e-003 1.45479636e-002
      1.79220010e-002 -7.35666044e-003 4.18939022e-003 -2.59793382e-002
      3.60792922e-003 -1.72489248e-002 7.95524567e-003 -3.37121263e-002
      -1.37545979e-002 -4.88165626e-003 6.17428822e-003 -1.51613671e-002
      8.22819397e-003 9.17327777e-003 3.11133694e-002 -1.00119608e-002
      5.04924962e-003 1.07115610e-002 -2.16020662e-002 2.16696262e-002
      -1.02382796e-002 2.67092197e-004 -3.59007367e-003 -2.95754871e-003
      1.19333854e-002 2.07228842e-003 1.65921263e-002 -1.98690575e-002
      -2.88937893e-003 -1.32418033e-002 -1.10555775e-002 3.18948142e-002
      -1.91825982e-002 4.81062336e-003 -2.11417954e-003 1.63653176e-002
      1.41278692e-002 -8.45233910e-003 7.40622450e-003 3.51417484e-003
      1.28293941e-002 -7.76705844e-003 -2.01522396e-003 1.07285697e-002
      -9.77917947e-003 1.59587469e-002 4.84039495e-003 -2.71362383e-002
      7.51126092e-003 -2.85632699e-003 6.86263060e-003 -2.61103828e-002
      -9.93261579e-003 7.42553640e-003 -3.49021493e-003 1.69893876e-002
      -1.10805565e-002 -6.96385605e-003 9.18916054e-003 1.13623813e-002
      -8.44389200e-003 7.89264683e-003 -1.26361065e-002 6.26358204e-003
      1.66178737e-002 -1.09106442e-002 3.23908986e-003 -1.18836639e-002
      -2.98376777e-004 -1.97214894e-002 -1.44887399e-002
      -8.19319207e-003 -1.77492984e-002 1.00914482e-002 -6.41548214e-003
      -1.08575420e-002 2.88592768e-003 -4.59555211e-003 -3.12589970e-003
      1.08253444e-002 -1.20264092e-004 3.54081951e-003 -2.90714350e-004
      3.64849740e-003 3.19014909e-003 -2.89023825e-004 -2.96668801e-003
      1.05560645e-002</_>
    <_>
      1.06675159e-002 -3.14674363e-003 1.09252920e-002 7.24664936e-003
      -2.47003982e-006 1.03704873e-002 -1.83364935e-002 8.83783121e-003
      -1.51531044e-002 1.47174038e-002 4.24928498e-003 -2.36179531e-002
      -1.62365027e-002 -1.16010625e-002 9.96215455e-003 1.75390188e-002
      5.00824535e-003 3.73842544e-003 9.33182705e-003 3.24154198e-002
      1.97580922e-002 3.05326767e-002 -3.48438285e-002 -1.90981422e-002
      1.77803058e-002 -1.55517505e-002 -7.19259214e-003 7.22387806e-003
      2.03926377e-002 -2.31118556e-002 -3.11397761e-002 1.44311204e-003
      -2.60030124e-002 1.77411120e-002 1.51896942e-002 7.94000831e-003
      -1.90218305e-003 8.98968522e-003 5.03102271e-003 4.86753648e-003
      2.39218418e-002 7.94975646e-003 1.99241955e-002 9.93620604e-003
      -1.18520828e-002 1.08959731e-002 9.70215444e-003 -3.15148309e-002
      -1.02249850e-002 -1.82532053e-002 -2.71301940e-002 1.85737014e-002
      5.01928618e-003 1.62592251e-002 -4.88423463e-003 1.05763515e-002
      -2.64787697e-003 1.24066230e-002 -1.98287349e-002 -2.14406978e-002
      -1.81539380e-003 -6.80329045e-003 -7.06657488e-003
      -8.77834100e-004 -5.35656174e-004 9.61686019e-003 1.67621728e-002
      3.26993736e-003 8.90035648e-003 1.56851765e-002 5.32659562e-003
      -1.32378014e-002 -3.04590128e-002 1.46398358e-002 -5.25958138e-003
      -3.14823794e-003 1.05366660e-002 2.30332185e-002 5.56473038e-004
      -1.65480338e-002 -1.22605469e-002 1.66855811e-003 9.21969395e-003
      -1.51557615e-002 -2.28869040e-002 -2.16973331e-002 8.84524547e-003
      1.06539056e-002 -1.87210906e-002 8.54551792e-003 3.84949730e-003
      1.79807190e-002 6.11365598e-004 -2.61982027e-002 7.74036860e-003
      -7.33654341e-003 -3.78255965e-003 -1.08886678e-002 7.32247112e-003
      -1.27719818e-002 9.11287405e-003 -5.01736300e-003 -2.86510703e-003
      -9.00081475e-004 1.21683553e-002 -5.22507355e-003 -1.38239982e-002
      -1.50317596e-002 -2.05856767e-002 8.41229316e-003 -8.48839339e-003
      -2.15365104e-002 1.11364555e-002 2.59925472e-003 1.14622889e-002
      1.61192436e-002 7.56184431e-003 -1.31928483e-002 1.12343365e-002
      -5.41810691e-003 4.47217841e-003 -1.69758983e-002 -1.90533213e-002
      -1.01923496e-002 -9.10996646e-003 -1.38662625e-002
      -9.32292175e-003 7.35928258e-003 -1.31199707e-003 8.08836240e-003
      2.74575166e-002 4.71752789e-003 -1.58644598e-002 2.66934256e-003
      -1.88932586e-002 -2.05828398e-002 1.24919182e-002 3.06028500e-002
      2.97335461e-002 1.75802764e-002 -4.33847355e-003 8.45739711e-003
      1.61095634e-002 -1.15528237e-002 -5.82053103e-002 -4.99204034e-003
      3.87021387e-003 3.85089894e-003 -6.31722435e-003 6.36050012e-003
      -1.99050084e-002 -3.48992832e-002 -5.48244035e-003 6.55108038e-003
      2.72519346e-002 -1.33899972e-002 -1.34822167e-002 2.55859853e-003
      2.24418417e-002 8.90185405e-003 -2.43864227e-002 -3.08057684e-002
      1.51843080e-004 -6.97376207e-003 4.48309584e-003 -6.63381870e-005
      1.10851806e-002 -1.95524469e-002 1.30129382e-002 -1.23890750e-002
      -5.45886252e-003 -1.05882660e-002 2.15366948e-002 -5.84591459e-003
      9.74126533e-003 -5.66353695e-003 2.71624997e-002 1.68646034e-002
      5.42040868e-003 -4.85469494e-003 8.50240048e-003 -5.91129530e-003
      -2.16527320e-002 2.92510502e-002 -2.25099605e-002 -3.65117006e-002
      1.41435582e-002 -2.52360627e-002 1.59411430e-002 -2.97226962e-002
      -1.01308124e-002 -3.38985845e-002 -7.99839571e-003 4.02435474e-003
      -2.52916105e-002 1.15733081e-002 2.41467059e-002 8.74892157e-003
      6.45106984e-003 1.01084961e-002 -1.29310731e-002 -2.22713910e-002
      7.67477276e-003 1.49240028e-002 5.69530530e-004 -6.90946495e-003
      -4.39948179e-002 2.58637662e-003 4.74659464e-004 -1.82757508e-002
      1.90884806e-002 -6.57998491e-003 8.85398500e-003 4.15921677e-003
      -1.57267526e-002 -1.34323565e-002 -5.35880029e-003
      -3.10140140e-002 -1.45461457e-002 8.46233778e-003 -1.96417719e-002
      -2.96738353e-002 -3.04961018e-003 -1.47513319e-002 2.14124098e-002
      -3.42934355e-002 4.47807368e-003 -3.23132575e-002 2.26317681e-002
      2.33271089e-003 1.12974048e-002 -1.87284164e-002 2.29037534e-002
      -1.40940389e-002 -1.87953245e-002 -3.05325200e-004
      -4.41163173e-003 1.08212177e-002 4.31129709e-003 2.14520488e-002
      1.06419874e-002 2.32251287e-002 -2.00835392e-002 1.75511721e-003
      -1.10813826e-002 -1.40710119e-002 -2.28486527e-002
      -4.41680197e-003 1.00417053e-002 1.48170320e-002 1.18614854e-002
      2.69939820e-003 9.66712367e-003 1.94586080e-003 2.43342877e-003
      2.00328208e-003 -7.72275310e-003 5.79192443e-003 -2.29793247e-002
      3.72565794e-003 -2.33371705e-002 5.89163974e-004 2.73501165e-002
      -2.25149351e-003 6.41439995e-003 2.23154319e-003 4.32219589e-003
      1.93032175e-002 -1.12849772e-002 -1.11429263e-002 2.62434464e-002
      1.15634575e-002 -1.00637851e-002 4.34824042e-002 -2.22733449e-002
      1.17382640e-002 -3.28833126e-002 1.30232554e-002 4.14819308e-002
      -5.29033085e-003 7.33237946e-004 -1.08594839e-002 -2.19104672e-003
      3.18186800e-003 1.86322667e-002 -2.44331174e-002 -1.00629509e-003
      1.18613616e-002 -1.46923400e-002 -1.94730866e-003 1.17707178e-002
      2.80535985e-002 -4.39102575e-003 -7.71746645e-003 -2.30991095e-002
      -2.87304353e-002 -6.64190715e-003 -2.68328469e-003 1.30704492e-002
      3.41678895e-002 -1.08342636e-002 -1.51841408e-002 -2.47290973e-002
      2.27542538e-002 -2.78583099e-003 3.38989752e-003 -9.63024329e-003
      -1.00087663e-002 -7.21961400e-003 1.22171417e-002 6.81211939e-003
      1.31999347e-002 1.08524011e-002 6.06766553e-004 -1.08014634e-002
      3.79828532e-004 2.76736878e-002 -1.56714348e-003 1.28145348e-002
      6.61062123e-003 4.17008623e-003 -8.75503581e-004 4.32219403e-003
      -2.21636984e-002 3.88968852e-003 1.58969201e-002 2.57612783e-002
      9.81140044e-003 -3.76842543e-003 -3.00787147e-002 -3.48081216e-002
      4.25879611e-003 -1.64202098e-002 -1.43731041e-002 -3.13814008e-003
      8.55916087e-003 9.19823069e-003 1.29643446e-002 3.28557603e-002
      -1.20446775e-002 -3.70792374e-002 -8.83066375e-003
      -8.71273875e-003 1.54450303e-002 -2.97803190e-002 3.50986496e-002
      4.61036079e-002 9.56185907e-003 1.98968258e-002 -1.56908960e-003
      8.91703926e-003 6.93582371e-003 2.65822350e-003 2.39134138e-003
      -2.87432177e-003 1.83950458e-003 9.11029056e-003 2.80121174e-002
      2.69320905e-002 -5.42197935e-002 8.24911869e-004 5.48822014e-003
      2.57739276e-002 -4.20726947e-002 1.75972339e-002 -3.18540186e-002
      -1.53293060e-002 -8.27691332e-003 -3.01498864e-002
      -1.76412780e-002 -3.76577256e-003 8.28384701e-003 -1.65542699e-002
      1.40668070e-002 -6.57724263e-003 1.47848902e-002 1.67050939e-002
      -2.88393758e-002 -2.17195340e-002 -9.12438985e-003
      -1.77271962e-002 5.31017024e-004 -1.66385099e-002 8.66867602e-003
      -2.36022398e-002 -1.70423612e-002 1.24090435e-002 -1.93224326e-002
      9.83354449e-003 -1.03950445e-002 2.86328187e-003 2.30049882e-002
      9.98839457e-003 2.43837666e-002 8.79822951e-003 6.50695665e-003
      1.77908242e-002 -1.23900268e-002 9.69258195e-004 5.78449760e-003</_>
    <_>
      -2.25908426e-003 1.30803930e-002 1.37497326e-002 8.59004818e-003
      1.42070919e-003 5.15607977e-003 1.23455375e-002 -9.96746868e-003
      7.08666572e-004 4.57118906e-004 -6.21750066e-003 -1.07262218e-002
      9.38108005e-003 1.15753058e-003 -1.40128809e-003 -3.27331037e-003
      -2.35986579e-002 -1.67180819e-003 6.55983342e-003 9.74830147e-003
      1.25239724e-002 3.35913221e-003 7.18065305e-004 -7.86836166e-003
      -4.58391197e-003 -1.10216765e-002 1.21905247e-003 2.03329977e-003
      -2.24815290e-002 -5.11816470e-003 -3.18307467e-002
      -1.00148665e-002 2.37214682e-003 -6.53067697e-003 8.14631640e-004
      2.91966833e-002 5.23450598e-003 3.55449459e-003 3.53156822e-003
      2.38341652e-002 9.07240249e-003 -5.23122633e-003 -7.15457555e-003
      -6.43195678e-003 -6.21299306e-003 2.90032919e-003 1.30932266e-002
      -2.61263065e-002 6.39595417e-003 -1.83775404e-003 -1.23306038e-002
      2.94245291e-003 2.09145565e-002 3.37935542e-003 1.26818782e-002
      -9.83921625e-003 9.91299655e-003 6.40368694e-003 -2.67262076e-004
      -5.44381374e-003 2.25181086e-003 6.18463336e-003 1.63934734e-002
      1.07475845e-002 3.74072371e-003 -1.10709751e-002 1.13944383e-002
      -9.61908791e-003 5.38157299e-003 -7.49775150e-004 -1.44558668e-003
      1.64495618e-003 4.33448283e-003 -6.93494501e-003 -9.56796389e-003
      -1.66626070e-002 1.26959244e-002 -1.80269368e-002 1.36203202e-003
      -1.38340592e-002 5.34573197e-003 9.96005721e-003 7.51738204e-003
      3.26584955e-003 -4.52652201e-003 -2.47121300e-003 3.02745984e-003
      5.47577813e-003 -1.19457825e-003 -1.79996714e-003 -1.00881690e-002
      1.16119944e-002 -2.23669969e-003 -1.33933323e-002 -9.84392408e-003
      1.07200481e-002 -6.85592135e-003 -5.74608939e-003 1.43510969e-002
      -1.12925982e-002 1.02490718e-002 1.47846085e-003 -1.65692251e-002
      6.54460397e-003 -1.25871319e-003 3.96976527e-003 -2.19636727e-002
      -1.46545768e-002 -1.47238104e-002 1.20402565e-002 -4.37404541e-003
      4.16037580e-003 -5.88587718e-003 1.08326823e-002 -1.04081286e-002
      1.51201626e-002 2.12063510e-002 7.15955161e-003 1.85843576e-002
      1.28245596e-002 -6.37519313e-003 1.00239227e-003 -1.27636436e-002
      -4.57433984e-003 5.74701698e-003 -2.91735196e-005 -6.72071055e-003
      1.14731323e-002 -1.30229653e-003 1.74686853e-002 -3.21188523e-003
      3.81129282e-003 -3.99194192e-003 1.28539745e-002 -5.81439072e-003
      3.26943793e-003 5.29038534e-003 1.85101815e-002 3.78064997e-003
      2.03795452e-003 6.87247957e-004 -4.34149336e-003 -1.30723533e-003
      -4.67006629e-003 -7.26957666e-003 3.60303978e-003 4.35799640e-003
      -5.75055089e-003 2.51974881e-004 -9.47127526e-004 -7.02843489e-003
      -1.35907186e-002 -4.99701034e-003 5.80502115e-003 6.32025418e-004
      -1.06001608e-002 -7.26603903e-003 -1.40919947e-004 2.55484745e-004
      -2.37576454e-003 -1.54874874e-002 -5.13054989e-003 1.01340013e-002
      -3.21808383e-002 -1.15297176e-002 -3.38612194e-003 3.15598492e-003
      1.98437693e-003 1.43004104e-003 -1.90190487e-002 3.77438753e-003
      1.45707140e-003 5.46914013e-003 -1.95065588e-002 -1.06123388e-002
      1.35394628e-004 4.16320795e-003 2.37071738e-002 -4.75604692e-003
      5.95894456e-003 -1.21705551e-002 -1.02378624e-002 6.48846792e-004
      1.27748298e-002 -5.86491870e-003 -1.01989973e-002 -1.28334751e-002
      -4.74131061e-003 5.58049825e-004 -1.87506955e-002 7.43227778e-003
      -2.26191003e-002 1.11070639e-002 8.88439734e-003 7.44407019e-003
      4.04553674e-003 -9.24020447e-003 3.01429280e-003 6.65511284e-003
      3.72767192e-003 -2.94737667e-002 -2.90433690e-003 3.23373568e-003
      -1.68241691e-002 -1.10120941e-002 3.09642800e-003 -2.27488559e-002
      -1.24348281e-002 1.57429799e-002 -6.46984810e-003 2.56111659e-003
      -1.61207840e-002 -6.21625222e-003 -1.44307483e-002 8.32061004e-003
      -2.10017543e-002 1.14314007e-002 9.88800358e-003 -8.72558914e-003
      4.27347654e-003 -6.43016119e-003 -8.54000170e-003 -6.97828690e-003
      8.44939519e-003 -1.58550944e-002 -1.51915243e-002 1.00694019e-002
      -1.01322327e-002 9.74103343e-003 5.65257762e-003 -8.76078382e-003
      -1.34710018e-002 1.43055376e-002 9.05952230e-003 -5.37273660e-003
      5.32553438e-003 -1.26692299e-002 7.78194377e-003 4.06561652e-003
      -1.67949162e-002 -7.65095057e-004 8.39910470e-003 -1.33844512e-002
      -3.56049254e-003 4.80271177e-003 -1.21923881e-002 -1.04662299e-003
      -7.65568670e-003 -1.09734489e-002 -2.69269720e-002
      -9.09920083e-004 -2.84967246e-003 5.28627948e-004 -2.10485049e-003
      -3.78239667e-003 7.04295421e-003 2.76615703e-003 9.95286554e-003
      -2.17812555e-003 -7.16740452e-003 -1.69341918e-002
      -2.22973991e-002 -3.35984654e-003 -1.34725648e-003 4.58430499e-003
      6.78828917e-003 5.13135130e-003 1.35659929e-002 4.19346849e-003
      2.05016998e-003 1.51665406e-002 9.37673077e-003 -1.20333629e-002
      2.82947120e-004 -6.05293550e-003 8.03971954e-004 -6.47834642e-003
      2.03008484e-002 1.86833702e-002 -2.13733520e-002 -5.63090481e-003
      -1.34471459e-002 -9.14657116e-003 -1.49432542e-002 1.37775009e-002
      -1.47516252e-002 -2.75091361e-002 -2.47037951e-002 4.71944036e-003
      8.93422344e-004 -7.15890760e-003 1.61688589e-003 -7.35693146e-003
      -1.06280064e-002 -7.01830210e-003 -1.59193352e-002 1.23095540e-002
      6.32524258e-003 -6.09274767e-003 1.53643088e-002 -1.50469737e-002
      -1.11791175e-002 4.28360188e-003 -4.20978293e-003 1.54874902e-002
      -5.06200828e-003 -1.47439484e-002 1.05235660e-002 3.11777787e-003
      1.52692255e-002 1.64668560e-002 -1.27853882e-002 1.63244586e-002
      -2.92062876e-003 -8.29779916e-003 -6.35117479e-003 4.57648886e-003
      8.19834042e-003 -1.30818533e-002 5.35569433e-003 1.73562599e-004
      1.11852502e-002 -7.81344809e-003 -2.14169081e-002 -9.57458001e-003
      1.04344403e-002 2.03245729e-002 -9.57005192e-003 -3.91427986e-003
      1.03092063e-002 -2.89657130e-003 1.72286686e-002 5.23085298e-004
      3.31802201e-003 -8.31310544e-003 5.57039771e-003 -8.78755935e-003
      -8.52104090e-003 1.94575600e-002 -1.86393727e-002 5.02795633e-003
      -1.86625589e-002 -1.66183021e-002 2.37661563e-002 -1.53016979e-002
      1.19616352e-002 -7.16277515e-004 -6.79868786e-003 1.72794852e-002
      -9.26666311e-004 -5.48371533e-003 1.84999569e-003 1.61799062e-002
      -1.67945791e-002 3.76794185e-003 8.10006261e-003 1.13921231e-002
      2.91145425e-002 1.19889146e-002 -6.21646503e-003 3.90555477e-003
      6.12618774e-003 2.16105059e-002 -1.55465370e-002 1.97966117e-002
      -6.78690244e-003 -2.22488161e-004 3.38896643e-003 -1.53207527e-002
      -8.43503140e-003 1.29979188e-002 -1.10703977e-002 -2.77091283e-002
      1.54977599e-002 1.18011395e-002 -1.19906701e-002 8.15711822e-003
      -2.97198631e-002 1.19098206e-003 -1.96820255e-002 -4.18478576e-003
      -2.14854125e-002 5.92110679e-003 6.77397521e-003 2.27956809e-002
      -4.58017970e-003 2.78366792e-006 -6.03834726e-003 -3.07292584e-003
      -1.22320484e-002 2.35408588e-004 1.10432587e-003 1.50283268e-002
      1.74494609e-002 1.35742628e-003 5.34317642e-003 -1.06731001e-002
      -1.19021870e-002 2.90940003e-003 1.23455776e-002</_>
    <_>
      -2.71583777e-002 1.06785037e-002 6.72707800e-003 1.43922551e-003
      -1.24567822e-002 -2.91487016e-003 -2.14419141e-002 4.16906696e-004
      1.39999781e-002 8.52289144e-003 9.95056797e-003 -2.29740776e-002
      1.99041911e-003 -1.36464657e-002 7.51348352e-003 1.63535848e-002
      -3.32075991e-002 2.46500336e-002 -1.72177907e-002 1.52704092e-002
      1.72327571e-002 1.53013458e-002 -4.21859138e-003 -1.53582757e-002
      1.09125059e-002 -5.33780782e-003 -1.64529085e-002 1.75160337e-002
      1.52243106e-002 -3.85862775e-003 -1.71676390e-002 1.00098737e-002
      -1.32769700e-002 1.70967150e-002 6.17361069e-003 -2.17030030e-002
      8.84432439e-003 -1.23726679e-002 1.60783529e-002 1.81886926e-002
      8.89049377e-003 -1.33039346e-002 -5.77349495e-003 1.25729581e-004
      1.65711739e-003 1.32422112e-002 -6.97553100e-004 -2.08770577e-002
      1.41276130e-002 -1.31829446e-002 -2.93851923e-002 -2.00032741e-002
      3.64071899e-003 1.84346475e-002 1.19734332e-002 4.21533687e-003
      1.16426358e-002 -1.93186640e-003 -6.30646152e-003 -1.20963231e-002
      8.16426426e-003 -2.63853534e-003 -8.71742144e-003 -2.76915729e-002
      1.20818866e-002 1.01501485e-002 -2.67335819e-003 -7.41341431e-003
      -2.19673835e-004 6.73691370e-003 1.36470078e-002 3.68359615e-003
      1.99009478e-002 1.43541666e-002 -2.44527198e-002 -5.07567916e-003
      -7.13391602e-003 -4.52722609e-003 7.63694756e-003 9.65986867e-003
      2.50485335e-002 -1.28272234e-003 1.24529842e-002 -4.60930495e-003
      -3.08934413e-003 -3.07077523e-002 -1.87037062e-004 2.91899014e-002
      -1.28237959e-002 1.27447750e-002 1.70341213e-004 1.17536886e-002
      5.45467716e-003 -7.90978502e-003 -1.56294964e-002 -1.38123799e-003
      1.03029830e-004 2.89358478e-003 1.57929529e-002 -2.40109656e-002
      -1.81372429e-003 1.49268005e-002 9.54596978e-003 -8.07163480e-004
      1.25022568e-002 2.13784399e-003 -2.10379362e-002 -1.17079671e-002
      -1.68942455e-002 -1.59401577e-002 -5.34891896e-003 1.99675970e-002
      -1.91725213e-002 1.30360704e-002 1.66396350e-002 -3.65446671e-003
      2.48923134e-002 8.08428135e-003 -3.51838325e-003 -9.56312381e-003
      2.59542232e-003 -1.12954956e-002 -1.62397847e-002 5.57221007e-003
      -6.94468105e-003 4.11102641e-003 1.34374341e-002 2.42487472e-002
      3.15200747e-003 8.07672087e-003 1.03983264e-002 -3.66419158e-003
      -1.23042390e-002 1.02676749e-002 1.11278435e-002 -1.59268137e-002
      1.08624194e-002 1.27286045e-002 5.66827646e-003 8.09927098e-003
      1.47322454e-002 2.16141213e-002 -1.28617194e-002 -2.08431645e-003
      -2.75504328e-002 1.72519237e-002 -2.17434429e-002 -8.56027938e-003
      -4.55610163e-004 7.06466055e-003 8.95227771e-004 -8.55610799e-003
      -2.05333345e-002 -4.63311002e-003 2.16587801e-002 -1.11804251e-002
      -1.00156190e-002 1.32817915e-002 -1.09673701e-002 3.37966369e-003
      1.27185853e-002 -1.03157340e-002 2.50784718e-002 -6.15297910e-003
      -3.17350030e-003 -6.82103401e-003 1.38787106e-002 2.64084083e-003
      8.14085919e-003 -1.21473828e-002 -1.11156981e-002 -1.23241059e-002
      1.11113572e-002 -8.09407793e-003 5.36151696e-003 -1.62987027e-003
      -8.95292207e-004 -1.32347075e-002 9.76658519e-003 1.62622761e-002
      1.82503823e-003 8.50197859e-004 -1.73081998e-002 2.45123953e-002
      -1.69046838e-002 -3.29169892e-002 1.77148934e-002 1.22108459e-002
      -1.32204853e-002 -1.81856677e-002 -3.66706541e-003
      -1.50306281e-002 -1.20314006e-002 -8.48814321e-004
      -1.65742170e-002 1.84176732e-002 1.79197884e-003 -2.61229090e-003
      5.05628530e-003 4.86583076e-003 -5.85447950e-003 -1.66485843e-003
      -4.33156081e-003 1.13647598e-004 7.63418991e-003 -1.83628942e-003
      -3.81674208e-002 -7.25040911e-003 -4.71786223e-003 1.46500384e-002
      -5.43978345e-003 -4.87597240e-003 -7.62670254e-003
      -1.17877861e-002 5.53901074e-003 1.12902541e-002 6.54329080e-003
      -4.48044091e-002 4.39444557e-003 1.57797690e-002 5.58836292e-003
      -1.25297848e-002 -1.51479989e-002 6.09393464e-003 -1.48030566e-002
      -1.14647234e-002 7.92544335e-003 -1.02123879e-002 2.61986069e-002
      2.16516070e-002 1.45488093e-003 4.42552706e-003 1.28646856e-002
      2.07474977e-002 1.59195522e-004 1.24051319e-002 -4.70720511e-003
      1.92981362e-002 -3.97911929e-002 5.56093361e-003 4.75735171e-003
      1.87215637e-002 -3.18394578e-003 6.21645292e-003 1.27208708e-002
      -1.23346169e-002 -7.14090373e-003 2.18214765e-002 3.41449608e-003
      -1.34874387e-002 -1.36232506e-002 -1.09636167e-003
      -4.13753139e-003 3.39290919e-003 1.30811865e-002 -2.61134841e-003
      -1.93551537e-002 -5.38780994e-004 -2.85211150e-002
      -7.59326806e-003 3.68741021e-004 -2.37651123e-003 1.60789229e-002
      3.87172005e-003 5.85547322e-003 -5.38030639e-003 1.35518834e-002
      4.13611112e-003 -4.69929427e-002 1.46748347e-003 1.92284640e-002
      -1.06125437e-002 1.86294205e-002 -1.76629461e-002 -2.36133300e-002
      7.03057926e-003 1.55025572e-002 -2.44889408e-002 -1.18710166e-002
      -8.29728972e-003 -7.84947909e-003 3.01296124e-003 -1.40053378e-002
      -1.02150301e-002 1.21298514e-003 -8.25552561e-005 -1.29050631e-002
      -1.29655469e-002 -1.84108112e-002 -1.87229156e-003 2.05041282e-002
      -5.79455402e-003 3.70994420e-003 7.06130057e-004 1.08701328e-003
      -4.49424237e-003 2.10534148e-002 -2.73201279e-002 -7.36480486e-003
      1.02693988e-002 2.32632589e-002 -3.54548134e-002 4.08154493e-003
      -2.66798818e-003 1.34073468e-002 2.71458980e-002 -6.61985192e-004
      1.43259130e-002 2.14094426e-002 2.17224192e-002 6.65237475e-003
      7.32454192e-003 -3.00181727e-003 -5.23111178e-003 -1.25694610e-002
      -2.31601279e-002 4.87290369e-003 -8.53278022e-003 1.41916135e-002
      1.43141244e-002 -5.90818562e-003 -2.38414370e-002 -4.63824533e-003
      -2.09389138e-003 2.31945817e-003 9.34555288e-003 1.98964849e-002
      3.93327279e-003 6.51287986e-003 -1.49764540e-002 -2.74032187e-002
      -1.54165959e-003 -5.07873436e-003 -1.28519358e-002 1.05959140e-002
      -4.69359010e-003 4.00142372e-003 7.16137700e-003 1.53759588e-002
      -7.10720941e-003 -1.05269020e-002 -4.26017214e-003
      -7.77189201e-003 3.12644877e-002 -1.24801779e-002 -7.42202997e-003
      4.73894086e-003 1.44167291e-002 2.29264945e-002 1.03706785e-003
      -9.37560014e-003 6.62330166e-003 -2.74968576e-002 8.50947294e-003
      -3.28130811e-003 -1.98485758e-002 -1.35277258e-002 1.68575086e-002
      1.19074769e-002 -3.89085300e-002 1.08625190e-002 1.12757680e-003
      9.26608499e-003 -3.25610563e-002 1.17905550e-002 -2.27259174e-002
      -9.50208306e-003 1.31698363e-002 -3.95513177e-002 7.78348185e-003
      8.02229997e-003 -4.31734417e-003 -1.73951674e-003 1.20720239e-002
      -1.29378811e-002 4.27211029e-003 2.07003001e-002 9.16392077e-003
      1.34427641e-002 -1.61640570e-002 9.14994068e-003 7.88202044e-003
      1.25727924e-002 9.89248510e-003 -1.18743069e-002 -1.04446169e-002
      -1.57866497e-002 8.02029669e-003 1.71699915e-002 -1.75857041e-002
      -1.00514926e-002 2.83007789e-002 3.73907096e-004 9.30916145e-003
      2.11277488e-003 -7.94204127e-004 -1.14001911e-002 3.54957068e-003
      1.54730054e-002 -1.74928608e-003</_>
    <_>
      -5.01800282e-003 1.01804419e-003 2.48014703e-002 7.91465747e-004
      -1.84193589e-002 -8.53153784e-003 -8.63134582e-003
      -2.62611788e-002 1.05474303e-002 5.66052273e-003 -6.67779706e-003
      2.30832454e-002 -2.13601831e-002 3.07171643e-002 -9.78055783e-003
      9.37732961e-003 -5.96768642e-003 2.49407496e-002 5.25479438e-004
      4.01847111e-003 5.96077181e-003 -2.50148261e-003 -7.81579595e-003
      -2.74927244e-002 1.61419474e-002 -2.47259419e-002 -1.95044801e-002
      8.13982449e-003 -1.27853150e-003 -1.30434819e-002 -2.64675971e-002
      2.29096767e-002 -1.04595842e-002 1.54858613e-002 4.22547990e-003
      2.24336926e-002 1.22487294e-002 -1.80143043e-002 6.92371558e-003
      1.71996579e-002 -1.49764316e-002 2.40499545e-002 1.42918639e-002
      1.51218195e-003 5.22394665e-003 -9.66346415e-004 -9.93495341e-003
      -2.45151902e-003 6.94165332e-003 -1.08062732e-003 3.89715482e-004
      -1.21162590e-002 6.80361129e-003 -4.21864167e-003 1.24667101e-002
      9.70456575e-004 -3.09106447e-002 1.38386115e-002 7.47637032e-003
      -1.50148449e-002 9.82167665e-004 -9.99899209e-003 1.20444577e-002
      -4.06338926e-003 -5.81797585e-003 -3.38272527e-002
      -6.57012174e-003 5.73442644e-003 -2.39922851e-003 -1.18765300e-002
      -3.16626695e-003 -5.60676586e-003 -4.53279354e-003
      -4.46671899e-003 -3.56068951e-003 1.00829093e-004 1.21218730e-002
      9.68068745e-003 -1.11463584e-003 -1.30444979e-002 1.22423414e-002
      -8.00596271e-003 2.11514663e-002 -3.58259887e-003 7.53829302e-003
      -2.63051200e-003 1.88056715e-002 2.05080980e-003 -3.03658773e-003
      7.58558977e-003 1.20999049e-002 1.91366486e-002 1.95954111e-003
      -1.91233959e-002 -1.24769798e-002 2.64851085e-004 4.15349426e-003
      -4.76025278e-003 5.79470675e-003 -1.09673524e-002 -2.96373316e-003
      6.23253547e-003 -2.77004763e-003 1.19812414e-003 2.57396009e-002
      -1.01587325e-002 -5.94395818e-003 -5.11496270e-004
      -1.95058882e-002 6.02174550e-003 4.83957492e-003 8.41750484e-003
      1.96633759e-004 -1.86292958e-002 -3.24307662e-003 8.39726534e-003
      1.40716899e-002 -1.81766618e-002 6.92945765e-003 5.25914226e-003
      1.13348067e-002 2.82314979e-002 -1.06662586e-002 -1.96612813e-003
      -2.56185210e-003 6.46914681e-003 -2.06205826e-002 1.62478667e-002
      5.47030894e-003 6.90586865e-003 -1.94375385e-002 1.24452095e-002
      -4.43736464e-003 2.04076227e-002 4.91755223e-003 -1.88145339e-002
      -7.43862474e-003 2.01333538e-002 -1.61485821e-002 -5.35393320e-003
      -1.52656138e-002 2.51063239e-003 -2.24947166e-002 -7.36173987e-003
      1.62824374e-002 3.90136638e-003 2.07517901e-003 -2.08920315e-002
      2.55173212e-003 -9.54386499e-003 -8.39395169e-003 -1.36961108e-002
      2.79891858e-004 9.86354239e-003 2.47300472e-002 -7.15171965e-003
      8.44068173e-003 -1.26358336e-002 -2.00436800e-003 2.38811335e-004
      -1.79632604e-002 -2.27829604e-003 2.18991609e-003 -4.38819407e-004
      -5.73453587e-003 1.03125153e-002 -1.00137498e-002 -8.12858529e-003
      -5.20716840e-003 -1.02819744e-002 -8.28123093e-003 2.26037460e-003
      -6.29440695e-003 -6.63284352e-003 -2.35241670e-002
      -4.93898056e-003 -1.57360062e-002 -2.34294124e-003 1.92375889e-003
      -5.15873035e-005 -8.05046875e-003 7.71454582e-003 -2.10110508e-002
      1.03552043e-002 -2.69049704e-002 3.83213675e-003 1.51993346e-003
      -1.80626232e-002 -4.85421391e-003 1.46142161e-003 -1.95845105e-002
      -2.15367768e-002 -1.24972602e-002 -1.71898045e-002 1.01463534e-002
      7.95958005e-003 -1.92488898e-002 -1.09360116e-002 1.46902748e-003
      1.77532975e-002 -4.05124575e-003 -1.08320415e-002 7.19783129e-003
      1.11127261e-003 -5.61653916e-003 -7.35409698e-003 -3.41574103e-002
      -7.65842106e-003 -2.92793922e-002 -1.92492513e-003
      -5.45318052e-003 -9.11085680e-003 -1.28728468e-002
      -2.66872048e-002 1.35983555e-002 -7.36828428e-003 2.15259660e-003
      5.35052735e-003 1.51393097e-003 7.26181781e-003 1.33912284e-002
      -1.69239976e-002 -2.82632047e-003 7.46137882e-003 6.45776652e-003
      -1.14226872e-002 -1.01878112e-002 -1.26780113e-002 2.02543754e-002
      3.68405320e-003 -1.67967044e-002 -2.78501865e-002 4.29475587e-003
      -1.61044504e-002 -8.12222250e-003 4.25416249e-004 2.92610581e-004
      -3.38092819e-003 -2.60404013e-002 -1.35675715e-002
      -7.53094163e-003 1.33633809e-002 -1.08974762e-002 -7.81411771e-003
      1.40172783e-002 -1.46688810e-002 -3.97993159e-003 -2.04470921e-002
      -1.27577148e-002 -8.94046109e-003 -9.87547543e-003
      -1.12161795e-002 1.33064557e-002 -5.09379199e-003 2.95708254e-002
      1.76148694e-002 -1.60218347e-002 -6.51959330e-003 -1.93603691e-002
      4.14451258e-003 1.27091082e-002 -1.67902391e-002 3.68359475e-003
      -6.03901222e-003 -2.53268518e-002 2.34118756e-003 -9.11412202e-003
      1.11841438e-002 2.78098322e-003 -4.82767308e-003 2.54000239e-002
      2.29275897e-002 -2.09520366e-002 2.65523028e-002 -1.89136516e-003
      1.76834278e-002 5.27469162e-003 -1.45054015e-003 -1.02013871e-002
      1.95712247e-003 -6.39949040e-003 -2.15309430e-002 -1.37196900e-002
      -1.89714022e-002 4.95432038e-003 -2.80099199e-003 -1.52558489e-002
      -2.97923293e-003 -3.71128117e-004 -6.58600731e-003 2.06168890e-002
      -1.46824326e-002 5.89774968e-003 3.14997579e-003 -2.12184284e-002
      -4.01461171e-003 -9.53333918e-003 -3.77880107e-003 1.18206989e-003
      1.24015836e-002 6.03350287e-004 -6.79178117e-003 -1.18479040e-002
      1.16722472e-002 2.60833069e-003 -1.24594308e-002 -1.10900495e-003
      5.23696328e-003 -5.77666843e-003 1.95818003e-002 1.61187109e-002
      5.42915007e-003 1.46639151e-002 -1.98999420e-002 -5.72843943e-004
      -1.30093610e-002 8.70860927e-003 1.23510882e-002 6.79768948e-003
      -2.50837430e-002 1.12960814e-002 2.14703400e-002 -4.40680515e-003
      -1.10730389e-002 -1.14425579e-002 7.65701570e-003 2.20582727e-002
      5.98694663e-003 -3.12564597e-002 1.66733712e-002 4.03346261e-003
      1.92146394e-002 1.03378268e-002 1.07611613e-002 2.45565595e-003
      -9.22404509e-003 -4.96815424e-003 -3.45741445e-003 1.02427015e-002
      -1.60840657e-002 -1.50749739e-003 2.81465356e-004 2.07879860e-003
      1.53679280e-002 -1.82783194e-002 1.79899689e-002 1.43864024e-002
      -7.39925588e-003 -9.65327024e-003 3.52485431e-003 1.30957877e-002
      9.17928014e-003 -2.41859648e-002 -3.78230866e-003 -1.05413329e-002
      1.45994416e-002 -1.06054824e-002 3.97882657e-003 9.61472653e-003
      1.24538764e-002 -1.51085155e-003 6.30951254e-003 -9.57697351e-003
      -8.89038481e-003 1.53160905e-002 -2.21601268e-003 -3.78834680e-002
      -1.39521612e-002 -1.40629364e-002 -5.75208850e-003
      -4.11662785e-003 -5.02448855e-003 -1.27078332e-002 1.36662675e-002
      -9.74656921e-003 -7.25327339e-003 1.49801262e-002 -5.07612480e-003
      -5.25965216e-003 -2.30818242e-002 -2.69551519e-002
      -5.35901450e-003 3.31588858e-003 -3.83763853e-003 -1.22189871e-003
      4.09292150e-003 1.08721042e-002 -1.17476424e-002 -1.85610335e-002
      -1.06206555e-002 -6.42840890e-003 6.17279299e-003 -1.36293285e-002
      2.63418555e-002 2.94148680e-002 1.61097609e-002 -1.59002524e-002
      1.15186060e-002 2.36234330e-002 7.37179536e-003</_>
    <_>
      1.54964142e-002 8.80505238e-003 4.66526253e-003 4.79470938e-003
      1.81313267e-003 1.29649360e-002 1.02518136e-002 -1.75887775e-002
      -2.39224391e-004 -5.45947347e-004 1.39496634e-002 -5.54789789e-003
      -7.13297492e-003 -2.18245084e-003 -7.84423109e-003 2.67973263e-002
      1.73725956e-003 1.00076068e-002 -1.20147299e-002 8.39621667e-003
      8.27001780e-003 -5.94944600e-003 4.20555286e-003 1.23128798e-002
      5.80370240e-003 4.10856534e-004 7.72909727e-003 -4.52731969e-003
      1.00692995e-002 -5.89784421e-003 4.84214956e-003 1.23228021e-002
      5.63226780e-003 1.39095504e-002 2.78020022e-003 7.28575094e-003
      5.61366742e-003 -1.44880209e-002 -1.00413319e-002 7.69693358e-003
      -2.32165842e-003 1.21658556e-002 2.03990773e-003 5.53583680e-003
      1.65088568e-002 4.90614399e-003 -8.24870355e-003 -5.91325527e-003
      -6.05732249e-003 -4.59082890e-004 -5.76245738e-003 2.72010453e-002
      4.47033625e-003 9.79652256e-003 1.03923976e-002 2.40762415e-003
      1.23622604e-002 -3.11335106e-003 2.96300417e-003 -8.21589679e-003
      1.31103676e-002 9.15429089e-003 2.04713875e-003 1.06749088e-002
      8.48098192e-003 -3.68411536e-003 8.33526906e-003 -1.95549317e-002
      -4.99135815e-004 -9.96686635e-004 3.31816524e-002 9.83784627e-003
      7.10337516e-003 2.97167967e-003 2.24747043e-002 -1.14817137e-003
      9.93239693e-004 -4.95651457e-003 3.48237064e-003 6.49588834e-003
      2.10699961e-002 -5.91499452e-003 1.52693186e-002 6.32700697e-003
      3.51768848e-003 -3.44360201e-003 -1.60289451e-003 8.17280542e-003
      -1.54696289e-003 1.49142351e-002 9.27584060e-003 -9.26367589e-004
      2.12070048e-002 1.22222388e-002 -4.01799241e-003 -5.49143355e-004
      4.46379930e-003 3.48813599e-003 5.60255814e-003 1.13492394e-002
      1.03028230e-002 5.98853268e-003 -1.06774056e-002 -4.45359526e-003
      3.90843442e-003 -1.22105482e-003 1.51498057e-002 -1.09629994e-002
      -9.52889863e-003 -1.63904596e-002 -2.87865230e-004 1.00337733e-002
      -1.81370787e-002 9.17591911e-004 2.23665759e-002 -1.58759300e-003
      -4.23671678e-003 1.99350482e-003 9.44415852e-003 -7.05238106e-003
      1.54726496e-002 -4.32243990e-003 1.00031225e-002 -4.51953150e-003
      1.46775637e-002 -2.00550701e-003 1.01633649e-002 -1.71561132e-003
      4.78473445e-003 -1.41463466e-002 -1.41337272e-002 4.21926565e-003
      -1.09025026e-002 -7.11030560e-003 -5.67045761e-004 1.04879150e-002
      -1.48867387e-002 3.46222916e-003 -7.33516971e-003 1.71350073e-002
      -1.23907439e-003 -1.84579268e-002 5.75204287e-003 -1.74646061e-002
      2.56505259e-003 -7.58261373e-003 -1.17761537e-003 -6.36099139e-004
      7.60707026e-003 -1.24472640e-002 1.13544324e-002 -3.52825643e-003
      -5.58439083e-003 -4.82800091e-003 4.16198606e-003 5.16447891e-003
      9.17075109e-003 4.88027651e-003 -2.21721642e-002 4.00563562e-003
      -2.43216846e-002 -1.82325430e-002 -7.38096714e-004 8.71157274e-003
      -1.37506081e-002 -5.80845634e-003 -4.97324718e-003 1.25832460e-003
      -1.73881575e-002 1.50655629e-002 3.12316627e-003 -1.18473368e-002
      -6.61233719e-003 3.83015780e-004 2.65325815e-003 1.68848820e-002
      3.38757690e-003 -3.89533583e-003 -4.55082767e-003 -3.98898526e-004
      1.55938428e-003 1.88690750e-003 1.43772410e-002 9.88846645e-004
      -4.21041716e-003 -1.00637078e-002 2.58027646e-003 1.49196209e-002
      3.50451143e-003 5.06378757e-003 1.36767095e-003 -2.89853360e-003
      7.17911590e-003 4.63144016e-003 1.14590358e-002 -5.55854151e-003
      -9.83572751e-003 2.19714921e-003 7.35979527e-003 2.84682680e-003
      -6.55968254e-003 3.64458747e-003 6.43788511e-003 8.77630606e-004
      4.78563627e-004 1.70639381e-002 3.42149404e-003 -1.03004286e-002
      -2.23581586e-003 -2.32459791e-003 1.08330874e-002 3.96690681e-004
      2.06166622e-003 4.91145253e-003 -1.74791012e-002 4.06943774e-003
      1.59006696e-002 1.47386314e-002 -1.21315178e-002 2.47948654e-002
      4.20668395e-003 -5.56947896e-003 -1.04650517e-003 3.30438372e-003
      1.49562759e-002 3.86411254e-003 3.39026400e-003 2.34452891e-003
      -1.39267329e-004 9.28205065e-003 7.15827011e-003 2.93086283e-003
      6.58811023e-003 1.99782439e-002 1.23498542e-002 6.06400101e-003
      2.05648895e-002 6.39271084e-003 -1.94441620e-002 2.97380984e-003
      1.53288506e-002 -1.73642542e-002 7.08884234e-003 3.05585726e-003
      3.92391020e-003 -6.46872493e-003 1.92782432e-002 3.11905192e-003
      -1.63974017e-002 1.51955066e-002 4.58360463e-003 -5.46615478e-003
      2.10670754e-003 -9.25530866e-003 -1.47901326e-002 -9.36948787e-003
      1.20767988e-002 1.42634119e-004 9.88764595e-003 -1.90148945e-004
      7.33719580e-003 2.10605860e-002 -5.93354227e-003 -1.94740598e-003
      1.87497586e-003 1.16088819e-002 7.59933842e-003 -1.19238384e-002
      1.03720836e-002 -1.22061826e-003 8.05106387e-003 4.86405054e-003
      -4.99161752e-003 1.58235151e-002 1.07264938e-002 3.27989087e-003
      4.58348636e-003 -2.67927051e-002 -1.47744454e-002 3.46829765e-003
      -9.59415641e-003 6.17150450e-003 -9.99833085e-003 2.22719857e-003
      -7.83539843e-003 1.69998351e-002 -6.61240937e-003 -5.60789893e-004
      6.12943107e-003 1.13886464e-002 -4.47676750e-003 -1.70974601e-002
      -1.29869278e-003 -5.18580712e-003 1.89250074e-002 5.74122136e-003
      4.36210335e-004 6.44961931e-003 -1.45095296e-003 3.41433194e-003
      8.93868878e-003 1.57583151e-002 3.94474075e-004 4.32625646e-003
      8.96887202e-003 -5.04424097e-003 4.06289892e-003 1.92490015e-002
      -1.00928834e-002 1.66222139e-003 -5.96057577e-003 1.90250564e-003
      -9.56846774e-003 -6.79941382e-003 -7.19147222e-003 3.09926663e-002
      1.11601092e-002 2.62458362e-002 1.08042378e-002 -3.68254515e-003
      1.38234394e-003 6.49460126e-003 4.62763663e-003 -4.96812398e-003
      2.61509093e-003 -6.28695544e-003 7.28677399e-003 -2.49117520e-002
      -6.71796408e-003 -1.12759257e-002 9.66817699e-003 1.09052369e-002
      -3.94810177e-003 -1.75688546e-002 4.68640728e-003 2.47384086e-002
      9.49465483e-003 1.13299601e-002 3.19728232e-003 2.01244978e-003
      2.04716204e-003 -2.91877077e-003 6.01116801e-003 1.81131694e-003
      -2.73095202e-002 9.39879939e-003 1.09874015e-003 -2.01147096e-003
      -4.46365774e-003 1.42277488e-002 -3.60543234e-003 2.22307956e-003
      1.15946494e-002 -2.29898281e-003 1.46453585e-002 8.09728052e-004
      -1.97916720e-002 -2.20881980e-002 -1.22371530e-002
      -9.71370551e-004 3.18665849e-003 2.27407590e-002 -3.97631433e-003
      -4.17090952e-004 1.10122981e-002 -1.92442350e-002 1.28042856e-002
      5.18352911e-003 -5.10158658e-004 -4.44216747e-003 2.15619992e-004
      5.02448296e-003 6.96246047e-003 9.67676565e-003 -4.32624307e-004
      5.58575243e-003 -9.95943788e-003 -3.14514618e-003 2.10084906e-003
      -1.02048451e-002 -1.03353588e-002 -7.77287316e-003 1.63853392e-002
      1.71690699e-004 -1.58668831e-002 -1.73876819e-003 5.32952836e-003
      -9.42599401e-003 -1.46772736e-003 -3.07191932e-003 8.82574823e-003
      4.67332546e-003 -7.07040960e-003 2.60636886e-003 7.00383564e-004
      -1.54879214e-002 -1.75756682e-002 -2.70224595e-003 5.00459224e-003
      6.37342781e-003</_>
    <_>
      1.84381027e-002 1.11894570e-002 -4.49189171e-003 4.19736514e-003
      -4.16048756e-003 1.52554866e-002 1.36290714e-002 6.25518849e-003
      7.33322324e-003 1.62594691e-002 8.79449677e-003 -2.53314599e-002
      -1.23174274e-002 -8.77564773e-003 -1.21959718e-002 6.55690208e-003
      -7.38749886e-003 -9.26864240e-003 5.98741276e-003 -1.23856980e-002
      -1.55424979e-003 -3.76810692e-003 1.27406465e-002 -7.87000265e-003
      2.50417017e-003 9.95992962e-003 6.77727954e-003 4.81787603e-003
      2.01227106e-002 1.15326690e-002 2.05172482e-003 5.32763451e-003
      -3.98613559e-003 1.07796136e-002 6.27541123e-003 2.63516977e-003
      2.60724407e-003 -2.86793280e-002 5.40573755e-003 1.97180244e-003
      8.19591805e-004 2.57183868e-003 -3.41689563e-003 1.38306981e-002
      1.39003806e-002 -1.38794770e-003 -1.88204553e-002 2.70315376e-003
      -8.12194217e-003 4.92012070e-004 -4.73933015e-003 -1.45242410e-003
      1.82059477e-003 4.87294886e-003 -5.20383753e-003 -6.99955691e-003
      -5.82034001e-003 9.52648837e-003 -8.90389085e-003 -1.83836347e-003
      4.17020312e-003 1.72129460e-002 -3.40568717e-003 2.91892141e-003
      1.59048091e-003 -2.77894759e-003 -7.63871893e-003 -1.95357390e-002
      -8.60677380e-003 -1.79916713e-002 3.28864232e-002 -2.92990706e-003
      -1.65497288e-002 1.81254130e-002 1.93012413e-002 5.11714257e-003
      -8.73662625e-003 -3.20019288e-004 1.22023618e-003 7.25188805e-003
      1.03581799e-002 -8.19245260e-003 2.05949750e-002 -4.57853312e-003
      -1.98175572e-003 1.94443073e-002 -5.41880820e-003 4.88128141e-003
      -1.15802325e-002 -1.04562321e-003 1.19665975e-003 -3.69951176e-003
      3.16577288e-003 2.84510176e-003 -1.75294920e-003 -4.76209716e-005
      4.78167349e-004 -8.78302287e-003 7.93036353e-003 2.80398056e-002
      9.94266570e-003 -2.15670108e-004 -1.35906041e-002 1.10393052e-003
      1.74280554e-002 5.80502069e-003 -1.49324536e-003 1.17708687e-002
      8.29074439e-003 -1.64369661e-002 -3.37723846e-004 -6.29258575e-003
      3.22960690e-002 -2.55725672e-003 1.46728167e-002 7.10771140e-003
      3.22034233e-003 1.10905664e-002 2.11274829e-002 7.42695434e-003
      7.10029574e-003 -1.96048263e-002 -3.17257643e-003 -9.54861101e-003
      2.57193111e-002 -1.92295818e-004 -7.84085412e-003 2.47598793e-002
      2.44821329e-003 -1.19714234e-002 9.38769337e-003 -1.33902365e-002
      2.02985853e-003 -1.84081476e-002 6.39390061e-003 8.86094850e-003
      -1.43168354e-002 -3.68887722e-003 -2.89538386e-003 1.36163048e-002
      -1.51492693e-002 -4.04981757e-003 1.11285178e-003 2.70481664e-003
      -8.85572808e-004 -4.19983349e-004 2.98507069e-003 -5.15727559e-003
      3.80630547e-004 -2.18583317e-003 -1.70537445e-003 -3.93545767e-003
      -1.02700833e-002 -6.70833141e-003 -6.69413526e-003
      -1.74297486e-002 1.54892411e-002 -7.36551243e-004 -3.99949215e-003
      -5.72419912e-003 -1.03811389e-002 -6.00758707e-003
      -8.06349050e-003 1.09218759e-002 -4.47747484e-003 1.03653809e-002
      -1.44371169e-003 -9.48195157e-005 1.06550148e-002 1.82978401e-003
      1.21282577e-003 8.14841129e-003 1.09645389e-002 -9.63885989e-003
      -1.34870620e-003 -3.93547583e-003 9.02875699e-003 2.30384618e-003
      1.02261072e-002 -1.40756685e-002 1.27144922e-002 -1.22837937e-002
      1.37493461e-002 -1.52176106e-003 8.17243941e-003 -2.32934230e-003
      1.17050959e-002 -4.39241063e-003 -5.03965141e-003 -1.94847565e-002
      9.04035475e-003 -1.46832401e-002 -1.38451206e-003 9.38528962e-003
      -2.28667795e-003 6.44735387e-003 -1.49000557e-002 -3.63795483e-003
      6.78270403e-003 -7.80617399e-003 -2.01227535e-002 1.46258539e-002
      -1.77455265e-002 -1.40806912e-002 5.14758518e-004 1.17797479e-002
      -3.45789478e-003 8.11606366e-003 3.63969756e-003 1.50128193e-002
      1.20605240e-002 -9.84901655e-003 4.96401545e-003 2.42767902e-003
      8.11490137e-003 1.80091647e-005 -5.18012187e-003 8.34340695e-003
      -7.21492711e-003 6.24327548e-003 9.38103162e-003 5.01404004e-003
      -1.52085908e-002 1.91724263e-002 3.45585053e-003 -5.51836332e-003
      -7.59917079e-003 8.14642571e-003 -1.10223508e-002 1.09657124e-002
      7.91225769e-003 -3.06857680e-003 4.28080326e-003 1.47150087e-004
      2.50930386e-003 -4.99620975e-004 1.64545756e-002 5.64895989e-003
      -5.93600469e-003 -9.05804429e-003 7.53505388e-003 -1.34324038e-003
      -3.07595055e-003 5.20691043e-003 7.04742549e-003 -7.64494995e-003
      7.09528057e-003 4.66269394e-003 -7.31812371e-003 5.81813604e-003
      2.91788112e-003 -6.46751514e-003 4.39827237e-003 -8.44235532e-003
      2.16543267e-004 -9.73725226e-003 1.05971703e-002 -1.48779049e-003
      1.16966078e-002 -7.89095555e-003 -1.62328836e-002 7.29139009e-003
      1.53127443e-002 -1.54714775e-003 -8.47976655e-003 -7.55228149e-003
      -2.48578191e-003 2.45588226e-003 1.40661988e-002 -2.58288276e-003
      -2.03192737e-002 4.88778518e-004 -2.06072759e-002 -3.43468157e-003
      2.02112123e-002 -2.23399256e-003 -1.42818382e-002 -2.58970391e-002
      -1.77849317e-003 4.24832870e-005 -5.26991254e-003 1.69508178e-002
      3.61712358e-004 -7.60734780e-003 4.03789571e-003 -4.62549133e-003
      -2.57974751e-002 6.32913457e-003 -1.11771608e-002 5.23489574e-003
      5.94361406e-003 -1.15083978e-002 -6.05620723e-003 6.58209762e-003
      1.34456828e-002 -9.14105587e-003 6.72837952e-003 1.09899165e-002
      2.62447959e-003 2.27482198e-003 -2.29450656e-004 1.57358870e-002
      -4.86236392e-003 -8.87645129e-003 1.06329645e-003 1.55019065e-004
      3.75911384e-003 4.20636125e-003 3.32506211e-003 6.75748615e-003
      -4.73443605e-003 -3.63728474e-003 -7.74091925e-004
      -1.10718831e-002 1.35321869e-003 2.15903930e-002 6.72956184e-003
      1.13028595e-002 1.37471110e-002 -1.71424355e-002 1.16014108e-003
      -9.63559374e-003 2.39039538e-003 -1.99152119e-002 1.58428831e-003
      7.91982934e-003 -2.10053124e-003 8.16544704e-003 -7.56658672e-004
      -2.26086145e-003 3.74808232e-003 1.88904479e-002 -1.19655775e-002
      7.46773742e-003 8.70704930e-003 1.57941394e-002 1.12240324e-002
      4.89831204e-003 -7.90432561e-003 -2.72185425e-003 1.13335922e-002
      -1.08515602e-002 -1.75507776e-002 2.06264090e-002 -1.56147894e-003
      1.06440466e-002 -1.32712768e-003 4.47100773e-003 8.61179840e-004
      3.73058231e-003 -8.03279039e-003 -1.47445186e-003 1.26823131e-002
      -7.06522679e-003 1.53344581e-002 -8.57397390e-004 -4.58356040e-003
      1.30704949e-002 1.07580600e-002 3.41453101e-003 9.75942472e-004
      -1.09690381e-003 -9.59753897e-003 -1.62848998e-002 1.14897098e-002
      1.11994203e-002 5.91827882e-003 1.05364053e-002 2.50293466e-004
      4.72026318e-003 -2.38354085e-003 -2.17962801e-003 -6.86536124e-003
      1.71201825e-002 5.53542422e-003 -8.47449433e-003 4.34431201e-003
      -8.98406561e-003 3.14276363e-003 -3.37682385e-003 2.96179159e-003
      1.08215644e-003 -1.51846767e-003 -7.45725259e-003 -5.69117349e-003
      1.57002583e-002 6.61754096e-003 -6.37746090e-003 -2.01126523e-002
      4.63349279e-003 6.64518960e-003 -1.14649795e-002 -5.00297453e-003
      -7.35089241e-004 -1.02079222e-002 -9.55718011e-003
      -2.64059356e-003 7.57650193e-003 -1.16422621e-003 1.31896781e-002</_>
    <_>
      1.90292001e-002 1.51768094e-002 -6.42022642e-004 4.83447080e-003
      1.34792170e-002 1.23090781e-002 4.77743801e-003 3.98383709e-003
      -7.99657020e-004 -4.99641476e-003 6.22577639e-003 -3.51839291e-004
      -1.85278468e-002 -2.12932117e-002 -7.22878193e-003 9.94462054e-003
      -1.15555264e-002 -9.66191571e-003 1.33307735e-002 1.64861269e-002
      -3.68311582e-003 7.57153728e-004 -2.01767008e-003 2.37725046e-003
      -7.18094734e-003 1.33052643e-003 -1.59913546e-003 -8.53943825e-003
      1.12679573e-002 -8.93863756e-003 3.91264306e-003 -1.12018832e-004
      -1.77970578e-004 9.28417780e-003 -3.36723332e-003 -1.38526130e-002
      3.28865508e-003 -1.77535471e-002 -2.53658945e-004 7.12940190e-003
      2.07182602e-003 1.09895114e-002 -3.27029661e-003 5.34809940e-003
      9.94037092e-003 -8.90902523e-003 -8.78071971e-003 8.30166601e-003
      7.85981829e-004 -7.73799140e-003 1.34096947e-003 6.85533159e-004
      -2.25748662e-002 -1.77646719e-003 -4.61565377e-003 5.99546963e-003
      1.32537810e-002 4.02117847e-003 -1.24811465e-002 -1.95988221e-003
      -8.33850063e-004 8.87564849e-003 -1.50078833e-002 1.48423547e-002
      -5.57151670e-003 3.15527502e-003 -4.30501037e-004 -8.67905188e-003
      1.64152205e-003 -5.70928352e-003 3.35405767e-002 2.26913523e-002
      -1.94416544e-003 1.22017851e-002 4.56256699e-003 -1.78482747e-004
      -1.46817351e-002 6.06537610e-003 -1.10323867e-003 -9.51722730e-003
      -1.50722254e-003 -6.30163448e-003 -7.82774063e-004
      -2.34895473e-004 -9.33910348e-003 5.69365174e-003 6.69264514e-003
      8.87150690e-003 -9.23893321e-003 2.12353515e-003 -4.83684987e-003
      2.20996095e-003 -1.44980121e-002 -1.98651645e-002 -2.96194805e-003
      2.23984453e-003 -6.50800625e-003 1.66898407e-002 -3.84905632e-003
      2.75514703e-002 1.71823651e-002 -3.66970710e-003 -1.94131723e-003
      1.16050951e-002 1.67842675e-002 -1.07540656e-002 1.07706850e-002
      2.15384085e-003 -3.82009451e-003 -1.02889724e-002 2.96911504e-003
      -5.95310330e-003 2.35434957e-002 8.92868917e-003 8.22107028e-003
      1.80623084e-002 -6.35023788e-003 3.53365997e-003 1.18815526e-002
      -1.49536424e-003 1.46916006e-002 8.34430917e-004 9.78596509e-003
      9.87718813e-004 1.47239994e-002 -9.43728816e-003 1.15107894e-002
      -3.30283982e-003 -7.61797233e-003 -1.10766513e-003 1.28312139e-002
      -1.56420693e-002 -1.52995028e-002 -5.43736853e-003 1.47527596e-003
      1.80283673e-002 -4.06211056e-003 -1.63983963e-002 7.93395657e-003
      1.32191582e-002 -1.04863392e-002 -1.53308944e-003 -3.59473540e-003
      -4.27970663e-003 -7.73330312e-003 -8.60133022e-003 4.15177457e-003
      1.14218995e-003 1.13843195e-002 7.67268892e-003 -2.84967292e-003
      7.72323692e-003 -6.77000545e-003 1.42581027e-003 3.73920077e-004
      -2.46134121e-003 5.66187687e-003 3.64870508e-003 4.44284128e-003
      -4.74218687e-004 -3.80299706e-003 2.65332288e-003 -1.34800635e-002
      -1.64259803e-002 -3.98366526e-003 1.46528482e-002 -1.75223657e-004
      -1.44061241e-002 -5.91759942e-003 -1.15802232e-002 9.69722532e-006
      8.25793948e-003 1.11455740e-002 -2.15574721e-004 8.50312505e-003
      3.58208152e-003 1.09561011e-002 3.58584628e-004 1.60430465e-002
      -1.33610433e-002 3.26063088e-003 -8.02116375e-003 -8.99574719e-003
      3.55434255e-003 -2.15015258e-003 -1.57826636e-002 5.46738226e-003
      1.24495467e-002 1.04757855e-002 -8.57156515e-003 9.27664712e-003
      -1.23359039e-002 1.14112231e-003 1.48391654e-003 -4.80093062e-003
      -2.19677319e-003 1.69138405e-002 -7.54367514e-003 1.13025298e-002
      6.79787016e-003 -1.07484274e-002 2.37070005e-002 -3.15958285e-003
      -1.25092082e-002 8.90345138e-004 1.62176751e-002 1.76619575e-003
      -1.05525339e-002 1.46650150e-002 -4.50832210e-003 8.41179118e-003
      -2.81707197e-003 1.62979327e-002 6.24645920e-003 -5.83898276e-003
      3.77815240e-003 4.14998317e-003 -7.70612713e-003 -7.56112440e-003
      -1.85441319e-003 -9.32594703e-004 -4.46586497e-003 7.72520667e-003
      8.96139815e-003 1.03046168e-002 5.89944841e-003 3.90140084e-003
      -3.07930954e-004 -1.34203527e-002 -1.07916084e-003 7.81220710e-003
      2.16098428e-002 9.89675801e-003 -1.17206806e-002 4.26782668e-003
      -2.22258791e-002 1.76493097e-002 -6.76875189e-003 2.30846088e-003
      1.23633360e-002 1.46252923e-002 -1.69283769e-003 1.30730739e-003
      -2.10635801e-004 1.68153073e-003 -7.38768978e-003 8.64116196e-003
      1.17747253e-002 -3.36248986e-003 1.48586128e-002 1.16547896e-003
      2.08566105e-003 3.25884763e-003 -1.10693639e-002 6.36234088e-003
      -4.22919821e-003 -7.49858143e-003 5.04213991e-003 1.14982417e-004
      -1.14398508e-003 -3.01554403e-003 7.92978425e-003 1.76377352e-002
      7.34224124e-003 2.60732672e-003 -9.20904218e-004 1.32580260e-002
      -4.94855735e-003 -9.97175695e-004 4.85000201e-003 -4.21510451e-003
      2.95121036e-003 -8.67776200e-003 1.12703145e-002 1.31047675e-002
      -5.79713983e-003 5.98967914e-003 -2.66215969e-002 3.45732755e-004
      3.96540016e-003 9.82346945e-004 3.35540879e-003 -1.75430905e-002
      -7.44811958e-003 -1.01206666e-002 -3.77684762e-003
      -1.39827458e-002 8.05280055e-004 1.14284884e-002 4.73883841e-003
      -1.22116571e-002 8.20464455e-003 -5.18774381e-003 6.16468256e-003
      2.16519483e-003 -2.04032240e-003 -1.53668569e-002 -3.65944486e-003
      1.27299642e-002 2.64421813e-002 -9.68614873e-003 -6.58597751e-003
      -1.32979108e-002 6.83800643e-003 -1.10148452e-003 -1.29128108e-003
      -1.15751068e-003 6.43247645e-003 7.63630401e-003 8.66108388e-003
      1.28334749e-003 -9.38947219e-003 -7.83301704e-003 2.96151196e-003
      -6.56546885e-003 2.31900513e-002 1.04028620e-002 2.43852846e-002
      1.55148990e-002 1.90238021e-002 9.26791970e-003 -8.80989339e-003
      -3.12354206e-003 -8.32442101e-003 1.82280352e-003 -4.93518291e-006
      -7.91542698e-003 1.11665688e-002 3.66835971e-003 -7.89844152e-003
      -9.72749852e-003 1.39650460e-002 -1.15597276e-002 -1.09551912e-002
      5.91587566e-004 2.89817918e-002 1.09811518e-002 7.26324040e-003
      -4.52473434e-003 1.81870733e-003 8.56600702e-003 1.74376066e-003
      -8.61608796e-003 1.25866812e-002 -3.17173009e-003 9.78523772e-003
      4.59925458e-003 -9.72065236e-003 1.73534658e-002 1.40294284e-002
      6.04127208e-003 1.38933770e-002 9.47580859e-003 3.73520120e-003
      1.47475135e-002 4.19747597e-003 2.87241815e-003 2.81797256e-003
      5.86302427e-004 3.31797660e-003 -8.73441529e-003 1.46435974e-002
      -9.47288051e-003 -9.90930758e-003 1.11894438e-003 -1.21980049e-002
      8.41961242e-003 -1.01330178e-002 5.81482076e-004 5.34866005e-003
      -9.37743485e-003 2.26639137e-002 -7.17060082e-003 1.50268646e-002
      9.44065675e-003 -1.10424533e-002 7.82098097e-004 -6.17048657e-003
      -9.52337496e-003 6.47537084e-003 4.29054257e-003 -2.93880468e-003
      2.65346002e-003 5.56089729e-003 -2.21168883e-002 -1.39178811e-002
      9.27115325e-003 -9.23888350e-004 -1.10067399e-002 -1.81129482e-003
      1.95539854e-002 2.82561639e-003 2.09867209e-003 -6.30749576e-003
      -4.16969880e-003 -1.17324647e-002 8.32405966e-003 -1.01081636e-002
      -2.96721235e-003 1.90031121e-003</_>
    <_>
      2.17288081e-002 1.47079853e-002 -1.76830019e-003 -6.42119558e-005
      -4.29012440e-003 1.12062022e-002 4.18143580e-003 -1.29586915e-002
      9.45775863e-003 -1.19873579e-003 7.37669645e-003 -1.07782781e-002
      2.33193371e-003 -7.35062361e-003 -1.27295228e-002 1.24472165e-002
      -5.25133125e-003 -1.57902371e-002 9.87917092e-003 6.86457846e-003
      5.32173505e-003 -9.26167052e-003 5.70932776e-003 3.44479852e-003
      -1.86900422e-002 3.88706755e-003 6.58100005e-004 -6.66416250e-003
      -6.49516238e-003 -8.18471704e-003 -9.42587201e-003 6.02507207e-004
      -3.42893857e-003 -3.50249885e-003 -2.27525714e-003 1.41851706e-002
      -7.74063403e-003 -9.58538987e-003 -3.76538397e-003 1.39236478e-002
      -2.60573433e-004 1.00144241e-002 -7.45644560e-003 -5.17600030e-003
      1.77426578e-003 -4.17370209e-003 7.23040337e-003 -8.10517184e-003
      -2.31902394e-003 -1.88781007e-003 -2.78152316e-003
      -2.65328097e-003 6.03351463e-003 1.68038681e-002 8.81807320e-003
      -1.43846162e-004 6.47210423e-003 8.85107741e-003 9.68673453e-003
      -4.69166227e-003 6.98019983e-003 1.68616995e-002 -3.05585470e-003
      1.23055857e-002 4.19180654e-003 -6.06416445e-003 7.47731188e-003
      -1.37452250e-002 -2.37657991e-003 -7.14110269e-004 2.46126987e-002
      9.67993401e-003 -1.00471685e-002 5.87325776e-003 1.07378680e-002
      -1.11828269e-002 -4.62703547e-003 -8.05055723e-003 3.22128581e-005
      -1.01575218e-002 1.30339060e-003 4.50669834e-003 3.10749444e-003
      4.46597161e-003 -9.90649313e-003 -1.32391741e-003 2.76262942e-003
      3.47467302e-003 -6.93229167e-003 4.86946665e-003 -3.76325077e-003
      5.24410629e-004 -9.50903073e-003 -9.23365448e-003 -1.10564362e-002
      9.31212772e-003 5.43458969e-004 -4.80887014e-003 6.16651867e-003
      1.90744586e-002 4.59428877e-003 -7.21944030e-003 -1.17061092e-002
      -4.10546607e-004 2.40292726e-003 -2.82236212e-003 1.47106836e-003
      -2.25216220e-003 -1.03649469e-002 9.22496911e-005 2.78653763e-003
      -5.92638925e-003 5.08303242e-003 7.76287401e-003 -2.61593121e-003
      1.24284420e-002 7.65741384e-003 1.58826541e-002 1.15118707e-002
      4.17501759e-003 1.09613491e-002 3.03958380e-003 6.06420857e-004
      1.05243060e-003 2.44716927e-002 -2.65321508e-003 1.06873231e-004
      8.56686383e-004 -2.29315017e-003 1.57314201e-003 2.00340641e-003
      9.84686427e-004 -9.66284145e-003 -5.49249770e-003 -3.02360440e-003
      1.86038855e-002 -4.97259153e-003 -4.44400962e-003 -1.26642948e-002
      7.36078946e-003 -8.01097602e-003 -1.93262901e-002 5.94044710e-003
      -7.76421372e-003 1.33053586e-002 3.69040272e-003 1.67054627e-002
      5.46707120e-003 3.15676443e-003 -2.08815886e-003 7.09550502e-003
      2.95009976e-003 -5.61810425e-003 3.26281041e-003 4.91298742e-005
      -4.64275666e-003 -2.09765881e-003 9.27425397e-004 -2.14368701e-002
      -3.15439585e-003 -1.79941524e-002 2.94975634e-003 -2.22296966e-003
      -4.47302964e-003 -1.11658303e-002 -1.95340486e-003
      -3.53454379e-003 -1.32332873e-002 -7.34518003e-003
      -4.13500052e-003 7.25305080e-003 -1.69427739e-003 -6.67768763e-005
      -9.95554868e-003 -7.19197327e-003 5.01351757e-003 -4.08460479e-003
      9.17629246e-003 3.10052000e-003 -6.52959431e-003 -1.70008687e-003
      -1.03954142e-002 1.53000671e-002 7.10601686e-003 -4.95443121e-003
      -1.33367060e-002 1.43223174e-003 -1.75693387e-003 6.66781235e-003
      -1.77057870e-002 1.84793249e-002 -6.75699953e-003 5.66976378e-003
      1.95524506e-002 7.42339157e-003 -6.56017708e-003 -2.06262479e-003
      -3.74835305e-004 4.20505134e-003 -3.11213604e-004 -1.13805979e-002
      1.60527360e-002 1.06850418e-003 -1.31665366e-002 -1.14674745e-002
      1.10578276e-002 -1.44059560e-003 -7.15849083e-003 1.41655449e-002
      -4.89823334e-003 1.31447287e-002 -1.66226495e-002 1.29099889e-002
      -7.95519538e-003 3.29646422e-003 -1.06507866e-003 1.62780136e-002
      2.73963436e-003 -8.44867341e-003 6.62931800e-003 -7.36871781e-003
      -1.11180975e-003 -3.16355564e-003 1.32069727e-002 -4.95308591e-003
      -3.84415034e-003 1.45883858e-002 -7.76825147e-003 -3.15979100e-003
      7.12495111e-003 1.68034190e-003 -1.04989996e-003 -4.35758196e-003
      8.06033844e-004 2.15915078e-003 -5.74765960e-003 7.13296747e-003
      5.76343015e-003 1.01548759e-002 2.09517637e-003 9.62506700e-003
      5.92085940e-004 -1.38987228e-002 -9.61601827e-003 2.65886029e-003
      -6.50072517e-003 2.03850009e-002 -6.34667277e-003 -5.56402933e-003
      -3.71845509e-003 6.74046110e-003 -5.03393216e-003 1.37717871e-003
      -6.23912271e-003 -3.79807316e-004 -8.97401292e-003
      -3.61045660e-003 8.77562724e-003 9.97576211e-003 -1.74229077e-004
      -4.35018633e-003 -1.67932063e-002 1.17625492e-002 3.39430757e-003
      4.87161288e-003 -1.47009920e-002 -2.47651362e-003 -4.07543359e-003
      6.12852722e-003 -2.01852221e-004 8.99560843e-003 9.96461231e-003
      -8.15761089e-003 -6.20253850e-003 1.22487312e-002 5.73544312e-005
      1.36291294e-003 5.16885100e-003 5.80336712e-003 -5.16181765e-003
      7.70168379e-003 -6.82713324e-003 -4.51212330e-003 7.03986851e-004
      4.34229709e-003 -2.27426598e-003 -2.06383057e-002 -1.26776155e-002
      9.70819313e-003 -3.07110976e-003 -7.03612156e-003 -1.33165894e-002
      -7.38968328e-003 -2.99780304e-003 6.64716447e-003 -1.04110977e-002
      1.66071032e-003 2.94597587e-003 -9.73855378e-004 3.15760053e-003
      -9.89188440e-003 -1.06932512e-002 4.60776559e-004 1.81721430e-003
      2.62910570e-003 -9.56989825e-004 -1.23443361e-002 8.36543180e-003
      4.39415127e-003 1.25960466e-002 2.92976480e-003 -1.80351771e-002
      -4.67560836e-004 6.27627247e-004 -1.99854025e-003 1.17116645e-002
      6.96023228e-003 2.58441288e-002 1.85293751e-003 5.99446893e-003
      6.10923441e-003 3.06217885e-003 -6.71636639e-003 -1.41628599e-003
      -1.29863350e-002 -3.48818325e-003 -9.46586544e-004 1.51610118e-003
      -7.65327550e-003 4.59098164e-003 -9.38490313e-003 7.28798145e-003
      -3.38562555e-003 -1.21533347e-003 2.77619390e-003 1.30899334e-002
      -1.66543774e-004 -9.19189071e-004 1.44909834e-002 -9.57424659e-003
      1.44314002e-002 -5.32317068e-003 -1.20718600e-002 6.65346952e-003
      -1.67815275e-002 9.95886885e-003 -3.00833024e-003 -1.69239659e-003
      5.68060810e-003 1.30452421e-002 -3.26388353e-003 -5.48730325e-003
      1.12791853e-002 -1.28519032e-002 1.03078028e-002 -1.28305645e-003
      5.81244146e-003 1.16096586e-002 -1.91306882e-003 1.25460578e-002
      2.28831288e-003 9.12105478e-003 -1.35759544e-003 -1.25186201e-002
      1.22054480e-002 1.53592177e-004 -4.16705059e-003 -2.11434928e-003
      -2.21085409e-003 9.27244034e-003 -2.06227903e-003 -1.82626639e-002
      -1.67654455e-002 1.36118298e-002 1.31295156e-002 -9.80904698e-003
      -8.40353823e-005 -4.81884414e-003 8.56230594e-003 -1.47655071e-003
      -1.56550598e-003 -2.11001914e-002 4.75670258e-003 5.25530800e-003
      1.33076701e-002 2.61580897e-003 7.78551074e-003 5.97780384e-003
      -1.17226746e-002 -2.13304581e-003 3.45319067e-003 -1.32632174e-003
      7.59561872e-003 -1.14115258e-003 -9.02592484e-003 2.54487828e-003
      -2.25474266e-003 -1.28769607e-003 -1.04550866e-003 1.07006589e-002</_>
    <_>
      1.46459518e-002 5.57846436e-003 2.95631937e-003 1.88906107e-003
      -1.36620703e-003 3.40420660e-003 -1.80658849e-003 1.84653408e-003
      2.80896295e-003 2.62977765e-003 2.43237373e-004 -3.98085825e-003
      -8.77952576e-003 -8.59783404e-003 -2.46403646e-003 1.43063953e-002
      -7.02915760e-003 -2.01765634e-003 1.34001195e-004 4.99217818e-003
      1.55802658e-002 -8.75231251e-003 9.03721782e-004 2.34124926e-003
      -3.41027556e-003 -4.66750469e-003 2.29487981e-004 2.22845841e-003
      8.04796815e-003 7.73117738e-003 -1.26498507e-003 2.33180099e-003
      -1.08544212e-002 -8.45988921e-004 -1.30466989e-003
      -1.99696962e-002 7.44266249e-003 -1.65352598e-002 7.87822716e-003
      1.17568644e-002 -1.67337118e-003 7.88389333e-003 -9.32613760e-003
      7.34541053e-003 -3.75958625e-003 1.59490481e-003 -9.98085644e-003
      -9.60055448e-004 6.41019922e-003 -8.73893034e-003 1.19346296e-002
      -2.95543671e-003 -1.33936703e-002 7.12645147e-003 1.84765644e-003
      -2.46479432e-003 1.14675164e-002 -2.24983924e-005 6.79510471e-004
      -1.53742461e-002 7.46709481e-003 4.92224190e-003 -9.71787702e-003
      -1.12962453e-002 -2.30949977e-003 -1.67117210e-003 1.15498593e-002
      8.61933082e-003 -5.85629325e-003 3.23605747e-003 1.81973893e-002
      4.94412705e-003 -1.38338399e-003 2.09550541e-002 1.56523325e-002
      1.53201316e-002 -4.79383208e-003 2.52947025e-003 5.94189670e-003
      1.04706166e-002 1.90333668e-002 -1.82057731e-003 1.49587821e-002
      1.32015897e-002 -2.46681413e-003 -6.34970516e-003 8.18800356e-004
      9.01961140e-003 3.48823657e-003 8.68589990e-003 5.01625426e-003
      4.44340892e-003 -3.79639305e-003 3.30212992e-003 -9.07594990e-003
      -1.32221624e-003 7.74244405e-003 2.90142489e-003 7.62930280e-003
      2.75006741e-002 9.07796063e-003 7.10213231e-003 -9.67694167e-003
      3.64897144e-003 2.55977362e-003 -6.84759859e-003 1.11926310e-002
      1.24081504e-003 5.50591759e-003 -1.83785446e-002 8.59494414e-003
      1.44840330e-002 1.30639197e-002 1.37109542e-003 1.23646744e-002
      4.53057466e-003 6.72832364e-003 1.23236552e-002 2.88439030e-003
      2.53705750e-003 1.40445130e-002 3.00993025e-003 4.76933346e-004
      -6.21971907e-004 8.69221613e-003 2.20704824e-003 8.80093873e-003
      5.51711419e-004 6.39169198e-003 7.47675367e-004 -4.30096698e-004
      5.14475396e-003 -5.12332981e-003 -4.60390327e-003 6.33449468e-004
      4.64679440e-003 -1.07415197e-002 -2.10026046e-003 4.51288605e-003
      1.70759987e-002 -1.14916554e-002 2.76695611e-003 -5.93630783e-003
      -7.25927064e-003 -1.66121628e-002 -7.17319082e-003 4.86772973e-004
      -1.35589484e-003 4.49927710e-003 8.01873335e-004 2.14469596e-003
      -5.81316976e-003 -8.99303053e-003 6.74470374e-003 -4.57526604e-003
      -1.13971531e-002 -1.21308407e-002 5.77880535e-003 3.97811597e-003
      1.65416754e-003 -1.80404447e-003 6.41477900e-003 -3.88604007e-003
      -5.10759826e-004 1.81245897e-003 6.30112924e-003 -8.33884627e-003
      7.60975946e-003 2.42040586e-003 8.46506376e-003 3.92759778e-003
      -8.58576316e-003 1.18061695e-002 9.00189742e-004 -1.32134603e-003
      -4.01774980e-003 -5.31904586e-003 -7.92581122e-003 1.10775558e-002
      -6.34990865e-003 1.16170393e-002 -6.49294117e-003 4.19074250e-003
      7.03718606e-003 8.29222612e-003 -1.44016623e-004 9.75448173e-003
      7.63081620e-003 -2.32833624e-003 -6.32276665e-003 -3.45334003e-004
      2.07807147e-003 -9.04913060e-004 -4.61089285e-003 -1.07023260e-002
      -3.98315629e-003 6.67643035e-003 -2.21880199e-003 -3.31322488e-004
      7.97585963e-005 1.31484692e-003 1.37856277e-002 2.79369624e-003
      -6.12681080e-003 8.62302072e-003 1.55751184e-002 -3.81722464e-003
      1.62175344e-003 1.34250484e-002 3.69122461e-003 1.11062229e-002
      -8.22986569e-003 -2.11326274e-004 1.65264495e-003 -2.69848970e-003
      -7.16345035e-004 6.10095309e-003 -8.25274363e-003 -4.44715004e-003
      6.50258129e-003 -2.39378330e-003 -9.52077657e-003 -2.59428262e-003
      1.20238448e-002 1.03049558e-002 5.48158167e-003 4.48512891e-003
      2.95962417e-003 4.55225678e-003 1.19506251e-002 -4.89808270e-004
      1.58808120e-002 1.06236283e-002 9.47039574e-003 3.85497278e-003
      -8.63673122e-005 2.82975961e-003 5.49407850e-004 -6.22578850e-003
      8.99340864e-003 6.82822615e-003 3.34404805e-003 -4.52383567e-004
      -2.43861624e-003 -3.07948911e-003 -9.14095435e-003 1.03049176e-002
      1.52604440e-002 6.54860924e-004 -1.00256717e-002 -3.82687105e-003
      -6.23333035e-003 2.20541307e-003 -4.89806617e-003 3.04520712e-003
      -7.35737151e-003 -2.96172529e-005 9.85135511e-003 4.91096266e-003
      -1.33667197e-002 9.42372717e-003 5.07848989e-003 1.24709494e-002
      4.91281925e-003 -1.38763431e-003 2.43330165e-003 4.53111529e-003
      -1.20292138e-002 -4.93121846e-003 2.36065872e-003 -9.01196338e-003
      1.03097607e-003 2.08263766e-004 -1.80643648e-002 5.40970732e-003
      1.04721601e-003 -5.07336401e-004 -2.27490384e-002 -2.01577470e-002
      8.11322685e-003 -6.72092615e-003 3.99572589e-003 6.81457017e-003
      -2.54748133e-003 -8.34746659e-003 5.66052645e-003 -6.95137773e-003
      -1.47207463e-002 -1.55417563e-003 9.08356196e-006 1.09853372e-002
      -1.13322970e-003 -3.33582354e-003 2.75415415e-003 1.58428457e-002
      2.71696458e-003 9.33548156e-003 -3.88484239e-003 4.96310554e-003
      1.09368013e-002 6.99048303e-003 6.03941130e-003 -9.80447978e-003
      -2.64720106e-003 -1.57345424e-003 5.97862387e-003 -3.25994915e-003
      2.29230709e-003 4.01171530e-003 1.43861435e-002 -1.19157797e-002
      -4.69009345e-003 -3.37434746e-003 -1.98540883e-003
      -7.90582225e-003 2.80470587e-002 5.32537187e-003 6.55275595e-004
      1.21203465e-002 8.92151520e-003 4.06819396e-003 -1.32046379e-002
      -6.25797408e-003 1.11833808e-003 -8.11941177e-003 1.73060293e-003
      -4.63547651e-003 5.71976788e-003 -4.89985058e-003 -5.08764619e-003
      4.04375372e-004 1.52404478e-003 -2.37791869e-003 -7.41172349e-003
      -6.29004266e-004 1.81451328e-002 2.43094005e-003 1.20490128e-002
      5.43662813e-003 1.55044766e-003 5.28478588e-004 -7.70802260e-004
      -7.59759312e-003 2.12306790e-002 -3.26850731e-003 3.55607248e-003
      -4.63147741e-003 -9.28808819e-004 7.95822532e-004 1.18585927e-002
      1.61147967e-003 1.25104364e-003 -3.76210967e-003 5.67966839e-003
      -4.12127352e-004 -1.05918422e-002 -3.36230104e-003 6.86807884e-003
      -5.63595444e-003 6.30117208e-003 -5.47951134e-003 2.15402450e-002
      -1.46072069e-002 -8.98047443e-003 6.26348797e-003 1.65945536e-003
      1.70482392e-003 1.60527800e-003 -1.20057054e-002 5.66841010e-003
      2.50607077e-003 8.20644293e-003 2.63600494e-003 4.11341852e-003
      -6.56984420e-003 -6.37689047e-003 7.63329305e-003 -3.08174430e-003
      1.01784142e-002 -4.66161920e-003 5.08106872e-003 2.55699223e-003
      6.82849623e-003 2.57178443e-003 -5.65410417e-004 5.83253277e-004
      1.85233168e-003 2.97916355e-003 -4.31795232e-003 -9.27882176e-003
      7.93757010e-003 -3.64966145e-005 3.17126140e-003 8.97501223e-003
      -3.82076134e-003 -5.58361411e-003 -4.58446704e-003
      -1.14141889e-002 7.90597498e-003 6.53197058e-003</_>
    <_>
      1.57037377e-002 1.99046060e-002 6.89438079e-003 3.82658001e-003
      -2.38181241e-002 1.27734877e-002 1.54492608e-003 -3.22643411e-003
      5.66250412e-003 2.19588168e-003 -3.16412840e-003 2.63469499e-002
      -2.99674906e-002 -2.43753940e-003 -1.68507062e-002 1.30129065e-002
      -3.10571748e-003 -1.29840663e-002 -5.13382629e-003 4.13451251e-003
      1.95573326e-002 -2.52573844e-003 1.73114403e-003 1.22154243e-002
      -1.34307211e-002 -7.83100910e-003 1.55731821e-002 7.07675004e-003
      -1.37413424e-002 -7.66063808e-003 -3.06700764e-004 7.32651958e-003
      -2.56526261e-003 -9.17136203e-003 -2.22878288e-002 1.59693677e-002
      8.44114926e-003 -1.66946109e-002 1.27479602e-002 -1.85456546e-003
      -2.11678585e-003 4.83924104e-003 1.27103925e-003 1.52519939e-003
      -1.22845965e-003 -9.16128885e-003 -2.35530883e-002 1.23242766e-003
      -2.51335581e-003 -1.48354657e-002 2.16109566e-002 -1.95707311e-003
      -9.55549942e-004 1.78886615e-002 3.73647758e-003 6.21360354e-003
      7.51585030e-005 3.17513496e-002 1.62244234e-002 -2.23246496e-002
      -9.75444098e-004 2.93322634e-002 -1.25003299e-002 3.01968604e-002
      1.80923007e-002 -2.28753872e-002 5.95724559e-004 -1.05618723e-002
      -1.88056510e-002 -2.45400202e-002 2.69480646e-002 -2.33136886e-003
      2.94128223e-003 -1.10338884e-003 2.53705848e-002 7.59116421e-003
      -1.26419691e-002 1.19438721e-003 1.69347264e-002 -1.16055906e-002
      1.55227324e-002 -1.82094369e-002 -5.94148552e-003 1.14397379e-002
      -1.61300637e-002 1.14161230e-003 1.30092464e-002 6.60291314e-003
      -5.66293951e-003 1.07619325e-002 1.93995759e-002 -4.91883466e-003
      -1.70588159e-004 -1.04238046e-002 -4.31776047e-003 2.97376723e-003
      -1.38687408e-002 1.43136429e-002 1.40561815e-002 3.18166502e-002
      5.05918451e-003 -8.08873121e-003 -1.54620912e-002 7.58648559e-004
      3.23826373e-002 -7.65743665e-003 9.82790720e-003 9.36970394e-003
      -1.78348962e-002 -1.41848112e-002 2.87449779e-003 -5.46885305e-004
      1.53513178e-002 -1.28147677e-002 -1.86410651e-003 7.48597831e-003
      2.01971214e-002 -1.57456174e-002 2.54964400e-002 4.91705304e-003
      2.17506215e-002 1.08103715e-002 -7.78447930e-003 6.12331927e-003
      2.77575245e-003 -2.10108105e-002 -1.42986597e-002 8.75145663e-003
      -1.00222565e-002 -6.11496065e-003 -1.67140290e-002
      -1.29184425e-002 3.34312767e-003 -2.84284493e-003 -4.27275244e-003
      9.77443717e-003 -2.14278549e-002 -1.06686205e-002 4.16652439e-003
      7.28211179e-003 -2.14530863e-002 -1.48960697e-002 -2.41748746e-002
      -1.00541534e-002 2.81442776e-002 -1.87839177e-002 5.90428105e-003
      -3.10086808e-003 3.27837188e-003 -1.11432383e-002 6.75512198e-003
      7.99690094e-003 -2.26013120e-002 8.39665625e-003 1.59663875e-002
      -1.47846751e-002 1.44971060e-002 1.07644685e-002 -6.49547204e-003
      5.12337219e-003 -9.19332542e-003 6.15972700e-003 -7.46251270e-003
      -1.69251412e-002 -1.27756577e-002 1.22477878e-002 -5.66503126e-003
      -1.64377149e-002 -8.38009641e-003 7.79754110e-003 -2.70330464e-003
      4.99115186e-003 1.09671587e-002 -4.83611785e-003 1.48145866e-003
      2.58011464e-002 -1.26421293e-002 7.06628477e-003 1.95413805e-003
      -1.81144103e-003 -9.21560824e-003 5.92007861e-003 -3.88054352e-004
      -2.11184751e-002 -3.30546260e-004 -3.76177160e-003 1.43479789e-002
      -1.10472087e-002 7.93598592e-003 -8.11174139e-003 3.30503704e-003
      5.28352382e-003 -2.08934154e-002 -8.27851333e-003 -7.15348520e-004
      -1.63438711e-002 -1.83198485e-003 -3.55464709e-003 4.84361313e-003
      1.81672547e-003 -2.21764613e-002 1.25114154e-002 -1.59858633e-002
      -1.91868264e-002 -6.54703705e-003 2.60828473e-002 -1.37134257e-003
      -1.12063475e-002 -2.89230961e-002 -3.96346767e-003 1.82175692e-002
      -8.79364368e-003 8.36222339e-003 -6.87715970e-003 -3.97530897e-003
      5.97970327e-003 5.10255527e-003 -1.88445940e-003 -6.66004233e-003
      1.16828047e-002 -1.01671517e-002 -9.22858994e-003 5.37060713e-003
      1.14839254e-002 1.21433306e-002 -1.14922263e-002 7.90087599e-003
      5.49374474e-003 -6.55508228e-003 1.94013100e-002 -5.43346687e-004
      -3.10216043e-002 2.36704163e-002 3.59736010e-003 7.63907889e-003
      -1.18349036e-002 1.53976139e-002 -5.30886697e-003 -4.94529074e-003
      1.11672347e-002 2.36338563e-003 -9.33390390e-003 8.48948117e-003
      -9.82431346e-004 1.46408193e-002 -1.93525888e-002 2.80853342e-002
      -2.11995319e-002 -4.75419918e-003 1.65388137e-002 -5.77364815e-003
      4.09533561e-004 2.11635907e-003 -5.54349506e-003 2.00584391e-003
      -3.68746486e-003 -1.16395513e-002 -7.25657865e-003 2.70538405e-002
      -1.30847832e-002 7.93774519e-003 -8.88916384e-003 2.70299464e-002
      -5.47447568e-003 -1.79196931e-002 2.82283663e-003 -3.58580169e-003
      -7.76272849e-004 1.50574734e-002 -4.41628695e-003 -7.38501595e-003
      -1.57594099e-003 -1.48527566e-002 1.97575167e-002 -1.64516223e-005
      -2.03634892e-003 2.18165107e-002 -2.32767966e-002 -3.70417200e-002
      2.02280190e-002 1.59721728e-002 -1.16291512e-002 2.50542187e-003
      1.22687928e-002 -9.09770373e-003 7.85607472e-003 -2.62255967e-002
      -1.18065663e-002 -2.70368718e-003 -3.14054498e-003 4.31987504e-003
      -2.47842688e-002 -4.74873325e-003 1.17015028e-002 -5.27333003e-003
      -1.66388974e-002 2.77045695e-003 -8.49050283e-003 3.85652616e-004
      9.56081378e-004 -8.62434693e-003 -1.35081308e-002 -1.75549462e-002
      -7.86055438e-003 -5.79328509e-003 -7.92548433e-003
      -1.61210122e-003 1.56057356e-002 -4.40549664e-003 1.44545529e-002
      -1.45782884e-002 -1.79075114e-002 -2.51783920e-003
      -3.75946565e-003 -5.91117516e-003 1.51698152e-002 7.32892985e-003
      4.83724102e-002 1.10176764e-003 5.09783160e-003 -5.36690420e-003
      -2.67186500e-002 -5.29393926e-003 -2.41769664e-002
      -3.03636724e-003 2.80201947e-003 -1.37728043e-002 1.39481956e-002
      -6.01823954e-003 -1.43647380e-003 -3.98423383e-003 3.07068378e-002
      2.23991405e-002 -1.52440062e-002 1.99203496e-003 2.44486462e-002
      4.14493913e-003 -3.76855559e-003 1.21724466e-003 4.48181015e-003
      1.61529966e-002 2.75698025e-003 -5.64540830e-003 2.67456397e-002
      2.10186146e-004 3.69577669e-002 3.35166254e-003 -6.41042227e-003
      5.85319614e-003 -1.18510309e-003 9.08796210e-003 -7.39232346e-004
      -8.23550206e-003 1.25252791e-002 -6.27492089e-004 1.37630757e-002
      -8.69897660e-003 1.20607512e-002 -7.43244682e-003 8.19243863e-003
      -6.55030506e-003 1.09489076e-002 -2.26407927e-002 -7.13548576e-003
      2.37164199e-002 4.90935845e-003 -1.11404611e-002 -1.92143638e-002
      1.54767307e-002 7.91046710e-004 -1.54449493e-002 1.92473829e-003
      -1.55249087e-003 1.28648598e-002 9.53968149e-003 -2.02055499e-002
      -1.55979954e-002 9.64806788e-003 -4.29946510e-003 -1.20474333e-002
      -1.25568751e-002 -9.48172342e-003 9.47373826e-003 9.34638828e-003
      5.62792970e-003 -1.08553758e-002 1.29116764e-002 -1.55290477e-002
      -3.40394974e-002 -1.16073638e-002 -3.47615010e-003 2.87032430e-003
      2.82230647e-003 -1.02682421e-002 1.71694569e-002 1.07550870e-004
      -7.34460726e-003 -1.37090799e-003 7.22355628e-003 5.91736939e-003</_>
    <_>
      -1.27731515e-002 3.47578079e-002 -1.58504508e-002 -9.79721639e-003
      -6.34746533e-003 2.38632923e-003 -2.43223528e-003 1.09372679e-002
      -3.42775416e-003 -8.29196908e-003 -9.24690440e-003
      -2.01067477e-002 -7.60808028e-003 2.28436757e-003 -3.25652678e-003
      -3.22948839e-003 -7.33587472e-003 1.38247302e-002 -5.00714080e-003
      1.47587957e-003 -2.33749021e-002 4.91814362e-003 5.15375193e-003
      -1.47246020e-002 7.02592079e-003 -6.56455941e-003 -5.79953543e-004
      2.22404841e-002 1.78372636e-002 2.27403045e-002 1.10295545e-002
      -8.29940848e-003 7.76704913e-003 1.24814631e-002 9.01073799e-004
      8.37902818e-003 -3.66766681e-003 -1.25334850e-002 4.19812888e-004
      -3.00530903e-003 -2.03043893e-002 2.54912046e-003 -4.82674222e-003
      1.14120040e-002 8.23906716e-003 1.90422796e-002 -1.93625372e-002
      1.07825361e-002 2.58234679e-003 -3.58585943e-003 1.39348703e-002
      -1.89618804e-002 3.61078372e-003 6.18597865e-003 2.90298625e-003
      -2.01689154e-002 -3.03470399e-002 -4.08530049e-003 1.12509364e-002
      3.27095902e-003 6.61102775e-003 4.67765750e-003 -1.92293879e-002
      2.04323232e-002 -2.88771130e-002 -9.08198766e-003 -3.55197280e-003
      9.13066417e-003 -2.94263172e-003 -4.90264818e-002 2.14468385e-003
      -1.78831592e-002 6.46991748e-003 1.56332310e-002 -7.52679771e-004
      -7.80503731e-003 1.76769192e-003 -9.63982008e-003 -4.02764184e-003
      -2.32136599e-003 -1.08479271e-002 8.92526191e-003 1.33504979e-002
      -1.24256853e-002 -7.00579351e-003 7.03759119e-003 -4.26593050e-003
      -1.21864723e-002 -1.49850333e-002 -1.29701598e-002 5.00920694e-003
      -7.64533505e-003 9.62379109e-003 -1.66696534e-002 7.23277777e-003
      -2.64414921e-002 6.47135777e-003 -1.69149507e-002 2.21813750e-003
      -4.44923789e-004 8.47236067e-003 -2.72649061e-003 -6.66856766e-003
      -1.69136319e-002 8.60876404e-003 -2.74145440e-003 -1.49927959e-002
      1.10478774e-002 1.25730215e-002 -7.11408444e-003 9.94212274e-003
      -8.98751803e-003 1.46907466e-002 -1.94495879e-002 -4.67671361e-003
      1.17063546e-003 1.29726976e-002 -5.30560734e-003 1.14593031e-002
      9.49366391e-003 -6.89521991e-003 1.72681059e-003 1.73433204e-004
      -1.34668741e-002 8.13698675e-003 1.54772624e-002 -1.58210341e-002
      -9.36963625e-006 -7.27154256e-004 2.20972784e-002 2.00614948e-002
      -3.67973857e-002 8.46438948e-003 4.07479331e-003 -5.47827827e-003
      -4.47964016e-003 -1.47160552e-002 -1.40158655e-002
      -1.49527453e-002 -9.27628390e-003 -8.99215229e-003 1.28269773e-002
      2.73411497e-002 1.46923084e-002 -2.44364552e-002 4.23272373e-003
      8.60630441e-003 -1.44901844e-002 -1.04739713e-002 -4.07429470e-004
      3.04017938e-003 -8.35289154e-003 6.80364808e-003 -7.23148091e-003
      -2.91508157e-002 2.58267555e-005 1.53356288e-002 -1.20761171e-002
      8.04567337e-003 4.02052514e-003 3.44864093e-002 3.07281073e-002
      -2.09528990e-002 2.22706949e-004 1.66235063e-002 1.40582975e-002
      9.72288847e-003 -5.08764572e-003 2.79136319e-002 -4.71128710e-003
      -1.36143377e-003 3.16372402e-002 3.15474020e-003 -1.57046448e-002
      3.98964016e-003 -9.20856930e-003 -4.38443152e-003 1.77358035e-002
      1.17745751e-003 -1.52113326e-002 1.08264703e-002 -2.25438476e-002
      1.24292094e-002 -1.94455415e-003 -7.32076121e-003 7.64205214e-003
      -1.71971798e-003 -1.47490650e-002 -5.37439296e-003
      -3.02826036e-002 8.57819896e-003 -8.16907175e-003 -1.18022664e-002
      1.50923636e-002 -1.81587450e-002 7.07583781e-003 3.93265625e-003
      -2.08730623e-002 8.30845535e-003 -2.64906082e-002 -1.91299636e-002
      -5.13868267e-003 -1.86831616e-002 -3.49014141e-002 1.24618560e-002
      -1.13487858e-002 1.72450184e-003 6.61281450e-003 2.11317223e-002
      1.56640597e-002 -5.84288314e-003 -1.77403055e-002 -3.89149925e-003
      3.42069659e-003 2.24297922e-002 5.34910802e-003 -1.91053636e-002
      1.21628968e-002 2.24032527e-004 6.50407840e-003 7.27429811e-004
      1.08692311e-002 6.84317807e-003 1.39396442e-002 1.37760369e-002
      -3.19963247e-002 -1.81624778e-002 4.88790311e-003 -5.97356725e-003
      -2.43950356e-002 -8.48562270e-003 -1.87150296e-002 1.69969606e-003
      -9.31248069e-003 -1.10951103e-002 9.50983912e-003 -1.84679218e-002
      -7.71998381e-003 -1.35056282e-004 -1.19764237e-002
      -8.22623912e-003 1.17955729e-002 -9.23838001e-003 -4.44206223e-003
      -2.01592734e-003 -9.65622487e-004 -1.28154112e-002 5.66327525e-003
      4.19039931e-003 -6.54196180e-003 8.89426004e-003 3.12726269e-003
      9.56415758e-003 -3.07928491e-003 2.20810380e-002 1.41419666e-002
      -1.74852218e-002 3.26128025e-003 -1.77555275e-003 -2.46442650e-002
      -1.50295645e-002 2.09106435e-003 9.39031597e-003 1.37991020e-002
      -1.85230616e-002 -3.44190598e-002 6.08241605e-003 1.75520312e-002
      1.21439679e-003 7.01120403e-003 -3.69431190e-002 -1.52841536e-002
      -1.40907271e-002 -1.70603916e-002 -7.87927024e-003 3.02552391e-004
      -1.66155286e-002 7.44945370e-003 6.20912760e-003 -2.71556508e-002
      -7.10563501e-004 4.65610204e-003 1.15377111e-002 -6.75886730e-003
      1.31275933e-002 -1.07686901e-002 -1.25863077e-002 4.80459677e-003
      -2.03195754e-002 1.04098031e-002 -4.31974651e-003 -2.88696354e-003
      8.09645804e-004 -1.04455445e-002 1.99635066e-002 -2.47223582e-002
      1.68094691e-002 1.96503829e-002 -1.57932360e-002 1.81503464e-002
      -4.88585234e-003 -3.63255246e-003 -3.68298613e-003 7.96233676e-003
      -2.52021756e-003 -6.79727970e-003 4.89119859e-003 -1.79165378e-002
